FANN_FLO_2.1
num_layers=5
learning_rate=0.700000
connection_rate=1.000000
network_type=0
learning_momentum=0.000000
training_algorithm=2
train_error_function=0
train_stop_function=0
cascade_output_change_fraction=0.010000
quickprop_decay=-0.000100
quickprop_mu=1.750000
rprop_increase_factor=1.200000
rprop_decrease_factor=0.500000
rprop_delta_min=0.000000
rprop_delta_max=50.000000
rprop_delta_zero=0.100000
cascade_output_stagnation_epochs=12
cascade_candidate_change_fraction=0.010000
cascade_candidate_stagnation_epochs=12
cascade_max_out_epochs=150
cascade_min_out_epochs=50
cascade_max_cand_epochs=150
cascade_min_cand_epochs=50
cascade_num_candidate_groups=2
bit_fail_limit=3.49999994039535520000e-001
cascade_candidate_limit=1.00000000000000000000e+003
cascade_weight_multiplier=4.00000005960464480000e-001
cascade_activation_functions_count=10
cascade_activation_functions=3 5 7 8 10 11 14 15 16 17 
cascade_activation_steepnesses_count=4
cascade_activation_steepnesses=2.50000000000000000000e-001 5.00000000000000000000e-001 7.50000000000000000000e-001 1.00000000000000000000e+000 
layer_sizes=100 76 52 28 2 
scale_included=0
neurons (num_inputs, activation_function, activation_steepness)=(0, 0, 0.00000000000000000000e+000) (0, 0, 0.00000000000000000000e+000) (0, 0, 0.00000000000000000000e+000) (0, 0, 0.00000000000000000000e+000) (0, 0, 0.00000000000000000000e+000) (0, 0, 0.00000000000000000000e+000) (0, 0, 0.00000000000000000000e+000) (0, 0, 0.00000000000000000000e+000) (0, 0, 0.00000000000000000000e+000) (0, 0, 0.00000000000000000000e+000) (0, 0, 0.00000000000000000000e+000) (0, 0, 0.00000000000000000000e+000) (0, 0, 0.00000000000000000000e+000) (0, 0, 0.00000000000000000000e+000) (0, 0, 0.00000000000000000000e+000) (0, 0, 0.00000000000000000000e+000) (0, 0, 0.00000000000000000000e+000) (0, 0, 0.00000000000000000000e+000) (0, 0, 0.00000000000000000000e+000) (0, 0, 0.00000000000000000000e+000) (0, 0, 0.00000000000000000000e+000) (0, 0, 0.00000000000000000000e+000) (0, 0, 0.00000000000000000000e+000) (0, 0, 0.00000000000000000000e+000) (0, 0, 0.00000000000000000000e+000) (0, 0, 0.00000000000000000000e+000) (0, 0, 0.00000000000000000000e+000) (0, 0, 0.00000000000000000000e+000) (0, 0, 0.00000000000000000000e+000) (0, 0, 0.00000000000000000000e+000) (0, 0, 0.00000000000000000000e+000) (0, 0, 0.00000000000000000000e+000) (0, 0, 0.00000000000000000000e+000) (0, 0, 0.00000000000000000000e+000) (0, 0, 0.00000000000000000000e+000) (0, 0, 0.00000000000000000000e+000) (0, 0, 0.00000000000000000000e+000) (0, 0, 0.00000000000000000000e+000) (0, 0, 0.00000000000000000000e+000) (0, 0, 0.00000000000000000000e+000) (0, 0, 0.00000000000000000000e+000) (0, 0, 0.00000000000000000000e+000) (0, 0, 0.00000000000000000000e+000) (0, 0, 0.00000000000000000000e+000) (0, 0, 0.00000000000000000000e+000) (0, 0, 0.00000000000000000000e+000) (0, 0, 0.00000000000000000000e+000) (0, 0, 0.00000000000000000000e+000) (0, 0, 0.00000000000000000000e+000) (0, 0, 0.00000000000000000000e+000) (0, 0, 0.00000000000000000000e+000) (0, 0, 0.00000000000000000000e+000) (0, 0, 0.00000000000000000000e+000) (0, 0, 0.00000000000000000000e+000) (0, 0, 0.00000000000000000000e+000) (0, 0, 0.00000000000000000000e+000) (0, 0, 0.00000000000000000000e+000) (0, 0, 0.00000000000000000000e+000) (0, 0, 0.00000000000000000000e+000) (0, 0, 0.00000000000000000000e+000) (0, 0, 0.00000000000000000000e+000) (0, 0, 0.00000000000000000000e+000) (0, 0, 0.00000000000000000000e+000) (0, 0, 0.00000000000000000000e+000) (0, 0, 0.00000000000000000000e+000) (0, 0, 0.00000000000000000000e+000) (0, 0, 0.00000000000000000000e+000) (0, 0, 0.00000000000000000000e+000) (0, 0, 0.00000000000000000000e+000) (0, 0, 0.00000000000000000000e+000) (0, 0, 0.00000000000000000000e+000) (0, 0, 0.00000000000000000000e+000) (0, 0, 0.00000000000000000000e+000) (0, 0, 0.00000000000000000000e+000) (0, 0, 0.00000000000000000000e+000) (0, 0, 0.00000000000000000000e+000) (0, 0, 0.00000000000000000000e+000) (0, 0, 0.00000000000000000000e+000) (0, 0, 0.00000000000000000000e+000) (0, 0, 0.00000000000000000000e+000) (0, 0, 0.00000000000000000000e+000) (0, 0, 0.00000000000000000000e+000) (0, 0, 0.00000000000000000000e+000) (0, 0, 0.00000000000000000000e+000) (0, 0, 0.00000000000000000000e+000) (0, 0, 0.00000000000000000000e+000) (0, 0, 0.00000000000000000000e+000) (0, 0, 0.00000000000000000000e+000) (0, 0, 0.00000000000000000000e+000) (0, 0, 0.00000000000000000000e+000) (0, 0, 0.00000000000000000000e+000) (0, 0, 0.00000000000000000000e+000) (0, 0, 0.00000000000000000000e+000) (0, 0, 0.00000000000000000000e+000) (0, 0, 0.00000000000000000000e+000) (0, 0, 0.00000000000000000000e+000) (0, 0, 0.00000000000000000000e+000) (0, 0, 0.00000000000000000000e+000) (0, 0, 0.00000000000000000000e+000) (0, 0, 0.00000000000000000000e+000) (100, 13, 5.00000000000000000000e-001) (100, 13, 5.00000000000000000000e-001) (100, 13, 5.00000000000000000000e-001) (100, 13, 5.00000000000000000000e-001) (100, 13, 5.00000000000000000000e-001) (100, 13, 5.00000000000000000000e-001) (100, 13, 5.00000000000000000000e-001) (100, 13, 5.00000000000000000000e-001) (100, 13, 5.00000000000000000000e-001) (100, 13, 5.00000000000000000000e-001) (100, 13, 5.00000000000000000000e-001) (100, 13, 5.00000000000000000000e-001) (100, 13, 5.00000000000000000000e-001) (100, 13, 5.00000000000000000000e-001) (100, 13, 5.00000000000000000000e-001) (100, 13, 5.00000000000000000000e-001) (100, 13, 5.00000000000000000000e-001) (100, 13, 5.00000000000000000000e-001) (100, 13, 5.00000000000000000000e-001) (100, 13, 5.00000000000000000000e-001) (100, 13, 5.00000000000000000000e-001) (100, 13, 5.00000000000000000000e-001) (100, 13, 5.00000000000000000000e-001) (100, 13, 5.00000000000000000000e-001) (100, 13, 5.00000000000000000000e-001) (100, 13, 5.00000000000000000000e-001) (100, 13, 5.00000000000000000000e-001) (100, 13, 5.00000000000000000000e-001) (100, 13, 5.00000000000000000000e-001) (100, 13, 5.00000000000000000000e-001) (100, 13, 5.00000000000000000000e-001) (100, 13, 5.00000000000000000000e-001) (100, 13, 5.00000000000000000000e-001) (100, 13, 5.00000000000000000000e-001) (100, 13, 5.00000000000000000000e-001) (100, 13, 5.00000000000000000000e-001) (100, 13, 5.00000000000000000000e-001) (100, 13, 5.00000000000000000000e-001) (100, 13, 5.00000000000000000000e-001) (100, 13, 5.00000000000000000000e-001) (100, 13, 5.00000000000000000000e-001) (100, 13, 5.00000000000000000000e-001) (100, 13, 5.00000000000000000000e-001) (100, 13, 5.00000000000000000000e-001) (100, 13, 5.00000000000000000000e-001) (100, 13, 5.00000000000000000000e-001) (100, 13, 5.00000000000000000000e-001) (100, 13, 5.00000000000000000000e-001) (100, 13, 5.00000000000000000000e-001) (100, 13, 5.00000000000000000000e-001) (100, 13, 5.00000000000000000000e-001) (100, 13, 5.00000000000000000000e-001) (100, 13, 5.00000000000000000000e-001) (100, 13, 5.00000000000000000000e-001) (100, 13, 5.00000000000000000000e-001) (100, 13, 5.00000000000000000000e-001) (100, 13, 5.00000000000000000000e-001) (100, 13, 5.00000000000000000000e-001) (100, 13, 5.00000000000000000000e-001) (100, 13, 5.00000000000000000000e-001) (100, 13, 5.00000000000000000000e-001) (100, 13, 5.00000000000000000000e-001) (100, 13, 5.00000000000000000000e-001) (100, 13, 5.00000000000000000000e-001) (100, 13, 5.00000000000000000000e-001) (100, 13, 5.00000000000000000000e-001) (100, 13, 5.00000000000000000000e-001) (100, 13, 5.00000000000000000000e-001) (100, 13, 5.00000000000000000000e-001) (100, 13, 5.00000000000000000000e-001) (100, 13, 5.00000000000000000000e-001) (100, 13, 5.00000000000000000000e-001) (100, 13, 5.00000000000000000000e-001) (100, 13, 5.00000000000000000000e-001) (100, 13, 5.00000000000000000000e-001) (0, 13, 5.00000000000000000000e-001) (76, 13, 5.00000000000000000000e-001) (76, 13, 5.00000000000000000000e-001) (76, 13, 5.00000000000000000000e-001) (76, 13, 5.00000000000000000000e-001) (76, 13, 5.00000000000000000000e-001) (76, 13, 5.00000000000000000000e-001) (76, 13, 5.00000000000000000000e-001) (76, 13, 5.00000000000000000000e-001) (76, 13, 5.00000000000000000000e-001) (76, 13, 5.00000000000000000000e-001) (76, 13, 5.00000000000000000000e-001) (76, 13, 5.00000000000000000000e-001) (76, 13, 5.00000000000000000000e-001) (76, 13, 5.00000000000000000000e-001) (76, 13, 5.00000000000000000000e-001) (76, 13, 5.00000000000000000000e-001) (76, 13, 5.00000000000000000000e-001) (76, 13, 5.00000000000000000000e-001) (76, 13, 5.00000000000000000000e-001) (76, 13, 5.00000000000000000000e-001) (76, 13, 5.00000000000000000000e-001) (76, 13, 5.00000000000000000000e-001) (76, 13, 5.00000000000000000000e-001) (76, 13, 5.00000000000000000000e-001) (76, 13, 5.00000000000000000000e-001) (76, 13, 5.00000000000000000000e-001) (76, 13, 5.00000000000000000000e-001) (76, 13, 5.00000000000000000000e-001) (76, 13, 5.00000000000000000000e-001) (76, 13, 5.00000000000000000000e-001) (76, 13, 5.00000000000000000000e-001) (76, 13, 5.00000000000000000000e-001) (76, 13, 5.00000000000000000000e-001) (76, 13, 5.00000000000000000000e-001) (76, 13, 5.00000000000000000000e-001) (76, 13, 5.00000000000000000000e-001) (76, 13, 5.00000000000000000000e-001) (76, 13, 5.00000000000000000000e-001) (76, 13, 5.00000000000000000000e-001) (76, 13, 5.00000000000000000000e-001) (76, 13, 5.00000000000000000000e-001) (76, 13, 5.00000000000000000000e-001) (76, 13, 5.00000000000000000000e-001) (76, 13, 5.00000000000000000000e-001) (76, 13, 5.00000000000000000000e-001) (76, 13, 5.00000000000000000000e-001) (76, 13, 5.00000000000000000000e-001) (76, 13, 5.00000000000000000000e-001) (76, 13, 5.00000000000000000000e-001) (76, 13, 5.00000000000000000000e-001) (76, 13, 5.00000000000000000000e-001) (0, 13, 5.00000000000000000000e-001) (52, 13, 5.00000000000000000000e-001) (52, 13, 5.00000000000000000000e-001) (52, 13, 5.00000000000000000000e-001) (52, 13, 5.00000000000000000000e-001) (52, 13, 5.00000000000000000000e-001) (52, 13, 5.00000000000000000000e-001) (52, 13, 5.00000000000000000000e-001) (52, 13, 5.00000000000000000000e-001) (52, 13, 5.00000000000000000000e-001) (52, 13, 5.00000000000000000000e-001) (52, 13, 5.00000000000000000000e-001) (52, 13, 5.00000000000000000000e-001) (52, 13, 5.00000000000000000000e-001) (52, 13, 5.00000000000000000000e-001) (52, 13, 5.00000000000000000000e-001) (52, 13, 5.00000000000000000000e-001) (52, 13, 5.00000000000000000000e-001) (52, 13, 5.00000000000000000000e-001) (52, 13, 5.00000000000000000000e-001) (52, 13, 5.00000000000000000000e-001) (52, 13, 5.00000000000000000000e-001) (52, 13, 5.00000000000000000000e-001) (52, 13, 5.00000000000000000000e-001) (52, 13, 5.00000000000000000000e-001) (52, 13, 5.00000000000000000000e-001) (52, 13, 5.00000000000000000000e-001) (52, 13, 5.00000000000000000000e-001) (0, 13, 5.00000000000000000000e-001) (28, 6, 5.00000000000000000000e-001) (0, 6, 5.00000000000000000000e-001) 
connections (connected_to_neuron, weight)=(0, -5.28046264648437500000e+002) (1, 1.86929641723632810000e+002) (2, 5.72705554962158200000e+000) (3, 1.46608288574218750000e+003) (4, 8.06359436035156250000e+002) (5, 1.21065319824218750000e+003) (6, 1.47582031250000000000e+003) (7, 1.14784667968750000000e+003) (8, -1.69865631103515620000e+002) (9, -9.55468261718750000000e+002) (10, -6.52148254394531250000e+002) (11, -8.62521362304687500000e+002) (12, 3.04713592529296870000e+002) (13, 3.84046295166015620000e+002) (14, -3.43810424804687500000e+001) (15, -2.13650482177734370000e+002) (16, -7.90444641113281250000e+002) (17, -1.52501327514648440000e+002) (18, -6.09483520507812500000e+002) (19, -6.09572570800781250000e+002) (20, -1.13295202636718750000e+003) (21, -1.08627185058593750000e+003) (22, -9.92958129882812500000e+002) (23, -9.99698364257812500000e+002) (24, -1.49959802246093750000e+003) (25, -1.20050073242187500000e+003) (26, -1.32105322265625000000e+003) (27, 1.49334045410156250000e+003) (28, 1.49987756347656250000e+003) (29, 1.49926196289062500000e+003) (30, -1.48250634765625000000e+003) (31, -8.40741729736328130000e+001) (32, 7.23812789916992190000e+001) (33, -6.16006103515625000000e+002) (34, 1.04887245178222660000e+002) (35, -1.50000000000000000000e+003) (36, 1.03898364257812500000e+003) (37, 4.81929962158203130000e+002) (38, 1.49980383300781250000e+003) (39, 1.49363964843750000000e+003) (40, 1.49955554199218750000e+003) (41, 1.49217138671875000000e+003) (42, 1.49514440917968750000e+003) (43, 1.49450622558593750000e+003) (44, 1.49513085937500000000e+003) (45, 1.48152636718750000000e+003) (46, 1.48760974121093750000e+003) (47, -1.81263351440429690000e+001) (48, 1.47402343750000000000e+003) (49, -8.72335998535156250000e+002) (50, 5.98040283203125000000e+002) (51, -4.38944702148437500000e+002) (52, 4.32372833251953120000e+002) (53, 3.17619667053222660000e+001) (54, 5.55268615722656250000e+002) (55, -3.31600433349609370000e+002) (56, -1.44043664550781250000e+003) (57, -1.05036218261718750000e+003) (58, -4.63704795837402340000e+001) (59, 6.60680480957031250000e+002) (60, 8.96168334960937500000e+002) (61, 6.89514404296875000000e+002) (62, 4.49857910156250000000e+002) (63, 8.01240997314453120000e+001) (64, -1.02450512695312500000e+003) (65, -7.52278198242187500000e+002) (66, -1.45824816894531250000e+003) (67, -1.18797558593750000000e+003) (68, 1.75827682495117190000e+002) (69, 1.49997692871093750000e+003) (70, 1.49931311035156250000e+003) (71, -1.44882897949218750000e+003) (72, 2.44166198730468750000e+002) (73, 1.49775671386718750000e+003) (74, 1.49130139160156250000e+003) (75, 1.49857324218750000000e+003) (76, 1.49056591796875000000e+003) (77, 1.48252136230468750000e+003) (78, 1.48076599121093750000e+003) (79, 1.49032861328125000000e+003) (80, 1.49662719726562500000e+003) (81, 1.48168981933593750000e+003) (82, 1.43738964843750000000e+003) (83, -1.19754003906250000000e+003) (84, -2.94778656005859370000e+002) (85, 7.63621765136718750000e+002) (86, -4.97043914794921870000e+002) (87, -4.16251495361328120000e+002) (88, -6.31635742187500000000e+002) (89, -4.59390258789062500000e+002) (90, -7.54707397460937500000e+002) (91, -6.16755126953125000000e+002) (92, -7.19237487792968750000e+002) (93, -2.91688171386718750000e+002) (94, -6.19333435058593750000e+002) (95, -9.19073303222656250000e+002) (96, -1.47634045410156250000e+003) (97, -8.99253173828125000000e+002) (98, -6.57930068969726560000e+001) (99, 4.83713030815124510000e-001) (0, -5.28122863769531250000e+002) (1, 1.86319076538085940000e+002) (2, 2.09548068046569820000e+000) (3, 1.46608288574218750000e+003) (4, 7.40156555175781250000e+002) (5, 1.31377893066406250000e+003) (6, 1.47582031250000000000e+003) (7, 9.25295288085937500000e+002) (8, -3.74592651367187500000e+002) (9, -1.19865075683593750000e+003) (10, -9.34469787597656250000e+002) (11, -1.11030566406250000000e+003) (12, 2.91265991210937500000e+002) (13, 3.83230438232421870000e+002) (14, -1.09637954711914060000e+002) (15, -3.70238739013671870000e+002) (16, -1.41784509277343750000e+003) (17, -1.57787902832031250000e+002) (18, -6.16894958496093750000e+002) (19, -6.16432434082031250000e+002) (20, -1.13520605468750000000e+003) (21, -1.08624426269531250000e+003) (22, -9.93344970703125000000e+002) (23, -1.00019927978515620000e+003) (24, -1.49959802246093750000e+003) (25, -1.20043603515625000000e+003) (26, -3.99162994384765620000e+002) (27, 1.49334045410156250000e+003) (28, 1.49987756347656250000e+003) (29, 1.49926196289062500000e+003) (30, -1.47421313476562500000e+003) (31, -1.33730377197265620000e+002) (32, -6.50968503952026370000e+000) (33, -9.98995910644531250000e+002) (34, -2.87231018066406250000e+002) (35, -1.50000000000000000000e+003) (36, 6.58246826171875000000e+002) (37, 4.81555358886718750000e+002) (38, 1.49985205078125000000e+003) (39, 1.49366357421875000000e+003) (40, 1.49988806152343750000e+003) (41, 1.49250390625000000000e+003) (42, 1.49547692871093750000e+003) (43, 1.49464453125000000000e+003) (44, 1.49546337890625000000e+003) (45, 1.48153051757812500000e+003) (46, 1.48761389160156250000e+003) (47, -2.64208557128906250000e+002) (48, 1.47402343750000000000e+003) (49, -6.07604675292968750000e+002) (50, 8.58010314941406250000e+002) (51, -1.77242004394531250000e+002) (52, 3.96166992187500000000e+002) (53, 3.16770286560058590000e+001) (54, 5.50722717285156250000e+002) (55, -7.29782592773437500000e+002) (56, -1.44043664550781250000e+003) (57, -1.19349340820312500000e+003) (58, -2.36596725463867190000e+002) (59, 4.53413574218750000000e+002) (60, 5.19410644531250000000e+002) (61, 6.83909362792968750000e+002) (62, 4.44278381347656250000e+002) (63, 7.86623535156250000000e+001) (64, -1.02452819824218750000e+003) (65, -7.52200134277343750000e+002) (66, -1.45692736816406250000e+003) (67, -3.32726348876953120000e+002) (68, 9.15173278808593750000e+002) (69, 1.49997692871093750000e+003) (70, 1.49931311035156250000e+003) (71, -1.44882507324218750000e+003) (72, 2.44184310913085940000e+002) (73, 1.49673852539062500000e+003) (74, 1.48599084472656250000e+003) (75, 1.49860424804687500000e+003) (76, 1.49295214843750000000e+003) (77, 1.48824841308593750000e+003) (78, 1.48315222167968750000e+003) (79, 1.49112634277343750000e+003) (80, 1.49676550292968750000e+003) (81, 1.48174755859375000000e+003) (82, 1.43773486328125000000e+003) (83, -1.46449047851562500000e+003) (84, -7.79402221679687500000e+002) (85, 6.99791015625000000000e+002) (86, -4.96711456298828130000e+002) (87, -4.15453674316406250000e+002) (88, -6.31303283691406250000e+002) (89, -4.59057800292968750000e+002) (90, -7.54823669433593750000e+002) (91, -6.21696960449218750000e+002) (92, -7.19220336914062500000e+002) (93, -2.91671325683593750000e+002) (94, -6.18373229980468750000e+002) (95, -9.15550842285156250000e+002) (96, -1.47555407714843750000e+003) (97, -8.99253173828125000000e+002) (98, -6.51901016235351560000e+001) (99, -1.30280479788780210000e-002) (0, -5.28499328613281250000e+002) (1, 1.86081100463867190000e+002) (2, 1.85750579833984370000e+000) (3, 1.46608288574218750000e+003) (4, 5.70830505371093750000e+002) (5, 9.52415954589843750000e+002) (6, 1.47582031250000000000e+003) (7, 8.90364868164062500000e+002) (8, -3.85556182861328130000e+002) (9, -1.19865075683593750000e+003) (10, -9.35492858886718750000e+002) (11, -1.11476208496093750000e+003) (12, 2.91131652832031250000e+002) (13, 3.83196228027343750000e+002) (14, -1.09711959838867190000e+002) (15, -3.70416381835937500000e+002) (16, -1.41784509277343750000e+003) (17, -1.57861846923828120000e+002) (18, -6.17072631835937500000e+002) (19, -6.16858703613281250000e+002) (20, -1.13534753417968750000e+003) (21, -1.08630102539062500000e+003) (22, -9.93369506835937500000e+002) (23, -1.00026458740234370000e+003) (24, -1.49959802246093750000e+003) (25, -1.20053173828125000000e+003) (26, -1.07047424316406250000e+003) (27, 1.49334045410156250000e+003) (28, 1.49987756347656250000e+003) (29, 1.49926196289062500000e+003) (30, -1.48453125000000000000e+003) (31, -1.33935958862304690000e+002) (32, -7.08077192306518550000e+000) (33, -9.99566833496093750000e+002) (34, -2.87461791992187500000e+002) (35, -1.50000000000000000000e+003) (36, 6.57858520507812500000e+002) (37, 4.80741058349609370000e+002) (38, 1.49979321289062500000e+003) (39, 1.49363623046875000000e+003) (40, 1.49951037597656250000e+003) (41, 1.49212622070312500000e+003) (42, 1.49508410644531250000e+003) (43, 1.49448095703125000000e+003) (44, 1.49509729003906250000e+003) (45, 1.48152636718750000000e+003) (46, 1.48760949707031250000e+003) (47, -2.64156860351562500000e+002) (48, 1.47402343750000000000e+003) (49, -1.14929663085937500000e+003) (50, 3.45349945068359370000e+002) (51, -5.91138244628906250000e+002) (52, 3.87982604980468750000e+002) (53, 3.15974807739257810000e+001) (54, 5.50296447753906250000e+002) (55, -7.30072448730468750000e+002) (56, -1.44043664550781250000e+003) (57, -1.30168249511718750000e+003) (58, -2.82161865234375000000e+002) (59, 4.08334442138671870000e+002) (60, 5.08522918701171870000e+002) (61, 6.80620178222656250000e+002) (62, 4.40989135742187500000e+002) (63, 7.80913467407226560000e+001) (64, -1.02487768554687500000e+003) (65, -7.52356933593750000000e+002) (66, -1.45852893066406250000e+003) (67, -1.19730676269531250000e+003) (68, 1.00574020385742190000e+002) (69, 1.49997692871093750000e+003) (70, 1.49931311035156250000e+003) (71, -1.44882922363281250000e+003) (72, 2.44159820556640620000e+002) (73, 1.49646130371093750000e+003) (74, 1.48532543945312500000e+003) (75, 1.49819653320312500000e+003) (76, 1.48855407714843750000e+003) (77, 1.47266271972656250000e+003) (78, 1.46525170898437500000e+003) (79, 1.48256250000000000000e+003) (80, 1.49290820312500000000e+003) (81, 1.48073181152343750000e+003) (82, 1.35137585449218750000e+003) (83, -1.46449047851562500000e+003) (84, -7.79563842773437500000e+002) (85, 6.98606872558593750000e+002) (86, -4.98348815917968750000e+002) (87, -4.17693389892578120000e+002) (88, -6.32075500488281250000e+002) (89, -4.59844818115234370000e+002) (90, -7.55162902832031250000e+002) (91, -6.23366271972656250000e+002) (92, -7.19728881835937500000e+002) (93, -2.92179870605468750000e+002) (94, -6.23262695312500000000e+002) (95, -9.20440307617187500000e+002) (96, -1.47759155273437500000e+003) (97, -8.99253173828125000000e+002) (98, -6.92001724243164060000e+001) (99, 4.45627659559249880000e-001) (0, 1.37379138183593750000e+003) (1, 8.56391723632812500000e+002) (2, 8.16382263183593750000e+002) (3, 5.41417053222656250000e+002) (4, -1.00048400878906250000e+003) (5, -1.35338415527343750000e+003) (6, -3.93442138671875000000e+002) (7, -1.40283239746093750000e+003) (8, 9.94330627441406250000e+002) (9, -3.63655670166015620000e+002) (10, -3.21295135498046870000e+002) (11, -1.44328100585937500000e+003) (12, -9.15142631530761720000e+000) (13, -6.55075378417968750000e+001) (14, 2.36873107910156250000e+002) (15, 2.93902130126953120000e+002) (16, -2.91646423339843750000e+002) (17, 4.43234649658203120000e+002) (18, 8.97896118164062500000e+002) (19, 8.98474182128906250000e+002) (20, 9.43562316894531250000e+002) (21, 9.44683776855468750000e+002) (22, 1.24118579101562500000e+003) (23, 1.14171093750000000000e+003) (24, -1.29619189453125000000e+003) (25, 1.19523461914062500000e+003) (26, 1.45195324707031250000e+003) (27, 1.49334045410156250000e+003) (28, 1.49987756347656250000e+003) (29, 1.49926196289062500000e+003) (30, 1.49719360351562500000e+003) (31, 4.73670578002929690000e+001) (32, 7.93597167968750000000e+002) (33, -3.78160308837890620000e+002) (34, 5.95447692871093750000e+002) (35, -1.50000000000000000000e+003) (36, 3.13724731445312500000e+002) (37, 1.10708679199218750000e+003) (38, 4.70433929443359370000e+002) (39, 4.14149963378906250000e+002) (40, 2.13652160644531250000e+002) (41, 2.19293289184570310000e+002) (42, 2.21462036132812500000e+002) (43, 2.17753662109375000000e+002) (44, 1.78388305664062500000e+002) (45, 2.33041717529296870000e+002) (46, 2.25883300781250000000e+002) (47, 6.34331237792968750000e+002) (48, 1.47402343750000000000e+003) (49, -1.49984790039062500000e+003) (50, -1.44770959472656250000e+003) (51, -5.91138244628906250000e+002) (52, -2.15864471435546870000e+002) (53, 2.14621749877929690000e+002) (54, -5.44148010253906250000e+002) (55, -8.61413757324218750000e+002) (56, -1.44043664550781250000e+003) (57, -1.39284692382812500000e+003) (58, -1.46965454101562500000e+003) (59, -2.80424255371093750000e+002) (60, -6.85910278320312500000e+002) (61, 4.78034057617187500000e+002) (62, 7.17683532714843750000e+002) (63, 7.60669555664062500000e+002) (64, 1.28714904785156250000e+003) (65, 1.17092272949218750000e+003) (66, 1.49194348144531250000e+003) (67, 1.49878552246093750000e+003) (68, 1.49997912597656250000e+003) (69, 1.49997692871093750000e+003) (70, 1.49931311035156250000e+003) (71, 2.89287384033203120000e+002) (72, 1.42006372070312500000e+003) (73, 4.32134918212890620000e+002) (74, 3.58444488525390620000e+002) (75, 4.69258972167968750000e+002) (76, 3.23468170166015620000e+002) (77, 3.34793701171875000000e+002) (78, 3.02588958740234370000e+002) (79, 1.03062156677246090000e+002) (80, 6.61570310592651370000e+000) (81, 2.19981414794921870000e+002) (82, -1.99895111083984370000e+002) (83, -1.33883447265625000000e+003) (84, -5.09831359863281250000e+002) (85, 7.04161315917968750000e+002) (86, 1.40787365722656250000e+003) (87, 1.28009277343750000000e+003) (88, 1.38917846679687500000e+003) (89, 1.13356445312500000000e+003) (90, 1.24941149902343750000e+003) (91, 9.25818603515625000000e+002) (92, 9.66653137207031250000e+002) (93, 5.92796569824218750000e+002) (94, 1.03946240234375000000e+003) (95, 1.33730749511718750000e+003) (96, 1.49926977539062500000e+003) (97, 8.15325073242187500000e+002) (98, 1.49922338867187500000e+003) (99, 1.28425705432891850000e+000) (0, 1.37379138183593750000e+003) (1, 8.56391723632812500000e+002) (2, 8.16382263183593750000e+002) (3, 5.41417053222656250000e+002) (4, -1.00048400878906250000e+003) (5, -1.35338415527343750000e+003) (6, -3.93442138671875000000e+002) (7, -1.40283239746093750000e+003) (8, 9.94330627441406250000e+002) (9, -2.13656188964843750000e+002) (10, -3.21295135498046870000e+002) (11, -1.44328100585937500000e+003) (12, -9.15142631530761720000e+000) (13, -6.55075378417968750000e+001) (14, 2.36873107910156250000e+002) (15, 2.93902130126953120000e+002) (16, -2.91646423339843750000e+002) (17, 4.43234649658203120000e+002) (18, 8.97896118164062500000e+002) (19, 8.98474182128906250000e+002) (20, 1.02648254394531250000e+003) (21, 1.02760375976562500000e+003) (22, 1.46929125976562500000e+003) (23, 1.38347448730468750000e+003) (24, -8.43034667968750000000e+002) (25, 1.19523461914062500000e+003) (26, 1.45195324707031250000e+003) (27, 1.49334045410156250000e+003) (28, 1.49987756347656250000e+003) (29, 1.49926196289062500000e+003) (30, 1.49719360351562500000e+003) (31, 4.72949035644531250000e+002) (32, 7.93597167968750000000e+002) (33, -3.78160308837890620000e+002) (34, 5.95447692871093750000e+002) (35, -1.50000000000000000000e+003) (36, 3.13724731445312500000e+002) (37, 1.10708679199218750000e+003) (38, 3.20433929443359370000e+002) (39, 2.64149963378906250000e+002) (40, 6.36519508361816410000e+001) (41, 6.92926025390625000000e+001) (42, 7.14613113403320310000e+001) (43, 6.77528457641601560000e+001) (44, 2.83871917724609380000e+001) (45, 8.30409774780273440000e+001) (46, 7.58828582763671880000e+001) (47, 6.34331237792968750000e+002) (48, 1.47402343750000000000e+003) (49, -1.49984790039062500000e+003) (50, -1.44770959472656250000e+003) (51, -5.91138244628906250000e+002) (52, -2.15864471435546870000e+002) (53, 2.14621749877929690000e+002) (54, -3.94149658203125000000e+002) (55, -8.61413757324218750000e+002) (56, -1.44043664550781250000e+003) (57, -1.39284692382812500000e+003) (58, -1.46965454101562500000e+003) (59, -2.80424255371093750000e+002) (60, -6.85910278320312500000e+002) (61, 4.78034057617187500000e+002) (62, 7.17683532714843750000e+002) (63, 7.60669555664062500000e+002) (64, 9.33265869140625000000e+002) (65, 7.45360046386718750000e+002) (66, 1.49194348144531250000e+003) (67, 1.49878552246093750000e+003) (68, 1.49997912597656250000e+003) (69, 1.49997692871093750000e+003) (70, 1.49931311035156250000e+003) (71, -1.36294952392578120000e+002) (72, 1.42006372070312500000e+003) (73, 2.82134948730468750000e+002) (74, 2.08446014404296870000e+002) (75, 3.19259002685546870000e+002) (76, 1.73469512939453120000e+002) (77, 1.84795074462890620000e+002) (78, 1.52590805053710940000e+002) (79, -4.69373703002929690000e+001) (80, -1.43383682250976560000e+002) (81, 6.99809570312500000000e+001) (82, -3.49895874023437500000e+002) (83, -1.33883447265625000000e+003) (84, -5.09831359863281250000e+002) (85, 7.04161315917968750000e+002) (86, 1.40787365722656250000e+003) (87, 1.28009277343750000000e+003) (88, 1.26436718750000000000e+003) (89, 1.23344323730468750000e+003) (90, 1.24941149902343750000e+003) (91, 9.25818603515625000000e+002) (92, 9.66653137207031250000e+002) (93, 5.92796569824218750000e+002) (94, 1.03946240234375000000e+003) (95, 1.33730749511718750000e+003) (96, 1.49926977539062500000e+003) (97, 8.15325073242187500000e+002) (98, 1.49922338867187500000e+003) (99, 1.10086405277252200000e+000) (0, -6.33228393554687500000e+002) (1, -1.12622444152832030000e+002) (2, -3.07282836914062500000e+002) (3, 1.46608288574218750000e+003) (4, 8.10803161621093750000e+002) (5, 1.21250451660156250000e+003) (6, 1.47582031250000000000e+003) (7, 1.14969799804687500000e+003) (8, -4.67301361083984370000e+002) (9, -9.47341369628906250000e+002) (10, -6.52130310058593750000e+002) (11, -8.62478271484375000000e+002) (12, 3.04714904785156250000e+002) (13, 3.84046508789062500000e+002) (14, -3.43797378540039060000e+001) (15, -2.13647369384765620000e+002) (16, -7.90441528320312500000e+002) (17, -1.52500030517578120000e+002) (18, -6.09480346679687500000e+002) (19, -6.09565124511718750000e+002) (20, -1.12484667968750000000e+003) (21, -1.08287084960937500000e+003) (22, -9.73509704589843750000e+002) (23, -9.91594909667968750000e+002) (24, -1.49959802246093750000e+003) (25, -1.20049902343750000000e+003) (26, -9.98049316406250000000e+002) (27, 1.49334045410156250000e+003) (28, 1.49987756347656250000e+003) (29, 1.49926196289062500000e+003) (30, -1.48232031250000000000e+003) (31, -6.46228256225585940000e+001) (32, -2.24918930053710940000e+002) (33, -8.65357604980468750000e+002) (34, 7.04577560424804690000e+001) (35, -1.50000000000000000000e+003) (36, 7.68060363769531250000e+002) (37, 2.96511138916015620000e+002) (38, 1.48907873535156250000e+003) (39, 1.48637915039062500000e+003) (40, 1.48925756835937500000e+003) (41, 1.48526000976562500000e+003) (42, 1.48700671386718750000e+003) (43, 1.48674145507812500000e+003) (44, 1.49554016113281250000e+003) (45, 1.48790917968750000000e+003) (46, 1.48352880859375000000e+003) (47, 9.71583023071289060000e+001) (48, 1.47402343750000000000e+003) (49, -8.66585266113281250000e+002) (50, 5.99960083007812500000e+002) (51, -3.25968139648437500000e+002) (52, 4.00578857421875000000e+002) (53, 3.17633666992187500000e+001) (54, 3.32607360839843750000e+002) (55, -3.31592987060546870000e+002) (56, -1.44043664550781250000e+003) (57, -1.02630712890625000000e+003) (58, -4.14018859863281250000e+001) (59, 3.76899658203125000000e+002) (60, 6.03234130859375000000e+002) (61, 4.10169250488281250000e+002) (62, 1.70801910400390620000e+002) (63, -2.73454254150390630000e+002) (64, -1.09494311523437500000e+003) (65, -9.01690002441406250000e+002) (66, -1.45823254394531250000e+003) (67, -9.17074157714843750000e+002) (68, 1.41613296508789060000e+002) (69, 1.49997692871093750000e+003) (70, 1.49931311035156250000e+003) (71, -1.44648413085937500000e+003) (72, 1.97243225097656250000e+002) (73, 1.49784082031250000000e+003) (74, 1.49162524414062500000e+003) (75, 1.49863000488281250000e+003) (76, 1.49606213378906250000e+003) (77, 1.49265502929687500000e+003) (78, 1.49188854980468750000e+003) (79, 1.49593969726562500000e+003) (80, 1.49829626464843750000e+003) (81, 1.48218957519531250000e+003) (82, 1.46279357910156250000e+003) (83, -1.28313964843750000000e+003) (84, -3.50342956542968750000e+002) (85, 4.53039855957031250000e+002) (86, -5.70859680175781250000e+002) (87, -5.86609191894531250000e+002) (88, -6.12182189941406250000e+002) (89, -4.51281127929687500000e+002) (90, -7.46598327636718750000e+002) (91, -6.16712036132812500000e+002) (92, -7.19234069824218750000e+002) (93, -2.91684814453125000000e+002) (94, -6.19301086425781250000e+002) (95, -9.19040954589843750000e+002) (96, -1.47632714843750000000e+003) (97, -8.99253173828125000000e+002) (98, -6.56969375610351560000e+001) (99, 6.09216511249542240000e-001) (0, 1.37379138183593750000e+003) (1, 1.29436486816406250000e+003) (2, 1.28336206054687500000e+003) (3, 5.41417053222656250000e+002) (4, -8.52814392089843750000e+002) (5, -1.35338415527343750000e+003) (6, -3.93442138671875000000e+002) (7, -1.40283239746093750000e+003) (8, 9.94330627441406250000e+002) (9, -1.03981910705566410000e+002) (10, -3.21295135498046870000e+002) (11, -1.44328100585937500000e+003) (12, -9.15142631530761720000e+000) (13, -6.55075378417968750000e+001) (14, 2.36873107910156250000e+002) (15, 2.93902130126953120000e+002) (16, -2.91646423339843750000e+002) (17, 4.43234649658203120000e+002) (18, 8.97896118164062500000e+002) (19, 8.98474182128906250000e+002) (20, 1.28761962890625000000e+003) (21, 1.13163452148437500000e+003) (22, 1.46929125976562500000e+003) (23, 1.40591955566406250000e+003) (24, -8.20589538574218750000e+002) (25, 1.19523461914062500000e+003) (26, 1.45195324707031250000e+003) (27, 1.49334045410156250000e+003) (28, 1.49987756347656250000e+003) (29, 1.49926196289062500000e+003) (30, 1.49719360351562500000e+003) (31, 5.72248352050781250000e+002) (32, 1.24154895019531250000e+003) (33, 1.53618927001953120000e+002) (34, 1.29136877441406250000e+003) (35, -9.62941894531250000000e+002) (36, 7.75596313476562500000e+002) (37, 1.41682641601562500000e+003) (38, -3.45667190551757810000e+001) (39, -9.84437942504882810000e+001) (40, -2.94920898437500000000e+002) (41, -2.93788787841796870000e+002) (42, -2.93351776123046880000e+002) (43, -2.94094573974609370000e+002) (44, -3.01988616943359370000e+002) (45, -2.91029968261718750000e+002) (46, -2.92230133056640620000e+002) (47, 8.75361816406250000000e+002) (48, 1.47402343750000000000e+003) (49, -1.49984790039062500000e+003) (50, -1.44770959472656250000e+003) (51, -5.91138244628906250000e+002) (52, -2.15864471435546870000e+002) (53, 2.14621749877929690000e+002) (54, -2.92415832519531250000e+002) (55, -8.61413757324218750000e+002) (56, -1.44043664550781250000e+003) (57, -1.39284692382812500000e+003) (58, -1.46965454101562500000e+003) (59, -2.28467750549316410000e+001) (60, -4.19728881835937500000e+002) (61, 7.33191467285156250000e+002) (62, 9.72584777832031250000e+002) (63, 1.27002307128906250000e+003) (64, 9.54831237792968750000e+002) (65, 1.10982031250000000000e+003) (66, 1.49194348144531250000e+003) (67, 1.49878552246093750000e+003) (68, 1.49997912597656250000e+003) (69, 1.49997692871093750000e+003) (70, 1.49931311035156250000e+003) (71, 2.07765747070312500000e+002) (72, 1.48391320800781250000e+003) (73, -7.45143203735351560000e+001) (74, -1.73069946289062500000e+002) (75, -2.48834419250488280000e+001) (76, -2.06460666656494140000e+000) (77, 4.18273019790649410000e+000) (78, -1.37689514160156250000e+001) (79, -1.57879730224609380000e+002) (80, -1.32929565429687500000e+002) (81, -9.87442779541015630000e+001) (82, -3.16350433349609370000e+002) (83, -8.20843994140625000000e+002) (84, 2.09924880981445310000e+002) (85, 1.18433984375000000000e+003) (86, 1.40787365722656250000e+003) (87, 1.28009277343750000000e+003) (88, 1.38917846679687500000e+003) (89, 1.23344323730468750000e+003) (90, 1.24941149902343750000e+003) (91, 9.25818603515625000000e+002) (92, 9.66653137207031250000e+002) (93, 5.92796569824218750000e+002) (94, 1.03946240234375000000e+003) (95, 1.33730749511718750000e+003) (96, 1.49926977539062500000e+003) (97, 8.15325073242187500000e+002) (98, 1.49922338867187500000e+003) (99, 1.19585478305816650000e+000) (0, -5.28501647949218750000e+002) (1, 1.86077194213867190000e+002) (2, 1.85358142852783200000e+000) (3, 1.46608288574218750000e+003) (4, 5.66664611816406250000e+002) (5, 9.50680114746093750000e+002) (6, 1.47582031250000000000e+003) (7, 8.88629028320312500000e+002) (8, -3.85736968994140620000e+002) (9, -1.19865075683593750000e+003) (10, -9.35509704589843750000e+002) (11, -1.11480249023437500000e+003) (12, 2.91130432128906250000e+002) (13, 3.83195983886718750000e+002) (14, -1.09713180541992190000e+002) (15, -3.70419281005859370000e+002) (16, -1.41784509277343750000e+003) (17, -1.57863067626953120000e+002) (18, -6.17075500488281250000e+002) (19, -6.16865722656250000000e+002) (20, -1.13534985351562500000e+003) (21, -1.08627722167968750000e+003) (22, -9.93369934082031250000e+002) (23, -1.00026501464843750000e+003) (24, -1.49959802246093750000e+003) (25, -1.20053344726562500000e+003) (26, -1.07047424316406250000e+003) (27, 1.49334045410156250000e+003) (28, 1.49987756347656250000e+003) (29, 1.49926196289062500000e+003) (30, -1.48470581054687500000e+003) (31, -1.33939346313476560000e+002) (32, -7.09017133712768550000e+000) (33, -9.99576232910156250000e+002) (34, -2.87467376708984370000e+002) (35, -1.50000000000000000000e+003) (36, 6.57849243164062500000e+002) (37, 4.80727630615234370000e+002) (38, 1.49979235839843750000e+003) (39, 1.49363586425781250000e+003) (40, 1.49950476074218750000e+003) (41, 1.49212060546875000000e+003) (42, 1.49507849121093750000e+003) (43, 1.49447863769531250000e+003) (44, 1.49509167480468750000e+003) (45, 1.48152624511718750000e+003) (46, 1.48760949707031250000e+003) (47, -2.64163818359375000000e+002) (48, 1.47402343750000000000e+003) (49, -1.15468811035156250000e+003) (50, 3.43550140380859370000e+002) (51, -5.91138244628906250000e+002) (52, 3.87847595214843750000e+002) (53, 3.15961666107177730000e+001) (54, 5.50289428710937500000e+002) (55, -7.30079467773437500000e+002) (56, -1.44043664550781250000e+003) (57, -1.30600170898437500000e+003) (58, -2.86819915771484370000e+002) (59, 4.06534637451171870000e+002) (60, 5.08088317871093750000e+002) (61, 6.80565856933593750000e+002) (62, 4.40934906005859370000e+002) (63, 7.80819320678710940000e+001) (64, -1.02488000488281250000e+003) (65, -7.52357910156250000000e+002) (66, -1.45854345703125000000e+003) (67, -9.35736511230468750000e+002) (68, 1.60275650024414060000e+002) (69, 1.49997692871093750000e+003) (70, 1.49931311035156250000e+003) (71, -1.44882922363281250000e+003) (72, 2.44159408569335940000e+002) (73, 1.49645458984375000000e+003) (74, 1.48530944824218750000e+003) (75, 1.49818981933593750000e+003) (76, 1.48851391601562500000e+003) (77, 1.47256640625000000000e+003) (78, 1.46521154785156250000e+003) (79, 1.48254907226562500000e+003) (80, 1.49290588378906250000e+003) (81, 1.48073095703125000000e+003) (82, 1.35137207031250000000e+003) (83, -1.46449047851562500000e+003) (84, -7.79567626953125000000e+002) (85, 6.98587341308593750000e+002) (86, -4.98354400634765620000e+002) (87, -4.17706817626953120000e+002) (88, -6.32081115722656250000e+002) (89, -4.59850402832031250000e+002) (90, -7.55168518066406250000e+002) (91, -6.23406738281250000000e+002) (92, -7.19732055664062500000e+002) (93, -2.92183013916015620000e+002) (94, -6.23293029785156250000e+002) (95, -9.20470642089843750000e+002) (96, -1.47760412597656250000e+003) (97, -8.99253173828125000000e+002) (98, -6.92436904907226560000e+001) (99, 5.34026443958282470000e-001) (0, 1.26517602539062500000e+003) (1, 1.10428271484375000000e+003) (2, 1.06242468261718750000e+003) (3, -7.53584533691406250000e+002) (4, -1.41738220214843750000e+003) (5, -1.45400769042968750000e+003) (6, -1.37059692382812500000e+003) (7, -1.47246435546875000000e+003) (8, 1.07105700683593750000e+003) (9, 4.97053009033203120000e+002) (10, 2.61281471252441410000e+001) (11, -5.53597351074218750000e+002) (12, 8.52211303710937500000e+001) (13, 1.69852767944335940000e+002) (14, 6.12379577636718750000e+002) (15, 6.67828796386718750000e+002) (16, 1.49998559570312500000e+003) (17, 6.41948181152343750000e+002) (18, 8.86587951660156250000e+002) (19, 8.98041625976562500000e+002) (20, 1.45439599609375000000e+003) (21, 1.31191137695312500000e+003) (22, 1.28782580566406250000e+003) (23, 1.27784106445312500000e+003) (24, 1.50000000000000000000e+003) (25, 1.10568664550781250000e+003) (26, 1.45209240722656250000e+003) (27, -1.48263513183593750000e+003) (28, -1.43428039550781250000e+003) (29, -7.42449096679687500000e+002) (30, 1.49705737304687500000e+003) (31, 8.51283081054687500000e+002) (32, 8.42669372558593750000e+002) (33, 1.40459777832031250000e+003) (34, 6.70749938964843750000e+002) (35, 1.50000000000000000000e+003) (36, 5.27908386230468750000e+002) (37, 4.65066131591796870000e+002) (38, -1.40018383789062500000e+003) (39, -1.39833642578125000000e+003) (40, -1.39757568359375000000e+003) (41, -1.39032446289062500000e+003) (42, -1.39600866699218750000e+003) (43, -1.39860632324218750000e+003) (44, -1.41714575195312500000e+003) (45, -1.41005432128906250000e+003) (46, -1.38937707519531250000e+003) (47, 1.85450637817382810000e+002) (48, -1.36310546875000000000e+003) (49, 1.24743493652343750000e+003) (50, -1.13570532226562500000e+003) (51, -1.12017687988281250000e+003) (52, 4.00907989501953120000e+002) (53, 5.85609985351562500000e+002) (54, 2.23907623291015620000e+002) (55, 7.61754028320312500000e+002) (56, -3.46609039306640620000e+002) (57, 1.03302497863769530000e+002) (58, -1.17741528320312500000e+003) (59, 7.83632659912109370000e+001) (60, 3.00282196044921870000e+002) (61, 4.11358673095703120000e+002) (62, 4.14476745605468750000e+002) (63, 1.00081353759765620000e+003) (64, 1.27050061035156250000e+003) (65, 1.26939062500000000000e+003) (66, 1.29110339355468750000e+003) (67, 1.49487805175781250000e+003) (68, 8.35385803222656250000e+002) (69, -1.09913024902343750000e+003) (70, -1.48092065429687500000e+003) (71, 1.49966979980468750000e+003) (72, -6.29345741271972660000e+001) (73, -1.49798693847656250000e+003) (74, -1.49563183593750000000e+003) (75, -1.49874792480468750000e+003) (76, -1.49233850097656250000e+003) (77, -1.49298693847656250000e+003) (78, -1.49576000976562500000e+003) (79, -1.49687939453125000000e+003) (80, -1.46806042480468750000e+003) (81, -1.37566320800781250000e+003) (82, -1.38014404296875000000e+003) (83, 1.50000000000000000000e+003) (84, 1.03897351074218750000e+003) (85, 3.95826873779296870000e+002) (86, 1.27353930664062500000e+003) (87, 1.24132495117187500000e+003) (88, 1.37075646972656250000e+003) (89, 1.38062451171875000000e+003) (90, 1.32197070312500000000e+003) (91, 1.10284973144531250000e+003) (92, 1.12966784667968750000e+003) (93, 7.63367858886718750000e+002) (94, 9.61101745605468750000e+002) (95, 1.11916748046875000000e+003) (96, 1.47537512207031250000e+003) (97, 1.10381823730468750000e+003) (98, 6.83080215454101560000e+001) (99, 1.37745881080627440000e+000) (0, -5.19661865234375000000e+002) (1, 2.07292678833007810000e+002) (2, 2.30688114166259770000e+001) (3, 1.46608288574218750000e+003) (4, 5.66664611816406250000e+002) (5, 9.50680114746093750000e+002) (6, 1.47582031250000000000e+003) (7, 8.88629028320312500000e+002) (8, -3.76897308349609370000e+002) (9, -1.19865075683593750000e+003) (10, -9.35509704589843750000e+002) (11, -1.11480249023437500000e+003) (12, 2.91130432128906250000e+002) (13, 3.83195983886718750000e+002) (14, -1.09713180541992190000e+002) (15, -3.70419281005859370000e+002) (16, -1.41784509277343750000e+003) (17, -1.57863067626953120000e+002) (18, -6.17075500488281250000e+002) (19, -6.16865722656250000000e+002) (20, -1.16249414062500000000e+003) (21, -1.08502355957031250000e+003) (22, -9.97707153320312500000e+002) (23, -1.02457836914062500000e+003) (24, -1.49959802246093750000e+003) (25, -1.20053344726562500000e+003) (26, -1.07047424316406250000e+003) (27, 1.49334045410156250000e+003) (28, 1.49987756347656250000e+003) (29, 1.49926196289062500000e+003) (30, -1.48470581054687500000e+003) (31, -4.08024871826171870000e+002) (32, 1.41252517700195310000e+001) (33, -9.78360717773437500000e+002) (34, -2.66252014160156250000e+002) (35, -1.50000000000000000000e+003) (36, 6.79064758300781250000e+002) (37, 5.01943145751953120000e+002) (38, 1.49979235839843750000e+003) (39, 1.49363586425781250000e+003) (40, 1.49950476074218750000e+003) (41, 1.49732885742187500000e+003) (42, 1.49507849121093750000e+003) (43, 1.49447863769531250000e+003) (44, 1.49509167480468750000e+003) (45, 1.48152624511718750000e+003) (46, 1.49281774902343750000e+003) (47, -2.37724792480468750000e+002) (48, 1.47402343750000000000e+003) (49, -1.15468811035156250000e+003) (50, 3.43550140380859370000e+002) (51, -5.20252685546875000000e+002) (52, 2.92926055908203120000e+002) (53, 3.15961666107177730000e+001) (54, 4.89746520996093750000e+002) (55, -7.30079467773437500000e+002) (56, -1.44043664550781250000e+003) (57, -1.39284692382812500000e+003) (58, -2.86819915771484370000e+002) (59, 4.27750335693359370000e+002) (60, 5.29304504394531250000e+002) (61, 7.01781433105468750000e+002) (62, 4.62150482177734370000e+002) (63, 9.92974166870117190000e+001) (64, -1.01665362548828120000e+003) (65, -7.43518005371093750000e+002) (66, -1.45854345703125000000e+003) (67, -9.35736511230468750000e+002) (68, 1.60275650024414060000e+002) (69, 1.49997692871093750000e+003) (70, 1.49931311035156250000e+003) (71, -1.44748449707031250000e+003) (72, 2.65373474121093750000e+002) (73, 1.49645458984375000000e+003) (74, 1.48530944824218750000e+003) (75, 1.49818981933593750000e+003) (76, 1.48851391601562500000e+003) (77, 1.47256640625000000000e+003) (78, 1.46521154785156250000e+003) (79, 1.48254907226562500000e+003) (80, 1.49290588378906250000e+003) (81, 1.48073095703125000000e+003) (82, 1.35137207031250000000e+003) (83, -1.46449047851562500000e+003) (84, -7.58352111816406250000e+002) (85, 7.19802856445312500000e+002) (86, -4.89514617919921870000e+002) (87, -4.08867004394531250000e+002) (88, -7.01286926269531250000e+002) (89, -6.57215698242187500000e+002) (90, -8.63681762695312500000e+002) (91, -6.23406738281250000000e+002) (92, -7.19732055664062500000e+002) (93, -2.92183013916015620000e+002) (94, -6.23293029785156250000e+002) (95, -9.20470642089843750000e+002) (96, -1.47760412597656250000e+003) (97, -8.99253173828125000000e+002) (98, -6.92436904907226560000e+001) (99, 6.79176151752471920000e-001) (0, 1.46354736328125000000e+003) (1, 1.34251818847656250000e+003) (2, 1.33833850097656250000e+003) (3, 4.05852966308593750000e+002) (4, -9.48851623535156250000e+002) (5, -1.35338415527343750000e+003) (6, -3.93442138671875000000e+002) (7, -7.72923217773437500000e+002) (8, 1.48168432617187500000e+003) (9, 1.19017646789550780000e+002) (10, -2.56029357910156250000e+002) (11, -1.44328100585937500000e+003) (12, 3.57459678649902340000e+001) (13, 1.24766975402832030000e+002) (14, 4.85684844970703120000e+002) (15, 5.42715515136718750000e+002) (16, -4.28331222534179690000e+001) (17, 5.98736572265625000000e+002) (18, 8.89453735351562500000e+002) (19, 8.90031799316406250000e+002) (20, 1.43586376953125000000e+003) (21, 1.49842517089843750000e+003) (22, 1.48989733886718750000e+003) (23, 1.48515734863281250000e+003) (24, -7.39442871093750000000e+002) (25, 8.97180053710937500000e+002) (26, 1.45195324707031250000e+003) (27, 1.49334045410156250000e+003) (28, 1.49987756347656250000e+003) (29, 1.49926196289062500000e+003) (30, 1.49719360351562500000e+003) (31, 1.11522338867187500000e+003) (32, 1.11462023925781250000e+003) (33, 6.95404481887817380000e+000) (34, 1.02847619628906250000e+003) (35, -1.50000000000000000000e+003) (36, -1.47243560791015620000e+002) (37, 1.06574475097656250000e+003) (38, -1.06192272949218750000e+003) (39, -1.19625415039062500000e+003) (40, -1.26859802246093750000e+003) (41, -1.26495202636718750000e+003) (42, -1.26634045410156250000e+003) (43, -1.26716650390625000000e+003) (44, -1.27843432617187500000e+003) (45, -1.26755419921875000000e+003) (46, -1.26209240722656250000e+003) (47, 6.73911926269531250000e+002) (48, 1.47402343750000000000e+003) (49, -1.49984790039062500000e+003) (50, -1.44770959472656250000e+003) (51, -5.91138244628906250000e+002) (52, 3.51673126220703130000e+002) (53, 4.56509765625000000000e+002) (54, 1.72260589599609370000e+002) (55, -2.77504364013671870000e+002) (56, -1.44043664550781250000e+003) (57, -1.39284692382812500000e+003) (58, -1.46965454101562500000e+003) (59, -2.00221221923828120000e+002) (60, -5.99808288574218750000e+002) (61, 5.48684265136718750000e+002) (62, 7.85168884277343750000e+002) (63, 1.12300207519531250000e+003) (64, 1.47250048828125000000e+003) (65, 1.42550415039062500000e+003) (66, 1.41295861816406250000e+003) (67, 1.49878552246093750000e+003) (68, 1.49997912597656250000e+003) (69, 1.49997692871093750000e+003) (70, 1.49931311035156250000e+003) (71, 1.34519799804687500000e+003) (72, 6.40816284179687500000e+002) (73, -1.49563134765625000000e+003) (74, -1.48995410156250000000e+003) (75, -1.49328784179687500000e+003) (76, -1.48204089355468750000e+003) (77, -1.48408813476562500000e+003) (78, -1.42812133789062500000e+003) (79, -1.16712121582031250000e+003) (80, -1.12975708007812500000e+003) (81, -1.14664331054687500000e+003) (82, -1.46905981445312500000e+003) (83, -1.46449047851562500000e+003) (84, -6.37502136230468750000e+002) (85, 1.13994970703125000000e+003) (86, 1.44193115234375000000e+003) (87, 1.44322460937500000000e+003) (88, 1.46674487304687500000e+003) (89, 1.42003466796875000000e+003) (90, 1.40520751953125000000e+003) (91, 1.08982983398437500000e+003) (92, 1.13066577148437500000e+003) (93, 7.40034118652343750000e+002) (94, 9.03915100097656250000e+002) (95, 1.13454663085937500000e+003) (96, 1.38887512207031250000e+003) (97, 6.95631652832031250000e+002) (98, 1.29471447753906250000e+003) (99, 1.48215568065643310000e+000) (0, -5.27860046386718750000e+002) (1, 1.87278945922851560000e+002) (2, 6.57599020004272460000e+000) (3, 1.20558264160156250000e+003) (4, 1.05219653320312500000e+003) (5, 1.37841967773437500000e+003) (6, 1.47582031250000000000e+003) (7, 1.37231738281250000000e+003) (8, -9.27530975341796880000e+001) (9, -7.09250488281250000000e+002) (10, -2.88350372314453120000e+002) (11, -6.17932250976562500000e+002) (12, 3.10371459960937500000e+002) (13, 3.84282989501953120000e+002) (14, -2.99501037597656250000e+000) (15, -1.48335464477539060000e+002) (16, -3.88808349609375000000e+002) (17, -1.50312911987304690000e+002) (18, -6.06337463378906250000e+002) (19, -6.06543762207031250000e+002) (20, -1.13196374511718750000e+003) (21, -1.08621984863281250000e+003) (22, -9.92787109375000000000e+002) (23, -9.99497131347656250000e+002) (24, -1.49959802246093750000e+003) (25, -1.20048950195312500000e+003) (26, -1.07047424316406250000e+003) (27, 1.49334045410156250000e+003) (28, 1.49987756347656250000e+003) (29, 1.49926196289062500000e+003) (30, -1.48227416992187500000e+003) (31, -6.36801719665527340000e+001) (32, 7.94391098022460940000e+001) (33, -5.41538146972656250000e+002) (34, 2.68359008789062500000e+002) (35, -1.50000000000000000000e+003) (36, 1.19778161621093750000e+003) (37, 4.82411743164062500000e+002) (38, 1.49980761718750000000e+003) (39, 1.49364025878906250000e+003) (40, 1.49956933593750000000e+003) (41, 1.49218518066406250000e+003) (42, 1.49516418457031250000e+003) (43, 1.49451428222656250000e+003) (44, 1.49514025878906250000e+003) (45, 1.48152661132812500000e+003) (46, 1.48761022949218750000e+003) (47, 2.31396194458007810000e+002) (48, 1.47402343750000000000e+003) (49, -6.22390441894531250000e+002) (50, 8.41487182617187500000e+002) (51, -2.18519088745117190000e+002) (52, 4.50741271972656250000e+002) (53, 3.18293857574462890000e+001) (54, 5.57195617675781250000e+002) (55, 4.94607162475585940000e+001) (56, -1.44043664550781250000e+003) (57, -8.09643981933593750000e+002) (58, 1.90569900512695310000e+002) (59, 8.90246337890625000000e+002) (60, 1.20814123535156250000e+003) (61, 6.93166625976562500000e+002) (62, 4.53495208740234370000e+002) (63, 8.09617919921875000000e+001) (64, -1.02435241699218750000e+003) (65, -7.52246032714843750000e+002) (66, -1.45814611816406250000e+003) (67, -1.03339550781250000000e+003) (68, 8.60353317260742190000e+001) (69, 1.49997692871093750000e+003) (70, 1.49931311035156250000e+003) (71, -1.44882873535156250000e+003) (72, 2.44168518066406250000e+002) (73, 1.49829125976562500000e+003) (74, 1.49378259277343750000e+003) (75, 1.49872314453125000000e+003) (76, 1.49136279296875000000e+003) (77, 1.48653527832031250000e+003) (78, 1.48718920898437500000e+003) (79, 1.49354870605468750000e+003) (80, 1.49804760742187500000e+003) (81, 1.48208850097656250000e+003) (82, 1.47322570800781250000e+003) (83, -6.77838317871093750000e+002) (84, 1.29968856811523440000e+002) (85, 7.90692565917968750000e+002) (86, -4.96506347656250000000e+002) (87, -4.15664398193359380000e+002) (88, -6.31457885742187500000e+002) (89, -4.59206481933593750000e+002) (90, -7.54522583007812500000e+002) (91, -6.14040832519531250000e+002) (92, -7.19035766601562500000e+002) (93, -2.91486083984375000000e+002) (94, -6.17725708007812500000e+002) (95, -9.18531250000000000000e+002) (96, -1.47582873535156250000e+003) (97, -8.99253173828125000000e+002) (98, -6.91739883422851560000e+001) (99, 3.07729363441467290000e-001) (0, -5.27860046386718750000e+002) (1, 1.87278945922851560000e+002) (2, 6.57599020004272460000e+000) (3, 1.20558264160156250000e+003) (4, 1.05219653320312500000e+003) (5, 1.37841967773437500000e+003) (6, 1.47582031250000000000e+003) (7, 1.37231738281250000000e+003) (8, -9.27530975341796880000e+001) (9, -7.09250488281250000000e+002) (10, -2.88350372314453120000e+002) (11, -6.17932250976562500000e+002) (12, 3.10371459960937500000e+002) (13, 3.84282989501953120000e+002) (14, -2.99501037597656250000e+000) (15, -1.48335464477539060000e+002) (16, -3.88808349609375000000e+002) (17, -1.50312911987304690000e+002) (18, -6.06337463378906250000e+002) (19, -6.06543762207031250000e+002) (20, -1.13196374511718750000e+003) (21, -1.08621984863281250000e+003) (22, -9.92787109375000000000e+002) (23, -9.99497131347656250000e+002) (24, -1.49959802246093750000e+003) (25, -1.20048950195312500000e+003) (26, -1.07047424316406250000e+003) (27, 1.49334045410156250000e+003) (28, 1.49987756347656250000e+003) (29, 1.49926196289062500000e+003) (30, -1.48227416992187500000e+003) (31, -6.36801719665527340000e+001) (32, 7.94391098022460940000e+001) (33, -5.41538146972656250000e+002) (34, 2.68359008789062500000e+002) (35, -1.50000000000000000000e+003) (36, 1.19778161621093750000e+003) (37, 4.82411743164062500000e+002) (38, 1.49980761718750000000e+003) (39, 1.49364025878906250000e+003) (40, 1.49956933593750000000e+003) (41, 1.49218518066406250000e+003) (42, 1.49516418457031250000e+003) (43, 1.49451428222656250000e+003) (44, 1.49514025878906250000e+003) (45, 1.48152661132812500000e+003) (46, 1.48761022949218750000e+003) (47, 2.31396194458007810000e+002) (48, 1.47402343750000000000e+003) (49, -6.22390441894531250000e+002) (50, 8.41487182617187500000e+002) (51, -2.18519088745117190000e+002) (52, 4.50741271972656250000e+002) (53, 3.18293857574462890000e+001) (54, 5.57195617675781250000e+002) (55, 4.94607162475585940000e+001) (56, -1.44043664550781250000e+003) (57, -8.09643981933593750000e+002) (58, 1.90569900512695310000e+002) (59, 8.90246337890625000000e+002) (60, 1.20814123535156250000e+003) (61, 6.93166625976562500000e+002) (62, 4.53495208740234370000e+002) (63, 8.09617919921875000000e+001) (64, -1.02435241699218750000e+003) (65, -7.52246032714843750000e+002) (66, -1.45814611816406250000e+003) (67, -1.03339550781250000000e+003) (68, 8.60353317260742190000e+001) (69, 1.49997692871093750000e+003) (70, 1.49931311035156250000e+003) (71, -1.44882873535156250000e+003) (72, 2.44168518066406250000e+002) (73, 1.49829125976562500000e+003) (74, 1.49378259277343750000e+003) (75, 1.49872314453125000000e+003) (76, 1.49136279296875000000e+003) (77, 1.48653527832031250000e+003) (78, 1.48718920898437500000e+003) (79, 1.49354870605468750000e+003) (80, 1.49804760742187500000e+003) (81, 1.48208850097656250000e+003) (82, 1.47322570800781250000e+003) (83, -6.77838317871093750000e+002) (84, 1.29968856811523440000e+002) (85, 7.90692565917968750000e+002) (86, -4.96506347656250000000e+002) (87, -4.15664398193359380000e+002) (88, -6.31457885742187500000e+002) (89, -4.59206481933593750000e+002) (90, -7.54522583007812500000e+002) (91, -6.14040832519531250000e+002) (92, -7.19035766601562500000e+002) (93, -2.91486083984375000000e+002) (94, -6.17725708007812500000e+002) (95, -9.18531250000000000000e+002) (96, -1.47582873535156250000e+003) (97, -8.99253173828125000000e+002) (98, -6.91739883422851560000e+001) (99, 4.00384634733200070000e-001) (0, -6.93606933593750000000e+002) (1, -3.69982086181640620000e+002) (2, -5.67683593750000000000e+002) (3, 4.02747131347656250000e+002) (4, 9.37498107910156250000e+002) (5, 1.23597619628906250000e+003) (6, 1.34479760742187500000e+003) (7, 1.29181042480468750000e+003) (8, -7.22346923828125000000e+002) (9, -1.06590319824218750000e+003) (10, -6.04844665527343750000e+002) (11, -1.03501098632812500000e+003) (12, -3.19722229003906250000e+002) (13, -2.46367492675781250000e+002) (14, -4.59984619140625000000e+002) (15, -5.16230651855468750000e+002) (16, -6.09445373535156250000e+002) (17, -5.47540344238281250000e+002) (18, -1.00170129394531250000e+003) (19, -1.00178192138671870000e+003) (20, -1.37627319335937500000e+003) (21, -1.09061901855468750000e+003) (22, -1.02625622558593750000e+003) (23, -1.04933850097656250000e+003) (24, 1.50000000000000000000e+003) (25, -1.27268640136718750000e+003) (26, -1.35381579589843750000e+003) (27, 1.49337841796875000000e+003) (28, 1.49937219238281250000e+003) (29, 1.48952868652343750000e+003) (30, -1.48269909667968750000e+003) (31, -5.20635864257812500000e+002) (32, -4.85104278564453120000e+002) (33, -1.10214086914062500000e+003) (34, 7.20866928100585940000e+001) (35, -1.29555224609375000000e+003) (36, 5.06423583984375000000e+002) (37, 2.08820587158203120000e+002) (38, 1.49188452148437500000e+003) (39, 1.49220690917968750000e+003) (40, 1.49211877441406250000e+003) (41, 1.48687182617187500000e+003) (42, 1.48987744140625000000e+003) (43, 1.49235217285156250000e+003) (44, 1.49301940917968750000e+003) (45, 1.48057739257812500000e+003) (46, 1.48472290039062500000e+003) (47, 7.02195129394531250000e+001) (48, -3.06955963134765620000e+002) (49, 1.50000000000000000000e+003) (50, 8.85036804199218750000e+002) (51, -4.30531097412109370000e+002) (52, -4.16023101806640630000e+001) (53, -3.69833557128906250000e+002) (54, -1.00633209228515620000e+002) (55, -2.94267211914062500000e+002) (56, -1.43701867675781250000e+003) (57, -1.36946765136718750000e+003) (58, 2.22891677856445310000e+002) (59, -6.71321868896484380000e+001) (60, 1.69101211547851560000e+002) (61, -2.91655212402343750000e+002) (62, -4.01802246093750000000e+002) (63, -5.04760925292968750000e+002) (64, -1.10053503417968750000e+003) (65, -9.38803344726562500000e+002) (66, -1.45802185058593750000e+003) (67, -1.30862951660156250000e+003) (68, -3.02922668457031250000e+002) (69, 1.49592346191406250000e+003) (70, 1.49657250976562500000e+003) (71, -1.44940002441406250000e+003) (72, 2.38623092651367190000e+002) (73, 1.49999914550781250000e+003) (74, 1.49987182617187500000e+003) (75, 1.50000000000000000000e+003) (76, 1.49749975585937500000e+003) (77, 1.48749414062500000000e+003) (78, 1.49994433593750000000e+003) (79, 1.49986352539062500000e+003) (80, 1.49925720214843750000e+003) (81, 1.48240612792968750000e+003) (82, 1.49112548828125000000e+003) (83, 2.01852912902832030000e+001) (84, 4.00005493164062500000e+002) (85, 1.29750717163085940000e+002) (86, -6.18572998046875000000e+002) (87, -7.09127258300781250000e+002) (88, -7.71869506835937500000e+002) (89, -7.96973937988281250000e+002) (90, -1.07995812988281250000e+003) (91, -9.74271972656250000000e+002) (92, -1.07012243652343750000e+003) (93, -7.74455993652343750000e+002) (94, -1.13924060058593750000e+003) (95, -1.39435119628906250000e+003) (96, -1.45581567382812500000e+003) (97, -1.11310559082031250000e+003) (98, -1.40398791503906250000e+003) (99, -3.34261745214462280000e-001) (0, -5.28046264648437500000e+002) (1, 1.86929641723632810000e+002) (2, 5.72705554962158200000e+000) (3, 1.46608288574218750000e+003) (4, 8.06359436035156250000e+002) (5, 1.21065319824218750000e+003) (6, 1.47582031250000000000e+003) (7, 1.14784667968750000000e+003) (8, -1.69865631103515620000e+002) (9, -9.55468261718750000000e+002) (10, -6.52148254394531250000e+002) (11, -8.62521362304687500000e+002) (12, 3.04713592529296870000e+002) (13, 3.84046295166015620000e+002) (14, -3.43810424804687500000e+001) (15, -2.13650482177734370000e+002) (16, -7.90444641113281250000e+002) (17, -1.52501327514648440000e+002) (18, -6.09483520507812500000e+002) (19, -6.09572570800781250000e+002) (20, -1.13295202636718750000e+003) (21, -1.08627185058593750000e+003) (22, -9.92958129882812500000e+002) (23, -9.99698364257812500000e+002) (24, -1.49959802246093750000e+003) (25, -1.20050073242187500000e+003) (26, -1.32105322265625000000e+003) (27, 1.49334045410156250000e+003) (28, 1.49987756347656250000e+003) (29, 1.49926196289062500000e+003) (30, -1.48250634765625000000e+003) (31, -8.40741729736328130000e+001) (32, 7.23812789916992190000e+001) (33, -6.16006103515625000000e+002) (34, 1.04887245178222660000e+002) (35, -1.50000000000000000000e+003) (36, 1.03898364257812500000e+003) (37, 4.81929962158203130000e+002) (38, 1.49980383300781250000e+003) (39, 1.49363964843750000000e+003) (40, 1.49955554199218750000e+003) (41, 1.49217138671875000000e+003) (42, 1.49514440917968750000e+003) (43, 1.49450622558593750000e+003) (44, 1.49513085937500000000e+003) (45, 1.48152636718750000000e+003) (46, 1.48760974121093750000e+003) (47, -1.81263351440429690000e+001) (48, 1.47402343750000000000e+003) (49, -8.72335998535156250000e+002) (50, 5.98040283203125000000e+002) (51, -4.38944702148437500000e+002) (52, 4.32372833251953120000e+002) (53, 3.17619667053222660000e+001) (54, 5.55268615722656250000e+002) (55, -3.31600433349609370000e+002) (56, -1.44043664550781250000e+003) (57, -1.05036218261718750000e+003) (58, -4.63704795837402340000e+001) (59, 6.60680480957031250000e+002) (60, 8.96168334960937500000e+002) (61, 6.89514404296875000000e+002) (62, 4.49857910156250000000e+002) (63, 8.01240997314453120000e+001) (64, -1.02450512695312500000e+003) (65, -7.52278198242187500000e+002) (66, -1.45824816894531250000e+003) (67, -1.18797558593750000000e+003) (68, 1.75827682495117190000e+002) (69, 1.49997692871093750000e+003) (70, 1.49931311035156250000e+003) (71, -1.44882897949218750000e+003) (72, 2.44166198730468750000e+002) (73, 1.49775671386718750000e+003) (74, 1.49130139160156250000e+003) (75, 1.49857324218750000000e+003) (76, 1.49056591796875000000e+003) (77, 1.48252136230468750000e+003) (78, 1.48076599121093750000e+003) (79, 1.49032861328125000000e+003) (80, 1.49662719726562500000e+003) (81, 1.48168981933593750000e+003) (82, 1.43738964843750000000e+003) (83, -1.19754003906250000000e+003) (84, -2.94778656005859370000e+002) (85, 7.63621765136718750000e+002) (86, -4.97043914794921870000e+002) (87, -4.16251495361328120000e+002) (88, -6.31635742187500000000e+002) (89, -4.59390258789062500000e+002) (90, -7.54707397460937500000e+002) (91, -6.16755126953125000000e+002) (92, -7.19237487792968750000e+002) (93, -2.91688171386718750000e+002) (94, -6.19333435058593750000e+002) (95, -9.19073303222656250000e+002) (96, -1.47634045410156250000e+003) (97, -8.99253173828125000000e+002) (98, -6.57930068969726560000e+001) (99, 4.03337031602859500000e-001) (0, 1.37379138183593750000e+003) (1, 8.56391723632812500000e+002) (2, 8.16382263183593750000e+002) (3, 5.41417053222656250000e+002) (4, -1.00048400878906250000e+003) (5, -1.35338415527343750000e+003) (6, -3.93442138671875000000e+002) (7, -1.40283239746093750000e+003) (8, 9.94330627441406250000e+002) (9, -2.63656433105468750000e+002) (10, -3.21295135498046870000e+002) (11, -1.44328100585937500000e+003) (12, -9.15142631530761720000e+000) (13, -6.55075378417968750000e+001) (14, 2.36873107910156250000e+002) (15, 2.93902130126953120000e+002) (16, -2.91646423339843750000e+002) (17, 4.43234649658203120000e+002) (18, 8.97896118164062500000e+002) (19, 8.98474182128906250000e+002) (20, 9.86130371093750000000e+002) (21, 9.87252014160156250000e+002) (22, 1.46929125976562500000e+003) (23, 1.37863720703125000000e+003) (24, -8.53694458007812500000e+002) (25, 1.19523461914062500000e+003) (26, 1.45195324707031250000e+003) (27, 1.49334045410156250000e+003) (28, 1.49987756347656250000e+003) (29, 1.49926196289062500000e+003) (30, 1.49719360351562500000e+003) (31, 4.36185577392578120000e+002) (32, 7.93597167968750000000e+002) (33, -3.78160308837890620000e+002) (34, 5.95447692871093750000e+002) (35, -1.50000000000000000000e+003) (36, 3.13724731445312500000e+002) (37, 1.10708679199218750000e+003) (38, 3.70433929443359370000e+002) (39, 3.14149993896484370000e+002) (40, 1.13651321411132810000e+002) (41, 1.19292610168457030000e+002) (42, 1.21461257934570310000e+002) (43, 1.17752822875976560000e+002) (44, 7.83875350952148440000e+001) (45, 1.33041641235351560000e+002) (46, 1.25882850646972660000e+002) (47, 6.34331237792968750000e+002) (48, 1.47402343750000000000e+003) (49, -1.49984790039062500000e+003) (50, -1.44770959472656250000e+003) (51, -5.91138244628906250000e+002) (52, -2.15864471435546870000e+002) (53, 2.14621749877929690000e+002) (54, -4.44149322509765620000e+002) (55, -8.61413757324218750000e+002) (56, -1.44043664550781250000e+003) (57, -1.39284692382812500000e+003) (58, -1.46965454101562500000e+003) (59, -2.80424255371093750000e+002) (60, -6.85910278320312500000e+002) (61, 4.78034057617187500000e+002) (62, 7.17683532714843750000e+002) (63, 7.60669555664062500000e+002) (64, 1.16653918457031250000e+003) (65, 8.69011169433593750000e+002) (66, 1.49194348144531250000e+003) (67, 1.49878552246093750000e+003) (68, 1.49997912597656250000e+003) (69, 1.49997692871093750000e+003) (70, 1.49931311035156250000e+003) (71, -1.26440067291259770000e+001) (72, 1.42006372070312500000e+003) (73, 3.32134918212890620000e+002) (74, 2.58444458007812500000e+002) (75, 3.69258972167968750000e+002) (76, 2.23469375610351560000e+002) (77, 2.34794830322265620000e+002) (78, 2.02590728759765620000e+002) (79, 3.06220364570617680000e+000) (80, -9.33841857910156250000e+001) (81, 1.19980888366699220000e+002) (82, -2.99895812988281250000e+002) (83, -1.33883447265625000000e+003) (84, -5.09831359863281250000e+002) (85, 7.04161315917968750000e+002) (86, 1.40787365722656250000e+003) (87, 1.28009277343750000000e+003) (88, 1.38801855468750000000e+003) (89, 1.23344323730468750000e+003) (90, 1.24941149902343750000e+003) (91, 9.25818603515625000000e+002) (92, 9.66653137207031250000e+002) (93, 5.92796569824218750000e+002) (94, 1.03946240234375000000e+003) (95, 1.33730749511718750000e+003) (96, 1.49926977539062500000e+003) (97, 8.15325073242187500000e+002) (98, 1.49922338867187500000e+003) (99, 1.16070878505706790000e+000) (0, -6.33417968750000000000e+002) (1, -1.13128707885742190000e+002) (2, -3.09111633300781250000e+002) (3, 1.46608288574218750000e+003) (4, 5.70830505371093750000e+002) (5, 9.52415954589843750000e+002) (6, 1.47582031250000000000e+003) (7, 8.90364868164062500000e+002) (8, -5.46744018554687500000e+002) (9, -1.19865075683593750000e+003) (10, -9.35492858886718750000e+002) (11, -1.11476208496093750000e+003) (12, 2.91131652832031250000e+002) (13, 3.83196228027343750000e+002) (14, -1.09711959838867190000e+002) (15, -3.70416381835937500000e+002) (16, -1.41784509277343750000e+003) (17, -1.57861846923828120000e+002) (18, -6.17072631835937500000e+002) (19, -6.16858703613281250000e+002) (20, -1.12724450683593750000e+003) (21, -1.08292480468750000000e+003) (22, -9.73921569824218750000e+002) (23, -9.92161621093750000000e+002) (24, -1.49959802246093750000e+003) (25, -1.20053173828125000000e+003) (26, -1.07047424316406250000e+003) (27, 1.49334045410156250000e+003) (28, 1.49987756347656250000e+003) (29, 1.49926196289062500000e+003) (30, -1.48453125000000000000e+003) (31, -1.14488662719726560000e+002) (32, -2.55929977416992190000e+002) (33, -1.09228881835937500000e+003) (34, -9.30229721069335940000e+001) (35, -1.50000000000000000000e+003) (36, 3.86908386230468750000e+002) (37, 2.96009948730468750000e+002) (38, 1.48907348632812500000e+003) (39, 1.48637756347656250000e+003) (40, 1.48923596191406250000e+003) (41, 1.48523840332031250000e+003) (42, 1.48697912597656250000e+003) (43, 1.48672985839843750000e+003) (44, 1.49552294921875000000e+003) (45, 1.48790893554687500000e+003) (46, 1.48352819824218750000e+003) (47, -1.52372817993164060000e+002) (48, 1.47402343750000000000e+003) (49, -1.14929663085937500000e+003) (50, 3.45349945068359370000e+002) (51, -5.64996459960937500000e+002) (52, 3.56044647216796870000e+002) (53, 3.15974807739257810000e+001) (54, 3.27629119873046870000e+002) (55, -7.30072448730468750000e+002) (56, -1.44043664550781250000e+003) (57, -1.28223498535156250000e+003) (58, -2.82161865234375000000e+002) (59, 1.22635597229003910000e+002) (60, 2.15125793457031250000e+002) (61, 4.01216430664062500000e+002) (62, 1.61875259399414060000e+002) (63, -2.74668334960937500000e+002) (64, -1.09509887695312500000e+003) (65, -9.01723510742187500000e+002) (66, -1.45852893066406250000e+003) (67, -1.19730676269531250000e+003) (68, 1.00574020385742190000e+002) (69, 1.49997692871093750000e+003) (70, 1.49931311035156250000e+003) (71, -1.44648461914062500000e+003) (72, 1.97240356445312500000e+002) (73, 1.49658361816406250000e+003) (74, 1.48584448242187500000e+003) (75, 1.49825878906250000000e+003) (76, 1.49520703125000000000e+003) (77, 1.48850207519531250000e+003) (78, 1.48540710449218750000e+003) (79, 1.49270019531250000000e+003) (80, 1.49687231445312500000e+003) (81, 1.48178942871093750000e+003) (82, 1.41168420410156250000e+003) (83, -1.46449047851562500000e+003) (84, -8.39069763183593750000e+002) (85, 4.08314331054687500000e+002) (86, -5.71405334472656250000e+002) (87, -5.87215393066406250000e+002) (88, -6.12627990722656250000e+002) (89, -4.51741607666015620000e+002) (90, -7.47059875488281250000e+002) (91, -6.23366271972656250000e+002) (92, -7.19728881835937500000e+002) (93, -2.92179870605468750000e+002) (94, -6.23262695312500000000e+002) (95, -9.20440307617187500000e+002) (96, -1.47759155273437500000e+003) (97, -8.99253173828125000000e+002) (98, -6.92001724243164060000e+001) (99, 5.11439859867095950000e-001) (0, -5.27771057128906250000e+002) (1, 1.87317962646484370000e+002) (2, 6.61497926712036130000e+000) (3, 1.21390844726562500000e+003) (4, 1.18067858886718750000e+003) (5, 1.42603576660156250000e+003) (6, 1.47582031250000000000e+003) (7, 1.38956494140625000000e+003) (8, -9.09564514160156250000e+001) (9, -4.57475189208984370000e+002) (10, -2.88182739257812500000e+002) (11, -6.16683471679687500000e+002) (12, 3.10409118652343750000e+002) (13, 3.84183898925781250000e+002) (14, -2.98288536071777340000e+000) (15, -1.48306320190429690000e+002) (16, -3.88779205322265620000e+002) (17, -1.50300796508789060000e+002) (18, -6.06308288574218750000e+002) (19, -6.06473754882812500000e+002) (20, -1.13194079589843750000e+003) (21, -1.08624609375000000000e+003) (22, -9.92783142089843750000e+002) (23, -9.99481933593750000000e+002) (24, -1.49959802246093750000e+003) (25, -1.20047424316406250000e+003) (26, -1.30802014160156250000e+003) (27, 1.49334045410156250000e+003) (28, 1.49987756347656250000e+003) (29, 1.49926196289062500000e+003) (30, -1.47819409179687500000e+003) (31, -6.36464958190917970000e+001) (32, 7.95327529907226560000e+001) (33, -5.41444641113281250000e+002) (34, 3.36505187988281250000e+002) (35, -1.27122033691406250000e+003) (36, 1.26400024414062500000e+003) (37, 4.82545288085937500000e+002) (38, 1.49981738281250000000e+003) (39, 1.49365173339843750000e+003) (40, 1.49972290039062500000e+003) (41, 1.49233874511718750000e+003) (42, 1.49531774902343750000e+003) (43, 1.49457800292968750000e+003) (44, 1.49529382324218750000e+003) (45, 1.48152917480468750000e+003) (46, 1.48761108398437500000e+003) (47, 2.31384902954101560000e+002) (48, 1.47402343750000000000e+003) (49, -3.79294647216796870000e+002) (50, 1.08328100585937500000e+003) (51, 9.40264129638671880000e+001) (52, 4.52082519531250000000e+002) (53, 3.18424205780029300000e+001) (54, 5.57265625000000000000e+002) (55, 2.50101165771484370000e+002) (56, -1.44043664550781250000e+003) (57, -7.71190734863281250000e+002) (58, 2.18527206420898440000e+002) (59, 9.06268920898437500000e+002) (60, 1.21201074218750000000e+003) (61, 6.93705444335937500000e+002) (62, 4.54034332275390620000e+002) (63, 8.10553741455078120000e+001) (64, -1.02427001953125000000e+003) (65, -7.52208923339843750000e+002) (66, -1.45769726562500000000e+003) (67, -8.59177490234375000000e+002) (68, 4.73969787597656250000e+002) (69, 1.49997692871093750000e+003) (70, 1.49931311035156250000e+003) (71, -1.44882641601562500000e+003) (72, 2.44172515869140620000e+002) (73, 1.49855065917968750000e+003) (74, 1.49491101074218750000e+003) (75, 1.49878991699218750000e+003) (76, 1.49246459960937500000e+003) (77, 1.48917980957031250000e+003) (78, 1.48829101562500000000e+003) (79, 1.49391711425781250000e+003) (80, 1.49811132812500000000e+003) (81, 1.48211511230468750000e+003) (82, 1.47334313964843750000e+003) (83, -6.77799255371093750000e+002) (84, 5.49350036621093750000e+002) (85, 7.90886657714843750000e+002) (86, -4.96352783203125000000e+002) (87, -4.15295989990234370000e+002) (88, -6.31304626464843750000e+002) (89, -4.59052917480468750000e+002) (90, -7.54467163085937500000e+002) (91, -6.12673767089843750000e+002) (92, -7.18915649414062500000e+002) (93, -2.91365966796875000000e+002) (94, -6.16571350097656250000e+002) (95, -9.17376892089843750000e+002) (96, -1.47534741210937500000e+003) (97, -8.99253173828125000000e+002) (98, -6.29302444458007810000e+001) (99, -1.53403595089912410000e-001) (0, 1.47306433105468750000e+003) (1, 1.42331408691406250000e+003) (2, 1.38156176757812500000e+003) (3, 1.69993896484375000000e+002) (4, -9.63574279785156250000e+002) (5, -1.35338415527343750000e+003) (6, -3.93442138671875000000e+002) (7, -6.38729492187500000000e+002) (8, 1.45566247558593750000e+003) (9, 9.81667846679687500000e+002) (10, -4.71158180236816410000e+001) (11, -1.44328100585937500000e+003) (12, -1.93072021484375000000e+002) (13, -9.74542694091796870000e+001) (14, 3.61851837158203130000e+002) (15, 4.18881958007812500000e+002) (16, -1.66665527343750000000e+002) (17, 4.74902496337890620000e+002) (18, 5.82717651367187500000e+002) (19, 9.03541931152343750000e+002) (20, 1.45835754394531250000e+003) (21, 1.49707617187500000000e+003) (22, 1.47891918945312500000e+003) (23, 1.46798095703125000000e+003) (24, -7.48604980468750000000e+002) (25, 1.11761840820312500000e+003) (26, 1.45195324707031250000e+003) (27, 1.49334045410156250000e+003) (28, 1.49987756347656250000e+003) (29, 1.49926196289062500000e+003) (30, 1.49719360351562500000e+003) (31, 1.32686938476562500000e+003) (32, 1.20739025878906250000e+003) (33, 1.58727920532226560000e+002) (34, 1.17666015625000000000e+003) (35, -1.40582995605468750000e+003) (36, 1.18489379882812500000e+002) (37, 1.08925097656250000000e+003) (38, -1.12989636230468750000e+003) (39, -1.27642163085937500000e+003) (40, -1.34595642089843750000e+003) (41, -1.34400854492187500000e+003) (42, -1.34553393554687500000e+003) (43, -1.34622888183593750000e+003) (44, -1.35121936035156250000e+003) (45, -1.34874133300781250000e+003) (46, -1.34336486816406250000e+003) (47, 4.18274414062500000000e+002) (48, 1.47402343750000000000e+003) (49, -1.49984790039062500000e+003) (50, -1.44770959472656250000e+003) (51, -5.91138244628906250000e+002) (52, 2.89874084472656250000e+002) (53, 3.07556518554687500000e+002) (54, 3.00772521972656250000e+002) (55, -3.59816772460937500000e+002) (56, -1.44043664550781250000e+003) (57, -1.39284692382812500000e+003) (58, -1.46965454101562500000e+003) (59, 3.93390808105468750000e+002) (60, 3.58668479919433590000e+001) (61, 9.02268249511718750000e+002) (62, 9.02209533691406250000e+002) (63, 1.35845971679687500000e+003) (64, 1.46218469238281250000e+003) (65, 1.48632958984375000000e+003) (66, 1.49194348144531250000e+003) (67, 1.49878552246093750000e+003) (68, 1.49997912597656250000e+003) (69, 1.49997692871093750000e+003) (70, 1.49931311035156250000e+003) (71, 1.29223229980468750000e+003) (72, 5.79905944824218750000e+002) (73, -1.49088037109375000000e+003) (74, -1.48590429687500000000e+003) (75, -1.49759497070312500000e+003) (76, -1.41422558593750000000e+003) (77, -1.40670300292968750000e+003) (78, -1.49324536132812500000e+003) (79, -1.18386340332031250000e+003) (80, -1.15498425292968750000e+003) (81, -1.16705700683593750000e+003) (82, -1.27079309082031250000e+003) (83, -8.25061157226562500000e+002) (84, 9.92796020507812500000e+001) (85, 1.13042346191406250000e+003) (86, 1.38026977539062500000e+003) (87, 1.27069689941406250000e+003) (88, 1.39223168945312500000e+003) (89, 1.39200939941406250000e+003) (90, 1.38014721679687500000e+003) (91, 1.40087878417968750000e+003) (92, 1.09515380859375000000e+003) (93, 6.53024353027343750000e+002) (94, 6.82996582031250000000e+002) (95, 1.00987139892578120000e+003) (96, 1.00438366699218750000e+003) (97, 6.13364379882812500000e+002) (98, 1.21244738769531250000e+003) (99, 1.96304452419281010000e+000) (0, -6.33417968750000000000e+002) (1, -1.13128707885742190000e+002) (2, -3.09111633300781250000e+002) (3, 1.46608288574218750000e+003) (4, 5.70830505371093750000e+002) (5, 9.52415954589843750000e+002) (6, 1.47582031250000000000e+003) (7, 8.90364868164062500000e+002) (8, -5.46744018554687500000e+002) (9, -1.19865075683593750000e+003) (10, -9.35492858886718750000e+002) (11, -1.11476208496093750000e+003) (12, 2.91131652832031250000e+002) (13, 3.83196228027343750000e+002) (14, -1.09711959838867190000e+002) (15, -3.70416381835937500000e+002) (16, -1.41784509277343750000e+003) (17, -1.57861846923828120000e+002) (18, -6.17072631835937500000e+002) (19, -6.16858703613281250000e+002) (20, -1.12724450683593750000e+003) (21, -1.08292480468750000000e+003) (22, -9.73921569824218750000e+002) (23, -9.92161621093750000000e+002) (24, -1.49959802246093750000e+003) (25, -1.20053173828125000000e+003) (26, -1.07047424316406250000e+003) (27, 1.49334045410156250000e+003) (28, 1.49987756347656250000e+003) (29, 1.49926196289062500000e+003) (30, -1.48453125000000000000e+003) (31, -1.14488662719726560000e+002) (32, -2.55929977416992190000e+002) (33, -1.09228881835937500000e+003) (34, -9.30229721069335940000e+001) (35, -1.50000000000000000000e+003) (36, 3.86908386230468750000e+002) (37, 2.96009948730468750000e+002) (38, 1.48907348632812500000e+003) (39, 1.48637756347656250000e+003) (40, 1.48923596191406250000e+003) (41, 1.48523840332031250000e+003) (42, 1.48697912597656250000e+003) (43, 1.48672985839843750000e+003) (44, 1.49552294921875000000e+003) (45, 1.48790893554687500000e+003) (46, 1.48352819824218750000e+003) (47, -1.52372817993164060000e+002) (48, 1.47402343750000000000e+003) (49, -1.14929663085937500000e+003) (50, 3.45349945068359370000e+002) (51, -5.64996459960937500000e+002) (52, 3.56044647216796870000e+002) (53, 3.15974807739257810000e+001) (54, 3.27629119873046870000e+002) (55, -7.30072448730468750000e+002) (56, -1.44043664550781250000e+003) (57, -1.28223498535156250000e+003) (58, -2.82161865234375000000e+002) (59, 1.22635597229003910000e+002) (60, 2.15125793457031250000e+002) (61, 4.01216430664062500000e+002) (62, 1.61875259399414060000e+002) (63, -2.74668334960937500000e+002) (64, -1.09509887695312500000e+003) (65, -9.01723510742187500000e+002) (66, -1.45852893066406250000e+003) (67, -1.19730676269531250000e+003) (68, 1.00574020385742190000e+002) (69, 1.49997692871093750000e+003) (70, 1.49931311035156250000e+003) (71, -1.44648461914062500000e+003) (72, 1.97240356445312500000e+002) (73, 1.49658361816406250000e+003) (74, 1.48584448242187500000e+003) (75, 1.49825878906250000000e+003) (76, 1.49520703125000000000e+003) (77, 1.48850207519531250000e+003) (78, 1.48540710449218750000e+003) (79, 1.49270019531250000000e+003) (80, 1.49687231445312500000e+003) (81, 1.48178942871093750000e+003) (82, 1.41168420410156250000e+003) (83, -1.46449047851562500000e+003) (84, -8.39069763183593750000e+002) (85, 4.08314331054687500000e+002) (86, -5.71405334472656250000e+002) (87, -5.87215393066406250000e+002) (88, -6.12627990722656250000e+002) (89, -4.51741607666015620000e+002) (90, -7.47059875488281250000e+002) (91, -6.23366271972656250000e+002) (92, -7.19728881835937500000e+002) (93, -2.92179870605468750000e+002) (94, -6.23262695312500000000e+002) (95, -9.20440307617187500000e+002) (96, -1.47759155273437500000e+003) (97, -8.99253173828125000000e+002) (98, -6.92001724243164060000e+001) (99, 5.82984566688537600000e-001) (0, -5.27850158691406250000e+002) (1, 1.87295516967773440000e+002) (2, 6.59255313873291020000e+000) (3, 1.20672204589843750000e+003) (4, 1.06978076171875000000e+003) (5, 1.38574670410156250000e+003) (6, 1.47582031250000000000e+003) (7, 1.37964440917968750000e+003) (8, -9.19898834228515630000e+001) (9, -7.09155090332031250000e+002) (10, -2.88279174804687500000e+002) (11, -6.17761291503906250000e+002) (12, 3.10376647949218750000e+002) (13, 3.84176666259765620000e+002) (14, -2.98985862731933590000e+000) (15, -1.48323074340820310000e+002) (16, -3.88795959472656250000e+002) (17, -1.50307769775390620000e+002) (18, -6.06325073242187500000e+002) (19, -6.06514038085937500000e+002) (20, -1.13195385742187500000e+003) (21, -1.08624682617187500000e+003) (22, -9.92785339355468750000e+002) (23, -9.99495361328125000000e+002) (24, -1.49959802246093750000e+003) (25, -1.20048315429687500000e+003) (26, -1.26237036132812500000e+003) (27, 1.49334045410156250000e+003) (28, 1.49987756347656250000e+003) (29, 1.49926196289062500000e+003) (30, -1.48110034179687500000e+003) (31, -6.36658744812011720000e+001) (32, 7.94788894653320310000e+001) (33, -5.41498413085937500000e+002) (34, 2.68382659912109370000e+002) (35, -1.50000000000000000000e+003) (36, 1.19782141113281250000e+003) (37, 4.82468444824218750000e+002) (38, 1.49981176757812500000e+003) (39, 1.49364221191406250000e+003) (40, 1.49959265136718750000e+003) (41, 1.49220849609375000000e+003) (42, 1.49518750000000000000e+003) (43, 1.49452416992187500000e+003) (44, 1.49516357421875000000e+003) (45, 1.48152685546875000000e+003) (46, 1.48761035156250000000e+003) (47, -1.80678024291992190000e+001) (48, 1.47402343750000000000e+003) (49, -5.99633666992187500000e+002) (50, 8.49083618164062500000e+002) (51, -1.59713043212890620000e+002) (52, 4.51311004638671870000e+002) (53, 3.18349227905273440000e+001) (54, 5.57225341796875000000e+002) (55, 4.94904098510742190000e+001) (56, -1.44043664550781250000e+003) (57, -7.91412536621093750000e+002) (58, 2.10231903076171870000e+002) (59, 8.97842773437500000000e+002) (60, 1.20997583007812500000e+003) (61, 6.93395446777343750000e+002) (62, 4.53724182128906250000e+002) (63, 8.10015487670898440000e+001) (64, -1.02434338378906250000e+003) (65, -7.52241943359375000000e+002) (66, -1.45808471679687500000e+003) (67, -1.15168762207031250000e+003) (68, 1.88787643432617190000e+002) (69, 1.49997692871093750000e+003) (70, 1.49931311035156250000e+003) (71, -1.44882849121093750000e+003) (72, 2.44170196533203120000e+002) (73, 1.49831958007812500000e+003) (74, 1.49385058593750000000e+003) (75, 1.49875146484375000000e+003) (76, 1.49153234863281250000e+003) (77, 1.48694201660156250000e+003) (78, 1.48735876464843750000e+003) (79, 1.49360534667968750000e+003) (80, 1.49805749511718750000e+003) (81, 1.48209265136718750000e+003) (82, 1.47324218750000000000e+003) (83, -6.77821838378906250000e+002) (84, 1.29985336303710940000e+002) (85, 7.90775024414062500000e+002) (86, -4.96482696533203120000e+002) (87, -4.15607696533203120000e+002) (88, -6.31434326171875000000e+002) (89, -4.59182830810546870000e+002) (90, -7.54499023437500000000e+002) (91, -6.13869873046875000000e+002) (92, -7.19022521972656250000e+002) (93, -2.91472747802734370000e+002) (94, -6.17598022460937500000e+002) (95, -9.18403564453125000000e+002) (96, -1.47577526855468750000e+003) (97, -8.99253173828125000000e+002) (98, -6.42113494873046880000e+001) (99, 3.58510702848434450000e-001) (0, -5.28015441894531250000e+002) (1, 1.86999420166015620000e+002) (2, 5.79685878753662110000e+000) (3, 1.46608288574218750000e+003) (4, 8.82702331542968750000e+002) (5, 1.24246252441406250000e+003) (6, 1.47582031250000000000e+003) (7, 1.17692163085937500000e+003) (8, -1.66648880004882810000e+002) (9, -9.55066162109375000000e+002) (10, -6.51848083496093750000e+002) (11, -8.61779418945312500000e+002) (12, 3.04735992431640620000e+002) (13, 3.84049133300781250000e+002) (14, -3.43593292236328120000e+001) (15, -2.13598373413085940000e+002) (16, -7.90392517089843750000e+002) (17, -1.52479644775390620000e+002) (18, -6.09431274414062500000e+002) (19, -6.09447570800781250000e+002) (20, -1.13291052246093750000e+003) (21, -1.08624584960937500000e+003) (22, -9.92950927734375000000e+002) (23, -9.99692993164062500000e+002) (24, -1.49959802246093750000e+003) (25, -1.20047265625000000000e+003) (26, -8.94099060058593750000e+002) (27, 1.49334045410156250000e+003) (28, 1.49987756347656250000e+003) (29, 1.49926196289062500000e+003) (30, -1.47931042480468750000e+003) (31, -8.40138702392578130000e+001) (32, 7.25488281250000000000e+001) (33, -6.15838562011718750000e+002) (34, 1.04986824035644530000e+002) (35, -1.50000000000000000000e+003) (36, 1.03915124511718750000e+003) (37, 4.82168823242187500000e+002) (38, 1.49982092285156250000e+003) (39, 1.49364709472656250000e+003) (40, 1.49965832519531250000e+003) (41, 1.49227416992187500000e+003) (42, 1.49524719238281250000e+003) (43, 1.49454895019531250000e+003) (44, 1.49523364257812500000e+003) (45, 1.48152770996093750000e+003) (46, 1.48761120605468750000e+003) (47, -1.80733566284179690000e+001) (48, 1.47402343750000000000e+003) (49, -7.76425720214843750000e+002) (50, 6.30056152343750000000e+002) (51, -1.91102767944335940000e+002) (52, 4.34774078369140620000e+002) (53, 3.17853050231933590000e+001) (54, 5.55393615722656250000e+002) (55, -3.31475433349609370000e+002) (56, -1.44043664550781250000e+003) (57, -9.73509094238281250000e+002) (58, -1.65194435119628910000e+001) (59, 6.92696350097656250000e+002) (60, 9.03900573730468750000e+002) (61, 6.90479248046875000000e+002) (62, 4.50822845458984370000e+002) (63, 8.02916183471679690000e+001) (64, -1.02447631835937500000e+003) (65, -7.52265136718750000000e+002) (66, -1.45798120117187500000e+003) (67, -7.82709899902343750000e+002) (68, 5.05773651123046870000e+002) (69, 1.49997692871093750000e+003) (70, 1.49931311035156250000e+003) (71, -1.44882763671875000000e+003) (72, 2.44173416137695310000e+002) (73, 1.49787646484375000000e+003) (74, 1.49158837890625000000e+003) (75, 1.49869299316406250000e+003) (76, 1.49130187988281250000e+003) (77, 1.48428784179687500000e+003) (78, 1.48150195312500000000e+003) (79, 1.49057470703125000000e+003) (80, 1.49666992187500000000e+003) (81, 1.48170739746093750000e+003) (82, 1.43744165039062500000e+003) (83, -1.19747021484375000000e+003) (84, -2.94708831787109370000e+002) (85, 7.63969116210937500000e+002) (86, -4.96941345214843750000e+002) (87, -4.16005432128906250000e+002) (88, -6.31533264160156250000e+002) (89, -4.59287689208984370000e+002) (90, -7.54607849121093750000e+002) (91, -6.16034790039062500000e+002) (92, -7.19195739746093750000e+002) (93, -2.91646545410156250000e+002) (94, -6.18932678222656250000e+002) (95, -9.18672546386718750000e+002) (96, -1.47617358398437500000e+003) (97, -8.99253173828125000000e+002) (98, -6.49457168579101560000e+001) (99, 8.60978960990905760000e-002) (0, -5.27852966308593750000e+002) (1, 1.87290740966796870000e+002) (2, 6.58779907226562500000e+000) (3, 1.20639514160156250000e+003) (4, 1.06473388671875000000e+003) (5, 1.38364367675781250000e+003) (6, 1.47582031250000000000e+003) (7, 1.37754138183593750000e+003) (8, -9.22089385986328130000e+001) (9, -7.09182495117187500000e+002) (10, -2.88299591064453120000e+002) (11, -6.17810363769531250000e+002) (12, 3.10375152587890620000e+002) (13, 3.84283843994140620000e+002) (14, -2.99133682250976560000e+000) (15, -1.48326644897460940000e+002) (16, -3.88799530029296870000e+002) (17, -1.50309249877929690000e+002) (18, -6.06328613281250000000e+002) (19, -6.06522521972656250000e+002) (20, -1.13195666503906250000e+003) (21, -1.08621911621093750000e+003) (22, -9.92785888671875000000e+002) (23, -9.99495910644531250000e+002) (24, -1.49959802246093750000e+003) (25, -1.20048474121093750000e+003) (26, -1.32441247558593750000e+003) (27, 1.49334045410156250000e+003) (28, 1.49987756347656250000e+003) (29, 1.49926196289062500000e+003) (30, -1.48218627929687500000e+003) (31, -6.36699714660644530000e+001) (32, 7.94674606323242190000e+001) (33, -5.41509826660156250000e+002) (34, 2.68375823974609370000e+002) (35, -1.50000000000000000000e+003) (36, 1.19780993652343750000e+003) (37, 4.82452148437500000000e+002) (38, 1.49981042480468750000e+003) (39, 1.49364196777343750000e+003) (40, 1.49959350585937500000e+003) (41, 1.49220935058593750000e+003) (42, 1.49518237304687500000e+003) (43, 1.49452197265625000000e+003) (44, 1.49516296386718750000e+003) (45, 1.48152746582031250000e+003) (46, 1.48761120605468750000e+003) (47, 2.31417129516601560000e+002) (48, 1.47402343750000000000e+003) (49, -6.06165161132812500000e+002) (50, 8.46903625488281250000e+002) (51, -1.76591064453125000000e+002) (52, 4.51147521972656250000e+002) (53, 3.18333339691162110000e+001) (54, 5.57216857910156250000e+002) (55, 4.94818649291992190000e+001) (56, -1.44043664550781250000e+003) (57, -7.96645080566406250000e+002) (58, 2.04588592529296870000e+002) (59, 8.95662719726562500000e+002) (60, 1.20944934082031250000e+003) (61, 6.93329895019531250000e+002) (62, 4.53658447265625000000e+002) (63, 8.09901351928710940000e+001) (64, -1.02434594726562500000e+003) (65, -7.52243103027343750000e+002) (66, -1.45816540527343750000e+003) (67, -1.23672167968750000000e+003) (68, -5.44256591796875000000e+001) (69, 1.49997692871093750000e+003) (70, 1.49931311035156250000e+003) (71, -1.44882763671875000000e+003) (72, 2.44169738769531250000e+002) (73, 1.49831164550781250000e+003) (74, 1.49383117675781250000e+003) (75, 1.49861865234375000000e+003) (76, 1.49083593750000000000e+003) (77, 1.48317004394531250000e+003) (78, 1.48103601074218750000e+003) (79, 1.49041882324218750000e+003) (80, 1.49664294433593750000e+003) (81, 1.48169628906250000000e+003) (82, 1.47323754882812500000e+003) (83, -6.77826477050781250000e+002) (84, 1.29980697631835940000e+002) (85, 7.90751342773437500000e+002) (86, -4.96489532470703120000e+002) (87, -4.15623992919921870000e+002) (88, -6.31440979003906250000e+002) (89, -4.59189666748046870000e+002) (90, -7.54505676269531250000e+002) (91, -6.13918945312500000000e+002) (92, -7.19026306152343750000e+002) (93, -2.91476623535156250000e+002) (94, -6.17634643554687500000e+002) (95, -9.18440185546875000000e+002) (96, -1.47579064941406250000e+003) (97, -8.99253173828125000000e+002) (98, -6.44606094360351560000e+001) (99, 3.43632280826568600000e-001) (0, 1.47277600097656250000e+003) (1, 1.39801159667968750000e+003) (2, 1.43097131347656250000e+003) (3, 1.27443458557128910000e+002) (4, -7.98723388671875000000e+002) (5, -1.35338415527343750000e+003) (6, -3.93442138671875000000e+002) (7, -5.03527740478515620000e+002) (8, 1.49485388183593750000e+003) (9, 1.10109497070312500000e+003) (10, -6.83220520019531250000e+001) (11, -1.44328100585937500000e+003) (12, -2.35622299194335940000e+002) (13, -1.38493835449218750000e+002) (14, 3.36321777343750000000e+002) (15, 3.93351928710937500000e+002) (16, -1.92195495605468750000e+002) (17, 4.49372528076171870000e+002) (18, 8.20416503906250000000e+002) (19, 1.14231640625000000000e+003) (20, 1.45949023437500000000e+003) (21, 1.41405993652343750000e+003) (22, 1.40341369628906250000e+003) (23, 1.39705883789062500000e+003) (24, -8.30893554687500000000e+002) (25, 1.14122497558593750000e+003) (26, 1.45195324707031250000e+003) (27, 1.49334045410156250000e+003) (28, 1.49987756347656250000e+003) (29, 1.49926196289062500000e+003) (30, 1.49719360351562500000e+003) (31, 1.24517016601562500000e+003) (32, 1.30182360839843750000e+003) (33, -2.40103759765625000000e+001) (34, 9.93331115722656250000e+002) (35, -1.29069323730468750000e+003) (36, 6.22836227416992190000e+001) (37, 8.85320312500000000000e+002) (38, -1.34570251464843750000e+003) (39, -1.40300830078125000000e+003) (40, -1.47247644042968750000e+003) (41, -1.47052856445312500000e+003) (42, -1.47205395507812500000e+003) (43, -1.47275793457031250000e+003) (44, -1.47775219726562500000e+003) (45, -1.47527416992187500000e+003) (46, -1.46989392089843750000e+003) (47, 5.99272521972656250000e+002) (48, 1.47402343750000000000e+003) (49, -1.49984790039062500000e+003) (50, -1.44770959472656250000e+003) (51, -5.91138244628906250000e+002) (52, 2.75523620605468750000e+002) (53, 2.90909423828125000000e+002) (54, 5.17544921875000000000e+002) (55, -3.75888824462890620000e+002) (56, -1.44043664550781250000e+003) (57, -1.39284692382812500000e+003) (58, -1.46965454101562500000e+003) (59, 4.81450866699218750000e+002) (60, 4.77049224853515620000e+002) (61, 1.17445178222656250000e+003) (62, 1.17443347167968750000e+003) (63, 1.42139404296875000000e+003) (64, 1.28590185546875000000e+003) (65, 1.43093493652343750000e+003) (66, 1.49194348144531250000e+003) (67, 1.49878552246093750000e+003) (68, 1.49997912597656250000e+003) (69, 1.49997692871093750000e+003) (70, 1.49931311035156250000e+003) (71, 1.46521118164062500000e+003) (72, 3.83788421630859370000e+002) (73, -1.49768762207031250000e+003) (74, -1.49463806152343750000e+003) (75, -1.49938500976562500000e+003) (76, -1.49615954589843750000e+003) (77, -1.49670495605468750000e+003) (78, -1.49839489746093750000e+003) (79, -1.38159155273437500000e+003) (80, -1.36390100097656250000e+003) (81, -1.37777868652343750000e+003) (82, -1.43566247558593750000e+003) (83, -7.47708129882812500000e+002) (84, 1.16305816650390620000e+002) (85, 9.60408142089843750000e+002) (86, 1.34135913085937500000e+003) (87, 1.44350598144531250000e+003) (88, 1.47664074707031250000e+003) (89, 1.47833264160156250000e+003) (90, 1.46522888183593750000e+003) (91, 1.41810949707031250000e+003) (92, 8.56354675292968750000e+002) (93, 4.18676391601562500000e+002) (94, 6.40446289062500000000e+002) (95, 7.75524902343750000000e+002) (96, 1.18812939453125000000e+003) (97, 3.74964630126953120000e+002) (98, 9.74061462402343750000e+002) (99, 1.93984460830688480000e+000) (0, 1.37379138183593750000e+003) (1, 8.56391723632812500000e+002) (2, 8.16382263183593750000e+002) (3, 5.41417053222656250000e+002) (4, -1.00048400878906250000e+003) (5, -1.35338415527343750000e+003) (6, -3.93442138671875000000e+002) (7, -1.40283239746093750000e+003) (8, 9.94330627441406250000e+002) (9, -3.63655670166015620000e+002) (10, -3.21295135498046870000e+002) (11, -1.44328100585937500000e+003) (12, -9.15142631530761720000e+000) (13, -6.55075378417968750000e+001) (14, 2.36873107910156250000e+002) (15, 2.93902130126953120000e+002) (16, -2.91646423339843750000e+002) (17, 4.43234649658203120000e+002) (18, 8.97896118164062500000e+002) (19, 8.98474182128906250000e+002) (20, 9.43562316894531250000e+002) (21, 9.44683776855468750000e+002) (22, 1.24118579101562500000e+003) (23, 1.14171093750000000000e+003) (24, -1.29619189453125000000e+003) (25, 1.19523461914062500000e+003) (26, 1.45195324707031250000e+003) (27, 1.49334045410156250000e+003) (28, 1.49987756347656250000e+003) (29, 1.49926196289062500000e+003) (30, 1.49719360351562500000e+003) (31, 4.73670578002929690000e+001) (32, 7.93597167968750000000e+002) (33, -3.78160308837890620000e+002) (34, 5.95447692871093750000e+002) (35, -1.50000000000000000000e+003) (36, 3.13724731445312500000e+002) (37, 1.10708679199218750000e+003) (38, 4.70433929443359370000e+002) (39, 4.14149963378906250000e+002) (40, 2.13652160644531250000e+002) (41, 2.19293289184570310000e+002) (42, 2.21462036132812500000e+002) (43, 2.17753662109375000000e+002) (44, 1.78388305664062500000e+002) (45, 2.33041717529296870000e+002) (46, 2.25883300781250000000e+002) (47, 6.34331237792968750000e+002) (48, 1.47402343750000000000e+003) (49, -1.49984790039062500000e+003) (50, -1.44770959472656250000e+003) (51, -5.91138244628906250000e+002) (52, -2.15864471435546870000e+002) (53, 2.14621749877929690000e+002) (54, -5.44148010253906250000e+002) (55, -8.61413757324218750000e+002) (56, -1.44043664550781250000e+003) (57, -1.39284692382812500000e+003) (58, -1.46965454101562500000e+003) (59, -2.80424255371093750000e+002) (60, -6.85910278320312500000e+002) (61, 4.78034057617187500000e+002) (62, 7.17683532714843750000e+002) (63, 7.60669555664062500000e+002) (64, 1.28714904785156250000e+003) (65, 1.17092272949218750000e+003) (66, 1.49194348144531250000e+003) (67, 1.49878552246093750000e+003) (68, 1.49997912597656250000e+003) (69, 1.49997692871093750000e+003) (70, 1.49931311035156250000e+003) (71, 2.89287384033203120000e+002) (72, 1.42006372070312500000e+003) (73, 4.32134918212890620000e+002) (74, 3.58444488525390620000e+002) (75, 4.69258972167968750000e+002) (76, 3.23468170166015620000e+002) (77, 3.34793701171875000000e+002) (78, 3.02588958740234370000e+002) (79, 1.03062156677246090000e+002) (80, 6.61570310592651370000e+000) (81, 2.19981414794921870000e+002) (82, -1.99895111083984370000e+002) (83, -1.33883447265625000000e+003) (84, -5.09831359863281250000e+002) (85, 7.04161315917968750000e+002) (86, 1.40787365722656250000e+003) (87, 1.28009277343750000000e+003) (88, 1.38917846679687500000e+003) (89, 1.13356445312500000000e+003) (90, 1.24941149902343750000e+003) (91, 9.25818603515625000000e+002) (92, 9.66653137207031250000e+002) (93, 5.92796569824218750000e+002) (94, 1.03946240234375000000e+003) (95, 1.33730749511718750000e+003) (96, 1.49926977539062500000e+003) (97, 8.15325073242187500000e+002) (98, 1.49922338867187500000e+003) (99, 1.22390437126159670000e+000) (0, 1.47510839843750000000e+003) (1, 1.42472509765625000000e+003) (2, 1.38647009277343750000e+003) (3, 9.03924438476562500000e+002) (4, -6.47962280273437500000e+002) (5, -1.35338415527343750000e+003) (6, -3.93442138671875000000e+002) (7, -3.86980987548828120000e+002) (8, 1.49485388183593750000e+003) (9, 9.81345947265625000000e+002) (10, 2.16283218383789060000e+002) (11, -1.18178930664062500000e+003) (12, 5.62450073242187500000e+002) (13, 5.73692016601562500000e+002) (14, 7.86287231445312500000e+002) (15, 8.43317138671875000000e+002) (16, 2.57767730712890620000e+002) (17, 9.22251892089843750000e+002) (18, 1.10503295898437500000e+003) (19, 1.24177783203125000000e+003) (20, 1.47844860839843750000e+003) (21, 1.49889953613281250000e+003) (22, 1.49372204589843750000e+003) (23, 1.49114367675781250000e+003) (24, -7.36237304687500000000e+002) (25, 9.95981994628906250000e+002) (26, 1.45195324707031250000e+003) (27, 1.49334045410156250000e+003) (28, 1.49987756347656250000e+003) (29, 1.49926196289062500000e+003) (30, 1.49719360351562500000e+003) (31, 1.32966259765625000000e+003) (32, 1.20876037597656250000e+003) (33, 1.58480850219726560000e+002) (34, 1.17508496093750000000e+003) (35, -1.40956372070312500000e+003) (36, 1.17179458618164060000e+002) (37, 1.09280712890625000000e+003) (38, -1.12143286132812500000e+003) (39, -1.27440576171875000000e+003) (40, -1.34400195312500000000e+003) (41, -1.34283728027343750000e+003) (42, -1.34298962402343750000e+003) (43, -1.34455529785156250000e+003) (44, -1.34956567382812500000e+003) (45, -1.34417651367187500000e+003) (46, -1.34473547363281250000e+003) (47, 7.46818054199218750000e+002) (48, 1.47402343750000000000e+003) (49, -1.49984790039062500000e+003) (50, -1.44770959472656250000e+003) (51, -5.91138244628906250000e+002) (52, 6.32135253906250000000e+002) (53, 8.87310180664062500000e+002) (54, 4.52720886230468750000e+002) (55, 2.95761299133300780000e+000) (56, -1.44043664550781250000e+003) (57, -1.02182952880859370000e+003) (58, -1.46965454101562500000e+003) (59, 3.93193786621093750000e+002) (60, 3.56905784606933590000e+001) (61, 9.00112243652343750000e+002) (62, 8.99938659667968750000e+002) (63, 1.35549572753906250000e+003) (64, 1.48390466308593750000e+003) (65, 1.48470214843750000000e+003) (66, 8.34056152343750000000e+002) (67, 1.49878552246093750000e+003) (68, 1.49997912597656250000e+003) (69, 1.49997692871093750000e+003) (70, 1.49931311035156250000e+003) (71, 1.29235803222656250000e+003) (72, 5.72653747558593750000e+002) (73, -1.49847302246093750000e+003) (74, -1.49642944335937500000e+003) (75, -1.49900415039062500000e+003) (76, -1.40808715820312500000e+003) (77, -1.38891479492187500000e+003) (78, -1.35957324218750000000e+003) (79, -1.18265307617187500000e+003) (80, -1.15544494628906250000e+003) (81, -1.16857067871093750000e+003) (82, -1.27398974609375000000e+003) (83, -8.28842163085937500000e+002) (84, 9.83843841552734370000e+001) (85, 1.13308544921875000000e+003) (86, 1.40281201171875000000e+003) (87, 1.45691076660156250000e+003) (88, 1.47392041015625000000e+003) (89, 1.47388269042968750000e+003) (90, 1.45626989746093750000e+003) (91, 1.38198645019531250000e+003) (92, 1.32684033203125000000e+003) (93, 1.02768505859375000000e+003) (94, 