FANN_FLO_2.1
num_layers=5
learning_rate=0.700000
connection_rate=1.000000
network_type=0
learning_momentum=0.000000
training_algorithm=2
train_error_function=0
train_stop_function=0
cascade_output_change_fraction=0.010000
quickprop_decay=-0.000100
quickprop_mu=1.750000
rprop_increase_factor=1.200000
rprop_decrease_factor=0.500000
rprop_delta_min=0.000000
rprop_delta_max=50.000000
rprop_delta_zero=0.100000
cascade_output_stagnation_epochs=12
cascade_candidate_change_fraction=0.010000
cascade_candidate_stagnation_epochs=12
cascade_max_out_epochs=150
cascade_min_out_epochs=50
cascade_max_cand_epochs=150
cascade_min_cand_epochs=50
cascade_num_candidate_groups=2
bit_fail_limit=3.49999994039535520000e-001
cascade_candidate_limit=1.00000000000000000000e+003
cascade_weight_multiplier=4.00000005960464480000e-001
cascade_activation_functions_count=10
cascade_activation_functions=3 5 7 8 10 11 14 15 16 17 
cascade_activation_steepnesses_count=4
cascade_activation_steepnesses=2.50000000000000000000e-001 5.00000000000000000000e-001 7.50000000000000000000e-001 1.00000000000000000000e+000 
layer_sizes=100 76 52 28 2 
scale_included=0
neurons (num_inputs, activation_function, activation_steepness)=(0, 0, 0.00000000000000000000e+000) (0, 0, 0.00000000000000000000e+000) (0, 0, 0.00000000000000000000e+000) (0, 0, 0.00000000000000000000e+000) (0, 0, 0.00000000000000000000e+000) (0, 0, 0.00000000000000000000e+000) (0, 0, 0.00000000000000000000e+000) (0, 0, 0.00000000000000000000e+000) (0, 0, 0.00000000000000000000e+000) (0, 0, 0.00000000000000000000e+000) (0, 0, 0.00000000000000000000e+000) (0, 0, 0.00000000000000000000e+000) (0, 0, 0.00000000000000000000e+000) (0, 0, 0.00000000000000000000e+000) (0, 0, 0.00000000000000000000e+000) (0, 0, 0.00000000000000000000e+000) (0, 0, 0.00000000000000000000e+000) (0, 0, 0.00000000000000000000e+000) (0, 0, 0.00000000000000000000e+000) (0, 0, 0.00000000000000000000e+000) (0, 0, 0.00000000000000000000e+000) (0, 0, 0.00000000000000000000e+000) (0, 0, 0.00000000000000000000e+000) (0, 0, 0.00000000000000000000e+000) (0, 0, 0.00000000000000000000e+000) (0, 0, 0.00000000000000000000e+000) (0, 0, 0.00000000000000000000e+000) (0, 0, 0.00000000000000000000e+000) (0, 0, 0.00000000000000000000e+000) (0, 0, 0.00000000000000000000e+000) (0, 0, 0.00000000000000000000e+000) (0, 0, 0.00000000000000000000e+000) (0, 0, 0.00000000000000000000e+000) (0, 0, 0.00000000000000000000e+000) (0, 0, 0.00000000000000000000e+000) (0, 0, 0.00000000000000000000e+000) (0, 0, 0.00000000000000000000e+000) (0, 0, 0.00000000000000000000e+000) (0, 0, 0.00000000000000000000e+000) (0, 0, 0.00000000000000000000e+000) (0, 0, 0.00000000000000000000e+000) (0, 0, 0.00000000000000000000e+000) (0, 0, 0.00000000000000000000e+000) (0, 0, 0.00000000000000000000e+000) (0, 0, 0.00000000000000000000e+000) (0, 0, 0.00000000000000000000e+000) (0, 0, 0.00000000000000000000e+000) (0, 0, 0.00000000000000000000e+000) (0, 0, 0.00000000000000000000e+000) (0, 0, 0.00000000000000000000e+000) (0, 0, 0.00000000000000000000e+000) (0, 0, 0.00000000000000000000e+000) (0, 0, 0.00000000000000000000e+000) (0, 0, 0.00000000000000000000e+000) (0, 0, 0.00000000000000000000e+000) (0, 0, 0.00000000000000000000e+000) (0, 0, 0.00000000000000000000e+000) (0, 0, 0.00000000000000000000e+000) (0, 0, 0.00000000000000000000e+000) (0, 0, 0.00000000000000000000e+000) (0, 0, 0.00000000000000000000e+000) (0, 0, 0.00000000000000000000e+000) (0, 0, 0.00000000000000000000e+000) (0, 0, 0.00000000000000000000e+000) (0, 0, 0.00000000000000000000e+000) (0, 0, 0.00000000000000000000e+000) (0, 0, 0.00000000000000000000e+000) (0, 0, 0.00000000000000000000e+000) (0, 0, 0.00000000000000000000e+000) (0, 0, 0.00000000000000000000e+000) (0, 0, 0.00000000000000000000e+000) (0, 0, 0.00000000000000000000e+000) (0, 0, 0.00000000000000000000e+000) (0, 0, 0.00000000000000000000e+000) (0, 0, 0.00000000000000000000e+000) (0, 0, 0.00000000000000000000e+000) (0, 0, 0.00000000000000000000e+000) (0, 0, 0.00000000000000000000e+000) (0, 0, 0.00000000000000000000e+000) (0, 0, 0.00000000000000000000e+000) (0, 0, 0.00000000000000000000e+000) (0, 0, 0.00000000000000000000e+000) (0, 0, 0.00000000000000000000e+000) (0, 0, 0.00000000000000000000e+000) (0, 0, 0.00000000000000000000e+000) (0, 0, 0.00000000000000000000e+000) (0, 0, 0.00000000000000000000e+000) (0, 0, 0.00000000000000000000e+000) (0, 0, 0.00000000000000000000e+000) (0, 0, 0.00000000000000000000e+000) (0, 0, 0.00000000000000000000e+000) (0, 0, 0.00000000000000000000e+000) (0, 0, 0.00000000000000000000e+000) (0, 0, 0.00000000000000000000e+000) (0, 0, 0.00000000000000000000e+000) (0, 0, 0.00000000000000000000e+000) (0, 0, 0.00000000000000000000e+000) (0, 0, 0.00000000000000000000e+000) (0, 0, 0.00000000000000000000e+000) (0, 0, 0.00000000000000000000e+000) (100, 11, 5.00000000000000000000e-001) (100, 11, 5.00000000000000000000e-001) (100, 11, 5.00000000000000000000e-001) (100, 11, 5.00000000000000000000e-001) (100, 11, 5.00000000000000000000e-001) (100, 11, 5.00000000000000000000e-001) (100, 11, 5.00000000000000000000e-001) (100, 11, 5.00000000000000000000e-001) (100, 11, 5.00000000000000000000e-001) (100, 11, 5.00000000000000000000e-001) (100, 11, 5.00000000000000000000e-001) (100, 11, 5.00000000000000000000e-001) (100, 11, 5.00000000000000000000e-001) (100, 11, 5.00000000000000000000e-001) (100, 11, 5.00000000000000000000e-001) (100, 11, 5.00000000000000000000e-001) (100, 11, 5.00000000000000000000e-001) (100, 11, 5.00000000000000000000e-001) (100, 11, 5.00000000000000000000e-001) (100, 11, 5.00000000000000000000e-001) (100, 11, 5.00000000000000000000e-001) (100, 11, 5.00000000000000000000e-001) (100, 11, 5.00000000000000000000e-001) (100, 11, 5.00000000000000000000e-001) (100, 11, 5.00000000000000000000e-001) (100, 11, 5.00000000000000000000e-001) (100, 11, 5.00000000000000000000e-001) (100, 11, 5.00000000000000000000e-001) (100, 11, 5.00000000000000000000e-001) (100, 11, 5.00000000000000000000e-001) (100, 11, 5.00000000000000000000e-001) (100, 11, 5.00000000000000000000e-001) (100, 11, 5.00000000000000000000e-001) (100, 11, 5.00000000000000000000e-001) (100, 11, 5.00000000000000000000e-001) (100, 11, 5.00000000000000000000e-001) (100, 11, 5.00000000000000000000e-001) (100, 11, 5.00000000000000000000e-001) (100, 11, 5.00000000000000000000e-001) (100, 11, 5.00000000000000000000e-001) (100, 11, 5.00000000000000000000e-001) (100, 11, 5.00000000000000000000e-001) (100, 11, 5.00000000000000000000e-001) (100, 11, 5.00000000000000000000e-001) (100, 11, 5.00000000000000000000e-001) (100, 11, 5.00000000000000000000e-001) (100, 11, 5.00000000000000000000e-001) (100, 11, 5.00000000000000000000e-001) (100, 11, 5.00000000000000000000e-001) (100, 11, 5.00000000000000000000e-001) (100, 11, 5.00000000000000000000e-001) (100, 11, 5.00000000000000000000e-001) (100, 11, 5.00000000000000000000e-001) (100, 11, 5.00000000000000000000e-001) (100, 11, 5.00000000000000000000e-001) (100, 11, 5.00000000000000000000e-001) (100, 11, 5.00000000000000000000e-001) (100, 11, 5.00000000000000000000e-001) (100, 11, 5.00000000000000000000e-001) (100, 11, 5.00000000000000000000e-001) (100, 11, 5.00000000000000000000e-001) (100, 11, 5.00000000000000000000e-001) (100, 11, 5.00000000000000000000e-001) (100, 11, 5.00000000000000000000e-001) (100, 11, 5.00000000000000000000e-001) (100, 11, 5.00000000000000000000e-001) (100, 11, 5.00000000000000000000e-001) (100, 11, 5.00000000000000000000e-001) (100, 11, 5.00000000000000000000e-001) (100, 11, 5.00000000000000000000e-001) (100, 11, 5.00000000000000000000e-001) (100, 11, 5.00000000000000000000e-001) (100, 11, 5.00000000000000000000e-001) (100, 11, 5.00000000000000000000e-001) (100, 11, 5.00000000000000000000e-001) (0, 11, 5.00000000000000000000e-001) (76, 11, 5.00000000000000000000e-001) (76, 11, 5.00000000000000000000e-001) (76, 11, 5.00000000000000000000e-001) (76, 11, 5.00000000000000000000e-001) (76, 11, 5.00000000000000000000e-001) (76, 11, 5.00000000000000000000e-001) (76, 11, 5.00000000000000000000e-001) (76, 11, 5.00000000000000000000e-001) (76, 11, 5.00000000000000000000e-001) (76, 11, 5.00000000000000000000e-001) (76, 11, 5.00000000000000000000e-001) (76, 11, 5.00000000000000000000e-001) (76, 11, 5.00000000000000000000e-001) (76, 11, 5.00000000000000000000e-001) (76, 11, 5.00000000000000000000e-001) (76, 11, 5.00000000000000000000e-001) (76, 11, 5.00000000000000000000e-001) (76, 11, 5.00000000000000000000e-001) (76, 11, 5.00000000000000000000e-001) (76, 11, 5.00000000000000000000e-001) (76, 11, 5.00000000000000000000e-001) (76, 11, 5.00000000000000000000e-001) (76, 11, 5.00000000000000000000e-001) (76, 11, 5.00000000000000000000e-001) (76, 11, 5.00000000000000000000e-001) (76, 11, 5.00000000000000000000e-001) (76, 11, 5.00000000000000000000e-001) (76, 11, 5.00000000000000000000e-001) (76, 11, 5.00000000000000000000e-001) (76, 11, 5.00000000000000000000e-001) (76, 11, 5.00000000000000000000e-001) (76, 11, 5.00000000000000000000e-001) (76, 11, 5.00000000000000000000e-001) (76, 11, 5.00000000000000000000e-001) (76, 11, 5.00000000000000000000e-001) (76, 11, 5.00000000000000000000e-001) (76, 11, 5.00000000000000000000e-001) (76, 11, 5.00000000000000000000e-001) (76, 11, 5.00000000000000000000e-001) (76, 11, 5.00000000000000000000e-001) (76, 11, 5.00000000000000000000e-001) (76, 11, 5.00000000000000000000e-001) (76, 11, 5.00000000000000000000e-001) (76, 11, 5.00000000000000000000e-001) (76, 11, 5.00000000000000000000e-001) (76, 11, 5.00000000000000000000e-001) (76, 11, 5.00000000000000000000e-001) (76, 11, 5.00000000000000000000e-001) (76, 11, 5.00000000000000000000e-001) (76, 11, 5.00000000000000000000e-001) (76, 11, 5.00000000000000000000e-001) (0, 11, 5.00000000000000000000e-001) (52, 11, 5.00000000000000000000e-001) (52, 11, 5.00000000000000000000e-001) (52, 11, 5.00000000000000000000e-001) (52, 11, 5.00000000000000000000e-001) (52, 11, 5.00000000000000000000e-001) (52, 11, 5.00000000000000000000e-001) (52, 11, 5.00000000000000000000e-001) (52, 11, 5.00000000000000000000e-001) (52, 11, 5.00000000000000000000e-001) (52, 11, 5.00000000000000000000e-001) (52, 11, 5.00000000000000000000e-001) (52, 11, 5.00000000000000000000e-001) (52, 11, 5.00000000000000000000e-001) (52, 11, 5.00000000000000000000e-001) (52, 11, 5.00000000000000000000e-001) (52, 11, 5.00000000000000000000e-001) (52, 11, 5.00000000000000000000e-001) (52, 11, 5.00000000000000000000e-001) (52, 11, 5.00000000000000000000e-001) (52, 11, 5.00000000000000000000e-001) (52, 11, 5.00000000000000000000e-001) (52, 11, 5.00000000000000000000e-001) (52, 11, 5.00000000000000000000e-001) (52, 11, 5.00000000000000000000e-001) (52, 11, 5.00000000000000000000e-001) (52, 11, 5.00000000000000000000e-001) (52, 11, 5.00000000000000000000e-001) (0, 11, 5.00000000000000000000e-001) (28, 6, 5.00000000000000000000e-001) (0, 6, 5.00000000000000000000e-001) 
connections (connected_to_neuron, weight)=(0, -2.26201146841049190000e-001) (1, -2.08689510822296140000e-001) (2, -1.90609186887741090000e-001) (3, -4.18117582798004150000e-001) (4, -4.55413252115249630000e-001) (5, -3.06610345840454100000e-001) (6, -2.85364508628845210000e-001) (7, -3.05150449275970460000e-001) (8, -4.63277339935302730000e-001) (9, -3.39435219764709470000e-001) (10, -1.11700735986232760000e-001) (11, -9.93777364492416380000e-002) (12, -2.38531634211540220000e-001) (13, -8.34840163588523860000e-002) (14, -2.27817043662071230000e-001) (15, -1.43185690045356750000e-001) (16, -1.92954629659652710000e-001) (17, -2.46884256601333620000e-001) (18, -3.06009620428085330000e-001) (19, -2.34738871455192570000e-001) (20, -2.37775817513465880000e-001) (21, -2.02854782342910770000e-001) (22, -4.31206226348876950000e-001) (23, -1.44671905040740970000e+000) (24, -5.03580391407012940000e-001) (25, -1.67950943112373350000e-001) (26, -6.70201033353805540000e-002) (27, 2.96792318113148210000e-003) (28, -5.01021035015583040000e-002) (29, -1.39726102352142330000e-001) (30, -1.25474840402603150000e-001) (31, -3.98615658283233640000e-001) (32, -1.01851224899291990000e+000) (33, -5.43998122215271000000e-001) (34, -3.47299396991729740000e-001) (35, -2.19311788678169250000e-001) (36, -3.90162467956542970000e-001) (37, -7.11983025074005130000e-001) (38, -1.94514110684394840000e-001) (39, -8.69803577661514280000e-002) (40, -2.26737130433321000000e-002) (41, -2.16528456658124920000e-002) (42, -2.38455850630998610000e-002) (43, -2.89873126894235610000e-002) (44, -4.56402868032455440000e-001) (45, -1.02912032604217530000e+000) (46, -4.79704529047012330000e-001) (47, -3.72833907604217530000e-002) (48, -1.85076160430908200000e+001) (49, -3.06527748107910160000e+001) (50, -4.66145896911621090000e+001) (51, -3.88622939586639400000e-001) (52, -2.67323404550552370000e-001) (53, -2.06365481019020080000e-001) (54, -9.66554805636405940000e-002) (55, -2.53857791423797610000e-001) (56, -2.26881265640258790000e-001) (57, -2.48858362436294560000e-001) (58, -2.88763284683227540000e-001) (59, -1.86437323689460750000e-001) (60, -2.48076185584068300000e-001) (61, -1.21770806610584260000e-001) (62, -1.94485470652580260000e-001) (63, -1.18427000939846040000e-001) (64, -7.31557533144950870000e-002) (65, -8.30561146140098570000e-002) (66, -1.26152068376541140000e-001) (67, -1.80908590555191040000e-001) (68, -4.09515023231506350000e-001) (69, -1.44122987985610960000e-001) (70, -5.42987346649169920000e-001) (71, -2.26344436407089230000e-001) (72, -3.11615973711013790000e-001) (73, -3.74999523162841800000e-001) (74, -4.34957236051559450000e-001) (75, -2.32983320951461790000e-001) (76, -2.06818073987960820000e-001) (77, -8.20686399936676030000e-001) (78, -7.51191437244415280000e-001) (79, -1.59240156412124630000e-001) (80, -2.82576382160186770000e-001) (81, -1.18173003196716310000e-001) (82, -6.75978884100914000000e-002) (83, -1.55827114358544350000e-002) (84, -7.17276707291603090000e-002) (85, -1.69796794652938840000e-001) (86, -1.47073477506637570000e-001) (87, -2.37759262323379520000e-001) (88, -2.30719342827796940000e-001) (89, -3.35231244564056400000e-001) (90, -3.32561492919921880000e-001) (91, -3.52437168359756470000e-001) (92, -1.72612473368644710000e-001) (93, -2.52874314785003660000e-001) (94, -2.27177590131759640000e-001) (95, -2.50038206577301030000e-001) (96, -3.06679457426071170000e-001) (97, -1.13597787916660310000e-001) (98, -1.04379225522279740000e-002) (99, -5.07982559502124790000e-002) (0, 2.67902344465255740000e-001) (1, 5.54600954055786130000e-001) (2, 5.04305005073547360000e-001) (3, 2.16262832283973690000e-001) (4, 5.06026625633239750000e-001) (5, 4.79994028806686400000e-001) (6, 7.78506159782409670000e-001) (7, 1.85852408409118650000e+000) (8, 2.82763779163360600000e-001) (9, 2.50550180673599240000e-001) (10, 3.62302839756011960000e-001) (11, 2.89605975151062010000e-001) (12, 5.12732826173305510000e-002) (13, 5.80980420112609860000e-001) (14, 4.75277364253997800000e-001) (15, 5.36071717739105220000e-001) (16, 4.50779348611831670000e-001) (17, 6.75593793392181400000e-001) (18, 5.61767756938934330000e-001) (19, 4.42906916141510010000e-001) (20, 3.79698902368545530000e-001) (21, 3.71228247880935670000e-001) (22, 7.05148816108703610000e-001) (23, 7.17192709445953370000e-001) (24, 3.80879253149032590000e-001) (25, 4.10106062889099120000e-001) (26, 4.18701589107513430000e-001) (27, 5.01431882381439210000e-001) (28, 4.43343013525009160000e-001) (29, 5.39954125881195070000e-001) (30, 4.00849282741546630000e-001) (31, 5.30661940574646000000e-001) (32, 2.98210501670837400000e-001) (33, 3.23889642953872680000e-001) (34, 2.55740702152252200000e-001) (35, 3.49502712488174440000e-001) (36, 4.24746870994567870000e-001) (37, 2.42119103670120240000e-001) (38, 2.63403028249740600000e-001) (39, 3.80694478750228880000e-001) (40, 4.26065802574157710000e-001) (41, 1.47977486252784730000e-001) (42, 3.10901224613189700000e-001) (43, 4.84006136655807500000e-001) (44, 3.39902251958847050000e-001) (45, -6.33226871490478520000e-001) (46, -3.66602331399917600000e-001) (47, 8.60030412673950200000e-001) (48, 7.02393066406250000000e+002) (49, 8.22021179199218750000e+001) (50, 8.35960006713867190000e+001) (51, 7.90403962135314940000e-001) (52, 1.02960348129272460000e+000) (53, -1.11218547821044920000e+000) (54, 2.98243343830108640000e-001) (55, 2.59238958358764650000e-001) (56, 1.94138199090957640000e-001) (57, 2.99600750207901000000e-001) (58, 2.93391793966293330000e-001) (59, 4.41110283136367800000e-001) (60, 5.38318276405334470000e-001) (61, 3.78481835126876830000e-001) (62, 4.34706866741180420000e-001) (63, 4.72704976797103880000e-001) (64, 6.60037159919738770000e-001) (65, 5.84830164909362790000e-001) (66, 6.45026028156280520000e-001) (67, 6.71266615390777590000e-001) (68, 6.42217755317687990000e-001) (69, 6.63553416728973390000e-001) (70, 6.89841151237487790000e-001) (71, 3.90210241079330440000e-001) (72, 5.13207793235778810000e-001) (73, 2.54317015409469600000e-001) (74, -7.52603169530630110000e-003) (75, 1.49341281503438950000e-002) (76, -4.16262075304985050000e-004) (77, 2.70600855350494380000e-001) (78, 4.08051580190658570000e-001) (79, 4.26105648279190060000e-001) (80, 4.14609879255294800000e-001) (81, 4.43984687328338620000e-001) (82, 5.27721643447875980000e-001) (83, 4.89799469709396360000e-001) (84, 5.20882666110992430000e-001) (85, 4.25516843795776370000e-001) (86, 5.51208436489105220000e-001) (87, 4.41826939582824710000e-001) (88, 3.08056414127349850000e-001) (89, 1.86476871371269230000e-001) (90, 1.89247563481330870000e-001) (91, 1.96450814604759220000e-001) (92, 4.01976734399795530000e-001) (93, 6.69667303562164310000e-001) (94, 6.39896631240844730000e-001) (95, 4.80948597192764280000e-001) (96, 6.62608444690704350000e-001) (97, 4.48475867509841920000e-001) (98, -5.87276756763458250000e-001) (99, 5.73416054248809810000e-001) (0, 8.89285281300544740000e-002) (1, -6.12821197137236600000e-004) (2, 3.86386294849216940000e-003) (3, -2.58022844791412350000e-001) (4, -2.51162499189376830000e-001) (5, -3.23151707649230960000e-001) (6, -1.78613334894180300000e-001) (7, -2.55902379751205440000e-001) (8, -2.47033774852752690000e-001) (9, -2.49465510249137880000e-001) (10, 1.25724729150533680000e-002) (11, 7.27389529347419740000e-002) (12, -2.10379976779222490000e-002) (13, 8.93112421035766600000e-002) (14, 1.16667402908205990000e-002) (15, 5.76522722840309140000e-002) (16, 3.64181511104106900000e-002) (17, -3.07160783559083940000e-002) (18, 5.24705760180950160000e-002) (19, -3.62753830850124360000e-002) (20, 5.68398870527744290000e-002) (21, 4.58807088434696200000e-002) (22, 2.66782823018729690000e-003) (23, 4.96194250881671910000e-002) (24, 9.62780267000198360000e-002) (25, 1.15598157048225400000e-001) (26, -4.22421321272850040000e-002) (27, 1.12411625683307650000e-001) (28, -8.89168214052915570000e-003) (29, 1.01990938186645510000e-001) (30, 1.32207110524177550000e-001) (31, 5.51799163222312930000e-002) (32, 1.11641334369778630000e-002) (33, -3.18523822352290150000e-003) (34, 2.95357145369052890000e-002) (35, -1.34179843589663510000e-002) (36, 1.02289117872715000000e-001) (37, 1.15036398172378540000e-001) (38, -7.70229399204254150000e-002) (39, 5.22072538733482360000e-002) (40, 4.42971065640449520000e-002) (41, -7.23654404282569890000e-002) (42, 1.88191123306751250000e-002) (43, 6.99051693081855770000e-002) (44, 1.97670981287956240000e-002) (45, -6.03232719004154210000e-002) (46, 1.08908966183662410000e-001) (47, 1.77133560180664060000e-001) (48, -1.22982040047645570000e-002) (49, 2.37696185708045960000e-001) (50, 5.34307599067687990000e-001) (51, 4.18220385909080510000e-002) (52, 1.81505065411329270000e-002) (53, 1.05273641645908360000e-001) (54, 2.50629689544439320000e-002) (55, -2.80987042933702470000e-002) (56, -5.27842864394187930000e-002) (57, 1.21207579970359800000e-001) (58, -4.36589829623699190000e-002) (59, 9.72297191619873050000e-002) (60, 1.18063986301422120000e-001) (61, -6.24260827898979190000e-002) (62, 1.17972433567047120000e-001) (63, 1.02225370705127720000e-001) (64, -5.59035167098045350000e-002) (65, -7.20966840162873270000e-003) (66, 7.14150294661521910000e-002) (67, 6.35164510458707810000e-003) (68, -5.19850384443998340000e-003) (69, -4.39716540277004240000e-002) (70, 5.94371333718299870000e-002) (71, 3.68965193629264830000e-002) (72, 9.55940783023834230000e-002) (73, -1.88349820673465730000e-002) (74, -9.98619720339775090000e-002) (75, 5.47314099967479710000e-002) (76, -5.26477657258510590000e-002) (77, -7.17187896370887760000e-002) (78, -3.60682010650634770000e-002) (79, 6.90038725733757020000e-002) (80, 8.71133208274841310000e-002) (81, 2.14981418102979660000e-002) (82, -5.69023948628455400000e-004) (83, -4.40257824957370760000e-002) (84, -6.02843090891838070000e-002) (85, 5.29298037290573120000e-002) (86, 1.10529333353042600000e-001) (87, 1.90833080559968950000e-002) (88, -5.02831786870956420000e-002) (89, 6.97760209441185000000e-002) (90, -6.28401860594749450000e-002) (91, -2.75530293583869930000e-002) (92, -3.97110283374786380000e-002) (93, 1.05855710804462430000e-001) (94, 5.29687069356441500000e-002) (95, 2.96191666275262830000e-002) (96, 7.85092543810606000000e-003) (97, -5.90516030788421630000e-002) (98, -7.52405263483524320000e-003) (99, 9.06559452414512630000e-003) (0, 2.81441241502761840000e-001) (1, 5.55404484272003170000e-001) (2, 6.89191639423370360000e-001) (3, 2.87258505821228030000e-001) (4, 3.05764079093933110000e-001) (5, 1.79655060172080990000e-001) (6, 1.09768986701965330000e-001) (7, 1.62251070141792300000e-001) (8, 1.26032903790473940000e-001) (9, 9.98066887259483340000e-002) (10, 1.65095418691635130000e-001) (11, 9.08126607537269590000e-002) (12, 1.83016806840896610000e-001) (13, 3.55162292718887330000e-001) (14, 4.70155596733093260000e-001) (15, 4.39375907182693480000e-001) (16, 5.28763055801391600000e-001) (17, 4.29203689098358150000e-001) (18, 4.73893076181411740000e-001) (19, 4.78769838809967040000e-001) (20, 3.73258680105209350000e-001) (21, 5.66102147102355960000e-001) (22, 1.09715543687343600000e-001) (23, 2.08882957696914670000e-001) (24, 1.47659182548522950000e-001) (25, 6.00648641586303710000e-001) (26, 5.69754123687744140000e-001) (27, 7.28068828582763670000e-001) (28, 6.16806924343109130000e-001) (29, 6.24819338321685790000e-001) (30, 4.76884990930557250000e-001) (31, 4.99807506799697880000e-001) (32, 1.85577839612960820000e-001) (33, -3.81485879421234130000e-001) (34, 3.58862936496734620000e-001) (35, 6.49785935878753660000e-001) (36, 4.00701493024826050000e-001) (37, 3.78013193607330320000e-001) (38, 5.22117018699646000000e-001) (39, 4.90400582551956180000e-001) (40, 4.65908765792846680000e-001) (41, 3.46372455358505250000e-001) (42, 4.30411785840988160000e-001) (43, 3.32409381866455080000e-001) (44, 5.95199465751647950000e-001) (45, -8.15460801124572750000e-001) (46, -3.89287471771240230000e+000) (47, 9.75454032421112060000e-001) (48, 1.44478440284729000000e+000) (49, 5.70223474502563480000e+000) (50, 9.34827136993408200000e+000) (51, -3.74529868364334110000e-001) (52, -1.68703842163085940000e+000) (53, -4.15992832183837890000e+000) (54, -1.28585517406463620000e+000) (55, -1.22391057014465330000e+000) (56, -3.73818099498748780000e-001) (57, -2.48364999890327450000e-001) (58, -2.19786956906318660000e-001) (59, 3.12198340892791750000e-001) (60, 5.34387111663818360000e-001) (61, 5.53588032722473140000e-001) (62, 5.92696964740753170000e-001) (63, 6.09472155570983890000e-001) (64, 5.71646571159362790000e-001) (65, 7.24063217639923100000e-001) (66, 7.20254659652709960000e-001) (67, 5.63016116619110110000e-001) (68, 6.99236214160919190000e-001) (69, 7.07378327846527100000e-001) (70, 6.21410369873046880000e-001) (71, 3.23121696710586550000e-001) (72, 1.59409299492836000000e-001) (73, -1.57279837131500240000e+000) (74, -2.37869596481323240000e+000) (75, -2.60791802406311040000e+000) (76, -2.66291618347167970000e+000) (77, -6.01731419563293460000e-001) (78, 3.39091449975967410000e-001) (79, 6.99598610401153560000e-001) (80, 5.52639305591583250000e-001) (81, 6.39554679393768310000e-001) (82, 6.15541219711303710000e-001) (83, 6.58992350101470950000e-001) (84, 7.88071811199188230000e-001) (85, 7.54544615745544430000e-001) (86, 5.18075466156005860000e-001) (87, 5.47317922115325930000e-001) (88, 3.42227250337600710000e-001) (89, 3.68236035108566280000e-001) (90, 1.89268395304679870000e-001) (91, 2.03486502170562740000e-001) (92, 3.93731415271759030000e-001) (93, 1.15608952939510350000e-001) (94, -6.47921636700630190000e-002) (95, -8.94693359732627870000e-002) (96, -1.50491166114807130000e+000) (97, -1.45905828475952150000e+000) (98, -1.98003005981445310000e+000) (99, 6.03427171707153320000e-001) (0, 9.61341857910156250000e-002) (1, -3.64950001239776610000e-002) (2, -3.24724972248077390000e-001) (3, 1.51605429127812390000e-002) (4, 1.21178120374679570000e-001) (5, 4.49895918369293210000e-001) (6, 1.58455058932304380000e-001) (7, 7.08200484514236450000e-002) (8, 7.76450708508491520000e-002) (9, 1.97296023368835450000e-001) (10, 5.29536902904510500000e-002) (11, 7.78225958347320560000e-002) (12, -1.59062072634696960000e-002) (13, 1.27204060554504390000e-001) (14, 1.40692859888076780000e-001) (15, -5.16322255134582520000e-002) (16, 1.62802934646606450000e-001) (17, 5.49550354480743410000e-002) (18, 1.15449339151382450000e-001) (19, 8.33164006471633910000e-002) (20, 1.55923739075660710000e-001) (21, 1.40506252646446230000e-001) (22, -3.65048162639141080000e-002) (23, -1.20541430078446870000e-004) (24, -1.97209075093269350000e-001) (25, -2.89955258369445800000e-001) (26, -3.25987994670867920000e-001) (27, -1.33120179176330570000e-001) (28, -2.71884113550186160000e-001) (29, -3.18839669227600100000e-001) (30, -1.49191007018089290000e-001) (31, -2.13943243026733400000e-001) (32, -2.41189241409301760000e-001) (33, -1.75898075103759770000e-001) (34, -3.48723262548446660000e-001) (35, -3.98044556379318240000e-001) (36, -3.19610923528671260000e-001) (37, -3.44264864921569820000e-001) (38, -2.94705331325531010000e-001) (39, -5.46267390251159670000e-001) (40, -3.94043058156967160000e-001) (41, -4.28947180509567260000e-001) (42, -3.03779751062393190000e-001) (43, -4.51655924320220950000e-001) (44, -1.75645634531974790000e-001) (45, -3.70465874671936040000e-001) (46, -1.41567841172218320000e-001) (47, 2.86977142095565800000e-001) (48, -7.46686124801635740000e+000) (49, -6.31584167480468750000e+001) (50, -3.78194519042968750000e+002) (51, 1.12092338502407070000e-001) (52, 4.08097773790359500000e-001) (53, 8.47844257950782780000e-002) (54, 9.28145647048950200000e-002) (55, 3.79171408712863920000e-002) (56, -4.94886003434658050000e-003) (57, 1.32031947374343870000e-001) (58, -1.76928080618381500000e-002) (59, -2.28830333799123760000e-002) (60, 7.96277895569801330000e-002) (61, 2.85413302481174470000e-002) (62, 9.16369780898094180000e-002) (63, 3.84779833257198330000e-002) (64, 1.00556695833802220000e-002) (65, -3.29532831907272340000e-001) (66, -8.89288261532783510000e-002) (67, -5.28373196721076970000e-002) (68, -2.27498546242713930000e-001) (69, -1.12905122339725490000e-001) (70, -5.25771677494049070000e-001) (71, -5.40232241153717040000e-001) (72, -6.32545411586761470000e-001) (73, -1.85133790969848630000e+000) (74, -1.20934426784515380000e+000) (75, -5.52124261856079100000e-001) (76, -8.84099066257476810000e-001) (77, -2.07691645622253420000e+000) (78, -8.84110450744628910000e-001) (79, -5.25186121463775630000e-001) (80, -3.89579266309738160000e-001) (81, -2.20523402094841000000e-001) (82, -1.05390697717666630000e-001) (83, -3.14368247985839840000e-001) (84, -2.39986523985862730000e-001) (85, -2.32870295643806460000e-001) (86, -2.14531093835830690000e-001) (87, 7.69765079021453860000e-002) (88, 6.16606250405311580000e-002) (89, 1.00100841373205180000e-002) (90, -5.48034720122814180000e-002) (91, 8.57622474431991580000e-002) (92, -3.17709632217884060000e-002) (93, -3.11027560383081440000e-002) (94, 5.75027149170637130000e-003) (95, 8.63066017627716060000e-002) (96, 1.30803734064102170000e-002) (97, -4.32916358113288880000e-002) (98, 8.03683102130889890000e-002) (99, 9.66487452387809750000e-002) (0, 1.08071476221084590000e-001) (1, 2.53433495759963990000e-001) (2, 8.17976593971252440000e-002) (3, 3.79325330257415770000e-001) (4, 3.55790168046951290000e-001) (5, 2.97092974185943600000e-001) (6, 2.49959647655487060000e-001) (7, 1.73783719539642330000e-001) (8, 2.01542243361473080000e-001) (9, 2.68206417560577390000e-001) (10, 1.03235505521297450000e-001) (11, 2.02265471220016480000e-001) (12, 1.68107360601425170000e-001) (13, 8.61979052424430850000e-002) (14, 2.16337025165557860000e-001) (15, 1.32084041833877560000e-001) (16, 1.07861392199993130000e-001) (17, 8.05677324533462520000e-002) (18, 2.43391230702400210000e-001) (19, 2.42152228951454160000e-001) (20, 2.63545602560043330000e-001) (21, 2.36896559596061710000e-001) (22, 1.11185871064662930000e-001) (23, 1.37603580951690670000e-001) (24, 8.37236419320106510000e-002) (25, 2.82975882291793820000e-001) (26, -3.10083746910095210000e-001) (27, -2.47103646397590640000e-001) (28, 7.40103065967559810000e-001) (29, -4.73428070545196530000e-001) (30, -9.04455780982971190000e-001) (31, 7.71790146827697750000e-002) (32, -2.32922971248626710000e-001) (33, -1.91381961107254030000e-001) (34, -7.66113460063934330000e-001) (35, -8.02934706211090090000e-001) (36, -8.80075275897979740000e-001) (37, -7.28710472583770750000e-001) (38, -7.13131606578826900000e-001) (39, -6.47634506225585940000e-001) (40, -5.90786457061767580000e-001) (41, -6.70228898525238040000e-001) (42, -5.93099713325500490000e-001) (43, -5.40285944938659670000e-001) (44, -1.84288591146469120000e-001) (45, -2.33427092432975770000e-001) (46, -1.94768443703651430000e-001) (47, 4.62498515844345090000e-001) (48, -1.89908728003501890000e-001) (49, 2.22666358947753910000e+000) (50, 1.67082557678222660000e+001) (51, 3.45867365598678590000e-001) (52, 2.42419198155403140000e-001) (53, 3.40953111648559570000e-001) (54, 4.01048928499221800000e-001) (55, 2.74644404649734500000e-001) (56, 4.40267883241176610000e-002) (57, -7.89122283458709720000e-002) (58, 2.13712602853775020000e-001) (59, 1.47701069712638850000e-001) (60, 1.74611985683441160000e-001) (61, 2.43615031242370610000e-001) (62, 2.53320783376693730000e-001) (63, 1.84506013989448550000e-001) (64, 2.49381318688392640000e-001) (65, 1.25719487667083740000e-001) (66, -4.34803403913974760000e-002) (67, -1.59018889069557190000e-001) (68, -1.13361284136772160000e-001) (69, -1.81342244148254390000e-001) (70, -6.48051321506500240000e-001) (71, -6.57358109951019290000e-001) (72, -6.35927796363830570000e-001) (73, -5.37545323371887210000e-001) (74, -5.13891935348510740000e-001) (75, -1.03447914123535160000e+000) (76, -5.25197267532348630000e-001) (77, -5.69063305854797360000e-001) (78, -5.81780731678009030000e-001) (79, -6.14825189113616940000e-001) (80, -6.48384034633636470000e-001) (81, -1.23946592211723330000e-001) (82, 3.11490893363952640000e-001) (83, 7.64203250408172610000e-001) (84, 5.97391545772552490000e-001) (85, 8.80352199077606200000e-001) (86, -6.47530779242515560000e-002) (87, 1.20157778263092040000e-001) (88, 1.36301234364509580000e-001) (89, 2.37120836973190310000e-001) (90, 1.26952752470970150000e-001) (91, 1.29128724336624150000e-001) (92, 8.57543423771858220000e-002) (93, 1.36155843734741210000e-001) (94, 1.27519056200981140000e-001) (95, 8.38690772652626040000e-002) (96, 6.27983435988426210000e-002) (97, 6.54984042048454280000e-002) (98, 1.61683514714241030000e-001) (99, 3.34288060665130620000e-001) (0, 2.84586369991302490000e-001) (1, 2.85928159952163700000e-001) (2, 5.73181882500648500000e-002) (3, 2.67834156751632690000e-001) (4, 2.19562619924545290000e-001) (5, 4.74606513977050780000e-001) (6, 4.11374151706695560000e-001) (7, 3.72832387685775760000e-001) (8, 1.95635065436363220000e-001) (9, 2.04921334981918330000e-001) (10, 2.13355779647827150000e-001) (11, 1.92270323634147640000e-001) (12, 2.73341059684753420000e-001) (13, 1.97819367051124570000e-001) (14, 1.31712526082992550000e-001) (15, 1.50012612342834470000e-001) (16, 2.89249449968338010000e-001) (17, 2.52493977546691890000e-001) (18, -3.60794132575392720000e-003) (19, 9.42816808819770810000e-002) (20, -9.11348406225442890000e-003) (21, 6.55325055122375490000e-002) (22, 7.30905160307884220000e-002) (23, 3.56766730546951290000e-002) (24, 4.04938831925392150000e-002) (25, 8.57507064938545230000e-002) (26, 1.11534753814339640000e-002) (27, 9.99021157622337340000e-002) (28, 1.46993055939674380000e-001) (29, 1.64189547300338750000e-001) (30, -3.51349115371704100000e-002) (31, 4.41328808665275570000e-002) (32, -6.52057677507400510000e-002) (33, -2.04915665090084080000e-002) (34, 7.15129673480987550000e-002) (35, -2.00931746512651440000e-002) (36, 1.41414683312177660000e-002) (37, 7.94552043080329900000e-002) (38, -3.68534214794635770000e-002) (39, -3.95687706768512730000e-002) (40, 6.43694922327995300000e-002) (41, 1.73846222460269930000e-002) (42, -1.06779187917709350000e-001) (43, 2.08377167582511900000e-002) (44, -6.47346302866935730000e-002) (45, 7.94432908296585080000e-002) (46, -1.28703117370605470000e-001) (47, 1.36802360415458680000e-001) (48, -3.15921521186828610000e+000) (49, 1.62228155136108400000e+000) (50, 4.20159149169921870000e+000) (51, 2.56005227565765380000e-001) (52, 1.91606268286705020000e-001) (53, 1.62071868777275090000e-001) (54, 1.27558156847953800000e-001) (55, 2.17851176857948300000e-001) (56, 1.27478420734405520000e-001) (57, 1.34392738342285160000e-001) (58, 1.96715980768203740000e-001) (59, 2.66262888908386230000e-001) (60, 2.01474964618682860000e-001) (61, 1.56897574663162230000e-001) (62, 2.10706904530525210000e-001) (63, 2.08712771534919740000e-001) (64, 2.64971464872360230000e-001) (65, 1.75383761525154110000e-001) (66, 1.26254454255104060000e-001) (67, 1.49359703063964840000e-001) (68, 1.23731143772602080000e-001) (69, -5.86008094251155850000e-002) (70, 5.06193563342094420000e-002) (71, -2.81387064605951310000e-002) (72, -6.46958649158477780000e-002) (73, -9.50772762298583980000e-002) (74, -5.03020212054252620000e-002) (75, 9.00581013411283490000e-003) (76, -1.07485793530941010000e-001) (77, 9.14821750484406950000e-004) (78, -6.59706518054008480000e-002) (79, 7.56858065724372860000e-002) (80, 8.14780741930007930000e-002) (81, 5.60796223580837250000e-002) (82, 4.29010530933737750000e-003) (83, 3.87228690087795260000e-002) (84, 5.90282902121543880000e-002) (85, 2.21993178129196170000e-002) (86, 5.33270239830017090000e-002) (87, 1.25477612018585210000e-001) (88, 1.44749611616134640000e-001) (89, 1.62218987941741940000e-001) (90, 1.46501541137695310000e-001) (91, 1.58450216054916380000e-001) (92, 1.96649700403213500000e-001) (93, 1.41530394554138180000e-001) (94, 1.76340013742446900000e-001) (95, -1.80452853441238400000e-001) (96, -1.61619615554809570000e+000) (97, 2.81721770763397220000e-001) (98, 2.70686805248260500000e-001) (99, 2.62351542711257930000e-001) (0, 1.74522116780281070000e-001) (1, 1.89982011914253230000e-001) (2, 3.43293815851211550000e-001) (3, 2.41889700293540950000e-001) (4, 1.16923250257968900000e-001) (5, 1.75626039505004880000e-001) (6, 1.81419909000396730000e-001) (7, 1.51644438505172730000e-001) (8, 2.01877310872077940000e-001) (9, 1.62631198763847350000e-001) (10, 3.11637550592422490000e-001) (11, 2.10671097040176390000e-001) (12, 2.75602340698242190000e-001) (13, 7.42985904216766360000e-002) (14, 1.56842559576034550000e-001) (15, 1.27051308751106260000e-001) (16, 2.49921023845672610000e-001) (17, 1.06203101575374600000e-001) (18, 4.68723215162754060000e-002) (19, 1.19491919875144960000e-001) (20, 2.69047319889068600000e-001) (21, 2.39890336990356450000e-001) (22, 2.13840126991271970000e-001) (23, 1.22467108070850370000e-001) (24, 1.22827254235744480000e-001) (25, 3.38975280523300170000e-001) (26, 1.77109852433204650000e-001) (27, 2.44782805442810060000e-001) (28, 2.23510101437568660000e-001) (29, 1.65914550423622130000e-001) (30, 2.49136507511138920000e-001) (31, 2.65320271253585820000e-001) (32, 1.16628110408782960000e-001) (33, 1.31408348679542540000e-001) (34, 6.59272149205207820000e-002) (35, -2.63815354555845260000e-002) (36, 2.49007150530815120000e-001) (37, 2.21199437975883480000e-001) (38, -8.07899013161659240000e-002) (39, 7.65198022127151490000e-002) (40, 1.10755383968353270000e-001) (41, 1.33850112557411190000e-001) (42, -4.60195727646350860000e-002) (43, 9.15997847914695740000e-002) (44, 1.32879927754402160000e-001) (45, -5.72077222168445590000e-002) (46, 1.43938943743705750000e-001) (47, 4.69515770673751830000e-001) (48, -1.92918866872787480000e-001) (49, -7.34188318252563480000e-001) (50, 1.04288065433502200000e+000) (51, 3.27176637947559360000e-002) (52, -1.48289591073989870000e-001) (53, 1.93648159503936770000e-001) (54, 2.35842660069465640000e-001) (55, 2.45616897940635680000e-001) (56, 1.71972468495368960000e-001) (57, 2.36859008669853210000e-001) (58, 1.67978242039680480000e-001) (59, 1.59719958901405330000e-001) (60, 1.77659779787063600000e-001) (61, 2.56789028644561770000e-001) (62, 2.61611998081207280000e-001) (63, 1.10045187175273900000e-001) (64, 1.18757799267768860000e-001) (65, 1.47758439183235170000e-001) (66, 2.32519820332527160000e-001) (67, 2.72609412670135500000e-001) (68, 1.75289466977119450000e-001) (69, 2.00069725513458250000e-001) (70, 2.03322887420654300000e-001) (71, 9.76192504167556760000e-002) (72, -1.99443057179450990000e-001) (73, -5.95937550067901610000e-001) (74, -6.78627789020538330000e-001) (75, -5.64489603042602540000e-001) (76, -6.99138283729553220000e-001) (77, -3.62605363130569460000e-001) (78, -1.05539180338382720000e-001) (79, -1.08233364298939700000e-002) (80, 2.51287650316953660000e-002) (81, 2.20202222466468810000e-001) (82, 1.27192541956901550000e-001) (83, 1.75955265760421750000e-001) (84, 1.27261638641357420000e-001) (85, 2.81598031520843510000e-001) (86, 2.03146249055862430000e-001) (87, 2.26078867912292480000e-001) (88, 1.07065558433532710000e-001) (89, 1.60056322813034060000e-001) (90, 1.43924877047538760000e-001) (91, 2.56531000137329100000e-001) (92, 2.83528923988342290000e-001) (93, 1.02634705603122710000e-001) (94, 1.94206297397613530000e-001) (95, 3.16359877586364750000e-001) (96, 1.25358730554580690000e-001) (97, 2.06007406115531920000e-001) (98, 2.44493961334228520000e-001) (99, 1.79356873035430910000e-001) (0, -1.25005230307579040000e-001) (1, 4.97434139251708980000e-002) (2, 6.09454214572906490000e-002) (3, 3.16252291202545170000e-001) (4, 1.26972943544387820000e-001) (5, 8.02150368690490720000e-002) (6, 1.53905987739562990000e-001) (7, 9.78494137525558470000e-002) (8, 6.52995705604553220000e-002) (9, 1.68497264385223390000e-001) (10, -3.27630013227462770000e-001) (11, -2.56340265274047850000e-001) (12, -2.74509429931640630000e-001) (13, -6.21562339365482330000e-002) (14, -1.48851245641708370000e-001) (15, -8.42540487647056580000e-002) (16, 4.42389212548732760000e-003) (17, -1.30064010620117190000e+000) (18, -2.12518975138664250000e-001) (19, -3.37729930877685550000e-001) (20, -6.37844264507293700000e-001) (21, -4.52321588993072510000e-001) (22, -9.13466453552246090000e-001) (23, -9.86812472343444820000e-001) (24, -5.60709655284881590000e-001) (25, -8.50115597248077390000e-001) (26, -4.05325293540954590000e-001) (27, -3.97935658693313600000e-001) (28, -2.29829207062721250000e-001) (29, -3.66431832313537600000e-001) (30, -1.00419342517852780000e+000) (31, -1.84301495552062990000e+000) (32, -1.36211323738098140000e+000) (33, -2.42318606376647950000e+000) (34, -1.09653437137603760000e+000) (35, -4.38688606023788450000e-001) (36, -4.52528893947601320000e-001) (37, -6.83278620243072510000e-001) (38, -4.71988767385482790000e-001) (39, -3.86150926351547240000e-001) (40, -4.79663610458374020000e-001) (41, -4.07781809568405150000e-001) (42, -5.02427220344543460000e-001) (43, -5.09153306484222410000e-001) (44, -1.54014259576797490000e-001) (45, -1.50308883190155030000e+000) (46, -4.47753429412841800000e+000) (47, 7.49660879373550420000e-002) (48, -3.91832008361816410000e+001) (49, -4.68296447753906250000e+002) (50, -6.57250305175781250000e+002) (51, -1.12757182121276860000e+000) (52, -6.37580573558807370000e-001) (53, -4.60101604461669920000e-001) (54, -2.74378865957260130000e-001) (55, -2.83030003309249880000e-001) (56, -8.21665763854980470000e-001) (57, -6.54405474662780760000e-001) (58, -2.84523189067840580000e-001) (59, 8.11061188578605650000e-002) (60, -1.97525694966316220000e-002) (61, -3.35123054683208470000e-002) (62, -1.00945778191089630000e-001) (63, -7.27504268288612370000e-002) (64, 5.01018241047859190000e-002) (65, 2.32402849942445760000e-002) (66, -1.40525847673416140000e-001) (67, -2.51194775104522710000e-001) (68, -2.00505033135414120000e-001) (69, -1.31011486053466800000e-001) (70, -6.04567706584930420000e-001) (71, -3.74256849288940430000e-001) (72, -2.90783691406250000000e+000) (73, -8.62685585021972660000e+000) (74, -7.02830696105957030000e+000) (75, -6.48533058166503910000e+000) (76, -6.47703599929809570000e+000) (77, -3.81560277938842770000e+000) (78, -1.52860343456268310000e+000) (79, -1.06586802005767820000e+000) (80, -4.32328760623931880000e-001) (81, -3.83563458919525150000e-001) (82, -8.17880257964134220000e-002) (83, -1.47306799888610840000e-001) (84, -1.98908045887947080000e-001) (85, -8.11665356159210210000e-002) (86, -2.53976583480834960000e-001) (87, -1.62276357412338260000e-001) (88, -2.46299892663955690000e-001) (89, -5.45325636863708500000e-001) (90, -8.49825203418731690000e-001) (91, -2.06250712275505070000e-001) (92, -9.99769747257232670000e-001) (93, -2.12108302116394040000e+000) (94, -1.53314578533172610000e+000) (95, -2.10923731327056880000e-001) (96, -3.71928668022155760000e+000) (97, -1.08541142940521240000e+000) (98, -3.25541406869888310000e-001) (99, -7.47154355049133300000e-002) (0, 3.00255455076694490000e-002) (1, 1.58825963735580440000e-001) (2, 2.56035685539245610000e-001) (3, -7.58829116821289060000e-002) (4, -1.28569141030311580000e-001) (5, -1.83445274829864500000e-001) (6, -1.89921095967292790000e-001) (7, -2.33471959829330440000e-001) (8, -2.06080436706542970000e-001) (9, -7.06131383776664730000e-002) (10, -2.31819242238998410000e-001) (11, 1.24692797660827640000e-001) (12, 1.43030688166618350000e-001) (13, 2.70259920507669450000e-002) (14, 1.20026782155036930000e-001) (15, 3.61119844019412990000e-002) (16, 1.13199904561042790000e-001) (17, 4.58919070661067960000e-002) (18, 1.51669383049011230000e-001) (19, 4.15297970175743100000e-002) (20, 7.98720866441726680000e-002) (21, 2.10438087582588200000e-001) (22, 1.71339288353919980000e-001) (23, 9.15686562657356260000e-002) (24, 1.99932232499122620000e-001) (25, 8.67454260587692260000e-002) (26, 1.23009853065013890000e-001) (27, 1.41290292143821720000e-001) (28, 2.92202711105346680000e-001) (29, 2.43824928998947140000e-001) (30, 9.40305665135383610000e-002) (31, 1.05711430311203000000e-001) (32, 1.04578763246536250000e-001) (33, 1.11792393028736110000e-001) (34, -1.60105805844068530000e-002) (35, -1.20494049042463300000e-002) (36, 1.61176636815071110000e-001) (37, 6.38573169708251950000e-002) (38, 1.81607604026794430000e-002) (39, 1.00408010184764860000e-001) (40, 1.61603897809982300000e-001) (41, 1.50007233023643490000e-001) (42, 3.84731180965900420000e-002) (43, 1.01306565105915070000e-001) (44, -6.48636370897293090000e-002) (45, -3.14185708761215210000e-001) (46, -4.36548590660095210000e-002) (47, -8.40089023113250730000e-002) (48, -3.54267060756683350000e-002) (49, -2.54848361015319820000e+000) (50, -1.27063107490539550000e+000) (51, 4.13916185498237610000e-002) (52, -7.61049613356590270000e-002) (53, 2.10688695311546330000e-001) (54, 1.55466511845588680000e-001) (55, 8.33786949515342710000e-002) (56, 2.34906896948814390000e-001) (57, 2.80555576086044310000e-001) (58, 3.96087616682052610000e-002) (59, 2.43530765175819400000e-001) (60, 1.62120506167411800000e-001) (61, 3.60977910459041600000e-002) (62, 6.30078911781311040000e-002) (63, 2.04216584563255310000e-001) (64, 1.19350187480449680000e-001) (65, 1.50509938597679140000e-001) (66, 1.28461569547653200000e-001) (67, 6.74472516402602200000e-003) (68, 8.33017900586128230000e-002) (69, 8.74112248420715330000e-002) (70, 7.19452872872352600000e-002) (71, 6.18792511522769930000e-002) (72, 6.73820078372955320000e-002) (73, 2.41591073572635650000e-002) (74, 4.74257171154022220000e-002) (75, -4.57280986011028290000e-002) (76, 5.58893345296382900000e-002) (77, 1.38042271137237550000e-002) (78, 8.43898206949234010000e-002) (79, 1.47341534495353700000e-001) (80, 1.56573459506034850000e-001) (81, 2.77924031019210820000e-001) (82, 2.83823400735855100000e-001) (83, 1.76418393850326540000e-001) (84, 2.43629157543182370000e-001) (85, 2.21400350332260130000e-001) (86, 1.71439528465271000000e-001) (87, 5.97986169159412380000e-002) (88, 1.98799576610326770000e-002) (89, 8.32852721214294430000e-002) (90, 1.34012147784233090000e-001) (91, 1.18508964776992800000e-001) (92, 7.87447690963745120000e-002) (93, 1.32185995578765870000e-001) (94, 8.03365334868431090000e-002) (95, 4.19206097722053530000e-002) (96, -4.47472035884857180000e-002) (97, 9.83474031090736390000e-002) (98, 1.87697503715753560000e-002) (99, 2.82035917043685910000e-001) (0, -1.29002094268798830000e-001) (1, -5.64405992627143860000e-002) (2, -1.23781487345695500000e-001) (3, -1.82473301887512210000e-001) (4, -1.42031654715538020000e-001) (5, -2.93077565729618070000e-002) (6, 4.07772287726402280000e-002) (7, -4.27368991076946260000e-002) (8, -7.71238058805465700000e-002) (9, -1.31021603941917420000e-001) (10, -1.45369574427604680000e-001) (11, -2.16688603162765500000e-001) (12, -2.01912254095077510000e-001) (13, -3.19566279649734500000e-001) (14, -2.29201897978782650000e-001) (15, -2.82840400934219360000e-001) (16, -1.92301601171493530000e-001) (17, -3.63882809877395630000e-001) (18, -3.47482681274414060000e-001) (19, -3.04542452096939090000e-001) (20, -5.00946342945098880000e-001) (21, -2.17667877674102780000e-001) (22, -4.78512048721313480000e-001) (23, -3.01436257362365720000e+000) (24, -8.00444304943084720000e-001) (25, -2.63460636138916020000e-001) (26, 7.85178095102310180000e-002) (27, 1.11391797661781310000e-001) (28, 7.16766864061355590000e-002) (29, 2.91311815381050110000e-002) (30, -2.71072298288345340000e-001) (31, -4.16093289852142330000e-001) (32, -2.03650474548339840000e+000) (33, -1.14374637603759770000e+000) (34, -4.77383911609649660000e-001) (35, -2.73135930299758910000e-001) (36, -8.18558156490325930000e-001) (37, -7.66842663288116460000e-001) (38, -3.28494817018508910000e-001) (39, -7.10041448473930360000e-002) (40, -1.38564229011535640000e-001) (41, -3.06606292724609380000e-001) (42, -2.67085969448089600000e-001) (43, -2.11434066295623780000e-001) (44, -1.24230933189392090000e+000) (45, -2.35501646995544430000e+000) (46, -2.27930879592895510000e+000) (47, -8.25737833976745610000e-001) (48, -1.91722469329833980000e+001) (49, -2.93824424743652340000e+001) (50, -6.88944015502929690000e+001) (51, -4.07368093729019170000e-001) (52, -4.91326838731765750000e-001) (53, -4.34214323759078980000e-002) (54, -1.51571989059448240000e-001) (55, -1.68745726346969600000e-001) (56, -1.06861256062984470000e-001) (57, -1.75716802477836610000e-001) (58, -3.21642071008682250000e-001) (59, -2.90222913026809690000e-001) (60, -2.82689779996871950000e-001) (61, -3.58844101428985600000e-001) (62, -2.48427942395210270000e-001) (63, -2.13498160243034360000e-001) (64, -6.43738359212875370000e-002) (65, -1.89275182783603670000e-002) (66, -1.09803937375545500000e-001) (67, -3.24618905782699580000e-001) (68, -3.97559612989425660000e-001) (69, -5.57931423187255860000e-001) (70, -7.62684106826782230000e-001) (71, -7.53591358661651610000e-001) (72, -1.25214600563049320000e+000) (73, -1.57261908054351810000e+000) (74, -1.71957671642303470000e+000) (75, -9.68424081802368160000e-001) (76, -3.01707535982131960000e-001) (77, -7.67380893230438230000e-001) (78, -1.50697934627532960000e+000) (79, -3.02432805299758910000e-001) (80, -3.97692620754241940000e-001) (81, -8.41723307967185970000e-002) (82, -6.40792548656463620000e-001) (83, -4.62708473205566410000e-001) (84, 2.10897270590066910000e-002) (85, -1.08678564429283140000e-001) (86, -9.63716655969619750000e-002) (87, -3.84028911590576170000e-001) (88, -4.31037545204162600000e-001) (89, -7.71303355693817140000e-001) (90, -6.57508194446563720000e-001) (91, -5.04750013351440430000e-001) (92, -4.87403005361557010000e-001) (93, -1.29450529813766480000e-001) (94, -1.34056821465492250000e-001) (95, -2.25713998079299930000e-001) (96, -4.90969307720661160000e-002) (97, 1.42902001738548280000e-001) (98, 8.73098596930503850000e-002) (99, -2.13420130312442780000e-002) (0, 8.02123453468084340000e-003) (1, -6.07898086309432980000e-002) (2, -7.17089697718620300000e-002) (3, -2.93704837560653690000e-001) (4, -2.09656462073326110000e-001) (5, -2.73034214973449710000e-001) (6, -3.63698810338974000000e-001) (7, -2.00903996825218200000e-001) (8, -2.35132128000259400000e-001) (9, -1.99207261204719540000e-001) (10, 2.33015278354287150000e-003) (11, -1.46723818033933640000e-002) (12, 7.97185450792312620000e-002) (13, 3.51286642253398900000e-002) (14, 5.27128838002681730000e-002) (15, 3.28444428741931920000e-002) (16, 2.70315837115049360000e-002) (17, 5.36550991237163540000e-002) (18, 2.67447400838136670000e-002) (19, 2.17276513576507570000e-002) (20, -8.27268324792385100000e-003) (21, 4.44311611354351040000e-002) (22, 2.70621199160814290000e-002) (23, 7.85485431551933290000e-002) (24, -4.84729334712028500000e-002) (25, 7.47707337141036990000e-002) (26, -5.32200895249843600000e-002) (27, 1.71995554119348530000e-002) (28, 6.84752091765403750000e-002) (29, 1.15245364606380460000e-001) (30, 1.13549329340457920000e-001) (31, 1.09829157590866090000e-001) (32, -1.15866987034678460000e-002) (33, 7.64668583869934080000e-002) (34, -3.46050076186656950000e-002) (35, -2.19035688787698750000e-002) (36, -1.25667545944452290000e-002) (37, 6.33793324232101440000e-002) (38, 9.67350602149963380000e-002) (39, 6.29013823345303540000e-003) (40, -2.80177406966686250000e-002) (41, -6.94910734891891480000e-002) (42, -1.83796752244234090000e-002) (43, 7.64041692018508910000e-002) (44, 8.15197452902793880000e-002) (45, -8.00838097929954530000e-002) (46, 9.65628996491432190000e-002) (47, 1.35735228657722470000e-001) (48, 4.79003667831420900000e-001) (49, 7.85721279680728910000e-003) (50, 3.31575214862823490000e-001) (51, 2.48831603676080700000e-002) (52, 1.95819530636072160000e-002) (53, 2.40559335798025130000e-002) (54, -2.41744983941316600000e-002) (55, 1.76361910998821260000e-002) (56, 2.37386189401149750000e-002) (57, 6.19740299880504610000e-002) (58, 1.10761120915412900000e-001) (59, -2.98999082297086720000e-002) (60, 1.27392550930380820000e-002) (61, 4.48742657899856570000e-002) (62, 1.02973662316799160000e-001) (63, 6.11889697611331940000e-002) (64, 1.00112259387969970000e-001) (65, -2.93851655442267660000e-004) (66, 4.29176352918148040000e-002) (67, -5.19798547029495240000e-002) (68, -8.44372808933258060000e-003) (69, 2.73839123547077180000e-002) (70, 2.87755765020847320000e-002) (71, 8.26013907790184020000e-002) (72, -6.27609565854072570000e-002) (73, 8.25065746903419490000e-002) (74, 2.40878816694021220000e-002) (75, -3.84548790752887730000e-002) (76, 5.81819042563438420000e-002) (77, 7.44572207331657410000e-002) (78, -1.17199242115020750000e-001) (79, 7.23172575235366820000e-002) (80, -6.49219453334808350000e-002) (81, 2.88599673658609390000e-002) (82, -3.80134582519531250000e-002) (83, -3.34785170853137970000e-002) (84, 9.18133184313774110000e-002) (85, -1.13201020285487170000e-002) (86, 6.91082403063774110000e-002) (87, 4.36225347220897670000e-003) (88, -3.48843121901154520000e-003) (89, 3.56680639088153840000e-002) (90, 8.44718366861343380000e-002) (91, 6.20071068406105040000e-002) (92, -2.34003141522407530000e-002) (93, -8.82515776902437210000e-003) (94, 5.47651872038841250000e-002) (95, 6.52877017855644230000e-002) (96, -7.25566670298576350000e-002) (97, 4.28891330957412720000e-002) (98, 6.53208941221237180000e-002) (99, 1.24337263405323030000e-001) (0, -1.89852923154830930000e-001) (1, -2.36057668924331670000e-001) (2, -1.30222260951995850000e-001) (3, -3.61456304788589480000e-001) (4, -3.21331411600112920000e-001) (5, -3.33814650774002080000e-001) (6, -3.94040256738662720000e-001) (7, -4.02446597814559940000e-001) (8, -3.13222646713256840000e-001) (9, -4.13415908813476560000e-001) (10, -9.26683098077774050000e-002) (11, -1.85637012124061580000e-001) (12, -1.55314460396766660000e-001) (13, -3.12377750873565670000e-001) (14, -2.19950586557388310000e-001) (15, -2.22391992807388310000e-001) (16, -3.14537018537521360000e-001) (17, -3.03036719560623170000e-001) (18, -1.69803544878959660000e-001) (19, -2.04398274421691890000e-001) (20, -2.72266805171966550000e-001) (21, -1.95774003863334660000e-001) (22, -6.97207272052764890000e-001) (23, -4.18850994110107420000e+000) (24, -4.91440773010253910000e-001) (25, -2.71973371505737300000e-001) (26, -1.16159506142139430000e-001) (27, -7.44887664914131160000e-002) (28, -2.52464879304170610000e-002) (29, -1.77519962191581730000e-001) (30, -2.24329844117164610000e-001) (31, -3.62570434808731080000e-001) (32, -1.25840294361114500000e+000) (33, -2.73969411849975590000e+000) (34, -5.62660455703735350000e-001) (35, -5.27486681938171390000e-001) (36, -9.18076336383819580000e-001) (37, -1.98471081256866460000e+000) (38, -5.31262576580047610000e-001) (39, -2.71298795938491820000e-001) (40, -3.33690136671066280000e-001) (41, -2.89076656103134160000e-001) (42, -3.09999942779541020000e-001) (43, -3.57688307762146000000e-001) (44, -7.77545154094696040000e-001) (45, -2.99670767784118650000e+000) (46, -6.14364206790924070000e-001) (47, -1.70971974730491640000e-001) (48, -1.83618755340576170000e+001) (49, -3.05880279541015630000e+001) (50, -4.73032760620117190000e+001) (51, -3.43993991613388060000e-001) (52, -2.33925148844718930000e-001) (53, -1.28753110766410830000e-001) (54, -1.00870616734027860000e-001) (55, -2.03058034181594850000e-001) (56, -2.34659925103187560000e-001) (57, -1.99531272053718570000e-001) (58, -2.59554177522659300000e-001) (59, -2.94667541980743410000e-001) (60, -1.49779081344604490000e-001) (61, -1.52032583951950070000e-001) (62, -2.36355781555175780000e-001) (63, -1.80255606770515440000e-001) (64, -9.12897288799285890000e-002) (65, -9.06081646680831910000e-002) (66, -1.95190235972404480000e-001) (67, -6.63208007812500000000e-001) (68, -6.18811011314392090000e-001) (69, -4.63840931653976440000e-001) (70, -6.87270402908325200000e-001) (71, -5.01547992229461670000e-001) (72, -5.13113737106323240000e-001) (73, -4.67296987771987920000e-001) (74, -3.72560471296310420000e-001) (75, -2.66064077615737920000e-001) (76, -3.39543431997299190000e-001) (77, -7.90430665016174320000e-001) (78, -7.01212704181671140000e-001) (79, -4.68116760253906250000e-001) (80, -1.93489804863929750000e-001) (81, -2.49547421932220460000e-001) (82, -1.09220311045646670000e-001) (83, -2.21371680498123170000e-001) (84, -2.38257631659507750000e-001) (85, -4.78185601532459260000e-002) (86, -1.95372775197029110000e-001) (87, -3.00610810518264770000e-001) (88, -3.82718890905380250000e-001) (89, -7.35225617885589600000e-001) (90, -3.86158555746078490000e-001) (91, -3.58749151229858400000e-001) (92, -3.78041326999664310000e-001) (93, -9.81435775756835940000e-002) (94, -2.18400701880455020000e-001) (95, -8.65098536014556880000e-002) (96, -1.93083673715591430000e-001) (97, -1.15804895758628850000e-001) (98, -2.72792894393205640000e-002) (99, -8.17400366067886350000e-002) (0, 1.75112918019294740000e-001) (1, 8.03217366337776180000e-002) (2, 9.56949666142463680000e-002) (3, -1.18155494332313540000e-001) (4, -1.92607581615448000000e-001) (5, -1.10277280211448670000e-001) (6, -1.96073845028877260000e-001) (7, -1.20384193956851960000e-001) (8, -2.53268301486968990000e-001) (9, -3.01093906164169310000e-001) (10, 8.09586942195892330000e-002) (11, 7.65770003199577330000e-002) (12, 1.42728433012962340000e-001) (13, 5.85716329514980320000e-002) (14, 1.16311989724636080000e-001) (15, 1.73669442534446720000e-001) (16, 5.63968271017074580000e-002) (17, 9.22468081116676330000e-002) (18, 1.05163924396038060000e-001) (19, 8.06094631552696230000e-002) (20, 8.49856957793235780000e-002) (21, 8.86318460106849670000e-002) (22, 9.66334417462348940000e-002) (23, 9.21208187937736510000e-002) (24, 9.45317074656486510000e-002) (25, 8.08227956295013430000e-002) (26, -1.07373688369989400000e-002) (27, 2.45844088494777680000e-002) (28, 4.04510311782360080000e-002) (29, 1.05524070560932160000e-001) (30, 7.76973068714141850000e-002) (31, 6.96928650140762330000e-002) (32, 1.99896041303873060000e-002) (33, 1.16124264895915990000e-001) (34, 2.23559774458408360000e-002) (35, 9.07146483659744260000e-002) (36, 8.48986878991127010000e-002) (37, 1.35059013962745670000e-001) (38, 1.00372672080993650000e-001) (39, 1.14599943161010740000e-001) (40, 8.50399658083915710000e-002) (41, 3.41103598475456240000e-002) (42, 4.45524193346500400000e-002) (43, 3.08033614419400690000e-003) (44, 1.28337338566780090000e-001) (45, -3.37339967489242550000e-001) (46, 8.81107449531555180000e-002) (47, 1.18600443005561830000e-001) (48, -2.32675727456808090000e-002) (49, -9.25694499164819720000e-003) (50, -2.26455498486757280000e-002) (51, 9.39564257860183720000e-002) (52, 1.60922482609748840000e-002) (53, 1.29234090447425840000e-001) (54, 1.06252714991569520000e-001) (55, 3.85657809674739840000e-002) (56, 8.90197679400444030000e-002) (57, 1.81321382522583010000e-001) (58, 1.06162600219249730000e-001) (59, 2.92361807078123090000e-002) (60, 1.63080275058746340000e-001) (61, 1.55402049422264100000e-001) (62, 1.79010719060897830000e-001) (63, 6.52288421988487240000e-002) (64, 1.73669204115867610000e-001) (65, 1.28540188074111940000e-001) (66, 2.99448426812887190000e-002) (67, -9.72023885697126390000e-003) (68, 8.21688920259475710000e-002) (69, 1.35177969932556150000e-001) (70, 6.80631846189498900000e-002) (71, -2.02721287496387960000e-003) (72, -1.78430795669555660000e-001) (73, -5.44949173927307130000e-001) (74, -5.65702021121978760000e-001) (75, -1.57439827919006350000e+000) (76, -5.35356104373931880000e-001) (77, -5.62442719936370850000e-001) (78, -6.05413794517517090000e-001) (79, -7.87613261491060260000e-003) (80, 1.24324381351470950000e-001) (81, 3.73254828155040740000e-002) (82, 1.82659365236759190000e-002) (83, -3.29519733786582950000e-002) (84, 1.58352479338645940000e-001) (85, 1.40669539570808410000e-001) (86, 1.88851952552795410000e-001) (87, 1.72837883234024050000e-001) (88, 2.16499511152505870000e-002) (89, 1.61011144518852230000e-001) (90, 1.12744487822055820000e-001) (91, 5.74222207069396970000e-002) (92, 1.21908172965049740000e-001) (93, 1.72539845108985900000e-001) (94, 1.40268415212631230000e-001) (95, 1.40056878328323360000e-001) (96, 3.47514078021049500000e-002) (97, 1.00157439708709720000e-001) (98, 4.50269617140293120000e-002) (99, 1.60069122910499570000e-001) (0, 4.23364698886871340000e-001) (1, 3.76765817403793330000e-001) (2, 3.97371321916580200000e-001) (3, 3.06362450122833250000e-001) (4, 5.34810185432434080000e-001) (5, 4.12535607814788820000e-001) (6, 4.99126464128494260000e-001) (7, 5.93620300292968750000e-001) (8, 5.02643465995788570000e-001) (9, 4.52647030353546140000e-001) (10, 3.51955920457839970000e-001) (11, 2.79037773609161380000e-001) (12, 2.45558962225914000000e-001) (13, 2.98186689615249630000e-001) (14, 4.65400427579879760000e-001) (15, 4.52500551939010620000e-001) (16, 3.11970233917236330000e-001) (17, 3.89192283153533940000e-001) (18, 2.76522368192672730000e-001) (19, 4.85128283500671390000e-001) (20, 6.03683471679687500000e-001) (21, 2.95326739549636840000e-001) (22, 4.51001316308975220000e-001) (23, 4.74298417568206790000e-001) (24, 3.40567946434021000000e-001) (25, 3.43701422214508060000e-001) (26, 3.47144007682800290000e-001) (27, 5.42250931262969970000e-001) (28, 5.20492732524871830000e-001) (29, 6.06200575828552250000e-001) (30, 8.09704840183258060000e-001) (31, 3.30974459648132320000e+000) (32, 9.07093465328216550000e-001) (33, 1.48889613151550290000e+000) (34, 1.39252984523773190000e+000) (35, 1.03461956977844240000e+000) (36, 8.89640212059021000000e-001) (37, 1.41171419620513920000e+000) (38, 8.88413846492767330000e-001) (39, 7.36219048500061040000e-001) (40, 1.08061361312866210000e+000) (41, 1.12761056423187260000e+000) (42, 1.00337970256805420000e+000) (43, 8.40821027755737300000e-001) (44, 6.45037353038787840000e-001) (45, 3.25862741470336910000e+000) (46, 4.51162958145141600000e+000) (47, 6.21316134929656980000e-002) (48, 2.39288539886474610000e+001) (49, 1.40365962982177730000e+001) (50, 2.23852813720703130000e+002) (51, 5.63200592994689940000e-001) (52, 6.25130772590637210000e-001) (53, 2.48936086893081670000e-001) (54, 2.42467477917671200000e-001) (55, 2.68998354673385620000e-001) (56, 2.12308526039123540000e-001) (57, 2.45438531041145320000e-001) (58, 2.76084363460540770000e-001) (59, 2.88017988204956050000e-001) (60, 2.84794837236404420000e-001) (61, 2.17980012297630310000e-001) (62, 4.40033376216888430000e-001) (63, 2.68988788127899170000e-001) (64, 3.67501705884933470000e-001) (65, 3.95776152610778810000e-001) (66, 3.60972940921783450000e-001) (67, 4.83431190252304080000e-001) (68, 3.68868231773376460000e-001) (69, 7.24085748195648190000e-001) (70, 6.89838886260986330000e-001) (71, 5.83530843257904050000e-001) (72, 3.05380582809448240000e+000) (73, 2.93827223777771000000e+000) (74, 1.32729883193969730000e+001) (75, 6.45990848541259770000e+000) (76, 6.47398328781127930000e+000) (77, 2.99802613258361820000e+000) (78, 9.64035153388977050000e-001) (79, 9.98188674449920650000e-001) (80, 7.32408523559570310000e-001) (81, 4.50382709503173830000e-001) (82, 4.21830564737319950000e-001) (83, 3.90191644430160520000e-001) (84, 5.47635793685913090000e-001) (85, 4.48319077491760250000e-001) (86, 2.76904672384262080000e-001) (87, 2.35822468996047970000e-001) (88, 2.67352521419525150000e-001) (89, 8.08130145072937010000e-001) (90, 4.50776845216751100000e-001) (91, 4.44820940494537350000e-001) (92, 3.54481428861618040000e-001) (93, 4.03395086526870730000e-001) (94, 4.36481446027755740000e-001) (95, 3.27028810977935790000e-001) (96, 5.04449546337127690000e-001) (97, 3.97787004709243770000e-001) (98, 1.96350440382957460000e-001) (99, 2.49033987522125240000e-001) (0, 2.18757525086402890000e-001) (1, 1.12773470580577850000e-001) (2, 2.69751310348510740000e-001) (3, 2.40882858633995060000e-001) (4, 2.52044290304183960000e-001) (5, 3.31262737512588500000e-001) (6, 1.58258572220802310000e-001) (7, 3.07063370943069460000e-001) (8, 2.19623431563377380000e-001) (9, 2.29931354522705080000e-001) (10, 1.73782020807266240000e-001) (11, 2.06187576055526730000e-001) (12, 2.47176885604858400000e-001) (13, 1.51967972517013550000e-001) (14, 7.82823935151100160000e-002) (15, 7.51684606075286870000e-002) (16, -1.08206741511821750000e-001) (17, -9.38232764601707460000e-002) (18, -1.44304737448692320000e-001) (19, -7.20523074269294740000e-002) (20, -9.12158787250518800000e-002) (21, -1.04466624557971950000e-001) (22, -9.30743291974067690000e-002) (23, -1.09734207391738890000e-001) (24, -4.34303432703018190000e-002) (25, 9.95201840996742250000e-002) (26, 9.50183123350143430000e-002) (27, 3.16908061504364010000e-001) (28, 5.29811978340148930000e-001) (29, 4.26797330379486080000e-001) (30, -2.20757812261581420000e-001) (31, -1.81951627135276790000e-001) (32, -2.16569826006889340000e-001) (33, -6.70519396662712100000e-002) (34, -2.14514061808586120000e-001) (35, -3.84093299508094790000e-002) (36, -1.15927055478096010000e-001) (37, 1.97981610894203190000e-001) (38, 1.02122813463211060000e-001) (39, 4.65266704559326170000e-002) (40, -3.90691719949245450000e-002) (41, 2.94742733240127560000e-003) (42, -5.28570078313350680000e-002) (43, 4.51471246778965000000e-002) (44, -4.89868186414241790000e-002) (45, -2.04997450113296510000e-001) (46, -1.46780207753181460000e-001) (47, 7.11382701992988590000e-002) (48, -8.46079587936401370000e-001) (49, -1.03591656684875490000e+000) (50, 8.59628617763519290000e-001) (51, 1.87902837991714480000e-001) (52, 2.74293839931488040000e-001) (53, 2.37864285707473750000e-001) (54, 1.94701865315437320000e-001) (55, 2.69556403160095210000e-001) (56, 2.13887810707092290000e-001) (57, 1.58577769994735720000e-001) (58, 1.91201090812683110000e-001) (59, 1.03304304182529450000e-001) (60, 2.06656202673912050000e-001) (61, 1.57781422138214110000e-001) (62, 9.30048525333404540000e-002) (63, 2.56005913019180300000e-001) (64, 1.22856557369232180000e-001) (65, 9.22350659966468810000e-002) (66, 1.38010010123252870000e-001) (67, 1.39893010258674620000e-001) (68, 3.04760374128818510000e-002) (69, 1.59030735492706300000e-001) (70, 1.29236420616507530000e-002) (71, -1.11046634614467620000e-001) (72, -2.86810815334320070000e-001) (73, -2.49013677239418030000e-001) (74, -1.28425613045692440000e-001) (75, -2.49128684401512150000e-001) (76, -2.51834183931350710000e-001) (77, -2.53416270017623900000e-001) (78, -1.13290697336196900000e-001) (79, -8.16206708550453190000e-002) (80, 1.94253353402018550000e-003) (81, 1.82334735989570620000e-001) (82, 1.90614059567451480000e-001) (83, 3.94019842147827150000e-001) (84, 2.87695974111557010000e-001) (85, 2.81500488519668580000e-001) (86, 9.60805714130401610000e-002) (87, -7.21261352300643920000e-002) (88, 1.18644036352634430000e-001) (89, -6.84602707624435420000e-002) (90, 3.81009764969348910000e-002) (91, 2.19388678669929500000e-002) (92, 1.71659067273139950000e-002) (93, 7.82690495252609250000e-002) (94, -9.32398587465286250000e-002) (95, -1.35552853345870970000e-001) (96, -5.27045130729675290000e-001) (97, 2.47976705431938170000e-002) (98, 7.07492083311080930000e-002) (99, 3.28958183526992800000e-001) (0, 3.18633884191513060000e-001) (1, 1.67805388569831850000e-001) (2, 1.62586539983749390000e-001) (3, 1.97905991226434710000e-002) (4, 9.17498320341110230000e-002) (5, -5.18327066674828530000e-003) (6, -8.67763999849557880000e-003) (7, 5.30071437358856200000e-001) (8, 9.44331940263509750000e-003) (9, 1.81696843355894090000e-002) (10, -1.58313497900962830000e-001) (11, -6.22668564319610600000e-002) (12, -1.22683115303516390000e-001) (13, 1.39840319752693180000e-002) (14, -3.24620632454752920000e-003) (15, -2.76286780834198000000e-001) (16, -1.92412212491035460000e-001) (17, -1.43266707658767700000e-001) (18, -3.09802114963531490000e-001) (19, -2.87426620721817020000e-001) (20, -1.58961251378059390000e-001) (21, -1.43324062228202820000e-001) (22, -2.72961348295211790000e-001) (23, -2.44477212429046630000e-001) (24, -2.74669110774993900000e-001) (25, -3.04325461387634280000e-001) (26, 2.97892570495605470000e-001) (27, 2.15678393840789790000e-001) (28, 1.87562227249145510000e-001) (29, 1.62740051746368410000e-001) (30, 1.95138901472091670000e-001) (31, 2.48872488737106320000e-001) (32, 2.43918463587760930000e-001) (33, 2.01011270284652710000e-001) (34, 2.77753770351409910000e-001) (35, 3.59993696212768550000e-001) (36, 1.78424939513206480000e-001) (37, 2.83933252096176150000e-001) (38, 2.51763790845870970000e-001) (39, 3.21985274553298950000e-001) (40, 2.46289536356925960000e-001) (41, 2.72981971502304080000e-001) (42, 2.16994434595108030000e-001) (43, 1.96967825293540950000e-001) (44, 1.84604480862617490000e-001) (45, 2.33947381377220150000e-001) (46, 1.89245060086250310000e-001) (47, 2.61586397886276250000e-001) (48, -3.56151372194290160000e-001) (49, -5.52527770996093750000e+001) (50, 1.45035285949707030000e+001) (51, -9.03481245040893550000e-002) (52, -1.23965758830308910000e-002) (53, -9.12299230694770810000e-002) (54, 4.25703115761280060000e-002) (55, -2.35657673329114910000e-002) (56, 3.53678837418556210000e-002) (57, -4.53843697905540470000e-002) (58, 6.39768987894058230000e-002) (59, -2.44228109717369080000e-001) (60, -1.26645907759666440000e-001) (61, -1.71000167727470400000e-001) (62, -1.79122254252433780000e-001) (63, 3.52839767932891850000e-001) (64, 3.64779710769653320000e-001) (65, 2.45962530374526980000e-001) (66, 1.77667915821075440000e-001) (67, 2.08839803934097290000e-001) (68, 2.32618167996406560000e-001) (69, 2.55588144063949580000e-001) (70, 2.42166787385940550000e-001) (71, 1.99249073863029480000e-001) (72, 2.24956110119819640000e-001) (73, 5.53521692752838130000e-001) (74, 3.49294990301132200000e-001) (75, 4.89615529775619510000e-001) (76, 7.91928052902221680000e-001) (77, 2.75233364105224610000e+000) (78, 4.20593827962875370000e-001) (79, 3.68480294942855830000e-001) (80, 3.89976561069488530000e-001) (81, -1.08925171196460720000e-001) (82, -1.02458439767360690000e-001) (83, -1.68866455554962160000e-001) (84, -2.52789199352264400000e-001) (85, -1.22278898954391480000e-001) (86, -1.24459236860275270000e-001) (87, -2.81311094760894780000e-001) (88, -2.49048322439193730000e-001) (89, -2.05701127648353580000e-001) (90, -1.81946247816085820000e-001) (91, -1.51225656270980830000e-001) (92, -1.54258579015731810000e-001) (93, -1.55261948704719540000e-001) (94, -2.96868473291397090000e-001) (95, -1.49018734693527220000e-001) (96, -1.87295749783515930000e-001) (97, -2.37004697322845460000e-001) (98, -2.58571088314056400000e-001) (99, 3.22095036506652830000e-001) (0, 7.83048849552869800000e-003) (1, 8.57882797718048100000e-001) (2, 8.86520683765411380000e-001) (3, 5.33363938331604000000e-001) (4, 4.02309298515319820000e-001) (5, -1.56235307455062870000e-001) (6, -2.56833553314208980000e-001) (7, -2.23129719495773320000e-001) (8, 2.19661459326744080000e-001) (9, -1.78218662738800050000e-001) (10, -1.99361279606819150000e-001) (11, 3.72045159339904790000e-001) (12, 4.26293730735778810000e-001) (13, 1.86505958437919620000e-001) (14, 3.37809711694717410000e-001) (15, 3.36265742778778080000e-001) (16, 3.12222778797149660000e-001) (17, 5.75777292251586910000e-001) (18, 4.54732865095138550000e-001) (19, 5.68590164184570310000e-001) (20, 4.08373326063156130000e-001) (21, 3.85722845792770390000e-001) (22, -2.67396032810211180000e-001) (23, -4.12421673536300660000e-001) (24, -7.41716861724853520000e+000) (25, -3.34733217954635620000e-001) (26, 7.02724814414978030000e-001) (27, 7.44291901588439940000e-001) (28, 1.04782998561859130000e+000) (29, 8.47183406352996830000e-001) (30, 3.13021689653396610000e-001) (31, -1.55038207769393920000e-001) (32, -1.58830910921096800000e-001) (33, -2.05691552162170410000e+000) (34, -1.97820734977722170000e+000) (35, -1.30443215370178220000e-001) (36, -2.58130145072937010000e+000) (37, -3.32681441307067870000e+000) (38, -3.25719571113586430000e+000) (39, 2.21236228942871090000e-001) (40, -3.37274718284606930000e+000) (41, -3.53156805038452150000e+000) (42, -3.38027429580688480000e+000) (43, -7.47552096843719480000e-001) (44, -6.86783015727996830000e-001) (45, -8.40365600585937500000e+000) (46, -2.08289966583251950000e+001) (47, -3.62414693832397460000e+000) (48, 1.89474124908447270000e+001) (49, 2.54114055633544920000e+001) (50, 6.81677398681640630000e+001) (51, -1.62315559387207030000e+000) (52, -1.52572071552276610000e+000) (53, -1.83520019054412840000e+000) (54, -7.50410109758377080000e-002) (55, 9.14651229977607730000e-002) (56, -1.63718685507774350000e-002) (57, -3.21922749280929570000e-002) (58, 9.81406196951866150000e-002) (59, 4.14868921041488650000e-001) (60, 4.53255861997604370000e-001) (61, 5.42479634284973140000e-001) (62, 8.98551821708679200000e-001) (63, 7.43629097938537600000e-001) (64, 8.58570396900177000000e-001) (65, 8.61104011535644530000e-001) (66, 8.76333534717559810000e-001) (67, 7.97811508178710940000e-001) (68, 8.35874140262603760000e-001) (69, 8.81336033344268800000e-001) (70, 8.54552090167999270000e-001) (71, -3.16604685783386230000e+000) (72, -2.49738907814025880000e+000) (73, -7.76044511795043950000e+000) (74, -7.55521917343139650000e+000) (75, -5.42094135284423830000e+000) (76, -3.74825549125671390000e+000) (77, -1.58423888683319090000e+000) (78, -7.93735265731811520000e-001) (79, 9.10390019416809080000e-001) (80, 9.09017324447631840000e-001) (81, 9.37691569328308110000e-001) (82, 6.81292414665222170000e-001) (83, 8.74653637409210210000e-001) (84, 8.04483950138092040000e-001) (85, 1.12195134162902830000e+000) (86, 9.22696530818939210000e-001) (87, 5.17288327217102050000e-001) (88, 4.65499579906463620000e-001) (89, 5.84774851799011230000e-001) (90, 3.80152285099029540000e-001) (91, 4.50685769319534300000e-001) (92, 3.65554720163345340000e-001) (93, 3.88868689537048340000e-001) (94, 2.47184395790100100000e-001) (95, 2.07865580916404720000e-001) (96, -1.30405092239379880000e+000) (97, -1.34534704685211180000e+000) (98, -2.18893027305603030000e+000) (99, 6.84181869029998780000e-001) (0, -2.39769279956817630000e-001) (1, -7.50086605548858640000e-002) (2, -6.78802654147148130000e-002) (3, -4.53240990638732910000e-001) (4, -3.96023750305175780000e-001) (5, -4.35660123825073240000e-001) (6, -3.91537815332412720000e-001) (7, -3.42003464698791500000e-001) (8, -2.86647945642471310000e-001) (9, -3.51959645748138430000e-001) (10, -1.90987020730972290000e-001) (11, -2.47973755002021790000e-001) (12, -1.54807880520820620000e-001) (13, -2.22299471497535710000e-001) (14, -1.41959875822067260000e-001) (15, -3.09837311506271360000e-001) (16, -2.05094620585441590000e-001) (17, -2.32888907194137570000e-001) (18, -1.95218592882156370000e-001) (19, -3.14425855875015260000e-001) (20, -2.97761201858520510000e-001) (21, -3.33084791898727420000e-001) (22, -8.25948655605316160000e-001) (23, -4.23419523239135740000e+000) (24, -6.32671952247619630000e-001) (25, -1.19259573519229890000e-001) (26, -1.65091380476951600000e-001) (27, -1.78016617894172670000e-001) (28, -6.44554719328880310000e-002) (29, -1.09274953603744510000e-001) (30, -1.94489732384681700000e-001) (31, -2.59911447763442990000e-001) (32, -1.19882011413574220000e+000) (33, -1.46778273582458500000e+000) (34, -2.95029044151306150000e-001) (35, -3.52736622095108030000e-001) (36, -2.01218858361244200000e-001) (37, -7.82233178615570070000e-001) (38, -8.99735763669013980000e-002) (39, -3.92045378684997560000e-002) (40, -2.28339195251464840000e-001) (41, -6.55225142836570740000e-002) (42, -2.50687450170516970000e-001) (43, -4.01489943265914920000e-001) (44, -5.94540596008300780000e-001) (45, -5.15045583248138430000e-001) (46, -1.17316544055938720000e+000) (47, 2.48141270130872730000e-002) (48, -1.83560714721679690000e+001) (49, -5.24296379089355470000e+001) (50, -4.74397621154785160000e+001) (51, -2.13543802499771120000e-001) (52, -2.63996928930282590000e-001) (53, -1.05164490640163420000e-001) (54, -1.71547770500183110000e-001) (55, -1.87824115157127380000e-001) (56, -2.09714516997337340000e-001) (57, -2.11264818906784060000e-001) (58, -1.26869589090347290000e-001) (59, -2.53700733184814450000e-001) (60, -1.90538361668586730000e-001) (61, -2.73834437131881710000e-001) (62, -1.28384381532669070000e-001) (63, -2.05824494361877440000e-001) (64, -2.22255304455757140000e-001) (65, -1.43869891762733460000e-001) (66, -1.50768771767616270000e-001) (67, -2.00991660356521610000e-001) (68, -6.88982665538787840000e-001) (69, -5.97454309463500980000e-001) (70, -5.07440567016601560000e-001) (71, -2.52201169729232790000e-001) (72, -3.40648949146270750000e-001) (73, -3.37792515754699710000e-001) (74, -5.38704395294189450000e-001) (75, -8.47156345844268800000e-001) (76, -1.96961864829063420000e-001) (77, -8.01557421684265140000e-001) (78, -6.84843003749847410000e-001) (79, -6.39165997505187990000e-001) (80, -2.56978183984756470000e-001) (81, -2.74907648563385010000e-001) (82, -8.07205289602279660000e-002) (83, -5.62899112701416020000e-002) (84, -1.87086477875709530000e-001) (85, -1.16923682391643520000e-001) (86, -5.54719381034374240000e-002) (87, -2.55615621805191040000e-001) (88, -3.71048629283905030000e-001) (89, -4.49718326330184940000e-001) (90, -3.12703341245651250000e-001) (91, -4.50606316328048710000e-001) (92, -4.88274216651916500000e-001) (93, -1.42061337828636170000e-001) (94, -2.18239232897758480000e-001) (95, -9.98188182711601260000e-002) (96, -6.61462962627410890000e-001) (97, -1.15376658737659450000e-001) (98, -3.32028530538082120000e-002) (99, -9.96050238609313960000e-002) (0, -4.05686289072036740000e-001) (1, -2.39573687314987180000e-001) (2, -5.05948603153228760000e-001) (3, -1.39809697866439820000e-001) (4, -8.68985176086425780000e-001) (5, -8.53018462657928470000e-001) (6, -8.51133465766906740000e-001) (7, -8.58029782772064210000e-001) (8, -7.49227702617645260000e-001) (9, -4.43509101867675780000e-001) (10, -2.67923533916473390000e-001) (11, -2.18923598527908330000e-001) (12, -3.58894586563110350000e-001) (13, -9.51822221279144290000e-001) (14, -4.76511567831039430000e-001) (15, -6.51763916015625000000e-001) (16, -4.14160192012786870000e-001) (17, -3.68626856803894040000e+000) (18, -2.15991926193237300000e+000) (19, -1.25400340557098390000e+000) (20, -3.34578096866607670000e-001) (21, -1.77066147327423100000e+000) (22, -1.02064406871795650000e+000) (23, -2.79681706428527830000e+000) (24, -1.92868983745574950000e+000) (25, -8.41143429279327390000e-001) (26, -5.16842961311340330000e-001) (27, -2.47645631432533260000e-001) (28, -3.45155179500579830000e-001) (29, -3.70002388954162600000e-001) (30, -9.10858333110809330000e-001) (31, -1.87283670902252200000e+000) (32, -1.31733143329620360000e+000) (33, -2.54103851318359370000e+000) (34, -2.50391101837158200000e+000) (35, -8.93140017986297610000e-001) (36, -1.22679376602172850000e+000) (37, -1.14747750759124760000e+000) (38, -1.16646134853363040000e+000) (39, -8.87392640113830570000e-001) (40, -1.27940046787261960000e+000) (41, -7.97915101051330570000e-001) (42, -1.27386820316314700000e+000) (43, -1.34422039985656740000e+000) (44, -3.81075084209442140000e-001) (45, -1.82449030876159670000e+000) (46, -1.07436876296997070000e+001) (47, 8.28804541379213330000e-003) (48, -3.90320053100585940000e+001) (49, -4.68445373535156250000e+002) (50, -6.35186645507812500000e+002) (51, -1.34722948074340820000e+000) (52, -1.84634971618652340000e+000) (53, -4.20170754194259640000e-001) (54, -4.43939030170440670000e-001) (55, -2.04121559858322140000e-001) (56, -1.93446397781372070000e-001) (57, -2.53343164920806880000e-001) (58, -2.76177585124969480000e-001) (59, -3.08540105819702150000e-001) (60, -3.22453111410140990000e-001) (61, -3.50713998079299930000e-001) (62, -3.19687813520431520000e-001) (63, -1.88884586095809940000e-001) (64, -2.36540779471397400000e-001) (65, -3.13368707895278930000e-001) (66, -5.26400923728942870000e-001) (67, -1.75744903087615970000e+000) (68, -8.11219930648803710000e-001) (69, -1.84649693965911870000e+000) (70, -1.80761766433715820000e+000) (71, -1.01080250740051270000e+000) (72, -7.23024845123291020000e+000) (73, -6.47281265258789060000e+000) (74, -6.65348863601684570000e+000) (75, -6.46979713439941410000e+000) (76, -6.63851642608642580000e+000) (77, -3.67286014556884770000e+000) (78, -1.67271339893341060000e+000) (79, -2.37231588363647460000e+000) (80, -1.11523938179016110000e+000) (81, -6.56157314777374270000e-001) (82, -3.57236474752426150000e-001) (83, -2.62588322162628170000e-001) (84, -3.51088941097259520000e-001) (85, -3.06425184011459350000e-001) (86, -5.48851609230041500000e-001) (87, -4.96910393238067630000e-001) (88, -7.58075177669525150000e-001) (89, -9.83479440212249760000e-001) (90, -1.29448604583740230000e+000) (91, -7.65802919864654540000e-001) (92, -9.26954746246337890000e-001) (93, -9.17639255523681640000e-001) (94, -5.28371095657348630000e-001) (95, -1.45066201686859130000e-001) (96, -7.81078338623046870000e+000) (97, -3.93283605575561520000e-001) (98, -4.18791249394416810000e-002) (99, -1.07108682394027710000e-001) (0, 4.38284158706665040000e-001) (1, 9.40700352191925050000e-001) (2, 9.75542902946472170000e-001) (3, 5.31289458274841310000e-001) (4, 9.97726500034332280000e-001) (5, 1.09009730815887450000e+000) (6, 8.68865549564361570000e-001) (7, 1.69433128833770750000e+000) (8, 4.77927088737487790000e-001) (9, 5.86566805839538570000e-001) (10, 5.60782968997955320000e-001) (11, 5.53181171417236330000e-001) (12, 4.99177247285842900000e-001) (13, 8.83824706077575680000e-001) (14, 7.65837371349334720000e-001) (15, 1.07024550437927250000e+000) (16, 1.00480699539184570000e+000) (17, 1.77281463146209720000e+000) (18, 1.38823151588439940000e+000) (19, 1.26538598537445070000e+000) (20, 8.06753873825073240000e-001) (21, 8.98279726505279540000e-001) (22, 1.02524864673614500000e+000) (23, 4.06869363784790040000e+000) (24, 1.71573615074157710000e+000) (25, 9.01460468769073490000e-001) (26, 2.38244009017944340000e+000) (27, 1.27400600910186770000e+000) (28, 1.02748811244964600000e+000) (29, 6.92434012889862060000e-001) (30, 6.41240596771240230000e-001) (31, 1.52101171016693120000e+000) (32, 1.81278836727142330000e+000) (33, 2.93362498283386230000e+000) (34, 2.27329039573669430000e+000) (35, 2.25722002983093260000e+000) (36, 1.63190615177154540000e+000) (37, 1.69360125064849850000e+000) (38, 1.48976624011993410000e+000) (39, 1.42057549953460690000e+000) (40, 1.50277149677276610000e+000) (41, 1.47065079212188720000e+000) (42, 1.38807547092437740000e+000) (43, 1.37841355800628660000e+000) (44, 1.57021570205688480000e+000) (45, 1.14826834201812740000e+000) (46, 1.61383175849914550000e+000) (47, 3.18511557579040530000e+000) (48, 7.15877807617187500000e+002) (49, 3.01835441589355470000e+001) (50, 6.03934135437011720000e+001) (51, 2.26434445381164550000e+000) (52, 6.28569185733795170000e-001) (53, -1.52674034237861630000e-001) (54, 2.55200386047363280000e-001) (55, 2.53444820642471310000e-001) (56, 2.87321716547012330000e-001) (57, 3.58820021152496340000e-001) (58, 6.21178507804870610000e-001) (59, 5.82603812217712400000e-001) (60, 6.53886795043945310000e-001) (61, 8.21708738803863530000e-001) (62, 8.41483414173126220000e-001) (63, 8.30356597900390630000e-001) (64, 8.86888325214385990000e-001) (65, 1.32258939743041990000e+000) (66, 8.12628269195556640000e+000) (67, 1.15661640167236330000e+001) (68, 2.61969089508056640000e+001) (69, 1.19071712493896480000e+001) (70, 1.12153234481811520000e+001) (71, 1.94629311561584470000e+000) (72, 1.68354046344757080000e+000) (73, 1.61875212192535400000e+000) (74, 1.83283913135528560000e+000) (75, 2.13010168075561520000e+000) (76, 1.79368329048156740000e+000) (77, 1.52129507064819340000e+000) (78, 1.55747354030609130000e+000) (79, 1.57614266872406010000e+000) (80, 1.58045005798339840000e+000) (81, 1.60461390018463130000e+000) (82, 1.31938469409942630000e+000) (83, 1.54051661491394040000e+000) (84, 8.33990454673767090000e-001) (85, 8.50405097007751460000e-001) (86, 7.01601028442382810000e-001) (87, 1.47003102302551270000e+000) (88, 8.82384419441223140000e-001) (89, 6.48878157138824460000e-001) (90, 4.89311754703521730000e-001) (91, 7.99201965332031250000e-001) (92, 1.32118439674377440000e+000) (93, 1.15127599239349370000e+000) (94, 1.44844615459442140000e+000) (95, 7.31678605079650880000e-001) (96, 2.25796833038330080000e+001) (97, 4.35973443090915680000e-002) (98, -4.89272236824035640000e-001) (99, 8.34073483943939210000e-001) (0, 2.07405909895896910000e-001) (1, 3.12881767749786380000e-001) (2, 2.41448998451232910000e-001) (3, 2.72035121917724610000e-001) (4, 2.35544636845588680000e-001) (5, 1.59251302480697630000e-001) (6, 2.06785738468170170000e-001) (7, 1.20671644806861880000e-001) (8, 2.24932730197906490000e-001) (9, 1.83724001049995420000e-001) (10, 3.02711516618728640000e-001) (11, 2.26872429251670840000e-001) (12, 2.41792947053909300000e-001) (13, 2.56148219108581540000e-001) (14, 2.80835717916488650000e-001) (15, 3.33367615938186650000e-001) (16, 2.70800471305847170000e-001) (17, 2.36898899078369140000e-001) (18, 2.23533943295478820000e-001) (19, 3.13680499792099000000e-001) (20, 2.70919263362884520000e-001) (21, 1.46975189447402950000e-001) (22, 2.90591180324554440000e-001) (23, 1.96323081851005550000e-001) (24, 2.10850343108177190000e-001) (25, 1.93918213248252870000e-001) (26, 1.92173138260841370000e-001) (27, 2.39850088953971860000e-001) (28, 1.30657941102981570000e-001) (29, 2.94773668050765990000e-001) (30, 2.35272675752639770000e-001) (31, 1.38309508562088010000e-001) (32, 1.22351385653018950000e-001) (33, -6.89627453684806820000e-002) (34, 4.78854104876518250000e-002) (35, 1.47037029266357420000e-001) (36, -5.05529828369617460000e-002) (37, -4.80943918228149410000e-002) (38, -3.48093733191490170000e-002) (39, 3.64630743861198430000e-002) (40, 1.95868536829948430000e-002) (41, 6.23786076903343200000e-002) (42, 3.43939922749996190000e-002) (43, 8.50318893790245060000e-002) (44, 1.96803227066993710000e-001) (45, 4.01172302663326260000e-002) (46, -1.14519640803337100000e-001) (47, 2.78369784355163570000e-001) (48, -3.96610349416732790000e-001) (49, -2.76519417762756350000e+000) (50, 2.94001340866088870000e+000) (51, 1.48215383291244510000e-001) (52, 8.64362940192222600000e-002) (53, 2.58352547883987430000e-001) (54, 2.71180540323257450000e-001) (55, 2.86210209131240840000e-001) (56, 2.73175239562988280000e-001) (57, 3.49188417196273800000e-001) (58, 2.88657367229461670000e-001) (59, 3.08328449726104740000e-001) (60, 2.61914283037185670000e-001) (61, 2.30515927076339720000e-001) (62, 3.08637797832489010000e-001) (63, 2.11767211556434630000e-001) (64, 1.90472289919853210000e-001) (65, 2.95098304748535160000e-001) (66, 3.03667634725570680000e-001) (67, 2.86832630634307860000e-001) (68, 1.16209506988525390000e-001) (69, 2.69497692584991460000e-001) (70, 3.64820696413517000000e-002) (71, -8.39705243706703190000e-002) (72, -4.18627768754959110000e-001) (73, -4.40515965223312380000e-001) (74, -3.13540756702423100000e-001) (75, -1.18144726753234860000e+000) (76, -4.56021159887313840000e-001) (77, -2.98028975725173950000e-001) (78, -4.28692288696765900000e-002) (79, -1.68882869184017180000e-002) (80, 1.25713720917701720000e-001) (81, 1.83806866407394410000e-001) (82, 4.42443549633026120000e-001) (83, 2.02622666954994200000e-001) (84, 2.26538091897964480000e-001) (85, 2.50377506017684940000e-001) (86, 1.44696310162544250000e-001) (87, 2.75323331356048580000e-001) (88, 2.48940214514732360000e-001) (89, 1.40331953763961790000e-001) (90, 2.36092910170555110000e-001) (91, 2.65330702066421510000e-001) (92, 2.36855059862136840000e-001) (93, 2.76776909828186040000e-001) (94, 2.16845035552978520000e-001) (95, 3.51699471473693850000e-001) (96, 2.29778155684471130000e-001) (97, 1.67029216885566710000e-001) (98, 3.27128052711486820000e-001) (99, 2.92300522327423100000e-001) (0, 6.36261701583862300000e-001) (1, 5.95057368278503420000e-001) (2, 5.97661435604095460000e-001) (3, 3.01839321851730350000e-001) (4, 3.58608186244964600000e-001) (5, 4.37700659036636350000e-001) (6, 4.14238750934600830000e-001) (7, 4.18315231800079350000e-001) (8, 4.84076589345932010000e-001) (9, 4.44919973611831670000e-001) (10, 5.91506719589233400000e-001) (11, 5.85559844970703130000e-001) (12, 5.88063538074493410000e-001) (13, 8.10662984848022460000e-001) (14, 8.77025723457336430000e-001) (15, 6.96549236774444580000e-001) (16, 9.58141386508941650000e-001) (17, 1.19443619251251220000e+000) (18, 6.63459599018096920000e-001) (19, 9.24533784389495850000e-001) (20, 1.39393341541290280000e+000) (21, 9.37324881553649900000e-001) (22, 1.17789125442504880000e+000) (23, 9.46492135524749760000e-001) (24, 6.63262724876403810000e-001) (25, 6.79692327976226810000e-001) (26, 6.35601520538330080000e-001) (27, 4.85241353511810300000e-001) (28, 6.04500114917755130000e-001) (29, 5.02703249454498290000e-001) (30, 8.95715534687042240000e-001) (31, 2.36581587791442870000e+000) (32, 2.43223428726196290000e+000) (33, 2.71147179603576660000e+000) (34, 1.33244085311889650000e+000) (35, 9.40897583961486820000e-001) (36, 9.22672510147094730000e-001) (37, 1.43156290054321290000e+000) (38, 9.17715072631835940000e-001) (39, 6.90088570117950440000e-001) (40, 1.10460019111633300000e+000) (41, 1.10197579860687260000e+000) (42, 1.03191971778869630000e+000) (43, 9.10613417625427250000e-001) (44, 6.78325951099395750000e-001) (45, 3.32389879226684570000e+000) (46, 3.01415753364562990000e+000) (47, 2.12813407182693480000e-001) (48, 1.37169933319091800000e+001) (49, 2.70226379394531250000e+002) (50, 5.53142944335937500000e+002) (51, 1.08421206474304200000e+000) (52, 1.42464399337768550000e+000) (53, 8.22922348976135250000e-001) (54, 7.44187414646148680000e-001) (55, 6.64537072181701660000e-001) (56, 7.06813633441925050000e-001) (57, 6.83660566806793210000e-001) (58, 6.49340510368347170000e-001) (59, 5.92956125736236570000e-001) (60, 1.39202535152435300000e+000) (61, 5.30236899852752690000e-001) (62, 8.33452820777893070000e-001) (63, 8.25105130672454830000e-001) (64, 7.75335013866424560000e-001) (65, 8.16867351531982420000e-001) (66, 1.18356966972351070000e+000) (67, 8.35382103919982910000e-001) (68, 8.77891182899475100000e-001) (69, 8.61372113227844240000e-001) (70, 6.65379941463470460000e-001) (71, 6.07639908790588380000e-001) (72, 5.78699874877929690000e+000) (73, 5.90415573120117190000e+000) (74, 1.31672134399414060000e+001) (75, 1.31039628982543950000e+001) (76, 1.32866840362548830000e+001) (77, 2.91297340393066410000e+000) (78, 1.56060957908630370000e+000) (79, 1.07766878604888920000e+000) (80, 6.13964080810546880000e-001) (81, 5.75402379035949710000e-001) (82, 3.84965330362319950000e-001) (83, 4.47096556425094600000e-001) (84, 4.48697477579116820000e-001) (85, 5.75596034526824950000e-001) (86, 5.75492918491363530000e-001) (87, 8.27811181545257570000e-001) (88, 8.19309771060943600000e-001) (89, 1.84379076957702640000e+000) (90, 7.84193575382232670000e-001) (91, 8.75766277313232420000e-001) (92, 9.96000587940216060000e-001) (93, 1.00777077674865720000e+000) (94, 6.96982204914093020000e-001) (95, 9.07646298408508300000e-001) (96, 1.66708779335021970000e+000) (97, 7.82389998435974120000e-001) (98, 2.13641703128814700000e-001) (99, 6.11631274223327640000e-001) (0, 1.34831234812736510000e-001) (1, -2.61528287082910540000e-002) (2, 4.03161719441413880000e-002) (3, 1.19999721646308900000e-001) (4, 1.37393087148666380000e-001) (5, 9.68185141682624820000e-002) (6, 5.03222271800041200000e-002) (7, 1.73423960804939270000e-001) (8, -2.88214697502553460000e-003) (9, 1.35299026966094970000e-001) (10, 7.56416618824005130000e-002) (11, 5.13496510684490200000e-002) (12, 6.09627030789852140000e-002) (13, -6.29196595400571820000e-003) (14, 9.54232066869735720000e-002) (15, 3.49352583289146420000e-002) (16, 1.35194569826126100000e-001) (17, -4.34721633791923520000e-002) (18, -3.78874652087688450000e-002) (19, -3.97331081330776210000e-002) (20, 2.72464975714683530000e-002) (21, 5.16274571418762210000e-003) (22, 3.36313247680664060000e-002) (23, 2.88949739187955860000e-002) (24, 2.97150481492280960000e-002) (25, -1.45361706614494320000e-001) (26, -2.53105014562606810000e-001) (27, -2.85545259714126590000e-001) (28, -3.10688376426696780000e-001) (29, -3.17181944847106930000e-001) (30, -1.62455976009368900000e-001) (31, -2.32703179121017460000e-001) (32, -2.07751587033271790000e-001) (33, -3.70650708675384520000e-001) (34, -3.97707551717758180000e-001) (35, -2.70052999258041380000e-001) (36, 1.21247090399265290000e-001) (37, -5.42023368179798130000e-002) (38, 4.64788451790809630000e-002) (39, -2.68299609422683720000e-001) (40, 6.76623657345771790000e-002) (41, 3.84038612246513370000e-002) (42, 9.66536551713943480000e-002) (43, 3.95106300711631770000e-002) (44, 1.12732298672199250000e-001) (45, -1.15842297673225400000e-001) (46, 3.10427453368902210000e-002) (47, -1.75178349018096920000e-001) (48, -8.07958316802978520000e+000) (49, -6.61206130981445310000e+001) (50, -1.59012878417968750000e+002) (51, 1.30979642271995540000e-001) (52, 1.39103412628173830000e-001) (53, 1.12398475408554080000e-001) (54, 1.62821546196937560000e-001) (55, 5.80691127106547360000e-003) (56, 1.00063875317573550000e-001) (57, 7.60110318660736080000e-002) (58, 1.07701793313026430000e-001) (59, 2.14626770466566090000e-002) (60, 6.18933886289596560000e-002) (61, 1.63339957594871520000e-001) (62, 1.30765572190284730000e-001) (63, 6.15420117974281310000e-002) (64, 1.70301850885152820000e-002) (65, -1.67026370763778690000e-001) (66, -3.83863449096679690000e-002) (67, 6.87173474580049510000e-003) (68, 4.61654327809810640000e-002) (69, 7.46825262904167180000e-002) (70, -5.83831444382667540000e-002) (71, -3.26545059680938720000e-001) (72, -6.32688283920288090000e-001) (73, -4.94658589363098140000e-001) (74, -7.23288297653198240000e-001) (75, -1.37707769870758060000e+000) (76, -2.96349763870239260000e+000) (77, -4.83685541152954100000e+000) (78, -1.08357787132263180000e+000) (79, -4.79524582624435420000e-001) (80, -3.70331496000289920000e-001) (81, -2.38967925310134890000e-001) (82, -2.92859703302383420000e-001) (83, -2.83198684453964230000e-001) (84, -1.53887212276458740000e-001) (85, -3.29435259103775020000e-001) (86, -2.79307663440704350000e-001) (87, 1.18678629398345950000e-001) (88, -5.24832867085933690000e-002) (89, 1.94495636969804760000e-002) (90, 9.78751704096794130000e-002) (91, 8.09668079018592830000e-002) (92, 1.04863651096820830000e-001) (93, 4.83740046620368960000e-002) (94, 8.00288170576095580000e-002) (95, 1.15954145789146420000e-001) (96, 6.94277063012123110000e-002) (97, 1.09464146196842190000e-001) (98, 1.63824439048767090000e-001) (99, 1.64027288556098940000e-001) (0, 1.26202642917633060000e-001) (1, 8.55145677924156190000e-002) (2, 1.29715740680694580000e-001) (3, 1.99115291237831120000e-001) (4, -2.00430497527122500000e-001) (5, -2.86522954702377320000e-001) (6, -2.56419479846954350000e-001) (7, -2.24797829985618590000e-001) (8, -1.62742584943771360000e-001) (9, -1.43767684698104860000e-001) (10, 1.31098523736000060000e-001) (11, 5.59148052707314490000e-003) (12, 1.49926453828811650000e-001) (13, 6.12955428659915920000e-002) (14, 9.58462059497833250000e-002) (15, 8.00657495856285100000e-002) (16, 3.90653982758522030000e-002) (17, 1.82319521903991700000e-001) (18, 1.34331524372100830000e-001) (19, 1.97089672088623050000e-001) (20, 9.91048365831375120000e-002) (21, 1.39492794871330260000e-001) (22, 1.61587953567504880000e-001) (23, 1.86762645840644840000e-001) (24, 1.28267437219619750000e-001) (25, 1.72111123800277710000e-001) (26, 7.59777873754501340000e-002) (27, 8.38816016912460330000e-002) (28, 3.57809662818908690000e-001) (29, 2.03080356121063230000e-001) (30, 8.11483189463615420000e-002) (31, 7.28844851255416870000e-002) (32, 6.26465454697608950000e-002) (33, 1.20094001293182370000e-001) (34, 1.26043438911437990000e-001) (35, -6.22175168246030810000e-003) (36, 5.62416352331638340000e-002) (37, 8.65693092346191410000e-002) (38, 8.78914445638656620000e-002) (39, 9.75434705615043640000e-002) (40, 3.08707430958747860000e-002) (41, 8.57729092240333560000e-002) (42, 1.45731508731842040000e-001) (43, 6.94958865642547610000e-002) (44, 1.03903606534004210000e-001) (45, 7.90381878614425660000e-002) (46, 1.15546271204948430000e-001) (47, 1.75689831376075740000e-001) (48, -4.25665855407714840000e+000) (49, -3.32268571853637700000e+000) (50, -2.46740311384201050000e-001) (51, 1.14237166941165920000e-001) (52, 1.19442582130432130000e-001) (53, 1.10598374158144000000e-002) (54, 1.18117757141590120000e-001) (55, 1.49818256497383120000e-001) (56, 1.22533820569515230000e-001) (57, 1.52018874883651730000e-001) (58, 1.16287842392921450000e-001) (59, 1.13350555300712590000e-001) (60, 1.46398797631263730000e-001) (61, 1.63658499717712400000e-001) (62, 1.58018261194229130000e-001) (63, 1.51878118515014650000e-001) (64, 2.42220666259527210000e-002) (65, 2.90456730872392650000e-002) (66, 8.06264928542077540000e-004) (67, -8.74422211199998860000e-003) (68, 1.70497134327888490000e-001) (69, 8.35645124316215520000e-002) (70, 1.24707996845245360000e-001) (71, 1.50428697466850280000e-001) (72, 3.64368073642253880000e-002) (73, 8.82924124598503110000e-002) (74, -8.10794904828071590000e-002) (75, -2.78967246413230900000e-003) (76, 4.41307649016380310000e-002) (77, -8.23374912142753600000e-002) (78, -4.72963415086269380000e-002) (79, 1.24110862612724300000e-001) (80, 2.34855264425277710000e-002) (81, 1.53369074687361720000e-002) (82, 1.06436103582382200000e-001) (83, 1.42100587487220760000e-001) (84, 4.22682054340839390000e-002) (85, 8.95649418234825130000e-002) (86, 1.85781985521316530000e-001) (87, 5.15464022755622860000e-002) (88, 1.10851444303989410000e-001) (89, 6.26678317785263060000e-002) (90, 1.41540601849555970000e-001) (91, 5.67971393465995790000e-002) (92, 1.41496196389198300000e-001) (93, 1.87037423253059390000e-001) (94, 1.60808399319648740000e-001) (95, 7.20425322651863100000e-002) (96, -2.39394772797822950000e-002) (97, 9.90221574902534480000e-002) (98, 1.73057809472084050000e-001) (99, 1.15532286465168000000e-001) (0, 2.60478883981704710000e-001) (1, 9.54731106758117680000e-001) (2, 8.70588779449462890000e-001) (3, -1.97846919298172000000e-001) (4, -3.04596722126007080000e-001) (5, -1.33778512477874760000e-001) (6, -2.36031204462051390000e-001) (7, -5.40377616882324220000e-001) (8, -2.34412699937820430000e-001) (9, -5.19007980823516850000e-001) (10, -6.45909547805786130000e-001) (11, 1.33272603154182430000e-001) (12, 2.09146067500114440000e-001) (13, 8.48400175571441650000e-001) (14, 6.82426154613494870000e-001) (15, 6.66428923606872560000e-001) (16, 7.19273567199707030000e-001) (17, 8.04581701755523680000e-001) (18, 8.26267480850219730000e-001) (19, 8.41238200664520260000e-001) (20, 6.35322988033294680000e-001) (21, 7.17967391014099120000e-001) (22, 3.34040492773056030000e-001) (23, 4.22575980424880980000e-001) (24, -5.10728418827056880000e-001) (25, 8.65598201751708980000e-001) (26, 8.00890803337097170000e-001) (27, 8.98840487003326420000e-001) (28, 1.10563766956329350000e+000) (29, 9.79969024658203130000e-001) (30, 7.03124105930328370000e-001) (31, 8.74119162559509280000e-001) (32, 3.08090448379516600000e-001) (33, -4.52433884143829350000e-001) (34, 4.06743675470352170000e-001) (35, 7.35248565673828130000e-001) (36, 6.22206687927246090000e-001) (37, -5.43306469917297360000e-001) (38, 2.29089781641960140000e-001) (39, 2.03656405210495000000e-001) (40, 1.91717952489852910000e-001) (41, 2.68695384263992310000e-001) (42, 2.84869700670242310000e-001) (43, 6.89692020416259770000e-001) (44, 7.16890871524810790000e-001) (45, -7.11823749542236330000e+000) (46, -6.68421363830566410000e+000) (47, 1.07795667648315430000e+000) (48, 2.65007948875427250000e+000) (49, 1.80078399181365970000e+000) (50, 1.12556304931640630000e+001) (51, -3.51007819175720210000e+000) (52, -8.19494915008544920000e+000) (53, -1.21795005798339840000e+001) (54, -1.40077126026153560000e+000) (55, -1.31866669654846190000e+000) (56, 8.65306183695793150000e-002) (57, 5.12160360813140870000e-001) (58, 5.99051177501678470000e-001) (59, 7.68625319004058840000e-001) (60, 8.28026115894317630000e-001) (61, 8.84593248367309570000e-001) (62, 9.68377709388732910000e-001) (63, 8.06247055530548100000e-001) (64, 9.39153432846069340000e-001) (65, 8.48173737525939940000e-001) (66, 9.78429019451141360000e-001) (67, 9.61613774299621580000e-001) (68, 9.65758442878723140000e-001) (69, 9.63365852832794190000e-001) (70, 8.89750540256500240000e-001) (71, 3.32543253898620610000e-001) (72, 3.53122115135192870000e-001) (73, -2.61182761192321780000e+000) (74, -2.56054139137268070000e+000) (75, -2.51898860931396480000e+000) (76, -2.64946961402893070000e+000) (77, -4.73126649856567380000e-001) (78, 2.68097490072250370000e-001) (79, 9.08953428268432620000e-001) (80, 8.38781177997589110000e-001) (81, 1.05578970909118650000e+000) (82, 1.07116901874542240000e+000) (83, 1.02759265899658200000e+000) (84, 1.05119764804840090000e+000) (85, 9.84594404697418210000e-001) (86, 8.10990512371063230000e-001) (87, 7.07325518131256100000e-001) (88, 6.31386861205101010000e-002) (89, 5.95151111483573910000e-002) (90, -1.39933571219444270000e-001) (91, -1.02183282375335690000e-001) (92, 6.46293282508850100000e-001) (93, 6.73008501529693600000e-001) (94, 5.48410356044769290000e-001) (95, 