FANN_FLO_2.1
num_layers=5
learning_rate=0.700000
connection_rate=1.000000
network_type=0
learning_momentum=0.000000
training_algorithm=2
train_error_function=0
train_stop_function=0
cascade_output_change_fraction=0.010000
quickprop_decay=-0.000100
quickprop_mu=1.750000
rprop_increase_factor=1.200000
rprop_decrease_factor=0.500000
rprop_delta_min=0.000000
rprop_delta_max=50.000000
rprop_delta_zero=0.100000
cascade_output_stagnation_epochs=12
cascade_candidate_change_fraction=0.010000
cascade_candidate_stagnation_epochs=12
cascade_max_out_epochs=150
cascade_min_out_epochs=50
cascade_max_cand_epochs=150
cascade_min_cand_epochs=50
cascade_num_candidate_groups=2
bit_fail_limit=3.49999994039535520000e-001
cascade_candidate_limit=1.00000000000000000000e+003
cascade_weight_multiplier=4.00000005960464480000e-001
cascade_activation_functions_count=10
cascade_activation_functions=3 5 7 8 10 11 14 15 16 17 
cascade_activation_steepnesses_count=4
cascade_activation_steepnesses=2.50000000000000000000e-001 5.00000000000000000000e-001 7.50000000000000000000e-001 1.00000000000000000000e+000 
layer_sizes=100 76 52 28 2 
scale_included=0
neurons (num_inputs, activation_function, activation_steepness)=(0, 0, 0.00000000000000000000e+000) (0, 0, 0.00000000000000000000e+000) (0, 0, 0.00000000000000000000e+000) (0, 0, 0.00000000000000000000e+000) (0, 0, 0.00000000000000000000e+000) (0, 0, 0.00000000000000000000e+000) (0, 0, 0.00000000000000000000e+000) (0, 0, 0.00000000000000000000e+000) (0, 0, 0.00000000000000000000e+000) (0, 0, 0.00000000000000000000e+000) (0, 0, 0.00000000000000000000e+000) (0, 0, 0.00000000000000000000e+000) (0, 0, 0.00000000000000000000e+000) (0, 0, 0.00000000000000000000e+000) (0, 0, 0.00000000000000000000e+000) (0, 0, 0.00000000000000000000e+000) (0, 0, 0.00000000000000000000e+000) (0, 0, 0.00000000000000000000e+000) (0, 0, 0.00000000000000000000e+000) (0, 0, 0.00000000000000000000e+000) (0, 0, 0.00000000000000000000e+000) (0, 0, 0.00000000000000000000e+000) (0, 0, 0.00000000000000000000e+000) (0, 0, 0.00000000000000000000e+000) (0, 0, 0.00000000000000000000e+000) (0, 0, 0.00000000000000000000e+000) (0, 0, 0.00000000000000000000e+000) (0, 0, 0.00000000000000000000e+000) (0, 0, 0.00000000000000000000e+000) (0, 0, 0.00000000000000000000e+000) (0, 0, 0.00000000000000000000e+000) (0, 0, 0.00000000000000000000e+000) (0, 0, 0.00000000000000000000e+000) (0, 0, 0.00000000000000000000e+000) (0, 0, 0.00000000000000000000e+000) (0, 0, 0.00000000000000000000e+000) (0, 0, 0.00000000000000000000e+000) (0, 0, 0.00000000000000000000e+000) (0, 0, 0.00000000000000000000e+000) (0, 0, 0.00000000000000000000e+000) (0, 0, 0.00000000000000000000e+000) (0, 0, 0.00000000000000000000e+000) (0, 0, 0.00000000000000000000e+000) (0, 0, 0.00000000000000000000e+000) (0, 0, 0.00000000000000000000e+000) (0, 0, 0.00000000000000000000e+000) (0, 0, 0.00000000000000000000e+000) (0, 0, 0.00000000000000000000e+000) (0, 0, 0.00000000000000000000e+000) (0, 0, 0.00000000000000000000e+000) (0, 0, 0.00000000000000000000e+000) (0, 0, 0.00000000000000000000e+000) (0, 0, 0.00000000000000000000e+000) (0, 0, 0.00000000000000000000e+000) (0, 0, 0.00000000000000000000e+000) (0, 0, 0.00000000000000000000e+000) (0, 0, 0.00000000000000000000e+000) (0, 0, 0.00000000000000000000e+000) (0, 0, 0.00000000000000000000e+000) (0, 0, 0.00000000000000000000e+000) (0, 0, 0.00000000000000000000e+000) (0, 0, 0.00000000000000000000e+000) (0, 0, 0.00000000000000000000e+000) (0, 0, 0.00000000000000000000e+000) (0, 0, 0.00000000000000000000e+000) (0, 0, 0.00000000000000000000e+000) (0, 0, 0.00000000000000000000e+000) (0, 0, 0.00000000000000000000e+000) (0, 0, 0.00000000000000000000e+000) (0, 0, 0.00000000000000000000e+000) (0, 0, 0.00000000000000000000e+000) (0, 0, 0.00000000000000000000e+000) (0, 0, 0.00000000000000000000e+000) (0, 0, 0.00000000000000000000e+000) (0, 0, 0.00000000000000000000e+000) (0, 0, 0.00000000000000000000e+000) (0, 0, 0.00000000000000000000e+000) (0, 0, 0.00000000000000000000e+000) (0, 0, 0.00000000000000000000e+000) (0, 0, 0.00000000000000000000e+000) (0, 0, 0.00000000000000000000e+000) (0, 0, 0.00000000000000000000e+000) (0, 0, 0.00000000000000000000e+000) (0, 0, 0.00000000000000000000e+000) (0, 0, 0.00000000000000000000e+000) (0, 0, 0.00000000000000000000e+000) (0, 0, 0.00000000000000000000e+000) (0, 0, 0.00000000000000000000e+000) (0, 0, 0.00000000000000000000e+000) (0, 0, 0.00000000000000000000e+000) (0, 0, 0.00000000000000000000e+000) (0, 0, 0.00000000000000000000e+000) (0, 0, 0.00000000000000000000e+000) (0, 0, 0.00000000000000000000e+000) (0, 0, 0.00000000000000000000e+000) (0, 0, 0.00000000000000000000e+000) (0, 0, 0.00000000000000000000e+000) (0, 0, 0.00000000000000000000e+000) (0, 0, 0.00000000000000000000e+000) (0, 0, 0.00000000000000000000e+000) (100, 11, 5.00000000000000000000e-001) (100, 11, 5.00000000000000000000e-001) (100, 11, 5.00000000000000000000e-001) (100, 11, 5.00000000000000000000e-001) (100, 11, 5.00000000000000000000e-001) (100, 11, 5.00000000000000000000e-001) (100, 11, 5.00000000000000000000e-001) (100, 11, 5.00000000000000000000e-001) (100, 11, 5.00000000000000000000e-001) (100, 11, 5.00000000000000000000e-001) (100, 11, 5.00000000000000000000e-001) (100, 11, 5.00000000000000000000e-001) (100, 11, 5.00000000000000000000e-001) (100, 11, 5.00000000000000000000e-001) (100, 11, 5.00000000000000000000e-001) (100, 11, 5.00000000000000000000e-001) (100, 11, 5.00000000000000000000e-001) (100, 11, 5.00000000000000000000e-001) (100, 11, 5.00000000000000000000e-001) (100, 11, 5.00000000000000000000e-001) (100, 11, 5.00000000000000000000e-001) (100, 11, 5.00000000000000000000e-001) (100, 11, 5.00000000000000000000e-001) (100, 11, 5.00000000000000000000e-001) (100, 11, 5.00000000000000000000e-001) (100, 11, 5.00000000000000000000e-001) (100, 11, 5.00000000000000000000e-001) (100, 11, 5.00000000000000000000e-001) (100, 11, 5.00000000000000000000e-001) (100, 11, 5.00000000000000000000e-001) (100, 11, 5.00000000000000000000e-001) (100, 11, 5.00000000000000000000e-001) (100, 11, 5.00000000000000000000e-001) (100, 11, 5.00000000000000000000e-001) (100, 11, 5.00000000000000000000e-001) (100, 11, 5.00000000000000000000e-001) (100, 11, 5.00000000000000000000e-001) (100, 11, 5.00000000000000000000e-001) (100, 11, 5.00000000000000000000e-001) (100, 11, 5.00000000000000000000e-001) (100, 11, 5.00000000000000000000e-001) (100, 11, 5.00000000000000000000e-001) (100, 11, 5.00000000000000000000e-001) (100, 11, 5.00000000000000000000e-001) (100, 11, 5.00000000000000000000e-001) (100, 11, 5.00000000000000000000e-001) (100, 11, 5.00000000000000000000e-001) (100, 11, 5.00000000000000000000e-001) (100, 11, 5.00000000000000000000e-001) (100, 11, 5.00000000000000000000e-001) (100, 11, 5.00000000000000000000e-001) (100, 11, 5.00000000000000000000e-001) (100, 11, 5.00000000000000000000e-001) (100, 11, 5.00000000000000000000e-001) (100, 11, 5.00000000000000000000e-001) (100, 11, 5.00000000000000000000e-001) (100, 11, 5.00000000000000000000e-001) (100, 11, 5.00000000000000000000e-001) (100, 11, 5.00000000000000000000e-001) (100, 11, 5.00000000000000000000e-001) (100, 11, 5.00000000000000000000e-001) (100, 11, 5.00000000000000000000e-001) (100, 11, 5.00000000000000000000e-001) (100, 11, 5.00000000000000000000e-001) (100, 11, 5.00000000000000000000e-001) (100, 11, 5.00000000000000000000e-001) (100, 11, 5.00000000000000000000e-001) (100, 11, 5.00000000000000000000e-001) (100, 11, 5.00000000000000000000e-001) (100, 11, 5.00000000000000000000e-001) (100, 11, 5.00000000000000000000e-001) (100, 11, 5.00000000000000000000e-001) (100, 11, 5.00000000000000000000e-001) (100, 11, 5.00000000000000000000e-001) (100, 11, 5.00000000000000000000e-001) (0, 11, 5.00000000000000000000e-001) (76, 11, 5.00000000000000000000e-001) (76, 11, 5.00000000000000000000e-001) (76, 11, 5.00000000000000000000e-001) (76, 11, 5.00000000000000000000e-001) (76, 11, 5.00000000000000000000e-001) (76, 11, 5.00000000000000000000e-001) (76, 11, 5.00000000000000000000e-001) (76, 11, 5.00000000000000000000e-001) (76, 11, 5.00000000000000000000e-001) (76, 11, 5.00000000000000000000e-001) (76, 11, 5.00000000000000000000e-001) (76, 11, 5.00000000000000000000e-001) (76, 11, 5.00000000000000000000e-001) (76, 11, 5.00000000000000000000e-001) (76, 11, 5.00000000000000000000e-001) (76, 11, 5.00000000000000000000e-001) (76, 11, 5.00000000000000000000e-001) (76, 11, 5.00000000000000000000e-001) (76, 11, 5.00000000000000000000e-001) (76, 11, 5.00000000000000000000e-001) (76, 11, 5.00000000000000000000e-001) (76, 11, 5.00000000000000000000e-001) (76, 11, 5.00000000000000000000e-001) (76, 11, 5.00000000000000000000e-001) (76, 11, 5.00000000000000000000e-001) (76, 11, 5.00000000000000000000e-001) (76, 11, 5.00000000000000000000e-001) (76, 11, 5.00000000000000000000e-001) (76, 11, 5.00000000000000000000e-001) (76, 11, 5.00000000000000000000e-001) (76, 11, 5.00000000000000000000e-001) (76, 11, 5.00000000000000000000e-001) (76, 11, 5.00000000000000000000e-001) (76, 11, 5.00000000000000000000e-001) (76, 11, 5.00000000000000000000e-001) (76, 11, 5.00000000000000000000e-001) (76, 11, 5.00000000000000000000e-001) (76, 11, 5.00000000000000000000e-001) (76, 11, 5.00000000000000000000e-001) (76, 11, 5.00000000000000000000e-001) (76, 11, 5.00000000000000000000e-001) (76, 11, 5.00000000000000000000e-001) (76, 11, 5.00000000000000000000e-001) (76, 11, 5.00000000000000000000e-001) (76, 11, 5.00000000000000000000e-001) (76, 11, 5.00000000000000000000e-001) (76, 11, 5.00000000000000000000e-001) (76, 11, 5.00000000000000000000e-001) (76, 11, 5.00000000000000000000e-001) (76, 11, 5.00000000000000000000e-001) (76, 11, 5.00000000000000000000e-001) (0, 11, 5.00000000000000000000e-001) (52, 11, 5.00000000000000000000e-001) (52, 11, 5.00000000000000000000e-001) (52, 11, 5.00000000000000000000e-001) (52, 11, 5.00000000000000000000e-001) (52, 11, 5.00000000000000000000e-001) (52, 11, 5.00000000000000000000e-001) (52, 11, 5.00000000000000000000e-001) (52, 11, 5.00000000000000000000e-001) (52, 11, 5.00000000000000000000e-001) (52, 11, 5.00000000000000000000e-001) (52, 11, 5.00000000000000000000e-001) (52, 11, 5.00000000000000000000e-001) (52, 11, 5.00000000000000000000e-001) (52, 11, 5.00000000000000000000e-001) (52, 11, 5.00000000000000000000e-001) (52, 11, 5.00000000000000000000e-001) (52, 11, 5.00000000000000000000e-001) (52, 11, 5.00000000000000000000e-001) (52, 11, 5.00000000000000000000e-001) (52, 11, 5.00000000000000000000e-001) (52, 11, 5.00000000000000000000e-001) (52, 11, 5.00000000000000000000e-001) (52, 11, 5.00000000000000000000e-001) (52, 11, 5.00000000000000000000e-001) (52, 11, 5.00000000000000000000e-001) (52, 11, 5.00000000000000000000e-001) (52, 11, 5.00000000000000000000e-001) (0, 11, 5.00000000000000000000e-001) (28, 6, 5.00000000000000000000e-001) (0, 6, 5.00000000000000000000e-001) 
connections (connected_to_neuron, weight)=(0, 2.52709031105041500000e-001) (1, 2.22888618707656860000e-001) (2, 2.26221591234207150000e-001) (3, 3.89808148145675660000e-001) (4, 4.83349889516830440000e-001) (5, 3.20481568574905400000e-001) (6, 1.23453684151172640000e-001) (7, 7.07135498523712160000e-002) (8, 2.38784849643707280000e-001) (9, 2.34309777617454530000e-001) (10, 2.00010120868682860000e-001) (11, -6.33328706026077270000e-002) (12, -1.09236441552639010000e-001) (13, 3.84298060089349750000e-003) (14, 3.98500710725784300000e-002) (15, -1.04071758687496190000e-002) (16, 1.66251897811889650000e-001) (17, -1.27966478466987610000e-001) (18, -1.03729434311389920000e-001) (19, 4.05834130942821500000e-002) (20, 5.27984440326690670000e-001) (21, 5.82576692104339600000e-001) (22, 6.22567534446716310000e-001) (23, 4.86922860145568850000e-001) (24, 5.13756811618804930000e-001) (25, 2.48847961425781250000e-001) (26, 8.76444298774003980000e-003) (27, 9.45251882076263430000e-002) (28, -4.23434600234031680000e-002) (29, 7.11368992924690250000e-002) (30, 6.93725049495697020000e-002) (31, 1.01697176694870000000e-001) (32, 8.86461883783340450000e-002) (33, -6.03218749165534970000e-002) (34, -3.89768332242965700000e-002) (35, -1.21916765347123150000e-002) (36, -1.71957984566688540000e-002) (37, 1.21905408799648280000e-001) (38, 2.23024830222129820000e-001) (39, 2.55636572837829590000e-001) (40, 1.72237113118171690000e-001) (41, 1.67034327983856200000e-001) (42, 2.78457850217819210000e-001) (43, 1.47607281804084780000e-001) (44, 5.51872849464416500000e-002) (45, 1.75982177257537840000e-001) (46, 2.20455259084701540000e-001) (47, 2.28274971246719360000e-001) (48, 4.93939891457557680000e-002) (49, -3.71214225888252260000e-002) (50, -9.39555745571851730000e-003) (51, -2.21697777509689330000e-001) (52, 1.49511605501174930000e-001) (53, 2.14277565479278560000e-001) (54, 3.38682770729064940000e-001) (55, 4.51985210180282590000e-001) (56, 4.94237840175628660000e-002) (57, -6.22539371252059940000e-002) (58, 1.89220026135444640000e-001) (59, 2.19836354255676270000e-001) (60, -6.06612078845500950000e-002) (61, -2.96751614660024640000e-002) (62, -2.79945023357868190000e-002) (63, -8.53980481624603270000e-002) (64, -1.51729658246040340000e-001) (65, -3.89875844120979310000e-003) (66, 6.93292077630758290000e-003) (67, -1.61811560392379760000e-001) (68, 3.41302603483200070000e-001) (69, 6.98493719100952150000e-001) (70, 7.28181719779968260000e-001) (71, 5.32253503799438480000e-001) (72, 2.32852756977081300000e-001) (73, 2.77901917695999150000e-001) (74, -1.10076498240232470000e-002) (75, 1.38076245784759520000e-001) (76, 1.80996090173721310000e-001) (77, 1.39983206987380980000e-001) (78, 1.33562326431274410000e-001) (79, 1.40864238142967220000e-001) (80, 7.38269165158271790000e-002) (81, -4.16635125875473020000e-002) (82, 6.23133927583694460000e-002) (83, 3.46855111420154570000e-002) (84, 7.61665478348731990000e-002) (85, 1.79937317967414860000e-001) (86, 1.91156521439552310000e-001) (87, 3.34036588668823240000e-001) (88, 2.58568584918975830000e-001) (89, 9.41149741411209110000e-002) (90, 2.50848770141601560000e-001) (91, 1.10466033220291140000e-001) (92, -2.37250793725252150000e-003) (93, 1.26566477119922640000e-002) (94, 3.14554840326309200000e-001) (95, 2.33472049236297610000e-001) (96, -5.69273345172405240000e-002) (97, 9.27301123738288880000e-003) (98, 5.46964481472969060000e-002) (99, 2.72984892129898070000e-001) (0, -1.45725682377815250000e-002) (1, 2.19423826783895490000e-002) (2, -8.54007154703140260000e-002) (3, -1.96703970432281490000e-001) (4, -1.38392165303230290000e-001) (5, 1.74078624695539470000e-002) (6, -2.27260276675224300000e-001) (7, -4.95414361357688900000e-002) (8, -1.55790090560913090000e-001) (9, -4.95297126471996310000e-002) (10, -4.93458518758416180000e-003) (11, -4.13763783872127530000e-002) (12, 2.29472368955612180000e-001) (13, -5.07754199206829070000e-002) (14, -1.24048098921775820000e-001) (15, -1.09176449477672580000e-001) (16, 3.83452884852886200000e-002) (17, -7.41243138909339900000e-002) (18, -7.28213414549827580000e-003) (19, -1.04215815663337710000e-001) (20, -3.79499822854995730000e-001) (21, -4.46915507316589360000e-001) (22, -2.71672546863555910000e-001) (23, -3.54999154806137080000e-001) (24, -1.71039015054702760000e-001) (25, -1.29097774624824520000e-001) (26, -2.37020347267389300000e-002) (27, -8.61766859889030460000e-002) (28, 6.16891216486692430000e-003) (29, -1.18621714413166050000e-001) (30, -2.15835571289062500000e-001) (31, -3.73099982738494870000e-001) (32, 2.42044962942600250000e-002) (33, 1.18455789983272550000e-001) (34, 3.78646850585937500000e-002) (35, 4.37124865129590030000e-003) (36, 2.17539854347705840000e-002) (37, 4.97253388166427610000e-002) (38, -1.22068077325820920000e-001) (39, 2.16667242348194120000e-002) (40, -4.98718395829200740000e-002) (41, -1.11693531274795530000e-001) (42, 2.41085216403007510000e-002) (43, 4.57601100206375120000e-002) (44, -3.13307996839284900000e-003) (45, -3.07112094014883040000e-002) (46, -3.64313870668411250000e-002) (47, -4.20004017651081090000e-002) (48, -4.02627661824226380000e-002) (49, 2.61742807924747470000e-002) (50, -1.18442595005035400000e-001) (51, 1.31421606056392190000e-003) (52, 1.30482036620378490000e-002) (53, -2.58750692009925840000e-002) (54, -6.13289549946784970000e-002) (55, -2.68624931573867800000e-001) (56, -2.28525381535291670000e-002) (57, -8.06518495082855220000e-002) (58, -3.30944061279296880000e-002) (59, -1.10933683812618260000e-001) (60, -1.00109629333019260000e-001) (61, 2.02703941613435750000e-002) (62, 2.28350073099136350000e-001) (63, 1.95122122764587400000e-001) (64, 2.17125728726387020000e-001) (65, 4.42922301590442660000e-002) (66, 1.17145285010337830000e-001) (67, 8.72948952019214630000e-003) (68, -1.61160886287689210000e-001) (69, -6.71364486217498780000e-001) (70, -4.56921756267547610000e-001) (71, -3.08531731367111210000e-001) (72, -1.37561738491058350000e-001) (73, -9.18630510568618770000e-002) (74, -4.40374016761779790000e-002) (75, -1.17245987057685850000e-002) (76, -1.57160442322492600000e-002) (77, -4.77122850716114040000e-002) (78, -1.17048714309930800000e-002) (79, -3.36598604917526250000e-002) (80, -7.15184677392244340000e-003) (81, -1.20037849992513660000e-002) (82, -4.50628921389579770000e-002) (83, 2.73298881947994230000e-002) (84, -3.38930189609527590000e-002) (85, -1.27663984894752500000e-001) (86, -2.95097548514604570000e-002) (87, -1.05605386197566990000e-001) (88, -5.45736178755760190000e-002) (89, 2.42128930985927580000e-002) (90, -1.04239158332347870000e-001) (91, 2.25729271769523620000e-002) (92, 8.26396513730287550000e-003) (93, -8.55875760316848750000e-003) (94, -1.01206161081790920000e-001) (95, -4.11452442407608030000e-001) (96, -6.21041834354400630000e-001) (97, -6.42642259597778320000e-001) (98, -1.83399498462677000000e-001) (99, -8.36325436830520630000e-002) (0, 5.84733664989471440000e-001) (1, 5.91475903987884520000e-001) (2, 5.62159657478332520000e-001) (3, 6.36480987071990970000e-001) (4, 5.28496682643890380000e-001) (5, 8.49688708782196040000e-001) (6, 5.74870586395263670000e-001) (7, 7.02136695384979250000e-001) (8, 5.89637935161590580000e-001) (9, 6.64477169513702390000e-001) (10, 7.00872242450714110000e-001) (11, 6.34488165378570560000e-001) (12, 7.02605009078979490000e-001) (13, 6.49787843227386470000e-001) (14, 4.99533325433731080000e-001) (15, 4.49061244726181030000e-001) (16, 6.22589826583862300000e-001) (17, 3.77379012107849120000e+000) (18, 8.07504081726074220000e+000) (19, 1.90269165039062500000e+001) (20, 1.21097338199615480000e+000) (21, 5.05690574645996090000e-001) (22, 5.97889900207519530000e-001) (23, 5.17913401126861570000e-001) (24, 7.84619569778442380000e-001) (25, 6.74573838710784910000e-001) (26, 8.17842960357666020000e-001) (27, 1.49170994758605960000e+000) (28, 2.21693587303161620000e+000) (29, 1.54539251327514650000e+000) (30, 7.96283721923828130000e-001) (31, 7.94257879257202150000e-001) (32, 8.32960963249206540000e-001) (33, 7.29662656784057620000e-001) (34, 6.97250843048095700000e-001) (35, 5.78617334365844730000e-001) (36, 6.42997205257415770000e-001) (37, 6.75783038139343260000e-001) (38, 6.98461115360260010000e-001) (39, 8.10356199741363530000e-001) (40, 8.57838928699493410000e-001) (41, 6.21877908706665040000e-001) (42, 6.03245854377746580000e-001) (43, 5.33905565738677980000e-001) (44, 5.71996331214904790000e-001) (45, 6.01189434528350830000e-001) (46, 6.73147499561309810000e-001) (47, 7.90470421314239500000e-001) (48, 8.67075800895690920000e-001) (49, 8.34749698638916020000e-001) (50, 8.60764324665069580000e-001) (51, 7.87620723247528080000e-001) (52, 6.18611156940460210000e-001) (53, 4.50739890336990360000e-001) (54, 6.07372641563415530000e-001) (55, 5.97114086151123050000e-001) (56, 7.89493262767791750000e-001) (57, 7.13816225528717040000e-001) (58, 6.63696169853210450000e-001) (59, 5.47571897506713870000e-001) (60, 7.41130352020263670000e-001) (61, 8.65342676639556880000e-001) (62, 7.11606979370117190000e-001) (63, 8.88479650020599370000e-001) (64, 8.47276687622070310000e-001) (65, 7.10899651050567630000e-001) (66, 7.78948247432708740000e-001) (67, 7.75485873222351070000e-001) (68, 8.33474993705749510000e-001) (69, 4.44774448871612550000e-001) (70, 1.86541318893432620000e-001) (71, 6.67330384254455570000e-001) (72, 7.36240923404693600000e-001) (73, 7.36086428165435790000e-001) (74, 1.15591251850128170000e+000) (75, 6.59241616725921630000e-001) (76, 5.97532033920288090000e-001) (77, 7.08317935466766360000e-001) (78, 5.44629335403442380000e-001) (79, 8.05605030059814450000e+000) (80, 8.15448379516601560000e+000) (81, 3.75030922889709470000e+000) (82, 3.65574645996093750000e+000) (83, 6.32328128814697270000e+000) (84, 6.24042606353759770000e+000) (85, 3.52404046058654790000e+000) (86, 6.82646572589874270000e-001) (87, 3.96136671304702760000e-001) (88, 4.72395002841949460000e-001) (89, 4.72605556249618530000e-001) (90, 5.11111259460449220000e-001) (91, 4.29381191730499270000e-001) (92, 8.44472885131835940000e-001) (93, 7.68542289733886720000e-001) (94, 6.86424970626831050000e-001) (95, 6.37770473957061770000e-001) (96, 8.71604025363922120000e-001) (97, 9.92453634738922120000e-001) (98, 8.12870681285858150000e-001) (99, 7.13577806949615480000e-001) (0, -7.61870443820953370000e-002) (1, 1.19294375181198120000e-002) (2, -1.20168849825859070000e-001) (3, -3.43884043395519260000e-002) (4, 1.71487685292959210000e-003) (5, 1.50788977742195130000e-001) (6, -2.78726704418659210000e-002) (7, -7.20144137740135190000e-002) (8, -4.68701422214508060000e-002) (9, 1.67231503874063490000e-002) (10, 4.08954881131649020000e-002) (11, 2.25366186350584030000e-002) (12, -3.90000781044363980000e-003) (13, 6.50004344061017040000e-003) (14, -4.39475961029529570000e-002) (15, 5.85983395576477050000e-002) (16, 8.39587673544883730000e-002) (17, -1.02844284847378730000e-002) (18, -1.80887132883071900000e-002) (19, 4.54198792576789860000e-002) (20, 7.79803618788719180000e-002) (21, -9.97366160154342650000e-002) (22, -1.29111647605896000000e-001) (23, -1.49149019271135330000e-002) (24, -6.38134926557540890000e-002) (25, -2.67329867929220200000e-002) (26, 9.03666689991950990000e-002) (27, 6.24302402138710020000e-002) (28, 1.83921188116073610000e-001) (29, 1.30238234996795650000e-001) (30, 1.35318472981452940000e-001) (31, 1.09153211116790770000e-001) (32, 1.36772483587265010000e-001) (33, 5.89982569217681880000e-002) (34, 3.64018864929676060000e-002) (35, 2.58294455707073210000e-002) (36, -5.94733618199825290000e-002) (37, -4.22137044370174410000e-002) (38, 6.93545863032341000000e-002) (39, -3.80529090762138370000e-002) (40, 2.47166976332664490000e-002) (41, 1.21118575334548950000e-002) (42, 5.30014932155609130000e-002) (43, 2.84070987254381180000e-002) (44, -1.17740202695131300000e-002) (45, -5.16267083585262300000e-002) (46, -1.03112950921058650000e-001) (47, 6.34734705090522770000e-002) (48, -1.14450730383396150000e-001) (49, 5.77051155269145970000e-002) (50, 4.91914600133895870000e-002) (51, -4.51268851757049560000e-002) (52, 7.15853869915008540000e-002) (53, -4.46400186046957970000e-003) (54, -1.96107253432273860000e-002) (55, 5.22383302450180050000e-002) (56, -9.61409956216812130000e-002) (57, -9.50995758175849910000e-002) (58, 6.37871995568275450000e-002) (59, 2.51316502690315250000e-002) (60, -3.06497532874345780000e-002) (61, 9.83633287250995640000e-003) (62, 1.73532545566558840000e-001) (63, 6.53682574629783630000e-002) (64, 1.21871590614318850000e-001) (65, 1.72848358750343320000e-001) (66, 1.94149255752563480000e-001) (67, 1.25795438885688780000e-001) (68, -8.89043062925338750000e-002) (69, 5.29430843889713290000e-002) (70, -3.48209850490093230000e-002) (71, 3.96162979304790500000e-002) (72, -1.23259931802749630000e-001) (73, -1.04913540184497830000e-001) (74, -5.42647652328014370000e-002) (75, -5.47802969813346860000e-002) (76, 5.73715791106224060000e-002) (77, -4.41936515271663670000e-002) (78, 3.05049158632755280000e-002) (79, 7.07648396492004390000e-002) (80, -6.04248754680156710000e-002) (81, 1.08892820775508880000e-001) (82, 5.59376627206802370000e-002) (83, 5.71558997035026550000e-002) (84, 1.71934626996517180000e-002) (85, 1.30468904972076420000e-002) (86, -1.22555360198020940000e-001) (87, 4.24091098830103870000e-003) (88, -3.21428403258323670000e-002) (89, -5.62173910439014430000e-002) (90, 4.66554313898086550000e-002) (91, -7.67835080623626710000e-002) (92, -1.24076694250106810000e-001) (93, -7.81632512807846070000e-002) (94, -6.54500573873519900000e-002) (95, 4.40434552729129790000e-002) (96, 3.09490095824003220000e-002) (97, -1.53572455048561100000e-001) (98, -6.43312260508537290000e-002) (99, -5.53322099149227140000e-002) (0, -1.20815411210060120000e-001) (1, -4.19292114675045010000e-002) (2, 1.55005222186446190000e-002) (3, -4.73337739706039430000e-001) (4, -3.78777056932449340000e-001) (5, -3.76011520624160770000e-001) (6, -4.12568002939224240000e-002) (7, -3.65776903927326200000e-002) (8, -1.69955790042877200000e-001) (9, -9.68019142746925350000e-002) (10, -1.30475491285324100000e-001) (11, 1.01100146770477290000e-001) (12, 2.14048743247985840000e-001) (13, 1.51017695665359500000e-001) (14, 8.65786802023649220000e-004) (15, 4.34329286217689510000e-002) (16, 3.72248664498329160000e-002) (17, 7.41737246513366700000e-001) (18, 1.34003138542175290000e+000) (19, 7.74052343331277370000e-004) (20, -2.98233360052108760000e-001) (21, -5.24841964244842530000e-001) (22, -4.29961413145065310000e-001) (23, -3.71774226427078250000e-001) (24, -3.64078491926193240000e-001) (25, -2.17388510704040530000e-001) (26, 2.90707306703552600000e-004) (27, 1.35601949295960370000e-005) (28, -4.86319512128829960000e-003) (29, -3.98344993591308590000e-002) (30, -1.88102439045906070000e-001) (31, -1.50413528084754940000e-001) (32, -8.27678292989730830000e-003) (33, 1.88526451587677000000e-001) (34, 1.58279672265052800000e-001) (35, 8.86493623256683350000e-002) (36, -1.31626933813095090000e-001) (37, -2.03091166913509370000e-002) (38, -2.61818438768386840000e-001) (39, -2.69228011369705200000e-001) (40, -2.35702946782112120000e-001) (41, -1.36899530887603760000e-001) (42, -1.52887716889381410000e-001) (43, 6.82669728994369510000e-002) (44, -7.88954794406890870000e-002) (45, 4.19231038540601730000e-003) (46, -4.42731231451034550000e-002) (47, 3.06503605097532270000e-002) (48, -1.23096123337745670000e-001) (49, -1.22301384806633000000e-001) (50, -1.14256799221038820000e-001) (51, 5.17581701278686520000e-002) (52, -1.10114045441150670000e-001) (53, -4.40768189728260040000e-002) (54, -4.19130951166152950000e-001) (55, -5.31192235648632050000e-002) (56, 3.89918275177478790000e-002) (57, -7.06371814012527470000e-002) (58, -6.23962655663490300000e-002) (59, -1.62177965044975280000e-001) (60, 1.17937512695789340000e-002) (61, 5.10366074740886690000e-002) (62, 1.30672693252563480000e-001) (63, 1.00188642740249630000e-001) (64, 5.37862852215766910000e-002) (65, 9.07661616802215580000e-002) (66, 2.02935457229614260000e-001) (67, 7.76276141405105590000e-002) (68, -3.70996862649917600000e-001) (69, -3.85337114334106450000e-001) (70, -4.70252096652984620000e-001) (71, -3.92712593078613280000e-001) (72, -3.46137106418609620000e-001) (73, -1.51261746883392330000e-001) (74, 4.88012880086898800000e-002) (75, -5.27607798576354980000e-002) (76, -7.76038393378257750000e-002) (77, 3.72717902064323430000e-002) (78, -2.37592142075300220000e-002) (79, 3.80807630717754360000e-002) (80, 8.75729545950889590000e-002) (81, -1.50794740766286850000e-002) (82, 1.65214540902525190000e-003) (83, 1.37036368250846860000e-001) (84, -3.44930365681648250000e-002) (85, -1.20546258985996250000e-001) (86, 1.55435781925916670000e-003) (87, -4.50962223112583160000e-002) (88, -6.45673349499702450000e-002) (89, -1.12859964370727540000e-001) (90, -3.30705940723419190000e-002) (91, 5.98521456122398380000e-002) (92, 1.12044572830200200000e-001) (93, -1.36785730719566350000e-001) (94, -1.57737344503402710000e-001) (95, -1.30749046802520750000e-002) (96, -1.42963126301765440000e-001) (97, -1.17363795638084410000e-001) (98, 7.92458504438400270000e-002) (99, -2.60844770818948750000e-002) (0, 7.66332864761352540000e-001) (1, 6.66222989559173580000e-001) (2, 7.25892305374145510000e-001) (3, 7.83688187599182130000e-001) (4, 7.89100527763366700000e-001) (5, 9.13459122180938720000e-001) (6, 6.28608822822570800000e-001) (7, 6.81941211223602290000e-001) (8, 6.76997840404510500000e-001) (9, 7.12292373180389400000e-001) (10, 6.06381773948669430000e-001) (11, 7.51766085624694820000e-001) (12, 7.67385900020599370000e-001) (13, 7.68100142478942870000e-001) (14, 6.55472636222839360000e-001) (15, 6.45010471343994140000e-001) (16, 7.49989867210388180000e-001) (17, 3.77774167060852050000e+000) (18, 1.77175750732421880000e+001) (19, 3.97808303833007810000e+001) (20, 2.21756434440612790000e+000) (21, 7.28816032409667970000e-001) (22, 6.42794072628021240000e-001) (23, 7.22630023956298830000e-001) (24, 6.98756873607635500000e-001) (25, 5.29528498649597170000e-001) (26, 8.04538369178771970000e-001) (27, 7.57671892642974850000e-001) (28, 3.54216957092285160000e+000) (29, 1.35925424098968510000e+000) (30, 8.19365978240966800000e-001) (31, 8.66567254066467290000e-001) (32, 6.82125329971313480000e-001) (33, 7.59505689144134520000e-001) (34, 6.27560913562774660000e-001) (35, 7.99488306045532230000e-001) (36, 7.57602155208587650000e-001) (37, 1.07599437236785890000e+000) (38, 1.11397182941436770000e+000) (39, 7.92544841766357420000e-001) (40, 7.80196011066436770000e-001) (41, 5.51218986511230470000e-001) (42, 7.91104376316070560000e-001) (43, 7.14763522148132320000e-001) (44, 6.30430340766906740000e-001) (45, 7.16802477836608890000e-001) (46, 6.48914217948913570000e-001) (47, 5.89586138725280760000e-001) (48, 6.09269857406616210000e-001) (49, 7.73854434490203860000e-001) (50, 7.02200233936309810000e-001) (51, 7.29465901851654050000e-001) (52, 6.81684672832489010000e-001) (53, 7.87025690078735350000e-001) (54, 8.89294147491455080000e-001) (55, 6.56248092651367190000e-001) (56, 6.61988019943237300000e-001) (57, 6.93063676357269290000e-001) (58, 6.75608932971954350000e-001) (59, 6.83837234973907470000e-001) (60, 5.72897315025329590000e-001) (61, 7.72501885890960690000e-001) (62, 6.46759569644927980000e-001) (63, 7.56341576576232910000e-001) (64, 7.94875979423522950000e-001) (65, 6.66920542716979980000e-001) (66, 7.84512162208557130000e-001) (67, 9.58085000514984130000e-001) (68, 5.30115089416503910000e+001) (69, 2.27315473556518550000e+000) (70, 6.57927274703979490000e-001) (71, 9.47409749031066890000e-001) (72, 8.30708920955657960000e-001) (73, 7.50898420810699460000e-001) (74, 8.04556012153625490000e-001) (75, 6.45848155021667480000e-001) (76, 7.53130018711090090000e-001) (77, 8.06184113025665280000e-001) (78, 9.64580237865448000000e-001) (79, 1.44879019260406490000e+000) (80, 2.19554615020751950000e+000) (81, 1.41429793834686280000e+000) (82, 1.22813701629638670000e+001) (83, 5.02732124328613280000e+001) (84, 5.28452377319335940000e+001) (85, 1.76713027954101560000e+001) (86, 2.35954165458679200000e+000) (87, 5.86119294166564940000e-001) (88, 6.44425392150878910000e-001) (89, 6.55962288379669190000e-001) (90, 5.68050742149353030000e-001) (91, 5.82291364669799800000e-001) (92, 8.06942820549011230000e-001) (93, 5.66192328929901120000e-001) (94, 5.68826019763946530000e-001) (95, 5.39974331855773930000e-001) (96, 4.46366161108016970000e-001) (97, 5.48601746559143070000e-001) (98, 7.06159174442291260000e-001) (99, 6.59325063228607180000e-001) (0, -4.54531349241733550000e-002) (1, 3.27712185680866240000e-002) (2, -7.46506005525588990000e-002) (3, -1.17113338783383370000e-002) (4, -1.52670219540596010000e-001) (5, -4.44039665162563320000e-002) (6, -5.22822290658950810000e-002) (7, 7.06597492098808290000e-002) (8, -6.35138973593711850000e-002) (9, -5.61356917023658750000e-002) (10, 6.21683970093727110000e-002) (11, -4.97360900044441220000e-002) (12, 2.01610494405031200000e-002) (13, 6.44297106191515920000e-004) (14, 5.80686442553997040000e-002) (15, 2.87215877324342730000e-002) (16, 4.07525449991226200000e-002) (17, -6.12635388970375060000e-002) (18, 1.90210029482841490000e-001) (19, -7.39734098315238950000e-002) (20, -3.98823879659175870000e-002) (21, -5.45711442828178410000e-002) (22, -1.74500569701194760000e-001) (23, -9.50167849659919740000e-002) (24, -8.21934491395950320000e-002) (25, -7.68276751041412350000e-002) (26, 4.12727855145931240000e-002) (27, -2.48012859374284740000e-002) (28, 3.61030874773859980000e-003) (29, 8.77185836434364320000e-002) (30, 1.02812208235263820000e-001) (31, 1.20503097772598270000e-001) (32, 3.98987941443920140000e-002) (33, 1.49319261312484740000e-001) (34, 6.45037144422531130000e-002) (35, 9.97665524482727050000e-002) (36, 1.67619809508323670000e-001) (37, 1.08886122703552250000e-001) (38, -7.45199397206306460000e-002) (39, -7.34068602323532100000e-002) (40, 3.46852988004684450000e-002) (41, 7.45918080210685730000e-002) (42, -4.37317043542861940000e-002) (43, 1.19487963616847990000e-001) (44, 1.44991859793663020000e-001) (45, 6.35755732655525210000e-002) (46, -5.72659894824028020000e-002) (47, -3.94003540277481080000e-002) (48, -3.32426168024539950000e-002) (49, 1.44833832979202270000e-001) (50, 1.00017189979553220000e-001) (51, 7.89127498865127560000e-002) (52, -5.46116530895233150000e-002) (53, -9.80921611189842220000e-002) (54, -1.21729616075754170000e-002) (55, 3.30128185451030730000e-002) (56, 1.89684275537729260000e-002) (57, -5.14117581769824030000e-003) (58, -9.50927957892417910000e-002) (59, 4.52849343419075010000e-002) (60, 3.40485423803329470000e-002) (61, 1.40185700729489330000e-002) (62, 7.28607550263404850000e-002) (63, 1.41298949718475340000e-001) (64, 5.81859052181243900000e-002) (65, 5.50957769155502320000e-002) (66, 1.56814023852348330000e-001) (67, 1.23186230659484860000e-001) (68, 7.80351867433637380000e-004) (69, -5.00160679221153260000e-002) (70, -6.67387768626213070000e-002) (71, -1.17720335721969600000e-001) (72, -1.64399445056915280000e-001) (73, -3.12248226255178450000e-002) (74, -2.14283131062984470000e-002) (75, -9.51474457979202270000e-002) (76, 8.17573890089988710000e-002) (77, 2.18636374920606610000e-002) (78, -4.08439263701438900000e-002) (79, 7.54383951425552370000e-002) (80, 1.31560593843460080000e-001) (81, 5.26602715253829960000e-002) (82, 6.79354295134544370000e-002) (83, 8.73868614435195920000e-002) (84, 8.92691761255264280000e-002) (85, -7.62268155813217160000e-002) (86, -1.75956096500158310000e-002) (87, -6.28788024187088010000e-002) (88, 1.01213557645678520000e-002) (89, -1.39805942773818970000e-001) (90, 1.18438251316547390000e-001) (91, 6.09185993671417240000e-002) (92, 6.83082193136215210000e-002) (93, 1.34684473276138310000e-001) (94, -6.33547976613044740000e-002) (95, -8.88753831386566160000e-002) (96, -5.09301871061325070000e-002) (97, -2.70667560398578640000e-002) (98, 7.22949160262942310000e-004) (99, 3.26582901179790500000e-002) (0, -2.98396255820989610000e-002) (1, -1.93726047873497010000e-002) (2, 7.09843030199408530000e-003) (3, 2.35190819948911670000e-002) (4, 1.06690861284732820000e-002) (5, 9.29475761950016020000e-003) (6, -9.37817096710205080000e-002) (7, -8.69339108467102050000e-002) (8, -7.75848850607872010000e-002) (9, -2.48466581106185910000e-002) (10, -7.81366974115371700000e-002) (11, 4.43395599722862240000e-002) (12, 1.24549027532339100000e-002) (13, 6.43319124355912210000e-003) (14, 8.17509815096855160000e-002) (15, -8.58866423368453980000e-002) (16, -9.99073032289743420000e-003) (17, -6.95845708250999450000e-002) (18, 1.14493228495121000000e-001) (19, -2.44504734873771670000e-002) (20, -1.44600436091423030000e-001) (21, -1.16605311632156370000e-001) (22, -1.07812240719795230000e-001) (23, -5.76145872473716740000e-002) (24, -2.43387743830680850000e-002) (25, -2.40945249795913700000e-001) (26, 9.85836833715438840000e-002) (27, -5.52407689392566680000e-002) (28, 2.75897756218910220000e-002) (29, -1.67464166879653930000e-002) (30, -1.86834000051021580000e-002) (31, -5.91919183731079100000e-001) (32, -3.85502018034458160000e-002) (33, 2.03502193093299870000e-001) (34, 9.98895466327667240000e-002) (35, -3.19635681807994840000e-002) (36, -5.44372759759426120000e-002) (37, -7.20075815916061400000e-002) (38, 8.87378081679344180000e-002) (39, -8.07411819696426390000e-002) (40, 9.64600406587123870000e-003) (41, 2.02778913080692290000e-002) (42, -5.42601831257343290000e-002) (43, -5.71334920823574070000e-002) (44, -9.04427692294120790000e-002) (45, 7.35239163041114810000e-002) (46, 2.68988199532032010000e-002) (47, 1.64934992790222170000e-002) (48, -1.69461295008659360000e-002) (49, 3.15456502139568330000e-002) (50, -8.85180830955505370000e-002) (51, -9.53134074807167050000e-002) (52, -1.34599208831787110000e-001) (53, -2.02550496906042100000e-002) (54, -4.61869575083255770000e-002) (55, -1.03339113295078280000e-001) (56, -9.40572917461395260000e-002) (57, -2.74522718973457810000e-003) (58, -2.03414574265480040000e-001) (59, -1.79779641330242160000e-002) (60, -2.16322578489780430000e-002) (61, 3.74279394745826720000e-002) (62, 4.04804088175296780000e-002) (63, 5.12926355004310610000e-002) (64, 1.93104073405265810000e-001) (65, 5.30212819576263430000e-002) (66, 1.40083193778991700000e-001) (67, 1.75622075796127320000e-001) (68, -3.38898688554763790000e-001) (69, -6.54942214488983150000e-001) (70, -8.58319818973541260000e-001) (71, -4.45692539215087890000e-001) (72, -1.44082441926002500000e-001) (73, -7.73778259754180910000e-002) (74, 8.72680395841598510000e-002) (75, -1.14274382591247560000e-001) (76, -5.67190274596214290000e-002) (77, -4.88454811275005340000e-002) (78, -1.40514031052589420000e-001) (79, -1.54116556048393250000e-001) (80, -4.48460169136524200000e-002) (81, -1.00514022633433340000e-002) (82, -1.18233874440193180000e-001) (83, -9.40188318490982060000e-002) (84, 4.42820526659488680000e-002) (85, -1.40238508582115170000e-001) (86, -1.34069502353668210000e-001) (87, 1.32809691131114960000e-002) (88, 1.41580244526267050000e-002) (89, -3.81806828081607820000e-002) (90, -2.79354006052017210000e-002) (91, -7.83858820796012880000e-002) (92, -1.54919594526290890000e-001) (93, -5.41447959840297700000e-002) (94, -2.02123656868934630000e-001) (95, -1.42087638378143310000e-001) (96, -3.43984544277191160000e-001) (97, -2.29745328426361080000e-001) (98, -2.55266100168228150000e-001) (99, -3.92348170280456540000e-001) (0, -6.81782141327857970000e-002) (1, -1.23891443014144900000e-001) (2, 1.77321210503578190000e-002) (3, -1.23642876744270320000e-001) (4, 6.24589323997497560000e-002) (5, 4.91206869482994080000e-002) (6, -8.45595598220825200000e-002) (7, 6.08568973839282990000e-002) (8, -1.13114081323146820000e-001) (9, -7.01454877853393550000e-002) (10, -5.55316619575023650000e-002) (11, 2.01390057802200320000e-001) (12, 9.27960947155952450000e-002) (13, 2.04216197133064270000e-001) (14, 1.26368582248687740000e-001) (15, -1.33088352158665660000e-002) (16, -5.17034204676747320000e-003) (17, 3.47659513354301450000e-002) (18, 2.90360361337661740000e-001) (19, -2.54675839096307750000e-002) (20, -4.86989915370941160000e-002) (21, -4.33707013726234440000e-002) (22, -1.36062026023864750000e-001) (23, -1.23411618173122410000e-001) (24, -2.21181400120258330000e-002) (25, -9.43798646330833440000e-002) (26, 1.91943179816007610000e-002) (27, 1.36567994952201840000e-001) (28, 1.42259165644645690000e-001) (29, 1.37827217578887940000e-001) (30, 2.41905629634857180000e-001) (31, 9.27803367376327510000e-002) (32, 1.75875917077064510000e-001) (33, 1.17857068777084350000e-001) (34, 8.86170119047164920000e-002) (35, 2.73838609457015990000e-001) (36, -2.50358209013938900000e-002) (37, -2.47524064034223560000e-002) (38, -2.48130783438682560000e-002) (39, -6.51799887418746950000e-002) (40, 1.90956145524978640000e-002) (41, 1.76021046936511990000e-002) (42, 2.47887754812836650000e-003) (43, -1.46061535924673080000e-002) (44, -6.23478963971138000000e-002) (45, -2.92157772928476330000e-002) (46, -2.98675056546926500000e-002) (47, -6.69723302125930790000e-002) (48, 6.18906058371067050000e-002) (49, 1.64612412452697750000e-001) (50, -2.87357196211814880000e-002) (51, -1.01252168416976930000e-001) (52, 3.81814576685428620000e-002) (53, -4.54456992447376250000e-002) (54, 2.58026681840419770000e-002) (55, 9.72044281661510470000e-003) (56, -1.04019390419125560000e-002) (57, -5.48973539844155310000e-003) (58, -1.44330739974975590000e-001) (59, -6.37294258922338490000e-003) (60, -9.84430536627769470000e-002) (61, 1.30776450037956240000e-001) (62, 2.09825024008750920000e-001) (63, 1.77085980772972110000e-001) (64, 2.47257575392723080000e-001) (65, 2.40489229559898380000e-001) (66, 1.34136855602264400000e-001) (67, 1.23371340334415440000e-001) (68, 2.99477018415927890000e-002) (69, -2.12660580873489380000e-001) (70, -7.44261294603347780000e-002) (71, -1.70361325144767760000e-001) (72, -7.52805396914482120000e-002) (73, -1.06027960777282710000e-001) (74, 2.07553595304489140000e-001) (75, -3.57788726687431340000e-002) (76, 3.70801500976085660000e-002) (77, 1.88549906015396120000e-002) (78, -3.64372995682060720000e-003) (79, -8.17000269889831540000e-002) (80, 8.22589248418807980000e-002) (81, 2.48671501874923710000e-001) (82, 1.71875447034835820000e-001) (83, -9.33483690023422240000e-002) (84, -6.12380504608154300000e-002) (85, -1.07909366488456730000e-002) (86, 4.56035919487476350000e-002) (87, -7.53752961754798890000e-002) (88, -3.64755801856517790000e-002) (89, 6.75299111753702160000e-003) (90, 1.13367848098278050000e-003) (91, -6.33856561034917830000e-003) (92, 5.68492785096168520000e-002) (93, -2.83134672790765760000e-002) (94, -1.04827418923377990000e-001) (95, -5.22718317806720730000e-002) (96, -2.41849803924560550000e+000) (97, -4.60646420717239380000e-001) (98, -3.31856049597263340000e-002) (99, -4.25961725413799290000e-002) (0, 6.19265772402286530000e-002) (1, -4.94454503059387210000e-002) (2, -9.69772320240736010000e-003) (3, -6.27787709236145020000e-002) (4, 3.68557311594486240000e-002) (5, -2.57530342787504200000e-002) (6, -6.90951421856880190000e-002) (7, 1.16781711578369140000e-001) (8, 3.15940030850470070000e-003) (9, 8.95307213068008420000e-002) (10, -5.32866222783923150000e-003) (11, 2.04855993390083310000e-001) (12, 2.20864385366439820000e-001) (13, 2.29439824819564820000e-001) (14, 1.46597251296043400000e-001) (15, 1.35097712278366090000e-001) (16, -1.58370193094015120000e-002) (17, 9.73949134349823000000e-001) (18, 2.15262985229492190000e+000) (19, 1.82054921984672550000e-001) (20, 5.41090816259384160000e-002) (21, 1.16551881656050680000e-002) (22, -1.45396456122398380000e-001) (23, -3.37751097977161410000e-002) (24, 5.81333376467227940000e-002) (25, 8.69188923388719560000e-003) (26, 3.17171841859817500000e-001) (27, 3.82593691349029540000e-001) (28, 5.83015441894531250000e-001) (29, 3.99801075458526610000e-001) (30, 3.79210889339447020000e-001) (31, 2.79502928256988530000e-001) (32, 3.71201962232589720000e-001) (33, 3.14356148242950440000e-001) (34, 2.28982865810394290000e-001) (35, 2.26173415780067440000e-001) (36, -1.51050696149468420000e-002) (37, -2.12169475853443150000e-002) (38, 7.31461122632026670000e-002) (39, -4.78102937340736390000e-002) (40, 2.48434841632843020000e-002) (41, 6.02633468806743620000e-002) (42, 2.18470171093940730000e-002) (43, 1.45781273022294040000e-002) (44, 1.09758630394935610000e-001) (45, 1.23058177530765530000e-001) (46, 7.29578286409378050000e-002) (47, -7.51455686986446380000e-003) (48, 9.76766869425773620000e-002) (49, 2.68707424402236940000e-001) (50, 1.90433770418167110000e-001) (51, 2.49524816870689390000e-001) (52, -3.73821891844272610000e-002) (53, -5.70739917457103730000e-002) (54, -4.07162867486476900000e-002) (55, 6.40214234590530400000e-002) (56, 1.15878477692604060000e-001) (57, 7.77797698974609380000e-002) (58, -5.51579101011157040000e-003) (59, 8.79520475864410400000e-002) (60, 2.87753403186798100000e-001) (61, 2.13366791605949400000e-001) (62, 1.95623874664306640000e-001) (63, 3.84937584400177000000e-001) (64, 3.03193002939224240000e-001) (65, 4.18439358472824100000e-001) (66, 3.55477809906005860000e-001) (67, 1.58876925706863400000e-001) (68, 2.55506411194801330000e-002) (69, -1.11990064382553100000e-001) (70, -1.06164477765560150000e-001) (71, -3.29111865721642970000e-003) (72, 4.20126169919967650000e-002) (73, -3.74999977648258210000e-002) (74, 2.41092428565025330000e-001) (75, 4.47713360190391540000e-002) (76, 1.17012083530426030000e-001) (77, -2.21730530029162760000e-004) (78, -5.51656223833560940000e-002) (79, -2.35560480505228040000e-002) (80, 3.17285656929016110000e-001) (81, 2.40885928273200990000e-001) (82, 2.92217880487442020000e-001) (83, 3.05566918104887010000e-002) (84, 3.19385021924972530000e-001) (85, 6.60996884107589720000e-002) (86, -1.78702902048826220000e-002) (87, 9.80274602770805360000e-002) (88, 2.52165831625461580000e-002) (89, -1.62746477872133260000e-002) (90, 6.73605948686599730000e-002) (91, 2.68471956253051760000e-001) (92, 2.37435877323150630000e-001) (93, -3.84205160662531850000e-003) (94, 9.11734104156494140000e-002) (95, 2.30797510594129560000e-002) (96, 1.58241853117942810000e-001) (97, 3.06100249290466310000e-002) (98, 1.04270897805690770000e-001) (99, 2.32145655900239940000e-004) (0, 4.47773814201354980000e-001) (1, 4.71089959144592290000e-001) (2, 4.43705081939697270000e-001) (3, 7.24888503551483150000e-001) (4, 1.51330903172492980000e-001) (5, 7.86993741989135740000e-001) (6, 5.20531356334686280000e-001) (7, 4.31313276290893550000e-001) (8, 4.45492893457412720000e-001) (9, 4.80833202600479130000e-001) (10, 4.52092587947845460000e-001) (11, 6.62551045417785640000e-001) (12, 6.75516426563262940000e-001) (13, 3.07389646768569950000e-001) (14, 2.83837825059890750000e-001) (15, 3.79398316144943240000e-001) (16, 2.83724486827850340000e-001) (17, -3.04236030578613280000e+001) (18, -3.03653831481933590000e+001) (19, -7.34555130004882810000e+001) (20, -3.45219909667968750000e+002) (21, -1.76282835006713870000e+000) (22, 1.71788886189460750000e-001) (23, 1.34221330285072330000e-001) (24, 3.37709456682205200000e-001) (25, 5.15510201454162600000e-001) (26, 5.85407197475433350000e-001) (27, 6.45643115043640140000e-001) (28, 7.71677732467651370000e-001) (29, 8.37037324905395510000e-001) (30, 6.07570171356201170000e-001) (31, 6.81034326553344730000e-001) (32, 6.95180714130401610000e-001) (33, 5.17771482467651370000e-001) (34, 5.98863959312438960000e-001) (35, 7.69966304302215580000e-001) (36, 1.25138843059539790000e+000) (37, 1.36852121353149410000e+000) (38, 2.13210439682006840000e+000) (39, 5.64579367637634280000e-001) (40, 4.20677587389945980000e-002) (41, 2.17250064015388490000e-001) (42, 3.14316749572753910000e-001) (43, 2.28932574391365050000e-001) (44, 3.25819849967956540000e-001) (45, 6.06503665447235110000e-001) (46, 5.79109430313110350000e-001) (47, 5.07393240928649900000e-001) (48, 5.26846647262573240000e-001) (49, 4.65011805295944210000e-001) (50, 6.76307320594787600000e-001) (51, 6.43343091011047360000e-001) (52, 4.74372446537017820000e-001) (53, 4.90413725376129150000e-001) (54, 8.48878204822540280000e-001) (55, 5.15470862388610840000e-001) (56, 6.50324225425720210000e-001) (57, 5.76165139675140380000e-001) (58, 5.10831654071807860000e-001) (59, 9.51460376381874080000e-002) (60, 3.23649346828460690000e-001) (61, 5.33406615257263180000e-001) (62, 5.40802299976348880000e-001) (63, 5.70345759391784670000e-001) (64, 5.43948650360107420000e-001) (65, 6.72300279140472410000e-001) (66, 5.43984770774841310000e-001) (67, 7.72881269454956050000e-001) (68, 3.14727600097656250000e+002) (69, 2.35073108673095700000e+001) (70, 5.63417673110961910000e-001) (71, -6.46524429321289060000e+000) (72, -8.17998218536376950000e+000) (73, -4.05815982818603520000e+000) (74, -1.76609408855438230000e+000) (75, -3.99736464023590090000e-001) (76, -1.41055488586425780000e+000) (77, -1.46468091011047360000e+000) (78, -4.09285545349121090000e+000) (79, -2.64427318572998050000e+001) (80, -2.64445858001708980000e+001) (81, 4.80953425168991090000e-001) (82, 6.82137393951416020000e+000) (83, 1.07748928070068360000e+001) (84, 2.67933845520019530000e+001) (85, 3.80901222229003910000e+001) (86, 2.05037546157836910000e+000) (87, 4.49488401412963870000e-001) (88, 3.61436873674392700000e-001) (89, 2.31569260358810420000e-001) (90, 5.87152421474456790000e-001) (91, 5.77447593212127690000e-001) (92, 7.08660364151000980000e-001) (93, 5.44121563434600830000e-001) (94, 4.66450721025466920000e-001) (95, 5.46112596988677980000e-001) (96, 3.55434045195579530000e-002) (97, -4.44564670324325560000e-002) (98, 6.57475590705871580000e-001) (99, 4.32737499475479130000e-001) (0, 6.31168901920318600000e-001) (1, 6.96081578731536870000e-001) (2, 5.18782198429107670000e-001) (3, 8.00139367580413820000e-001) (4, 5.81055641174316410000e-001) (5, 8.58668625354766850000e-001) (6, 6.70427858829498290000e-001) (7, 5.52124559879302980000e-001) (8, 5.31916737556457520000e-001) (9, 4.96975392103195190000e-001) (10, 3.66504222154617310000e-001) (11, 4.87066894769668580000e-001) (12, 6.34967029094696040000e-001) (13, 6.98841333389282230000e-001) (14, 5.07245421409606930000e-001) (15, 5.11720955371856690000e-001) (16, 6.17059111595153810000e-001) (17, 2.72554397583007810000e+000) (18, 2.96692943572998050000e+001) (19, 5.45864248275756840000e+000) (20, 1.05799472332000730000e+000) (21, 4.58617091178894040000e-001) (22, 4.47574943304061890000e-001) (23, 7.04861760139465330000e-001) (24, 6.69620633125305180000e-001) (25, 5.01435697078704830000e-001) (26, 7.45426118373870850000e-001) (27, 8.27662408351898190000e-001) (28, 1.70451557636260990000e+000) (29, 1.29953658580780030000e+000) (30, 8.00344049930572510000e-001) (31, 8.10897886753082280000e-001) (32, 6.51607632637023930000e-001) (33, 6.26578867435455320000e-001) (34, 7.11490929126739500000e-001) (35, 7.13469266891479490000e-001) (36, 7.07695364952087400000e-001) (37, 7.33584880828857420000e-001) (38, 7.93543934822082520000e-001) (39, 7.91545271873474120000e-001) (40, 7.40960240364074710000e-001) (41, 5.74054539203643800000e-001) (42, 6.74426674842834470000e-001) (43, 5.76051533222198490000e-001) (44, 6.52398824691772460000e-001) (45, 7.31862962245941160000e-001) (46, 4.03699696063995360000e-001) (47, 2.59764969348907470000e-001) (48, 4.49239760637283330000e-001) (49, 5.64845621585845950000e-001) (50, 5.37360072135925290000e-001) (51, 6.82386279106140140000e-001) (52, 6.42767429351806640000e-001) (53, 5.86802184581756590000e-001) (54, 5.55146217346191410000e-001) (55, 4.83295023441314700000e-001) (56, 6.50952935218811040000e-001) (57, 5.59541463851928710000e-001) (58, 5.80924808979034420000e-001) (59, 5.65958976745605470000e-001) (60, 3.90478551387786870000e-001) (61, 5.69179356098175050000e-001) (62, 7.99237072467803960000e-001) (63, 6.89938068389892580000e-001) (64, 7.95011043548583980000e-001) (65, 6.84518575668334960000e-001) (66, 8.69924247264862060000e-001) (67, 6.94265425205230710000e-001) (68, 4.75927925109863280000e+000) (69, 7.16069400310516360000e-001) (70, 5.30100643634796140000e-001) (71, 6.99522018432617190000e-001) (72, 6.93243503570556640000e-001) (73, 6.19250416755676270000e-001) (74, 6.23695075511932370000e-001) (75, 5.79441308975219730000e-001) (76, 6.05796694755554200000e-001) (77, 6.11033499240875240000e-001) (78, 5.47912061214447020000e-001) (79, 8.89900028705596920000e-001) (80, 1.30146074295043950000e+001) (81, 1.50432407855987550000e+000) (82, 7.84416770935058590000e+000) (83, 6.63672866821289060000e+001) (84, 6.63354873657226560000e+001) (85, 7.64473819732666020000e+000) (86, 6.86509370803833010000e-001) (87, 5.45963764190673830000e-001) (88, 4.20423299074172970000e-001) (89, 3.77101331949234010000e-001) (90, 5.16689062118530270000e-001) (91, 5.05969762802124020000e-001) (92, 5.55738508701324460000e-001) (93, 7.20903754234313960000e-001) (94, 5.34040331840515140000e-001) (95, 5.75794041156768800000e-001) (96, 6.02115571498870850000e-001) (97, 6.22564017772674560000e-001) (98, 6.48212254047393800000e-001) (99, 5.23214340209960940000e-001) (0, 1.56711354851722720000e-001) (1, 7.12929964065551760000e-002) (2, 1.90795972943305970000e-001) (3, 2.49794647097587590000e-001) (4, 3.63088458776474000000e-001) (5, 3.20338875055313110000e-001) (6, 8.16269069910049440000e-002) (7, 6.60633072257041930000e-002) (8, 6.25019669532775880000e-002) (9, 2.27673828601837160000e-001) (10, -6.57365620136260990000e-002) (11, -1.57532274723052980000e-001) (12, -8.66611897945404050000e-002) (13, -2.34448492527008060000e-001) (14, 3.02376803010702130000e-002) (15, 1.76744558848440650000e-003) (16, 2.19263299368321900000e-003) (17, -4.73360307514667510000e-002) (18, -2.80859917402267460000e-001) (19, -1.75309807062149050000e-001) (20, 4.92575228214263920000e-001) (21, 5.26227951049804690000e-001) (22, 7.73378193378448490000e-001) (23, 6.79228246212005620000e-001) (24, 2.37365588545799260000e-001) (25, 4.02095079421997070000e-001) (26, 8.71681421995162960000e-002) (27, 9.80550423264503480000e-002) (28, 7.98841342329978940000e-002) (29, -1.22277006506919860000e-001) (30, 1.51859462261199950000e-001) (31, 6.06419816613197330000e-002) (32, 8.57823789119720460000e-002) (33, -1.98709312826395030000e-002) (34, 8.65802243351936340000e-002) (35, 5.18111363053321840000e-002) (36, 1.86544582247734070000e-001) (37, 5.34737966954708100000e-002) (38, 2.60233163833618160000e-001) (39, 2.20346808433532710000e-001) (40, 1.94349095225334170000e-001) (41, -7.08395009860396390000e-003) (42, 1.24184340238571170000e-001) (43, 1.79279707372188570000e-002) (44, -7.74372145533561710000e-002) (45, 4.16630133986473080000e-002) (46, 6.51062875986099240000e-002) (47, -7.94286653399467470000e-003) (48, -3.95323671400547030000e-002) (49, 5.23560643196105960000e-002) (50, -6.56184777617454530000e-002) (51, 2.52688154578208920000e-002) (52, 2.01068684458732600000e-001) (53, -3.30589339137077330000e-002) (54, 3.32677125930786130000e-001) (55, 3.06283086538314820000e-001) (56, -1.71237021684646610000e-001) (57, -7.38174840807914730000e-002) (58, 2.19080552458763120000e-001) (59, 2.44320765137672420000e-001) (60, -2.04501319676637650000e-002) (61, -2.55649238824844360000e-002) (62, -4.95908595621585850000e-002) (63, -3.61872687935829160000e-002) (64, 3.09576708823442460000e-002) (65, -7.06464797258377080000e-002) (66, -1.23357780277729030000e-001) (67, 3.14093939960002900000e-002) (68, 3.69392424821853640000e-001) (69, 6.53694093227386470000e-001) (70, 7.88065612316131590000e-001) (71, 5.35924017429351810000e-001) (72, 1.53675451874732970000e-001) (73, 5.40748089551925660000e-002) (74, -1.56281411647796630000e-001) (75, 4.66830320656299590000e-002) (76, 1.66530221700668330000e-001) (77, -2.98920813947916030000e-002) (78, 1.02780066430568700000e-001) (79, 5.12949489057064060000e-002) (80, 1.88028477132320400000e-002) (81, -6.75317049026489260000e-002) (82, 7.35459998250007630000e-002) (83, 2.47617415152490140000e-003) (84, 1.35207665152847770000e-004) (85, 1.93908795714378360000e-001) (86, 4.58776876330375670000e-002) (87, 1.01360440254211430000e-001) (88, 1.80323541164398190000e-001) (89, 2.09304839372634890000e-001) (90, 2.01566368341445920000e-002) (91, 6.37815445661544800000e-002) (92, -1.86124950647354130000e-001) (93, 1.10164053738117220000e-001) (94, 3.85827332735061650000e-001) (95, 2.98053741455078130000e-001) (96, 6.13777711987495420000e-002) (97, -6.71899272128939630000e-003) (98, -1.42719566822052000000e-001) (99, 2.87012785673141480000e-001) (0, 3.32534015178680420000e-001) (1, 1.98158249258995060000e-001) (2, 2.86800324916839600000e-001) (3, 6.75081908702850340000e-001) (4, 3.77425342798233030000e-001) (5, 3.19730848073959350000e-001) (6, 2.11138561367988590000e-001) (7, 2.02383115887641910000e-001) (8, 2.17487260699272160000e-001) (9, 2.39408984780311580000e-001) (10, 9.96881723403930660000e-002) (11, 1.24388530850410460000e-001) (12, -1.22516555711627010000e-002) (13, 5.71905225515365600000e-002) (14, 7.51589387655258180000e-002) (15, 9.60808843374252320000e-002) (16, 9.74529385566711430000e-002) (17, -2.68955647945404050000e-001) (18, -1.69675886631011960000e-001) (19, -1.75582602620124820000e-001) (20, 5.61657488346099850000e-001) (21, 6.54419481754302980000e-001) (22, 6.65386021137237550000e-001) (23, 4.68130111694335940000e-001) (24, 5.80687940120697020000e-001) (25, 2.65278249979019170000e-001) (26, 2.96343844383955000000e-002) (27, -6.78069218993186950000e-002) (28, 9.97591298073530200000e-003) (29, -7.15633034706115720000e-002) (30, -1.12558407709002490000e-002) (31, 6.12064339220523830000e-002) (32, 1.14648789167404170000e-001) (33, 1.48917734622955320000e-002) (34, 4.99696806073188780000e-002) (35, 2.91290879249572750000e-002) (36, -2.25609689950942990000e-002) (37, 2.43523925542831420000e-001) (38, 3.29463839530944820000e-001) (39, 3.30648750066757200000e-001) (40, 3.39595228433609010000e-001) (41, 1.61590009927749630000e-001) (42, 1.83426558971405030000e-001) (43, 3.02554331719875340000e-002) (44, 1.41845243051648140000e-002) (45, 1.61332786083221440000e-001) (46, 1.74281418323516850000e-001) (47, 1.95586234331130980000e-001) (48, -9.26755554974079130000e-003) (49, 1.13970674574375150000e-002) (50, 8.52105543017387390000e-002) (51, -6.41728052869439130000e-003) (52, 2.17715322971343990000e-001) (53, 2.36659333109855650000e-001) (54, 4.64081466197967530000e-001) (55, 2.48142421245574950000e-001) (56, 8.80241915583610530000e-002) (57, 1.04379735887050630000e-001) (58, 1.12812675535678860000e-001) (59, 1.31816864013671880000e-001) (60, -3.06364074349403380000e-002) (61, -9.38543956726789470000e-003) (62, 4.67299260199069980000e-002) (63, -3.62246073782444000000e-002) (64, 7.76682570576667790000e-002) (65, -3.16475424915552140000e-003) (66, -9.11008715629577640000e-002) (67, -7.34266117215156560000e-002) (68, 2.22066611051559450000e-001) (69, 7.32632279396057130000e-001) (70, 6.18741333484649660000e-001) (71, 5.51238238811492920000e-001) (72, 5.61937153339385990000e-001) (73, 8.47766324877738950000e-002) (74, -1.10505066812038420000e-001) (75, -3.66163179278373720000e-002) (76, 1.05971589684486390000e-001) (77, 2.60874070227146150000e-002) (78, 7.98410996794700620000e-002) (79, 5.12910224497318270000e-002) (80, -2.50235721468925480000e-002) (81, -1.13774478435516360000e-001) (82, -3.20449285209178920000e-002) (83, -1.30894660949707030000e-001) (84, -2.84004360437393190000e-001) (85, 1.11657328903675080000e-001) (86, 2.60527819395065310000e-001) (87, 2.30895072221755980000e-001) (88, 3.06513369083404540000e-001) (89, 2.98205792903900150000e-001) (90, 1.63490951061248780000e-001) (91, 1.54956281185150150000e-001) (92, 1.17727950215339660000e-001) (93, 2.97823250293731690000e-001) (94, 3.39695215225219730000e-001) (95, 1.48738637566566470000e-001) (96, 9.44903120398521420000e-002) (97, 8.84111672639846800000e-002) (98, 1.42277538776397710000e-001) (99, 3.42950165271759030000e-001) (0, -1.48270040750503540000e-001) (1, 9.53619554638862610000e-003) (2, -7.25211724638938900000e-002) (3, -3.37847232818603520000e-001) (4, -2.33787372708320620000e-001) (5, -2.24517852067947390000e-001) (6, -7.51381143927574160000e-002) (7, -2.61234138160943980000e-002) (8, -3.32735776901245120000e-002) (9, -5.52715994417667390000e-002) (10, -1.88379362225532530000e-002) (11, 9.89176779985427860000e-002) (12, 4.24183206632733350000e-003) (13, -3.18398028612136840000e-002) (14, 1.10798524692654610000e-002) (15, -1.05535335838794710000e-001) (16, 7.91006460785865780000e-002) (17, 3.86494159698486330000e-001) (18, 1.97435021400451660000e-001) (19, 1.90462153404951100000e-002) (20, -2.47043907642364500000e-001) (21, -2.36481696367263790000e-001) (22, -3.72893810272216800000e-001) (23, -2.58441150188446040000e-001) (24, -2.22484797239303590000e-001) (25, -1.58511310815811160000e-001) (26, -1.90035149455070500000e-001) (27, -7.24105089902877810000e-002) (28, -2.39123143255710600000e-002) (29, -5.65185770392417910000e-002) (30, -2.26924076676368710000e-001) (31, -3.83694350719451900000e-001) (32, 3.48053313791751860000e-002) (33, 5.41873611509799960000e-002) (34, 1.18931300938129430000e-001) (35, -3.15694808959960940000e-002) (36, -1.16746872663497920000e-003) (37, -1.54158979654312130000e-001) (38, -2.70497918128967290000e-001) (39, -3.17807585000991820000e-001) (40, -2.25115507841110230000e-001) (41, -9.26395505666732790000e-002) (42, -1.47724583745002750000e-001) (43, 6.31120651960372920000e-002) (44, 2.84119118005037310000e-002) (45, -8.23889896273612980000e-002) (46, -1.00397333502769470000e-001) (47, 4.96869049966335300000e-002) (48, -7.08285570144653320000e-002) (49, -2.63973586261272430000e-002) (50, -8.23124200105667110000e-002) (51, -7.12469965219497680000e-003) (52, -1.51942828670144080000e-002) (53, -1.21639102697372440000e-001) (54, -2.57129251956939700000e-001) (55, -1.76373105496168140000e-002) (56, 6.93147704005241390000e-002) (57, -8.61985385417938230000e-002) (58, -1.36613205075263980000e-001) (59, -1.37577921152114870000e-001) (60, 8.31542983651161190000e-002) (61, -4.68240231275558470000e-002) (62, 8.93679335713386540000e-002) (63, 4.73513007164001460000e-002) (64, 3.67157086730003360000e-002) (65, -1.27007737755775450000e-002) (66, 1.36382147669792180000e-001) (67, 1.11938729882240300000e-001) (68, -3.17768365144729610000e-001) (69, -3.25527757406234740000e-001) (70, -4.15882438421249390000e-001) (71, -3.41093719005584720000e-001) (72, -2.25429907441139220000e-001) (73, 2.05764845013618470000e-002) (74, -8.97591412067413330000e-002) (75, -9.21949446201324460000e-002) (76, 2.02989149838685990000e-002) (77, -4.00971854105591770000e-003) (78, -1.33192343637347220000e-002) (79, 5.23739354684948920000e-003) (80, -5.10039590299129490000e-002) (81, -4.35942709445953370000e-002) (82, -6.50590136647224430000e-002) (83, -3.48370010033249860000e-003) (84, -7.80001655220985410000e-002) (85, -1.21542431414127350000e-001) (86, -2.28409785777330400000e-002) (87, -3.76752838492393490000e-002) (88, -8.66248160600662230000e-002) (89, -1.84650719165802000000e-002) (90, 1.96588076651096340000e-002) (91, 7.92368873953819270000e-002) (92, 8.61227661371231080000e-002) (93, 9.41061526536941530000e-002) (94, -6.24489746987819670000e-002) (95, -2.93097887188196180000e-002) (96, 1.56654100865125660000e-002) (97, -5.27672022581100460000e-002) (98, -7.92014971375465390000e-002) (99, -8.76843743026256560000e-003) (0, -2.28498563170433040000e-001) (1, -1.60806834697723390000e-001) (2, -1.33171692490577700000e-001) (3, -3.41467320919036870000e-001) (4, -2.98970192670822140000e-001) (5, -2.92910605669021610000e-001) (6, -2.17988520860672000000e-001) (7, 1.68187960982322690000e-001) (8, -1.30603775382041930000e-001) (9, -1.67221367359161380000e-001) (10, -6.67357444763183590000e-002) (11, 1.81649312376976010000e-001) (12, 2.22321003675460820000e-001) (13, 2.26285368204116820000e-001) (14, 9.08326730132102970000e-002) (15, -4.57975529134273530000e-002) (16, -2.22405225038528440000e-001) (17, 1.26031124591827390000e+000) (18, 1.41988313198089600000e+000) (19, 9.81983840465545650000e-002) (20, -4.52355980873107910000e-001) (21, -5.21726191043853760000e-001) (22, -4.71451371908187870000e-001) (23, -4.49234217405319210000e-001) (24, -4.37235713005065920000e-001) (25, -2.36964985728263850000e-001) (26, -1.38318777084350590000e-001) (27, 1.69900357723236080000e-001) (28, 1.00088644027709960000e+000) (29, 3.28219443559646610000e-001) (30, -1.50455132126808170000e-001) (31, -2.63067483901977540000e-001) (32, 5.56735619902610780000e-002) (33, 3.01480412483215330000e-001) (34, 1.58236980438232420000e-001) (35, 7.30646848678588870000e-002) (36, -1.64303958415985110000e-001) (37, -1.40657693147659300000e-001) (38, -3.69196027517318730000e-001) (39, -3.14870059490203860000e-001) (40, -2.36531808972358700000e-001) (41, -1.97889611124992370000e-001) (42, -8.30464959144592290000e-002) (43, -7.91808366775512700000e-002) (44, -2.47297721216455100000e-005) (45, -2.37340971827507020000e-001) (46, -2.99945294857025150000e-001) (47, -1.70565873384475710000e-001) (48, -4.62220981717109680000e-002) (49, -1.72340884804725650000e-001) (50, -1.38237506151199340000e-001) (51, -1.02320462465286250000e-001) (52, -2.34810158610343930000e-001) (53, -1.88813969492912290000e-001) (54, -3.39622855186462400000e-001) (55, -1.65384605526924130000e-001) (56, 5.02903275191783910000e-002) (57, -1.59108489751815800000e-001) (58, -2.15287908911705020000e-001) (59, -1.70363038778305050000e-001) (60, -1.17816559970378880000e-001) (61, 2.84498110413551330000e-002) (62, 1.63986295461654660000e-001) (63, 1.62980407476425170000e-001) (64, 1.39043509960174560000e-001) (65, 1.03978909552097320000e-001) (66, 2.54928529262542720000e-001) (67, 2.42938190698623660000e-001) (68, -4.33173507452011110000e-001) (69, -5.41933476924896240000e-001) (70, -3.89932036399841310000e-001) (71, -4.36671882867813110000e-001) (72, -3.02231729030609130000e-001) (73, -1.98127880692481990000e-001) (74, 1.28415703773498540000e-001) (75, -7.41723850369453430000e-002) (76, -8.88330414891242980000e-002) (77, -9.27969813346862790000e-002) (78, -1.67939975857734680000e-001) (79, -1.31997779011726380000e-001) (80, 8.91311764717102050000e-002) (81, 1.38203471899032590000e-001) (82, 1.60146445035934450000e-001) (83, 2.40657534450292590000e-002) (84, 4.92343962192535400000e-001) (85, -1.49236083030700680000e-001) (86, -1.59203633666038510000e-001) (87, -9.03838947415351870000e-002) (88, -1.02246940135955810000e-001) (89, -9.11483541131019590000e-002) (90, -2.40722633898258210000e-002) (91, 5.87242171168327330000e-002) (92, 9.22466963529586790000e-002) (93, -1.44002258777618410000e-001) (94, -2.60094970464706420000e-001) (95, -2.55561053752899170000e-001) (96, 8.12880396842956540000e-002) (97, -1.17727749049663540000e-001) (98, -2.79342412948608400000e-001) (99, -2.53832042217254640000e-001) (0, 7.14830756187438960000e-001) (1, 5.32684922218322750000e-001) (2, 7.07906663417816160000e-001) (3, 7.87381827831268310000e-001) (4, 6.91376686096191410000e-001) (5, 7.96837210655212400000e-001) (6, 7.25920617580413820000e-001) (7, 7.30157077312469480000e-001) (8, 6.04035019874572750000e-001) (9, 6.55937612056732180000e-001) (10, 6.63678348064422610000e-001) (11, 6.59029841423034670000e-001) (12, 6.24031305313110350000e-001) (13, 6.76425695419311520000e-001) (14, 6.79287374019622800000e-001) (15, 5.39929270744323730000e-001) (16, 5.94874203205108640000e-001) (17, 1.86751670837402340000e+001) (18, 7.96367883682250980000e+000) (19, 4.29119834899902340000e+001) (20, 8.79823386669158940000e-001) (21, 8.17423760890960690000e-001) (22, 7.90830016136169430000e-001) (23, 8.33371579647064210000e-001) (24, 7.16110765933990480000e-001) (25, 3.80878388881683350000e-001) (26, 6.59797847270965580000e-001) (27, 6.44973397254943850000e-001) (28, 1.44406950473785400000e+000) (29, 8.72980594635009770000e-001) (30, 4.57417696714401250000e-001) (31, 5.47400653362274170000e-001) (32, 7.35574007034301760000e-001) (33, 7.00040757656097410000e-001) (34, 7.62006580829620360000e-001) (35, 7.14765131473541260000e-001) (36, 7.03545451164245610000e-001) (37, 7.96970367431640630000e-001) (38, 8.52639079093933110000e-001) (39, 7.63789236545562740000e-001) (40, 8.29688131809234620000e-001) (41, 6.78245186805725100000e-001) (42, 6.87521219253540040000e-001) (43, 6.72897219657897950000e-001) (44, 5.48998355865478520000e-001) (45, 5.64138412475585940000e-001) (46, 6.75362884998321530000e-001) (47, 6.92537903785705570000e-001) (48, 5.60125291347503660000e-001) (49, 7.37999796867370610000e-001) (50, 8.25397610664367680000e-001) (51, 8.03053796291351320000e-001) (52, 6.55252397060394290000e-001) (53, 5.20891010761260990000e-001) (54, 6.17496073246002200000e-001) (55, 6.44706428050994870000e-001) (56, 7.48690545558929440000e-001) (57, 7.00400829315185550000e-001) (58, 5.32889723777771000000e-001) (59, 4.26360577344894410000e-001) (60, 6.87864482402801510000e-001) (61, 7.70164787769317630000e-001) (62, 6.97974503040313720000e-001) (63, 7.11368978023529050000e-001) (64, 7.32762515544891360000e-001) (65, 7.01789379119873050000e-001) (66, 7.19681501388549800000e-001) (67, 6.86783850193023680000e-001) (68, 1.82821142673492430000e+000) (69, 5.78330576419830320000e-001) (70, 6.16850316524505620000e-001) (71, 6.65308594703674320000e-001) (72, 7.92412102222442630000e-001) (73, 5.77115058898925780000e-001) (74, 7.27772414684295650000e-001) (75, 6.21517360210418700000e-001) (76, 5.59141457080841060000e-001) (77, 6.61169946193695070000e-001) (78, 6.34481668472290040000e-001) (79, 2.05921316146850590000e+000) (80, 8.41750240325927730000e+000) (81, 3.97663235664367680000e+000) (82, 1.73959197998046880000e+001) (83, 4.30012474060058590000e+001) (84, 4.30540504455566410000e+001) (85, 1.19109535217285160000e+000) (86, 7.71132946014404300000e-001) (87, 6.06472790241241460000e-001) (88, 6.33714139461517330000e-001) (89, 5.98678827285766600000e-001) (90, 5.26606261730194090000e-001) (91, 5.43025135993957520000e-001) (92, 6.83656394481658940000e-001) (93, 5.25985240936279300000e-001) (94, 6.18663132190704350000e-001) (95, 4.98416841030120850000e-001) (96, 6.39134883880615230000e-001) (97, 7.71123588085174560000e-001) (98, 6.26225352287292480000e-001) (99, 6.94385290145874020000e-001) (0, 1.39412004500627520000e-002) (1, -9.37149077653884890000e-002) (2, -1.59956470131874080000e-001) (3, -7.55873322486877440000e-002) (4, 7.06514576449990270000e-003) (5, 3.15625555813312530000e-002) (6, -1.28935426473617550000e-001) (7, -1.76073551177978520000e-001) (8, -1.66636988520622250000e-001) (9, -1.13118186593055730000e-001) (10, -2.55529880523681640000e-002) (11, 5.75051680207252500000e-002) (12, 1.29279017448425290000e-001) (13, 6.05011731386184690000e-002) (14, 1.40561498701572420000e-002) (15, 1.13538168370723720000e-002) (16, 1.47806620225310330000e-003) (17, 1.11082956194877620000e-001) (18, 4.58394251763820650000e-002) (19, -1.17871575057506560000e-001) (20, 3.49966399371623990000e-002) (21, 1.31748942658305170000e-002) (22, 5.41198812425136570000e-002) (23, -8.73918980360031130000e-002) (24, -1.15630753338336940000e-001) (25, -9.13660302758216860000e-002) (26, 2.66113113611936570000e-002) (27, 1.25742241740226750000e-001) (28, 5.60722723603248600000e-002) (29, 6.85335993766784670000e-002) (30, -2.74370372295379640000e-001) (31, -3.40433269739151000000e-001) (32, -3.70501875877380370000e-002) (33, 6.25288486480712890000e-002) (34, 1.26228049397468570000e-001) (35, 5.09087592363357540000e-002) (36, -5.92823512852191930000e-002) (37, 2.08866111934185030000e-002) (38, -9.25317630171775820000e-002) (39, -6.15651868283748630000e-002) (40, 6.06333352625370030000e-002) (41, 2.25804783403873440000e-002) (42, -4.75302115082740780000e-002) (43, 8.61466117203235630000e-003) (44, -3.96801605820655820000e-002) (45, -4.39956746995449070000e-002) (46, -8.39018821716308590000e-002) (47, -7.66919031739234920000e-002) (48, 4.82595227658748630000e-002) (49, 2.10437662899494170000e-002) (50, -2.37076431512832640000e-002) (51, 6.10273219645023350000e-002) (52, -1.77060086280107500000e-002) (53, -6.40830695629119870000e-002) (54, -7.28652551770210270000e-002) (55, -1.96708694100379940000e-001) (56, 9.61732026189565660000e-003) (57, 7.05990567803382870000e-002) (58, -1.15264862775802610000e-001) (59, -7.64504522085189820000e-002) (60, -6.15618526935577390000e-002) (61, -7.51993954181671140000e-002) (62, 4.18720655143260960000e-002) (63, 4.65433895587921140000e-002) (64, 8.27266052365303040000e-002) (65, 1.64773255586624150000e-001) (66, 2.14201331138610840000e-001) (67, 1.36028021574020390000e-001) (68, -1.60545557737350460000e-002) (69, -1.03745184838771820000e-001) (70, 1.96463298052549360000e-002) (71, 4.35661431401968000000e-003) (72, -1.14563152194023130000e-001) (73, -1.49817997589707370000e-002) (74, 1.39355823397636410000e-001) (75, -3.91404591500759120000e-002) (76, -1.18045240640640260000e-001) (77, 4.38413396477699280000e-002) (78, -2.10484117269515990000e-002) (79, -5.32984845340251920000e-002) (80, 7.49649386852979660000e-003) (81, 1.93833842873573300000e-001) (82, 4.72813919186592100000e-002) (83, 8.58189985156059270000e-002) (84, -8.69288444519042970000e-002) (85, 4.67630364000797270000e-002) (86, -3.78350168466567990000e-002) (87, -3.35268564522266390000e-002) (88, -1.17856971919536590000e-001) (89, -4.57966476678848270000e-002) (90, -1.28414258360862730000e-001) (91, 5.08607886731624600000e-002) (92, 1.03075377643108370000e-001) (93, -2.02637270092964170000e-001) (94, -9.21220257878303530000e-002) (95, -1.19948327541351320000e-001) (96, -4.80070263147354130000e-002) (97, -1.65944565087556840000e-002) (98, 4.19885627925395970000e-002) (99, -1.93195179104804990000e-001) (0, 1.51801155880093570000e-002) (1, 1.80264219641685490000e-001) (2, 9.96173396706581120000e-002) (3, -3.57624799013137820000e-001) (4, -3.18230628967285160000e-001) (5, -2.50396937131881710000e-001) (6, 2.36380323767662050000e-001) (7, 6.32641434669494630000e-001) (8, 8.55257809162139890000e-002) (9, 1.45102038979530330000e-001) (10, 8.82691517472267150000e-002) (11, 5.23890674114227290000e-001) (12, 6.33013367652893070000e-001) (13, 7.09169149398803710000e-001) (14, 9.95034873485565190000e-002) (15, 2.49473556876182560000e-001) (16, 2.34494447708129880000e-001) (17, 8.91564846038818360000e+000) (18, 4.41036701202392580000e+000) (19, 4.63314235210418700000e-001) (20, -2.82575041055679320000e-001) (21, -4.72683042287826540000e-001) (22, -3.48325669765472410000e-001) (23, -4.44187015295028690000e-001) (24, -2.93581098318099980000e-001) (25, 1.31011039018630980000e-001) (26, 6.46537363529205320000e-001) (27, 7.13773667812347410000e-001) (28, 1.43455481529235840000e+000) (29, 1.24338352680206300000e+000) (30, 3.84525179862976070000e-001) (31, 4.28968429565429690000e-001) (32, 6.64090275764465330000e-001) (33, 6.59731864929199220000e-001) (34, 5.66517591476440430000e-001) (35, 7.76454135775566100000e-002) (36, 1.64659813046455380000e-001) (37, 1.50696747004985810000e-002) (38, -3.76472949981689450000e-001) (39, -2.77205318212509160000e-001) (40, -3.50226521492004390000e-001) (41, -1.54207963496446610000e-002) (42, -4.49163205921649930000e-002) (43, 1.29327148199081420000e-001) (44, 1.02809280157089230000e-001) (45, 9.48878824710845950000e-002) (46, 1.07756316661834720000e-001) (47, 5.36347508430480960000e-001) (48, 6.33360624313354490000e-001) (49, 7.15625703334808350000e-001) (50, 7.01570868492126460000e-001) (51, 5.52650749683380130000e-001) (52, 1.23532280325889590000e-001) (53, 3.96368056535720830000e-002) (54, -2.18590810894966130000e-001) (55, -1.02849736809730530000e-001) (56, 6.63899064064025880000e-001) (57, 6.04250431060791020000e-001) (58, 9.20978635549545290000e-002) (59, 1.06445543467998500000e-001) (60, 6.44075095653533940000e-001) (61, 5.45982897281646730000e-001) (62, 5.18969714641571040000e-001) (63, 5.46733081340789790000e-001) (64, 6.28139913082122800000e-001) (65, 6.56549632549285890000e-001) (66, 6.14649772644042970000e-001) (67, 6.07875525951385500000e-001) (68, -2.58733093738555910000e-001) (69, -4.76797819137573240000e-001) (70, -3.58847886323928830000e-001) (71, -2.74966835975646970000e-001) (72, -3.45157086849212650000e-001) (73, -6.71795383095741270000e-002) (74, 1.90377101302146910000e-001) (75, 2.42321342229843140000e-001) (76, -1.65807213634252550000e-002) (77, -2.66942549496889110000e-002) (78, -8.36631879210472110000e-002) (79, 2.63157755136489870000e-001) (80, 1.96487590670585630000e-001) (81, 2.43740856647491460000e-001) (82, 1.92195594310760500000e-001) (83, 5.46069145202636720000e-001) (84, 1.60555148124694820000e+000) (85, -3.50519977509975430000e-002) (86, -1.29014059901237490000e-001) (87, -1.10574446618556980000e-001) (88, -1.23590193688869480000e-001) (89, 2.23868638277053830000e-001) (90, 7.11855441331863400000e-002) (91, 1.82358801364898680000e-001) (92, 6.70473337173461910000e-001) (93, 6.48183643817901610000e-001) (94, -4.49129343032836910000e-002) (95, 1.89173966646194460000e-001) (96, 6.32428467273712160000e-001) (97, 5.56551396846771240000e-001) (98, 5.66997230052948000000e-001) (99, -9.70660001039505000000e-002) (0, 6.18612349033355710000e-001) (1, 5.86916804313659670000e-001) (2, 7.81120777130126950000e-001) (3, 8.99164199829101560000e-001) (4, 5.39179861545562740000e-001) (5, 6.93229436874389650000e-001) (6, 7.57138729095458980000e-001) (7, 7.54835546016693120000e-001) (8, 6.35473787784576420000e-001) (9, 6.54100954532623290000e-001) (10, 6.33228838443756100000e-001) (11, 6.53141796588897710000e-001) (12, 7.42302179336547850000e-001) (13, 5.20442962646484380000e-001) (14, 7.15562403202056880000e-001) (15, 6.86573088169097900000e-001) (16, 6.93788528442382810000e-001) (17, 2.52002573013305660000e+000) (18, 1.27235174179077150000e+001) (19, 6.13021755218505860000e+000) (20, 9.76044178009033200000e-001) (21, 5.96039116382598880000e-001) (22, 5.56070327758789060000e-001) (23, 5.48509538173675540000e-001) (24, 6.09511852264404300000e-001) (25, 5.69717824459075930000e-001) (26, 7.76041150093078610000e-001) (27, 1.09555554389953610000e+000) (28, 1.27457296848297120000e+000) (29, 9.87925291061401370000e-001) (30, 9.38415884971618650000e-001) (31, 9.23174500465393070000e-001) (32, 7.71617174148559570000e-001) (33, 6.45631015300750730000e-001) (34, 7.27099359035491940000e-001) (35, 7.43025064468383790000e-001) (36, 6.28507614135742190000e-001) (37, 6.90642833709716800000e-001) (38, 7.27062344551086430000e-001) (39, 8.43373119831085210000e-001) (40, 8.76750588417053220000e-001) (41, 7.20369994640350340000e-001) (42, 6.30941331386566160000e-001) (43, 7.11358010768890380000e-001) (44, 7.60207593441009520000e-001) (45, 6.90580248832702640000e-001) (46, 6.59562528133392330000e-001) (47, 6.84403419494628910000e-001) (48, 5.91397523880004880000e-001) (49, 6.51123404502868650000e-001) (50, 6.78551971912384030000e-001) (51, 8.21551561355590820000e-001) (52, 6.23703539371490480000e-001) (53, 5.81068217754364010000e-001) (54, 6.45450830459594730000e-001) (55, 6.05931043624877930000e-001) (56, 8.05962979793548580000e-001) (57, 6.91361665725708010000e-001) (58, 6.81504249572753910000e-001) (59, 6.07940256595611570000e-001) (60, 8.08251857757568360000e-001) (61, 7.28882849216461180000e-001) (62, 8.36446106433868410000e-001) (63, 7.25167393684387210000e-001) (64, 7.78919458389282230000e-001) (65, 6.62160217761993410000e-001) (66, 6.95435345172882080000e-001) (67, 8.60639333724975590000e-001) (68, 2.65823316574096680000e+000) (69, 5.33914208412170410000e-001) (70, 6.11787080764770510000e-001) (71, 6.52079224586486820000e-001) (72, 6.79650187492370610000e-001) (73, 6.79544866085052490000e-001) (74, 7.42857038974761960000e-001) (75, 5.99083721637725830000e-001) (76, 5.05559265613555910000e-001) (77, 5.34685373306274410000e-001) (78, 5.20378768444061280000e-001) (79, 4.67887401580810550000e+000) (80, 1.09624843597412110000e+001) (81, 5.11957263946533200000e+000) (82, 2.62405300140380860000e+000) (83, 4.86210203170776370000e+000) (84, 1.09100189208984380000e+001) (85, 2.45502233505249020000e+000) (86, 6.58438563346862790000e-001) (87, 5.50181925296783450000e-001) (88, 5.66377282142639160000e-001) (89, 6.68156504631042480000e-001) (90, 6.06207013130187990000e-001) (91, 6.99984788894653320000e-001) (92, 6.73104047775268550000e-001) (93, 6.57287657260894780000e-001) (94, 5.61025083065032960000e-001) (95, 7.10299313068389890000e-001) (96, 4.86755937337875370000e-001) (97, 2.42597803473472600000e-001) (98, 8.01091492176055910000e-001) (99, 5.06430566310882570000e-001) (0, 1.38382303714752200000e+000) (1, 1.65178728103637700000e+000) (2, 7.44292497634887700000e-001) (3, 3.71311485767364500000e-001) (4, 3.30639421939849850000e-001) (5, 4.85626637935638430000e-001) (6, 4.18616652488708500000e-001) (7, 7.00867056846618650000e-001) (8, 7.47245669364929200000e-001) (9, 7.30724930763244630000e-001) (10, 6.16553068161010740000e-001) (11, 1.25496244430541990000e+000) (12, 1.11230397224426270000e+000) (13, 2.11943483352661130000e+000) (14, 1.79585278034210210000e+000) (15, 1.68930852413177490000e+000) (16, 1.65281105041503910000e+000) (17, 1.33519753813743590000e-001) (18, 7.17948555946350100000e-001) (19, 6.68551325798034670000e-001) (20, 5.90504527091979980000e-001) (21, 1.39086091518402100000e+000) (22, 1.77261459827423100000e+000) (23, 8.82544577121734620000e-001) (24, 5.78677237033843990000e-001) (25, 6.70233905315399170000e-001) (26, 2.98423916101455690000e-001) (27, 1.20098806917667390000e-001) (28, 4.45803143084049220000e-002) (29, 1.25921666622161870000e-001) (30, 7.63953685760498050000e-001) (31, 1.74670255184173580000e+000) (32, 1.75050497055053710000e+000) (33, 3.15908336639404300000e+000) (34, 8.35491776466369630000e-001) (35, 1.82914078235626220000e+000) (36, 1.65371108055114750000e+000) (37, 1.09093439579010010000e+000) (38, 6.65017485618591310000e-001) (39, 8.01108658313751220000e-001) (40, 8.69843304157257080000e-001) (41, 2.00622868537902830000e+000) (42, 2.09778070449829100000e+000) (43, 2.11217021942138670000e+000) (44, 1.82421934604644780000e+000) (45, 1.69575870037078860000e+000) (46, 7.71794497966766360000e-001) (47, 8.65291416645050050000e-001) (48, 4.85261082649230960000e-001) (49, 1.14282238483428960000e+000) (50, 9.07534420490264890000e-001) (51, 2.51424312591552730000e-001) (52, 3.89152884483337400000e-001) (53, 3.84235590696334840000e-001) (54, 3.33928883075714110000e-001) (55, 4.22955632209777830000e-001) (56, 2.13864207267761230000e-001) (57, 9.59022566676139830000e-002) (58, 4.02168840169906620000e-001) (59, 6.12386226654052730000e-001) (60, 1.34591495990753170000e+000) (61, 3.24195593595504760000e-001) (62, 5.52477896213531490000e-001) (63, 1.50780212879180910000e+000) (64, 1.34092402458190920000e+000) (65, 1.49069213867187500000e+000) (66, 1.46288847923278810000e+000) (67, 7.43377864360809330000e-001) (68, 4.56252574920654300000e-001) (69, 6.15686118602752690000e-001) (70, 9.96265649795532230000e-001) (71, 2.47489348053932190000e-001) (72, 5.11725008487701420000e-001) (73, 1.51396167278289790000e+000) (74, 1.62765038013458250000e+000) (75, 1.11498558521270750000e+000) (76, 8.85137617588043210000e-001) (77, 8.04633796215057370000e-001) (78, 7.27912545204162600000e-001) (79, 8.34724128246307370000e-001) (80, 6.24865889549255370000e-001) (81, 5.09305417537689210000e-001) (82, 4.70103234052658080000e-001) (83, 3.51213365793228150000e-001) (84, -8.80725860595703130000e-001) (85, 1.36839658021926880000e-001) (86, 1.70228552818298340000e+000) (87, 3.14555621147155760000e+000) (88, 1.02334671020507810000e+001) (89, 1.03285837173461910000e+001) (90, 1.02097625732421870000e+001) (91, 4.83195257186889650000e+000) (92, 8.25320363044738770000e-001) (93, 1.10696148872375490000e+000) (94, 5.95487475395202640000e-001) (95, 2.50354409217834470000e+000) (96, 4.71084547042846680000e+000) (97, 1.28542006015777590000e+000) (98, 2.79675573110580440000e-001) (99, 7.26642072200775150000e-001) (0, -2.86536756902933120000e-002) (1, 3.59961166977882390000e-002) (2, 9.50569063425064090000e-002) (3, -5.40751032531261440000e-002) (4, 2.78042592108249660000e-002) (5, -3.03371576592326160000e-003) (6, -2.32577044516801830000e-002) (7, 5.73948584496974950000e-002) (8, 6.53647771105170250000e-003) (9, 2.30390410870313640000e-002) (10, -8.01028609275817870000e-002) (11, 2.06910908222198490000e-001) (12, 2.19430059194564820000e-001) (13, 2.14736446738243100000e-001) (14, 2.71603494882583620000e-001) (15, 2.50544518232345580000e-001) (16, -1.45735973492264750000e-002) (17, 1.10027432441711430000e+000) (18, 2.08180475234985350000e+000) (19, 1.74816161394119260000e-001) (20, 2.47221086174249650000e-002) (21, 4.53738793730735780000e-002) (22, -6.72889500856399540000e-002) (23, -1.18317725136876110000e-002) (24, -1.45022850483655930000e-002) (25, -4.52452637255191800000e-002) (26, 4.47910070419311520000e-001) (27, 4.09296602010726930000e-001) (28, 4.72214400768280030000e-001) (29, 3.91974925994873050000e-001) (30, 3.89061987400054930000e-001) (31, 3.77930581569671630000e-001) (32, 3.98950874805450440000e-001) (33, 5.22161066532135010000e-001) (34, 4.22888725996017460000e-001) (35, 3.41780096292495730000e-001) (36, 1.29945024847984310000e-001) (37, 1.10586136579513550000e-001) (38, 5.24125210940837860000e-002) (39, 7.80954137444496150000e-002) (40, -4.85245250165462490000e-002) (41, 5.85177391767501830000e-002) (42, 8.45074355602264400000e-002) (43, 1.95192173123359680000e-001) (44, -5.91073743999004360000e-002) (45, 2.99979299306869510000e-002) (46, -2.54308730363845830000e-002) (47, -4.99095991253852840000e-002) (48, 4.31557416915893550000e-001) (49, 2.94318884611129760000e-001) (50, 2.68332660198211670000e-001) (51, 4.78223174810409550000e-001) (52, 9.25921946763992310000e-002) (53, -7.20557123422622680000e-002) (54, 8.24099183082580570000e-002) (55, -1.68888773769140240000e-002) (56, 3.06688278913497920000e-001) (57, 1.01718254387378690000e-001) (58, -1.19305904954671860000e-002) (59, -2.15572249144315720000e-002) (60, 2.38461703062057500000e-001) (61, 1.86883643269538880000e-001) (62, 4.11550134420394900000e-001) (63, 4.99990284442901610000e-001) (64, 6.10211253166198730000e-001) (65, 4.50525522232055660000e-001) (66, 4.25473570823669430000e-001) (67, 5.68420290946960450000e-001) (68, -7.30940252542495730000e-002) (69, -2.53180488944053650000e-002) (70, -1.01331435143947600000e-002) (71, -7.12793879210948940000e-003) (72, -7.60036706924438480000e-002) (73, 7.92785733938217160000e-002) (74, 1.56200200319290160000e-001) (75, 5.33310696482658390000e-002) (76, -4.77855503559112550000e-002) (77, 8.42603966593742370000e-002) (78, -7.14379772543907170000e-002) (79, 3.54500859975814820000e-002) (80, 3.17201763391494750000e-001) (81, 2.80296146869659420000e-001) (82, 1.59844890236854550000e-001) (83, 3.67193043231964110000e-001) (84, 1.31457820534706120000e-001) (85, 3.89384031295776370000e-002) (86, 1.50422044098377230000e-002) (87, 2.99244523048400880000e-002) (88, 9.35271233320236210000e-002) (89, 1.02609157562255860000e-001) (90, 1.70850589871406560000e-001) (91, 1.67281627655029300000e-001) (92, 2.67837196588516240000e-001) (93, 1.91617667675018310000e-001) (94, 4.34133894741535190000e-002) (95, -7.01924925670027730000e-003) (96, 2.79756546020507810000e-001) (97, 2.16766640543937680000e-001) (98, 1.33936390280723570000e-001) (99, 2.97145396471023560000e-002) (0, -3.87814715504646300000e-002) (1, 4.29313033819198610000e-002) (2, 8.95287171006202700000e-002) (3, 7.36291930079460140000e-002) (4, 8.48171934485435490000e-002) (5, -5.95401264727115630000e-002) (6, 5.85069581866264340000e-002) (7, 1.15433514118194580000e-001) (8, 2.74579953402280810000e-002) (9, 8.90058204531669620000e-002) (10, -6.91557582467794420000e-003) (11, 1.90132349729537960000e-001) (12, 2.13375374674797060000e-001) (13, 1.46193981170654300000e-001) (14, 3.04464429616928100000e-001) (15, -2.83761005848646160000e-002) (16, 1.08686856925487520000e-001) (17, 1.00872731208801270000e+000) (18, 1.05258524417877200000e+000) (19, 1.94762438535690310000e-001) (20, -5.42269125580787660000e-002) (21, 4.62039560079574580000e-002) (22, -9.82800126075744630000e-002) (23, 2.63293739408254620000e-002) (24, 4.95951110497117040000e-003) (25, -6.69551789760589600000e-002) (26, 2.97195643186569210000e-001) (27, 4.56147164106369020000e-001) (28, 5.67809283733367920000e-001) (29, 5.02723455429077150000e-001) (30, 4.11986738443374630000e-001) (31, 2.66244113445281980000e-001) (32, 3.98448079824447630000e-001) (33, 5.37023186683654790000e-001) (34, 3.42470258474349980000e-001) (35, 2.68484026193618770000e-001) (36, 1.09009295701980590000e-001) (37, 9.12363827228546140000e-003) (38, 4.71268668770790100000e-002) (39, 1.04621283710002900000e-001) (40, -1.44546572118997570000e-002) (41, -2.17556972056627270000e-002) (42, -2.91156060993671420000e-002) (43, 7.22131431102752690000e-002) (44, -5.61410710215568540000e-002) (45, -2.61056050658226010000e-002) (46, 1.02065473794937130000e-001) (47, 2.16473028063774110000e-001) (48, 1.94523602724075320000e-001) (49, 1.85330852866172790000e-001) (50, 2.13187694549560550000e-001) (51, 2.75546044111251830000e-001) (52, 6.20318874716758730000e-002) (53, -4.40650060772895810000e-002) (54, -7.54673480987548830000e-002) (55, -8.19844305515289310000e-002) (56, 2.75601476430892940000e-001) (57, 2.10074201226234440000e-001) (58, 2.31035873293876650000e-002) (59, -1.60030238330364230000e-002) (60, 1.16757407784461980000e-001) (61, 1.86254978179931640000e-001) (62, 3.52852076292037960000e-001) (63, 5.23233234882354740000e-001) (64, 5.51351666450500490000e-001) (65, 6.04700922966003420000e-001) (66, 4.80948388576507570000e-001) (67, 2.05183938145637510000e-001) (68, 6.79151341319084170000e-002) (69, -6.79617887362837790000e-003) (70, 4.54529635608196260000e-002) (71, -2.42154058068990710000e-002) (72, -3.40577140450477600000e-002) (73, -4.86099487170577050000e-003) (74, 2.30958446860313420000e-001) (75, 6.40218406915664670000e-002) (76, 6.01401589810848240000e-002) (77, -1.41796497628092770000e-002) (78, 2.00393572449684140000e-002) (79, -3.32309268414974210000e-002) (80, 1.15634337067604060000e-001) (81, 3.13254773616790770000e-001) (82, 1.14730596542358400000e-001) (83, 1.69082045555114750000e-001) (84, 3.04089635610580440000e-001) (85, 6.09049759805202480000e-002) (86, 1.09628334641456600000e-001) (87, -7.57910758256912230000e-002) (88, 9.54985618591308590000e-002) (89, -2.15686243027448650000e-002) (90, 9.79592651128768920000e-002) (91, 2.18887284398078920000e-001) (92, 1.63943454623222350000e-001) (93, -5.48427365720272060000e-002) (94, 7.70803987979888920000e-002) (95, -7.76631906628608700000e-002) (96, 2.34187901020050050000e-001) (97, 2.26953417062759400000e-001) (98, 1.81763529777526860000e-001) (99, -4.54381108283996580000e-002) (0, 5.00839687883853910000e-002) (1, -2.00086459517478940000e-002) (2, 1.15305790677666660000e-003) (3, -5.40764182806015010000e-002) (4, -3.00795659422874450000e-002) (5, -9.23816300928592680000e-003) (6, 5.61606213450431820000e-002) (7, -4.56509849755093460000e-004) (8, 4.73865531384944920000e-002) (9, -9.54833924770355220000e-002) (10, 3.66941206157207490000e-002) (11, 2.07521900534629820000e-001) (12, 2.01723560690879820000e-001) (13, 1.08766831457614900000e-001) (14, 1.84656605124473570000e-001) (15, 1.09401777386665340000e-001) (16, 7.76984766125679020000e-002) (17, 6.58527672290802000000e-001) (18, 6.75098717212677000000e-001) (19, 1.04850754141807560000e-001) (20, -4.52066808938980100000e-002) (21, -4.40227761864662170000e-002) (22, -6.37894216924905780000e-003) (23, -1.12229466438293460000e-001) (24, 6.66452199220657350000e-002) (25, 1.02162867784500120000e-001) (26, 2.10405439138412480000e-001) (27, 1.14522807300090790000e-001) (28, 1.54064118862152100000e-001) (29, 1.41790196299552920000e-001) (30, 9.86206009984016420000e-002) (31, 1.83511093258857730000e-001) (32, 2.08300665020942690000e-001) (33, 1.82660877704620360000e-001) (34, 3.06191682815551760000e-001) (35, 1.36167183518409730000e-001) (36, 9.75686162710189820000e-002) (37, 8.06722715497016910000e-002) (38, -4.66363318264484410000e-003) (39, 1.21959522366523740000e-002) (40, -2.06890124827623370000e-002) (41, 1.15319145843386650000e-002) (42, 1.69819705188274380000e-002) (43, 1.65669191628694530000e-002) (44, 4.90754283964633940000e-003) (45, 7.83155672252178190000e-003) (46, -6.67404159903526310000e-002) (47, 2.71832291036844250000e-002) (48, 2.74845242500305180000e-001) (49, 1.21472433209419250000e-001) (50, -2.50957701355218890000e-002) (51, 2.36500144004821780000e-001) (52, 4.78795766830444340000e-002) (53, -3.92631674185395240000e-003) (54, 6.15655481815338130000e-002) (55, -2.52228304743766780000e-002) (56, 1.73161610960960390000e-001) (57, -6.19098991155624390000e-002) (58, -2.41876933723688130000e-002) (59, -9.57618057727813720000e-002) (60, 1.42336651682853700000e-001) (61, 2.52871721982955930000e-001) (62, 1.41541004180908200000e-001) (63, 1.46068409085273740000e-001) (64, 2.59044289588928220000e-001) (65, 3.11874628067016600000e-001) (66, 2.54081785678863530000e-001) (67, 2.64498054981231690000e-001) (68, 2.52295732498168950000e-002) (69, -8.83533731102943420000e-002) (70, -1.08222834765911100000e-001) (71, -1.29148080945014950000e-001) (72, -1.13162927329540250000e-001) (73, -3.91927734017372130000e-002) (74, 2.17402890324592590000e-001) (75, 9.26236957311630250000e-002) (76, -2.53812894225120540000e-002) (77, -1.53955789282917980000e-002) (78, 3.70405428111553190000e-002) (79, 2.94432900846004490000e-002) (80, 2.01353788375854490000e-001) (81, 2.59097397327423100000e-001) (82, 2.51849204301834110000e-001) (83, 4.90728653967380520000e-002) (84, 1.20977722108364110000e-001) (85, -5.86895607411861420000e-002) (86, -4.49621900916099550000e-002) (87, -6.34892359375953670000e-002) (88, 6.57899156212806700000e-002) (89, -9.58537403494119640000e-003) (90, -4.44382354617118840000e-002) (91, 4.62739914655685420000e-002) (92, 2.24388182163238530000e-001) (93, -3.69802974164485930000e-002) (94, -2.81346384435892110000e-002) (95, 4.98340986669063570000e-002) (96, 7.41384327411651610000e-002) (97, 7.41628408432006840000e-002) (98, 6.88937455415725710000e-002) (99, 8.65495204925537110000e-002) (0, 2.92617511004209520000e-002) (1, -7.63324508443474770000e-003) (2, 4.27338704466819760000e-002) (3, -1.63405071943998340000e-002) (4, 5.21349050104618070000e-002) (5, -7.40132480859756470000e-002) (6, -2.85080331377685070000e-003) (7, -3.14108170568943020000e-002) (8, -1.20565816760063170000e-001) (9, -1.04081943631172180000e-001) (10, 6.43572956323623660000e-002) (11, 1.28394901752471920000e-001) (12, 1.94868326187133790000e-001) (13, 1.66978150606155400000e-001) (14, 8.61853454262018200000e-003) (15, -7.36057609319686890000e-002) (16, -3.87763492763042450000e-002) (17, -1.59299932420253750000e-002) (18, -7.40156248211860660000e-002) (19, 5.73615804314613340000e-002) (20, -1.29966944456100460000e-001) (21, -1.49455964565277100000e-001) (22, -3.39836806058883670000e-001) (23, -2.54637338221073150000e-002) (24, -6.33398517966270450000e-002) (25, -1.27097502350807190000e-001) (26, 7.92441442608833310000e-002) (27, 6.21194690465927120000e-002) (28, 9.03279334306716920000e-002) (29, 2.29301694780588150000e-002) (30, 4.43761497735977170000e-002) (31, -9.65693686157464980000e-003) (32, 7.22399950027465820000e-002) (33, 1.96710109710693360000e-001) (34, 1.00077576935291290000e-001) (35, 6.43773972988128660000e-002) (36, 2.56949905306100850000e-002) (37, 1.64079219102859500000e-002) (38, 3.91215570271015170000e-002) (39, 5.57060725986957550000e-002) (40, 4.62349765002727510000e-002) (41, -8.91203507781028750000e-002) (42, 2.42276787757873540000e-002) (43, 1.36950938031077380000e-002) (44, -3.83701920509338380000e-002) (45, 1.75696741789579390000e-002) (46, 5.92086575925350190000e-002) (47, -4.16189059615135190000e-002) (48, -3.35115231573581700000e-002) (49, 6.87429755926132200000e-002) (50, -6.26873299479484560000e-002) (51, 3.57605814933776860000e-002) (52, -2.21068188548088070000e-002) (53, 8.30824151635169980000e-002) (54, 1.24824733939021830000e-003) (55, -1.83566287159919740000e-002) (56, -1.03567548096179960000e-001) (57, 2.51951124519109730000e-002) (58, -4.84894402325153350000e-002) (59, -1.37266263365745540000e-001) (60, -2.37209666520357130000e-002) (61, 6.27457126975059510000e-002) (62, 4.59941215813159940000e-002) (63, 1.06477722525596620000e-001) (64, 1.13702759146690370000e-001) (65, 9.64294001460075380000e-002) (66, 1.62811413407325740000e-001) (67, 7.75396972894668580000e-002) (68, -1.13406926393508910000e-001) (69, -3.86306852102279660000e-001) (70, -4.54760760068893430000e-001) (71, -4.07971628010272980000e-002) (72, -8.11121240258216860000e-002) (73, -1.50184873491525650000e-002) (74, 1.18339993059635160000e-001) (75, -8.76826122403144840000e-002) (76, 3.00096422433853150000e-002) (77, -8.92257541418075560000e-002) (78, -3.55552695691585540000e-002) (79, 5.21621946245431900000e-003) (80, 2.97157261520624160000e-002) (81, 1.92309439182281490000e-001) (82, 1.22739588841795920000e-002) (83, 6.76312074065208440000e-002) (84, -2.32989694923162460000e-002) (85, 3.72596755623817440000e-002) (86, -5.60020804405212400000e-002) (87, 6.03442229330539700000e-002) (88, -7.76569768786430360000e-002) (89, -7.20234587788581850000e-002) (90, 1.80700188502669330000e-003) (91, -1.30282521247863770000e-001) (92, 6.22707977890968320000e-002) (93, -3.35198305547237400000e-002) (94, -3.49615663290023800000e-002) (95, -5.04016317427158360000e-002) (96, -5.67515678703784940000e-002) (97, 5.54540101438760760000e-003) (98, -7.96871725469827650000e-003) (99, 3.75711284577846530000e-002) (0, 1.83976545929908750000e-001) (1, 2.66036957502365110000e-001) (2, 1.17995351552963260000e-001) (3, 3.44419002532958980000e-001) (4, 2.38366156816482540000e-001) (5, 2.73935884237289430000e-001) (6, 8.93182754516601560000e-002) (7, 1.04917518794536590000e-001) (8, 6.72821551561355590000e-002) (9, 2.49521434307098390000e-001) (10, 1.03238590061664580000e-001) (11, 5.51576241850852970000e-002) (12, -8.60619246959686280000e-002) (13, -2.77658589184284210000e-002) (14, -5.39911612868309020000e-002) (15, 4.54280674457550050000e-002) (16, 1.62518188357353210000e-001) (17, -1.16902567446231840000e-001) (18, -4.19360876083374020000e-001) (19, -6.02567791938781740000e-001) (20, 4.53565090894699100000e-001) (21, 5.75622856616973880000e-001) (22, 5.12477934360504150000e-001) (23, 3.18197041749954220000e-001) (24, 2.71726220846176150000e-001) (25, 4.20180946588516240000e-001) (26, 8.82349014282226560000e-002) (27, -2.12676655501127240000e-002) (28, 2.89236512035131450000e-002) (29, 7.43465572595596310000e-002) (30, 2.14900389313697810000e-001) (31, 1.79994598031044010000e-001) (32, 5.64503408968448640000e-002) (33, -9.14176478981971740000e-002) (34, -1.63278788328170780000e-001) (35, 1.17819301784038540000e-001) (36, 2.15612307190895080000e-001) (37, 1.65500849485397340000e-001) (38, 1.68059259653091430000e-001) (39, 2.51830637454986570000e-001) (40, 1.63748264312744140000e-001) (41, 1.45372256636619570000e-001) (42, 1.70830056071281430000e-001) (43, -1.26145910471677780000e-002) (44, -7.10210651159286500000e-002) (45, 2.51101255416870120000e-001) (46, 2.38852307200431820000e-001) (47, 5.96542768180370330000e-002) (48, 1.05119094252586360000e-001) (49, 1.25079482793807980000e-001) (50, 4.22730147838592530000e-002) (51, -8.04405361413955690000e-002) (52, 3.14457595348358150000e-001) (53, 2.31372833251953130000e-001) (54, 2.72399544715881350000e-001) (55, 1.68137729167938230000e-001) (56, -6.79718926548957820000e-002) (57, 6.35978952050209050000e-002) (58, 9.20347422361373900000e-002) (59, 2.83309310674667360000e-001) (60, 2.10723765194416050000e-002) (61, 4.28027957677841190000e-002) (62, 1.46877616643905640000e-002) (63, -1.38095850124955180000e-002) (64, -3.65768931806087490000e-002) (65, -1.31775826215744020000e-001) (66, -2.06152290105819700000e-001) (67, -1.56676843762397770000e-001) (68, 3.31063419580459590000e-001) (69, 6.16876363754272460000e-001) (70, 7.07248508930206300000e-001) (71, 6.48772895336151120000e-001) (72, 2.40846410393714900000e-001) (73, 5.47278672456741330000e-002) (74, 7.46653899550437930000e-002) (75, 2.18684613704681400000e-001) (76, 5.65568394958972930000e-002) (77, 1.69142380356788640000e-001) (78, 2.06979319453239440000e-001) (79, -1.47212459705770020000e-003) (80, -1.43356099724769590000e-001) (81, -7.53871053457260130000e-002) (82, -2.05629184842109680000e-001) (83, 5.62032945454120640000e-002) (84, -2.34857901930809020000e-001) (85, 2.92396456003189090000e-001) (86, 1.74172639846801760000e-001) (87, 2.36710712313652040000e-001) (88, 2.74352937936782840000e-001) (89, 3.36146444082260130000e-001) (90, 1.63030326366424560000e-001) (91, 1.46935611963272090000e-001) (92, -5.54406978189945220000e-002) (93, 7.68947228789329530000e-002) (94, 3.12579095363616940000e-001) (95, 1.23783960938453670000e-001) (96, -1.53131959959864620000e-002) (97, 4.68878708779811860000e-002) (98, -2.51698866486549380000e-002) (99, 2.53754079341888430000e-001) (0, -8.89917984604835510000e-002) (1, 5.66466292366385460000e-003) (2, 