FANN_FLO_2.1
num_layers=5
learning_rate=0.700000
connection_rate=1.000000
network_type=0
learning_momentum=0.000000
training_algorithm=2
train_error_function=0
train_stop_function=0
cascade_output_change_fraction=0.010000
quickprop_decay=-0.000100
quickprop_mu=1.750000
rprop_increase_factor=1.200000
rprop_decrease_factor=0.500000
rprop_delta_min=0.000000
rprop_delta_max=50.000000
rprop_delta_zero=0.100000
cascade_output_stagnation_epochs=12
cascade_candidate_change_fraction=0.010000
cascade_candidate_stagnation_epochs=12
cascade_max_out_epochs=150
cascade_min_out_epochs=50
cascade_max_cand_epochs=150
cascade_min_cand_epochs=50
cascade_num_candidate_groups=2
bit_fail_limit=3.49999994039535520000e-001
cascade_candidate_limit=1.00000000000000000000e+003
cascade_weight_multiplier=4.00000005960464480000e-001
cascade_activation_functions_count=10
cascade_activation_functions=3 5 7 8 10 11 14 15 16 17 
cascade_activation_steepnesses_count=4
cascade_activation_steepnesses=2.50000000000000000000e-001 5.00000000000000000000e-001 7.50000000000000000000e-001 1.00000000000000000000e+000 
layer_sizes=100 76 52 28 2 
scale_included=0
neurons (num_inputs, activation_function, activation_steepness)=(0, 0, 0.00000000000000000000e+000) (0, 0, 0.00000000000000000000e+000) (0, 0, 0.00000000000000000000e+000) (0, 0, 0.00000000000000000000e+000) (0, 0, 0.00000000000000000000e+000) (0, 0, 0.00000000000000000000e+000) (0, 0, 0.00000000000000000000e+000) (0, 0, 0.00000000000000000000e+000) (0, 0, 0.00000000000000000000e+000) (0, 0, 0.00000000000000000000e+000) (0, 0, 0.00000000000000000000e+000) (0, 0, 0.00000000000000000000e+000) (0, 0, 0.00000000000000000000e+000) (0, 0, 0.00000000000000000000e+000) (0, 0, 0.00000000000000000000e+000) (0, 0, 0.00000000000000000000e+000) (0, 0, 0.00000000000000000000e+000) (0, 0, 0.00000000000000000000e+000) (0, 0, 0.00000000000000000000e+000) (0, 0, 0.00000000000000000000e+000) (0, 0, 0.00000000000000000000e+000) (0, 0, 0.00000000000000000000e+000) (0, 0, 0.00000000000000000000e+000) (0, 0, 0.00000000000000000000e+000) (0, 0, 0.00000000000000000000e+000) (0, 0, 0.00000000000000000000e+000) (0, 0, 0.00000000000000000000e+000) (0, 0, 0.00000000000000000000e+000) (0, 0, 0.00000000000000000000e+000) (0, 0, 0.00000000000000000000e+000) (0, 0, 0.00000000000000000000e+000) (0, 0, 0.00000000000000000000e+000) (0, 0, 0.00000000000000000000e+000) (0, 0, 0.00000000000000000000e+000) (0, 0, 0.00000000000000000000e+000) (0, 0, 0.00000000000000000000e+000) (0, 0, 0.00000000000000000000e+000) (0, 0, 0.00000000000000000000e+000) (0, 0, 0.00000000000000000000e+000) (0, 0, 0.00000000000000000000e+000) (0, 0, 0.00000000000000000000e+000) (0, 0, 0.00000000000000000000e+000) (0, 0, 0.00000000000000000000e+000) (0, 0, 0.00000000000000000000e+000) (0, 0, 0.00000000000000000000e+000) (0, 0, 0.00000000000000000000e+000) (0, 0, 0.00000000000000000000e+000) (0, 0, 0.00000000000000000000e+000) (0, 0, 0.00000000000000000000e+000) (0, 0, 0.00000000000000000000e+000) (0, 0, 0.00000000000000000000e+000) (0, 0, 0.00000000000000000000e+000) (0, 0, 0.00000000000000000000e+000) (0, 0, 0.00000000000000000000e+000) (0, 0, 0.00000000000000000000e+000) (0, 0, 0.00000000000000000000e+000) (0, 0, 0.00000000000000000000e+000) (0, 0, 0.00000000000000000000e+000) (0, 0, 0.00000000000000000000e+000) (0, 0, 0.00000000000000000000e+000) (0, 0, 0.00000000000000000000e+000) (0, 0, 0.00000000000000000000e+000) (0, 0, 0.00000000000000000000e+000) (0, 0, 0.00000000000000000000e+000) (0, 0, 0.00000000000000000000e+000) (0, 0, 0.00000000000000000000e+000) (0, 0, 0.00000000000000000000e+000) (0, 0, 0.00000000000000000000e+000) (0, 0, 0.00000000000000000000e+000) (0, 0, 0.00000000000000000000e+000) (0, 0, 0.00000000000000000000e+000) (0, 0, 0.00000000000000000000e+000) (0, 0, 0.00000000000000000000e+000) (0, 0, 0.00000000000000000000e+000) (0, 0, 0.00000000000000000000e+000) (0, 0, 0.00000000000000000000e+000) (0, 0, 0.00000000000000000000e+000) (0, 0, 0.00000000000000000000e+000) (0, 0, 0.00000000000000000000e+000) (0, 0, 0.00000000000000000000e+000) (0, 0, 0.00000000000000000000e+000) (0, 0, 0.00000000000000000000e+000) (0, 0, 0.00000000000000000000e+000) (0, 0, 0.00000000000000000000e+000) (0, 0, 0.00000000000000000000e+000) (0, 0, 0.00000000000000000000e+000) (0, 0, 0.00000000000000000000e+000) (0, 0, 0.00000000000000000000e+000) (0, 0, 0.00000000000000000000e+000) (0, 0, 0.00000000000000000000e+000) (0, 0, 0.00000000000000000000e+000) (0, 0, 0.00000000000000000000e+000) (0, 0, 0.00000000000000000000e+000) (0, 0, 0.00000000000000000000e+000) (0, 0, 0.00000000000000000000e+000) (0, 0, 0.00000000000000000000e+000) (0, 0, 0.00000000000000000000e+000) (0, 0, 0.00000000000000000000e+000) (0, 0, 0.00000000000000000000e+000) (0, 0, 0.00000000000000000000e+000) (100, 11, 5.00000000000000000000e-001) (100, 11, 5.00000000000000000000e-001) (100, 11, 5.00000000000000000000e-001) (100, 11, 5.00000000000000000000e-001) (100, 11, 5.00000000000000000000e-001) (100, 11, 5.00000000000000000000e-001) (100, 11, 5.00000000000000000000e-001) (100, 11, 5.00000000000000000000e-001) (100, 11, 5.00000000000000000000e-001) (100, 11, 5.00000000000000000000e-001) (100, 11, 5.00000000000000000000e-001) (100, 11, 5.00000000000000000000e-001) (100, 11, 5.00000000000000000000e-001) (100, 11, 5.00000000000000000000e-001) (100, 11, 5.00000000000000000000e-001) (100, 11, 5.00000000000000000000e-001) (100, 11, 5.00000000000000000000e-001) (100, 11, 5.00000000000000000000e-001) (100, 11, 5.00000000000000000000e-001) (100, 11, 5.00000000000000000000e-001) (100, 11, 5.00000000000000000000e-001) (100, 11, 5.00000000000000000000e-001) (100, 11, 5.00000000000000000000e-001) (100, 11, 5.00000000000000000000e-001) (100, 11, 5.00000000000000000000e-001) (100, 11, 5.00000000000000000000e-001) (100, 11, 5.00000000000000000000e-001) (100, 11, 5.00000000000000000000e-001) (100, 11, 5.00000000000000000000e-001) (100, 11, 5.00000000000000000000e-001) (100, 11, 5.00000000000000000000e-001) (100, 11, 5.00000000000000000000e-001) (100, 11, 5.00000000000000000000e-001) (100, 11, 5.00000000000000000000e-001) (100, 11, 5.00000000000000000000e-001) (100, 11, 5.00000000000000000000e-001) (100, 11, 5.00000000000000000000e-001) (100, 11, 5.00000000000000000000e-001) (100, 11, 5.00000000000000000000e-001) (100, 11, 5.00000000000000000000e-001) (100, 11, 5.00000000000000000000e-001) (100, 11, 5.00000000000000000000e-001) (100, 11, 5.00000000000000000000e-001) (100, 11, 5.00000000000000000000e-001) (100, 11, 5.00000000000000000000e-001) (100, 11, 5.00000000000000000000e-001) (100, 11, 5.00000000000000000000e-001) (100, 11, 5.00000000000000000000e-001) (100, 11, 5.00000000000000000000e-001) (100, 11, 5.00000000000000000000e-001) (100, 11, 5.00000000000000000000e-001) (100, 11, 5.00000000000000000000e-001) (100, 11, 5.00000000000000000000e-001) (100, 11, 5.00000000000000000000e-001) (100, 11, 5.00000000000000000000e-001) (100, 11, 5.00000000000000000000e-001) (100, 11, 5.00000000000000000000e-001) (100, 11, 5.00000000000000000000e-001) (100, 11, 5.00000000000000000000e-001) (100, 11, 5.00000000000000000000e-001) (100, 11, 5.00000000000000000000e-001) (100, 11, 5.00000000000000000000e-001) (100, 11, 5.00000000000000000000e-001) (100, 11, 5.00000000000000000000e-001) (100, 11, 5.00000000000000000000e-001) (100, 11, 5.00000000000000000000e-001) (100, 11, 5.00000000000000000000e-001) (100, 11, 5.00000000000000000000e-001) (100, 11, 5.00000000000000000000e-001) (100, 11, 5.00000000000000000000e-001) (100, 11, 5.00000000000000000000e-001) (100, 11, 5.00000000000000000000e-001) (100, 11, 5.00000000000000000000e-001) (100, 11, 5.00000000000000000000e-001) (100, 11, 5.00000000000000000000e-001) (0, 11, 5.00000000000000000000e-001) (76, 11, 5.00000000000000000000e-001) (76, 11, 5.00000000000000000000e-001) (76, 11, 5.00000000000000000000e-001) (76, 11, 5.00000000000000000000e-001) (76, 11, 5.00000000000000000000e-001) (76, 11, 5.00000000000000000000e-001) (76, 11, 5.00000000000000000000e-001) (76, 11, 5.00000000000000000000e-001) (76, 11, 5.00000000000000000000e-001) (76, 11, 5.00000000000000000000e-001) (76, 11, 5.00000000000000000000e-001) (76, 11, 5.00000000000000000000e-001) (76, 11, 5.00000000000000000000e-001) (76, 11, 5.00000000000000000000e-001) (76, 11, 5.00000000000000000000e-001) (76, 11, 5.00000000000000000000e-001) (76, 11, 5.00000000000000000000e-001) (76, 11, 5.00000000000000000000e-001) (76, 11, 5.00000000000000000000e-001) (76, 11, 5.00000000000000000000e-001) (76, 11, 5.00000000000000000000e-001) (76, 11, 5.00000000000000000000e-001) (76, 11, 5.00000000000000000000e-001) (76, 11, 5.00000000000000000000e-001) (76, 11, 5.00000000000000000000e-001) (76, 11, 5.00000000000000000000e-001) (76, 11, 5.00000000000000000000e-001) (76, 11, 5.00000000000000000000e-001) (76, 11, 5.00000000000000000000e-001) (76, 11, 5.00000000000000000000e-001) (76, 11, 5.00000000000000000000e-001) (76, 11, 5.00000000000000000000e-001) (76, 11, 5.00000000000000000000e-001) (76, 11, 5.00000000000000000000e-001) (76, 11, 5.00000000000000000000e-001) (76, 11, 5.00000000000000000000e-001) (76, 11, 5.00000000000000000000e-001) (76, 11, 5.00000000000000000000e-001) (76, 11, 5.00000000000000000000e-001) (76, 11, 5.00000000000000000000e-001) (76, 11, 5.00000000000000000000e-001) (76, 11, 5.00000000000000000000e-001) (76, 11, 5.00000000000000000000e-001) (76, 11, 5.00000000000000000000e-001) (76, 11, 5.00000000000000000000e-001) (76, 11, 5.00000000000000000000e-001) (76, 11, 5.00000000000000000000e-001) (76, 11, 5.00000000000000000000e-001) (76, 11, 5.00000000000000000000e-001) (76, 11, 5.00000000000000000000e-001) (76, 11, 5.00000000000000000000e-001) (0, 11, 5.00000000000000000000e-001) (52, 11, 5.00000000000000000000e-001) (52, 11, 5.00000000000000000000e-001) (52, 11, 5.00000000000000000000e-001) (52, 11, 5.00000000000000000000e-001) (52, 11, 5.00000000000000000000e-001) (52, 11, 5.00000000000000000000e-001) (52, 11, 5.00000000000000000000e-001) (52, 11, 5.00000000000000000000e-001) (52, 11, 5.00000000000000000000e-001) (52, 11, 5.00000000000000000000e-001) (52, 11, 5.00000000000000000000e-001) (52, 11, 5.00000000000000000000e-001) (52, 11, 5.00000000000000000000e-001) (52, 11, 5.00000000000000000000e-001) (52, 11, 5.00000000000000000000e-001) (52, 11, 5.00000000000000000000e-001) (52, 11, 5.00000000000000000000e-001) (52, 11, 5.00000000000000000000e-001) (52, 11, 5.00000000000000000000e-001) (52, 11, 5.00000000000000000000e-001) (52, 11, 5.00000000000000000000e-001) (52, 11, 5.00000000000000000000e-001) (52, 11, 5.00000000000000000000e-001) (52, 11, 5.00000000000000000000e-001) (52, 11, 5.00000000000000000000e-001) (52, 11, 5.00000000000000000000e-001) (52, 11, 5.00000000000000000000e-001) (0, 11, 5.00000000000000000000e-001) (28, 6, 5.00000000000000000000e-001) (0, 6, 5.00000000000000000000e-001) 
connections (connected_to_neuron, weight)=(0, -6.76642656326293950000e-001) (1, -5.88912189006805420000e-001) (2, -8.61319923400878910000e+000) (3, -1.42918188476562500000e+003) (4, -1.49987194824218750000e+003) (5, -1.25100573730468750000e+003) (6, -1.32829064941406250000e+003) (7, -1.39479089355468750000e+003) (8, -1.44827307128906250000e+003) (9, -1.48246960449218750000e+003) (10, -1.03942270278930660000e+001) (11, -1.55684938430786130000e+001) (12, -4.61439170837402340000e+001) (13, -6.66352767944335940000e+001) (14, -8.02588424682617190000e+001) (15, -6.25063537597656250000e+002) (16, -5.58710571289062500000e+002) (17, -1.98698928833007810000e+002) (18, -2.64592254638671870000e+002) (19, -7.65523552894592290000e-001) (20, -1.20167577266693120000e+000) (21, -1.49174804687500000000e+003) (22, -1.47701940917968750000e+003) (23, -7.76501774787902830000e-001) (24, -1.54564812779426570000e-001) (25, -3.19774270057678220000e-001) (26, -1.09743881225585940000e+000) (27, -3.84819000244140620000e+002) (28, -7.71585815429687500000e+002) (29, -1.07111060619354250000e+000) (30, -3.86629533767700200000e+000) (31, -1.08982276916503910000e+000) (32, -1.10029768943786620000e+000) (33, -4.61336314678192140000e-001) (34, 5.74029013514518740000e-002) (35, -3.98247218132019040000e+000) (36, -5.71995300292968750000e+002) (37, -1.49873400878906250000e+003) (38, -3.51350283622741700000e+000) (39, -4.39768254756927490000e-001) (40, -3.57759088277816770000e-001) (41, -2.00995996594429020000e-001) (42, -2.18057250976562500000e+000) (43, -6.19069213867187500000e+002) (44, -1.49490344238281250000e+003) (45, -1.24419189453125000000e+003) (46, -1.49999560546875000000e+003) (47, -1.49732043457031250000e+003) (48, -1.42212097167968750000e+003) (49, -1.49803015136718750000e+003) (50, -1.49999755859375000000e+003) (51, -2.23021292686462400000e+000) (52, -1.47506921386718750000e+003) (53, -4.29000244140625000000e+001) (54, -1.05459619140625000000e+003) (55, -1.46204724121093750000e+003) (56, -1.47367358398437500000e+003) (57, -1.47561206054687500000e+003) (58, -4.71242599487304690000e+001) (59, -1.48448254394531250000e+003) (60, -3.40919830322265620000e+002) (61, -7.58323907852172850000e-001) (62, -4.28506988525390620000e+002) (63, -4.49544072151184080000e-001) (64, -9.62837338447570800000e-002) (65, 3.45662862062454220000e-001) (66, 1.28078330308198930000e-002) (67, -1.41015917062759400000e-001) (68, -1.71341590881347660000e+001) (69, -2.65620670318603520000e+001) (70, -7.54737496376037600000e-001) (71, -5.02402819693088530000e-002) (72, -2.14598011225461960000e-002) (73, -8.69062393903732300000e-002) (74, -2.27413635253906250000e+002) (75, -1.08729541015625000000e+003) (76, -2.26595108032226560000e+002) (77, -2.27541397094726560000e+002) (78, -6.98173583984375000000e+002) (79, -2.32169270515441890000e+000) (80, -8.13392353057861330000e+000) (81, -3.21712074279785160000e+001) (82, -9.39985046386718750000e+001) (83, -1.98544326782226560000e+002) (84, -3.23697784423828120000e+002) (85, -7.12351135253906250000e+002) (86, -1.49614416503906250000e+003) (87, -8.00038528442382810000e+001) (88, -2.03438247680664060000e+002) (89, -1.44510351562500000000e+003) (90, -1.49566943359375000000e+003) (91, -1.36246777343750000000e+003) (92, -1.48857385253906250000e+003) (93, -1.49939831542968750000e+003) (94, -1.49999743652343750000e+003) (95, -1.49999694824218750000e+003) (96, -1.41956091308593750000e+003) (97, 2.40786849975585940000e+002) (98, -1.42630578613281250000e+003) (99, -5.64826846122741700000e-001) (0, 3.95130574703216550000e-001) (1, 3.24470043182373050000e-001) (2, 2.29148209095001220000e-001) (3, -2.34623551368713380000e+000) (4, -1.90483427047729490000e+000) (5, -3.21032777428627010000e-002) (6, -7.49065816402435300000e-001) (7, -1.72104120254516600000e-001) (8, -3.94331753253936770000e-001) (9, 1.49753153324127200000e-001) (10, 2.35524192452430730000e-001) (11, 3.01767110824584960000e-001) (12, 3.59631001949310300000e-001) (13, 1.58605903387069700000e-001) (14, 2.12099224328994750000e-001) (15, 1.44648283720016480000e-001) (16, -9.60003770887851720000e-003) (17, 2.42432698607444760000e-001) (18, 1.81476503610610960000e-001) (19, 2.14368641376495360000e-001) (20, 1.54802769422531130000e-001) (21, 1.57496318221092220000e-001) (22, 1.23333632946014400000e-001) (23, 3.34242463111877440000e-001) (24, 1.48650634288787840000e+000) (25, 4.45172548294067380000e-001) (26, 2.98194050788879390000e-001) (27, 2.48466461896896360000e-001) (28, 2.94260263442993160000e-001) (29, 4.15442764759063720000e-001) (30, 3.82787525653839110000e-001) (31, 6.03125616908073430000e-002) (32, 3.68605017662048340000e-001) (33, 3.99927467107772830000e-001) (34, 4.79778587818145750000e-001) (35, 4.96053725481033330000e-001) (36, 3.54745328426361080000e-001) (37, 2.86070942878723140000e-001) (38, 2.67272263765335080000e-001) (39, 3.05349707603454590000e-001) (40, 3.11407446861267090000e-001) (41, 2.42058917880058290000e-001) (42, 1.42863854765892030000e-001) (43, 1.16431526839733120000e-001) (44, 2.72575348615646360000e-001) (45, 2.71506339311599730000e-001) (46, 3.44222694635391240000e-001) (47, 3.13753581047058110000e+000) (48, 6.77422583103179930000e-001) (49, 6.18679702281951900000e-001) (50, 2.35166415572166440000e-001) (51, 9.04781341552734380000e-001) (52, -1.56131482124328610000e+000) (53, 7.16343104839324950000e-001) (54, 7.55246952176094060000e-002) (55, 1.94885462522506710000e-001) (56, 4.80926179885864260000e+000) (57, 3.77347529865801330000e-003) (58, -3.24865818023681640000e-001) (59, -4.57203674316406250000e+000) (60, 8.96855592727661130000e-001) (61, 6.02839827537536620000e-001) (62, 4.17168885469436650000e-001) (63, 1.93152874708175660000e-001) (64, 3.19474428892135620000e-001) (65, 3.69516164064407350000e-001) (66, 5.50694942474365230000e-001) (67, 5.74646711349487300000e-001) (68, 2.67551183700561520000e-001) (69, 1.48188650608062740000e-001) (70, 2.68230438232421880000e-001) (71, 2.72600531578063960000e-001) (72, 3.61778318881988530000e-001) (73, 5.64878404140472410000e-001) (74, 3.41601073741912840000e-001) (75, -1.95342481136322020000e+000) (76, -2.45653533935546870000e+000) (77, -1.37513816356658940000e+000) (78, -6.02929413318634030000e-001) (79, 1.41880378127098080000e-001) (80, 2.38164022564888000000e-001) (81, 2.36156389117240910000e-001) (82, 3.59823465347290040000e-001) (83, 7.43957906961441040000e-002) (84, -1.33684605360031130000e-001) (85, -4.71216261386871340000e-001) (86, -6.82287588715553280000e-002) (87, 2.39113733172416690000e-001) (88, 2.31584742665290830000e-001) (89, 2.10643053054809570000e-001) (90, 1.06978990137577060000e-001) (91, 2.91376382112503050000e-001) (92, 2.64100909233093260000e-001) (93, 1.35862261056900020000e-001) (94, -1.60024702548980710000e+000) (95, -2.14908814430236820000e+000) (96, 2.58276748657226560000e+000) (97, 3.67170184850692750000e-001) (98, 1.40739488601684570000e+000) (99, 5.79397678375244140000e-001) (0, -1.26780509948730470000e-001) (1, -1.16995245218276980000e-001) (2, -3.01536247134208680000e-002) (3, -1.19426429271698000000e+000) (4, 2.18721938133239750000e+000) (5, -6.20732843875885010000e-001) (6, -1.78914189338684080000e-001) (7, -2.93364495038986210000e-001) (8, 2.32850071042776110000e-002) (9, -2.15112283825874330000e-001) (10, 3.72650139033794400000e-002) (11, -3.72116975486278530000e-002) (12, -2.85399053245782850000e-002) (13, -1.35543912649154660000e-001) (14, -6.04612119495868680000e-002) (15, 6.86026215553283690000e-002) (16, 2.05885991454124450000e-002) (17, -1.93196665495634080000e-002) (18, -5.94200305640697480000e-002) (19, -1.35058136656880380000e-002) (20, -1.65807604789733890000e-001) (21, -1.50493726134300230000e-001) (22, -1.91294960677623750000e-002) (23, 1.39476666226983070000e-002) (24, -4.35784794390201570000e-002) (25, 7.20641342923045160000e-003) (26, -1.22141286730766300000e-001) (27, -7.45182558894157410000e-002) (28, -1.10950067639350890000e-001) (29, -2.83011607825756070000e-002) (30, -1.19438894093036650000e-001) (31, 6.45837709307670590000e-002) (32, -9.29216668009758000000e-002) (33, 4.08552400767803190000e-002) (34, -8.06560590863227840000e-002) (35, -2.40722503513097760000e-002) (36, -1.21081441640853880000e-001) (37, -8.00175359472632410000e-004) (38, -5.78764639794826510000e-002) (39, -4.84008118510246280000e-002) (40, -8.92951563000679020000e-002) (41, -9.67562571167945860000e-002) (42, -5.08411154150962830000e-002) (43, -1.25957950949668880000e-001) (44, -5.74444010853767400000e-002) (45, -2.12502941489219670000e-001) (46, -2.31509461998939510000e-001) (47, -1.72638475894927980000e-001) (48, -8.84867191314697270000e-001) (49, -7.87949204444885250000e-001) (50, -9.34040427207946780000e-001) (51, -2.54054522514343260000e+000) (52, -5.41492365300655360000e-002) (53, 4.55258935689926150000e-001) (54, -1.34750008583068850000e+000) (55, 2.89256840944290160000e-001) (56, 6.77068978548049930000e-002) (57, 1.76786363124847410000e-001) (58, -2.03881055116653440000e-001) (59, -2.08248719573020940000e-001) (60, -1.35227367281913760000e-001) (61, -2.80133754014968870000e-001) (62, -1.25119596719741820000e-001) (63, -1.75635278224945070000e-001) (64, -5.87730348110198970000e-001) (65, -2.55591720342636110000e-001) (66, -1.97421461343765260000e-001) (67, 3.23811508715152740000e-002) (68, -4.81044314801692960000e-003) (69, 2.37662475556135180000e-002) (70, -1.20836965739727020000e-001) (71, -1.35081842541694640000e-001) (72, -1.27918392419815060000e-001) (73, 1.78817696869373320000e-002) (74, 3.20821732282638550000e-001) (75, 7.03729331493377690000e-001) (76, 5.83815515041351320000e-001) (77, 5.37761867046356200000e-001) (78, 7.76076495647430420000e-001) (79, -1.57652925699949260000e-002) (80, -4.85658384859561920000e-002) (81, -2.59388443082571030000e-002) (82, 5.03220632672309880000e-002) (83, 4.47003096342086790000e-002) (84, 2.52025336027145390000e-001) (85, 6.23662710189819340000e-001) (86, 3.36994916200637820000e-001) (87, -1.68395027518272400000e-001) (88, -1.45542219281196590000e-001) (89, 5.84769668057560920000e-003) (90, -1.58312201499938960000e-001) (91, -1.22535638511180880000e-001) (92, -1.24915048480033870000e-001) (93, -1.02047458291053770000e-001) (94, -1.15156948566436770000e-001) (95, -7.42536723613739010000e-001) (96, 3.66949409246444700000e-001) (97, -1.63704305887222290000e-001) (98, -1.73143938183784480000e-001) (99, -2.13190302252769470000e-001) (0, -1.57016217708587650000e-001) (1, -1.02870494127273560000e-001) (2, -1.82665407657623290000e-001) (3, 1.64784222841262820000e-001) (4, -3.86629319190979000000e+000) (5, -3.27723097801208500000e+000) (6, -1.20692908763885500000e+000) (7, -4.55585181713104250000e-001) (8, -4.77352201938629150000e-001) (9, -4.41928245127201080000e-002) (10, -1.21294304728508000000e-001) (11, -1.26190051436424260000e-001) (12, -1.42702251672744750000e-001) (13, -1.76271304488182070000e-001) (14, -1.25567302107810970000e-001) (15, -9.63383391499519350000e-002) (16, -4.40685413777828220000e-002) (17, 9.65955182909965520000e-002) (18, 1.40912048518657680000e-002) (19, -5.02427071332931520000e-002) (20, -9.33979153633117680000e-002) (21, -3.29537689685821530000e-002) (22, -5.95837570726871490000e-002) (23, 5.58096207678318020000e-002) (24, -1.09889626502990720000e-001) (25, -1.43593139946460720000e-002) (26, -7.54979401826858520000e-002) (27, -1.43598988652229310000e-001) (28, -2.33294386416673660000e-002) (29, 9.89249534904956820000e-003) (30, 3.06608173996210100000e-002) (31, 3.66000145673751830000e-001) (32, -3.59108783304691310000e-002) (33, -7.86731578409671780000e-003) (34, -7.83451870083808900000e-002) (35, -4.15603220462799070000e-002) (36, -4.57542128860950470000e-002) (37, 1.55734494328498840000e-002) (38, 1.49138187989592550000e-002) (39, -3.51506918668746950000e-002) (40, 1.29351720213890080000e-001) (41, -3.60705815255641940000e-002) (42, 1.46277686581015590000e-002) (43, -8.08938816189765930000e-002) (44, -6.41694804653525350000e-003) (45, -1.86395198106765750000e-001) (46, -5.94106167554855350000e-002) (47, -2.29641944169998170000e-001) (48, -3.95504236221313480000e-001) (49, -5.29980659484863280000e-001) (50, -2.25094318389892580000e-001) (51, -2.28867435455322270000e+000) (52, -6.37367129325866700000e-001) (53, -8.50182473659515380000e-002) (54, 1.52088809013366700000e+000) (55, -2.01048755645751950000e+000) (56, -4.23511207103729250000e-001) (57, -5.03138005733489990000e-001) (58, -3.84119719266891480000e-001) (59, -1.31259411573410030000e-001) (60, -3.80746901035308840000e-001) (61, -2.98352092504501340000e-001) (62, -1.90289556980133060000e-001) (63, -2.51746594905853270000e-001) (64, -1.79791823029518130000e-001) (65, -1.05297423899173740000e-001) (66, -5.84357231855392460000e-002) (67, -1.38449251651763920000e-001) (68, 6.19231387972831730000e-002) (69, -1.11519142985343930000e-001) (70, -5.71060106158256530000e-002) (71, -1.38597786426544190000e-001) (72, -1.18854202330112460000e-001) (73, -1.57795980572700500000e-001) (74, 1.82575449347496030000e-001) (75, 4.55850303173065190000e-001) (76, 6.08502328395843510000e-001) (77, 5.47686100006103520000e-001) (78, 6.52820348739624020000e-001) (79, 3.11026185750961300000e-001) (80, -2.92045599780976770000e-003) (81, 2.10702326148748400000e-002) (82, 4.48836237192153930000e-001) (83, 2.70133614540100100000e-001) (84, 7.36923635005950930000e-001) (85, 6.21282041072845460000e-001) (86, 2.69593894481658940000e-001) (87, 2.00175344944000240000e-002) (88, -5.18799945712089540000e-002) (89, -8.45413953065872190000e-002) (90, -6.59191310405731200000e-002) (91, -1.72010466456413270000e-001) (92, -8.48884508013725280000e-002) (93, -1.59676428884267810000e-002) (94, -2.18785017728805540000e-001) (95, -4.86674487590789790000e-001) (96, -6.28192663192749020000e-001) (97, -1.91402316093444820000e-001) (98, -1.54865965247154240000e-001) (99, -6.59180283546447750000e-002) (0, -5.53121507167816160000e-001) (1, -4.47661459445953370000e-001) (2, -3.38327467441558840000e-001) (3, 1.50000000000000000000e+003) (4, -4.17542800903320310000e+001) (5, -1.93344259262084960000e+000) (6, -1.46242382812500000000e+003) (7, -5.88541442871093750000e+002) (8, -1.44158837890625000000e+003) (9, -1.48955090332031250000e+003) (10, -2.09173798561096190000e+000) (11, 1.00890564918518070000e+000) (12, 4.79545086622238160000e-001) (13, -7.03497886657714840000e-001) (14, -1.06780517101287840000e+000) (15, -2.93868007659912110000e+001) (16, -3.87632522583007810000e+001) (17, -8.12201786041259770000e+000) (18, -2.42321796417236330000e+001) (19, -8.05132598876953130000e+001) (20, -6.27690505981445310000e+000) (21, -1.49999670410156250000e+003) (22, -1.49452014160156250000e+003) (23, -5.74061930179595950000e-001) (24, -3.17008584737777710000e-001) (25, -4.18943911790847780000e-001) (26, -8.49645197391510010000e-001) (27, -1.59873962402343750000e+000) (28, -3.06631469726562500000e+000) (29, -2.32704353332519530000e+000) (30, -5.91420173645019530000e+000) (31, -1.46754026412963870000e+001) (32, -3.06446576118469240000e+000) (33, -9.64028313755989070000e-002) (34, 5.84448277950286870000e-001) (35, -9.79577941894531250000e+001) (36, -1.46571826171875000000e+003) (37, -1.40707873535156250000e+003) (38, -1.45152862548828120000e+002) (39, -1.26841914653778080000e+000) (40, -1.47610795497894290000e+000) (41, -4.82494801282882690000e-001) (42, -1.76075100898742680000e+000) (43, -2.16139984130859370000e+000) (44, -7.16764307022094730000e+000) (45, -3.41063928604125980000e+000) (46, -3.20086747407913210000e-001) (47, -1.48845532226562500000e+003) (48, -1.68266540527343750000e+002) (49, -1.49385375976562500000e+003) (50, -1.49962609863281250000e+003) (51, 2.35923126339912410000e-001) (52, -2.48299837112426760000e+000) (53, 2.39460372924804690000e+002) (54, 9.90648269653320310000e+001) (55, -1.25682792663574220000e+002) (56, 2.78186988830566410000e+000) (57, 4.40980225801467900000e-001) (58, -1.87628343701362610000e-001) (59, -1.45989477539062500000e+003) (60, -2.08905959129333500000e+000) (61, -1.62727332115173340000e+000) (62, -1.33633935546875000000e+003) (63, -5.04724845886230470000e+001) (64, -1.67581436157226560000e+002) (65, -1.50367546081542970000e+001) (66, -2.48882576823234560000e-001) (67, -3.40622305870056150000e-001) (68, -3.07394218444824220000e+000) (69, -1.52542181015014650000e+001) (70, -1.35654067993164060000e+000) (71, -9.33229774236679080000e-002) (72, -4.80633773803710940000e+001) (73, -3.76491308212280270000e-001) (74, -1.30076894760131840000e+001) (75, -2.79280334472656250000e+002) (76, -7.96383514404296880000e+001) (77, -4.82095375061035160000e+001) (78, -1.34234189987182620000e+001) (79, -4.55497598648071290000e+000) (80, -7.82036733627319340000e+000) (81, -7.54329605102539060000e+001) (82, -7.73366165161132810000e+000) (83, -1.16482076644897460000e+001) (84, -1.53654861450195310000e+001) (85, -5.50370712280273440000e+001) (86, -6.38894348144531250000e+001) (87, -3.25114679336547850000e+000) (88, -6.08327331542968750000e+001) (89, -5.82939819335937500000e+002) (90, -5.54728881835937500000e+002) (91, -1.69123375415802000000e+000) (92, -5.01609659194946290000e+000) (93, -1.47312060546875000000e+003) (94, -1.46556945800781250000e+003) (95, -1.41942871093750000000e+003) (96, -1.29600817871093750000e+003) (97, 1.50000000000000000000e+003) (98, 1.49999499511718750000e+003) (99, -2.36790239810943600000e-001) (0, 3.62004727125167850000e-001) (1, 3.31165462732315060000e-001) (2, -4.42295223474502560000e-001) (3, 1.58503280639648440000e+002) (4, -5.99104003906250000000e+001) (5, -7.05269851684570310000e+001) (6, -1.03288842773437500000e+003) (7, -7.64512557983398440000e+001) (8, 1.37015094757080080000e+001) (9, 2.46433162689208980000e+001) (10, -4.92431869506835940000e+001) (11, -1.81832313537597660000e-001) (12, -4.42386627197265630000e-001) (13, -1.33147186279296870000e+002) (14, -1.42514419555664060000e+000) (15, -2.82350063323974610000e+000) (16, -3.29790306091308590000e+000) (17, -1.75179159641265870000e+000) (18, 1.77763462066650390000e+000) (19, 9.30259469896554950000e-003) (20, 4.26091480255126950000e+000) (21, -2.58242630958557130000e+000) (22, -6.49779260158538820000e-001) (23, 1.05415904521942140000e+000) (24, 1.12275803089141850000e+000) (25, 1.48392724990844730000e+000) (26, 8.32043230533599850000e-001) (27, 3.60956400632858280000e-001) (28, 4.55459737777709960000e+000) (29, 4.85148096084594730000e+000) (30, 6.55487899780273440000e+001) (31, -2.29470300674438480000e+000) (32, -4.00289118289947510000e-001) (33, 9.69334602355957030000e-001) (34, 8.28310489654541020000e-001) (35, -2.73027598857879640000e-001) (36, -1.81574332714080810000e+000) (37, -9.09404830932617190000e+001) (38, 1.87452828884124760000e+000) (39, 3.81241488456726070000e+000) (40, 4.30816316604614260000e+000) (41, 5.99306464195251460000e-001) (42, -7.77545094490051270000e-001) (43, -7.63700783252716060000e-001) (44, -7.70718812942504880000e-001) (45, 4.42254714965820310000e+001) (46, 1.49864929199218750000e+003) (47, 1.49999987792968750000e+003) (48, 1.49923376464843750000e+003) (49, -1.49985412597656250000e+003) (50, -1.49995471191406250000e+003) (51, 9.54151344299316410000e+000) (52, 3.80454368591308590000e+001) (53, 8.71170532226562500000e+002) (54, 2.75642452239990230000e+001) (55, 1.42430715560913090000e+001) (56, 1.12849178314208980000e+001) (57, 1.64713344573974610000e+001) (58, 1.98919689655303960000e+000) (59, 1.10871057510375980000e+001) (60, 1.87666053771972660000e+001) (61, 6.53256988525390620000e+000) (62, -2.05035996437072750000e+000) (63, 1.55153423547744750000e-001) (64, 7.46284484863281250000e+000) (65, 2.62308239936828610000e-001) (66, 4.00345344543457030000e+001) (67, 1.48467087745666500000e+000) (68, -7.96211600303649900000e-001) (69, 3.46471965312957760000e-002) (70, 6.81762695312500000000e+000) (71, 1.64253461360931400000e+000) (72, 6.40883398056030270000e+000) (73, 1.17884254455566410000e+000) (74, 2.45282784104347230000e-001) (75, -2.35633850097656250000e+000) (76, -1.16040408611297610000e+000) (77, -1.25783050060272220000e+000) (78, -2.50567245483398440000e+000) (79, 8.59676074981689450000e+000) (80, 1.98681139945983890000e+000) (81, 2.11382460594177250000e+000) (82, 8.69894409179687500000e+000) (83, 7.26229953765869140000e+000) (84, -2.50724124908447270000e+000) (85, -2.99578285217285160000e+000) (86, -5.35545873641967770000e+000) (87, -2.60554242134094240000e+000) (88, -3.20013809204101560000e+000) (89, -3.62080345153808590000e+001) (90, -1.79232742309570310000e+002) (91, -5.68096041679382320000e-001) (92, -1.41365480422973630000e+000) (93, -4.17799186706542970000e+000) (94, -1.48498986816406250000e+003) (95, -1.96282135009765620000e+002) (96, 1.47436113357543950000e+001) (97, 3.06874198913574220000e+001) (98, 7.81628173828125000000e+002) (99, -2.97465622425079350000e-001) (0, -3.95741045475006100000e-001) (1, -1.57496333122253420000e-001) (2, -8.10541734099388120000e-002) (3, -6.49519592285156250000e+002) (4, -1.47622778320312500000e+003) (5, -2.34304964542388920000e-001) (6, -1.45764538574218750000e+003) (7, -1.37230255126953120000e+002) (8, -1.49003479003906250000e+003) (9, -1.49587353515625000000e+003) (10, -1.40687763690948490000e+000) (11, 1.99639463424682620000e+000) (12, 2.44371867179870610000e+000) (13, -1.17373073101043700000e+000) (14, -1.23340082168579100000e+000) (15, -9.66777801513671880000e+000) (16, -9.58745574951171870000e+000) (17, -1.24071798324584960000e+001) (18, -2.67557907104492190000e+000) (19, -4.34085006713867190000e+001) (20, -5.20616645812988280000e+001) (21, -1.49357666015625000000e+003) (22, -1.49999755859375000000e+003) (23, -6.49027764797210690000e-001) (24, -3.81923705339431760000e-001) (25, -5.74696421623229980000e-001) (26, -7.07276880741119380000e-001) (27, -8.34136962890625000000e-001) (28, -1.61034417152404790000e+000) (29, -2.91310906410217290000e+000) (30, -1.10062637329101560000e+001) (31, -2.57957572937011720000e+001) (32, -5.17511796951293950000e+000) (33, 4.76954244077205660000e-002) (34, 2.60694265365600590000e-001) (35, -2.35522735595703120000e+002) (36, -1.41977258300781250000e+003) (37, -1.15786865234375000000e+003) (38, -8.37725769042968750000e+002) (39, -1.94930362701416020000e+000) (40, -1.31271386146545410000e+000) (41, -6.77576363086700440000e-001) (42, -6.92908048629760740000e-001) (43, -2.01134443283081050000e+000) (44, -2.52745294570922850000e+000) (45, -8.12586486339569090000e-001) (46, -1.96041643619537350000e-001) (47, -1.45497741699218750000e+003) (48, -7.77505035400390620000e+001) (49, -1.49997021484375000000e+003) (50, -1.49999755859375000000e+003) (51, -6.11625254154205320000e-001) (52, -1.04525695800781250000e+003) (53, 1.04882299804687500000e+003) (54, -1.58583801269531250000e+002) (55, -3.27171783447265620000e+002) (56, 1.22912193298339840000e+002) (57, 5.29333651065826420000e-001) (58, 2.16229408979415890000e-001) (59, -1.49501232910156250000e+003) (60, -3.99587135314941410000e+001) (61, -1.49999609375000000000e+003) (62, -1.35606713867187500000e+003) (63, -2.23100662231445310000e+002) (64, -6.45837707519531250000e+002) (65, -3.17392089843750000000e+002) (66, -2.26072639226913450000e-001) (67, -4.53402817249298100000e-001) (68, -4.80292558670043950000e+000) (69, -3.48589172363281250000e+001) (70, -1.48723185062408450000e+000) (71, -6.57688826322555540000e-002) (72, -2.79469573974609380000e+002) (73, -6.93029522895812990000e-001) (74, -2.55958404541015630000e+001) (75, -3.15587730407714840000e+001) (76, -1.53576240539550780000e+001) (77, -1.43910007476806640000e+001) (78, -3.44296722412109370000e+001) (79, -3.34553384780883790000e+000) (80, -3.62712383270263670000e+000) (81, -4.41096839904785160000e+001) (82, -2.95259308815002440000e+000) (83, -1.83537044525146480000e+001) (84, -3.88551025390625000000e+001) (85, -3.88335647583007810000e+001) (86, -3.67241973876953120000e+001) (87, -2.25761723518371580000e+000) (88, -1.03891396522521970000e+000) (89, -1.36233978271484370000e+002) (90, -2.46187332153320310000e+002) (91, -1.57079899311065670000e+000) (92, -9.29258632659912110000e+000) (93, -1.49999694824218750000e+003) (94, -1.49168981933593750000e+003) (95, -1.41938940429687500000e+003) (96, -1.43782775878906250000e+003) (97, 1.50000000000000000000e+003) (98, -1.17082092285156250000e+002) (99, -3.00312072038650510000e-001) (0, 7.07619011402130130000e-001) (1, 2.39017263054847720000e-001) (2, 1.26409232616424560000e-001) (3, -1.46276281738281250000e+003) (4, -1.48191601562500000000e+003) (5, -1.43835925292968750000e+003) (6, -1.43506738281250000000e+003) (7, 1.08085609436035160000e+002) (8, 2.49214363098144530000e+000) (9, 6.42514514923095700000e+000) (10, 1.49999438476562500000e+003) (11, 1.49997729492187500000e+003) (12, 1.49999951171875000000e+003) (13, 1.49997692871093750000e+003) (14, 1.49998315429687500000e+003) (15, 4.11183166503906250000e+000) (16, 1.49998632812500000000e+003) (17, 4.81507825851440430000e+000) (18, 3.14811592102050780000e+001) (19, 1.08598923683166500000e+000) (20, 1.94427049160003660000e+000) (21, 1.49989111328125000000e+003) (22, 1.49960766601562500000e+003) (23, -7.37638568878173830000e+000) (24, -1.24144027709960940000e+002) (25, 1.49986181640625000000e+003) (26, 3.26783323287963870000e+000) (27, 1.29573755264282230000e+001) (28, 1.25218009948730470000e+001) (29, 1.49580261230468750000e+003) (30, 1.48979309082031250000e+003) (31, 1.49964477539062500000e+003) (32, 1.46576477050781250000e+002) (33, -6.29049348831176760000e+000) (34, -1.43798376464843750000e+003) (35, -1.43600439453125000000e+003) (36, 3.78146911621093750000e+002) (37, 1.49999658203125000000e+003) (38, 1.85395860671997070000e+000) (39, 1.49996411132812500000e+003) (40, 2.95726776123046880000e+001) (41, 1.26423549652099610000e+000) (42, 9.46546912193298340000e-001) (43, 1.15432739257812500000e+000) (44, 8.36168587207794190000e-001) (45, -7.09313583374023440000e+000) (46, -1.43683142089843750000e+003) (47, -1.35870422363281250000e+003) (48, -1.49999914550781250000e+003) (49, -1.49999877929687500000e+003) (50, -1.49999731445312500000e+003) (51, -1.48308825683593750000e+003) (52, -5.07768341064453120000e+002) (53, 1.49782226562500000000e+003) (54, 1.50000000000000000000e+003) (55, -1.49209228515625000000e+003) (56, -1.43245837402343750000e+003) (57, 2.42607951164245610000e+000) (58, 1.50000000000000000000e+003) (59, 1.49999218750000000000e+003) (60, 1.49715454101562500000e+003) (61, 8.43005084991455080000e+000) (62, -2.77302307128906250000e+002) (63, -1.32396554946899410000e+000) (64, -4.26591911315917970000e+001) (65, -3.39987659454345700000e+000) (66, -1.47428588867187500000e+003) (67, 5.12528869628906250000e+002) (68, 7.87555277347564700000e-001) (69, 3.54850888252258300000e-001) (70, -2.53168232738971710000e-002) (71, -8.42637634277343750000e+000) (72, -4.97864055633544920000e+000) (73, 1.49983959960937500000e+003) (74, 1.49990380859375000000e+003) (75, 1.11855192184448240000e+001) (76, 1.85550737380981450000e+000) (77, 2.18227291107177730000e+000) (78, 1.60767883300781250000e+002) (79, 1.49998608398437500000e+003) (80, 9.55611648559570310000e+001) (81, 1.21931838989257810000e+000) (82, 8.69935810565948490000e-001) (83, 1.72064661979675290000e+000) (84, 5.27073907852172850000e+000) (85, 9.40487957000732420000e+000) (86, 2.06932159423828120000e+002) (87, 1.49988513183593750000e+003) (88, 9.35084533691406250000e+000) (89, 7.97719039916992190000e+001) (90, 1.49999963378906250000e+003) (91, 1.49999987792968750000e+003) (92, 1.49996386718750000000e+003) (93, 1.49954541015625000000e+003) (94, 1.49925549316406250000e+003) (95, 1.49998840332031250000e+003) (96, 1.50000000000000000000e+003) (97, -1.44037866210937500000e+003) (98, 1.49999951171875000000e+003) (99, 4.59356456995010380000e-001) (0, 4.81965541839599610000e-001) (1, 3.67788791656494140000e-001) (2, 3.07830303907394410000e-001) (3, 8.10141503810882570000e-001) (4, 1.41470575332641600000e+000) (5, -1.28254914283752440000e+000) (6, -6.85061335563659670000e-001) (7, -2.55421608686447140000e-001) (8, 1.37565955519676210000e-001) (9, 1.20931230485439300000e-001) (10, 8.87714233249425890000e-003) (11, -1.67760744690895080000e-001) (12, 2.86622762680053710000e-001) (13, 3.14173042774200440000e-001) (14, 8.99042040109634400000e-002) (15, -1.43745446205139160000e+000) (16, -8.36648344993591310000e-001) (17, 9.35255642980337140000e-003) (18, 8.88655334711074830000e-002) (19, 3.11388552188873290000e-001) (20, 4.25380170345306400000e-001) (21, 4.88900095224380490000e-001) (22, 3.00786286592483520000e-001) (23, 4.73666459321975710000e-001) (24, 3.59671622514724730000e-001) (25, 4.30645138025283810000e-001) (26, 3.22641074657440190000e-001) (27, 1.80169612169265750000e-001) (28, 1.14679716527462010000e-001) (29, 3.08640927076339720000e-001) (30, 9.14299786090850830000e-002) (31, -7.23384320735931400000e-001) (32, 2.06731110811233520000e-001) (33, 4.24806386232376100000e-001) (34, 7.07271039485931400000e-001) (35, 4.25504684448242190000e-001) (36, 4.06633585691452030000e-001) (37, 1.44679754972457890000e-001) (38, 2.01531961560249330000e-001) (39, 2.37209096550941470000e-001) (40, 1.97097033262252810000e-001) (41, -7.23521783947944640000e-002) (42, 2.57047235965728760000e-001) (43, -3.02287284284830090000e-002) (44, 1.97005003690719600000e-001) (45, 3.22632521390914920000e-001) (46, 4.52976316213607790000e-001) (47, 6.26440644264221190000e-001) (48, 2.20188945531845090000e-001) (49, 1.52181100845336910000e+000) (50, 2.99149751663208010000e-001) (51, -1.21570324897766110000e+000) (52, 1.97912991046905520000e-001) (53, 1.22977948188781740000e+000) (54, -1.50926434993743900000e+000) (55, -6.13102197647094730000e-001) (56, -1.77111253142356870000e-001) (57, 2.65532229095697400000e-002) (58, -7.40531325340271000000e-001) (59, 5.64822852611541750000e-001) (60, 1.31058371067047120000e+000) (61, 4.91909861564636230000e-001) (62, -7.84888207912445070000e-001) (63, -8.07597756385803220000e-001) (64, 5.65072917938232420000e+000) (65, 1.23013675212860110000e+000) (66, 5.90131521224975590000e-001) (67, 4.85716432332992550000e-001) (68, 3.01648318767547610000e-001) (69, -4.18367274105548860000e-002) (70, 4.22051399946212770000e-001) (71, 9.93627369403839110000e-001) (72, 8.89677524566650390000e-001) (73, 1.27675509452819820000e+000) (74, -2.54899654537439350000e-002) (75, -2.06885623931884770000e+000) (76, -2.82192373275756840000e+000) (77, -2.40558290481567380000e+000) (78, -3.42046916484832760000e-002) (79, 2.05695599317550660000e-001) (80, 4.18934762477874760000e-001) (81, 3.13643604516983030000e-001) (82, 1.63240045309066770000e-001) (83, 4.08646604046225550000e-003) (84, -1.35966479778289790000e-001) (85, -1.00900495052337650000e+000) (86, -6.40832424163818360000e-001) (87, 6.19693957269191740000e-002) (88, 4.07695174217224120000e-001) (89, 3.03299337625503540000e-001) (90, -3.39550703763961790000e-001) (91, -3.14444638788700100000e-002) (92, 2.86823928356170650000e-001) (93, 2.19317346811294560000e-001) (94, -1.08239519596099850000e+000) (95, 4.81234490871429440000e-001) (96, -1.98476076126098630000e-001) (97, 6.14351313561201100000e-003) (98, 1.01542592048645020000e-001) (99, 3.13072395324707030000e+000) (0, -1.44275933504104610000e-001) (1, -3.20188887417316440000e-002) (2, -1.57319679856300350000e-001) (3, -2.15451049804687500000e+000) (4, -1.47674667835235600000e+000) (5, 2.59583258628845210000e+000) (6, 2.27445673942565920000e+000) (7, -1.52255579829216000000e-001) (8, -3.22502523660659790000e-001) (9, 1.27800419926643370000e-001) (10, -1.12166209146380420000e-002) (11, -4.51427325606346130000e-002) (12, -7.04555287957191470000e-002) (13, 5.78450746834278110000e-002) (14, -7.08717852830886840000e-002) (15, 1.31795555353164670000e-001) (16, 1.79084360599517820000e-001) (17, 1.85041829943656920000e-001) (18, -8.69659185409545900000e-002) (19, -2.04063296318054200000e-001) (20, -1.22171096503734590000e-001) (21, -4.06747013330459590000e-001) (22, -1.63162183761596680000e+000) (23, -2.15283438563346860000e-001) (24, -1.22206799685955050000e-001) (25, -1.14731438457965850000e-001) (26, -1.82632535696029660000e-001) (27, -1.31919831037521360000e-001) (28, 5.77559359371662140000e-002) (29, -1.98917798697948460000e-002) (30, 1.34994417428970340000e-001) (31, 1.41436100006103520000e-001) (32, 1.40914052724838260000e-001) (33, 5.38011789321899410000e-002) (34, -5.16336679458618160000e-001) (35, -5.38243055343627930000e-001) (36, -6.03504896163940430000e-001) (37, -2.44659066200256350000e-001) (38, -4.76505160331726070000e-002) (39, -6.90437480807304380000e-002) (40, 6.76965415477752690000e-002) (41, -1.35077424347400670000e-002) (42, -1.29829747602343560000e-002) (43, -6.27887845039367680000e-002) (44, -5.56357316672801970000e-002) (45, -1.64754539728164670000e-001) (46, -4.93490487337112430000e-001) (47, -7.04600393772125240000e-001) (48, 2.16172769665718080000e-001) (49, -3.04179685190320010000e-003) (50, -6.67835474014282230000e-002) (51, 1.27552878856658940000e+000) (52, -8.65629076957702640000e-001) (53, 5.87860941886901860000e-001) (54, -8.52009594440460210000e-001) (55, 1.96035847067832950000e-001) (56, -9.38485145568847660000e-001) (57, 1.18959736824035640000e+000) (58, 2.27435573935508730000e-001) (59, -2.69130349159240720000e-001) (60, -1.36828765273094180000e-001) (61, -1.30682468414306640000e-001) (62, -3.41486960649490360000e-001) (63, -4.82148557901382450000e-001) (64, -7.62614011764526370000e-001) (65, -3.41736674308776860000e-001) (66, -2.76586413383483890000e-001) (67, -2.64095574617385860000e-001) (68, 5.35183586180210110000e-002) (69, 4.31724963709712030000e-003) (70, -2.02331803739070890000e-002) (71, -2.55122423171997070000e-001) (72, -1.61089867353439330000e-001) (73, -1.82781547307968140000e-001) (74, 2.88734197616577150000e-001) (75, 8.60904216766357420000e-001) (76, 6.95544660091400150000e-001) (77, 7.49586462974548340000e-001) (78, 7.68616974353790280000e-001) (79, 1.03943049907684330000e-002) (80, -3.09512093663215640000e-002) (81, -1.46801427006721500000e-001) (82, -6.13295249640941620000e-002) (83, 3.13239455223083500000e-001) (84, 8.41183960437774660000e-001) (85, 8.60037446022033690000e-001) (86, 3.45312446355819700000e-001) (87, -1.53837436810135840000e-002) (88, -3.25165122747421260000e-001) (89, -3.05846184492111210000e-001) (90, -2.94354464858770370000e-002) (91, 6.00086562335491180000e-002) (92, -4.64593432843685150000e-002) (93, 1.11624654382467270000e-002) (94, 7.93828368186950680000e-002) (95, 3.64815503358840940000e-001) (96, 4.06913489103317260000e-001) (97, 6.13024830818176270000e-002) (98, 4.86463099718093870000e-001) (99, -9.91995429992675780000e+000) (0, 1.98765695095062260000e-001) (1, 3.41722935438156130000e-001) (2, 2.16322675347328190000e-001) (3, -1.22754347324371340000e+000) (4, 2.73428469896316530000e-001) (5, -2.06427574157714840000e+000) (6, 2.88904905319213870000e-001) (7, 3.09140712022781370000e-001) (8, 2.24094375967979430000e-001) (9, 1.11261852085590360000e-001) (10, -1.72031664848327640000e+000) (11, -1.50830042362213130000e+000) (12, 7.90093690156936650000e-002) (13, -1.99630820751190190000e+000) (14, -4.22362178564071660000e-001) (15, -9.15040254592895510000e-001) (16, -4.56668399274349210000e-002) (17, 3.02320182323455810000e-001) (18, 2.37144172191619870000e-001) (19, 3.46161603927612300000e-001) (20, 2.78063297271728520000e-001) (21, 3.22925776243209840000e-001) (22, 1.80073902010917660000e-001) (23, 2.21814051270484920000e-001) (24, 2.87245929241180420000e-001) (25, 1.84365093708038330000e-001) (26, 2.42827281355857850000e-001) (27, 2.42914244532585140000e-001) (28, 9.92482826113700870000e-002) (29, 2.77048677206039430000e-001) (30, 2.94529408216476440000e-001) (31, -1.12833842635154720000e-001) (32, 2.84777641296386720000e-001) (33, 2.97116726636886600000e-001) (34, 4.72492665052413940000e-001) (35, 5.54698526859283450000e-001) (36, 3.43017101287841800000e-001) (37, 2.41654276847839360000e-001) (38, 2.40485340356826780000e-001) (39, 2.56905227899551390000e-001) (40, 2.06005826592445370000e-001) (41, 2.94959604740142820000e-001) (42, 2.88801729679107670000e-001) (43, 1.64096057415008540000e-001) (44, 2.27146968245506290000e-001) (45, 1.12236045300960540000e-001) (46, 3.00629287958145140000e-001) (47, 2.86326408386230470000e-001) (48, 2.04015091061592100000e-001) (49, 2.17477515339851380000e-001) (50, 2.21410006284713750000e-001) (51, -3.64668726921081540000e-001) (52, -2.94949114322662350000e-001) (53, 1.90535652637481690000e+000) (54, 1.86073988676071170000e-001) (55, 3.63789051771163940000e-001) (56, 3.08757036924362180000e-001) (57, 1.47458434104919430000e-001) (58, -3.22326469421386720000e+000) (59, -1.03002585470676420000e-001) (60, 2.30060294270515440000e-001) (61, 2.50203132629394530000e-001) (62, 3.86358082294464110000e-001) (63, 4.07060921192169190000e-001) (64, 1.07282104492187500000e+001) (65, 8.87336492538452150000e-001) (66, 2.85691171884536740000e-001) (67, 3.15497756004333500000e-001) (68, 2.51590996980667110000e-001) (69, 2.07416594028472900000e-001) (70, 3.04646015167236330000e-001) (71, 2.81967818737030030000e-001) (72, 2.03243470191955570000e+000) (73, 2.50460147857666020000e-001) (74, 2.20227271318435670000e-001) (75, -5.89910554885864260000e+000) (76, -1.87965714931488040000e+000) (77, -1.61327946186065670000e+000) (78, -1.67983338236808780000e-001) (79, 2.70884513854980470000e-001) (80, 2.70371377468109130000e-001) (81, 3.27415823936462400000e-001) (82, 2.75735408067703250000e-001) (83, 1.73222765326499940000e-001) (84, 7.47687593102455140000e-002) (85, -1.12495884299278260000e-001) (86, -7.47149139642715450000e-002) (87, 1.66813075542449950000e-001) (88, 2.22113415598869320000e-001) (89, 3.08778524398803710000e-001) (90, -1.33925244212150570000e-001) (91, 6.17604330182075500000e-002) (92, 2.81967669725418090000e-001) (93, 3.00949960947036740000e-001) (94, 2.55588740110397340000e-001) (95, 1.81724593043327330000e-001) (96, 3.38659584522247310000e-001) (97, 2.07755956798791890000e-002) (98, 6.73529133200645450000e-002) (99, 6.56641185283660890000e-001) (0, -2.06026196479797360000e+000) (1, -1.93664610385894780000e+000) (2, -3.34724578857421870000e+001) (3, -1.49993554687500000000e+003) (4, -1.49510437011718750000e+003) (5, -1.49973864746093750000e+003) (6, -1.33249243164062500000e+003) (7, -1.49682092285156250000e+003) (8, -1.49278906250000000000e+003) (9, -1.49895239257812500000e+003) (10, -1.49675781250000000000e+003) (11, -1.77416858673095700000e+001) (12, -6.56536331176757810000e+001) (13, -1.49999755859375000000e+003) (14, -1.49999902343750000000e+003) (15, -1.49999914550781250000e+003) (16, -1.49999914550781250000e+003) (17, -9.87674438476562500000e+002) (18, -1.49999658203125000000e+003) (19, -1.61930274963378910000e+000) (20, -2.85925936698913570000e+000) (21, -1.49843457031250000000e+003) (22, -1.49999877929687500000e+003) (23, -8.57830703258514400000e-001) (24, -1.02356243133544920000e+000) (25, -1.30974054336547850000e+000) (26, -1.37368631362915040000e+000) (27, -1.49790002441406250000e+003) (28, -1.47726660156250000000e+003) (29, -3.39511752128601070000e+000) (30, -2.69718551635742190000e+000) (31, -6.25263786315917970000e+000) (32, -2.01376914978027340000e+000) (33, -1.33380973339080810000e+000) (34, -1.57285809516906740000e-001) (35, 7.44431078433990480000e-001) (36, -1.48522644042968750000e+003) (37, -1.25974011230468750000e+003) (38, -5.53029489517211910000e+000) (39, -2.21082353591918950000e+000) (40, -1.99953210353851320000e+000) (41, -3.56828784942626950000e+000) (42, -1.02447872161865230000e+001) (43, -1.49809851074218750000e+003) (44, -1.49477050781250000000e+003) (45, -1.49973095703125000000e+003) (46, -1.49813928222656250000e+003) (47, -1.49856738281250000000e+003) (48, -1.49782763671875000000e+003) (49, -1.49861975097656250000e+003) (50, -1.49409790039062500000e+003) (51, 1.50000000000000000000e+003) (52, -1.44147045898437500000e+003) (53, -1.81611679077148440000e+002) (54, -2.15558910369873050000e+001) (55, -1.48330249023437500000e+003) (56, -1.49415258789062500000e+003) (57, -1.49976818847656250000e+003) (58, -1.46676135253906250000e+003) (59, -1.49999658203125000000e+003) (60, -1.44781506061553960000e+000) (61, -7.98213481903076170000e-001) (62, -9.69131529331207280000e-001) (63, -8.24192106723785400000e-001) (64, 2.83956706523895260000e-001) (65, 4.15441334247589110000e-001) (66, 6.77263513207435610000e-002) (67, -1.39552211761474610000e+000) (68, -2.14617324829101560000e+002) (69, -1.41626977539062500000e+003) (70, -1.77781617641448970000e+000) (71, -7.14546322822570800000e-001) (72, -8.60025584697723390000e-001) (73, -4.48356002569198610000e-001) (74, -9.58699401855468750000e+002) (75, -1.49999938964843750000e+003) (76, -1.49999890136718750000e+003) (77, -1.48261914062500000000e+003) (78, -1.49711865234375000000e+003) (79, -5.18288345336914060000e+001) (80, -2.09713959693908690000e+000) (81, -1.79431724548339840000e+000) (82, -2.29256744384765620000e+002) (83, -9.09212158203125000000e+002) (84, -1.49999914550781250000e+003) (85, -1.49343127441406250000e+003) (86, -1.49999963378906250000e+003) (87, -1.49999963378906250000e+003) (88, -1.18958129882812500000e+003) (89, -1.49999938964843750000e+003) (90, -1.49840661621093750000e+003) (91, -1.49869055175781250000e+003) (92, -1.48171423339843750000e+003) (93, -1.49999536132812500000e+003) (94, -1.49999768066406250000e+003) (95, -1.49895849609375000000e+003) (96, -1.49660852050781250000e+003) (97, 1.16962652206420900000e+001) (98, 6.52483034133911130000e+000) (99, -8.10389995574951170000e-001) (0, -2.63446211814880370000e-001) (1, -4.43932592868804930000e-001) (2, -8.65356445312500000000e-001) (3, 1.34504223632812500000e+003) (4, 5.38412597656250000000e+002) (5, 1.32411376953125000000e+003) (6, -1.09955725097656250000e+003) (7, 1.20851409912109370000e+002) (8, -2.35482597351074220000e+001) (9, -4.19400167465209960000e+000) (10, -1.49818420410156250000e+003) (11, -1.48848254394531250000e+003) (12, -8.03588256835937500000e+002) (13, 1.25210704803466800000e+001) (14, -8.29836181640625000000e+002) (15, -7.11966796875000000000e+002) (16, -3.43087196350097660000e+001) (17, -1.41317596435546880000e+002) (18, -2.23099723458290100000e-001) (19, -3.35934132337570190000e-001) (20, -5.46952664852142330000e-001) (21, -1.49999719238281250000e+003) (22, -1.49999865722656250000e+003) (23, -1.33815429687500000000e+003) (24, -1.49203344726562500000e+003) (25, -9.86045265197753910000e+000) (26, -1.02755320072174070000e+000) (27, -1.16549873352050780000e+002) (28, -1.49665991210937500000e+003) (29, -1.49651000976562500000e+003) (30, -1.49107568359375000000e+003) (31, -1.49944665527343750000e+003) (32, -1.48906494140625000000e+003) (33, -1.29987634277343750000e+003) (34, -1.33162512207031250000e+003) (35, -1.45478002929687500000e+003) (36, -1.49154931640625000000e+003) (37, -4.44760560989379880000e+000) (38, 3.14509086608886720000e+001) (39, -1.06541735839843750000e+003) (40, -4.57325500488281250000e+002) (41, -2.17759735107421870000e+002) (42, -1.24594775390625000000e+003) (43, -1.49618029785156250000e+003) (44, -1.07338531494140620000e+002) (45, -1.49999902343750000000e+003) (46, -1.47957043457031250000e+003) (47, -1.49999572753906250000e+003) (48, -1.49999182128906250000e+003) (49, -1.49833923339843750000e+003) (50, -1.49999279785156250000e+003) (51, 1.14142749023437500000e+003) (52, 1.49543969726562500000e+003) (53, 1.49293200683593750000e+003) (54, 1.24400512695312500000e+003) (55, 1.49999902343750000000e+003) (56, 1.49993127441406250000e+003) (57, 2.56955604553222660000e+001) (58, -1.49106518554687500000e+003) (59, -1.49274011230468750000e+003) (60, -1.49925061035156250000e+003) (61, -7.04605163574218750000e+002) (62, -1.49999890136718750000e+003) (63, -5.17434000968933110000e-001) (64, -1.03368103504180910000e+000) (65, -7.39670574665069580000e-001) (66, -1.49510571289062500000e+003) (67, -1.49513684082031250000e+003) (68, -1.49466284179687500000e+003) (69, -3.13977870941162110000e+001) (70, 5.84535636007785800000e-002) (71, 2.60758399963378910000e-001) (72, -2.24440798163414000000e-001) (73, -1.49055065917968750000e+003) (74, -1.49014001464843750000e+003) (75, -1.49397180175781250000e+003) (76, -3.32691955566406250000e+001) (77, -1.49200592041015630000e+001) (78, -3.19558029174804690000e+001) (79, -4.28043174743652340000e+000) (80, -2.74079650878906250000e+002) (81, -1.49835290527343750000e+003) (82, -8.70032775878906250000e+002) (83, -1.54512453079223630000e+001) (84, -1.49424475097656250000e+003) (85, -1.49742956542968750000e+003) (86, -1.49659875488281250000e+003) (87, 3.01975822448730470000e+000) (88, -6.00338757038116460000e-001) (89, -1.49112670898437500000e+003) (90, -1.49939318847656250000e+003) (91, -1.49601037597656250000e+003) (92, -1.49534069824218750000e+003) (93, -1.49744104003906250000e+003) (94, -1.47877050781250000000e+003) (95, -1.48564562988281250000e+003) (96, -1.43359704589843750000e+003) (97, -9.14284133911132810000e+000) (98, -8.03897247314453130000e+001) (99, -3.71997579932212830000e-002) (0, 6.94035552442073820000e-003) (1, -5.74843324720859530000e-002) (2, -2.11331829428672790000e-001) (3, -6.72282159328460690000e-001) (4, -3.42289417982101440000e-001) (5, -6.76862955093383790000e-001) (6, -5.10890781879425050000e-001) (7, -3.16411346197128300000e-001) (8, -2.18296661972999570000e-001) (9, -7.90346637368202210000e-002) (10, -3.18510420620441440000e-002) (11, -1.36327549815177920000e-001) (12, -2.35166065394878390000e-002) (13, -3.21956798434257510000e-002) (14, -1.51056885719299320000e-001) (15, 1.01878032088279720000e-001) (16, 1.04373000562191010000e-001) (17, 1.12374514341354370000e-001) (18, 2.28029862046241760000e-002) (19, 1.62812933325767520000e-001) (20, 1.04053802788257600000e-002) (21, -5.98481521010398860000e-002) (22, -2.06994235515594480000e-001) (23, -7.45404586195945740000e-002) (24, -9.43127200007438660000e-002) (25, -9.16531383991241460000e-002) (26, -8.49158465862274170000e-002) (27, -3.37238796055316930000e-002) (28, 3.64866405725479130000e-002) (29, 8.17691162228584290000e-002) (30, 1.39457300305366520000e-001) (31, 3.13128739595413210000e-001) (32, 1.05858445167541500000e-001) (33, -6.50424063205718990000e-002) (34, -1.00724808871746060000e-001) (35, -1.48778170347213750000e-001) (36, -1.03535287082195280000e-001) (37, -1.29068866372108460000e-001) (38, 1.78368352353572850000e-002) (39, 2.66296770423650740000e-002) (40, 1.49435773491859440000e-001) (41, 9.99668762087821960000e-002) (42, 1.55593501403927800000e-004) (43, -9.11794900894165040000e-002) (44, -3.87247242033481600000e-002) (45, -6.31921961903572080000e-002) (46, -3.95102649927139280000e-002) (47, -3.54024261236190800000e-001) (48, -3.81521731615066530000e-001) (49, -1.74556478857994080000e-001) (50, -3.84822368621826170000e-001) (51, -4.08156365156173710000e-001) (52, -4.78324592113494870000e-001) (53, -3.35436612367630000000e-001) (54, -1.52735376358032230000e+000) (55, -7.13837921619415280000e-001) (56, -2.38942652940750120000e-001) (57, -1.85117632150650020000e-001) (58, -2.29159712791442870000e-001) (59, -8.21090042591094970000e-002) (60, -3.45834970474243160000e-001) (61, -3.84321749210357670000e-001) (62, -9.82983782887458800000e-002) (63, -9.48461815714836120000e-002) (64, -1.65791451930999760000e-001) (65, -8.90046358108520510000e-002) (66, -1.69826239347457890000e-001) (67, 5.23891709744930270000e-002) (68, 9.77503955364227290000e-002) (69, 1.30721330642700200000e-001) (70, 1.25076368451118470000e-001) (71, 4.65353727340698240000e-002) (72, 3.81230213679373260000e-003) (73, 3.44719388522207740000e-003) (74, 3.91096353530883790000e-001) (75, 9.11701083183288570000e-001) (76, 7.79003202915191650000e-001) (77, 7.21203446388244630000e-001) (78, 8.70546936988830570000e-001) (79, 3.01586478948593140000e-001) (80, -7.58687034249305730000e-003) (81, 1.09691813588142400000e-001) (82, 3.66153359413146970000e-001) (83, 4.34236556291580200000e-001) (84, 9.43146526813507080000e-001) (85, 8.17371010780334470000e-001) (86, 3.03235411643981930000e-001) (87, -1.20045067742466930000e-002) (88, -1.14050567150115970000e-001) (89, -1.94014444947242740000e-001) (90, -1.26466408371925350000e-001) (91, -1.01597338914871220000e-001) (92, -1.12203307449817660000e-001) (93, -1.65309488773345950000e-001) (94, -1.59312665462493900000e-001) (95, -2.53619283437728880000e-001) (96, -3.42012584209442140000e-001) (97, -3.44116002321243290000e-001) (98, -1.17455989122390750000e-001) (99, -3.62567827105522160000e-002) (0, 6.73812329769134520000e-001) (1, 7.31973648071289060000e-001) (2, 6.26898705959320070000e-001) (3, -7.86001443862915040000e-001) (4, -4.00211364030838010000e-001) (5, -1.79532468318939210000e+000) (6, 5.84838747978210450000e-001) (7, 5.92629909515380860000e-001) (8, 4.40739810466766360000e-001) (9, 3.38913619518280030000e-001) (10, -7.15195417404174800000e-001) (11, 2.89880573749542240000e-001) (12, 4.65350240468978880000e-001) (13, -2.06043481826782230000e+000) (14, -2.35685616731643680000e-001) (15, 1.08306378126144410000e-001) (16, 7.53889083862304690000e-002) (17, 6.41808748245239260000e-001) (18, 6.80638134479522710000e-001) (19, 6.86364352703094480000e-001) (20, 7.01581239700317380000e-001) (21, -2.47918590903282170000e-001) (22, 4.44438345730304720000e-002) (23, 8.60199451446533200000e-001) (24, 8.71278226375579830000e-001) (25, 8.17026555538177490000e-001) (26, 6.71841979026794430000e-001) (27, 5.87243854999542240000e-001) (28, 6.08551800251007080000e-001) (29, 6.45206034183502200000e-001) (30, 5.38411922752857210000e-002) (31, -1.23609268665313720000e+000) (32, 7.07023382186889650000e-001) (33, 6.32063388824462890000e-001) (34, 1.05204737186431880000e+000) (35, 8.84227693080902100000e-001) (36, 6.13082945346832280000e-001) (37, 6.77123367786407470000e-001) (38, 7.64100670814514160000e-001) (39, 9.97830390930175780000e-001) (40, 9.52960550785064700000e-001) (41, 8.64076733589172360000e-001) (42, 7.52297699451446530000e-001) (43, 1.75457134842872620000e-001) (44, 1.74081891775131230000e-001) (45, 6.70976042747497560000e-001) (46, 6.08249485492706300000e-001) (47, 5.50249397754669190000e-001) (48, 3.52092623710632320000e-001) (49, -2.37944602966308590000e-001) (50, -1.41109764575958250000e+000) (51, -4.98598396778106690000e-001) (52, 1.32845252752304080000e-001) (53, 8.54529067873954770000e-002) (54, 2.03980177640914920000e-001) (55, 3.23605388402938840000e-001) (56, 6.09923124313354490000e-001) (57, 4.73865628242492680000e-001) (58, -1.74690937995910640000e+000) (59, 2.07094535231590270000e-001) (60, 1.35723543167114260000e+000) (61, 1.21544682979583740000e+000) (62, 1.02545189857482910000e+000) (63, 9.19532358646392820000e-001) (64, 8.89581918716430660000e-001) (65, 9.84590232372283940000e-001) (66, 1.03928720951080320000e+000) (67, 7.81558871269226070000e-001) (68, 7.29679703712463380000e-001) (69, 5.00558018684387210000e-001) (70, 7.63174116611480710000e-001) (71, 1.03220975399017330000e+000) (72, 1.81953704357147220000e+000) (73, 9.56703007221221920000e-001) (74, 6.03893339633941650000e-001) (75, -2.34376382827758790000e+000) (76, -6.85405349731445310000e+000) (77, -6.77710723876953120000e+000) (78, -1.00040078163146970000e+000) (79, 4.36193078756332400000e-001) (80, 6.77930295467376710000e-001) (81, 6.86497569084167480000e-001) (82, 6.48187100887298580000e-001) (83, 5.96591293811798100000e-001) (84, -2.82326847314834590000e-001) (85, -1.44646716117858890000e+000) (86, -3.52444887161254880000e-001) (87, 6.37036561965942380000e-001) (88, 7.39503622055053710000e-001) (89, 8.82135450839996340000e-001) (90, 6.59614682197570800000e-001) (91, 6.57550275325775150000e-001) (92, 8.63879978656768800000e-001) (93, 8.91743361949920650000e-001) (94, 5.54755687713623050000e-001) (95, 6.36657178401947020000e-001) (96, -6.04821324348449710000e-001) (97, -9.13322269916534420000e-002) (98, 3.46560589969158170000e-002) (99, 1.14285886287689210000e+000) (0, -1.28933072090148930000e-001) (1, -1.56871184706687930000e-001) (2, -1.92753866314888000000e-001) (3, 5.98965311050415040000e+000) (4, 1.51047921180725100000e+000) (5, 2.68799960613250730000e-001) (6, 7.43010997772216800000e-001) (7, 9.38164591789245610000e-002) (8, 5.08111491799354550000e-002) (9, 8.73922109603881840000e-002) (10, 6.04029558598995210000e-003) (11, -1.25427231192588810000e-001) (12, -6.43917992711067200000e-002) (13, -6.99495971202850340000e-002) (14, -7.05586001276969910000e-002) (15, -2.25459516048431400000e-001) (16, -1.09742239117622380000e-001) (17, -5.63322491943836210000e-002) (18, -2.04979971051216130000e-001) (19, -1.70427888631820680000e-001) (20, -2.36055344343185420000e-001) (21, -2.17384546995162960000e-001) (22, -1.03762075304985050000e-001) (23, -9.59339067339897160000e-002) (24, 5.19234798848629000000e-002) (25, -8.17510932683944700000e-002) (26, -6.59177675843238830000e-002) (27, -7.45028778910636900000e-002) (28, -7.54234194755554200000e-002) (29, -9.24992375075817110000e-004) (30, -7.45759308338165280000e-002) (31, -2.81708054244518280000e-002) (32, -2.36534535884857180000e-001) (33, -1.55214682221412660000e-001) (34, -1.96602582931518550000e-001) (35, -2.31082960963249210000e-001) (36, -8.14438462257385250000e-002) (37, -1.63258373737335210000e-001) (38, -8.20498019456863400000e-002) (39, -3.91704179346561430000e-002) (40, -1.49503082036972050000e-001) (41, -1.35950982570648190000e-001) (42, -2.07969903945922850000e-001) (43, -1.83340266346931460000e-001) (44, -2.47352775186300280000e-002) (45, -1.16041436791419980000e-001) (46, -1.38655379414558410000e-001) (47, -1.78264062851667400000e-002) (48, -1.14906728267669680000e-001) (49, -1.27377629280090330000e-001) (50, -2.12968930602073670000e-001) (51, 3.63586962223052980000e-001) (52, 7.95940220355987550000e-001) (53, 8.83624255657196040000e-001) (54, 2.71236866712570190000e-001) (55, 9.29888069629669190000e-001) (56, 9.06289145350456240000e-002) (57, 6.18022046983242030000e-002) (58, 1.81906953454017640000e-001) (59, 2.49999895691871640000e-001) (60, 4.25092488527297970000e-001) (61, 1.32407873868942260000e-001) (62, 3.24886478483676910000e-002) (63, -1.56811270862817760000e-002) (64, -1.60349950194358830000e-001) (65, -1.96985751390457150000e-001) (66, -1.53624832630157470000e-001) (67, -1.30449101328849790000e-001) (68, -7.14743211865425110000e-002) (69, -1.57403126358985900000e-001) (70, -5.47097474336624150000e-002) (71, -6.35018795728683470000e-002) (72, -1.77498579025268550000e-001) (73, -1.56924322247505190000e-001) (74, -2.33903229236602780000e-001) (75, -2.65926659107208250000e-001) (76, -1.68553456664085390000e-001) (77, -1.85471862554550170000e-001) (78, -2.32157617807388310000e-001) (79, -2.87252753973007200000e-001) (80, -1.07309043407440190000e-001) (81, 3.14884781837463380000e-002) (82, -1.49203345179557800000e-001) (83, -1.18427313864231110000e-001) (84, -1.56108587980270390000e-001) (85, -2.65935599803924560000e-001) (86, -4.03686702251434330000e-001) (87, -2.62211233377456670000e-001) (88, -2.03514486551284790000e-001) (89, -1.61237210035324100000e-001) (90, -1.51537522673606870000e-001) (91, -4.76922802627086640000e-002) (92, -1.10457435250282290000e-001) (93, -2.29483470320701600000e-001) (94, -1.79732516407966610000e-001) (95, 8.76619666814804080000e-002) (96, -9.42466873675584790000e-003) (97, 3.07727456092834470000e-001) (98, 2.84056186676025390000e-001) (99, 8.37573632597923280000e-002) (0, 6.86153888702392580000e-001) (1, 6.88620030879974370000e-001) (2, 6.07542097568511960000e-001) (3, -1.22287392616271970000e+000) (4, -7.15252876281738280000e-001) (5, -4.98079061508178710000e+000) (6, -2.50884971618652340000e+001) (7, -1.23192524909973140000e+000) (8, -1.97205507755279540000e+000) (9, -4.20463562011718750000e+000) (10, -6.55245304107666020000e+000) (11, 1.24267184734344480000e+000) (12, 4.84360009431838990000e-001) (13, 1.54168844223022460000e-001) (14, 3.64766605198383330000e-002) (15, -3.51975619792938230000e-001) (16, -2.21456810832023620000e-001) (17, 4.28775548934936520000e-001) (18, 5.47387123107910160000e-001) (19, 5.35815179347991940000e-001) (20, 5.75135171413421630000e-001) (21, -9.55865502357482910000e-001) (22, -4.78860437870025630000e-001) (23, 9.59452271461486820000e-001) (24, 2.33834195137023930000e+000) (25, 9.51444029808044430000e-001) (26, 6.50620222091674800000e-001) (27, 4.05820429325103760000e-001) (28, 4.61185961961746220000e-001) (29, 1.05934858322143550000e+000) (30, 7.86404132843017580000e-001) (31, 2.06519793719053270000e-002) (32, 8.10522675514221190000e-001) (33, 8.88000786304473880000e-001) (34, 1.36994075775146480000e+000) (35, 1.77773296833038330000e+000) (36, -8.50486516952514650000e-001) (37, 3.76809477806091310000e-001) (38, 6.04306995868682860000e-001) (39, 6.01779103279113770000e-001) (40, 6.38545155525207520000e-001) (41, 4.21067804098129270000e-001) (42, 4.47813510894775390000e-001) (43, 3.37413817644119260000e-001) (44, 4.07803803682327270000e-001) (45, 6.15744888782501220000e-001) (46, 3.82756948471069340000e-001) (47, 7.35037803649902340000e-001) (48, 1.34666788578033450000e+000) (49, 1.50000000000000000000e+003) (50, 1.49999963378906250000e+003) (51, -7.98710212111473080000e-002) (52, 1.23280107975006100000e+000) (53, 4.56782579421997070000e-001) (54, 4.50480222702026370000e+000) (55, 2.15632009506225590000e+000) (56, 3.81812019348144530000e+001) (57, -7.89756298065185550000e+000) (58, -1.04285752773284910000e+000) (59, -1.74850406646728520000e+001) (60, 9.36349153518676760000e-001) (61, 9.17674422264099120000e-001) (62, 9.09325897693634030000e-001) (63, 9.56527411937713620000e-001) (64, 4.35394811630249020000e+000) (65, 2.01269817352294920000e+000) (66, 1.98945951461791990000e+000) (67, 1.02447187900543210000e+000) (68, 7.09110558032989500000e-001) (69, 5.69596529006958010000e-001) (70, 6.34071111679077150000e-001) (71, 9.42998409271240230000e-001) (72, 1.66840791702270510000e+000) (73, 1.27814602851867680000e+000) (74, 1.16512906551361080000e+000) (75, -3.53834271430969240000e+000) (76, -3.29035902023315430000e+000) (77, -3.41949343681335450000e+000) (78, -6.94932639598846440000e-001) (79, 1.78448721766471860000e-001) (80, 5.79960405826568600000e-001) (81, 5.35170555114746090000e-001) (82, 5.06354749202728270000e-001) (83, 3.21638882160186770000e-001) (84, -1.22186183929443360000e-001) (85, -9.03680860996246340000e-001) (86, -3.06522667407989500000e-001) (87, 1.99174746870994570000e-001) (88, 3.39544475078582760000e-001) (89, 6.16506636142730710000e-001) (90, -5.68351268768310550000e-001) (91, -6.88417255878448490000e-001) (92, -9.45498514920473100000e-003) (93, 3.60367214307188990000e-003) (94, -4.70896911621093750000e+000) (95, -1.18272936344146730000e+000) (96, 9.07479166984558110000e-001) (97, 1.09302771091461180000e+000) (98, 1.38920927047729490000e+000) (99, 1.85011844635009770000e+001) (0, -2.02486649155616760000e-001) (1, -2.57151961326599120000e-001) (2, -5.24904251098632810000e-001) (3, -1.47824841308593750000e+003) (4, -1.49164367675781250000e+003) (5, -2.88149148225784300000e-001) (6, -1.47509960937500000000e+003) (7, -1.41957763671875000000e+003) (8, -1.49984558105468750000e+003) (9, -1.47725317382812500000e+003) (10, -4.63631677627563480000e+000) (11, 2.67372876405715940000e-001) (12, 8.99965405464172360000e-001) (13, -2.38820120692253110000e-001) (14, -7.66489446163177490000e-001) (15, -1.85842299461364750000e+000) (16, -1.74982059001922610000e+000) (17, -8.26761364936828610000e-001) (18, -1.44691360473632810000e+002) (19, -1.02761245727539060000e+002) (20, -7.79620971679687500000e+001) (21, -1.44211560058593750000e+003) (22, -1.44294433593750000000e+003) (23, -5.87176024913787840000e-001) (24, -2.70467221736907960000e-001) (25, -3.19547057151794430000e-001) (26, -6.23512148857116700000e-001) (27, -8.82010936737060550000e+000) (28, -2.12377071380615230000e+000) (29, -1.95753204822540280000e+000) (30, -2.72361946105957030000e+000) (31, -2.06685876846313480000e+000) (32, -9.58657920360565190000e-001) (33, -1.18832297623157500000e-001) (34, 7.62330070137977600000e-002) (35, -2.35408325195312500000e+002) (36, -1.03414807128906250000e+003) (37, -1.48763842773437500000e+003) (38, -1.02615966796875000000e+003) (39, -6.87540829181671140000e-001) (40, -5.92212498188018800000e-001) (41, -3.84714215993881230000e-001) (42, -1.48787677288055420000e+000) (43, -3.21171665191650390000e+000) (44, -9.82012748718261720000e+000) (45, -4.64841270446777340000e+000) (46, -4.68583059310913090000e+000) (47, -1.45894091796875000000e+003) (48, -4.49091522216796870000e+002) (49, -1.49970581054687500000e+003) (50, -1.48147546386718750000e+003) (51, -1.09381103515625000000e+000) (52, -3.13331146240234370000e+002) (53, -2.25922561645507810000e+002) (54, -5.69794120788574220000e+001) (55, -1.02111193847656250000e+003) (56, 6.40492431640625000000e+002) (57, -3.54636311531066890000e-001) (58, -5.55479466915130620000e-001) (59, -1.49979614257812500000e+003) (60, -1.48785803222656250000e+003) (61, -9.33967494964599610000e+000) (62, -1.49293688964843750000e+003) (63, -1.68244888305664060000e+002) (64, -5.74763298034667970000e+001) (65, -9.64055156707763670000e+000) (66, -6.18823647499084470000e-001) (67, -1.52285501360893250000e-001) (68, -4.86274898052215580000e-001) (69, -1.07623589038848880000e+000) (70, -7.15921819210052490000e-001) (71, -3.50643962621688840000e-001) (72, -1.04535522460937500000e+001) (73, -2.39719653129577640000e+000) (74, -4.89446222782135010000e-001) (75, -2.18630599975585940000e+001) (76, -1.04285755157470700000e+001) (77, -1.55623805522918700000e+000) (78, -1.70640718936920170000e+000) (79, -9.99401450157165530000e-001) (80, -1.42582368850708010000e+001) (81, -4.25978363037109380000e+002) (82, -1.14327692985534670000e+000) (83, -8.92838597297668460000e-001) (84, -1.85659348964691160000e+000) (85, -1.76564903259277340000e+001) (86, -4.89248313903808590000e+001) (87, -1.62806761264801030000e+000) (88, -1.70926879882812500000e+002) (89, -1.48999792480468750000e+003) (90, -1.49944006347656250000e+003) (91, -1.07495088577270510000e+001) (92, -1.49888671875000000000e+003) (93, -1.48269458007812500000e+003) (94, -1.49382971191406250000e+003) (95, -1.42855102539062500000e+003) (96, -1.40742919921875000000e+003) (97, 1.49905175781250000000e+003) (98, -9.01898986816406250000e+002) (99, -3.85350555181503300000e-001) (0, 1.27071094512939450000e+000) (1, 1.27699983119964600000e+000) (2, 4.64810800552368160000e+000) (3, 1.50000000000000000000e+003) (4, 1.49999975585937500000e+003) (5, 1.49999975585937500000e+003) (6, 1.49999987792968750000e+003) (7, 1.49999975585937500000e+003) (8, 9.89519104003906250000e+002) (9, 1.49999975585937500000e+003) (10, 1.49999963378906250000e+003) (11, 1.49999975585937500000e+003) (12, 1.49999975585937500000e+003) (13, 1.49999975585937500000e+003) (14, 1.49999975585937500000e+003) (15, 1.49999975585937500000e+003) (16, 1.49999938964843750000e+003) (17, 5.67151107788085940000e+001) (18, 1.49999926757812500000e+003) (19, 1.59401917457580570000e+000) (20, 1.84550607204437260000e+000) (21, 1.69338130950927730000e+000) (22, 4.56207227706909180000e+000) (23, 8.02436470985412600000e-001) (24, -5.52343273162841800000e+000) (25, 1.01803125000000000000e+003) (26, 3.49168968200683590000e+000) (27, 1.11069221496582030000e+002) (28, 1.49999938964843750000e+003) (29, -2.73458068847656250000e+002) (30, -1.10351905822753910000e+001) (31, 1.11325225830078120000e+002) (32, 2.34511017799377440000e+000) (33, 4.67149496078491210000e+000) (34, 8.05023491382598880000e-001) (35, 9.42902565002441410000e-001) (36, 2.04425144195556640000e+001) (37, 1.49999938964843750000e+003) (38, 1.22255554199218750000e+003) (39, 3.48935604095458980000e+000) (40, 2.25073504447937010000e+000) (41, 1.66535675525665280000e+000) (42, 2.15428590774536130000e+000) (43, 4.01536979675292970000e+001) (44, 2.87484283447265620000e+001) (45, 3.38453330993652340000e+001) (46, -1.47468371582031250000e+003) (47, -1.49510034179687500000e+003) (48, -1.49811389160156250000e+003) (49, -1.46080139160156250000e+003) (50, -1.47243701171875000000e+003) (51, -1.49721118164062500000e+003) (52, 1.48653698730468750000e+003) (53, 5.49560165405273440000e+001) (54, 1.37893688964843750000e+003) (55, 2.70867943763732910000e+000) (56, 3.29941368103027340000e+001) (57, 1.49999975585937500000e+003) (58, 1.49999975585937500000e+003) (59, 1.49999975585937500000e+003) (60, 1.49994665527343750000e+003) (61, 1.76325595378875730000e+000) (62, 6.23826920986175540000e-001) (63, 1.24020075798034670000e+000) (64, 6.36845707893371580000e-001) (65, 5.86912572383880620000e-001) (66, 5.78143060207366940000e-001) (67, 8.34636270999908450000e-001) (68, 1.21617212295532230000e+001) (69, 8.10274536132812500000e+002) (70, 1.43604552745819090000e+000) (71, 1.18101632595062260000e+000) (72, 1.12385880947113040000e+000) (73, 1.36486876010894780000e+000) (74, 1.06708656311035160000e+002) (75, 1.49999938964843750000e+003) (76, 1.49999938964843750000e+003) (77, 1.49999938964843750000e+003) (78, 1.49999938964843750000e+003) (79, 9.23694686889648440000e+001) (80, 2.52651262283325200000e+000) (81, 1.37626397609710690000e+000) (82, 1.27025749206542970000e+002) (83, 1.78921142578125000000e+002) (84, 1.49999938964843750000e+003) (85, 1.49812609863281250000e+003) (86, 1.49856530761718750000e+003) (87, 1.49999938964843750000e+003) (88, 2.46484875679016110000e+000) (89, 1.32699670410156250000e+003) (90, 1.49999975585937500000e+003) (91, 1.49999926757812500000e+003) (92, 1.49999938964843750000e+003) (93, 1.49981115722656250000e+003) (94, 1.49999975585937500000e+003) (95, 1.49999975585937500000e+003) (96, 1.49999963378906250000e+003) (97, 1.49999963378906250000e+003) (98, 1.49999963378906250000e+003) (99, 7.30538129806518550000e-001) (0, 4.24609065055847170000e-001) (1, 4.60239022970199580000e-001) (2, 4.21411722898483280000e-001) (3, 3.55456054210662840000e-001) (4, 3.73674559593200680000e+000) (5, -1.72612750530242920000e+000) (6, -1.89592465758323670000e-001) (7, 3.05875748395919800000e-001) (8, -2.36768230795860290000e-001) (9, -6.61249697208404540000e-001) (10, -3.54729801416397090000e-001) (11, 6.36454522609710690000e-001) (12, 4.21857088804245000000e-001) (13, 1.39894010499119760000e-002) (14, 2.56853587925434110000e-002) (15, 9.70559045672416690000e-002) (16, 9.26020815968513490000e-002) (17, 2.50509142875671390000e-001) (18, 3.25486510992050170000e-001) (19, 3.22889626026153560000e-001) (20, 3.43382954597473140000e-001) (21, 9.68788117170333860000e-002) (22, -2.78855919837951660000e-001) (23, 4.77316349744796750000e-001) (24, 7.11267709732055660000e-001) (25, 5.28352558612823490000e-001) (26, 4.31717097759246830000e-001) (27, 1.24216832220554350000e-001) (28, -4.23636920750141140000e-002) (29, 4.07578438520431520000e-001) (30, 3.19136500358581540000e-001) (31, -5.68235337734222410000e-001) (32, 5.16689300537109380000e-001) (33, 5.66905617713928220000e-001) (34, 8.99342656135559080000e-001) (35, 8.10837984085083010000e-001) (36, 3.00960183143615720000e-001) (37, 4.07969951629638670000e-001) (38, 5.30831575393676760000e-001) (39, 5.73465704917907710000e-001) (40, 4.03485774993896480000e-001) (41, 3.73824238777160640000e-001) (42, 4.68374758958816530000e-001) (43, 1.74256429076194760000e-001) (44, 3.95402237772941590000e-002) (45, 5.92722713947296140000e-001) (46, 8.84015977382659910000e-001) (47, 6.21165275573730470000e-001) (48, 8.33201050758361820000e-001) (49, 7.76058614253997800000e-001) (50, 5.34809768199920650000e-001) (51, 1.62112057209014890000e+000) (52, 7.02751994132995610000e-001) (53, -2.67989611625671390000e+000) (54, 2.71714925765991210000e-001) (55, -1.19702327251434330000e+000) (56, -4.87863272428512570000e-001) (57, -9.06243622303009030000e-002) (58, -1.86995577812194820000e+000) (59, -1.79382479190826420000e+000) (60, 8.06630373001098630000e-001) (61, 5.51983594894409180000e-001) (62, 6.47661209106445310000e-001) (63, 4.69676196575164790000e-001) (64, 2.23962068557739260000e+000) (65, 1.15639019012451170000e+000) (66, 9.02269721031188960000e-001) (67, 6.57039761543273930000e-001) (68, 4.09612059593200680000e-001) (69, 2.54416048526763920000e-001) (70, 3.23426187038421630000e-001) (71, 6.85898721218109130000e-001) (72, 1.96772658824920650000e+000) (73, 8.61382126808166500000e-001) (74, 4.10417616367340090000e-001) (75, -1.62101733684539790000e+000) (76, -3.82422614097595210000e+000) (77, -3.80357813835144040000e+000) (78, -9.57104921340942380000e-001) (79, 1.10242389142513280000e-001) (80, 3.63979399204254150000e-001) (81, 4.36337321996688840000e-001) (82, 2.40172713994979860000e-001) (83, 1.23088479042053220000e-001) (84, -3.05667161941528320000e-001) (85, -1.12191092967987060000e+000) (86, -4.71215277910232540000e-001) (87, 2.31910169124603270000e-001) (88, 2.95297294855117800000e-001) (89, 3.77762615680694580000e-001) (90, 2.50186681747436520000e-001) (91, 1.20690733194351200000e-001) (92, -4.72191348671913150000e-002) (93, 3.39082747697830200000e-001) (94, -1.43395614624023440000e+000) (95, -4.40849781036376950000e+000) (96, 8.59125852584838870000e-001) (97, 7.35678493976593020000e-001) (98, 3.07195723056793210000e-001) (99, 1.53471994400024410000e+000) (0, -7.05475285649299620000e-002) (1, -2.92456652969121930000e-002) (2, 2.70125985145568850000e-001) (3, 5.92195129394531250000e+000) (4, 4.54251575469970700000e+000) (5, 3.06805700063705440000e-001) (6, 1.08240637928247450000e-002) (7, 1.02558827400207520000e+000) (8, 1.48404777050018310000e-001) (9, -2.81913906335830690000e-001) (10, 3.12949478626251220000e-001) (11, 4.56278383731842040000e-001) (12, 5.13135790824890140000e-001) (13, 2.95798420906066890000e-001) (14, 1.27863377332687380000e-001) (15, 3.64651352167129520000e-001) (16, 3.20804446935653690000e-001) (17, 3.35636734962463380000e-001) (18, 1.68114602565765380000e-001) (19, 2.58110076189041140000e-001) (20, -4.33538518846035000000e-002) (21, 1.98270574212074280000e-001) (22, 2.00497806072235110000e-001) (23, 6.97453767061233520000e-002) (24, 1.68292507529258730000e-001) (25, -2.65441127121448520000e-002) (26, 4.23906818032264710000e-002) (27, -2.74586919695138930000e-002) (28, 1.94733843207359310000e-001) (29, 1.02751709520816800000e-001) (30, -2.56049066781997680000e-001) (31, -5.24831473827362060000e-001) (32, 2.46953263878822330000e-001) (33, 1.91620096564292910000e-001) (34, 4.41738843917846680000e-001) (35, 4.56983774900436400000e-001) (36, 1.80842518806457520000e-001) (37, 2.89474129676818850000e-002) (38, 2.49763295054435730000e-001) (39, 1.83464422821998600000e-001) (40, 1.63774713873863220000e-001) (41, 6.53304755687713620000e-002) (42, 1.03823840618133540000e-002) (43, 3.78292389214038850000e-002) (44, 8.00177007913589480000e-002) (45, 4.61093753576278690000e-001) (46, 4.65884625911712650000e-001) (47, 2.78551131486892700000e-001) (48, -1.25484037399291990000e+000) (49, -7.58176743984222410000e-001) (50, -1.24318754673004150000e+000) (51, 1.30342350006103520000e+001) (52, -1.56579475402832030000e+001) (53, -4.21645760536193850000e-001) (54, 1.44309272766113280000e+001) (55, -2.05522871017456050000e+000) (56, 4.91493530571460720000e-002) (57, -4.40188087522983550000e-002) (58, -2.25787788629531860000e-001) (59, -3.11479549854993820000e-002) (60, 2.00941413640975950000e-001) (61, 2.80669927597045900000e-001) (62, 5.07335305213928220000e-001) (63, 5.39873957633972170000e-001) (64, 3.21523219347000120000e-001) (65, 4.60643112659454350000e-001) (66, 3.47110599279403690000e-001) (67, 1.24218061566352840000e-001) (68, 1.37707531452178960000e-001) (69, -8.78499373793601990000e-002) (70, 3.11844617128372190000e-001) (71, 2.78873182833194730000e-002) (72, 2.16119840741157530000e-001) (73, 6.69670626521110530000e-002) (74, -2.92958281934261320000e-002) (75, -6.33738219738006590000e-001) (76, -2.00314164161682130000e+000) (77, -1.87000954151153560000e+000) (78, -5.92692494392395020000e-001) (79, -6.45396187901496890000e-002) (80, 2.88258820772171020000e-001) (81, 1.88079804182052610000e-001) (82, -1.30935087800025940000e-001) (83, -4.26594242453575130000e-002) (84, -6.40018522739410400000e-001) (85, -5.53287446498870850000e-001) (86, -9.67930629849433900000e-002) (87, 2.16235443949699400000e-001) (88, 2.61145770549774170000e-001) (89, 4.05162036418914790000e-001) (90, 2.37741634249687190000e-001) (91, 2.00013428926467900000e-001) (92, 3.79309773445129390000e-001) (93, 4.27108138799667360000e-001) (94, 5.13344883918762210000e-001) (95, 3.40607970952987670000e-001) (96, 3.83914321660995480000e-001) (97, -8.65389168262481690000e-001) (98, -5.33556282520294190000e-001) (99, 4.51723635196685790000e-001) (0, -6.32422491908073430000e-002) (1, -5.83043210208415990000e-002) (2, -1.92560017108917240000e-001) (3, 1.45394958496093750000e+003) (4, 1.47789074707031250000e+003) (5, 5.62002639770507810000e+001) (6, 2.47086219787597660000e+001) (7, 5.38213062286376950000e+000) (8, -1.38549560546875000000e+003) (9, 2.35173368453979490000e+000) (10, -1.32639199495315550000e-001) (11, 1.61500430107116700000e+000) (12, 8.84225402832031250000e+002) (13, 1.29447415471076970000e-001) (14, -4.35185544192790990000e-002) (15, -1.15960165858268740000e-001) (16, -2.53580063581466670000e-001) (17, -3.46119441092014310000e-002) (18, -6.90252661705017090000e-001) (19, -3.14614027738571170000e-001) (20, -4.50301349163055420000e-001) (21, -1.49998901367187500000e+003) (22, -1.53753721714019780000e+000) (23, 3.28187980651855470000e+001) (24, -8.30940246582031250000e-001) (25, -2.80452842712402340000e+001) (26, -2.51150757074356080000e-001) (27, -3.66543084383010860000e-001) (28, 1.36057102680206300000e+000) (29, 1.06466445922851560000e+001) (30, -5.56076383590698240000e+000) (31, 1.20371341705322270000e+001) (32, -1.04966092109680180000e+000) (33, 1.44577836990356450000e+000) (34, 5.08171577453613280000e+001) (35, -2.20264887809753420000e+000) (36, -7.43158042430877690000e-001) (37, -1.03803062438964840000e+000) (38, -1.39812231063842770000e-001) (39, -8.70394706726074220000e-003) (40, -6.32601557299494740000e-003) (41, 3.88181209564208980000e-002) (42, -9.27104577422142030000e-002) (43, -1.99133127927780150000e-001) (44, -9.06310379505157470000e-002) (45, -8.78489553928375240000e-001) (46, -1.36623547363281250000e+003) (47, -7.09910644531250000000e+002) (48, 4.20638513565063480000e+000) (49, 1.44874499511718750000e+003) (50, 1.41697973632812500000e+003) (51, 7.19324254989624020000e+000) (52, 1.49759143066406250000e+003) (53, 1.45266235351562500000e+003) (54, 1.50000000000000000000e+003) (55, 1.57722442626953120000e+002) (56, 3.83032135009765620000e+002) (57, 3.30135703086853030000e+000) (58, 2.47163295745849610000e+000) (59, -1.47021875000000000000e+003) (60, -1.13166308593750000000e+003) (61, 3.29574656486511230000e+000) (62, -5.83117268979549410000e-002) (63, 3.02083015441894530000e-001) (64, -1.17492122650146480000e+001) (65, 2.13838025927543640000e-001) (66, -9.54835355281829830000e-001) (67, -6.57833278179168700000e-001) (68, 5.06691753864288330000e-001) (69, 3.28311371803283690000e+000) (70, 7.96320617198944090000e-001) (71, 4.26875442266464230000e-001) (72, 2.36796498298645020000e-001) (73, 3.07131260633468630000e-001) (74, -2.09874749183654790000e+000) (75, 7.48722934722900390000e+000) (76, 1.97949564456939700000e+000) (77, -2.78928339481353760000e-001) (78, -2.95007944107055660000e-001) (79, 1.06084191799163820000e+000) (80, -7.92969539761543270000e-002) (81, 5.44551372528076170000e-001) (82, 1.05162131786346440000e+000) (83, 1.11517000198364260000e+000) (84, 1.17453610897064210000e+000) (85, 8.08983147144317630000e-001) (86, 1.13186728954315190000e+000) (87, 2.41274666786193850000e+000) (88, -9.09396946430206300000e-001) (89, -2.34732103347778320000e+000) (90, -1.20285034179687500000e+000) (91, -1.50486373901367190000e+000) (92, -1.76124882698059080000e+000) (93, -6.68597757816314700000e-001) (94, 2.73472213745117190000e+000) (95, -7.03826065063476560000e+001) (96, -3.64997529983520510000e+000) (97, 1.48621228027343750000e+003) (98, 1.49625915527343750000e+003) (99, 1.24829977750778200000e-001) (0, -2.05328154563903810000e+000) (1, -1.55578470230102540000e+000) (2, -3.34623603820800780000e+001) (3, -1.49992370605468750000e+003) (4, -1.49976391601562500000e+003) (5, -1.49999572753906250000e+003) (6, -1.33164196777343750000e+003) (7, -1.49491198730468750000e+003) (8, -1.49506140136718750000e+003) (9, -1.49975756835937500000e+003) (10, -1.48864343261718750000e+003) (11, -5.25029716491699220000e+001) (12, -5.66551017761230470000e+001) (13, -1.49999804687500000000e+003) (14, -1.49999914550781250000e+003) (15, -1.49999914550781250000e+003) (16, -1.49999877929687500000e+003) (17, -6.51907958984375000000e+002) (18, -1.49999865722656250000e+003) (19, -1.57801556587219240000e+000) (20, -2.39044046401977540000e+000) (21, -1.48767968750000000000e+003) (22, -1.49999877929687500000e+003) (23, -7.50806331634521480000e-001) (24, -9.88911926746368410000e-001) (25, -1.26538693904876710000e+000) (26, -1.67181468009948730000e+000) (27, -1.49182849121093750000e+003) (28, -1.48624658203125000000e+003) (29, -3.37611913681030270000e+000) (30, -2.57202911376953130000e+000) (31, -1.38068933486938480000e+001) (32, -2.21769547462463380000e+000) (33, -1.24010741710662840000e+000) (34, 3.32873493432998660000e-001) (35, 1.83873534202575680000e+000) (36, -1.49359460449218750000e+003) (37, -1.48726745605468750000e+003) (38, -4.16492891311645510000e+000) (39, -1.87771391868591310000e+000) (40, -1.52995657920837400000e+000) (41, -2.57557797431945800000e+000) (42, -9.62634944915771480000e+000) (43, -1.49822656250000000000e+003) (44, -1.49999890136718750000e+003) (45, -1.49972900390625000000e+003) (46, -1.49896923828125000000e+003) (47, -1.49403674316406250000e+003) (48, -1.49651208496093750000e+003) (49, -1.48582482910156250000e+003) (50, -1.43819531250000000000e+003) (51, 1.50000000000000000000e+003) (52, -1.49418017578125000000e+003) (53, -1.74502456665039060000e+002) (54, -2.29795036315917970000e+001) (55, -1.48595495605468750000e+003) (56, -1.49997729492187500000e+003) (57, -1.49988549804687500000e+003) (58, -1.49999841308593750000e+003) (59, -1.49401147460937500000e+003) (60, -1.39680614471435550000e+001) (61, -4.39797610044479370000e-001) (62, -6.98553442955017090000e-001) (63, -6.71676814556121830000e-001) (64, 3.36727917194366460000e-001) (65, 4.86045897006988530000e-001) (66, -1.21118970215320590000e-001) (67, -1.12711346149444580000e+000) (68, -3.83461227416992190000e+001) (69, -8.36750732421875000000e+002) (70, -1.81293630599975590000e+000) (71, -8.16411077976226810000e-001) (72, -7.73730576038360600000e-001) (73, -4.70365643501281740000e-001) (74, -1.13456933593750000000e+003) (75, -1.49999938964843750000e+003) (76, -1.49999926757812500000e+003) (77, -1.48959582519531250000e+003) (78, -1.49706127929687500000e+003) (79, -1.05613090515136720000e+002) (80, -1.27889375686645510000e+001) (81, -1.64078235626220700000e+000) (82, -2.29179595947265620000e+002) (83, -1.67751571655273440000e+002) (84, -1.49999963378906250000e+003) (85, -1.49999963378906250000e+003) (86, -1.49999963378906250000e+003) (87, -1.49980249023437500000e+003) (88, -2.89457153320312500000e+002) (89, -1.49999890136718750000e+003) (90, -1.48322973632812500000e+003) (91, -1.49999645996093750000e+003) (92, -1.49696350097656250000e+003) (93, -1.49034582519531250000e+003) (94, -1.49916259765625000000e+003) (95, -1.49894396972656250000e+003) (96, -1.49643750000000000000e+003) (97, -4.69528532028198240000e+000) (98, -3.92631173133850100000e+000) (99, -7.17223346233367920000e-001) (0, 1.24121940135955810000e+000) (1, 1.25785446166992190000e+000) (2, 3.29873037338256840000e+000) (3, 1.50000000000000000000e+003) (4, 1.49999975585937500000e+003) (5, 1.49999938964843750000e+003) (6, 1.49999987792968750000e+003) (7, 1.49999975585937500000e+003) (8, 1.49999975585937500000e+003) (9, 1.49999975585937500000e+003) (10, 1.49999975585937500000e+003) (11, 1.49999975585937500000e+003) (12, 1.49999975585937500000e+003) (13, 1.49999975585937500000e+003) (14, 1.49999975585937500000e+003) (15, 1.49999938964843750000e+003) (16, 1.49999938964843750000e+003) (17, 6.50748214721679690000e+001) (18, 1.49999926757812500000e+003) (19, 1.49460160732269290000e+000) (20, 1.94038903713226320000e+000) (21, 2.39676880836486820000e+000) (22, 4.87721443176269530000e+001) (23, 9.30335521697998050000e-001) (24, -3.63378000259399410000e+000) (25, 2.46534576416015630000e+001) (26, 2.42660212516784670000e+000) (27, 1.49999938964843750000e+003) (28, 1.49999938964843750000e+003) (29, -2.11258239746093750000e+002) (30, -2.08855361938476560000e+001) (31, 4.66903924942016600000e+000) (32, 1.59310710430145260000e+000) (33, 1.80124521255493160000e+000) (34, 9.22849178314208980000e-001) (35, 1.00584602355957030000e+000) (36, 2.15046572685241700000e+000) (37, 1.49999938964843750000e+003) (38, 7.59586486816406250000e+002) (39, 2.66720056533813480000e+000) (40, 2.44005680084228520000e+000) (41, 2.48045563697814940000e+000) (42, 2.61885333061218260000e+000) (43, 1.49999938964843750000e+003) (44, 7.63309753417968750000e+002) (45, 1.49876025390625000000e+003) (46, -1.49518591308593750000e+003) (47, -1.49798498535156250000e+003) (48, -8.15050598144531250000e+002) (49, -1.46719641113281250000e+003) (50, -1.48592602539062500000e+003) (51, -1.49876074218750000000e+003) (52, 1.49461340332031250000e+003) (53, 1.04575599670410160000e+002) (54, 1.49999987792968750000e+003) (55, 2.50371623039245610000e+000) (56, 3.86584053039550780000e+001) (57, 1.49999975585937500000e+003) (58, 1.49999975585937500000e+003) (59, 1.49999975585937500000e+003) (60, 3.30313781738281250000e+002) (61, 7.68413901329040530000e-001) (62, 1.02849781513214110000e+000) (63, 1.06418442726135250000e+000) (64, 5.93189537525177000000e-001) (65, 7.29234457015991210000e-001) (66, 4.28842306137084960000e-001) (67, 7.40597605705261230000e-001) (68, 1.34996147155761720000e+001) (69, 7.77233581542968750000e+002) (70, 1.43080580234527590000e+000) (71, 1.17389190196990970000e+000) (72, 1.13332247734069820000e+000) (73, 1.06638276576995850000e+000) (74, 8.87103500366210940000e+001) (75, 1.49999938964843750000e+003) (76, 1.49999938964843750000e+003) (77, 1.49999938964843750000e+003) (78, 1.49999938964843750000e+003) (79, 1.87212127685546870000e+002) (80, 1.89877939224243160000e+000) (81, 1.35070741176605220000e+000) (82, 1.34876556396484370000e+002) (83, 6.21288337707519530000e+001) (84, 9.02277526855468750000e+002) (85, 1.00481542968750000000e+003) (86, 1.49557507324218750000e+003) (87, 1.49999938964843750000e+003) (88, 2.24971054077148440000e+002) (89, 1.49999975585937500000e+003) (90, 1.49999975585937500000e+003) (91, 1.49999926757812500000e+003) (92, 1.49999926757812500000e+003) (93, 1.49999890136718750000e+003) (94, 1.49999975585937500000e+003) (95, 1.49999975585937500000e+003) (96, 1.49999963378906250000e+003) (97, 1.49999963378906250000e+003) (98, 1.16310339355468750000e+003) (99, 6.37980997562408450000e-001) (0, 1.18608772754669190000e+000) (1, 1.34595501422882080000e+000) (2, 3.37870836257934570000e+000) (3, 1.50000000000000000000e+003) (4, 1.49999975585937500000e+003) (5, 1.49999938964843750000e+003) (6, 1.49999987792968750000e+003) (7, 1.49999975585937500000e+003) (8, 1.49999975585937500000e+003) (9, 1.49999975585937500000e+003) (10, 1.49999975585937500000e+003) (11, 1.49999975585937500000e+003) (12, 1.49999975585937500000e+003) (13, 1.49999975585937500000e+003) (14, 1.49999975585937500000e+003) (15, 1.49999938964843750000e+003) (16, 1.49999938964843750000e+003) (17, 6.04333534240722660000e+001) (18, 5.63532104492187500000e+002) (19, 1.37228274345397950000e+000) (20, 1.88688218593597410000e+000) (21, 1.46132731437683110000e+000) (22, 1.86552917957305910000e+000) (23, 8.99249494075775150000e-001) (24, -1.00408086776733400000e+001) (25, 4.41660888671875000000e+002) (26, 3.68165087699890140000e+000) (27, 5.93823242187500000000e+001) (28, 1.49999926757812500000e+003) (29, -1.58099700927734370000e+002) (30, 1.08255076408386230000e+000) (31, 3.39575424194335940000e+001) (32, 2.07606124877929690000e+000) (33, 2.11820602416992190000e+000) (34, 8.62494587898254390000e-001) (35, 9.06879663467407230000e-001) (36, 1.14449663162231450000e+001) (37, 1.49999926757812500000e+003) (38, 1.49999926757812500000e+003) (39, 2.37674579620361330000e+001) (40, 8.49192333221435550000e+000) (41, 2.39253997802734380000e+000) (42, 2.23650765419006350000e+000) (43, 8.54674072265625000000e+001) (44, 2.12973785400390630000e+001) (45, 1.29343614578247070000e+001) (46, -1.46627441406250000000e+003) (47, -1.46508361816406250000e+003) (48, -1.49988635253906250000e+003) (49, -1.46011633300781250000e+003) (50, -1.47163806152343750000e+003) (51, -1.23399694824218750000e+003) (52, -1.49659619140625000000e+003) (53, 4.83764877319335940000e+001) (54, 4.71265899658203120000e+002) (55, 5.21532392501831050000e+000) (56, -6.91386962890625000000e+002) (57, 1.49999975585937500000e+003) (58, 1.49999975585937500000e+003) (59, 1.49999975585937500000e+003) (60, 1.49994897460937500000e+003) (61, 2.42190289497375490000e+000) (62, 2.68220949172973630000e+000) (63, 1.14379417896270750000e+000) (64, 8.00911128520965580000e-001) (65, 7.30101406574249270000e-001) (66, 4.46167975664138790000e-001) (67, 8.17078173160552980000e-001) (68, 5.05970916748046880000e+001) (69, 7.06556274414062500000e+002) (70, 1.49097394943237300000e+000) (71, 1.21315896511077880000e+000) (72, 1.18243396282196040000e+000) (73, 1.40257620811462400000e+000) (74, 9.66251831054687500000e+001) (75, 1.49999938964843750000e+003) (76, 1.49999938964843750000e+003) (77, 1.49999938964843750000e+003) (78, 1.49999938964843750000e+003) (79, 1.18999000549316410000e+002) (80, 1.98551142215728760000e+000) (81, 1.36288857460021970000e+000) (82, 1.21632026672363280000e+002) (83, 5.61039466857910160000e+001) (84, 6.53775390625000000000e+002) (85, 1.49895214843750000000e+003) (86, 1.49973120117187500000e+003) (87, 1.49999938964843750000e+003) (88, 3.31260442733764650000e+000) (89, 1.49999975585937500000e+003) (90, 1.49999975585937500000e+003) (91, 1.49999926757812500000e+003) (92, 1.49999926757812500000e+003) (93, 1.49999877929687500000e+003) (94, 1.49999975585937500000e+003) (95, 1.49999975585937500000e+003) (96, 1.49999963378906250000e+003) (97, 1.49999963378906250000e+003) (98, 1.49999963378906250000e+003) (99, 7.49816358089447020000e-001) (0, 6.29489943385124210000e-002) (1, 1.23069569468498230000e-001) (2, 2.97358930110931400000e-001) (3, 2.00021433830261230000e+000) (4, -4.78343343734741210000e+000) (5, -3.15280169248580930000e-001) (6, 3.71687263250350950000e-001) (7, 3.96984875202178960000e-001) (8, 1.66451394557952880000e-001) (9, 4.92139682173728940000e-002) (10, 2.95163452625274660000e-001) (11, 1.29678145051002500000e-001) (12, 7.32578486204147340000e-002) (13, -2.20959901809692380000e-001) (14, -2.36721679568290710000e-001) (15, 1.66168622672557830000e-003) (16, 7.35380575060844420000e-002) (17, 1.86541527509689330000e-001) (18, -1.15731591358780860000e-002) (19, 1.05683207511901860000e-001) (20, 9.96349155902862550000e-002) (21, 3.89077603816986080000e-001) (22, 3.20949852466583250000e-001) (23, 2.25726559758186340000e-001) (24, 3.27817052602767940000e-002) (25, 2.19555407762527470000e-001) (26, 1.82959690690040590000e-001) (27, 1.26924421638250350000e-002) (28, 9.82463583350181580000e-002) (29, -3.80390137434005740000e-002) (30, -1.64195716381073000000e-001) (31, -1.13971471786499020000e+000) (32, -1.30158931016922000000e-001) (33, 1.28445357084274290000e-001) (34, 4.67170149087905880000e-001) (35, 5.73247432708740230000e-001) (36, 3.14778089523315430000e-001) (37, 2.12766885757446290000e-001) (38, 2.82941311597824100000e-001) (39, 2.63242185115814210000e-001) (40, 1.04908309876918790000e-001) (41, -1.50854870676994320000e-001) (42, 5.39249517023563390000e-002) (43, 3.91724184155464170000e-002) (44, 4.95516136288642880000e-002) (45, 3.27640742063522340000e-001) (46, 2.94108778238296510000e-001) (47, -1.72799959778785710000e-001) (48, -6.77655220031738280000e-001) (49, -8.73403131961822510000e-001) (50, -8.20809006690979000000e-001) (51, 8.67190003395080570000e-001) (52, 1.42871594429016110000e+000) (53, 1.48939263820648190000e+000) (54, 3.58135730028152470000e-001) (55, 8.86143073439598080000e-002) (56, 3.01345378160476680000e-001) (57, -8.72523486614227290000e-001) (58, -1.01148962974548340000e-001) (59, 3.62807780504226680000e-001) (60, -2.15826645493507390000e-001) (61, 2.55849808454513550000e-001) (62, 4.37947124242782590000e-001) (63, 3.41067045927047730000e-001) (64, 3.64109396934509280000e-001) (65, 5.62923550605773930000e-001) (66, 2.70339846611022950000e-001) (67, 2.32751920819282530000e-001) (68, 1.50497660040855410000e-001) (69, 1.18552878499031070000e-001) (70, 1.67105868458747860000e-001) (71, 5.42658045887947080000e-002) (72, 1.91213145852088930000e-001) (73, 2.27647811174392700000e-001) (74, 1.12455375492572780000e-001) (75, -5.89196979999542240000e-001) (76, -1.71753823757171630000e+000) (77, -1.76238143444061280000e+000) (78, -4.48963791131973270000e-001) (79, 1.08169764280319210000e-002) (80, 2.82043278217315670000e-001) (81, 3.20034325122833250000e-001) (82, -1.61942075937986370000e-002) (83, -2.93075978755950930000e-001) (84, -4.66938763856887820000e-001) (85, -4.42609369754791260000e-001) (86, -1.11972123384475710000e-001) (87, 2.59541630744934080000e-001) (88, 