FANN_FLO_2.1
num_layers=5
learning_rate=0.700000
connection_rate=1.000000
network_type=0
learning_momentum=0.000000
training_algorithm=2
train_error_function=0
train_stop_function=0
cascade_output_change_fraction=0.010000
quickprop_decay=-0.000100
quickprop_mu=1.750000
rprop_increase_factor=1.200000
rprop_decrease_factor=0.500000
rprop_delta_min=0.000000
rprop_delta_max=50.000000
rprop_delta_zero=0.100000
cascade_output_stagnation_epochs=12
cascade_candidate_change_fraction=0.010000
cascade_candidate_stagnation_epochs=12
cascade_max_out_epochs=150
cascade_min_out_epochs=50
cascade_max_cand_epochs=150
cascade_min_cand_epochs=50
cascade_num_candidate_groups=2
bit_fail_limit=3.49999994039535520000e-001
cascade_candidate_limit=1.00000000000000000000e+003
cascade_weight_multiplier=4.00000005960464480000e-001
cascade_activation_functions_count=10
cascade_activation_functions=3 5 7 8 10 11 14 15 16 17 
cascade_activation_steepnesses_count=4
cascade_activation_steepnesses=2.50000000000000000000e-001 5.00000000000000000000e-001 7.50000000000000000000e-001 1.00000000000000000000e+000 
layer_sizes=100 76 52 28 2 
scale_included=0
neurons (num_inputs, activation_function, activation_steepness)=(0, 0, 0.00000000000000000000e+000) (0, 0, 0.00000000000000000000e+000) (0, 0, 0.00000000000000000000e+000) (0, 0, 0.00000000000000000000e+000) (0, 0, 0.00000000000000000000e+000) (0, 0, 0.00000000000000000000e+000) (0, 0, 0.00000000000000000000e+000) (0, 0, 0.00000000000000000000e+000) (0, 0, 0.00000000000000000000e+000) (0, 0, 0.00000000000000000000e+000) (0, 0, 0.00000000000000000000e+000) (0, 0, 0.00000000000000000000e+000) (0, 0, 0.00000000000000000000e+000) (0, 0, 0.00000000000000000000e+000) (0, 0, 0.00000000000000000000e+000) (0, 0, 0.00000000000000000000e+000) (0, 0, 0.00000000000000000000e+000) (0, 0, 0.00000000000000000000e+000) (0, 0, 0.00000000000000000000e+000) (0, 0, 0.00000000000000000000e+000) (0, 0, 0.00000000000000000000e+000) (0, 0, 0.00000000000000000000e+000) (0, 0, 0.00000000000000000000e+000) (0, 0, 0.00000000000000000000e+000) (0, 0, 0.00000000000000000000e+000) (0, 0, 0.00000000000000000000e+000) (0, 0, 0.00000000000000000000e+000) (0, 0, 0.00000000000000000000e+000) (0, 0, 0.00000000000000000000e+000) (0, 0, 0.00000000000000000000e+000) (0, 0, 0.00000000000000000000e+000) (0, 0, 0.00000000000000000000e+000) (0, 0, 0.00000000000000000000e+000) (0, 0, 0.00000000000000000000e+000) (0, 0, 0.00000000000000000000e+000) (0, 0, 0.00000000000000000000e+000) (0, 0, 0.00000000000000000000e+000) (0, 0, 0.00000000000000000000e+000) (0, 0, 0.00000000000000000000e+000) (0, 0, 0.00000000000000000000e+000) (0, 0, 0.00000000000000000000e+000) (0, 0, 0.00000000000000000000e+000) (0, 0, 0.00000000000000000000e+000) (0, 0, 0.00000000000000000000e+000) (0, 0, 0.00000000000000000000e+000) (0, 0, 0.00000000000000000000e+000) (0, 0, 0.00000000000000000000e+000) (0, 0, 0.00000000000000000000e+000) (0, 0, 0.00000000000000000000e+000) (0, 0, 0.00000000000000000000e+000) (0, 0, 0.00000000000000000000e+000) (0, 0, 0.00000000000000000000e+000) (0, 0, 0.00000000000000000000e+000) (0, 0, 0.00000000000000000000e+000) (0, 0, 0.00000000000000000000e+000) (0, 0, 0.00000000000000000000e+000) (0, 0, 0.00000000000000000000e+000) (0, 0, 0.00000000000000000000e+000) (0, 0, 0.00000000000000000000e+000) (0, 0, 0.00000000000000000000e+000) (0, 0, 0.00000000000000000000e+000) (0, 0, 0.00000000000000000000e+000) (0, 0, 0.00000000000000000000e+000) (0, 0, 0.00000000000000000000e+000) (0, 0, 0.00000000000000000000e+000) (0, 0, 0.00000000000000000000e+000) (0, 0, 0.00000000000000000000e+000) (0, 0, 0.00000000000000000000e+000) (0, 0, 0.00000000000000000000e+000) (0, 0, 0.00000000000000000000e+000) (0, 0, 0.00000000000000000000e+000) (0, 0, 0.00000000000000000000e+000) (0, 0, 0.00000000000000000000e+000) (0, 0, 0.00000000000000000000e+000) (0, 0, 0.00000000000000000000e+000) (0, 0, 0.00000000000000000000e+000) (0, 0, 0.00000000000000000000e+000) (0, 0, 0.00000000000000000000e+000) (0, 0, 0.00000000000000000000e+000) (0, 0, 0.00000000000000000000e+000) (0, 0, 0.00000000000000000000e+000) (0, 0, 0.00000000000000000000e+000) (0, 0, 0.00000000000000000000e+000) (0, 0, 0.00000000000000000000e+000) (0, 0, 0.00000000000000000000e+000) (0, 0, 0.00000000000000000000e+000) (0, 0, 0.00000000000000000000e+000) (0, 0, 0.00000000000000000000e+000) (0, 0, 0.00000000000000000000e+000) (0, 0, 0.00000000000000000000e+000) (0, 0, 0.00000000000000000000e+000) (0, 0, 0.00000000000000000000e+000) (0, 0, 0.00000000000000000000e+000) (0, 0, 0.00000000000000000000e+000) (0, 0, 0.00000000000000000000e+000) (0, 0, 0.00000000000000000000e+000) (0, 0, 0.00000000000000000000e+000) (0, 0, 0.00000000000000000000e+000) (0, 0, 0.00000000000000000000e+000) (0, 0, 0.00000000000000000000e+000) (100, 11, 5.00000000000000000000e-001) (100, 11, 5.00000000000000000000e-001) (100, 11, 5.00000000000000000000e-001) (100, 11, 5.00000000000000000000e-001) (100, 11, 5.00000000000000000000e-001) (100, 11, 5.00000000000000000000e-001) (100, 11, 5.00000000000000000000e-001) (100, 11, 5.00000000000000000000e-001) (100, 11, 5.00000000000000000000e-001) (100, 11, 5.00000000000000000000e-001) (100, 11, 5.00000000000000000000e-001) (100, 11, 5.00000000000000000000e-001) (100, 11, 5.00000000000000000000e-001) (100, 11, 5.00000000000000000000e-001) (100, 11, 5.00000000000000000000e-001) (100, 11, 5.00000000000000000000e-001) (100, 11, 5.00000000000000000000e-001) (100, 11, 5.00000000000000000000e-001) (100, 11, 5.00000000000000000000e-001) (100, 11, 5.00000000000000000000e-001) (100, 11, 5.00000000000000000000e-001) (100, 11, 5.00000000000000000000e-001) (100, 11, 5.00000000000000000000e-001) (100, 11, 5.00000000000000000000e-001) (100, 11, 5.00000000000000000000e-001) (100, 11, 5.00000000000000000000e-001) (100, 11, 5.00000000000000000000e-001) (100, 11, 5.00000000000000000000e-001) (100, 11, 5.00000000000000000000e-001) (100, 11, 5.00000000000000000000e-001) (100, 11, 5.00000000000000000000e-001) (100, 11, 5.00000000000000000000e-001) (100, 11, 5.00000000000000000000e-001) (100, 11, 5.00000000000000000000e-001) (100, 11, 5.00000000000000000000e-001) (100, 11, 5.00000000000000000000e-001) (100, 11, 5.00000000000000000000e-001) (100, 11, 5.00000000000000000000e-001) (100, 11, 5.00000000000000000000e-001) (100, 11, 5.00000000000000000000e-001) (100, 11, 5.00000000000000000000e-001) (100, 11, 5.00000000000000000000e-001) (100, 11, 5.00000000000000000000e-001) (100, 11, 5.00000000000000000000e-001) (100, 11, 5.00000000000000000000e-001) (100, 11, 5.00000000000000000000e-001) (100, 11, 5.00000000000000000000e-001) (100, 11, 5.00000000000000000000e-001) (100, 11, 5.00000000000000000000e-001) (100, 11, 5.00000000000000000000e-001) (100, 11, 5.00000000000000000000e-001) (100, 11, 5.00000000000000000000e-001) (100, 11, 5.00000000000000000000e-001) (100, 11, 5.00000000000000000000e-001) (100, 11, 5.00000000000000000000e-001) (100, 11, 5.00000000000000000000e-001) (100, 11, 5.00000000000000000000e-001) (100, 11, 5.00000000000000000000e-001) (100, 11, 5.00000000000000000000e-001) (100, 11, 5.00000000000000000000e-001) (100, 11, 5.00000000000000000000e-001) (100, 11, 5.00000000000000000000e-001) (100, 11, 5.00000000000000000000e-001) (100, 11, 5.00000000000000000000e-001) (100, 11, 5.00000000000000000000e-001) (100, 11, 5.00000000000000000000e-001) (100, 11, 5.00000000000000000000e-001) (100, 11, 5.00000000000000000000e-001) (100, 11, 5.00000000000000000000e-001) (100, 11, 5.00000000000000000000e-001) (100, 11, 5.00000000000000000000e-001) (100, 11, 5.00000000000000000000e-001) (100, 11, 5.00000000000000000000e-001) (100, 11, 5.00000000000000000000e-001) (100, 11, 5.00000000000000000000e-001) (0, 11, 5.00000000000000000000e-001) (76, 11, 5.00000000000000000000e-001) (76, 11, 5.00000000000000000000e-001) (76, 11, 5.00000000000000000000e-001) (76, 11, 5.00000000000000000000e-001) (76, 11, 5.00000000000000000000e-001) (76, 11, 5.00000000000000000000e-001) (76, 11, 5.00000000000000000000e-001) (76, 11, 5.00000000000000000000e-001) (76, 11, 5.00000000000000000000e-001) (76, 11, 5.00000000000000000000e-001) (76, 11, 5.00000000000000000000e-001) (76, 11, 5.00000000000000000000e-001) (76, 11, 5.00000000000000000000e-001) (76, 11, 5.00000000000000000000e-001) (76, 11, 5.00000000000000000000e-001) (76, 11, 5.00000000000000000000e-001) (76, 11, 5.00000000000000000000e-001) (76, 11, 5.00000000000000000000e-001) (76, 11, 5.00000000000000000000e-001) (76, 11, 5.00000000000000000000e-001) (76, 11, 5.00000000000000000000e-001) (76, 11, 5.00000000000000000000e-001) (76, 11, 5.00000000000000000000e-001) (76, 11, 5.00000000000000000000e-001) (76, 11, 5.00000000000000000000e-001) (76, 11, 5.00000000000000000000e-001) (76, 11, 5.00000000000000000000e-001) (76, 11, 5.00000000000000000000e-001) (76, 11, 5.00000000000000000000e-001) (76, 11, 5.00000000000000000000e-001) (76, 11, 5.00000000000000000000e-001) (76, 11, 5.00000000000000000000e-001) (76, 11, 5.00000000000000000000e-001) (76, 11, 5.00000000000000000000e-001) (76, 11, 5.00000000000000000000e-001) (76, 11, 5.00000000000000000000e-001) (76, 11, 5.00000000000000000000e-001) (76, 11, 5.00000000000000000000e-001) (76, 11, 5.00000000000000000000e-001) (76, 11, 5.00000000000000000000e-001) (76, 11, 5.00000000000000000000e-001) (76, 11, 5.00000000000000000000e-001) (76, 11, 5.00000000000000000000e-001) (76, 11, 5.00000000000000000000e-001) (76, 11, 5.00000000000000000000e-001) (76, 11, 5.00000000000000000000e-001) (76, 11, 5.00000000000000000000e-001) (76, 11, 5.00000000000000000000e-001) (76, 11, 5.00000000000000000000e-001) (76, 11, 5.00000000000000000000e-001) (76, 11, 5.00000000000000000000e-001) (0, 11, 5.00000000000000000000e-001) (52, 11, 5.00000000000000000000e-001) (52, 11, 5.00000000000000000000e-001) (52, 11, 5.00000000000000000000e-001) (52, 11, 5.00000000000000000000e-001) (52, 11, 5.00000000000000000000e-001) (52, 11, 5.00000000000000000000e-001) (52, 11, 5.00000000000000000000e-001) (52, 11, 5.00000000000000000000e-001) (52, 11, 5.00000000000000000000e-001) (52, 11, 5.00000000000000000000e-001) (52, 11, 5.00000000000000000000e-001) (52, 11, 5.00000000000000000000e-001) (52, 11, 5.00000000000000000000e-001) (52, 11, 5.00000000000000000000e-001) (52, 11, 5.00000000000000000000e-001) (52, 11, 5.00000000000000000000e-001) (52, 11, 5.00000000000000000000e-001) (52, 11, 5.00000000000000000000e-001) (52, 11, 5.00000000000000000000e-001) (52, 11, 5.00000000000000000000e-001) (52, 11, 5.00000000000000000000e-001) (52, 11, 5.00000000000000000000e-001) (52, 11, 5.00000000000000000000e-001) (52, 11, 5.00000000000000000000e-001) (52, 11, 5.00000000000000000000e-001) (52, 11, 5.00000000000000000000e-001) (52, 11, 5.00000000000000000000e-001) (0, 11, 5.00000000000000000000e-001) (28, 6, 5.00000000000000000000e-001) (0, 6, 5.00000000000000000000e-001) 
connections (connected_to_neuron, weight)=(0, 2.07380339503288270000e-001) (1, 1.80430218577384950000e-001) (2, 4.21065598726272580000e-001) (3, -7.42779374122619630000e-001) (4, -9.31863021850585940000e+000) (5, -5.63120365142822270000e+000) (6, -1.87394157052040100000e-001) (7, 2.38829627633094790000e-001) (8, -1.87660427093505860000e+001) (9, -1.08398828506469730000e+001) (10, 6.71849399805068970000e-002) (11, -1.28355860710144040000e-001) (12, 2.07316756248474120000e-001) (13, 2.11683809757232670000e-001) (14, 3.27564805746078490000e-001) (15, 9.91356968879699710000e-002) (16, 1.94293692708015440000e-001) (17, 1.79958999156951900000e-001) (18, 2.21764981746673580000e-001) (19, 3.83688658475875850000e-001) (20, 1.98801249265670780000e-001) (21, 2.08078593015670780000e-001) (22, -9.49235248565673830000e+000) (23, -2.71165817975997920000e-001) (24, 1.92322158813476560000e+000) (25, 7.16993713378906250000e+002) (26, 1.25663793945312500000e+003) (27, 9.53552842140197750000e-001) (28, 2.00760155916213990000e-001) (29, -7.71867111325263980000e-002) (30, 2.66530793160200120000e-002) (31, -7.16056289672851560000e+001) (32, 2.76407934725284580000e-002) (33, 1.27348923683166500000e+000) (34, 6.33401918411254880000e+000) (35, 9.38730776309967040000e-001) (36, 4.07996565103530880000e-001) (37, 2.27858334779739380000e-001) (38, 1.49761691689491270000e-001) (39, 1.70789435505867000000e-001) (40, 2.38078802824020390000e-001) (41, 2.76552647352218630000e-001) (42, 1.56115725636482240000e-001) (43, 2.65215396881103520000e-001) (44, 1.48027732968330380000e-001) (45, -1.93846672773361210000e-001) (46, 2.13850736618041990000e-001) (47, 3.19766372442245480000e-001) (48, -1.93236337509006260000e-003) (49, 1.56591624021530150000e-001) (50, 2.18384885787963870000e+000) (51, 9.78059864044189450000e+000) (52, 1.04126319885253910000e+002) (53, -8.04148864746093750000e+001) (54, 4.88674774169921880000e+001) (55, -8.68129074573516850000e-001) (56, -1.55966296792030330000e-001) (57, -1.16150784492492680000e+000) (58, -2.72546440362930300000e-001) (59, -9.91188883781433110000e-002) (60, -4.81151007115840910000e-002) (61, -1.84478506445884700000e-001) (62, 2.78963655233383180000e-001) (63, 1.46220386028289790000e-001) (64, 3.42992022633552550000e-002) (65, 3.10180246829986570000e-001) (66, -4.19087380170822140000e-001) (67, -2.22513899207115170000e-001) (68, -5.27269423007965090000e-001) (69, -4.85231399536132810000e-001) (70, -3.17302674055099490000e-001) (71, -3.15639734268188480000e-001) (72, 3.91973964869976040000e-002) (73, 1.23345561325550080000e-001) (74, 1.97317346930503850000e-001) (75, 5.41004896163940430000e-001) (76, 2.35942420959472660000e+001) (77, 2.60434174537658690000e+000) (78, 4.22034978866577150000e-001) (79, -5.41151106357574460000e-001) (80, -3.92009902000427250000e+000) (81, -5.10281383991241460000e-001) (82, 1.52297988533973690000e-001) (83, 4.04897719621658330000e-001) (84, 4.73772019147872920000e-001) (85, 3.89648169279098510000e-001) (86, 3.51138919591903690000e-001) (87, 1.60899102687835690000e-001) (88, 2.95601338148117070000e-001) (89, 2.74235218763351440000e-001) (90, 4.33816075325012210000e-001) (91, -2.06906867027282710000e+000) (92, 8.02625492215156560000e-002) (93, 9.89972800016403200000e-002) (94, -2.64189243316650390000e+001) (95, 9.97669473290443420000e-002) (96, 2.13340952992439270000e-001) (97, 8.09052772819995880000e-003) (98, 2.14254283905029300000e+001) (99, 3.80577951669692990000e-001) (0, -5.17851734161376950000e+000) (1, -5.18605518341064450000e+000) (2, -7.10420989990234370000e+000) (3, -1.38944580078125000000e+003) (4, -1.32160510253906250000e+003) (5, -7.97009643554687500000e+002) (6, -1.29565771484375000000e+003) (7, -4.83473434448242190000e+001) (8, -1.40008349609375000000e+003) (9, -1.34442968750000000000e+003) (10, -1.53773355484008790000e+001) (11, -6.46355009078979490000e+000) (12, -6.00185680389404300000e+000) (13, -5.31868839263916020000e+000) (14, -5.33621835708618160000e+000) (15, -5.30330514907836910000e+000) (16, -5.16500902175903320000e+000) (17, -4.79683685302734370000e+000) (18, -4.69483470916748050000e+000) (19, -1.35501205921173100000e+000) (20, -1.43612039089202880000e+000) (21, -4.99267425537109380000e+001) (22, -1.24605908203125000000e+003) (23, 2.39926052093505860000e+000) (24, 8.67444574832916260000e-001) (25, 3.74614143371582030000e+000) (26, -9.79431271553039550000e-002) (27, -4.80771732330322270000e+000) (28, -5.12253904342651370000e+000) (29, -2.63518548011779790000e+000) (30, -6.66356515884399410000e+000) (31, -1.40100732421875000000e+003) (32, -6.13233795166015630000e+001) (33, -1.47176504135131840000e+000) (34, -1.13040935993194580000e+000) (35, -6.48389577865600590000e-001) (36, -1.28346490859985350000e+000) (37, -2.04753971099853520000e+000) (38, -4.76884794235229490000e+000) (39, -4.81235980987548830000e+000) (40, -4.67693758010864260000e+000) (41, -4.68795680999755860000e+000) (42, -5.11963176727294920000e+000) (43, -2.16798663139343260000e+000) (44, -3.98931169509887700000e+000) (45, -3.94080638885498050000e+000) (46, 2.40023422241210940000e+001) (47, 1.49718957519531250000e+003) (48, 1.45060009765625000000e+003) (49, 5.04493827819824220000e+001) (50, 3.45877304077148440000e+001) (51, -1.29883790016174320000e+000) (52, 7.09689788818359380000e+001) (53, -1.04235715866088870000e+001) (54, -2.07608437538146970000e+000) (55, -4.31469726562500000000e+000) (56, -5.75787124633789060000e+001) (57, -6.82181945800781250000e+002) (58, -3.42628707885742190000e+001) (59, -2.99187812805175780000e+001) (60, -8.28237724304199220000e+000) (61, -7.21887016296386720000e+000) (62, -3.06338763236999510000e+000) (63, -2.49389028549194340000e+000) (64, -7.24630260467529300000e+000) (65, -1.21235311031341550000e+000) (66, -5.00702095031738280000e+000) (67, -1.24160871505737300000e+001) (68, -3.00870494842529300000e+001) (69, -3.00066432952880860000e+001) (70, -5.31604766845703130000e+000) (71, -1.45987701416015630000e+001) (72, -5.53917837142944340000e+000) (73, -5.24668502807617190000e+000) (74, -4.77497053146362300000e+000) (75, -1.32107841968536380000e+000) (76, -4.34902042150497440000e-001) (77, -1.89359545707702640000e+000) (78, -4.62740087509155270000e+000) (79, -2.99497070312500000000e+001) (80, -2.03899551391601560000e+002) (81, -3.02330074310302730000e+001) (82, -5.12318134307861330000e+000) (83, -4.46023672819137570000e-001) (84, -4.67768430709838870000e+000) (85, -4.77982282638549800000e+000) (86, -4.67801713943481450000e+000) (87, -4.74930381774902340000e+000) (88, -1.28852844238281250000e+000) (89, -9.24579873681068420000e-002) (90, 1.70292071998119350000e-002) (91, -1.63441116333007810000e+002) (92, -8.56694793701171880000e+001) (93, -6.63116395473480220000e-001) (94, -5.74977340698242190000e+001) (95, -5.46144247055053710000e-001) (96, 1.53938274383544920000e+001) (97, 4.34022635221481320000e-001) (98, 1.87098426818847660000e+001) (99, -2.07504224777221680000e+000) (0, -2.64023685455322270000e+000) (1, -2.46414804458618160000e+000) (2, -5.66196143627166750000e-001) (3, -1.49348242187500000000e+003) (4, -1.35749450683593750000e+003) (5, -1.21757934570312500000e+003) (6, -1.25293298339843750000e+003) (7, -8.06231212615966800000e+000) (8, -1.45810766601562500000e+003) (9, -5.90513916015625000000e+002) (10, -4.83295936584472660000e+001) (11, -1.94288082122802730000e+001) (12, -6.55994081497192380000e+000) (13, -6.28875494003295900000e+000) (14, -6.35605430603027340000e+000) (15, -1.50762147903442380000e+001) (16, -1.43304214477539060000e+001) (17, -1.20912551879882810000e+001) (18, -5.04215145111083980000e+000) (19, -5.67082703113555910000e-001) (20, -7.14202284812927250000e-001) (21, -5.60028991699218750000e+002) (22, -1.24026623535156250000e+003) (23, -5.55949401855468750000e+000) (24, -2.35571563243865970000e-001) (25, 2.99253225326538090000e-001) (26, 4.83206301927566530000e-001) (27, -1.02087402343750000000e+000) (28, -5.16860294342041020000e+000) (29, -1.26410026550292970000e+001) (30, -1.72724895477294920000e+001) (31, -1.45624658203125000000e+003) (32, -1.03294494628906250000e+002) (33, -3.53886991739273070000e-001) (34, -1.08653835952281950000e-001) (35, -5.66690087318420410000e-001) (36, -5.76808333396911620000e-001) (37, -6.27604484558105470000e-001) (38, -1.16797494888305660000e+001) (39, -1.21328792572021480000e+001) (40, -2.31540346145629880000e+000) (41, -5.03108835220336910000e+000) (42, -6.33553981781005860000e+000) (43, -6.12749934196472170000e-001) (44, -1.14850854873657230000e+000) (45, -1.88046038150787350000e+000) (46, -5.63553869724273680000e-001) (47, 2.17302775382995610000e+000) (48, 1.17446339130401610000e+000) (49, 9.65507179498672490000e-002) (50, 3.21434807777404790000e+000) (51, -6.32299780845642090000e-001) (52, 2.11183285713195800000e+000) (53, 2.65442252159118650000e-001) (54, -1.15367822647094730000e+001) (55, -6.64104938507080080000e+000) (56, -2.44322414398193360000e+001) (57, -4.76808990478515620000e+002) (58, -4.74561309814453120000e+000) (59, -2.16374244689941410000e+001) (60, -3.40545654296875000000e+000) (61, -3.30594801902771000000e+000) (62, -1.32527029514312740000e+000) (63, -1.72260022163391110000e+000) (64, -4.97072649002075200000e+000) (65, -6.62272930145263670000e-001) (66, -6.12230920791625980000e+000) (67, -3.57072944641113280000e+001) (68, -3.40835494995117190000e+001) (69, -3.42500000000000000000e+001) (70, -1.51655731201171880000e+001) (71, -4.40926971435546880000e+001) (72, -6.09120321273803710000e+000) (73, -5.25717020034790040000e+000) (74, -2.22490143775939940000e+000) (75, -1.88530281186103820000e-001) (76, -1.84120103716850280000e-001) (77, -6.18130266666412350000e-001) (78, -1.09317274093627930000e+001) (79, -3.60839996337890630000e+001) (80, -2.22881637573242190000e+002) (81, -3.63218460083007810000e+001) (82, -5.35198593139648440000e+000) (83, -1.28289163112640380000e+000) (84, -6.72826111316680910000e-001) (85, -4.43412017822265620000e+000) (86, -4.42746162414550780000e+000) (87, -5.11106443405151370000e+000) (88, -6.40152633190155030000e-001) (89, -1.71730771660804750000e-001) (90, -1.98465749621391300000e-001) (91, -2.01695037841796870000e+002) (92, -1.86867885589599610000e+001) (93, -5.59133470058441160000e-001) (94, -6.64681148529052730000e+000) (95, -5.72546482086181640000e-001) (96, -1.30075722932815550000e-001) (97, 1.18584670126438140000e-001) (98, 1.75197715759277340000e+001) (99, -4.57445234060287480000e-001) (0, 5.29746353626251220000e-001) (1, 6.26559257507324220000e-001) (2, 6.33185803890228270000e-001) (3, 2.28816533088684080000e+000) (4, 2.17129306793212890000e+001) (5, -4.08201456069946290000e+000) (6, 2.02530527114868160000e+000) (7, 6.15091800689697270000e-001) (8, 5.96293509006500240000e-001) (9, 1.53820604085922240000e-001) (10, 5.98935961723327640000e-001) (11, 1.11620858311653140000e-001) (12, 5.39178252220153810000e-001) (13, 5.48589587211608890000e-001) (14, 5.42607903480529790000e-001) (15, 1.50048807263374330000e-001) (16, 2.99550235271453860000e-001) (17, 2.77612119913101200000e-001) (18, 6.41275823116302490000e-001) (19, 6.39146983623504640000e-001) (20, 4.77098286151885990000e-001) (21, 5.59367656707763670000e-001) (22, 5.12242794036865230000e-001) (23, 6.29247486591339110000e-001) (24, 8.18427503108978270000e-001) (25, 4.16284990310668950000e+000) (26, 4.35571241378784180000e+000) (27, 7.84836411476135250000e-001) (28, 3.67531001567840580000e-001) (29, -3.57131779193878170000e-001) (30, 2.26579502224922180000e-001) (31, -1.09373152256011960000e+000) (32, 3.52823287248611450000e-001) (33, 5.79566657543182370000e-001) (34, 1.07151687145233150000e+000) (35, 6.83702349662780760000e-001) (36, 6.20969533920288090000e-001) (37, 4.87396866083145140000e-001) (38, 3.70080709457397460000e-001) (39, 1.86054974794387820000e-001) (40, 5.56743919849395750000e-001) (41, 6.00271821022033690000e-001) (42, 5.38757324218750000000e-001) (43, 6.60408973693847660000e-001) (44, 6.95111632347106930000e-001) (45, 6.80072367191314700000e-001) (46, 7.49682128429412840000e-001) (47, 1.30657517910003660000e+000) (48, 2.19488590955734250000e-001) (49, 2.23741292953491210000e+000) (50, 9.88315963745117190000e+000) (51, 3.55575346946716310000e+000) (52, 8.15394878387451170000e+000) (53, 6.65645217895507810000e+000) (54, -2.61745433807373050000e+001) (55, 7.23587095737457280000e-001) (56, 7.64165639877319340000e-001) (57, 4.55140590667724610000e-001) (58, 6.13308429718017580000e-001) (59, 5.08763551712036130000e-001) (60, 6.81983411312103270000e-001) (61, 8.01881372928619380000e-001) (62, 7.70548164844512940000e-001) (63, 4.02075242996215820000e+000) (64, 6.23647093772888180000e-001) (65, 5.77847719192504880000e-001) (66, -1.86509585380554200000e+000) (67, -1.32500183582305910000e+000) (68, -1.36210465431213380000e+000) (69, -1.47129082679748540000e+000) (70, -1.46101129055023190000e+000) (71, -3.30517530441284180000e-001) (72, 2.34245747327804570000e-001) (73, 1.31434708833694460000e-001) (74, 5.88837146759033200000e-001) (75, 7.13515520095825200000e-001) (76, 8.10040295124053960000e-001) (77, 6.65546536445617680000e-001) (78, -1.48206484317779540000e+000) (79, -1.50421595573425290000e+000) (80, -1.17042331695556640000e+001) (81, -1.48555934429168700000e+000) (82, 3.34319293498992920000e-001) (83, 6.51674747467041020000e-001) (84, 6.66895985603332520000e-001) (85, 3.67335766553878780000e-001) (86, 2.76879489421844480000e-001) (87, 1.90618500113487240000e-001) (88, 6.37920260429382320000e-001) (89, 3.75921344757080080000e+000) (90, 3.73334693908691410000e+000) (91, 6.41360461711883540000e-001) (92, 7.36512362957000730000e-001) (93, 7.53407299518585210000e-001) (94, 3.85998725891113280000e+000) (95, 3.09239554405212400000e+000) (96, -2.43661865592002870000e-001) (97, 3.04834914207458500000e+000) (98, -2.09706077575683590000e+001) (99, 6.78552031517028810000e-001) (0, 3.54777395725250240000e-001) (1, 3.50280642509460450000e-001) (2, 2.96267747879028320000e-001) (3, -2.70146751403808590000e+000) (4, -8.85178947448730470000e+000) (5, 2.62212162017822270000e+001) (6, 1.27184659242630000000e-001) (7, 1.26431360840797420000e-001) (8, -1.89185447692871090000e+001) (9, -1.07574701309204100000e+001) (10, -3.30840125679969790000e-002) (11, -1.25467451289296150000e-002) (12, 2.74312287569046020000e-001) (13, 2.87344187498092650000e-001) (14, 2.66182988882064820000e-001) (15, 1.84984490275383000000e-001) (16, 1.69267743825912480000e-001) (17, 1.11594423651695250000e-001) (18, 2.11788401007652280000e-001) (19, 2.01454594731330870000e-001) (20, 3.29518467187881470000e-001) (21, 2.51304328441619870000e-001) (22, -1.22704136371612550000e+000) (23, -2.44728237390518190000e-001) (24, 6.07928156852722170000e-001) (25, 7.28027114868164060000e+001) (26, 1.62212142944335940000e+002) (27, 4.47368472814559940000e-001) (28, 3.52195471525192260000e-001) (29, 4.98071499168872830000e-002) (30, 1.40331387519836430000e-001) (31, -5.71301984786987300000e+000) (32, 7.10889697074890140000e-002) (33, 1.00168287754058840000e+000) (34, 2.62341995239257810000e+001) (35, 1.23686039447784420000e+000) (36, 3.16554844379425050000e-001) (37, 2.82492518424987790000e-001) (38, 1.92981898784637450000e-001) (39, 2.21213534474372860000e-001) (40, 1.93480879068374630000e-001) (41, 2.51016288995742800000e-001) (42, 3.41618716716766360000e-001) (43, 1.84081852436065670000e-001) (44, 1.40557050704956050000e-001) (45, -1.77354857325553890000e-001) (46, 1.81355774402618410000e-001) (47, 3.83513540029525760000e-001) (48, 1.58817976713180540000e-001) (49, 1.04729905724525450000e-001) (50, 1.58680784702301030000e+000) (51, 2.39684581756591800000e+001) (52, 1.17027458190917970000e+002) (53, -8.10047836303710940000e+001) (54, 5.34123268127441410000e+001) (55, -1.18981623649597170000e+000) (56, -2.04384613037109370000e+000) (57, -1.05693840980529790000e+000) (58, -1.98494598269462590000e-001) (59, -1.21969193220138550000e-001) (60, -7.11946040391922000000e-002) (61, -1.44651249051094060000e-001) (62, 1.93217411637306210000e-001) (63, 1.24470055103302000000e-001) (64, 3.01550403237342830000e-002) (65, 3.15883249044418330000e-001) (66, -2.89010226726531980000e-001) (67, -2.41902321577072140000e-001) (68, -2.87123948335647580000e-001) (69, -4.22084897756576540000e-001) (70, -3.34044188261032100000e-001) (71, -2.61957228183746340000e-001) (72, 1.42660900950431820000e-001) (73, 1.48062437772750850000e-001) (74, 2.63255834579467770000e-001) (75, 4.69627052545547490000e-001) (76, 9.76792526245117190000e+000) (77, 6.18773162364959720000e-001) (78, 7.74835571646690370000e-002) (79, -2.24354967474937440000e-001) (80, -5.10900926589965820000e+000) (81, -4.43736553192138670000e-001) (82, 1.31511688232421880000e-001) (83, 4.46693688631057740000e-001) (84, 4.17651236057281490000e-001) (85, 1.92684277892112730000e-001) (86, 2.87953019142150880000e-001) (87, 1.55721381306648250000e-001) (88, 2.80558019876480100000e-001) (89, 3.20296704769134520000e-001) (90, 2.56261169910430910000e-001) (91, -8.29268157482147220000e-001) (92, 3.12581881880760190000e-002) (93, 1.23491846024990080000e-001) (94, -2.64641189575195310000e+001) (95, 2.37951219081878660000e-001) (96, 2.10720166563987730000e-001) (97, 1.97370529174804690000e-001) (98, 2.33473606109619140000e+001) (99, 3.04223805665969850000e-001) (0, -4.85566949844360350000e+000) (1, -4.87705278396606450000e+000) (2, -2.96367383003234860000e+000) (3, -2.37119430541992190000e+002) (4, -2.19767562866210940000e+002) (5, -7.41032104492187500000e+001) (6, -7.45865440368652340000e+000) (7, -4.50776939392089840000e+001) (8, -1.30347009277343750000e+003) (9, -1.13262182617187500000e+003) (10, -1.59832715988159180000e+001) (11, -3.16486282348632810000e+001) (12, -4.89944314956665040000e+000) (13, -4.97530078887939450000e+000) (14, -5.03086900711059570000e+000) (15, -5.01843023300170900000e+000) (16, -4.91928291320800780000e+000) (17, -4.91303110122680660000e+000) (18, -5.09075784683227540000e+000) (19, -1.30436420440673830000e+000) (20, -1.27928721904754640000e+000) (21, -6.85039855957031250000e+002) (22, -1.35411865234375000000e+003) (23, -1.99767395019531250000e+002) (24, -9.97280001640319820000e-001) (25, -4.06770855188369750000e-001) (26, -9.93291497230529790000e-001) (27, -1.74087810516357420000e+000) (28, -8.59572887420654300000e+000) (29, -2.34439964294433590000e+001) (30, -9.83956375122070310000e+001) (31, -1.44561242675781250000e+003) (32, -8.01299743652343750000e+001) (33, -1.05016314983367920000e+000) (34, -1.07986414432525630000e+000) (35, -1.09896099567413330000e+000) (36, -1.35379314422607420000e+000) (37, -2.10725426673889160000e+000) (38, -5.02341604232788090000e+000) (39, -5.08865213394165040000e+000) (40, -5.03818035125732420000e+000) (41, -4.92575407028198240000e+000) (42, -4.94722747802734370000e+000) (43, -5.00681114196777340000e+000) (44, -3.06588912010192870000e+000) (45, -9.48681259155273440000e+000) (46, -6.72265195846557620000e+000) (47, 1.85239669799804690000e+002) (48, 2.44263229370117190000e+001) (49, 5.03244102001190190000e-002) (50, 6.71874923706054690000e+001) (51, -1.88847094774246220000e-001) (52, -3.05378551483154300000e+001) (53, -1.01876173019409180000e+001) (54, -8.27358150482177730000e+000) (55, -1.95310211181640620000e+002) (56, -1.40889831542968750000e+003) (57, -8.13282348632812500000e+002) (58, -2.08644866943359380000e+001) (59, -1.04064464569091800000e+001) (60, -1.84960803985595700000e+001) (61, -1.76703071594238280000e+001) (62, -3.07353305816650390000e+000) (63, -2.12998270988464360000e+000) (64, -7.19834470748901370000e+000) (65, -1.44322943687438960000e+000) (66, -3.15610313415527340000e+000) (67, -5.73898077011108400000e+000) (68, -1.17559251785278320000e+001) (69, -1.21899528503417970000e+001) (70, -5.35601949691772460000e+000) (71, -1.01152030944824220000e+002) (72, -2.37062683105468750000e+001) (73, -5.07675266265869140000e+000) (74, -2.13969659805297850000e+000) (75, -1.06597733497619630000e+000) (76, -3.80932033061981200000e-001) (77, -1.69324409961700440000e+000) (78, -4.93195486068725590000e+000) (79, -2.86301193237304690000e+001) (80, -1.84548843383789060000e+002) (81, -1.24673585891723630000e+001) (82, -4.94917535781860350000e+000) (83, -1.11632800102233890000e+000) (84, -4.86092042922973630000e+000) (85, -4.87567806243896480000e+000) (86, -4.90715742111206050000e+000) (87, -4.97764348983764650000e+000) (88, -1.39325165748596190000e+000) (89, -8.43615755438804630000e-002) (90, -3.81266742944717410000e-001) (91, -2.52307006835937500000e+002) (92, -1.23497016906738280000e+002) (93, -3.30241799354553220000e+000) (94, -1.12287597656250000000e+003) (95, -8.36116886138916020000e+000) (96, -1.33962810039520260000e+000) (97, -1.38915169239044190000e+000) (98, 1.94538879394531250000e+002) (99, -7.42397546768188480000e+000) (0, 3.34260135889053340000e-001) (1, 2.97194480895996090000e-001) (2, 2.47490197420120240000e-001) (3, -3.06119293212890620000e+002) (4, -1.44400012207031250000e+003) (5, -3.45539207458496090000e+001) (6, 2.18701176345348360000e-002) (7, 5.72305470705032350000e-002) (8, -2.06016445159912110000e+001) (9, -7.84354019165039060000e+000) (10, 6.44395872950553890000e-002) (11, -6.04029834270477290000e-001) (12, 2.05620512366294860000e-001) (13, 1.20728395879268650000e-001) (14, 1.36001721024513240000e-001) (15, 1.99867561459541320000e-001) (16, 8.88451784849166870000e-002) (17, 1.30412280559539790000e-001) (18, 2.12551549077034000000e-001) (19, 2.28712737560272220000e-001) (20, 1.78836584091186520000e-001) (21, 1.26253083348274230000e-001) (22, -1.15302860736846920000e+000) (23, -2.21876531839370730000e-001) (24, 2.01345115900039670000e-001) (25, 1.94597110748291020000e+001) (26, 6.46080780029296870000e+000) (27, 3.14629316329956050000e-001) (28, 2.21713572740554810000e-001) (29, -1.43816381692886350000e-001) (30, 1.32461875677108760000e-001) (31, -9.13895308971405030000e-001) (32, 1.04142464697360990000e-002) (33, 2.33467444777488710000e-001) (34, 8.39301943778991700000e-001) (35, 1.28953278064727780000e+000) (36, 3.68246227502822880000e-001) (37, 3.36257070302963260000e-001) (38, 4.51618209481239320000e-002) (39, 2.19305187463760380000e-001) (40, 1.76247820258140560000e-001) (41, 3.38656336069107060000e-001) (42, 2.89334565401077270000e-001) (43, 1.49473562836647030000e-001) (44, 1.06970027089118960000e-001) (45, 2.79090870171785350000e-002) (46, 2.71087110042572020000e-001) (47, 3.67172151803970340000e-001) (48, 2.61876344680786130000e-001) (49, 3.10023039579391480000e-001) (50, 5.09360909461975100000e-001) (51, -9.54698383808135990000e-001) (52, 6.27078094482421870000e+001) (53, -6.55551452636718750000e+001) (54, -3.88370208740234380000e+001) (55, -2.74799704551696780000e+000) (56, -2.52247333526611330000e+000) (57, -7.35303223133087160000e-001) (58, -1.50524392724037170000e-001) (59, -2.72356063127517700000e-001) (60, -7.31083378195762630000e-002) (61, -5.66870644688606260000e-002) (62, 1.88102960586547850000e-001) (63, 1.21019840240478520000e-001) (64, -1.69583395123481750000e-001) (65, 1.98166668415069580000e-001) (66, -7.54223525524139400000e-001) (67, -6.59191846847534180000e-001) (68, -7.53055989742279050000e-001) (69, -4.41610485315322880000e-001) (70, -4.31850463151931760000e-001) (71, -2.92182952165603640000e-001) (72, 3.28077301383018490000e-002) (73, 1.28063425421714780000e-001) (74, 2.82241940498352050000e-001) (75, 1.73950329422950740000e-001) (76, 2.77573049068450930000e-001) (77, 3.28489631414413450000e-001) (78, -3.76564651727676390000e-001) (79, -4.83796179294586180000e-001) (80, -4.94254922866821290000e+000) (81, -5.66775381565093990000e-001) (82, 3.52460592985153200000e-002) (83, 3.03834974765777590000e-001) (84, 2.25340232253074650000e-001) (85, 1.83343186974525450000e-001) (86, 1.11463524401187900000e-001) (87, 5.01721799373626710000e-002) (88, 1.89043402671813960000e-001) (89, 2.69265472888946530000e-001) (90, 3.15074920654296880000e-001) (91, 3.78458388149738310000e-002) (92, 1.58570185303688050000e-001) (93, 2.77603983879089360000e-001) (94, -9.30943965911865230000e+000) (95, 9.77711454033851620000e-002) (96, 1.67734518647193910000e-001) (97, 1.07684463262557980000e-001) (98, 1.89145717620849610000e+001) (99, 2.07140386104583740000e-001) (0, 1.90093100070953370000e-001) (1, 2.92278617620468140000e-001) (2, 1.95594415068626400000e-001) (3, -1.93300473690032960000e+000) (4, -5.84777641296386720000e+001) (5, 5.15415878295898440000e+001) (6, 1.36969298124313350000e-001) (7, 2.34015360474586490000e-001) (8, 4.14216555655002590000e-002) (9, -1.02348579093813900000e-002) (10, 2.07486808300018310000e-001) (11, -1.18780635297298430000e-001) (12, 1.38082623481750490000e-001) (13, 1.70080274343490600000e-001) (14, 2.85574287176132200000e-001) (15, 1.49119198322296140000e-001) (16, 9.34994965791702270000e-002) (17, 2.32419028878211980000e-001) (18, 3.26596558094024660000e-001) (19, 1.95183008909225460000e-001) (20, 2.53001481294631960000e-001) (21, 1.85187637805938720000e-001) (22, 2.44392096996307370000e-001) (23, 2.12917640805244450000e-001) (24, 3.29294383525848390000e-001) (25, 7.26266086101531980000e-001) (26, 8.58265590667724610000e+000) (27, 1.99291631579399110000e-001) (28, 2.28131577372550960000e-001) (29, 6.08604289591312410000e-002) (30, 2.06365361809730530000e-001) (31, 7.73352831602096560000e-002) (32, 3.13935041427612300000e-001) (33, 1.14318713545799260000e-001) (34, 3.22068858146667480000e+000) (35, 2.07446503639221190000e+000) (36, 4.69981282949447630000e-001) (37, 3.06068122386932370000e-001) (38, 3.09853971004486080000e-001) (39, 1.29095092415809630000e-001) (40, 1.62080869078636170000e-001) (41, 1.90516993403434750000e-001) (42, 3.00154715776443480000e-001) (43, 3.11387866735458370000e-001) (44, 2.85011142492294310000e-001) (45, 3.01197171211242680000e-001) (46, 2.53180205821990970000e-001) (47, 4.10690426826477050000e-001) (48, 2.07610189914703370000e-001) (49, 2.65863925218582150000e-001) (50, 1.49273431301116940000e+000) (51, -4.09993767738342290000e-001) (52, 4.77229804992675780000e+001) (53, 1.97922248840332030000e+001) (54, 1.24471683502197270000e+001) (55, -2.73912096023559570000e+000) (56, -2.45888099670410160000e+001) (57, -1.11691827774047850000e+001) (58, -1.75090491771698000000e-001) (59, -1.25714898109436040000e-001) (60, 1.72949060797691350000e-001) (61, -1.05421513319015500000e-001) (62, 2.02992737293243410000e-001) (63, 1.79534718394279480000e-001) (64, 1.01994171738624570000e-001) (65, 2.32615321874618530000e-001) (66, -5.04556894302368160000e-001) (67, -3.66586714982986450000e-001) (68, -4.89688634872436520000e-001) (69, -4.03087943792343140000e-001) (70, -5.03794908523559570000e-001) (71, -1.34617341682314870000e-002) (72, 2.28389188647270200000e-001) (73, 1.46337985992431640000e-001) (74, 1.61044225096702580000e-001) (75, 1.97761356830596920000e+000) (76, 6.49908733367919920000e+000) (77, 8.82043361663818360000e-001) (78, -3.95997673273086550000e-001) (79, -4.24936801195144650000e-001) (80, -4.07019186019897460000e+000) (81, -4.87476319074630740000e-001) (82, 1.27019494771957400000e-001) (83, 3.86002331972122190000e-001) (84, 2.63068079948425290000e-001) (85, 1.62042394280433650000e-001) (86, 2.18363851308822630000e-001) (87, 7.15980082750320430000e-002) (88, 2.10551053285598750000e-001) (89, 2.18033418059349060000e-001) (90, 2.44984015822410580000e-001) (91, 1.40600413084030150000e-001) (92, 3.42079043388366700000e-001) (93, 1.86420470476150510000e-001) (94, 9.55844148993492130000e-002) (95, 2.79208958148956300000e-001) (96, 2.74998962879180910000e-001) (97, -2.15670112520456310000e-002) (98, 1.90157947540283200000e+001) (99, 2.12185531854629520000e-001) (0, 6.73919796943664550000e-001) (1, 6.55746638774871830000e-001) (2, 6.07151329517364500000e-001) (3, 7.58519828319549560000e-001) (4, 1.77167339324951170000e+001) (5, 6.04006433486938480000e+000) (6, 9.47781026363372800000e-001) (7, 6.03527367115020750000e-001) (8, 6.44199609756469730000e-001) (9, 4.64842349290847780000e-001) (10, 5.62526524066925050000e-001) (11, 2.57465362548828130000e-001) (12, 5.03797948360443120000e-001) (13, 6.30533635616302490000e-001) (14, 6.18319451808929440000e-001) (15, 3.12516182661056520000e-001) (16, 2.58572220802307130000e-001) (17, 3.76405268907547000000e-001) (18, 7.26360380649566650000e-001) (19, 6.56091630458831790000e-001) (20, 5.47474205493927000000e-001) (21, 6.42859399318695070000e-001) (22, 6.46085262298583980000e-001) (23, 5.04541039466857910000e-001) (24, 6.34311616420745850000e-001) (25, 7.73393571376800540000e-001) (26, 6.23387277126312260000e-001) (27, 6.62446677684783940000e-001) (28, 4.13778066635131840000e-001) (29, -3.75986211001873020000e-002) (30, 3.56369405984878540000e-001) (31, 4.08352136611938480000e-001) (32, 6.61461472511291500000e-001) (33, 7.28209495544433590000e-001) (34, 7.35160589218139650000e-001) (35, 7.45272159576416020000e-001) (36, 6.06620430946350100000e-001) (37, 6.98092758655548100000e-001) (38, 4.03908491134643550000e-001) (39, 4.90295737981796260000e-001) (40, 6.41741991043090820000e-001) (41, 7.13365435600280760000e-001) (42, 4.96173053979873660000e-001) (43, 6.38530850410461430000e-001) (44, 6.12401008605957030000e-001) (45, 6.33689403533935550000e-001) (46, 6.11269950866699220000e-001) (47, 7.47751414775848390000e-001) (48, 4.51707154512405400000e-001) (49, 9.46338117122650150000e-001) (50, -8.40308284759521480000e+000) (51, 1.76037371158599850000e-001) (52, -9.20797288417816160000e-001) (53, -4.02187204360961910000e+000) (54, -1.85866336822509770000e+001) (55, 6.88022613525390630000e-001) (56, 7.32690215110778810000e-001) (57, 4.87018495798110960000e-001) (58, 4.17142450809478760000e-001) (59, 4.13832545280456540000e-001) (60, 8.33079755306243900000e-001) (61, 1.13207018375396730000e+000) (62, 7.45243728160858150000e-001) (63, 1.29974758625030520000e+000) (64, 3.94893139600753780000e-001) (65, 4.88538980484008790000e-001) (66, -1.30255281925201420000e+000) (67, -1.18442213535308840000e+000) (68, -6.73645019531250000000e-001) (69, -6.75392508506774900000e-001) (70, -1.15567362308502200000e+000) (71, -1.60210415720939640000e-001) (72, 3.79192262887954710000e-001) (73, 4.10040527582168580000e-001) (74, 6.74067914485931400000e-001) (75, 6.71443760395050050000e-001) (76, 6.61054253578186040000e-001) (77, 5.18016636371612550000e-001) (78, -1.10876011848449710000e+000) (79, -5.95196425914764400000e-001) (80, -7.39692592620849610000e+000) (81, -7.16736674308776860000e-001) (82, 3.41480404138565060000e-001) (83, 5.92711389064788820000e-001) (84, 5.59913396835327150000e-001) (85, 4.10811424255371090000e-001) (86, 3.82015168666839600000e-001) (87, 3.36652368307113650000e-001) (88, 7.34752476215362550000e-001) (89, 1.09947264194488530000e+000) (90, 1.19485402107238770000e+000) (91, 5.51627039909362790000e-001) (92, 6.04946613311767580000e-001) (93, 7.16482102870941160000e-001) (94, 1.24088716506958010000e+000) (95, 1.11076033115386960000e+000) (96, 6.61726653575897220000e-001) (97, 1.11652433872222900000e+000) (98, -1.58887414932250980000e+001) (99, 6.39401316642761230000e-001) (0, -1.76774770021438600000e-001) (1, -1.18498086929321290000e-001) (2, -2.91360706090927120000e-001) (3, 3.10665756464004520000e-001) (4, -8.34134876728057860000e-001) (5, 6.35579168796539310000e-001) (6, 1.58847376704216000000e-001) (7, -2.20800057053565980000e-001) (8, -9.65524539351463320000e-002) (9, -1.78778812289237980000e-001) (10, -9.49593633413314820000e-002) (11, -1.40557512640953060000e-001) (12, -1.00403107702732090000e-001) (13, -1.81696638464927670000e-001) (14, -1.36434689164161680000e-001) (15, -7.92484655976295470000e-002) (16, -1.41811504960060120000e-001) (17, -1.14747621119022370000e-001) (18, -1.12584516406059270000e-001) (19, -1.65910482406616210000e-001) (20, -2.90437370538711550000e-001) (21, -1.21093943715095520000e-001) (22, -2.04013273119926450000e-001) (23, -2.30113610625267030000e-001) (24, -1.95880457758903500000e-001) (25, -2.40787640213966370000e-001) (26, -1.59541264176368710000e-001) (27, -2.07111477851867680000e-001) (28, -1.45695209503173830000e-001) (29, 3.84105965495109560000e-002) (30, -2.81960666179656980000e-002) (31, -7.65056395903229710000e-003) (32, -2.92098522186279300000e-001) (33, -1.67557731270790100000e-001) (34, -3.80724787712097170000e-001) (35, -1.64201423525810240000e-001) (36, -2.70120680332183840000e-001) (37, -1.48054152727127080000e-001) (38, -2.69919544458389280000e-001) (39, -1.14067330956459050000e-001) (40, -2.90964901447296140000e-001) (41, -1.23397797346115110000e-001) (42, -9.95625331997871400000e-002) (43, -2.41125732660293580000e-001) (44, -1.04947887361049650000e-001) (45, -6.95480108261108400000e-002) (46, -1.75832837820053100000e-001) (47, -2.78088480234146120000e-001) (48, -1.67677439749240880000e-002) (49, 2.75185912847518920000e-001) (50, 3.65146482363343240000e-003) (51, -3.49311180114746090000e+001) (52, -4.80849647521972660000e+001) (53, -3.62703285217285160000e+001) (54, 5.63040351867675780000e+000) (55, -1.23914763331413270000e-001) (56, 3.75609278678894040000e-001) (57, -6.80262148380279540000e-002) (58, -1.36506274342536930000e-001) (59, -1.53127655386924740000e-001) (60, -2.03987270593643190000e-001) (61, -2.65366643667221070000e-001) (62, -1.10658325254917140000e-001) (63, -3.80621403455734250000e-001) (64, -2.64724582433700560000e-001) (65, -2.18526750802993770000e-001) (66, 4.13198173046112060000e-001) (67, 5.18793165683746340000e-001) (68, 4.57350909709930420000e-001) (69, 1.93443506956100460000e-001) (70, 3.25866848230361940000e-001) (71, 4.39731739461421970000e-002) (72, -9.03357565402984620000e-002) (73, -2.11082965135574340000e-001) (74, -2.89143502712249760000e-001) (75, -1.37886047363281250000e-001) (76, -3.29865515232086180000e-001) (77, -3.01843166351318360000e-001) (78, -4.97297793626785280000e-002) (79, 2.78885275125503540000e-001) (80, 4.01024436950683590000e+000) (81, 4.74812060594558720000e-001) (82, -2.15889602899551390000e-001) (83, -1.94302216172218320000e-001) (84, -1.29308283329010010000e-001) (85, -2.07487076520919800000e-001) (86, -1.50334358215332030000e-001) (87, -3.46595086157321930000e-002) (88, -2.87657678127288820000e-001) (89, -4.68642026185989380000e-001) (90, -4.66039329767227170000e-001) (91, -1.70350447297096250000e-001) (92, -1.74584105610847470000e-001) (93, -1.33521661162376400000e-001) (94, -3.06284040212631230000e-001) (95, -3.33039164543151860000e-001) (96, -2.40337774157524110000e-001) (97, 5.03770172595977780000e-001) (98, 3.31386542320251460000e+000) (99, -2.42648884654045100000e-001) (0, -2.72869199514389040000e-001) (1, -1.97310686111450200000e-001) (2, -2.07784920930862430000e-001) (3, 6.47669494152069090000e-001) (4, 3.83405774831771850000e-001) (5, 1.60871073603630070000e-001) (6, -6.42338171601295470000e-002) (7, -2.20918998122215270000e-001) (8, -1.10762163996696470000e-001) (9, -2.12394163012504580000e-001) (10, -1.40673831105232240000e-001) (11, -6.86653181910514830000e-002) (12, -2.20567941665649410000e-001) (13, -2.30210036039352420000e-001) (14, -2.52750217914581300000e-001) (15, -1.60579994320869450000e-001) (16, -1.59756857901811600000e-002) (17, -2.89089195430278780000e-002) (18, -1.22235134243965150000e-001) (19, -2.04916492104530330000e-001) (20, -2.63512045145034790000e-001) (21, -2.21271216869354250000e-001) (22, -2.34057232737541200000e-001) (23, -9.90100204944610600000e-002) (24, -2.28184714913368230000e-001) (25, -1.89846351742744450000e-001) (26, -1.58035799860954280000e-001) (27, -1.13982982933521270000e-001) (28, -1.11830644309520720000e-001) (29, 1.13880131393671040000e-002) (30, -1.74878448247909550000e-001) (31, -8.20650458335876460000e-002) (32, -9.27126854658126830000e-002) (33, -2.31518909335136410000e-001) (34, -2.43262559175491330000e-001) (35, -4.27886933088302610000e-001) (36, -8.27184081077575680000e-001) (37, -6.64163768291473390000e-001) (38, -2.19571188092231750000e-001) (39, -7.73427188396453860000e-002) (40, -2.35032528638839720000e-001) (41, -1.49151936173439030000e-001) (42, -2.21198797225952150000e-001) (43, -1.87787830829620360000e-001) (44, -1.99262022972106930000e-001) (45, -2.26944938302040100000e-001) (46, -2.82303750514984130000e-001) (47, -2.38773599267005920000e-001) (48, 7.71756097674369810000e-002) (49, -2.24723607301712040000e-001) (50, -2.55203276872634890000e-001) (51, 2.70616793632507320000e+000) (52, 1.76336884498596190000e+000) (53, -7.47362422943115230000e+000) (54, 2.55811285972595210000e+000) (55, -1.72700911760330200000e-001) (56, -5.27980923652648930000e-002) (57, -1.28762543201446530000e-001) (58, -8.62788185477256770000e-002) (59, -8.56252610683441160000e-002) (60, -4.55814786255359650000e-002) (61, -1.62451952695846560000e-001) (62, -1.26562774181365970000e-001) (63, -3.75980705022811890000e-001) (64, -2.24923819303512570000e-001) (65, -2.93075531721115110000e-001) (66, 4.16811078786849980000e-001) (67, 5.19849181175231930000e-001) (68, 5.03829300403594970000e-001) (69, 4.38837409019470210000e-001) (70, 4.31462824344635010000e-001) (71, 1.83386635035276410000e-002) (72, -6.08661845326423650000e-002) (73, -1.38309985399246220000e-001) (74, -2.79418796300888060000e-001) (75, -2.60409265756607060000e-001) (76, -3.16155374050140380000e-001) (77, -3.12885940074920650000e-001) (78, -9.91136729717254640000e-002) (79, 3.60366135835647580000e-001) (80, 3.46876144409179690000e+000) (81, 3.61622869968414310000e-001) (82, -3.04729312658309940000e-001) (83, -3.08334916830062870000e-001) (84, -1.09623923897743230000e-001) (85, -7.22833797335624690000e-002) (86, -9.11123156547546390000e-002) (87, -1.88914746046066280000e-001) (88, -1.91433191299438480000e-001) (89, -9.10693109035491940000e-001) (90, -8.14047753810882570000e-001) (91, -1.81386515498161320000e-001) (92, -2.55770862102508540000e-001) (93, -2.69121348857879640000e-001) (94, -3.58449608087539670000e-001) (95, -3.60415935516357420000e-001) (96, -3.00504237413406370000e-001) (97, -2.21522495150566100000e-001) (98, -5.27867853641510010000e-001) (99, -3.14608335494995120000e-001) (0, -6.08817863464355470000e+000) (1, -5.40789079666137700000e+000) (2, -1.52526319026947020000e+000) (3, -1.49896325683593750000e+003) (4, -1.34399609375000000000e+003) (5, -1.23581115722656250000e+003) (6, -1.44566101074218750000e+003) (7, -1.61098663330078120000e+002) (8, -1.44848657226562500000e+003) (9, -1.48475988769531250000e+003) (10, -1.14199096679687500000e+002) (11, -2.25503826141357420000e+001) (12, -1.45617523193359370000e+001) (13, -1.45821189880371090000e+001) (14, -1.46027851104736330000e+001) (15, -6.04285097122192380000e+000) (16, -6.06450080871582030000e+000) (17, -4.53871917724609370000e+000) (18, -1.95128810405731200000e+000) (19, -1.27320671081542970000e+000) (20, -7.52302885055541990000e-001) (21, -7.38368835449218750000e+002) (22, -1.45712817382812500000e+003) (23, -5.18738985061645510000e+000) (24, 2.45002508163452150000e-002) (25, 1.24561264038085940000e+002) (26, 3.93415153026580810000e-001) (27, -8.35935294628143310000e-001) (28, -2.34509563446044920000e+000) (29, -8.59774017333984370000e+000) (30, -2.34014358520507810000e+001) (31, -1.44362658691406250000e+003) (32, -2.09790237426757810000e+002) (33, -3.20491790771484380000e-001) (34, -9.15291681885719300000e-002) (35, -2.78500938415527340000e+000) (36, -6.66872859001159670000e-001) (37, -8.67497026920318600000e-001) (38, -1.96107161045074460000e+000) (39, -1.90319776535034180000e+000) (40, -2.02818298339843750000e+000) (41, -2.38332605361938480000e+000) (42, -6.15280199050903320000e+000) (43, -1.13981020450592040000e+000) (44, -1.06805062294006350000e+000) (45, -2.51374530792236330000e+000) (46, 4.11443424224853520000e+000) (47, 1.49974877929687500000e+003) (48, 1.49989648437500000000e+003) (49, 1.48645239257812500000e+003) (50, 2.80613311767578120000e+002) (51, 4.18640859425067900000e-002) (52, 1.45265645980834960000e+001) (53, -7.93632841110229490000e+000) (54, -3.58736801147460940000e+001) (55, -7.54267272949218750000e+001) (56, -1.17312573242187500000e+003) (57, -1.37043334960937500000e+003) (58, -5.08665275573730470000e+001) (59, -5.06018257141113280000e+001) (60, -8.37243080139160160000e+000) (61, -7.56884431838989260000e+000) (62, -3.39402103424072270000e+000) (63, -6.78858709335327150000e+000) (64, -1.34956369400024410000e+001) (65, -1.49191641807556150000e+000) (66, -5.76955318450927730000e+000) (67, -6.05041265487670900000e+000) (68, -6.09854364395141600000e+000) (69, -6.35333251953125000000e+000) (70, -6.94768857955932620000e+000) (71, -1.28922348022460940000e+002) (72, -3.58658313751220700000e+000) (73, -2.23144435882568360000e+000) (74, -1.94244778156280520000e+000) (75, -2.77628511190414430000e-001) (76, -1.32175341248512270000e-001) (77, -2.24885851144790650000e-001) (78, -4.49366903305053710000e+000) (79, -1.47845382690429690000e+001) (80, -2.03772552490234370000e+002) (81, -6.29904651641845700000e+000) (82, -2.31190443038940430000e+000) (83, -5.00269412994384770000e-001) (84, -8.76700758934021000000e-001) (85, -1.88735902309417720000e+000) (86, -1.90690565109252930000e+000) (87, -2.25984644889831540000e+000) (88, -5.79898715019226070000e-001) (89, -2.70067363977432250000e-001) (90, -2.63829708099365230000e-001) (91, -1.38390136718750000000e+003) (92, -8.46538696289062500000e+001) (93, -2.31940817832946780000e+000) (94, -3.68390617370605470000e+001) (95, -3.97707134485244750000e-001) (96, 2.33846939086914060000e+002) (97, 8.11482608318328860000e-001) (98, 5.70162124633789060000e+001) (99, -1.48216116428375240000e+000) (0, -4.91233825683593750000e+000) (1, -3.17863798141479490000e+000) (2, -3.02814674377441410000e+000) (3, -1.48431835937500000000e+003) (4, -1.22322656250000000000e+003) (5, -1.23850244140625000000e+003) (6, -1.46666333007812500000e+003) (7, -9.38792037963867190000e+000) (8, -1.39496191406250000000e+003) (9, -1.39592065429687500000e+003) (10, -1.43766040802001950000e+001) (11, -1.53536710739135740000e+001) (12, -4.88007354736328120000e+000) (13, -4.94961261749267580000e+000) (14, -5.02121210098266600000e+000) (15, -5.02492809295654300000e+000) (16, -4.97378158569335940000e+000) (17, -4.88890457153320310000e+000) (18, -4.57391309738159180000e+000) (19, -1.34496188163757320000e+000) (20, -1.59715580940246580000e+000) (21, -1.15374084472656250000e+003) (22, -1.40089331054687500000e+003) (23, -2.78751373291015630000e+002) (24, -1.12704575061798100000e+000) (25, 3.16472935676574710000e+000) (26, -9.25457417964935300000e-001) (27, -4.97447633743286130000e+000) (28, -5.42208242416381840000e+000) (29, -1.62508087158203120000e+001) (30, -9.85713272094726560000e+001) (31, -1.45795617675781250000e+003) (32, -1.21834252929687500000e+003) (33, -1.28692853450775150000e+000) (34, -2.82740092277526860000e+000) (35, -5.93863153457641600000e+000) (36, -1.50572800636291500000e+000) (37, -3.28960657119750980000e+000) (38, -5.05389070510864260000e+000) (39, -4.49141025543212890000e+000) (40, -4.51633405685424800000e+000) (41, -3.34497809410095210000e+000) (42, -4.92940855026245120000e+000) (43, -3.21386361122131350000e+000) (44, -3.82379722595214840000e+000) (45, -3.92816138267517090000e+000) (46, -1.06417713165283200000e+001) (47, -5.44730415344238280000e+001) (48, 6.97376632690429690000e+001) (49, 1.17273521423339840000e+000) (50, 1.28556457519531250000e+002) (51, 9.98750701546669010000e-003) (52, 3.45811233520507810000e+001) (53, -1.87265823364257810000e+002) (54, 5.62594127655029300000e+000) (55, -3.69265365600585940000e+001) (56, -1.23253799438476560000e+002) (57, -1.39565087890625000000e+003) (58, -7.94452810287475590000e+000) (59, -1.13415966033935550000e+001) (60, -1.00430202484130860000e+001) (61, -4.47210884094238280000e+000) (62, -1.84996414184570310000e+000) (63, -6.93491649627685550000e+000) (64, -6.07782506942749020000e+000) (65, -3.00373172760009770000e+000) (66, -4.45242786407470700000e+000) (67, -9.16474914550781250000e+000) (68, -2.83066844940185550000e+001) (69, -2.91825599670410160000e+001) (70, -5.05889034271240230000e+000) (71, -4.03181152343750000000e+001) (72, -7.00864410400390620000e+000) (73, -5.02939891815185550000e+000) (74, -4.92289590835571290000e+000) (75, -1.29806792736053470000e+000) (76, -1.93795472383499150000e-001) (77, -2.61789941787719730000e+000) (78, -1.14482984542846680000e+001) (79, -2.80792789459228520000e+001) (80, -1.77171417236328120000e+002) (81, -2.84210491180419920000e+001) (82, -5.17472505569458010000e+000) (83, -8.42411518096923830000e-001) (84, -4.77040386199951170000e+000) (85, -5.00249385833740230000e+000) (86, -5.07432079315185550000e+000) (87, -5.05361509323120120000e+000) (88, -3.13868379592895510000e+000) (89, -3.37976813316345210000e-001) (90, -8.75330746173858640000e-001) (91, -1.45924926757812500000e+003) (92, -1.00046478271484370000e+002) (93, -1.17025780677795410000e+000) (94, -5.90770324707031250000e+002) (95, -1.75760638713836670000e+000) (96, -2.01786160469055180000e-001) (97, -1.10110962390899660000e+000) (98, 4.43060417175292970000e+001) (99, -1.07526659965515140000e+000) (0, -5.02286672592163090000e+000) (1, -4.97551441192626950000e+000) (2, -1.34589838981628420000e+000) (3, -1.49429052734375000000e+003) (4, -1.38420812988281250000e+003) (5, -1.30485522460937500000e+003) (6, -1.23748193359375000000e+003) (7, -1.37126836776733400000e+001) (8, -1.45970214843750000000e+003) (9, -1.49249487304687500000e+003) (10, -1.66328220367431640000e+001) (11, -8.70106220245361330000e+000) (12, -4.88608312606811520000e+000) (13, -5.05802202224731450000e+000) (14, -4.96532726287841800000e+000) (15, -5.05546951293945310000e+000) (16, -4.95695257186889650000e+000) (17, -4.81025218963623050000e+000) (18, -4.90597391128540040000e+000) (19, -1.38757359981536870000e+000) (20, -1.38027667999267580000e+000) (21, -1.72868499755859370000e+002) (22, -1.44459851074218750000e+003) (23, -2.86585140228271480000e+001) (24, 1.80064025335013870000e-003) (25, 3.73051238059997560000e+000) (26, -1.39584928750991820000e-001) (27, -4.82367372512817380000e+000) (28, -1.85158309936523440000e+001) (29, -2.88025856018066410000e+001) (30, -1.28855392456054690000e+002) (31, -1.44473071289062500000e+003) (32, -8.10236267089843750000e+002) (33, -1.29637706279754640000e+000) (34, -1.24235332012176510000e+000) (35, -1.27861857414245610000e+000) (36, -1.25760233402252200000e+000) (37, -2.03452372550964360000e+000) (38, -4.89557266235351560000e+000) (39, -5.01842498779296870000e+000) (40, -4.85087156295776370000e+000) (41, -4.77172183990478520000e+000) (42, -5.00081682205200200000e+000) (43, -3.03537178039550780000e+000) (44, -3.31032896041870120000e+000) (45, -3.14853501319885250000e+000) (46, -4.00845956802368160000e+000) (47, 1.49963684082031250000e+003) (48, 1.49993847656250000000e+003) (49, 5.53301635742187500000e+002) (50, 1.62676620483398440000e+001) (51, 5.73818445205688480000e-001) (52, 2.24350814819335940000e+001) (53, -7.33800458908081050000e+000) (54, -1.24847307205200200000e+001) (55, -3.46312316894531250000e+002) (56, -9.23444595336914060000e+001) (57, -8.82570724487304690000e+001) (58, -8.84123134613037110000e+000) (59, -1.19284687042236330000e+001) (60, -1.09516716003417970000e+001) (61, -3.29899406433105470000e+000) (62, -1.35265135765075680000e+000) (63, -1.49623525142669680000e+000) (64, -1.04407291412353520000e+001) (65, -1.37909460067749020000e+000) (66, -4.74124145507812500000e+000) (67, -2.77471542358398440000e+001) (68, -2.83394622802734380000e+001) (69, -2.86897144317626950000e+001) (70, -1.21412220001220700000e+001) (71, -4.50446655273437500000e+002) (72, -6.39351177215576170000e+000) (73, -4.92550182342529300000e+000) (74, -4.92369842529296870000e+000) (75, -1.33447301387786870000e+000) (76, -4.24721896648406980000e-001) (77, -3.36654961109161380000e-001) (78, -1.11935968399047850000e+001) (79, -2.80093841552734380000e+001) (80, -1.81657226562500000000e+002) (81, -2.86540565490722660000e+001) (82, -5.09492063522338870000e+000) (83, -1.23411202430725100000e+000) (84, -4.91787815093994140000e+000) (85, -4.84226226806640620000e+000) (86, -4.86465024948120120000e+000) (87, -4.87382888793945310000e+000) (88, -6.18691146373748780000e-001) (89, -2.29490742087364200000e-001) (90, -1.85702240467071530000e+000) (91, -7.65203002929687500000e+002) (92, -8.52169799804687500000e+001) (93, -3.63387346267700200000e-001) (94, -2.11269744873046870000e+002) (95, -6.98011159896850590000e-001) (96, 8.35120178222656250000e+002) (97, 4.38763439655303960000e-001) (98, 1.93032913208007810000e+001) (99, -1.24807524681091310000e+000) (0, 7.99062788486480710000e-001) (1, 6.87119424343109130000e-001) (2, 7.81980156898498540000e-001) (3, -2.36178469657897950000e+000) (4, -2.60492706298828130000e+001) (5, 1.62690029144287110000e+001) (6, 3.78713178634643550000e+000) (7, 7.06680178642272950000e-001) (8, 4.67290490865707400000e-001) (9, 6.69798314571380620000e-001) (10, 8.34635198116302490000e-001) (11, 5.41088283061981200000e-001) (12, 6.94180488586425780000e-001) (13, 7.91285455226898190000e-001) (14, 6.23324990272521970000e-001) (15, 8.15583586692810060000e-001) (16, 9.53156948089599610000e-001) (17, 6.74215853214263920000e-001) (18, 6.31329536437988280000e-001) (19, 1.14475822448730470000e+000) (20, 9.40376043319702150000e-001) (21, 4.90757524967193600000e-001) (22, 3.84361058473587040000e-001) (23, 7.30148673057556150000e-001) (24, 8.28496098518371580000e-001) (25, 1.44184553623199460000e+000) (26, 1.29724967479705810000e+000) (27, 7.31518626213073730000e-001) (28, 8.76244246959686280000e-001) (29, 1.19618964195251460000e+000) (30, 8.13646554946899410000e-001) (31, 4.14396524429321290000e-001) (32, 5.34926950931549070000e-001) (33, 9.50371921062469480000e-001) (34, 8.67418885231018070000e-001) (35, 8.12980711460113530000e-001) (36, 1.34047782421112060000e+000) (37, 8.00904095172882080000e-001) (38, 7.83264696598052980000e-001) (39, 7.09737956523895260000e-001) (40, 6.17056071758270260000e-001) (41, 6.62885129451751710000e-001) (42, 7.44740426540374760000e-001) (43, 1.05332219600677490000e+000) (44, 6.55696213245391850000e-001) (45, 7.10656046867370610000e-001) (46, 7.22031533718109130000e-001) (47, 1.29537963867187500000e+000) (48, 1.74952483177185060000e+000) (49, 2.48381304740905760000e+000) (50, -6.76922273635864260000e+000) (51, 5.03082036972045900000e+000) (52, -3.80697298049926760000e+000) (53, -2.04842967987060550000e+001) (54, -1.34315490722656250000e+001) (55, 8.77854287624359130000e-001) (56, 5.09870648384094240000e-001) (57, 3.89850437641143800000e-001) (58, 9.15354609489440920000e-001) (59, 9.52535033226013180000e-001) (60, 6.75761222839355470000e-001) (61, 7.47414648532867430000e-001) (62, 5.97663402557373050000e-001) (63, 3.43788146972656250000e+000) (64, 7.22741425037384030000e-001) (65, 8.31841289997100830000e-001) (66, 9.69498455524444580000e-001) (67, 1.94918024539947510000e+000) (68, 1.72620069980621340000e+000) (69, 1.73561751842498780000e+000) (70, 1.78917765617370610000e+000) (71, 9.94736909866333010000e-001) (72, 9.00445342063903810000e-001) (73, 8.19404184818267820000e-001) (74, 6.14577472209930420000e-001) (75, 7.23176419734954830000e-001) (76, 1.05291140079498290000e+000) (77, 8.08116376399993900000e-001) (78, 1.26711535453796390000e+000) (79, 1.66551506519317630000e+000) (80, 6.24663543701171870000e+000) (81, 1.82298564910888670000e+000) (82, 8.42284142971038820000e-001) (83, 8.70099008083343510000e-001) (84, 7.02491581439971920000e-001) (85, 7.17186868190765380000e-001) (86, 6.40265882015228270000e-001) (87, 8.66109907627105710000e-001) (88, 7.95711338520050050000e-001) (89, -1.48083969950675960000e-001) (90, -3.88286076486110690000e-002) (91, 3.86111468076705930000e-001) (92, 3.32776844501495360000e-001) (93, 7.74773359298706050000e-001) (94, 3.88710904121398930000e+000) (95, 2.95933216810226440000e-001) (96, 1.28231239318847660000e+000) (97, 2.72968935966491700000e+000) (98, -4.12662544250488280000e+001) (99, 8.05925607681274410000e-001) (0, 2.13690325617790220000e-001) (1, 1.51569500565528870000e-001) (2, 2.57487475872039790000e-001) (3, -2.06406855583190920000e+000) (4, -5.63474540710449220000e+001) (5, 5.39704055786132810000e+001) (6, -2.39974573254585270000e-001) (7, 1.26005560159683230000e-001) (8, -7.17765748500823970000e-001) (9, -8.85507643222808840000e-001) (10, -7.90578573942184450000e-002) (11, -5.47872334718704220000e-002) (12, 8.19001197814941410000e-002) (13, -6.92858695983886720000e-002) (14, 1.24361403286457060000e-001) (15, 2.86907497793436050000e-002) (16, 1.46645784378051760000e-001) (17, 2.05817252397537230000e-001) (18, 1.45044893026351930000e-001) (19, 2.10076570510864260000e-001) (20, 5.35441115498542790000e-002) (21, 2.69575893878936770000e-001) (22, 2.05938711762428280000e-001) (23, 2.39941135048866270000e-001) (24, 3.45257222652435300000e-001) (25, 3.53164970874786380000e-001) (26, 1.58166855573654170000e-001) (27, 1.47486224770545960000e-001) (28, 1.51905283331871030000e-001) (29, 4.16548363864421840000e-002) (30, 1.87294229865074160000e-001) (31, -8.88095144182443620000e-003) (32, -1.19132280349731450000e-001) (33, -6.31532132625579830000e-001) (34, -2.32918858528137210000e-001) (35, 2.41502255201339720000e-001) (36, 2.52511531114578250000e-001) (37, 2.23008140921592710000e-001) (38, 8.32578837871551510000e-002) (39, 6.52965083718299870000e-002) (40, 2.10460841655731200000e-001) (41, 2.50193566083908080000e-001) (42, 2.76848495006561280000e-001) (43, 2.81179308891296390000e-001) (44, 1.64849504828453060000e-001) (45, 2.19568386673927310000e-001) (46, 1.85474082827568050000e-001) (47, 2.43620857596397400000e-001) (48, 3.77932265400886540000e-002) (49, 6.49209201335906980000e-001) (50, 1.59694230556488040000e+000) (51, -7.97564506530761720000e-001) (52, 7.21153030395507810000e+001) (53, -9.48661575317382810000e+001) (54, 5.20762023925781250000e+001) (55, -2.17511594295501710000e-001) (56, 2.07034185528755190000e-001) (57, -2.32309818267822270000e-001) (58, -8.74098539352416990000e-002) (59, -2.08890631794929500000e-001) (60, -1.21184602379798890000e-001) (61, -2.59058270603418350000e-002) (62, 1.18170835077762600000e-001) (63, 1.65358692407608030000e-001) (64, 2.02033445239067080000e-001) (65, 1.60651803016662600000e-001) (66, -4.50647056102752690000e-001) (67, -4.70921844244003300000e-001) (68, -4.87517863512039180000e-001) (69, -5.54845750331878660000e-001) (70, -5.63912212848663330000e-001) (71, -1.10327616333961490000e-001) (72, 3.14185135066509250000e-002) (73, -6.69298414140939710000e-003) (74, 1.70790299773216250000e-001) (75, 9.14319008588790890000e-002) (76, 1.66506707668304440000e-001) (77, -6.07165433466434480000e-002) (78, -6.45562350749969480000e-001) (79, -3.85019272565841670000e-001) (80, -3.84751033782958980000e+000) (81, -4.95919644832611080000e-001) (82, 6.48588910698890690000e-002) (83, 2.59437948465347290000e-001) (84, 2.29826569557189940000e-001) (85, 2.03630384057760240000e-002) (86, -5.83050996065139770000e-002) (87, 3.94585635513067250000e-003) (88, 2.01497703790664670000e-001) (89, 2.02934235334396360000e-001) (90, 3.54840934276580810000e-001) (91, 1.83442354202270510000e-001) (92, 5.46781085431575780000e-002) (93, 1.02544911205768590000e-001) (94, -4.54211056232452390000e-001) (95, 9.96688753366470340000e-002) (96, 7.61337429285049440000e-002) (97, -1.50910645723342900000e-001) (98, 1.71853008270263670000e+001) (99, 2.14912518858909610000e-001) (0, 2.84744650125503540000e-001) (1, 2.14356735348701480000e-001) (2, 3.71390432119369510000e-001) (3, -6.01338565349578860000e-001) (4, -4.13357925415039060000e+001) (5, 4.77423019409179690000e+001) (6, 1.76353961229324340000e-001) (7, 2.75297403335571290000e-001) (8, -6.32607400417327880000e-001) (9, -9.90566849708557130000e-001) (10, 2.78418302536010740000e-001) (11, -8.91145095229148860000e-002) (12, 2.53943234682083130000e-001) (13, 2.93139994144439700000e-001) (14, 3.35424780845642090000e-001) (15, 1.90053373575210570000e-001) (16, 8.44704732298851010000e-002) (17, 2.06220343708992000000e-001) (18, 3.52163612842559810000e-001) (19, 3.56389135122299190000e-001) (20, 2.27615103125572200000e-001) (21, 2.22975403070449830000e-001) (22, 3.01934808492660520000e-001) (23, 2.63146668672561650000e-001) (24, 2.98061668872833250000e-001) (25, 3.98869365453720090000e-001) (26, 2.58583724498748780000e-001) (27, 2.08486899733543400000e-001) (28, 1.66186809539794920000e-001) (29, -1.09724037349224090000e-001) (30, 6.95269778370857240000e-002) (31, 1.53924390673637390000e-001) (32, 2.10885927081108090000e-001) (33, 3.25904607772827150000e-001) (34, 1.84470295906066890000e-001) (35, 2.22079411149024960000e-001) (36, 2.49837681651115420000e-001) (37, 3.30145120620727540000e-001) (38, 7.97083675861358640000e-002) (39, 2.03595608472824100000e-001) (40, 2.87228107452392580000e-001) (41, 2.64062911272048950000e-001) (42, 2.74078071117401120000e-001) (43, 1.65290489792823790000e-001) (44, 2.84669756889343260000e-001) (45, 1.44603297114372250000e-001) (46, 2.51592010259628300000e-001) (47, 2.73597121238708500000e-001) (48, 1.80520549416542050000e-001) (49, 2.70070433616638180000e-002) (50, 2.05117034912109370000e+000) (51, -5.45690298080444340000e-001) (52, 4.97941207885742190000e+001) (53, -3.80902481079101560000e+001) (54, -5.86654043197631840000e+000) (55, -1.07483994960784910000e+000) (56, 3.18666920065879820000e-002) (57, 8.36914852261543270000e-002) (58, 1.99792444705963130000e-001) (59, 4.16391231119632720000e-002) (60, 1.35198950767517090000e-001) (61, 1.09430752694606780000e-001) (62, 1.52761802077293400000e-001) (63, 1.88614651560783390000e-001) (64, 2.70783096551895140000e-001) (65, 2.65161812305450440000e-001) (66, -4.00305181741714480000e-001) (67, -4.53753411769866940000e-001) (68, -5.70463716983795170000e-001) (69, -5.81167995929718020000e-001) (70, -4.16502475738525390000e-001) (71, -7.74416774511337280000e-002) (72, 3.98793220520019530000e-002) (73, 4.87400293350219730000e-002) (74, 1.68540656566619870000e-001) (75, 3.65321010351181030000e-001) (76, 2.50434696674346920000e-001) (77, 3.59383702278137210000e-001) (78, -3.62819015979766850000e-001) (79, -4.54572767019271850000e-001) (80, -4.11304759979248050000e+000) (81, -4.05087858438491820000e-001) (82, 2.23957061767578130000e-001) (83, 1.91145986318588260000e-001) (84, 3.03305804729461670000e-001) (85, 1.11054256558418270000e-001) (86, 1.17846064269542690000e-001) (87, 2.09133625030517580000e-001) (88, 3.66477996110916140000e-001) (89, 3.63925814628601070000e-001) (90, 3.11725318431854250000e-001) (91, 2.52687513828277590000e-001) (92, 2.23923310637474060000e-001) (93, 3.81007224321365360000e-001) (94, 3.60288769006729130000e-001) (95, 2.43839800357818600000e-001) (96, 5.67568056285381320000e-002) (97, 3.04344356060028080000e-001) (98, 2.96927185058593750000e+001) (99, 2.83436596393585210000e-001) (0, 1.23217757791280750000e-002) (1, -6.41643851995468140000e-002) (2, 6.09708167612552640000e-002) (3, -1.04858269914984700000e-002) (4, 9.85144749283790590000e-002) (5, 2.40827336907386780000e-001) (6, 5.49812763929367070000e-002) (7, -7.06865787506103520000e-002) (8, -5.01375719904899600000e-002) (9, 1.79209001362323760000e-002) (10, -7.43937045335769650000e-002) (11, -6.66197985410690310000e-002) (12, 4.05300557613372800000e-002) (13, 1.32641330361366270000e-001) (14, 5.84007166326045990000e-002) (15, 6.08251662924885750000e-003) (16, -5.28359822928905490000e-002) (17, -1.17621272802352910000e-001) (18, 4.93663288652896880000e-002) (19, 7.14005306363105770000e-002) (20, -6.74261897802352910000e-002) (21, 1.52288156095892190000e-003) (22, 8.45904052257537840000e-002) (23, -6.87237922102212910000e-003) (24, 1.40729442238807680000e-001) (25, 1.66646093130111690000e-001) (26, 1.46474614739418030000e-002) (27, -1.08463943004608150000e-001) (28, -1.14969648420810700000e-001) (29, -3.51348593831062320000e-002) (30, -2.65544001013040540000e-002) (31, 1.04503438342362640000e-003) (32, -2.73589938879013060000e-002) (33, 6.67561516165733340000e-002) (34, 1.52061551809310910000e-001) (35, 7.85173326730728150000e-002) (36, -5.59670291841030120000e-002) (37, 1.87526661902666090000e-002) (38, -1.05372689664363860000e-001) (39, -9.56247970461845400000e-002) (40, -2.29419935494661330000e-002) (41, -3.10540143400430680000e-002) (42, -6.76451250910758970000e-002) (43, 1.28215691074728970000e-002) (44, 4.21942286193370820000e-002) (45, 3.79592850804328920000e-002) (46, 1.85365565121173860000e-002) (47, 1.08965121209621430000e-001) (48, 2.26969048380851750000e-001) (49, 4.65003773570060730000e-002) (50, 3.78364086151123050000e-001) (51, 4.05723825097084050000e-002) (52, 1.68729990720748900000e-001) (53, 1.61240771412849430000e-001) (54, 1.44667908549308780000e-001) (55, 7.44448602199554440000e-002) (56, 8.97915363311767580000e-002) (57, 9.98902991414070130000e-002) (58, 3.31592150032520290000e-002) (59, 5.90654984116554260000e-002) (60, 7.10109621286392210000e-002) (61, 7.49658718705177310000e-002) (62, 1.12916678190231320000e-001) (63, -1.78124494850635530000e-002) (64, 2.17988217627862470000e-005) (65, 1.06767266988754270000e-001) (66, -9.98517721891403200000e-002) (67, -1.43556594848632810000e-001) (68, -1.12825840711593630000e-001) (69, -1.68588429689407350000e-001) (70, -1.28270506858825680000e-001) (71, 4.29106988012790680000e-002) (72, 4.69301752746105190000e-002) (73, -1.01532980799674990000e-001) (74, -8.73147975653409960000e-003) (75, 2.78638731688261030000e-002) (76, 1.26415073871612550000e-001) (77, 9.61081311106681820000e-002) (78, -7.14838728308677670000e-002) (79, -1.02195866405963900000e-001) (80, -1.10442960262298580000e+000) (81, 2.88775563240051270000e-002) (82, -8.60690791159868240000e-003) (83, 3.79335358738899230000e-002) (84, -8.62205177545547490000e-002) (85, 1.63032396812923250000e-004) (86, -9.57713052630424500000e-002) (87, -7.89301097393035890000e-002) (88, -8.87540882104076450000e-005) (89, 7.27951377630233760000e-002) (90, 4.24205623567104340000e-002) (91, 4.64856550097465520000e-002) (92, 1.11144952476024630000e-001) (93, 1.21240997686982150000e-002) (94, -1.89350191503763200000e-002) (95, 5.77942579984664920000e-002) (96, 9.60000082850456240000e-002) (97, 8.61398968845605850000e-003) (98, 2.23315194249153140000e-001) (99, -8.52170810103416440000e-002) (0, 1.71606689691543580000e-001) (1, 2.58430808782577510000e-001) (2, 3.11538606882095340000e-001) (3, -2.35040354728698730000e+000) (4, -6.46721343994140630000e+001) (5, 4.94350128173828130000e+001) (6, 1.26803874969482420000e-001) (7, 8.51942449808120730000e-002) (8, -1.89437255859375000000e+001) (9, -1.12213134765625000000e+001) (10, 6.95914477109909060000e-002) (11, -5.46843074262142180000e-002) (12, 1.86272695660591130000e-001) (13, 3.33647996187210080000e-001) (14, 2.79364287853240970000e-001) (15, 2.05250363796949390000e-002) (16, 1.76107048988342290000e-001) (17, 1.37628033757209780000e-001) (18, 2.10440948605537410000e-001) (19, 2.23317518830299380000e-001) (20, 2.12343573570251460000e-001) (21, 2.52787202596664430000e-001) (22, -2.30132637023925780000e+001) (23, -1.96965143084526060000e-001) (24, 3.94397616386413570000e-001) (25, 1.59128753662109370000e+002) (26, 1.43017120361328120000e+002) (27, 3.53279858827590940000e-001) (28, 9.56901162862777710000e-002) (29, -7.39534199237823490000e-003) (30, 1.56044557690620420000e-001) (31, -3.12362041473388670000e+001) (32, -1.59918218851089480000e-001) (33, 3.53403657674789430000e-001) (34, 4.34527730941772460000e+000) (35, 7.98896133899688720000e-001) (36, 3.33865404129028320000e-001) (37, 2.40819051861763000000e-001) (38, 2.61726588010787960000e-001) (39, 1.61712199449539180000e-001) (40, 2.04310670495033260000e-001) (41, 1.88073068857192990000e-001) (42, 2.02019870281219480000e-001) (43, 2.73759752511978150000e-001) (44, 1.21039934456348420000e-001) (45, -1.69185072183609010000e-001) (46, 3.56921821832656860000e-001) (47, 2.55041301250457760000e-001) (48, 2.26522721350193020000e-002) (49, 1.05036862194538120000e-001) (50, 1.61619496345520020000e+000) (51, 9.84046363830566410000e+000) (52, 1.35394348144531250000e+002) (53, 9.90354919433593750000e+000) (54, 1.35301094055175780000e+001) (55, -4.31814956665039060000e+000) (56, -2.50464940071105960000e+000) (57, -7.11179435253143310000e-001) (58, -6.20678551495075230000e-002) (59, -9.79230850934982300000e-002) (60, -1.11973077058792110000e-001) (61, -9.37766805291175840000e-002) (62, 1.94852143526077270000e-001) (63, -2.16336235404014590000e-001) (64, -9.02346894145011900000e-002) (65, 2.07396149635314940000e-001) (66, -4.36616778373718260000e-001) (67, -2.27825686335563660000e-001) (68, -4.22052264213562010000e-001) (69, -3.07620137929916380000e-001) (70, -2.67907083034515380000e-001) (71, -5.34272551536560060000e-001) (72, 1.20153702795505520000e-001) (73, 1.21053606271743770000e-001) (74, 1.66693687438964840000e-001) (75, 3.89498263597488400000e-001) (76, 1.67267000675201420000e+000) (77, 2.41435170173645020000e-001) (78, -2.34952539205551150000e-001) (79, -4.33953613042831420000e-001) (80, -4.83987903594970700000e+000) (81, -4.17870938777923580000e-001) (82, 1.51699334383010860000e-001) (83, 3.42889934778213500000e-001) (84, 2.06545665860176090000e-001) (85, 2.45472595095634460000e-001) (86, 8.61703380942344670000e-002) (87, 7.93507173657417300000e-002) (88, 1.70116081833839420000e-001) (89, 2.17487752437591550000e-001) (90, 2.77120590209960940000e-001) (91, -5.19644975662231450000e+000) (92, -6.26862272620201110000e-002) (93, 1.15215852856636050000e-002) (94, -1.48642816543579100000e+001) (95, 2.29885160923004150000e-001) (96, 1.98396444320678710000e-001) (97, 2.38056331872940060000e-001) (98, 1.90735702514648440000e+001) (99, 2.12168425321578980000e-001) (0, -1.94543644785881040000e-001) (1, -1.51026949286460880000e-001) (2, -1.79025664925575260000e-001) (3, 9.45453524589538570000e-001) (4, -7.94521808624267580000e-001) (5, -7.94137269258499150000e-003) (6, 2.43016347289085390000e-001) (7, 1.54062816873192790000e-002) (8, -1.88212871551513670000e-001) (9, -1.68389439582824710000e-001) (10, -2.16799885034561160000e-001) (11, -5.99837638437747960000e-002) (12, -2.45712473988533020000e-001) (13, -1.24440155923366550000e-001) (14, -2.75469273328781130000e-001) (15, -1.34923622012138370000e-001) (16, -3.18699330091476440000e-002) (17, -1.26806274056434630000e-001) (18, -1.15466430783271790000e-001) (19, -2.50914394855499270000e-001) (20, -9.63437184691429140000e-002) (21, -2.49856695532798770000e-001) (22, -2.71636217832565310000e-001) (23, -1.82391092181205750000e-001) (24, -3.06196212768554690000e-001) (25, -1.91997051239013670000e-001) (26, -2.31612756848335270000e-001) (27, -1.16352446377277370000e-001) (28, -2.21018716692924500000e-001) (29, 7.43941823020577430000e-003) (30, -8.45376849174499510000e-002) (31, -4.10980023443698880000e-002) (32, -1.63546830415725710000e-001) (33, -2.90994018316268920000e-001) (34, -2.45202258229255680000e-001) (35, -1.63329422473907470000e-001) (36, -2.92891144752502440000e-001) (37, -2.62113302946090700000e-001) (38, -1.27411931753158570000e-001) (39, -1.41805246472358700000e-001) (40, -1.36377856135368350000e-001) (41, -1.25522539019584660000e-001) (42, -1.06205813586711880000e-001) (43, -2.79012352228164670000e-001) (44, -1.51006251573562620000e-001) (45, -1.84059306979179380000e-001) (46, -1.71202048659324650000e-001) (47, -2.96383470296859740000e-001) (48, 8.02820384502410890000e-001) (49, 1.09961532056331630000e-001) (50, 3.65014135837554930000e-001) (51, 6.60536289215087890000e-001) (52, 1.26506626605987550000e+000) (53, 1.16489171981811520000e+000) (54, 2.77096056938171390000e+000) (55, -2.38417088985443120000e-001) (56, 2.08293601870536800000e-001) (57, -5.92667832970619200000e-002) (58, -6.65723979473114010000e-002) (59, -7.53289610147476200000e-002) (60, -2.19873994588851930000e-001) (61, -2.81867921352386470000e-001) (62, -1.81656360626220700000e-001) (63, -2.80580699443817140000e-001) (64, -3.01538258790969850000e-001) (65, -1.96630150079727170000e-001) (66, 3.95119160413742070000e-001) (67, 5.04951536655426030000e-001) (68, 5.34767568111419680000e-001) (69, 3.87337058782577510000e-001) (70, 3.09133768081665040000e-001) (71, 7.34493285417556760000e-002) (72, -1.91293552517890930000e-001) (73, -1.09536565840244290000e-001) (74, -2.39581152796745300000e-001) (75, -1.06985978782176970000e-001) (76, -1.65458351373672490000e-001) (77, -3.00961047410964970000e-001) (78, 2.68222987651824950000e-001) (79, 2.41133481264114380000e-001) (80, 2.95947837829589840000e+000) (81, 2.84873574972152710000e-001) (82, -1.86312735080718990000e-001) (83, -1.23681768774986270000e-001) (84, -1.78826346993446350000e-001) (85, -1.19422808289527890000e-001) (86, -1.00301638245582580000e-001) (87, -1.25375822186470030000e-001) (88, -1.65479868650436400000e-001) (89, -3.39720845222473140000e-001) (90, -3.64058554172515870000e-001) (91, -1.60859405994415280000e-001) (92, -1.84582516551017760000e-001) (93, -2.19103366136550900000e-001) (94, -1.76640793681144710000e-001) (95, -2.90121793746948240000e-001) (96, -2.36659750342369080000e-001) (97, -5.27547858655452730000e-003) (98, -1.02217948436737060000e+000) (99, -3.19306880235672000000e-001) (0, 1.93123996257781980000e-001) (1, 3.27630043029785160000e-001) (2, 2.37397357821464540000e-001) (3, -1.18294200897216800000e+001) (4, -9.89969863891601560000e+001) (5, 5.08505630493164060000e+001) (6, 1.16481846198439600000e-002) (7, 3.19764353334903720000e-002) (8, -1.19479095935821530000e+000) (9, -1.11889564990997310000e+000) (10, 2.23535466939210890000e-002) (11, -1.59936830401420590000e-001) (12, 1.97419062256813050000e-001) (13, 2.54857987165451050000e-001) (14, 2.14055851101875310000e-001) (15, 8.95278602838516240000e-002) (16, 2.34442785382270810000e-001) (17, 6.21449910104274750000e-002) (18, 2.03640431165695190000e-001) (19, 2.23785772919654850000e-001) (20, 3.37008923292160030000e-001) (21, 7.74502307176589970000e-002) (22, -2.05954456329345700000e+000) (23, 1.83368712663650510000e-001) (24, 3.56530994176864620000e-001) (25, 1.29002593994140620000e+002) (26, 1.96941375732421880000e+001) (27, 2.82446682453155520000e-001) (28, 9.18871387839317320000e-002) (29, -1.03424072265625000000e-001) (30, 6.77768066525459290000e-002) (31, -1.21028089523315430000e+000) (32, 2.47252464294433590000e-001) (33, 2.10848450660705570000e-001) (34, 2.39966407418251040000e-001) (35, 2.47719332575798030000e-001) (36, 3.03177058696746830000e-001) (37, 2.29568600654602050000e-001) (38, 1.72893345355987550000e-001) (39, 1.10043443739414220000e-001) (40, 3.19887578487396240000e-001) (41, 3.48843067884445190000e-001) (42, 2.99007475376129150000e-001) (43, 2.43454650044441220000e-001) (44, 1.40070542693138120000e-001) (45, 3.15816514194011690000e-002) (46, 3.22794139385223390000e-001) (47, 2.77090281248092650000e-001) (48, 1.11578218638896940000e-001) (49, 3.31331610679626460000e-001) (50, 1.53499865531921390000e+000) (51, 3.74430513381958010000e+000) (52, 9.82125473022460940000e+001) (53, 1.29119091033935550000e+001) (54, 9.99823474884033200000e+000) (55, -4.90550547838211060000e-001) (56, -7.25140810012817380000e-001) (57, -9.91417288780212400000e-001) (58, -1.26760169863700870000e-001) (59, -1.58862605690956120000e-001) (60, -5.62432333827018740000e-002) (61, -5.44685013592243190000e-002) (62, 3.40591430664062500000e-001) (63, 1.45634695887565610000e-001) (64, 2.60940212756395340000e-002) (65, 1.92150220274925230000e-001) (66, -4.10436779260635380000e-001) (67, -4.42069679498672490000e-001) (68, -3.89255970716476440000e-001) (69, -4.06540781259536740000e-001) (70, -5.83942115306854250000e-001) (71, -1.96497634053230290000e-001) (72, 8.70910063385963440000e-002) (73, 3.86271178722381590000e-002) (74, 3.01999032497406010000e-001) (75, 2.47472852468490600000e-001) (76, 2.18165755271911620000e-001) (77, 1.89103424549102780000e-001) (78, -3.81701350212097170000e-001) (79, -5.23052811622619630000e-001) (80, -4.04023170471191410000e+000) (81, -4.10292863845825200000e-001) (82, 2.32652798295021060000e-001) (83, 2.66604810953140260000e-001) (84, 2.96109706163406370000e-001) (85, 1.33289709687232970000e-001) (86, 2.28301480412483220000e-001) (87, 2.05736324191093440000e-001) (88, 2.33949676156044010000e-001) (89, 2.45358407497406010000e-001) (90, 3.28576803207397460000e-001) (91, 8.37785601615905760000e-002) (92, 3.10069918632507320000e-001) (93, 1.94680929183959960000e-001) (94, -3.81909132003784180000e+000) (95, 2.84153670072555540000e-001) (96, 2.80560761690139770000e-001) (97, 8.34019109606742860000e-002) (98, 1.71547050476074220000e+001) (99, 3.49276393651962280000e-001) (0, 4.60028529167175290000e-001) (1, 3.63616794347763060000e-001) (2, 1.77580878138542180000e-001) (3, 1.35394799804687500000e+003) (4, 1.49994189453125000000e+003) (5, 1.49998486328125000000e+003) (6, 4.22737579345703130000e+001) (7, 9.78985786437988280000e-001) (8, 1.29332304000854490000e+000) (9, 1.70317018032073970000e+000) (10, 2.55936193466186520000e+000) (11, 7.09231662750244140000e+000) (12, 9.00136232376098630000e-001) (13, 1.66641557216644290000e+000) (14, 8.67481589317321780000e-001) (15, 1.95570170879364010000e+000) (16, 4.25230169296264650000e+000) (17, 3.81757831573486330000e+000) (18, 7.37339913845062260000e-001) (19, 3.65643441677093510000e-001) (20, 5.36858797073364260000e-001) (21, 5.78514575958251950000e-001) (22, 7.36449062824249270000e-001) (23, 7.90977001190185550000e-001) (24, 2.85636663436889650000e-001) (25, -8.16470050811767580000e+000) (26, -3.98237800598144530000e+000) (27, 5.98790287971496580000e-001) (28, 3.24094247817993160000e+000) (29, 7.49999618530273440000e+000) (30, 3.26124048233032230000e+000) (31, 7.94698190689086910000e+000) (32, 8.43249082565307620000e-001) (33, 2.12554037570953370000e-001) (34, -4.45647165179252620000e-002) (35, 1.45701304078102110000e-001) (36, 4.23630535602569580000e-001) (37, 4.75643426179885860000e-001) (38, 3.21536922454833980000e+000) (39, 1.36717879772186280000e+000) (40, 5.84185361862182620000e-001) (41, 8.31526458263397220000e-001) (42, 8.86303067207336430000e-001) (43, 3.69003355503082280000e-001) (44, 1.77874222397804260000e-001) (45, 2.71542102098464970000e-001) (46, 4.08983230590820310000e-001) (47, 5.69909036159515380000e-001) (48, -9.87641296386718750000e+001) (49, -3.50409515380859370000e+002) (50, 3.07575073242187500000e+001) (51, -5.75126586914062500000e+002) (52, -1.10918416976928710000e+001) (53, 1.13245880126953120000e+002) (54, 2.85528930664062500000e+002) (55, 2.36617317199707030000e+001) (56, 5.49736709594726560000e+001) (57, 1.24595642089843750000e+003) (58, 1.09024298191070560000e+000) (59, 6.07575416564941410000e+000) (60, 7.43261814117431640000e-001) (61, 8.91237199306488040000e-001) (62, 5.40801107883453370000e-001) (63, 6.85888648033142090000e-001) (64, 3.22276234626770020000e-001) (65, 2.27248713374137880000e-001) (66, 2.40385913848876950000e+001) (67, 2.20187530517578130000e+001) (68, 2.17026443481445310000e+001) (69, 2.21620769500732420000e+001) (70, 1.82037830352783200000e+001) (71, 7.85263967514038090000e+000) (72, 3.32849693298339840000e+000) (73, 3.26043176651000980000e+000) (74, 6.17624640464782710000e-001) (75, 6.36438846588134770000e-001) (76, 1.30276903510093690000e-001) (77, 6.12616479396820070000e-001) (78, 1.77701549530029300000e+001) (79, 1.80135669708251950000e+001) (80, 1.26891784667968750000e+002) (81, 1.79905624389648440000e+001) (82, 2.33917927742004390000e+000) (83, 3.43034684658050540000e-001) (84, 6.70576512813568120000e-001) (85, 3.25096011161804200000e+000) (86, 3.22896814346313480000e+000) (87, 3.11829972267150880000e+000) (88, 1.78843542933464050000e-001) (89, 2.56903499364852910000e-001) (90, 1.28148019313812260000e-001) (91, 2.62969434261322020000e-001) (92, 2.52140641212463380000e-001) (93, 1.76054328680038450000e-001) (94, 1.17270541191101070000e+000) (95, 2.14513492584228520000e+000) (96, 4.87809143066406250000e+001) (97, 7.77688064575195310000e+001) (98, 5.29448394775390630000e+001) (99, 2.62035131454467770000e-001) (0, -4.92458105087280270000e+000) (1, -2.05324363708496090000e+000) (2, -1.41584444046020510000e+000) (3, -1.34677966308593750000e+003) (4, -9.14154296875000000000e+002) (5, -6.89685302734375000000e+002) (6, -3.65784606933593750000e+002) (7, -1.07341327667236330000e+001) (8, -1.43100891113281250000e+003) (9, -1.17067932128906250000e+003) (10, -1.60132408142089840000e+001) (11, -7.28510713577270510000e+000) (12, -6.42365932464599610000e+000) (13, -6.44068527221679690000e+000) (14, -5.37323951721191410000e+000) (15, -5.36522006988525390000e+000) (16, -5.02194595336914060000e+000) (17, -5.12503719329833980000e+000) (18, -4.81228399276733400000e+000) (19, -6.19501709938049320000e-001) (20, -7.44442164897918700000e-001) (21, -1.35679016113281250000e+002) (22, -1.42293273925781250000e+003) (23, -7.74986114501953130000e+001) (24, -4.09237056970596310000e-001) (25, 1.06055297851562500000e+001) (26, -5.34196235239505770000e-002) (27, -4.76906442642211910000e+000) (28, -4.92843866348266600000e+000) (29, -4.71420621871948240000e+000) (30, -8.33897590637207030000e+000) (31, -1.42736877441406250000e+003) (32, -4.15342102050781250000e+001) (33, -1.27018630504608150000e+000) (34, -1.03213644027709960000e+000) (35, -4.04073858261108400000e+000) (36, -1.21714663505554200000e+000) (37, -1.25738751888275150000e+000) (38, -5.01516437530517580000e+000) (39, -5.22076368331909180000e+000) (40, -2.19002413749694820000e+000) (41, -2.06743693351745610000e+000) (42, -2.15624308586120610000e+000) (43, -1.29810380935668950000e+000) (44, -3.87858366966247560000e+000) (45, -5.46591997146606450000e+000) (46, 5.60620927810668950000e+000) (47, 1.49721435546875000000e+003) (48, 1.47152099609375000000e+003) (49, 2.98447456359863280000e+001) (50, 9.68389415740966800000e+000) (51, -2.79687583446502690000e-001) (52, 3.00769500732421880000e+001) (53, -6.65285949707031250000e+001) (54, -5.80099058151245120000e+000) (55, -5.14866209030151370000e+000) (56, -3.14858474731445310000e+001) (57, -1.23052624511718750000e+003) (58, -9.13675689697265620000e+000) (59, -1.29800090789794920000e+001) (60, -7.30448484420776370000e+000) (61, -7.22657203674316410000e+000) (62, -1.39750254154205320000e+000) (63, -6.48644495010375980000e+000) (64, -9.44112205505371090000e+000) (65, -1.48566186428070070000e+000) (66, -4.90430736541748050000e+000) (67, -2.80106964111328130000e+001) (68, -3.18946456909179690000e+001) (69, -2.96486682891845700000e+001) (70, -1.24872455596923830000e+001) (71, -1.73859119415283200000e+001) (72, -7.32706928253173830000e+000) (73, -5.06101226806640620000e+000) (74, -4.94621133804321290000e+000) (75, -4.51843410730361940000e-001) (76, -3.45776557922363280000e-001) (77, -1.19792795181274410000e+000) (78, -1.17756652832031250000e+001) (79, -2.85602912902832030000e+001) (80, -2.11341873168945310000e+002) (81, -3.68873291015625000000e+001) (82, -5.08786296844482420000e+000) (83, -5.32998979091644290000e-001) (84, -4.52766799926757810000e+000) (85, -4.94539451599121090000e+000) (86, -5.07450962066650390000e+000) (87, -4.98942804336547850000e+000) (88, -6.31046473979949950000e-001) (89, -1.25107929110527040000e-001) (90, -9.16185081005096440000e-001) (91, -9.05830322265625000000e+002) (92, -6.86646804809570310000e+001) (93, -1.57682251930236820000e+000) (94, -8.87961853027343750000e+002) (95, -3.00442934036254880000e-001) (96, 1.68333560228347780000e-001) (97, 2.56572157144546510000e-001) (98, 1.13479251861572270000e+001) (99, -9.24947679042816160000e-001) (0, 7.34370529651641850000e-001) (1, 7.30128705501556400000e-001) (2, 8.58190178871154790000e-001) (3, -4.84612166881561280000e-001) (4, 2.70281106233596800000e-001) (5, 3.92914319038391110000e+000) (6, 5.87206006050109860000e-001) (7, 9.31998610496521000000e-001) (8, 8.68885338306427000000e-001) (9, 7.00771689414978030000e-001) (10, 4.29038614034652710000e-001) (11, 1.58748328685760500000e-001) (12, 6.62029623985290530000e-001) (13, 7.27740168571472170000e-001) (14, 6.45985543727874760000e-001) (15, 3.22547942399978640000e-001) (16, 4.46532517671585080000e-001) (17, 3.77817273139953610000e-001) (18, 8.37199151515960690000e-001) (19, 8.29687416553497310000e-001) (20, 7.11206853389739990000e-001) (21, 7.86052882671356200000e-001) (22, 7.59290874004364010000e-001) (23, 7.91908502578735350000e-001) (24, 7.65521109104156490000e-001) (25, 8.24490964412689210000e-001) (26, 8.09563815593719480000e-001) (27, 7.55928575992584230000e-001) (28, 4.03775185346603390000e-001) (29, -7.86923468112945560000e-002) (30, 3.63895237445831300000e-001) (31, 4.78423714637756350000e-001) (32, 8.76515209674835210000e-001) (33, 8.31460297107696530000e-001) (34, 7.62796938419342040000e-001) (35, 8.75658988952636720000e-001) (36, 7.38764405250549320000e-001) (37, 6.73670053482055660000e-001) (38, 5.09097397327423100000e-001) (39, 3.78726869821548460000e-001) (40, 8.00610840320587160000e-001) (41, 7.81755208969116210000e-001) (42, 6.86708569526672360000e-001) (43, 7.62341976165771480000e-001) (44, 6.62126719951629640000e-001) (45, 4.88728284835815430000e-001) (46, 8.66375267505645750000e-001) (47, 6.48875713348388670000e-001) (48, -9.25534069538116460000e-001) (49, -1.02955961227416990000e+000) (50, -3.05646014213562010000e+000) (51, -9.93068039417266850000e-001) (52, 9.61597156524658200000e+000) (53, 1.42946481704711910000e+001) (54, -1.63097953796386720000e+001) (55, 6.46796047687530520000e-001) (56, 7.12907433509826660000e-001) (57, 6.94326221942901610000e-001) (58, 2.33541145920753480000e-001) (59, -2.78332680463790890000e-001) (60, 8.68179380893707280000e-001) (61, 7.43289172649383540000e-001) (62, 8.01765501499176030000e-001) (63, 5.90914249420166020000e-001) (64, 7.72148430347442630000e-001) (65, 8.30796480178833010000e-001) (66, -1.65198600292205810000e+000) (67, -1.53547251224517820000e+000) (68, -1.55938112735748290000e+000) (69, -1.55003166198730470000e+000) (70, -1.57807815074920650000e+000) (71, -2.52900779247283940000e-001) (72, 4.17933434247970580000e-001) (73, 4.02497053146362300000e-001) (74, 8.11202168464660640000e-001) (75, 7.56220638751983640000e-001) (76, 8.56383204460144040000e-001) (77, 7.51913607120513920000e-001) (78, -1.01890242099761960000e+000) (79, -1.51763010025024410000e+000) (80, -1.30019283294677730000e+001) (81, -1.53366148471832280000e+000) (82, 5.42222917079925540000e-001) (83, 7.82291412353515630000e-001) (84, 7.00457155704498290000e-001) (85, 5.25930762290954590000e-001) (86, 4.92623090744018550000e-001) (87, 4.95813667774200440000e-001) (88, 8.79238843917846680000e-001) (89, 1.29271197319030760000e+000) (90, 1.35793960094451900000e+000) (91, 9.09787893295288090000e-001) (92, 9.01860475540161130000e-001) (93, 7.59459733963012700000e-001) (94, 5.72424232959747310000e-001) (95, 1.36067152023315430000e+000) (96, 1.09402823448181150000e+000) (97, -5.80485224723815920000e-001) (98, -8.86289119720458980000e+000) (99, 8.40673983097076420000e-001) (0, 1.86971664428710940000e-001) (1, 1.67538896203041080000e-001) (2, 3.57312649488449100000e-001) (3, -2.88072276115417480000e+000) (4, -7.89121398925781250000e+001) (5, 5.18610649108886720000e+001) (6, -3.41249853372573850000e-001) (7, -4.04910683631896970000e-001) (8, -2.72927989959716800000e+001) (9, -2.63659782409667970000e+001) (10, 1.47796019911766050000e-001) (11, 4.80738468468189240000e-002) (12, 1.85118034482002260000e-001) (13, 2.29638844728469850000e-001) (14, 1.91242620348930360000e-001) (15, 4.18527722358703610000e-002) (16, 1.95202484726905820000e-001) (17, 1.90824300050735470000e-001) (18, 2.66873478889465330000e-001) (19, 1.86509609222412110000e-001) (20, 2.88502037525177000000e-001) (21, 2.02861070632934570000e-001) (22, -4.97054386138916020000e+000) (23, 1.01136527955532070000e-001) (24, 2.48514831066131590000e-001) (25, 1.01323837280273440000e+002) (26, 9.00909118652343750000e+001) (27, 1.87036037445068360000e-001) (28, 6.60295262932777400000e-002) (29, -3.37039493024349210000e-002) (30, 2.48740464448928830000e-002) (31, -1.26101493835449220000e+000) (32, -1.12139143049716950000e-001) (33, 1.33814424276351930000e-001) (34, 1.13096976280212400000e+000) (35, 8.22085916996002200000e-001) (36, 2.04992234706878660000e-001) (37, 1.86603426933288570000e-001) (38, 9.31469723582267760000e-002) (39, 1.14495679736137390000e-001) (40, 1.77690133452415470000e-001) (41, 3.16852629184722900000e-001) (42, 2.69963473081588750000e-001) (43, 2.34674781560897830000e-001) (44, 2.11701452732086180000e-001) (45, 4.90379966795444490000e-002) (46, 1.11374273896217350000e-001) (47, -7.55660682916641240000e-002) (48, 5.87592899799346920000e-001) (49, 1.35033388137817380000e+001) (50, 1.37396192550659180000e+000) (51, 6.21724748611450200000e+000) (52, 1.69794036865234370000e+002) (53, 5.23776359558105470000e+001) (54, 3.31254158020019530000e+001) (55, -1.53500866889953610000e+000) (56, -2.61998391151428220000e+000) (57, -5.60576200485229490000e-001) (58, 7.52765266224741940000e-003) (59, -1.25053003430366520000e-001) (60, 1.19495829567313190000e-002) (61, 1.58667206764221190000e-001) (62, 2.89236903190612790000e-001) (63, 2.74031221866607670000e-001) (64, -5.13701379299163820000e-001) (65, 2.79547393321990970000e-001) (66, -3.49757522344589230000e-001) (67, -3.48097592592239380000e-001) (68, -3.38966339826583860000e-001) (69, -4.22950416803359990000e-001) (70, -4.22038197517395020000e-001) (71, -7.90781453251838680000e-002) (72, 8.80153849720954900000e-002) (73, 5.53610324859619140000e-002) (74, 3.04863780736923220000e-001) (75, 1.70721247792243960000e-001) (76, 3.39414775371551510000e-001) (77, 1.40278354287147520000e-001) (78, -3.86622995138168330000e-001) (79, -3.17103534936904910000e-001) (80, -3.82818388938903810000e+000) (81, -4.61937427520751950000e-001) (82, 2.37328931689262390000e-001) (83, 3.66158187389373780000e-001) (84, 1.91077262163162230000e-001) (85, 1.26131132245063780000e-001) (86, 1.72617629170417790000e-001) (87, 1.56742006540298460000e-001) (88, 2.02451020479202270000e-001) (89, 3.56319338083267210000e-001) (90, 4.34759378433227540000e-001) (91, 1.89249992370605470000e-001) (92, 1.80348575115203860000e-001) (93, 1.57577276229858400000e-001) (94, -1.38484680175781250000e+002) (95, -7.35968351364135740000e-001) (96, -4.93649616837501530000e-002) (97, -2.53180474042892460000e-001) (98, 1.66153469085693360000e+001) (99, 1.95242181420326230000e-001) (0, 3.43542754650115970000e-001) (1, 2.98708558082580570000e-001) (2, 2.81752765178680420000e-001) (3, -2.40572977066040040000e+000) (4, -4.64417495727539060000e+001) (5, 5.16916351318359370000e+001) (6, 1.36903867125511170000e-001) (7, 1.42386138439178470000e-001) (8, -6.57290267944335940000e+000) (9, -4.33213859796524050000e-001) (10, 1.55988857150077820000e-001) (11, -2.65835136175155640000e-001) (12, 1.83035269379615780000e-001) (13, 2.01833084225654600000e-001) (14, 2.12147846817970280000e-001) (15, 8.42481330037117000000e-002) (16, 2.36421167850494380000e-001) (17, 1.56971290707588200000e-001) (18, 2.85689681768417360000e-001) (19, 2.75616109371185300000e-001) (20, 3.82046103477478030000e-001) (21, 2.74224728345870970000e-001) (22, 1.19405858218669890000e-001) (23, 2.87849247455596920000e-001) (24, 3.25126409530639650000e-001) (25, 7.41808176040649410000e+000) (26, 4.12740659713745120000e+000) (27, 1.98484688997268680000e-001) (28, 2.35418751835823060000e-001) (29, 5.62694035470485690000e-002) (30, 1.35751113295555110000e-001) (31, -2.19426825642585750000e-002) (32, 2.42027625441551210000e-001) (33, 1.82687744498252870000e-001) (34, 4.99651312828063960000e-001) (35, 5.90904891490936280000e-001) (36, 3.41840475797653200000e-001) (37, 2.47835502028465270000e-001) (38, 2.62648701667785640000e-001) (39, 2.55845546722412110000e-001) (40, 3.28537166118621830000e-001) (41, 3.48759382963180540000e-001) (42, 2.97097593545913700000e-001) (43, 2.56962418556213380000e-001) (44, 2.13533475995063780000e-001) (45, 2.07065507769584660000e-001) (46, 3.32611322402954100000e-001) (47, 2.02714189887046810000e-001) (48, 6.02016672492027280000e-002) (49, 5.09008705615997310000e-001) (50, 2.86690115928649900000e+000) (51, 1.17655253410339360000e+000) (52, 8.80178909301757810000e+001) (53, -3.25587539672851560000e+001) (54, -1.54935655593872070000e+001) (55, -6.55168473720550540000e-001) (56, -2.89434380829334260000e-002) (57, -2.69376456737518310000e-001) (58, 6.21654130518436430000e-002) (59, -4.08709123730659480000e-002) (60, 1.65535524487495420000e-001) (61, 3.15044492483139040000e-001) (62, 2.30219990015029910000e-001) (63, 2.99113005399703980000e-001) (64, 2.85161018371582030000e-001) (65, 2.51248478889465330000e-001) (66, -3.65391016006469730000e-001) (67, -4.35171693563461300000e-001) (68, -3.88999402523040770000e-001) (69, -3.23624789714813230000e-001) (70, -3.10733854770660400000e-001) (71, 3.80140095949172970000e-002) (72, 1.33025497198104860000e-001) (73, 2.99585253000259400000e-001) (74, 2.30536386370658870000e-001) (75, 4.07413691282272340000e-001) (76, 4.32731777429580690000e-001) (77, 2.35858276486396790000e-001) (78, -1.38683885335922240000e-001) (79, -5.92896521091461180000e-001) (80, -7.94494915008544920000e+000) (81, -6.58026516437530520000e-001) (82, 3.07248324155807500000e-001) (83, 2.98649668693542480000e-001) (84, 2.96576827764511110000e-001) (85, 1.69641807675361630000e-001) (86, 1.77799090743064880000e-001) (87, 6.39829412102699280000e-002) (88, 3.81738394498825070000e-001) (89, 3.18998515605926510000e-001) (90, 