FANN_FLO_2.1
num_layers=5
learning_rate=0.700000
connection_rate=1.000000
network_type=0
learning_momentum=0.000000
training_algorithm=2
train_error_function=0
train_stop_function=0
cascade_output_change_fraction=0.010000
quickprop_decay=-0.000100
quickprop_mu=1.750000
rprop_increase_factor=1.200000
rprop_decrease_factor=0.500000
rprop_delta_min=0.000000
rprop_delta_max=50.000000
rprop_delta_zero=0.100000
cascade_output_stagnation_epochs=12
cascade_candidate_change_fraction=0.010000
cascade_candidate_stagnation_epochs=12
cascade_max_out_epochs=150
cascade_min_out_epochs=50
cascade_max_cand_epochs=150
cascade_min_cand_epochs=50
cascade_num_candidate_groups=2
bit_fail_limit=3.49999994039535520000e-001
cascade_candidate_limit=1.00000000000000000000e+003
cascade_weight_multiplier=4.00000005960464480000e-001
cascade_activation_functions_count=10
cascade_activation_functions=3 5 7 8 10 11 14 15 16 17 
cascade_activation_steepnesses_count=4
cascade_activation_steepnesses=2.50000000000000000000e-001 5.00000000000000000000e-001 7.50000000000000000000e-001 1.00000000000000000000e+000 
layer_sizes=100 76 52 28 2 
scale_included=0
neurons (num_inputs, activation_function, activation_steepness)=(0, 0, 0.00000000000000000000e+000) (0, 0, 0.00000000000000000000e+000) (0, 0, 0.00000000000000000000e+000) (0, 0, 0.00000000000000000000e+000) (0, 0, 0.00000000000000000000e+000) (0, 0, 0.00000000000000000000e+000) (0, 0, 0.00000000000000000000e+000) (0, 0, 0.00000000000000000000e+000) (0, 0, 0.00000000000000000000e+000) (0, 0, 0.00000000000000000000e+000) (0, 0, 0.00000000000000000000e+000) (0, 0, 0.00000000000000000000e+000) (0, 0, 0.00000000000000000000e+000) (0, 0, 0.00000000000000000000e+000) (0, 0, 0.00000000000000000000e+000) (0, 0, 0.00000000000000000000e+000) (0, 0, 0.00000000000000000000e+000) (0, 0, 0.00000000000000000000e+000) (0, 0, 0.00000000000000000000e+000) (0, 0, 0.00000000000000000000e+000) (0, 0, 0.00000000000000000000e+000) (0, 0, 0.00000000000000000000e+000) (0, 0, 0.00000000000000000000e+000) (0, 0, 0.00000000000000000000e+000) (0, 0, 0.00000000000000000000e+000) (0, 0, 0.00000000000000000000e+000) (0, 0, 0.00000000000000000000e+000) (0, 0, 0.00000000000000000000e+000) (0, 0, 0.00000000000000000000e+000) (0, 0, 0.00000000000000000000e+000) (0, 0, 0.00000000000000000000e+000) (0, 0, 0.00000000000000000000e+000) (0, 0, 0.00000000000000000000e+000) (0, 0, 0.00000000000000000000e+000) (0, 0, 0.00000000000000000000e+000) (0, 0, 0.00000000000000000000e+000) (0, 0, 0.00000000000000000000e+000) (0, 0, 0.00000000000000000000e+000) (0, 0, 0.00000000000000000000e+000) (0, 0, 0.00000000000000000000e+000) (0, 0, 0.00000000000000000000e+000) (0, 0, 0.00000000000000000000e+000) (0, 0, 0.00000000000000000000e+000) (0, 0, 0.00000000000000000000e+000) (0, 0, 0.00000000000000000000e+000) (0, 0, 0.00000000000000000000e+000) (0, 0, 0.00000000000000000000e+000) (0, 0, 0.00000000000000000000e+000) (0, 0, 0.00000000000000000000e+000) (0, 0, 0.00000000000000000000e+000) (0, 0, 0.00000000000000000000e+000) (0, 0, 0.00000000000000000000e+000) (0, 0, 0.00000000000000000000e+000) (0, 0, 0.00000000000000000000e+000) (0, 0, 0.00000000000000000000e+000) (0, 0, 0.00000000000000000000e+000) (0, 0, 0.00000000000000000000e+000) (0, 0, 0.00000000000000000000e+000) (0, 0, 0.00000000000000000000e+000) (0, 0, 0.00000000000000000000e+000) (0, 0, 0.00000000000000000000e+000) (0, 0, 0.00000000000000000000e+000) (0, 0, 0.00000000000000000000e+000) (0, 0, 0.00000000000000000000e+000) (0, 0, 0.00000000000000000000e+000) (0, 0, 0.00000000000000000000e+000) (0, 0, 0.00000000000000000000e+000) (0, 0, 0.00000000000000000000e+000) (0, 0, 0.00000000000000000000e+000) (0, 0, 0.00000000000000000000e+000) (0, 0, 0.00000000000000000000e+000) (0, 0, 0.00000000000000000000e+000) (0, 0, 0.00000000000000000000e+000) (0, 0, 0.00000000000000000000e+000) (0, 0, 0.00000000000000000000e+000) (0, 0, 0.00000000000000000000e+000) (0, 0, 0.00000000000000000000e+000) (0, 0, 0.00000000000000000000e+000) (0, 0, 0.00000000000000000000e+000) (0, 0, 0.00000000000000000000e+000) (0, 0, 0.00000000000000000000e+000) (0, 0, 0.00000000000000000000e+000) (0, 0, 0.00000000000000000000e+000) (0, 0, 0.00000000000000000000e+000) (0, 0, 0.00000000000000000000e+000) (0, 0, 0.00000000000000000000e+000) (0, 0, 0.00000000000000000000e+000) (0, 0, 0.00000000000000000000e+000) (0, 0, 0.00000000000000000000e+000) (0, 0, 0.00000000000000000000e+000) (0, 0, 0.00000000000000000000e+000) (0, 0, 0.00000000000000000000e+000) (0, 0, 0.00000000000000000000e+000) (0, 0, 0.00000000000000000000e+000) (0, 0, 0.00000000000000000000e+000) (0, 0, 0.00000000000000000000e+000) (0, 0, 0.00000000000000000000e+000) (0, 0, 0.00000000000000000000e+000) (0, 0, 0.00000000000000000000e+000) (0, 0, 0.00000000000000000000e+000) (100, 11, 5.00000000000000000000e-001) (100, 11, 5.00000000000000000000e-001) (100, 11, 5.00000000000000000000e-001) (100, 11, 5.00000000000000000000e-001) (100, 11, 5.00000000000000000000e-001) (100, 11, 5.00000000000000000000e-001) (100, 11, 5.00000000000000000000e-001) (100, 11, 5.00000000000000000000e-001) (100, 11, 5.00000000000000000000e-001) (100, 11, 5.00000000000000000000e-001) (100, 11, 5.00000000000000000000e-001) (100, 11, 5.00000000000000000000e-001) (100, 11, 5.00000000000000000000e-001) (100, 11, 5.00000000000000000000e-001) (100, 11, 5.00000000000000000000e-001) (100, 11, 5.00000000000000000000e-001) (100, 11, 5.00000000000000000000e-001) (100, 11, 5.00000000000000000000e-001) (100, 11, 5.00000000000000000000e-001) (100, 11, 5.00000000000000000000e-001) (100, 11, 5.00000000000000000000e-001) (100, 11, 5.00000000000000000000e-001) (100, 11, 5.00000000000000000000e-001) (100, 11, 5.00000000000000000000e-001) (100, 11, 5.00000000000000000000e-001) (100, 11, 5.00000000000000000000e-001) (100, 11, 5.00000000000000000000e-001) (100, 11, 5.00000000000000000000e-001) (100, 11, 5.00000000000000000000e-001) (100, 11, 5.00000000000000000000e-001) (100, 11, 5.00000000000000000000e-001) (100, 11, 5.00000000000000000000e-001) (100, 11, 5.00000000000000000000e-001) (100, 11, 5.00000000000000000000e-001) (100, 11, 5.00000000000000000000e-001) (100, 11, 5.00000000000000000000e-001) (100, 11, 5.00000000000000000000e-001) (100, 11, 5.00000000000000000000e-001) (100, 11, 5.00000000000000000000e-001) (100, 11, 5.00000000000000000000e-001) (100, 11, 5.00000000000000000000e-001) (100, 11, 5.00000000000000000000e-001) (100, 11, 5.00000000000000000000e-001) (100, 11, 5.00000000000000000000e-001) (100, 11, 5.00000000000000000000e-001) (100, 11, 5.00000000000000000000e-001) (100, 11, 5.00000000000000000000e-001) (100, 11, 5.00000000000000000000e-001) (100, 11, 5.00000000000000000000e-001) (100, 11, 5.00000000000000000000e-001) (100, 11, 5.00000000000000000000e-001) (100, 11, 5.00000000000000000000e-001) (100, 11, 5.00000000000000000000e-001) (100, 11, 5.00000000000000000000e-001) (100, 11, 5.00000000000000000000e-001) (100, 11, 5.00000000000000000000e-001) (100, 11, 5.00000000000000000000e-001) (100, 11, 5.00000000000000000000e-001) (100, 11, 5.00000000000000000000e-001) (100, 11, 5.00000000000000000000e-001) (100, 11, 5.00000000000000000000e-001) (100, 11, 5.00000000000000000000e-001) (100, 11, 5.00000000000000000000e-001) (100, 11, 5.00000000000000000000e-001) (100, 11, 5.00000000000000000000e-001) (100, 11, 5.00000000000000000000e-001) (100, 11, 5.00000000000000000000e-001) (100, 11, 5.00000000000000000000e-001) (100, 11, 5.00000000000000000000e-001) (100, 11, 5.00000000000000000000e-001) (100, 11, 5.00000000000000000000e-001) (100, 11, 5.00000000000000000000e-001) (100, 11, 5.00000000000000000000e-001) (100, 11, 5.00000000000000000000e-001) (100, 11, 5.00000000000000000000e-001) (0, 11, 5.00000000000000000000e-001) (76, 11, 5.00000000000000000000e-001) (76, 11, 5.00000000000000000000e-001) (76, 11, 5.00000000000000000000e-001) (76, 11, 5.00000000000000000000e-001) (76, 11, 5.00000000000000000000e-001) (76, 11, 5.00000000000000000000e-001) (76, 11, 5.00000000000000000000e-001) (76, 11, 5.00000000000000000000e-001) (76, 11, 5.00000000000000000000e-001) (76, 11, 5.00000000000000000000e-001) (76, 11, 5.00000000000000000000e-001) (76, 11, 5.00000000000000000000e-001) (76, 11, 5.00000000000000000000e-001) (76, 11, 5.00000000000000000000e-001) (76, 11, 5.00000000000000000000e-001) (76, 11, 5.00000000000000000000e-001) (76, 11, 5.00000000000000000000e-001) (76, 11, 5.00000000000000000000e-001) (76, 11, 5.00000000000000000000e-001) (76, 11, 5.00000000000000000000e-001) (76, 11, 5.00000000000000000000e-001) (76, 11, 5.00000000000000000000e-001) (76, 11, 5.00000000000000000000e-001) (76, 11, 5.00000000000000000000e-001) (76, 11, 5.00000000000000000000e-001) (76, 11, 5.00000000000000000000e-001) (76, 11, 5.00000000000000000000e-001) (76, 11, 5.00000000000000000000e-001) (76, 11, 5.00000000000000000000e-001) (76, 11, 5.00000000000000000000e-001) (76, 11, 5.00000000000000000000e-001) (76, 11, 5.00000000000000000000e-001) (76, 11, 5.00000000000000000000e-001) (76, 11, 5.00000000000000000000e-001) (76, 11, 5.00000000000000000000e-001) (76, 11, 5.00000000000000000000e-001) (76, 11, 5.00000000000000000000e-001) (76, 11, 5.00000000000000000000e-001) (76, 11, 5.00000000000000000000e-001) (76, 11, 5.00000000000000000000e-001) (76, 11, 5.00000000000000000000e-001) (76, 11, 5.00000000000000000000e-001) (76, 11, 5.00000000000000000000e-001) (76, 11, 5.00000000000000000000e-001) (76, 11, 5.00000000000000000000e-001) (76, 11, 5.00000000000000000000e-001) (76, 11, 5.00000000000000000000e-001) (76, 11, 5.00000000000000000000e-001) (76, 11, 5.00000000000000000000e-001) (76, 11, 5.00000000000000000000e-001) (76, 11, 5.00000000000000000000e-001) (0, 11, 5.00000000000000000000e-001) (52, 11, 5.00000000000000000000e-001) (52, 11, 5.00000000000000000000e-001) (52, 11, 5.00000000000000000000e-001) (52, 11, 5.00000000000000000000e-001) (52, 11, 5.00000000000000000000e-001) (52, 11, 5.00000000000000000000e-001) (52, 11, 5.00000000000000000000e-001) (52, 11, 5.00000000000000000000e-001) (52, 11, 5.00000000000000000000e-001) (52, 11, 5.00000000000000000000e-001) (52, 11, 5.00000000000000000000e-001) (52, 11, 5.00000000000000000000e-001) (52, 11, 5.00000000000000000000e-001) (52, 11, 5.00000000000000000000e-001) (52, 11, 5.00000000000000000000e-001) (52, 11, 5.00000000000000000000e-001) (52, 11, 5.00000000000000000000e-001) (52, 11, 5.00000000000000000000e-001) (52, 11, 5.00000000000000000000e-001) (52, 11, 5.00000000000000000000e-001) (52, 11, 5.00000000000000000000e-001) (52, 11, 5.00000000000000000000e-001) (52, 11, 5.00000000000000000000e-001) (52, 11, 5.00000000000000000000e-001) (52, 11, 5.00000000000000000000e-001) (52, 11, 5.00000000000000000000e-001) (52, 11, 5.00000000000000000000e-001) (0, 11, 5.00000000000000000000e-001) (28, 6, 5.00000000000000000000e-001) (0, 6, 5.00000000000000000000e-001) 
connections (connected_to_neuron, weight)=(0, 4.01861786842346190000e-001) (1, 4.06489938497543330000e-001) (2, 4.90905255079269410000e-001) (3, 2.28675037622451780000e-001) (4, -4.12190258502960210000e-001) (5, 5.95684111118316650000e-001) (6, 8.16868245601654050000e-001) (7, 1.07566463947296140000e+000) (8, 1.12052524089813230000e+000) (9, -7.63487666845321660000e-002) (10, -8.87151050567626950000e+000) (11, 2.59649467468261720000e+000) (12, 1.04223573207855220000e+000) (13, 4.70639944076538090000e-001) (14, 5.75383007526397710000e-001) (15, 4.54174637794494630000e-001) (16, 4.03226315975189210000e-001) (17, -7.32448622584342960000e-002) (18, -1.07967269420623780000e+000) (19, -2.62633252143859860000e+000) (20, -6.42120599746704100000e-001) (21, 6.19924724102020260000e-001) (22, 1.10411357879638670000e+000) (23, 9.51571643352508540000e-001) (24, 5.72897374629974370000e-001) (25, 7.35033273696899410000e-001) (26, 5.11602342128753660000e-001) (27, 3.91664147377014160000e-001) (28, 5.52540719509124760000e-001) (29, 5.59209227561950680000e-001) (30, 7.14558362960815430000e-001) (31, 1.28505086898803710000e+000) (32, 2.09531402587890620000e+000) (33, 8.39030861854553220000e-001) (34, 2.22646936774253850000e-001) (35, 2.39487886428833010000e-001) (36, 9.77999806404113770000e-001) (37, 1.80160391330718990000e+000) (38, 1.03700077533721920000e+000) (39, 8.05519223213195800000e-001) (40, 6.99880242347717290000e-001) (41, 4.31300163269042970000e-001) (42, 4.50490355491638180000e-001) (43, 4.23211783170700070000e-001) (44, 5.26548087596893310000e-001) (45, 6.16307556629180910000e-001) (46, 1.88248157501220700000e-001) (47, -1.99336280822753910000e+001) (48, -1.37493181228637700000e+001) (49, 7.43237197399139400000e-001) (50, 1.35093154907226560000e+001) (51, 1.98259294033050540000e+000) (52, -4.35916280746459960000e+000) (53, 1.27286176681518550000e+001) (54, 7.67944335937500000000e-001) (55, 1.44025678634643550000e+001) (56, 1.11029148101806640000e+000) (57, -1.00410289764404300000e+001) (58, -3.03071708679199220000e+001) (59, -1.49194841384887700000e+001) (60, 5.47077655792236330000e-001) (61, 4.59429591894149780000e-001) (62, 6.67978405952453610000e-001) (63, 6.81328654289245610000e-001) (64, 6.66417479515075680000e-001) (65, 8.68594646453857420000e-001) (66, 7.21608281135559080000e-001) (67, 6.66089534759521480000e-001) (68, 5.24576008319854740000e-001) (69, 3.36349427700042720000e-001) (70, 4.32489991188049320000e-001) (71, 5.05813658237457280000e-001) (72, 6.00045561790466310000e-001) (73, 6.20733618736267090000e-001) (74, 8.66237938404083250000e-001) (75, 6.98506414890289310000e-001) (76, 1.17811870574951170000e+000) (77, 2.09569072723388670000e+000) (78, 9.65602755546569820000e-001) (79, 4.30348396301269530000e-001) (80, 4.23593968152999880000e-001) (81, 4.66862916946411130000e-001) (82, 5.83622634410858150000e-001) (83, 5.23845553398132320000e-001) (84, 6.47317647933959960000e-001) (85, 7.26789534091949460000e-001) (86, 6.48555517196655270000e-001) (87, 4.46573674678802490000e-001) (88, 4.19106543064117430000e-001) (89, 2.67392218112945560000e-001) (90, 3.17755162715911870000e-001) (91, 9.65908885002136230000e-001) (92, 2.48062181472778320000e+000) (93, 1.53527283668518070000e+000) (94, 3.81571263074874880000e-001) (95, -2.96504292637109760000e-002) (96, -1.34454202651977540000e+001) (97, 1.04038906097412110000e+000) (98, 1.01570260524749760000e+000) (99, 5.35387814044952390000e-001) (0, 9.50087606906890870000e-001) (1, 9.82897222042083740000e-001) (2, 1.07375550270080570000e+000) (3, -1.56058168411254880000e+001) (4, -1.54171615839004520000e-001) (5, -5.10201573371887210000e-001) (6, 5.50020039081573490000e-001) (7, 6.68349564075469970000e-001) (8, -1.49779343605041500000e+000) (9, 3.82840871810913090000e-001) (10, -4.86791372299194340000e+000) (11, -1.45159363746643070000e+000) (12, -1.63234978914260860000e-001) (13, 1.49768337607383730000e-001) (14, 7.83636420965194700000e-002) (15, 8.02287817001342770000e-001) (16, 1.26783728599548340000e+000) (17, 7.80292415618896480000e+000) (18, 5.13469009399414060000e+001) (19, 6.04187126159667970000e+001) (20, 1.48283218383789060000e+002) (21, 7.66719579696655270000e+000) (22, 6.02615165710449220000e+000) (23, 2.06447386741638180000e+000) (24, 1.29302716255187990000e+000) (25, 1.29540860652923580000e+000) (26, 1.02886366844177250000e+000) (27, 9.53609526157379150000e-001) (28, 1.02712464332580570000e+000) (29, 1.89180362224578860000e+000) (30, -7.17269957065582280000e-001) (31, -5.19007110595703120000e+000) (32, -8.39605748653411870000e-001) (33, 1.45035400986671450000e-001) (34, 2.91217297315597530000e-001) (35, 1.60179138183593750000e+000) (36, -2.88743400573730470000e+000) (37, 2.59120941162109380000e+000) (38, 1.41719329357147220000e+000) (39, 1.18068242073059080000e+000) (40, 1.22445523738861080000e+000) (41, 8.44480693340301510000e-001) (42, 8.64296972751617430000e-001) (43, 6.47172093391418460000e-001) (44, 5.33332586288452150000e-001) (45, 4.72137719392776490000e-001) (46, -5.13150882720947270000e+000) (47, -5.55305480957031250000e+000) (48, -5.01097023487091060000e-001) (49, 4.33027952909469600000e-001) (50, -2.35313370823860170000e-001) (51, -6.24604415893554690000e+001) (52, -3.79268813133239750000e+000) (53, -8.27741980552673340000e-001) (54, 8.72309020996093750000e+002) (55, -7.94902086257934570000e-001) (56, 8.12989532947540280000e-001) (57, -1.19346603751182560000e-001) (58, -2.96905326843261720000e+000) (59, 1.22549545764923100000e+000) (60, 8.41994047164916990000e-001) (61, 8.01089107990264890000e-001) (62, 9.21623885631561280000e-001) (63, 1.01171600818634030000e+000) (64, -7.95252680778503420000e-001) (65, 1.39911055564880370000e+000) (66, 7.22376680374145510000e+000) (67, 2.11630392074584960000e+000) (68, 1.23637473583221440000e+000) (69, 1.11094486713409420000e+000) (70, 8.72179925441741940000e-001) (71, 8.94212841987609860000e-001) (72, 9.29642796516418460000e-001) (73, 9.66654539108276370000e-001) (74, 9.77760195732116700000e-001) (75, 9.37056005001068120000e-001) (76, -1.57334744930267330000e+000) (77, -1.90811765193939210000e+000) (78, -5.19036412239074710000e-001) (79, 6.32967591285705570000e-001) (80, 5.29565856933593750000e+002) (81, 2.16399836540222170000e+000) (82, 1.71664547920227050000e+000) (83, 8.95237684249877930000e-001) (84, 7.27344691753387450000e-001) (85, 9.14982497692108150000e-001) (86, 8.40785086154937740000e-001) (87, 1.36454153060913090000e+000) (88, 2.39199352264404300000e+001) (89, 9.61071908473968510000e-001) (90, 7.43075191974639890000e-001) (91, 6.01291835308074950000e-001) (92, 1.84276044368743900000e+000) (93, 1.16156125068664550000e+000) (94, 8.64165425300598140000e-001) (95, 7.76413083076477050000e-001) (96, 2.79494583606719970000e-001) (97, -6.12650454044342040000e-001) (98, 8.68111724853515620000e+001) (99, 8.35164427757263180000e-001) (0, -3.19597750902175900000e-001) (1, -2.66750156879425050000e-001) (2, -1.50283530354499820000e-001) (3, -4.88263671875000000000e+002) (4, -3.50413441658020020000e+000) (5, -4.21730041503906250000e+000) (6, -3.06833982467651370000e+000) (7, -4.27584856748580930000e-001) (8, -3.40653628110885620000e-001) (9, -4.76854085922241210000e-001) (10, 9.82344388961791990000e-001) (11, -1.88338756561279300000e+000) (12, -2.42500543594360350000e+000) (13, -3.51866745948791500000e+000) (14, -3.58546400070190430000e+000) (15, -6.53373956680297850000e-001) (16, -2.46354371309280400000e-001) (17, 4.93485122919082640000e-001) (18, 2.16586804389953610000e+000) (19, 2.26167058944702150000e+000) (20, 2.20308136940002440000e+000) (21, 1.10696315765380860000e+000) (22, 1.58265101909637450000e+000) (23, 9.78474318981170650000e-001) (24, 1.37646988034248350000e-001) (25, 3.68750929832458500000e-001) (26, -1.18451386690139770000e-001) (27, 6.53296709060668950000e-002) (28, -3.67458313703536990000e-001) (29, -2.14412426948547360000e+000) (30, -1.49085327148437500000e+003) (31, -1.48846557617187500000e+003) (32, -1.34903161621093750000e+003) (33, -3.65313112735748290000e-001) (34, -6.66562616825103760000e-001) (35, -2.04099472045898440000e+002) (36, -1.49955517578125000000e+003) (37, -1.15932617187500000000e+001) (38, -1.88313674926757810000e+000) (39, -1.41670525074005130000e-001) (40, 1.09443962574005130000e-002) (41, -3.54531139135360720000e-001) (42, -4.68702942132949830000e-001) (43, -1.09957981109619140000e+000) (44, -1.16665399074554440000e+000) (45, -1.23533880710601810000e+000) (46, -7.21635675430297850000e+000) (47, -7.94921302795410160000e+000) (48, -1.65787383913993840000e-001) (49, 2.52314090728759770000e+000) (50, -8.35900592803955080000e+000) (51, -1.44686242675781250000e+003) (52, -2.52554130554199220000e+001) (53, -9.94459152221679690000e+001) (54, 7.75552368164062500000e+002) (55, -3.66907272338867190000e+001) (56, 2.84939655102789400000e-003) (57, 1.21094536781311040000e+000) (58, 2.28538632392883300000e+000) (59, 3.52308535575866700000e+000) (60, -3.41841906309127810000e-001) (61, -2.42859631776809690000e-001) (62, -1.07109191894531250000e+003) (63, -8.35846618652343750000e+002) (64, -1.49760119628906250000e+003) (65, -1.70284862518310550000e+001) (66, 5.08593797683715820000e-001) (67, -1.80249333381652830000e+000) (68, -1.24378597736358640000e+000) (69, 6.71376734972000120000e-002) (70, -2.90330708026885990000e-001) (71, 2.71628230810165410000e-001) (72, -7.63973593711853030000e-002) (73, -1.79690092802047730000e-001) (74, 2.32304751873016360000e-001) (75, 2.91638970375061040000e-001) (76, -3.07472491264343260000e+000) (77, -3.37962102890014650000e+000) (78, -1.46377325057983400000e+000) (79, -8.31383019685745240000e-002) (80, 9.10287380218505860000e-001) (81, 7.86500334739685060000e-001) (82, 5.48322260379791260000e-001) (83, 1.95469576865434650000e-002) (84, -4.68708947300910950000e-002) (85, 2.36263498663902280000e-001) (86, -7.09709003567695620000e-002) (87, -1.06211401522159580000e-001) (88, 4.28229331970214840000e+000) (89, -2.06162795424461360000e-001) (90, -4.73693072795867920000e-001) (91, 4.91498172283172610000e-001) (92, 1.47194111347198490000e+000) (93, 6.47558391094207760000e-001) (94, -4.37220662832260130000e-001) (95, -5.72175085544586180000e-001) (96, 1.95372128486633300000e+000) (97, 1.15935742855072020000e+000) (98, 4.64910812377929690000e+001) (99, -3.89862120151519780000e-001) (0, -1.94403141736984250000e-001) (1, -9.67634469270706180000e-002) (2, -1.78590074181556700000e-001) (3, -5.97773170471191410000e+001) (4, -3.14661788940429690000e+000) (5, -1.80966567993164060000e+001) (6, -3.01895117759704590000e+000) (7, -6.80091381072998050000e-001) (8, -4.92391705513000490000e-001) (9, -5.31343162059783940000e-001) (10, -1.01270208358764650000e+001) (11, 3.75353956222534180000e+000) (12, -1.40740985870361330000e+001) (13, -2.73820185661315920000e+000) (14, -2.64603281021118160000e+000) (15, -5.61767399311065670000e-001) (16, -2.12615072727203370000e-001) (17, 8.70561361312866210000e-001) (18, 8.38226318359375000000e+000) (19, 3.65941119194030760000e+000) (20, 4.12559127807617190000e+000) (21, 6.29009068012237550000e-001) (22, 1.53441524505615230000e+000) (23, 1.70567917823791500000e+000) (24, 6.73481404781341550000e-001) (25, 1.14538979530334470000e+000) (26, -1.68214906007051470000e-002) (27, 1.30455240607261660000e-001) (28, -3.82918745279312130000e-001) (29, -1.39676913619041440000e-001) (30, -6.03161193847656250000e+002) (31, -1.49680554199218750000e+003) (32, -3.71881103515625000000e+002) (33, -3.61541688442230220000e-001) (34, -4.26966130733489990000e-001) (35, -1.50950174331665040000e+001) (36, -1.15048168945312500000e+003) (37, -6.48188114166259770000e+000) (38, -5.02688586711883540000e-001) (39, 1.00442366674542430000e-002) (40, 3.31944674253463750000e-002) (41, -2.82209992408752440000e-001) (42, -5.04129469394683840000e-001) (43, -9.74566817283630370000e-001) (44, -1.19622337818145750000e+000) (45, -1.08442890644073490000e+000) (46, 9.91862678527832030000e+000) (47, -4.19518394470214840000e+001) (48, -7.39039087295532230000e+000) (49, 2.13130086660385130000e-001) (50, -1.65663253784179690000e+002) (51, -1.44685876464843750000e+003) (52, -1.86513900756835940000e+001) (53, -1.36822357177734370000e+002) (54, 1.17415795898437500000e+003) (55, -1.45420397949218750000e+003) (56, -1.82231627404689790000e-002) (57, -2.37785980105400090000e-001) (58, -3.93099141120910640000e+000) (59, 1.04725570678710940000e+001) (60, -3.12241554260253910000e-001) (61, -2.87681788206100460000e-001) (62, -3.56041534423828120000e+002) (63, -6.37275238037109380000e+001) (64, -1.49660827636718750000e+003) (65, -6.54754829406738280000e+000) (66, 1.79285466670989990000e+000) (67, 1.50431811809539790000e+000) (68, 9.91442799568176270000e-001) (69, 3.72516959905624390000e-001) (70, -7.16168582439422610000e-001) (71, -3.42777192592620850000e-001) (72, -5.65560460090637210000e-001) (73, -2.48883768916130070000e-001) (74, 4.28403556346893310000e-001) (75, -3.02077293395996090000e-001) (76, -5.84775781631469730000e+000) (77, -7.37927961349487300000e+000) (78, -3.61509537696838380000e+000) (79, -3.64956296980381010000e-002) (80, 2.93726158142089840000e+000) (81, 2.01948022842407230000e+000) (82, 2.42306542396545410000e+000) (83, -5.27776777744293210000e-002) (84, -8.97873222827911380000e-001) (85, -5.99067628383636470000e-001) (86, -5.78424967825412750000e-002) (87, -1.27560496330261230000e-001) (88, 5.10787630081176760000e+000) (89, -6.54312670230865480000e-002) (90, -3.31727415323257450000e-001) (91, -3.97200012207031250000e+000) (92, 1.81195914745330810000e+000) (93, 9.35620367527008060000e-001) (94, -2.82283544540405270000e-001) (95, -4.24947172403335570000e-001) (96, 4.38837003707885740000e+000) (97, 1.61473309993743900000e+000) (98, 9.83824920654296870000e+000) (99, -3.40202391147613530000e-001) (0, 2.55372095108032230000e+000) (1, 2.70040106773376460000e+000) (2, 2.77083277702331540000e+000) (3, 3.46193027496337890000e+000) (4, -1.09282241821289060000e+002) (5, -3.51333212852478030000e+000) (6, 2.40330219268798830000e+000) (7, 1.92844462394714360000e+000) (8, 1.89700293540954590000e+000) (9, 1.82772588729858400000e+000) (10, -3.12385463714599610000e+001) (11, -1.10854463577270510000e+001) (12, -2.94232630729675290000e+000) (13, 1.06192417442798610000e-001) (14, 3.14026802778244020000e-001) (15, 1.85118651390075680000e+000) (16, 2.44149971008300780000e+000) (17, 7.35866594314575200000e+000) (18, 1.76097602844238280000e+001) (19, 1.04694643020629880000e+001) (20, 8.81971511840820310000e+001) (21, 3.81490249633789060000e+001) (22, 1.21783027648925780000e+001) (23, 3.94551181793212890000e+000) (24, 3.45273447036743160000e+000) (25, 3.31090784072875980000e+000) (26, 2.68957757949829100000e+000) (27, 2.29562997817993160000e+000) (28, 2.30272936820983890000e+000) (29, 2.84899973869323730000e+000) (30, 5.47521352767944340000e-001) (31, -3.48053145408630370000e+000) (32, -3.72664523124694820000e+000) (33, 3.43174219131469730000e-001) (34, 2.09051609039306640000e+000) (35, 2.54516577720642090000e+000) (36, 6.53257799148559570000e+000) (37, 6.27900505065917970000e+000) (38, 4.21713256835937500000e+000) (39, 2.97847080230712890000e+000) (40, 2.96784830093383790000e+000) (41, 2.45307779312133790000e+000) (42, 2.30219888687133790000e+000) (43, 2.01735997200012210000e+000) (44, 1.56924557685852050000e+000) (45, 1.61999285221099850000e+000) (46, -1.10307855606079100000e+001) (47, -3.91269226074218750000e+001) (48, -1.01953468322753910000e+001) (49, -2.89538121223449710000e+000) (50, -3.06021642684936520000e+000) (51, -6.11681044101715090000e-002) (52, -4.11324787139892580000e+000) (53, 1.08042840957641600000e+001) (54, 3.07497191429138180000e+000) (55, 1.93545424938201900000e+000) (56, 2.00205159187316890000e+000) (57, -8.60269165039062500000e+000) (58, -1.60332775115966800000e+001) (59, -1.57052888870239260000e+001) (60, 2.05454611778259280000e+000) (61, 2.47229290008544920000e+000) (62, 2.63169550895690920000e+000) (63, 2.82842278480529790000e+000) (64, 3.27138543128967290000e+000) (65, 4.30267763137817380000e+000) (66, 6.20569944381713870000e+000) (67, 6.53279018402099610000e+000) (68, 4.43140745162963870000e+000) (69, 4.48351383209228520000e+000) (70, 4.05299711227416990000e+000) (71, 2.45448756217956540000e+000) (72, 2.45895314216613770000e+000) (73, 2.69332337379455570000e+000) (74, 1.93508231639862060000e+000) (75, 1.77493298053741460000e+000) (76, -3.48843789100646970000e+000) (77, -3.57872605323791500000e+000) (78, -7.02896237373352050000e-001) (79, 2.13014960289001460000e+000) (80, 6.79452896118164060000e+000) (81, 6.26298141479492190000e+000) (82, 5.85210037231445310000e+000) (83, 2.55611085891723630000e+000) (84, 1.54473030567169190000e+000) (85, 1.82602691650390620000e+000) (86, 1.73517906665802000000e+000) (87, 3.26280236244201660000e+000) (88, 3.08969521522521970000e+000) (89, 3.08573246002197270000e+000) (90, 2.75759458541870120000e+000) (91, 5.42053985595703130000e+000) (92, 9.69681739807128910000e+000) (93, 5.94603109359741210000e+000) (94, 2.52733182907104490000e+000) (95, 2.23914194107055660000e+000) (96, -2.63924407958984370000e+000) (97, 1.43805751577019690000e-002) (98, 2.23354601860046390000e+000) (99, 2.29166126251220700000e+000) (0, 4.28532004356384280000e-001) (1, 3.08198511600494380000e-001) (2, -5.24324411526322360000e-003) (3, 1.49873962402343750000e+003) (4, 1.46089562988281250000e+003) (5, 1.64731538295745850000e+000) (6, 2.26250171661376950000e+000) (7, 1.72698366641998290000e+000) (8, 1.04025435447692870000e+000) (9, 6.13927078247070310000e+000) (10, 3.41658599853515620000e+002) (11, 3.44837493896484370000e+002) (12, 4.24748497009277340000e+001) (13, 2.48054084777832030000e+001) (14, 2.28832931518554690000e+001) (15, 6.74103617668151860000e-001) (16, 3.28782290220260620000e-001) (17, -2.84461479187011720000e+001) (18, -2.33092727661132810000e+002) (19, -6.00723510742187500000e+002) (20, 5.80891084671020510000e+000) (21, 6.13702545166015630000e+001) (22, 1.10780227184295650000e+000) (23, -5.22780120372772220000e-001) (24, 2.70404845476150510000e-001) (25, 3.41982930898666380000e-001) (26, 4.18653935194015500000e-001) (27, 7.61907875537872310000e-001) (28, -6.32945716381073000000e-001) (29, -2.63633084297180180000e+000) (30, -1.60991363525390630000e+001) (31, 5.38734741210937500000e+001) (32, 8.38868179321289060000e+001) (33, 6.74290418624877930000e+000) (34, 8.91346514225006100000e-001) (35, 6.91040515899658200000e+000) (36, 5.62363586425781250000e+001) (37, 1.27903518676757810000e+001) (38, 5.25451812744140620000e+001) (39, 2.61483168601989750000e+000) (40, 1.04494702816009520000e+000) (41, 5.32856464385986330000e-001) (42, 5.99082827568054200000e-001) (43, 1.07761967182159420000e+000) (44, 4.68290233612060550000e+000) (45, 2.85536313056945800000e+000) (46, 4.83292770385742190000e+001) (47, 3.44613159179687500000e+002) (48, 2.60211772918701170000e+001) (49, 1.15395708084106450000e+001) (50, -6.46691942214965820000e+000) (51, 1.49586987304687500000e+003) (52, 1.06304374694824220000e+002) (53, -1.36441602706909180000e+001) (54, -8.43688964843750000000e+002) (55, 1.77217655181884770000e+001) (56, 2.09978985786437990000e+000) (57, 4.58090324401855470000e+001) (58, 1.50965179443359370000e+002) (59, 2.58377265930175780000e+001) (60, 3.53321862220764160000e+000) (61, 4.90738481283187870000e-001) (62, -1.20699172839522360000e-002) (63, -1.86437591910362240000e-001) (64, -2.39563894271850590000e+000) (65, -3.38551789522171020000e-001) (66, -1.14963615417480470000e+002) (67, -1.25262105464935300000e+000) (68, 4.40400898456573490000e-001) (69, 9.80132520198822020000e-001) (70, 3.36587166786193850000e+000) (71, 5.81217348575592040000e-001) (72, 8.72106850147247310000e-001) (73, 6.45802378654479980000e-001) (74, 1.69920730590820310000e+000) (75, 1.26577484607696530000e+000) (76, 3.17383041381835940000e+001) (77, 3.57251403808593750000e+002) (78, 6.02047615051269530000e+001) (79, 1.49739360809326170000e+000) (80, -1.17674522399902340000e+001) (81, -1.02706060409545900000e+001) (82, 1.02138843536376950000e+001) (83, 3.63818788528442380000e+000) (84, 1.65488493442535400000e+000) (85, 1.43936789035797120000e+000) (86, 1.56989920139312740000e+000) (87, 2.47369736433029170000e-001) (88, 3.14666479825973510000e-001) (89, 3.28938812017440800000e-001) (90, 4.57231462001800540000e-001) (91, 8.13608825206756590000e-001) (92, 5.39314270019531250000e-001) (93, 3.70665192604064940000e-001) (94, 1.01832437515258790000e+000) (95, 1.00431001186370850000e+000) (96, 1.11840686798095700000e+001) (97, 3.10524425506591800000e+001) (98, 7.82959671020507810000e+001) (99, 3.90078485012054440000e-001) (0, 9.01888012886047360000e-001) (1, 9.74398314952850340000e-001) (2, 9.40006077289581300000e-001) (3, 1.84066450595855710000e+000) (4, -8.80152359604835510000e-002) (5, -4.08377289772033690000e-001) (6, -1.23557113111019130000e-002) (7, 5.80009758472442630000e-001) (8, -1.86622619628906250000e+001) (9, -2.81392395496368410000e-001) (10, -5.44607877731323240000e+000) (11, -1.95394992828369140000e+000) (12, -3.44266653060913090000e-001) (13, 1.73044994473457340000e-001) (14, 1.15579545497894290000e-001) (15, 7.86683976650238040000e-001) (16, 1.33234632015228270000e+000) (17, 8.68264389038085940000e+000) (18, 2.06746139526367190000e+002) (19, 1.39829437255859380000e+002) (20, 1.56518630981445310000e+002) (21, 7.52676248550415040000e+000) (22, 5.96143722534179690000e+000) (23, 1.90649044513702390000e+000) (24, 1.68248331546783450000e+000) (25, 1.39135813713073730000e+000) (26, 1.03586268424987790000e+000) (27, 1.01464712619781490000e+000) (28, 1.05121469497680660000e+000) (29, 2.11696195602416990000e+000) (30, 1.00485908985137940000e+000) (31, -4.66451501846313480000e+000) (32, -1.14227664470672610000e+000) (33, 2.38778188824653630000e-001) (34, 4.14195537567138670000e-001) (35, -2.71853923797607420000e-001) (36, -4.42335815429687500000e+001) (37, 2.67458319664001460000e+000) (38, 1.46152377128601070000e+000) (39, 1.24970936775207520000e+000) (40, 1.18198466300964360000e+000) (41, 8.90241861343383790000e-001) (42, 8.07610213756561280000e-001) (43, 6.69078052043914790000e-001) (44, 5.61133801937103270000e-001) (45, 4.69279050827026370000e-001) (46, -4.84972476959228520000e+000) (47, -6.69016504287719730000e+000) (48, -8.38971078395843510000e-001) (49, 2.45587125420570370000e-001) (50, -9.73603576421737670000e-002) (51, -3.11542930603027340000e+001) (52, -2.42374110221862790000e+000) (53, 1.26315271854400630000e+000) (54, 1.49989257812500000000e+003) (55, -1.15594120025634770000e+001) (56, 8.11679244041442870000e-001) (57, -1.37362405657768250000e-001) (58, -2.34610438346862790000e+000) (59, -2.25214028358459470000e+000) (60, 7.39814400672912600000e-001) (61, 8.10969352722167970000e-001) (62, 9.48977887630462650000e-001) (63, -4.79717075824737550000e-001) (64, -2.94864044189453130000e+001) (65, 1.79620599746704100000e+000) (66, 2.92947502136230470000e+001) (67, 3.44152808189392090000e+000) (68, 1.46673738956451420000e+000) (69, 1.06642723083496090000e+000) (70, 8.65865826606750490000e-001) (71, 8.35298895835876460000e-001) (72, 1.02413976192474370000e+000) (73, 1.11049270629882810000e+000) (74, 1.02405858039855960000e+000) (75, 1.10003221035003660000e+000) (76, -1.76538217067718510000e+000) (77, -2.14413976669311520000e+000) (78, -5.25006115436553960000e-001) (79, 6.64159595966339110000e-001) (80, 1.18478942871093750000e+003) (81, 3.29134798049926760000e+000) (82, 2.36230158805847170000e+000) (83, 9.40503835678100590000e-001) (84, 7.82271265983581540000e-001) (85, 7.96547591686248780000e-001) (86, 7.94180095195770260000e-001) (87, 1.48638665676116940000e+000) (88, 2.15960979461669920000e+001) (89, 1.04473400115966800000e+000) (90, 7.97267794609069820000e-001) (91, 9.73904073238372800000e-001) (92, 1.95896077156066890000e+000) (93, 1.30180978775024410000e+000) (94, 7.78368413448333740000e-001) (95, 6.46519422531127930000e-001) (96, 3.10924321413040160000e-001) (97, -7.80830204486846920000e-001) (98, 2.07078659057617190000e+002) (99, 7.80793488025665280000e-001) (0, -2.99533596262335780000e-003) (1, 5.93242533504962920000e-002) (2, 1.63150057196617130000e-001) (3, 1.87068712711334230000e+000) (4, -4.03765678405761720000e+000) (5, -1.83134734630584720000e+000) (6, -2.77001410722732540000e-001) (7, 6.46512091159820560000e-001) (8, 6.92184627056121830000e-001) (9, 6.39850437641143800000e-001) (10, -1.49760210514068600000e+000) (11, 1.06147623062133790000e+000) (12, 1.01311020553112030000e-001) (13, -6.70398697257041930000e-002) (14, -1.82916551828384400000e-001) (15, -1.28129661083221440000e-001) (16, 2.72064417600631710000e-001) (17, 1.21030783653259280000e+000) (18, 2.05598402023315430000e+000) (19, 3.21401071548461910000e+000) (20, 3.26787447929382320000e+000) (21, 2.61914181709289550000e+000) (22, 2.79621624946594240000e+000) (23, 4.45257377624511720000e+000) (24, 8.79265546798706050000e-001) (25, 1.53341686725616460000e+000) (26, 2.38922238349914550000e-001) (27, -6.41007497906684880000e-002) (28, 6.51719048619270320000e-002) (29, 4.72405850887298580000e-002) (30, -5.69314695894718170000e-003) (31, 2.58362948894500730000e-001) (32, 1.91677153110504150000e-001) (33, 1.61320388317108150000e-001) (34, -8.24886411428451540000e-002) (35, 2.59318518638610840000e+000) (36, 1.25949525833129880000e+001) (37, 1.33033621311187740000e+000) (38, 1.40533947944641110000e+000) (39, 5.53671836853027340000e-001) (40, 3.63377332687377930000e-001) (41, 2.95891929417848590000e-002) (42, 1.68333798646926880000e-002) (43, -1.28793254494667050000e-001) (44, 1.85786292422562840000e-003) (45, 1.15898765623569490000e-001) (46, 1.74033284187316890000e+000) (47, 1.65602836608886720000e+001) (48, 3.04922890663146970000e+000) (49, 7.92560040950775150000e-001) (50, -4.01226550340652470000e-001) (51, -2.95893306732177730000e+001) (52, -1.33486385345458980000e+001) (53, 2.06177926063537600000e+000) (54, 4.76957225799560550000e+000) (55, 3.66892218589782710000e-001) (56, 6.72424614429473880000e-001) (57, 7.27353513240814210000e-001) (58, -2.01652216911315920000e+000) (59, -3.64216423034667970000e+000) (60, 5.23513734340667720000e-001) (61, 5.00014305114746090000e-001) (62, -1.56202957034111020000e-001) (63, 2.50479102134704590000e-001) (64, 6.49459421634674070000e-001) (65, 5.57223379611968990000e-001) (66, 2.43738794326782230000e+000) (67, 4.82187604904174800000e+000) (68, 1.47028923034667970000e+000) (69, 1.55675947666168210000e+000) (70, 1.92410036921501160000e-001) (71, 3.51076662540435790000e-001) (72, 2.92624711990356450000e-001) (73, 7.15827286243438720000e-001) (74, 3.04530113935470580000e-001) (75, 2.98226207494735720000e-001) (76, 2.86236017942428590000e-001) (77, 1.43087998032569890000e-001) (78, 7.14397057890892030000e-002) (79, 5.12111522257328030000e-002) (80, 1.07767868041992190000e+000) (81, 1.42864537239074710000e+000) (82, 1.35969626903533940000e+000) (83, 7.86918461322784420000e-001) (84, 7.46682137250900270000e-002) (85, 3.49172681570053100000e-001) (86, 1.45211368799209590000e-001) (87, 1.42319262027740480000e-001) (88, 6.63499176502227780000e-001) (89, 7.71361663937568660000e-002) (90, 6.06349110603332520000e-002) (91, -4.28566551208496090000e+000) (92, 9.35890614986419680000e-001) (93, 1.97626620531082150000e-001) (94, 4.55929170129820700000e-004) (95, 6.72555208206176760000e-001) (96, 6.95993423461914060000e-001) (97, 6.87433779239654540000e-001) (98, 8.56808543205261230000e-001) (99, 2.65418123453855510000e-002) (0, 4.06253010034561160000e-001) (1, 3.94197434186935420000e-001) (2, 2.58750051259994510000e-001) (3, 1.34552139282226560000e+002) (4, 1.18268298339843750000e+003) (5, -1.06292953491210940000e+001) (6, 1.04644763469696040000e+000) (7, 1.67786526679992680000e+000) (8, 1.12517285346984860000e+000) (9, 2.92660164833068850000e+000) (10, 3.37880371093750000000e+002) (11, 8.09922866821289060000e+001) (12, 6.26600790023803710000e+000) (13, 7.28036546707153320000e+000) (14, 6.20767545700073240000e+000) (15, 8.63720357418060300000e-001) (16, 3.94111722707748410000e-001) (17, -1.34641921997070310000e+002) (18, -2.25327575683593750000e+002) (19, -3.87185913085937500000e+002) (20, -2.13254642486572270000e+001) (21, 6.02563476562500000000e+001) (22, 2.33555769920349120000e+000) (23, 8.12133073806762700000e-001) (24, 7.67916560173034670000e-001) (25, 7.19711720943450930000e-001) (26, 9.83001112937927250000e-001) (27, 6.43685042858123780000e-001) (28, 3.03801503032445910000e-002) (29, -2.01757907867431640000e+000) (30, -2.33231414794921870000e+002) (31, 6.64738464355468750000e+001) (32, 7.83704833984375000000e+001) (33, 1.52419481277465820000e+001) (34, 3.49852561950683590000e-001) (35, -4.75388020277023320000e-001) (36, 1.64909896850585940000e+001) (37, 1.02147760391235350000e+001) (38, 4.69425354003906250000e+001) (39, 4.14846754074096680000e+000) (40, 1.79829370975494380000e+000) (41, 6.25278592109680180000e-001) (42, 5.94697058200836180000e-001) (43, 2.13841581344604490000e+000) (44, 2.39806199073791500000e+000) (45, 2.65179991722106930000e+000) (46, -3.88032379150390630000e+002) (47, 3.58193298339843750000e+002) (48, 2.55335845947265620000e+001) (49, 6.61945390701293950000e+000) (50, -1.39682788085937500000e+003) (51, 1.93555130004882810000e+002) (52, 7.73604049682617190000e+001) (53, -5.79841979980468750000e+002) (54, -1.15523132324218750000e+003) (55, 7.42815828323364260000e+000) (56, 3.55554389953613280000e+000) (57, 2.48332614898681640000e+001) (58, 6.32203598022460940000e+001) (59, 1.44329071044921880000e+001) (60, 1.10448110103607180000e+000) (61, 5.73760092258453370000e-001) (62, 3.98366689682006840000e-001) (63, 3.91099959611892700000e-001) (64, -1.06737017631530760000e+000) (65, 2.83008605241775510000e-001) (66, -8.27173767089843750000e+002) (67, -3.24680290222167970000e+001) (68, 4.94929790496826170000e-001) (69, 8.64226818084716800000e-001) (70, -3.91091614961624150000e-001) (71, 7.49743759632110600000e-001) (72, 9.27323698997497560000e-001) (73, 8.51892352104187010000e-001) (74, 2.04248642921447750000e+000) (75, 1.84020638465881350000e+000) (76, 3.78696098327636720000e+001) (77, 2.40331665039062500000e+002) (78, 4.01449546813964840000e+001) (79, 1.25435221195220950000e+000) (80, -7.67996826171875000000e+001) (81, -2.33494052886962890000e+001) (82, 3.27758002281188960000e+000) (83, 3.67792487144470210000e+000) (84, 3.08563113212585450000e+000) (85, 1.93290352821350100000e+000) (86, 2.60014581680297850000e+000) (87, 3.27289849519729610000e-001) (88, -6.48124337196350100000e-001) (89, 7.08915144205093380000e-002) (90, 2.44418248534202580000e-001) (91, 5.57836592197418210000e-001) (92, 1.96729212999343870000e-001) (93, -1.25923186540603640000e-001) (94, 4.84293580055236820000e-001) (95, 8.25861811637878420000e-001) (96, 6.80049228668212890000e+000) (97, 4.07743930816650390000e+000) (98, -2.12857391357421870000e+002) (99, 4.20981019735336300000e-001) (0, -4.59368348121643070000e-001) (1, -3.02366197109222410000e-001) (2, -3.02068889141082760000e-001) (3, -1.39457054138183590000e+001) (4, -2.86138463020324710000e+000) (5, -3.21445178985595700000e+000) (6, -3.16992878913879390000e+000) (7, -4.78958219289779660000e-001) (8, -5.95084190368652340000e-001) (9, -6.65757417678833010000e-001) (10, 5.63380050659179690000e+000) (11, -3.69792437553405760000e+000) (12, -2.63395285606384280000e+000) (13, -3.78786730766296390000e+000) (14, -3.94911408424377440000e+000) (15, -8.86440694332122800000e-001) (16, -4.23063665628433230000e-001) (17, 3.15958291292190550000e-001) (18, 1.57702028751373290000e+000) (19, 1.62470901012420650000e+000) (20, 1.89994251728057860000e+000) (21, 1.85373187065124510000e+000) (22, 9.53239440917968750000e-001) (23, 1.12644128501415250000e-001) (24, -1.34271070361137390000e-001) (25, 2.06823632121086120000e-001) (26, -4.49090689420700070000e-001) (27, -1.98192432522773740000e-001) (28, -4.70775872468948360000e-001) (29, -4.71239686012268070000e-001) (30, -1.14374744892120360000e+000) (31, -1.53743386268615720000e+000) (32, -1.80528056621551510000e+000) (33, -3.18597018718719480000e-001) (34, -6.47341907024383540000e-001) (35, 4.96798992156982420000e+000) (36, 3.56647706031799320000e+000) (37, 3.23459792137146000000e+000) (38, 1.28072619438171390000e-001) (39, -3.64747077226638790000e-001) (40, -2.65894234180450440000e-001) (41, -5.57934284210205080000e-001) (42, -6.17682695388793950000e-001) (43, -1.33325350284576420000e+000) (44, -1.45047163963317870000e+000) (45, -1.36063444614410400000e+000) (46, 2.91625618934631350000e+000) (47, -1.94145603179931640000e+001) (48, -1.34286081790924070000e+000) (49, 7.99738988280296330000e-002) (50, 6.62509977817535400000e-001) (51, -7.74413879394531250000e+002) (52, -8.04816150665283200000e+000) (53, 6.13479804992675780000e+001) (54, 8.34442019462585450000e-001) (55, -1.93518030643463130000e+000) (56, -3.04323881864547730000e-001) (57, -5.66289007663726810000e-001) (58, 5.30083274841308590000e+000) (59, -4.21133613586425780000e+000) (60, -5.36940455436706540000e-001) (61, -4.57070291042327880000e-001) (62, -3.53644818067550660000e-001) (63, -2.16587662696838380000e-001) (64, -1.36759817600250240000e-001) (65, 3.09073589742183690000e-002) (66, 5.08062303066253660000e-001) (67, 4.92838591337203980000e-001) (68, 4.34912472963333130000e-001) (69, -2.16802850365638730000e-001) (70, -1.71286687254905700000e-001) (71, -3.61770391464233400000e-002) (72, -5.58828353881835940000e-001) (73, -3.76122146844863890000e-001) (74, -1.22556075453758240000e-001) (75, -4.34877611696720120000e-002) (76, -3.37894439697265630000e+000) (77, -3.41272449493408200000e+000) (78, -1.54764151573181150000e+000) (79, -1.18289083242416380000e-001) (80, 1.31108736991882320000e+000) (81, 1.32339084148406980000e+000) (82, 1.37042415142059330000e+000) (83, 8.31729173660278320000e-003) (84, -2.32760578393936160000e-001) (85, -1.24667435884475710000e-001) (86, -8.08210447430610660000e-002) (87, -2.10339978337287900000e-001) (88, -1.63691505789756770000e-001) (89, -2.05033421516418460000e-001) (90, -5.50945401191711430000e-001) (91, 3.10242325067520140000e-001) (92, 1.38230752944946290000e+000) (93, 4.25182312726974490000e-001) (94, -3.03063631057739260000e-001) (95, -5.81175267696380620000e-001) (96, 2.68903374671936040000e+000) (97, 1.52737164497375490000e+000) (98, 5.94131851196289060000e+000) (99, -6.03943645954132080000e-001) (0, 7.12166666984558110000e-001) (1, 9.66778934001922610000e-001) (2, 9.58787262439727780000e-001) (3, 1.32533325195312500000e+003) (4, -7.06424593925476070000e-001) (5, -1.79878130555152890000e-001) (6, 4.34850364923477170000e-001) (7, 3.39224398136138920000e-001) (8, -1.26365900039672850000e+000) (9, 6.68967068195343020000e-001) (10, -4.47420930862426760000e+000) (11, -5.12855005264282230000e+000) (12, -2.38215699791908260000e-001) (13, 1.72978848218917850000e-001) (14, 1.59446805715560910000e-001) (15, 6.24287664890289310000e-001) (16, 1.37076282501220700000e+000) (17, 2.48265671730041500000e+000) (18, 3.93037872314453130000e+001) (19, 3.01684074401855470000e+001) (20, 2.93982868194580080000e+001) (21, 3.20787596702575680000e+000) (22, 6.17322921752929690000e+000) (23, 1.92744326591491700000e+000) (24, 1.32685375213623050000e+000) (25, 1.26333022117614750000e+000) (26, 1.00739336013793950000e+000) (27, 9.53315138816833500000e-001) (28, 1.02100658416748050000e+000) (29, 4.66194868087768550000e+000) (30, 1.24904048442840580000e+000) (31, -6.00155256688594820000e-002) (32, -8.06650042533874510000e-001) (33, 3.08680951595306400000e-001) (34, 3.31361055374145510000e-001) (35, 5.14648556709289550000e-001) (36, 1.35051083564758300000e+000) (37, 2.70918059349060060000e+000) (38, 1.25246012210845950000e+000) (39, 1.04757487773895260000e+000) (40, 1.24323129653930660000e+000) (41, 8.11307549476623540000e-001) (42, 8.49367797374725340000e-001) (43, 5.96007883548736570000e-001) (44, 5.27561128139495850000e-001) (45, 6.57955825328826900000e-001) (46, -4.06747484207153320000e+000) (47, -4.07878208160400390000e+000) (48, -3.96996647119522090000e-001) (49, 6.69440805912017820000e-001) (50, -2.53270715475082400000e-001) (51, -2.29044551849365230000e+001) (52, -4.66530174016952510000e-001) (53, 7.67892313003540040000e+000) (54, -1.42140655517578120000e+002) (55, -4.42985653877258300000e-001) (56, 8.20484697818756100000e-001) (57, -1.09466150403022770000e-001) (58, -1.26104581356048580000e+000) (59, -1.04741740226745610000e+000) (60, 7.00695455074310300000e-001) (61, 9.20320034027099610000e-001) (62, 9.63800907135009770000e-001) (63, 1.10338068008422850000e+000) (64, 1.37268817424774170000e+000) (65, 1.38747310638427730000e+000) (66, 9.16068267822265620000e+000) (67, 1.79756581783294680000e+000) (68, 1.27540743350982670000e+000) (69, 9.55427587032318120000e-001) (70, 6.55880272388458250000e-001) (71, 7.23964750766754150000e-001) (72, 8.54328274726867680000e-001) (73, 9.38406467437744140000e-001) (74, 9.02306079864501950000e-001) (75, 9.89256441593170170000e-001) (76, -1.30722534656524660000e+000) (77, -1.54769754409790040000e+000) (78, -5.99442720413208010000e-001) (79, 6.49021029472351070000e-001) (80, 4.82174949645996090000e+001) (81, 1.28933072090148930000e+000) (82, 1.23432910442352290000e+000) (83, 9.02436792850494380000e-001) (84, 6.78908407688140870000e-001) (85, 7.62239158153533940000e-001) (86, 6.54760718345642090000e-001) (87, 1.76657581329345700000e+000) (88, 2.10132904052734380000e+001) (89, 8.42931151390075680000e-001) (90, 7.71934628486633300000e-001) (91, 1.26506400108337400000e+000) (92, 1.80034816265106200000e+000) (93, 1.10789418220520020000e+000) (94, 8.10411214828491210000e-001) (95, 7.29486465454101560000e-001) (96, 4.11613136529922490000e-001) (97, -1.69127464294433590000e+000) (98, -3.32004814147949220000e+001) (99, 8.44141900539398190000e-001) (0, 6.19405984878540040000e-001) (1, 6.75357699394226070000e-001) (2, 7.95992493629455570000e-001) (3, 8.15830409526824950000e-001) (4, -6.47739470005035400000e-001) (5, -2.27604955434799190000e-001) (6, 6.40631914138793950000e-001) (7, 7.41721391677856450000e-001) (8, 7.93289840221405030000e-001) (9, 6.29414021968841550000e-001) (10, -4.93561935424804690000e+000) (11, -4.59045171737670900000e+000) (12, -1.94678530097007750000e-001) (13, 1.17941657081246380000e-002) (14, 1.05779573321342470000e-001) (15, 4.95674401521682740000e-001) (16, 6.19522929191589360000e-001) (17, 9.57857847213745120000e-001) (18, 8.85202944278717040000e-001) (19, 6.60629928112030030000e-001) (20, 1.16368556022644040000e+000) (21, 1.95133113861083980000e+000) (22, 1.93099045753479000000e+000) (23, 1.34169900417327880000e+000) (24, 8.55160534381866460000e-001) (25, 9.91004407405853270000e-001) (26, 7.46397614479064940000e-001) (27, 6.51587903499603270000e-001) (28, 8.19610297679901120000e-001) (29, 8.29044044017791750000e-001) (30, 3.65585893392562870000e-001) (31, -7.40618586540222170000e-001) (32, -6.87746047973632810000e-001) (33, 2.24533841013908390000e-001) (34, 5.09488344192504880000e-001) (35, 2.76829987764358520000e-001) (36, 1.24154448509216310000e+000) (37, 1.31936228275299070000e+000) (38, 1.13443148136138920000e+000) (39, 9.25282478332519530000e-001) (40, 8.86144399642944340000e-001) (41, 6.16434931755065920000e-001) (42, 6.70326769351959230000e-001) (43, 4.77455139160156250000e-001) (44, 4.29946690797805790000e-001) (45, 4.27971929311752320000e-001) (46, -4.67942094802856450000e+000) (47, -1.71722373962402340000e+001) (48, -2.63053107261657710000e+000) (49, -5.48530407249927520000e-002) (50, -1.42262428998947140000e-001) (51, 3.01977694034576420000e-001) (52, -9.87770020961761470000e-001) (53, 4.17231261730194090000e-001) (54, 3.07762593030929570000e-001) (55, 7.79516160488128660000e-001) (56, 8.71250987052917480000e-001) (57, -1.32935449481010440000e-001) (58, -2.42938780784606930000e+000) (59, -3.02599906921386720000e+000) (60, 6.21139824390411380000e-001) (61, 6.31338953971862790000e-001) (62, 8.92894506454467770000e-001) (63, 9.68044579029083250000e-001) (64, 1.08093237876892090000e+000) (65, 1.26528847217559810000e+000) (66, 1.44636690616607670000e+000) (67, 1.34888243675231930000e+000) (68, 8.65935683250427250000e-001) (69, 6.21770918369293210000e-001) (70, 4.52738702297210690000e-001) (71, 7.97144055366516110000e-001) (72, 9.15923476219177250000e-001) (73, 9.20858860015869140000e-001) (74, 7.72219359874725340000e-001) (75, 6.07505142688751220000e-001) (76, -4.53163003921508790000e+000) (77, -4.65405273437500000000e+000) (78, -1.66596448421478270000e+000) (79, 3.06275069713592530000e-001) (80, 5.04474222660064700000e-001) (81, 1.10223007202148440000e+000) (82, 8.93575906753540040000e-001) (83, 5.91812968254089360000e-001) (84, 6.27557396888732910000e-001) (85, 7.17244386672973630000e-001) (86, 5.61852037906646730000e-001) (87, 5.71792840957641600000e-001) (88, 6.17511689662933350000e-001) (89, 8.45774710178375240000e-001) (90, 7.02353954315185550000e-001) (91, 8.92118453979492190000e-001) (92, 1.90321087837219240000e+000) (93, 1.10465729236602780000e+000) (94, 6.15148246288299560000e-001) (95, 8.46108198165893550000e-001) (96, 3.01378428936004640000e-001) (97, 3.98321658372879030000e-001) (98, 8.33261549472808840000e-001) (99, 5.39059937000274660000e-001) (0, -4.82249617576599120000e-001) (1, -3.46929103136062620000e-001) (2, -4.25245463848114010000e-001) (3, -3.80178833007812500000e+001) (4, -2.30591821670532230000e+000) (5, -3.92383480072021480000e+000) (6, -3.77000236511230470000e+000) (7, -4.69548672437667850000e-001) (8, -1.17043018341064450000e+000) (9, -6.68622374534606930000e-001) (10, -1.66531324386596680000e-001) (11, -4.31580352783203130000e+000) (12, -2.69380044937133790000e+000) (13, -3.83142948150634770000e+000) (14, -3.69224810600280760000e+000) (15, -8.56138348579406740000e-001) (16, -5.21597266197204590000e-001) (17, 2.36668810248374940000e-001) (18, 1.97489237785339360000e+000) (19, 1.85104858875274660000e+000) (20, 2.68090319633483890000e+000) (21, 2.26333475112915040000e+000) (22, 6.05989843606948850000e-002) (23, 3.28820645809173580000e-001) (24, -8.25892761349678040000e-002) (25, 8.85189995169639590000e-002) (26, -4.66327220201492310000e-001) (27, -5.97454547882080080000e-001) (28, -5.92618286609649660000e-001) (29, 6.05459325015544890000e-002) (30, -1.42540824413299560000e+000) (31, -2.04891204833984380000e+000) (32, -1.53816151618957520000e+000) (33, -4.38351213932037350000e-001) (34, -8.04260194301605220000e-001) (35, 1.46099281311035160000e+000) (36, 6.45732450485229490000e+000) (37, 3.88816452026367190000e+000) (38, 1.41613036394119260000e-001) (39, -4.69699382781982420000e-001) (40, -3.30547481775283810000e-001) (41, -5.64149618148803710000e-001) (42, -5.76010167598724370000e-001) (43, -1.26826381683349610000e+000) (44, -1.49506831169128420000e+000) (45, -1.42016351222991940000e+000) (46, -1.18007287979125980000e+001) (47, -1.82194671630859380000e+001) (48, -3.60671639442443850000e+000) (49, -5.86033880710601810000e-001) (50, -5.37595129013061520000e+000) (51, -3.21315795898437500000e+002) (52, -1.99504833221435550000e+001) (53, 2.01466884613037110000e+001) (54, 6.06060241699218750000e+002) (55, -1.04159484863281250000e+003) (56, -9.57316383719444270000e-002) (57, -8.30472171306610110000e-001) (58, 9.78157103061676030000e-001) (59, 9.83734703063964840000e+000) (60, -4.72423404455184940000e-001) (61, -4.40999746322631840000e-001) (62, -5.51256656646728520000e-001) (63, -3.41730684041976930000e-001) (64, -2.32882976531982420000e-001) (65, 6.96658715605735780000e-002) (66, 4.94103044271469120000e-001) (67, 5.69061100482940670000e-001) (68, 6.59342885017395020000e-001) (69, 3.22759114205837250000e-002) (70, 1.91482961177825930000e-001) (71, 1.22581519186496730000e-001) (72, -4.29834097623825070000e-001) (73, -3.30251485109329220000e-001) (74, 1.39793574810028080000e-001) (75, 1.13002911210060120000e-001) (76, -2.76296949386596680000e+000) (77, -2.93240714073181150000e+000) (78, -1.47727012634277340000e+000) (79, -2.30652287602424620000e-001) (80, 2.15114855766296390000e+000) (81, 1.18906223773956300000e+000) (82, 1.37730181217193600000e+000) (83, -2.75175482034683230000e-001) (84, -1.65505230426788330000e-001) (85, -2.78370548039674760000e-002) (86, -2.33640700578689580000e-001) (87, -1.27072364091873170000e-001) (88, 4.44549703598022460000e+000) (89, -3.21994096040725710000e-001) (90, -6.04909896850585940000e-001) (91, 5.41530609130859380000e-001) (92, 1.31668388843536380000e+000) (93, 1.54952168464660640000e-001) (94, -4.32756423950195310000e-001) (95, -9.09516036510467530000e-001) (96, -2.45706662535667420000e-001) (97, 5.58849930763244630000e-001) (98, 3.55404686927795410000e+000) (99, -5.67720055580139160000e-001) (0, 2.10341885685920720000e-001) (1, 2.60345131158828740000e-001) (2, 3.71932208538055420000e-001) (3, 5.92000126838684080000e-001) (4, 1.34345364570617680000e+000) (5, 2.16087028384208680000e-001) (6, 3.38152945041656490000e-001) (7, 3.76056492328643800000e-001) (8, 3.05996954441070560000e-001) (9, 6.83264911174774170000e-001) (10, 6.81760191917419430000e-001) (11, 8.04973602294921880000e-001) (12, 3.09407711029052730000e-001) (13, 1.18512220680713650000e-001) (14, 2.10451677441596980000e-001) (15, 2.24307402968406680000e-001) (16, 2.21777528524398800000e-001) (17, -1.59695494174957280000e+000) (18, -1.96576519012451170000e+001) (19, -1.96778545379638670000e+001) (20, -1.47112455368041990000e+001) (21, -5.05279350280761720000e+000) (22, 8.55144739151000980000e-001) (23, 6.49916112422943120000e-001) (24, 5.10848224163055420000e-001) (25, 4.96225237846374510000e-001) (26, 4.21429544687271120000e-001) (27, 1.95905685424804690000e-001) (28, 2.23200038075447080000e-001) (29, 2.62604266405105590000e-001) (30, 4.82759773731231690000e-001) (31, 1.85572460293769840000e-001) (32, 2.69776046276092530000e-001) (33, 2.65056550502777100000e-001) (34, 1.43964350223541260000e-001) (35, 1.24043607711791990000e+000) (36, 6.36311113834381100000e-001) (37, 7.74231612682342530000e-001) (38, 4.90666210651397710000e-001) (39, 2.44006499648094180000e-001) (40, 4.04204457998275760000e-001) (41, 3.33510100841522220000e-001) (42, 9.65114980936050420000e-002) (43, 2.11970672011375430000e-001) (44, 1.15505702793598180000e-001) (45, 2.68875360488891600000e-001) (46, 4.67166751623153690000e-001) (47, 6.96273267269134520000e-001) (48, 9.49935853481292720000e-001) (49, 2.59203433990478520000e-001) (50, 4.86484766006469730000e-001) (51, 4.22112435102462770000e-001) (52, 3.83691489696502690000e-001) (53, 2.35409641265869140000e+000) (54, 6.43228411674499510000e-001) (55, 6.13629341125488280000e-001) (56, 7.71697878837585450000e-001) (57, 1.39882075786590580000e+000) (58, 1.35325396060943600000e+000) (59, 1.39356637001037600000e+000) (60, 3.00780534744262700000e-001) (61, 2.22874239087104800000e-001) (62, 3.28662902116775510000e-001) (63, 4.73165810108184810000e-001) (64, 4.25116688013076780000e-001) (65, 4.73418384790420530000e-001) (66, 4.42319959402084350000e-001) (67, 5.74188292026519780000e-001) (68, 1.64430963993072510000e+000) (69, 5.23836016654968260000e-001) (70, 5.53574442863464360000e-001) (71, 2.45192244648933410000e-001) (72, 2.27400854229927060000e-001) (73, 3.50860685110092160000e-001) (74, 3.44185471534729000000e-001) (75, 4.70926165580749510000e-001) (76, 2.88053363561630250000e-001) (77, 9.31253135204315190000e-002) (78, 2.26768016815185550000e-001) (79, 1.28222256898880000000e-001) (80, -9.06487822532653810000e-001) (81, -5.74384927749633790000e-001) (82, -5.10449552536010740000e+000) (83, 5.16943633556365970000e-001) (84, 3.88481020927429200000e-001) (85, 4.42965120077133180000e-001) (86, 3.72497916221618650000e-001) (87, 3.08531612157821660000e-001) (88, 5.15702247619628910000e-001) (89, 2.49296396970748900000e-001) (90, 1.70564949512481690000e-001) (91, 6.41482234001159670000e-001) (92, -5.35056293010711670000e-001) (93, -2.37203195691108700000e-001) (94, 1.67806893587112430000e-001) (95, 2.30827853083610530000e-001) (96, 8.76381278038024900000e-001) (97, 5.77740669250488280000e-001) (98, 5.15050649642944340000e-001) (99, 1.85811877250671390000e-001) (0, 9.32275712490081790000e-001) (1, 1.01527094841003420000e+000) (2, 9.62491691112518310000e-001) (3, 2.73562812805175780000e+001) (4, 5.05454540252685550000e-001) (5, 2.14446514844894410000e-001) (6, 6.88065528869628910000e-001) (7, 7.00493991374969480000e-001) (8, -2.45981740951538090000e+000) (9, 2.36324176192283630000e-001) (10, -5.12756824493408200000e+000) (11, -5.26425170898437500000e+000) (12, -1.47335499525070190000e-001) (13, 1.80161669850349430000e-001) (14, 2.14251220226287840000e-001) (15, 6.78066670894622800000e-001) (16, 1.39753711223602290000e+000) (17, 2.39264369010925290000e+000) (18, 2.37158031463623050000e+001) (19, 8.81307373046875000000e+001) (20, 2.15431766510009770000e+001) (21, 4.07975816726684570000e+000) (22, 6.55359125137329100000e+000) (23, 2.01349329948425290000e+000) (24, 2.47343802452087400000e+000) (25, 1.51003372669219970000e+000) (26, 1.04772329330444340000e+000) (27, 8.53251457214355470000e-001) (28, 1.03423738479614260000e+000) (29, 4.29773426055908200000e+000) (30, 1.92751610279083250000e+000) (31, -4.37064313888549800000e+000) (32, -7.20949411392211910000e-001) (33, 1.28522247076034550000e-001) (34, 4.10282731056213380000e-001) (35, -7.24835574626922610000e-001) (36, -5.87761077880859370000e+001) (37, 2.62801027297973630000e+000) (38, 1.34781002998352050000e+000) (39, 1.29364800453186040000e+000) (40, 1.17371869087219240000e+000) (41, 7.75906622409820560000e-001) (42, 8.03172826766967770000e-001) (43, 7.49703586101531980000e-001) (44, 5.61814129352569580000e-001) (45, 6.28204286098480220000e-001) (46, -5.01776695251464840000e+000) (47, -5.79152584075927730000e+000) (48, -6.86047136783599850000e-001) (49, 3.20478141307830810000e-001) (50, 3.54689569212496280000e-003) (51, -1.73453617095947270000e+001) (52, -3.34526157379150390000e+000) (53, -1.68662869930267330000e+000) (54, 8.97497314453125000000e+002) (55, -2.50615930557250980000e+000) (56, 8.59086632728576660000e-001) (57, -1.00656256079673770000e-001) (58, -1.91191482543945310000e+000) (59, -1.77761852741241460000e+000) (60, 6.92250370979309080000e-001) (61, 7.95656263828277590000e-001) (62, 3.87181788682937620000e-001) (63, -1.05706453323364260000e+000) (64, -2.95983428955078120000e+001) (65, 1.57919883728027340000e+000) (66, 9.44114494323730470000e+000) (67, 1.98622345924377440000e+000) (68, 1.29672169685363770000e+000) (69, 1.01147866249084470000e+000) (70, 8.32776129245758060000e-001) (71, 7.30876803398132320000e-001) (72, 8.92037034034729000000e-001) (73, 1.12064552307128910000e+000) (74, 1.14713025093078610000e+000) (75, 1.08815193176269530000e+000) (76, -1.15197455883026120000e+000) (77, -2.00683236122131350000e+000) (78, -5.18293678760528560000e-001) (79, 8.28058779239654540000e-001) (80, 6.11076477050781250000e+002) (81, 1.34204792976379390000e+000) (82, 1.36073160171508790000e+000) (83, 1.09753131866455080000e+000) (84, 8.05090069770812990000e-001) (85, 9.56551790237426760000e-001) (86, 7.25592911243438720000e-001) (87, 1.71733999252319340000e+000) (88, 3.75200119018554690000e+001) (89, 1.18747925758361820000e+000) (90, 8.11092734336853030000e-001) (91, 1.26829445362091060000e+000) (92, 1.86379957199096680000e+000) (93, 1.15177214145660400000e+000) (94, 6.69359326362609860000e-001) (95, 7.95815289020538330000e-001) (96, 3.71010601520538330000e-001) (97, -8.96191656589508060000e-001) (98, -1.09330654144287110000e+001) (99, 8.45540821552276610000e-001) (0, -1.69102862477302550000e-001) (1, -1.27769276499748230000e-001) (2, 3.71668905019760130000e-001) (3, 4.22397732734680180000e-001) (4, 3.86560648679733280000e-001) (5, 4.22181606292724610000e-001) (6, 2.00133740901947020000e-001) (7, 3.58612090349197390000e-001) (8, 3.23850333690643310000e-001) (9, 3.03986907005310060000e-001) (10, 2.13012844324111940000e-001) (11, -2.84376740455627440000e-001) (12, -1.77022174000740050000e-001) (13, -2.34284177422523500000e-001) (14, -1.06421209871768950000e-001) (15, -2.64970988035202030000e-001) (16, -9.93490740656852720000e-002) (17, -2.30858862400054930000e-001) (18, -1.28295361995697020000e-001) (19, -1.68020978569984440000e-001) (20, -1.14359356462955470000e-001) (21, 3.92624378204345700000e-001) (22, 3.89564335346221920000e-001) (23, 3.59688818454742430000e-001) (24, 2.69464135169982910000e-001) (25, 2.14815899729728700000e-001) (26, 1.83099046349525450000e-001) (27, 2.24980771541595460000e-001) (28, 3.24825227260589600000e-001) (29, 2.89912134408950810000e-001) (30, 3.69573235511779790000e-001) (31, 1.93682298064231870000e-001) (32, 2.14273735880851750000e-001) (33, 1.78218036890029910000e-001) (34, 2.32506558299064640000e-001) (35, -2.01976954936981200000e-001) (36, -1.21498502790927890000e-001) (37, -2.27295130491256710000e-001) (38, -1.26273155212402340000e-001) (39, -2.39559859037399290000e-001) (40, -2.67104387283325200000e-001) (41, -1.60969510674476620000e-001) (42, -1.62154898047447200000e-001) (43, -3.08133602142333980000e-001) (44, -1.44002631306648250000e-001) (45, -2.26419106125831600000e-001) (46, -1.56301721930503850000e-001) (47, 3.32682460546493530000e-001) (48, 1.59495323896408080000e-001) (49, -2.63743072748184200000e-001) (50, -6.54107555747032170000e-002) (51, 1.35517463088035580000e-001) (52, 4.25689220428466800000e-001) (53, 2.06087097525596620000e-001) (54, 3.91135126352310180000e-001) (55, 3.27209889888763430000e-001) (56, 3.34674209356307980000e-001) (57, 3.17261874675750730000e-001) (58, 3.22211235761642460000e-001) (59, 4.20604586601257320000e-001) (60, 3.31553786993026730000e-001) (61, -2.15583190321922300000e-001) (62, -1.49358376860618590000e-001) (63, -2.43110761046409610000e-001) (64, -2.04912588000297550000e-001) (65, -1.96602627635002140000e-001) (66, -8.46799761056900020000e-002) (67, -2.39140138030052190000e-001) (68, -1.66114553809165950000e-001) (69, -1.53187438845634460000e-001) (70, -3.11754643917083740000e-001) (71, -2.53706246614456180000e-001) (72, -1.17208763957023620000e-001) (73, -1.69516354799270630000e-001) (74, -2.15673476457595830000e-001) (75, -1.38354301452636720000e-001) (76, -2.09157645702362060000e-001) (77, -1.27423644065856930000e-001) (78, -1.67329952120780940000e-001) (79, -2.43418678641319270000e-001) (80, -2.56665796041488650000e-001) (81, -2.13017210364341740000e-001) (82, -2.91365087032318120000e-001) (83, -2.75848239660263060000e-001) (84, -2.96135932207107540000e-001) (85, -1.36736035346984860000e-001) (86, -2.13038414716720580000e-001) (87, -2.08311840891838070000e-001) (88, 2.73248642683029170000e-001) (89, 2.99115628004074100000e-001) (90, -2.47105002403259280000e-001) (91, -2.29932591319084170000e-001) (92, -2.25276559591293330000e-001) (93, 2.06149712204933170000e-001) (94, 3.23940038681030270000e-001) (95, 2.07429870963096620000e-001) (96, 3.21679443120956420000e-001) (97, 3.42888683080673220000e-001) (98, 3.15273612737655640000e-001) (99, 3.05149137973785400000e-001) (0, -3.37143808603286740000e-001) (1, -3.66405993700027470000e-001) (2, -1.55270203948020940000e-001) (3, 1.31482095718383790000e+001) (4, -3.02329087257385250000e+000) (5, 2.60673370361328130000e+001) (6, -3.84133505821228030000e+000) (7, -3.58441099524497990000e-002) (8, 2.04082265496253970000e-001) (9, 9.17233228683471680000e-001) (10, 5.59981956481933590000e+001) (11, 2.03011589050292970000e+001) (12, -1.97212350368499760000e+000) (13, -2.09967255592346190000e+000) (14, -2.01986789703369140000e+000) (15, -6.80929839611053470000e-001) (16, -4.43187087774276730000e-001) (17, 3.77973586320877080000e-001) (18, 2.37909197807312010000e+000) (19, 2.08460688591003420000e+000) (20, 4.96119079589843750000e+001) (21, 2.98003959655761720000e+000) (22, 4.30314397811889650000e+000) (23, 2.37438440322875980000e+000) (24, 1.66037988662719730000e+000) (25, 2.87382316589355470000e+000) (26, 1.88738852739334110000e-002) (27, 9.22922417521476750000e-002) (28, -2.39598482847213750000e-001) (29, 2.52221599221229550000e-002) (30, 1.33479576110839840000e+001) (31, 1.42739251255989070000e-001) (32, -8.81884872913360600000e-001) (33, 1.16954934597015380000e+000) (34, 3.82169556617736820000e+000) (35, 6.20883064270019530000e+001) (36, 1.95327548980712890000e+001) (37, 1.50219821929931640000e+001) (38, 7.21161484718322750000e-001) (39, -1.41154840588569640000e-001) (40, -2.18820989131927490000e-001) (41, -4.86158221960067750000e-001) (42, -4.71511960029602050000e-001) (43, -9.91310119628906250000e-001) (44, -1.01363575458526610000e+000) (45, -1.03070664405822750000e+000) (46, 4.88971282958984370000e+002) (47, 2.99796295166015630000e+001) (48, -1.27266585826873780000e+000) (49, 2.17117142677307130000e+000) (50, -1.58443355560302730000e+001) (51, -3.45870239257812500000e+002) (52, -4.59361686706542970000e+001) (53, 1.02740468978881840000e+001) (54, -1.63683247566223140000e+000) (55, -3.81818366050720210000e+000) (56, 1.64373427629470830000e-001) (57, 4.30009603500366210000e+000) (58, 2.57478675842285160000e+001) (59, 2.26502475738525390000e+001) (60, -5.31021237373352050000e-001) (61, -4.07992303371429440000e-001) (62, -2.12108910083770750000e-001) (63, -2.34877020120620730000e-001) (64, 5.53390085697174070000e-001) (65, 6.73364460468292240000e-001) (66, 8.75549602508544920000e+000) (67, 2.27083706855773930000e+000) (68, 3.97393894195556640000e+000) (69, 4.73573625087738040000e-001) (70, 2.38228034973144530000e+000) (71, 2.65271019935607910000e+000) (72, 6.46673202514648440000e-001) (73, 8.34955036640167240000e-001) (74, 1.25103318691253660000e+000) (75, 4.33530807495117190000e-001) (76, -1.16243517398834230000e+000) (77, -3.67757296562194820000e+000) (78, -1.74766051769256590000e+000) (79, 2.71800756454467770000e-001) (80, 3.60999035835266110000e+000) (81, 2.07176518440246580000e+000) (82, 3.41156935691833500000e+000) (83, 6.97551071643829350000e-002) (84, -2.06202432513237000000e-001) (85, 6.21117139235138890000e-003) (86, -1.02114208042621610000e-001) (87, 4.34637337923049930000e-001) (88, 1.32533874511718750000e+002) (89, 9.11862626671791080000e-002) (90, -5.44799208641052250000e-001) (91, 2.05269962549209590000e-001) (92, 1.29077458381652830000e+000) (93, 3.16654175519943240000e-001) (94, -3.57306063175201420000e-001) (95, -4.21415448188781740000e-001) (96, 4.37612009048461910000e+000) (97, 6.40624105930328370000e-001) (98, -1.16494979858398440000e+001) (99, -4.21016693115234380000e-001) (0, 4.02326315641403200000e-001) (1, 2.87127643823623660000e-001) (2, 7.63936936855316160000e-001) (3, 5.54116547107696530000e-001) (4, -3.51247978210449220000e+000) (5, 2.13340729475021360000e-001) (6, 5.77424466609954830000e-001) (7, -1.11606061458587650000e+000) (8, 2.21536934375762940000e-001) (9, 8.93524810671806340000e-002) (10, 1.99607953429222110000e-001) (11, 1.64155691862106320000e-001) (12, 2.46902540326118470000e-001) (13, 2.64974921941757200000e-001) (14, 3.56997698545455930000e-001) (15, 3.55555802583694460000e-001) (16, 3.21865171194076540000e-001) (17, 1.32985925674438480000e+001) (18, 3.23007583618164060000e+001) (19, 1.26618141174316410000e+002) (20, 3.55168838500976560000e+001) (21, 4.41724985837936400000e-001) (22, 3.64200663566589360000e+000) (23, 3.01232361793518070000e+000) (24, 1.96169674396514890000e+000) (25, 1.25722801685333250000e+000) (26, 6.75190031528472900000e-001) (27, 3.28142076730728150000e-001) (28, 2.23065987229347230000e-001) (29, 4.14691150188446040000e-001) (30, 7.83588051795959470000e-001) (31, 1.00954937934875490000e+000) (32, 5.01634001731872560000e-001) (33, 3.36735159158706670000e-001) (34, -2.34286542981863020000e-002) (35, 1.61977040767669680000e+000) (36, 6.57614440917968750000e+001) (37, 9.46442413330078130000e+000) (38, 1.20559096336364750000e+000) (39, 6.49850428104400630000e-001) (40, 7.40994453430175780000e-001) (41, 4.48978185653686520000e-001) (42, 2.34185382723808290000e-001) (43, 2.30502516031265260000e-001) (44, 2.84759283065795900000e-001) (45, 2.70812958478927610000e-001) (46, 9.41309034824371340000e-002) (47, -4.90728825330734250000e-001) (48, -6.59421205520629880000e-001) (49, -1.96468189358711240000e-001) (50, -1.18699200451374050000e-001) (51, 1.32390248775482180000e+000) (52, -9.70452964305877690000e-001) (53, 1.00226116180419920000e+000) (54, -8.11774368286132810000e+001) (55, -1.38590168952941890000e+000) (56, 5.26921808719635010000e-001) (57, 2.73631155490875240000e-001) (58, 1.37700036168098450000e-001) (59, 1.63881212472915650000e-001) (60, 3.67828905582427980000e-001) (61, 6.04464232921600340000e-001) (62, 1.83788037300109860000e+000) (63, 1.18120563030242920000e+000) (64, 1.57027375698089600000e+000) (65, 2.37364125251770020000e+000) (66, 8.91173422336578370000e-001) (67, 1.17451405525207520000e+000) (68, 6.92151832580566410000e+000) (69, 6.60158634185791020000e-001) (70, 4.23320531845092770000e+000) (71, 5.13163149356842040000e-001) (72, 9.42479908466339110000e-001) (73, 1.24802207946777340000e+000) (74, 6.82668089866638180000e-001) (75, 5.84037244319915770000e-001) (76, 6.00671648979187010000e-001) (77, 4.43709909915924070000e-001) (78, 4.31226283311843870000e-001) (79, 1.67586296796798710000e-001) (80, 2.81991451978683470000e-001) (81, 1.50441539287567140000e+000) (82, 1.27888202667236330000e+000) (83, 6.58030390739440920000e-001) (84, 5.52988052368164060000e-001) (85, 6.47329449653625490000e-001) (86, 5.50208449363708500000e-001) (87, 3.74788939952850340000e-001) (88, 3.22401583194732670000e-001) (89, 2.22642838954925540000e-001) (90, 6.24338746070861820000e-001) (91, 5.42685031890869140000e-001) (92, 4.12968397140502930000e+000) (93, 6.17623150348663330000e-001) (94, 3.96144956350326540000e-001) (95, 4.70003038644790650000e-001) (96, 2.42037773132324220000e-001) (97, 5.66360533237457280000e-001) (98, -4.82659225463867190000e+001) (99, 2.16031208634376530000e-001) (0, 8.22113394737243650000e-001) (1, 9.53679919242858890000e-001) (2, 1.12061715126037600000e+000) (3, 8.61791915893554690000e+001) (4, -2.40851536393165590000e-001) (5, -5.34654796123504640000e-001) (6, 3.08376580476760860000e-001) (7, 1.71218365430831910000e-001) (8, -2.35765385627746580000e+000) (9, -1.81225031614303590000e-001) (10, -4.68627166748046870000e+000) (11, -1.70047414302825930000e+000) (12, -2.67746835947036740000e-001) (13, 3.33518758416175840000e-002) (14, 3.32336336374282840000e-001) (15, 6.85303747653961180000e-001) (16, 1.39723730087280270000e+000) (17, 8.52129650115966800000e+000) (18, 1.16955947875976560000e+002) (19, 3.05850341796875000000e+002) (20, 9.06190643310546880000e+001) (21, 1.22395181655883790000e+001) (22, 1.07110948562622070000e+001) (23, 2.17750763893127440000e+000) (24, 2.16826844215393070000e+000) (25, 1.47281038761138920000e+000) (26, 1.01125621795654300000e+000) (27, 9.33707833290100100000e-001) (28, 1.06055295467376710000e+000) (29, 1.89254343509674070000e+000) (30, 2.10927963256835940000e+000) (31, 4.96382236480712890000e-001) (32, -3.57930094003677370000e-001) (33, 2.72466361522674560000e-001) (34, 3.69292110204696660000e-001) (35, 9.30659055709838870000e-001) (36, -4.99733161926269530000e+001) (37, 6.52188825607299800000e+000) (38, 1.37962293624877930000e+000) (39, 1.30586123466491700000e+000) (40, 1.22458314895629880000e+000) (41, 8.41677308082580570000e-001) (42, 7.87736892700195310000e-001) (43, 7.10633099079132080000e-001) (44, 5.05322277545928960000e-001) (45, 3.27239602804183960000e-001) (46, -4.30058336257934570000e+000) (47, -4.98436975479125980000e+000) (48, -5.18926084041595460000e-001) (49, 4.28697139024734500000e-001) (50, -5.68467378616333010000e-001) (51, -3.11172523498535160000e+001) (52, -3.00657773017883300000e+000) (53, -3.02214741706848140000e-001) (54, 8.35416259765625000000e+002) (55, -2.60466308593750000000e+001) (56, 9.19649004936218260000e-001) (57, -1.90167933702468870000e-001) (58, -1.62907838821411130000e+000) (59, -1.50873529911041260000e+000) (60, 7.00138628482818600000e-001) (61, 9.34515714645385740000e-001) (62, 9.09049749374389650000e-001) (63, 9.62006807327270510000e-001) (64, -2.11353015899658200000e+000) (65, 1.90832853317260740000e+000) (66, 2.86078300476074220000e+001) (67, 5.87458515167236330000e+000) (68, 2.24661612510681150000e+000) (69, 1.07986712455749510000e+000) (70, 9.08135712146759030000e-001) (71, 8.47756028175354000000e-001) (72, 8.77330839633941650000e-001) (73, 1.01772570610046390000e+000) (74, 1.11930799484252930000e+000) (75, 1.07081854343414310000e+000) (76, -7.85520017147064210000e-001) (77, -1.96564996242523190000e+000) (78, -5.16592025756835940000e-001) (79, 6.25420629978179930000e-001) (80, 4.09105102539062500000e+002) (81, 5.80354785919189450000e+000) (82, 4.00818014144897460000e+000) (83, 1.08656406402587890000e+000) (84, 7.72078692913055420000e-001) (85, 9.74045813083648680000e-001) (86, 8.25346589088439940000e-001) (87, 1.35750079154968260000e+000) (88, 2.36993255615234380000e+001) (89, 1.02943408489227290000e+000) (90, 7.31771826744079590000e-001) (91, 1.07887339591979980000e+000) (92, 1.96396839618682860000e+000) (93, 1.16820216178894040000e+000) (94, 8.03034603595733640000e-001) (95, 7.98790633678436280000e-001) (96, 3.47729533910751340000e-001) (97, -2.41121177673339840000e+001) (98, 7.21710300445556640000e+000) (99, 8.13380300998687740000e-001) (0, 7.85378694534301760000e-001) (1, 9.43286180496215820000e-001) (2, 1.18949842453002930000e+000) (3, 1.59020507335662840000e+000) (4, -1.44529128074646000000e+000) (5, 1.32519721984863280000e+000) (6, 1.05638635158538820000e+000) (7, 7.17030882835388180000e-001) (8, 7.05188274383544920000e-001) (9, 3.47878158092498780000e-001) (10, 1.08117610216140750000e-001) (11, 3.90004485845565800000e-001) (12, 4.81048017740249630000e-001) (13, 7.21372485160827640000e-001) (14, 5.67178130149841310000e-001) (15, 6.75925016403198240000e-001) (16, 1.85778355598449710000e+000) (17, 3.55343589782714840000e+001) (18, 3.92997550964355470000e+001) (19, 1.38894750976562500000e+003) (20, 5.86832504272460940000e+001) (21, 1.18093037605285640000e+000) (22, 7.21944284439086910000e+000) (23, 2.07240128517150880000e+000) (24, 3.17519283294677730000e+000) (25, 1.50012743473052980000e+000) (26, 1.10022664070129390000e+000) (27, 7.33470082283020020000e-001) (28, 6.84837639331817630000e-001) (29, 1.01034057140350340000e+000) (30, 2.60108923912048340000e+000) (31, 4.66635084152221680000e+000) (32, 9.70971643924713130000e-001) (33, 7.55467653274536130000e-001) (34, 2.32289358973503110000e-001) (35, 6.13212823867797850000e+000) (36, 3.59848907470703120000e+002) (37, 7.47095642089843750000e+001) (38, 4.32904529571533200000e+000) (39, 1.01214468479156490000e+000) (40, 1.02685546875000000000e+000) (41, 6.37762308120727540000e-001) (42, 5.92520058155059810000e-001) (43, 5.90147852897644040000e-001) (44, 7.10694372653961180000e-001) (45, 1.10439789295196530000e+000) (46, 5.86977064609527590000e-001) (47, -4.24635648727416990000e-001) (48, 3.07303339242935180000e-001) (49, 2.96648025512695310000e-001) (50, 5.89537441730499270000e-001) (51, 9.99190330505371090000e+000) (52, 2.84841299057006840000e-001) (53, 7.49386119842529300000e+000) (54, -8.97832107543945310000e+001) (55, 4.99356985092163090000e-001) (56, 9.25526618957519530000e-001) (57, 4.02866899967193600000e-001) (58, 1.59325748682022090000e-001) (59, 1.44650623202323910000e-001) (60, 7.58576273918151860000e-001) (61, 1.28524184226989750000e+000) (62, 3.51895904541015620000e+000) (63, 1.46848831176757810000e+001) (64, 4.83598289489746090000e+001) (65, 5.69968175888061520000e+000) (66, 5.63273048400878910000e+000) (67, 8.19301986694335940000e+000) (68, 1.04013729095458980000e+001) (69, 1.79228353500366210000e+000) (70, 2.22419023513793950000e+000) (71, 1.62113487720489500000e+000) (72, 1.35956871509552000000e+000) (73, 1.43797183036804200000e+000) (74, 1.50638282299041750000e+000) (75, 1.22383630275726320000e+000) (76, 1.04245579242706300000e+000) (77, 5.77541351318359380000e-001) (78, 7.68075764179229740000e-001) (79, 6.56013131141662600000e-001) (80, 1.04289758205413820000e+000) (81, 2.54341030120849610000e+000) (82, 2.74156665802001950000e+001) (83, 5.58579587936401370000e+000) (84, 8.26532542705535890000e-001) (85, 9.66416418552398680000e-001) (86, 1.04189038276672360000e+000) (87, 8.37339758872985840000e-001) (88, 7.76935696601867680000e-001) (89, 7.23052740097045900000e-001) (90, 7.33735382556915280000e-001) (91, 1.16201794147491460000e+000) (92, 8.58970105648040770000e-001) (93, 5.00557363033294680000e-001) (94, 7.30037212371826170000e-001) (95, 8.65317881107330320000e-001) (96, 3.58276337385177610000e-001) (97, 1.86579394340515140000e+000) (98, -2.99405503273010250000e+000) (99, 5.54541110992431640000e-001) (0, 5.23164927959442140000e-001) (1, 5.36477327346801760000e-001) (2, 7.51703083515167240000e-001) (3, 8.69231224060058590000e-001) (4, -2.21121743321418760000e-001) (5, 1.36927902698516850000e-001) (6, 6.08999371528625490000e-001) (7, -2.22776591777801510000e-001) (8, 4.02448475360870360000e-001) (9, 4.96178358793258670000e-001) (10, 6.12383723258972170000e-001) (11, 6.81654036045074460000e-001) (12, 5.18732666969299320000e-001) (13, 6.13614857196807860000e-001) (14, 4.41914796829223630000e-001) (15, 5.51442682743072510000e-001) (16, 7.91219949722290040000e-001) (17, 1.29722452163696290000e+000) (18, 1.71938347816467290000e+000) (19, 1.17861080169677730000e+001) (20, 1.64054024219512940000e+000) (21, 1.39746487140655520000e+000) (22, 7.01816482543945310000e+001) (23, 3.52377510070800780000e+000) (24, 2.54494214057922360000e+000) (25, 2.31374025344848630000e+000) (26, 7.78971314430236820000e-001) (27, 6.22053444385528560000e-001) (28, 6.01727306842803960000e-001) (29, 6.49339973926544190000e-001) (30, 1.41267430782318120000e+000) (31, 1.11592757701873780000e+000) (32, 7.50808358192443850000e-001) (33, 4.61731940507888790000e-001) (34, -4.52821254730224610000e-001) (35, 1.05487571716308590000e+002) (36, -4.65218620300292970000e+001) (37, 2.44058532714843750000e+001) (38, 3.09588265419006350000e+000) (39, 7.07068145275115970000e-001) (40, 9.04016613960266110000e-001) (41, 6.02810740470886230000e-001) (42, 5.43699145317077640000e-001) (43, 4.58902448415756230000e-001) (44, 4.73291039466857910000e-001) (45, 4.27188634872436520000e-001) (46, 2.93824881315231320000e-001) (47, 6.03364527225494380000e-001) (48, 5.08663296699523930000e-001) (49, 6.71337723731994630000e-001) (50, 5.82454442977905270000e-001) (51, 4.60097283124923710000e-001) (52, 6.61789298057556150000e-001) (53, 3.05213117599487300000e+000) (54, -2.11291103363037110000e+001) (55, -1.21174789965152740000e-002) (56, 7.36440718173980710000e-001) (57, 8.83960664272308350000e-001) (58, 7.26495265960693360000e-001) (59, 5.27491331100463870000e-001) (60, 5.93717992305755620000e-001) (61, 7.38007485866546630000e-001) (62, 8.82919192314147950000e-001) (63, 1.58964920043945310000e+000) (64, 1.76256871223449710000e+000) (65, 1.06287539005279540000e+000) (66, 1.20265591144561770000e+000) (67, 1.14777100086212160000e+000) (68, 1.83869504928588870000e+000) (69, 7.05476880073547360000e-001) (70, -1.99571907520294190000e+000) (71, 5.32298803329467770000e-001) (72, 6.45108222961425780000e-001) (73, 7.37815082073211670000e-001) (74, 1.44015264511108400000e+000) (75, 7.79450356960296630000e-001) (76, 8.41068089008331300000e-001) (77, 5.46694397926330570000e-001) (78, 6.52926325798034670000e-001) (79, 4.90940481424331670000e-001) (80, 7.59963691234588620000e-001) (81, 8.77995193004608150000e-001) (82, 1.21113789081573490000e+000) (83, 1.07493209838867190000e+000) (84, 7.69908845424652100000e-001) (85, 7.37925171852111820000e-001) (86, 7.34078109264373780000e-001) (87, 6.02284431457519530000e-001) (88, 5.79432070255279540000e-001) (89, 4.79797899723052980000e-001) (90, 9.57164287567138670000e-001) (91, 1.44050657749176030000e+000) (92, 9.10565197467803960000e-001) (93, 6.78572416305541990000e-001) (94, 6.28140091896057130000e-001) (95, 5.08409619331359860000e-001) (96, 1.19497859477996830000e+000) (97, 1.27642977237701420000e+000) (98, -1.80519046783447270000e+001) (99, 4.18671935796737670000e-001) (0, 8.90800714492797850000e-001) (1, 9.81991529464721680000e-001) (2, 9.93793249130249020000e-001) (3, -9.03039073944091800000e+000) (4, -9.59174484014511110000e-002) (5, -3.78583878278732300000e-001) (6, 1.18589766323566440000e-001) (7, 8.28101098537445070000e-001) (8, -3.50116968154907230000e-001) (9, 6.33508145809173580000e-001) (10, -4.65489625930786130000e+000) (11, -1.71214127540588380000e+000) (12, -2.71760493516922000000e-001) (13, 1.03315725922584530000e-001) (14, 2.53674089908599850000e-001) (15, 6.93903148174285890000e-001) (16, 1.38886880874633790000e+000) (17, 6.75020647048950200000e+000) (18, 2.11277359008789060000e+002) (19, 3.39599822998046870000e+002) (20, 1.72495452880859370000e+002) (21, 8.65016841888427730000e+000) (22, 6.59220218658447270000e+000) (23, 2.00331425666809080000e+000) (24, 1.67463457584381100000e+000) (25, 1.39227223396301270000e+000) (26, 1.09859704971313480000e+000) (27, 9.00164842605590820000e-001) (28, 1.05657017230987550000e+000) (29, 3.00976848602294920000e+000) (30, 1.23959207534790040000e+000) (31, -4.39982652664184570000e+000) (32, -8.35837304592132570000e-001) (33, 2.09998577833175660000e-001) (34, 4.46709185838699340000e-001) (35, 1.25508749485015870000e+000) (36, -4.50459442138671880000e+001) (37, 2.68128728866577150000e+000) (38, 1.48303079605102540000e+000) (39, 1.29244053363800050000e+000) (40, 1.23252177238464360000e+000) (41, 8.00857067108154300000e-001) (42, 9.02873396873474120000e-001) (43, 7.51158773899078370000e-001) (44, 4.96326267719268800000e-001) (45, 4.83893841505050660000e-001) (46, -4.41568422317504880000e+000) (47, -5.58733606338500980000e+000) (48, -5.03639638423919680000e-001) (49, 4.23646599054336550000e-001) (50, -5.66963732242584230000e-001) (51, -1.49719726562500000000e+002) (52, -1.24253101348876950000e+001) (53, 4.47977495193481450000e+000) (54, 1.28070077896118160000e+001) (55, -5.31832396984100340000e-001) (56, 8.23083698749542240000e-001) (57, -1.52519151568412780000e-001) (58, -1.87464332580566410000e+000) (59, -1.72951340675354000000e+000) (60, 7.66631782054901120000e-001) (61, 8.16749393939971920000e-001) (62, 1.01222360134124760000e+000) (63, 9.24865126609802250000e-001) (64, -9.27336025238037110000e+000) (65, 1.91058635711669920000e+000) (66, 6.51995162963867190000e+001) (67, 6.16982078552246090000e+000) (68, 1.68415296077728270000e+000) (69, 1.14592170715332030000e+000) (70, 7.41203248500823970000e-001) (71, 7.35570251941680910000e-001) (72, 9.55913841724395750000e-001) (73, 1.00913417339324950000e+000) (74, 1.04555106163024900000e+000) (75, 1.05707979202270510000e+000) (76, -1.17489874362945560000e+000) (77, -2.05119943618774410000e+000) (78, -5.57495296001434330000e-001) (79, 7.26538479328155520000e-001) (80, 5.23445983886718750000e+002) (81, 2.79706406593322750000e+000) (82, 2.45317459106445310000e+000) (83, 1.13030374050140380000e+000) (84, 7.82613873481750490000e-001) (85, 8.09374332427978520000e-001) (86, 7.86952316761016850000e-001) (87, 2.82503628730773930000e+000) (88, 2.10945816040039060000e+001) (89, 1.12557888031005860000e+000) (90, 7.31429040431976320000e-001) (91, 1.05258536338806150000e+000) (92, 1.84662795066833500000e+000) (93, 1.20482552051544190000e+000) (94, 7.42582023143768310000e-001) (95, 7.19073534011840820000e-001) (96, 3.59275400638580320000e-001) (97, 2.22098618745803830000e-001) (98, 4.24313507080078130000e+001) (99, 8.76897871494293210000e-001) (0, 7.99653768539428710000e-001) (1, 9.13344740867614750000e-001) (2, 9.88110125064849850000e-001) (3, -2.26392307281494140000e+001) (4, -5.21122992038726810000e-001) (5, -1.59378394484519960000e-001) (6, 5.91910898685455320000e-001) (7, 6.12109065055847170000e-001) (8, -1.47343838214874270000e+000) (9, 7.18206942081451420000e-001) (10, -4.22047042846679690000e+000) (11, -1.68239879608154300000e+000) (12, -1.07868738472461700000e-001) (13, 2.55097299814224240000e-001) (14, 4.74624276161193850000e-001) (15, 8.34074974060058590000e-001) (16, 1.36105060577392580000e+000) (17, 8.90513420104980470000e+000) (18, 9.27823333740234380000e+001) (19, 6.62375183105468750000e+001) (20, 1.04668136596679690000e+002) (21, 1.83487243652343750000e+001) (22, 2.82418193817138670000e+001) (23, 2.77209043502807620000e+000) (24, 4.05676889419555660000e+000) (25, 1.67860543727874760000e+000) (26, 1.07689237594604490000e+000) (27, 1.00907516479492190000e+000) (28, 1.06003689765930180000e+000) (29, 2.72661161422729490000e+000) (30, 2.38858008384704590000e+000) (31, 1.90448427200317380000e+000) (32, 1.49270921945571900000e-001) (33, 3.49474221467971800000e-001) (34, 5.53494811058044430000e-001) (35, 4.26576995849609380000e+000) (36, 5.58433723449707030000e+000) (37, 9.40845108032226560000e+000) (38, 1.59757494926452640000e+000) (39, 1.19015502929687500000e+000) (40, 1.16611921787261960000e+000) (41, 9.45681929588317870000e-001) (42, 8.91346216201782230000e-001) (43, 6.80929541587829590000e-001) (44, 7.05181896686553960000e-001) (45, 4.78645086288452150000e-001) (46, -4.92832088470458980000e+000) (47, -5.61095428466796870000e+000) (48, -5.89176356792449950000e-001) (49, 2.92074710130691530000e-001) (50, -9.73801195621490480000e-001) (51, -6.28896942138671880000e+001) (52, -1.03471088409423830000e+001) (53, 2.38401579856872560000e+000) (54, -4.50763931274414060000e+001) (55, -8.96108269691467290000e-001) (56, 9.18039977550506590000e-001) (57, 8.39588195085525510000e-002) (58, -4.92176675796508790000e+000) (59, 5.89497029781341550000e-001) (60, 8.51085364818573000000e-001) (61, 9.45451319217681880000e-001) (62, 1.09204900264739990000e+000) (63, 1.10178244113922120000e+000) (64, 1.74432098865509030000e+000) (65, 2.27248597145080570000e+000) (66, 2.97804870605468750000e+001) (67, 6.53830480575561520000e+000) (68, 2.40895247459411620000e+000) (69, 1.18496048450469970000e+000) (70, 9.41135227680206300000e-001) (71, 8.93556952476501460000e-001) (72, 1.01876616477966310000e+000) (73, 1.01273238658905030000e+000) (74, 1.26885044574737550000e+000) (75, 9.79170620441436770000e-001) (76, 3.09215128421783450000e-001) (77, -2.77210865169763570000e-002) (78, 5.96091262996196750000e-002) (79, 6.56974196434021000000e-001) (80, 4.85704864501953120000e+002) (81, 6.24984216690063480000e+000) (82, 2.36029839515686040000e+000) (83, 1.50851774215698240000e+000) (84, 6.71935021877288820000e-001) (85, 9.42814469337463380000e-001) (86, 7.38853752613067630000e-001) (87, 1.78833115100860600000e+000) (88, 2.15927886962890630000e+001) (89, 9.51507210731506350000e-001) (90, 8.65321457386016850000e-001) (91, 1.33190548419952390000e+000) (92, 1.94693648815155030000e+000) (93, 1.26864194869995120000e+000) (94, 8.14745724201202390000e-001) (95, 9.18663859367370610000e-001) (96, 4.25674289464950560000e-001) (97, -4.30452674627304080000e-001) (98, 1.61180343627929690000e+001) (99, 8.54523420333862300000e-001) (0, -4.71909105777740480000e-001) (1, -4.41885352134704590000e-001) (2, -3.89040291309356690000e-001) (3, -2.69377868652343750000e+002) (4, -2.31032156944274900000e+000) (5, -9.44712257385253910000e+000) (6, -3.27357840538024900000e+000) (7, -6.65548622608184810000e-001) (8, -2.40407609939575200000e+000) (9, -5.50177454948425290000e-001) (10, 7.82795143127441410000e+000) (11, -3.33614516258239750000e+000) (12, -5.26380968093872070000e+000) (13, -3.36665225028991700000e+000) (14, -3.96219754219055180000e+000) (15, -8.42090904712677000000e-001) (16, -4.48965281248092650000e-001) (17, 2.91089296340942380000e-001) (18, 1.76319158077239990000e+000) (19, 1.54954493045806880000e+000) (20, 1.88768124580383300000e+000) (21, 1.67014944553375240000e+000) (22, 9.72161829471588130000e-001) (23, 3.41134935617446900000e-001) (24, -1.46482959389686580000e-001) (25, 1.53690636157989500000e-001) (26, -4.34699714183807370000e-001) (27, -6.48109972476959230000e-001) (28, -6.43473923206329350000e-001) (29, -3.91106039285659790000e-001) (30, -1.42325878143310550000e+000) (31, -1.60795574188232420000e+001) (32, -1.94165611267089840000e+000) (33, -5.48569858074188230000e-001) (34, -1.05173242092132570000e+000) (35, 6.43831872940063480000e+000) (36, 2.36953306198120120000e+000) (37, 2.46834015846252440000e+000) (38, -3.48779618740081790000e-001) (39, -3.66713464260101320000e-001) (40, -2.24811509251594540000e-001) (41, -4.65890228748321530000e-001) (42, -5.50144314765930180000e-001) (43, -1.21283888816833500000e+000) (44, -1.46418917179107670000e+000) (45, -1.28313779830932620000e+000) (46, 3.08136487007141110000e+000) (47, -1.34828395843505860000e+001) (48, -2.15657234191894530000e-001) (49, 1.22075177729129790000e-001) (50, -4.67577546834945680000e-001) (51, -1.44686206054687500000e+003) (52, -3.93175048828125000000e+001) (53, -1.64083480834960940000e+002) (54, 8.33005676269531250000e+002) (55, -1.45396606445312500000e+003) (56, -3.82541455328464510000e-002) (57, 1.03465807437896730000e+000) (58, 8.33573436737060550000e+000) (59, 4.83093566894531250000e+001) (60, -2.12457731366157530000e-001) (61, -4.19375240802764890000e-001) (62, -3.30448836088180540000e-001) (63, -2.33727037906646730000e-001) (64, -3.12467694282531740000e+000) (65, -8.95848404616117480000e-003) (66, 5.17448127269744870000e-001) (67, 5.68769752979278560000e-001) (68, 5.51303446292877200000e-001) (69, -2.73468911647796630000e-001) (70, -3.53064358234405520000e-001) (71, -1.13816618919372560000e-001) (72, -5.46076655387878420000e-001) (73, -5.16968905925750730000e-001) (74, -6.91766738891601560000e-002) (75, 7.54229798913002010000e-002) (76, -2.69127941131591800000e+000) (77, -4.20876598358154300000e+000) (78, -2.02076220512390140000e+000) (79, -4.39737111330032350000e-001) (80, 2.89311695098876950000e+000) (81, 1.12585675716400150000e+000) (82, 8.13000977039337160000e-001) (83, -2.52289175987243650000e-001) (84, -3.43576729297637940000e-001) (85, -2.60319057852029800000e-002) (86, -2.20242425799369810000e-001) (87, -4.33527082204818730000e-001) (88, 3.68662357330322270000e-001) (89, -4.49593394994735720000e-001) (90, -5.13220429420471190000e-001) (91, 2.91600257158279420000e-001) (92, 1.21614933013916020000e+000) (93, 1.40119820833206180000e-001) (94, -6.16319775581359860000e-001) (95, -7.68996059894561770000e-001) (96, 2.24768280982971190000e+000) (97, 4.08193945884704590000e-001) (98, 1.13656592369079590000e+000) (99, -7.19389975070953370000e-001) (0, -1.78724348545074460000e-001) (1, -2.06147328019142150000e-001) (2, -5.10135293006896970000e-002) (3, -1.08850845336914060000e+002) (4, -3.11107134819030760000e+000) (5, -1.82982101440429690000e+001) (6, -5.51553535461425780000e+000) (7, -8.39341700077056880000e-001) (8, -2.39474177360534670000e+000) (9, -1.04492768645286560000e-001) (10, 5.37642335891723630000e+000) (11, -3.47713279724121090000e+000) (12, -2.35007739067077640000e+000) (13, -3.50651168823242190000e+000) (14, -3.55447411537170410000e+000) (15, -6.71931922435760500000e-001) (16, -2.87351578474044800000e-001) (17, 5.70201933383941650000e-001) (18, 2.33274698257446290000e+000) (19, 2.16218352317810060000e+000) (20, 2.66638565063476560000e+000) (21, 1.66280686855316160000e+000) (22, 1.29242622852325440000e+000) (23, 9.38456952571868900000e-001) (24, 3.35646390914916990000e-001) (25, 7.74981796741485600000e-001) (26, -2.01969504356384280000e-001) (27, 9.65527147054672240000e-002) (28, -3.63547503948211670000e-001) (29, -1.36389136314392090000e-001) (30, -6.87316207885742190000e+001) (31, -1.49693762207031250000e+003) (32, -9.00083770751953130000e+001) (33, -3.03801298141479490000e-001) (34, -6.92993342876434330000e-001) (35, 1.13956537246704100000e+001) (36, -7.18027801513671880000e+001) (37, -1.44770889282226560000e+001) (38, -1.17218244075775150000e+000) (39, -1.20597600936889650000e-001) (40, -1.37183116748929020000e-002) (41, -2.94875115156173710000e-001) (42, -4.51519846916198730000e-001) (43, -9.84221816062927250000e-001) (44, -1.14806914329528810000e+000) (45, -1.12221074104309080000e+000) (46, 9.59424304962158200000e+000) (47, -1.79113903045654300000e+001) (48, -3.88730669021606450000e+000) (49, 1.15242943167686460000e-001) (50, -1.50522720336914060000e+002) (51, -1.44685998535156250000e+003) (52, -2.36764564514160160000e+001) (53, -1.36714401245117190000e+002) (54, 1.15446252441406250000e+003) (55, -1.45098034667968750000e+003) (56, 1.54935926198959350000e-001) (57, 5.49285650253295900000e-001) (58, 3.99764037132263180000e+000) (59, 7.65703737735748290000e-001) (60, -2.33089774847030640000e-001) (61, -2.70355641841888430000e-001) (62, -1.10576953887939450000e+001) (63, -1.48494445800781250000e+002) (64, -1.49838427734375000000e+003) (65, -3.02742898464202880000e-001) (66, 1.09301364421844480000e+000) (67, 6.78441345691680910000e-001) (68, 6.90271854400634770000e-001) (69, 1.64677172899246220000e-001) (70, -8.61229777336120610000e-001) (71, -3.09216618537902830000e-001) (72, -5.93425035476684570000e-001) (73, -4.74638193845748900000e-001) (74, 2.68869638442993160000e-001) (75, 2.79806911945343020000e-001) (76, -2.77058410644531250000e+000) (77, -8.10877895355224610000e+000) (78, -1.26762402057647710000e+000) (79, -1.20181478559970860000e-001) (80, 6.30329513549804690000e+000) (81, 1.46503758430480960000e+000) (82, 1.42740464210510250000e+000) (83, -4.12895195186138150000e-002) (84, 4.31697107851505280000e-002) (85, -5.32619282603263850000e-003) (86, 2.08531152456998830000e-002) (87, -1.13413721323013310000e-001) (88, 1.68275966644287110000e+001) (89, -1.30089059472084050000e-001) (90, -3.43140989542007450000e-001) (91, -5.35497188568115230000e+000) (92, 1.48062658309936520000e+000) (93, 5.75685799121856690000e-001) (94, -3.32303076982498170000e-001) (95, -4.35047417879104610000e-001) (96, 3.20043230056762700000e+000) (97, -1.37632560729980470000e+000) (98, 2.84943618774414060000e+001) (99, -2.07934349775314330000e-001) (0, 4.05556231737136840000e-001) (1, 4.10595089197158810000e-001) (2, 4.81805324554443360000e-001) (3, 8.29821705818176270000e-001) (4, 9.24799740314483640000e-001) (5, 5.48824608325958250000e-001) (6, 4.99748826026916500000e-001) (7, 4.96300876140594480000e-001) (8, 3.69911372661590580000e-001) (9, 4.97231394052505490000e-001) (10, 6.12786233425140380000e-001) (11, 4.77918505668640140000e-001) (12, 4.24075126647949220000e-001) (13, 3.77928107976913450000e-001) (14, 4.10145252943038940000e-001) (15, 5.48460781574249270000e-001) (16, 5.28225481510162350000e-001) (17, 8.55764806270599370000e-001) (18, 1.03428649902343750000e+000) (19, 1.64736020565032960000e+000) (20, 1.19143342971801760000e+000) (21, -2.73490314483642580000e+001) (22, -8.53558921813964840000e+000) (23, 7.15868175029754640000e-001) (24, 7.26250767707824710000e-001) (25, 4.19078111648559570000e-001) (26, 4.21873390674591060000e-001) (27, 3.67327749729156490000e-001) (28, 4.03863728046417240000e-001) (29, 5.12297391891479490000e-001) (30, 3.65746110677719120000e-001) (31, 3.07514905929565430000e-001) (32, 4.20295208692550660000e-001) (33, 4.47197288274765010000e-001) (34, 5.16792893409729000000e-001) (35, -3.00781399011611940000e-001) (36, -7.56577444076538090000e+000) (37, -8.89018821716308590000e+000) (38, -2.88487643003463750000e-001) (39, 2.43490353226661680000e-001) (40, 4.27796185016632080000e-001) (41, 3.65200757980346680000e-001) (42, 5.01803576946258540000e-001) (43, 3.95659893751144410000e-001) (44, 4.62330967187881470000e-001) (45, 4.47392016649246220000e-001) (46, 9.58533525466918950000e-001) (47, 9.54297244548797610000e-001) (48, 1.02172541618347170000e+000) (49, 2.29195237159729000000e+000) (50, 7.55966067314147950000e-001) (51, -2.74331951141357420000e+000) (52, -1.54871714115142820000e+000) (53, 2.51033711433410640000e+000) (54, 2.80936181545257570000e-001) (55, 6.00183844566345210000e-001) (56, 5.75534284114837650000e-001) (57, 2.12748360633850100000e+000) (58, 1.09190309047698970000e+000) (59, 7.19098687171936040000e-001) (60, 4.54036504030227660000e-001) (61, 5.39494395256042480000e-001) (62, 5.02583265304565430000e-001) (63, 4.72201764583587650000e-001) (64, 4.67682719230651860000e-001) (65, 6.33934319019317630000e-001) (66, 6.79423689842224120000e-001) (67, 6.13298296928405760000e-001) (68, 1.21313977241516110000e+000) (69, 7.12533652782440190000e-001) (70, 4.33107353746891020000e-002) (71, 5.27968704700469970000e-001) (72, 5.08227467536926270000e-001) (73, 4.31620836257934570000e-001) (74, 5.08013665676116940000e-001) (75, 4.09023314714431760000e-001) (76, 4.65311884880065920000e-001) (77, 5.63735783100128170000e-001) (78, 6.03555977344512940000e-001) (79, 5.92994928359985350000e-001) (80, 9.04729247093200680000e-001) (81, 7.79113888740539550000e-001) (82, 9.04595255851745610000e-001) (83, 2.40808948874473570000e-001) (84, 5.76988518238067630000e-001) (85, 5.84304332733154300000e-001) (86, 5.73135256767272950000e-001) (87, 4.87485319375991820000e-001) (88, 4.33434695005416870000e-001) (89, 5.15758812427520750000e-001) (90, 5.44579327106475830000e-001) (91, 2.07870626449584960000e+000) (92, 8.79418015480041500000e-001) (93, 1.48808622360229490000e+000) (94, 4.63621854782104490000e-001) (95, 4.43807572126388550000e-001) (96, 1.21881330013275150000e+000) (97, 6.95674419403076170000e-001) (98, 5.34667432308197020000e-001) (99, 5.47876298427581790000e-001) (0, 9.20536100864410400000e-001) (1, 9.33372378349304200000e-001) (2, 1.00073945522308350000e+000) (3, 