FANN_FLO_2.1
num_layers=5
learning_rate=0.700000
connection_rate=1.000000
network_type=0
learning_momentum=0.000000
training_algorithm=2
train_error_function=0
train_stop_function=0
cascade_output_change_fraction=0.010000
quickprop_decay=-0.000100
quickprop_mu=1.750000
rprop_increase_factor=1.200000
rprop_decrease_factor=0.500000
rprop_delta_min=0.000000
rprop_delta_max=50.000000
rprop_delta_zero=0.100000
cascade_output_stagnation_epochs=12
cascade_candidate_change_fraction=0.010000
cascade_candidate_stagnation_epochs=12
cascade_max_out_epochs=150
cascade_min_out_epochs=50
cascade_max_cand_epochs=150
cascade_min_cand_epochs=50
cascade_num_candidate_groups=2
bit_fail_limit=3.49999994039535520000e-001
cascade_candidate_limit=1.00000000000000000000e+003
cascade_weight_multiplier=4.00000005960464480000e-001
cascade_activation_functions_count=10
cascade_activation_functions=3 5 7 8 10 11 14 15 16 17 
cascade_activation_steepnesses_count=4
cascade_activation_steepnesses=2.50000000000000000000e-001 5.00000000000000000000e-001 7.50000000000000000000e-001 1.00000000000000000000e+000 
layer_sizes=100 76 52 28 2 
scale_included=0
neurons (num_inputs, activation_function, activation_steepness)=(0, 0, 0.00000000000000000000e+000) (0, 0, 0.00000000000000000000e+000) (0, 0, 0.00000000000000000000e+000) (0, 0, 0.00000000000000000000e+000) (0, 0, 0.00000000000000000000e+000) (0, 0, 0.00000000000000000000e+000) (0, 0, 0.00000000000000000000e+000) (0, 0, 0.00000000000000000000e+000) (0, 0, 0.00000000000000000000e+000) (0, 0, 0.00000000000000000000e+000) (0, 0, 0.00000000000000000000e+000) (0, 0, 0.00000000000000000000e+000) (0, 0, 0.00000000000000000000e+000) (0, 0, 0.00000000000000000000e+000) (0, 0, 0.00000000000000000000e+000) (0, 0, 0.00000000000000000000e+000) (0, 0, 0.00000000000000000000e+000) (0, 0, 0.00000000000000000000e+000) (0, 0, 0.00000000000000000000e+000) (0, 0, 0.00000000000000000000e+000) (0, 0, 0.00000000000000000000e+000) (0, 0, 0.00000000000000000000e+000) (0, 0, 0.00000000000000000000e+000) (0, 0, 0.00000000000000000000e+000) (0, 0, 0.00000000000000000000e+000) (0, 0, 0.00000000000000000000e+000) (0, 0, 0.00000000000000000000e+000) (0, 0, 0.00000000000000000000e+000) (0, 0, 0.00000000000000000000e+000) (0, 0, 0.00000000000000000000e+000) (0, 0, 0.00000000000000000000e+000) (0, 0, 0.00000000000000000000e+000) (0, 0, 0.00000000000000000000e+000) (0, 0, 0.00000000000000000000e+000) (0, 0, 0.00000000000000000000e+000) (0, 0, 0.00000000000000000000e+000) (0, 0, 0.00000000000000000000e+000) (0, 0, 0.00000000000000000000e+000) (0, 0, 0.00000000000000000000e+000) (0, 0, 0.00000000000000000000e+000) (0, 0, 0.00000000000000000000e+000) (0, 0, 0.00000000000000000000e+000) (0, 0, 0.00000000000000000000e+000) (0, 0, 0.00000000000000000000e+000) (0, 0, 0.00000000000000000000e+000) (0, 0, 0.00000000000000000000e+000) (0, 0, 0.00000000000000000000e+000) (0, 0, 0.00000000000000000000e+000) (0, 0, 0.00000000000000000000e+000) (0, 0, 0.00000000000000000000e+000) (0, 0, 0.00000000000000000000e+000) (0, 0, 0.00000000000000000000e+000) (0, 0, 0.00000000000000000000e+000) (0, 0, 0.00000000000000000000e+000) (0, 0, 0.00000000000000000000e+000) (0, 0, 0.00000000000000000000e+000) (0, 0, 0.00000000000000000000e+000) (0, 0, 0.00000000000000000000e+000) (0, 0, 0.00000000000000000000e+000) (0, 0, 0.00000000000000000000e+000) (0, 0, 0.00000000000000000000e+000) (0, 0, 0.00000000000000000000e+000) (0, 0, 0.00000000000000000000e+000) (0, 0, 0.00000000000000000000e+000) (0, 0, 0.00000000000000000000e+000) (0, 0, 0.00000000000000000000e+000) (0, 0, 0.00000000000000000000e+000) (0, 0, 0.00000000000000000000e+000) (0, 0, 0.00000000000000000000e+000) (0, 0, 0.00000000000000000000e+000) (0, 0, 0.00000000000000000000e+000) (0, 0, 0.00000000000000000000e+000) (0, 0, 0.00000000000000000000e+000) (0, 0, 0.00000000000000000000e+000) (0, 0, 0.00000000000000000000e+000) (0, 0, 0.00000000000000000000e+000) (0, 0, 0.00000000000000000000e+000) (0, 0, 0.00000000000000000000e+000) (0, 0, 0.00000000000000000000e+000) (0, 0, 0.00000000000000000000e+000) (0, 0, 0.00000000000000000000e+000) (0, 0, 0.00000000000000000000e+000) (0, 0, 0.00000000000000000000e+000) (0, 0, 0.00000000000000000000e+000) (0, 0, 0.00000000000000000000e+000) (0, 0, 0.00000000000000000000e+000) (0, 0, 0.00000000000000000000e+000) (0, 0, 0.00000000000000000000e+000) (0, 0, 0.00000000000000000000e+000) (0, 0, 0.00000000000000000000e+000) (0, 0, 0.00000000000000000000e+000) (0, 0, 0.00000000000000000000e+000) (0, 0, 0.00000000000000000000e+000) (0, 0, 0.00000000000000000000e+000) (0, 0, 0.00000000000000000000e+000) (0, 0, 0.00000000000000000000e+000) (0, 0, 0.00000000000000000000e+000) (0, 0, 0.00000000000000000000e+000) (0, 0, 0.00000000000000000000e+000) (0, 0, 0.00000000000000000000e+000) (100, 11, 5.00000000000000000000e-001) (100, 11, 5.00000000000000000000e-001) (100, 11, 5.00000000000000000000e-001) (100, 11, 5.00000000000000000000e-001) (100, 11, 5.00000000000000000000e-001) (100, 11, 5.00000000000000000000e-001) (100, 11, 5.00000000000000000000e-001) (100, 11, 5.00000000000000000000e-001) (100, 11, 5.00000000000000000000e-001) (100, 11, 5.00000000000000000000e-001) (100, 11, 5.00000000000000000000e-001) (100, 11, 5.00000000000000000000e-001) (100, 11, 5.00000000000000000000e-001) (100, 11, 5.00000000000000000000e-001) (100, 11, 5.00000000000000000000e-001) (100, 11, 5.00000000000000000000e-001) (100, 11, 5.00000000000000000000e-001) (100, 11, 5.00000000000000000000e-001) (100, 11, 5.00000000000000000000e-001) (100, 11, 5.00000000000000000000e-001) (100, 11, 5.00000000000000000000e-001) (100, 11, 5.00000000000000000000e-001) (100, 11, 5.00000000000000000000e-001) (100, 11, 5.00000000000000000000e-001) (100, 11, 5.00000000000000000000e-001) (100, 11, 5.00000000000000000000e-001) (100, 11, 5.00000000000000000000e-001) (100, 11, 5.00000000000000000000e-001) (100, 11, 5.00000000000000000000e-001) (100, 11, 5.00000000000000000000e-001) (100, 11, 5.00000000000000000000e-001) (100, 11, 5.00000000000000000000e-001) (100, 11, 5.00000000000000000000e-001) (100, 11, 5.00000000000000000000e-001) (100, 11, 5.00000000000000000000e-001) (100, 11, 5.00000000000000000000e-001) (100, 11, 5.00000000000000000000e-001) (100, 11, 5.00000000000000000000e-001) (100, 11, 5.00000000000000000000e-001) (100, 11, 5.00000000000000000000e-001) (100, 11, 5.00000000000000000000e-001) (100, 11, 5.00000000000000000000e-001) (100, 11, 5.00000000000000000000e-001) (100, 11, 5.00000000000000000000e-001) (100, 11, 5.00000000000000000000e-001) (100, 11, 5.00000000000000000000e-001) (100, 11, 5.00000000000000000000e-001) (100, 11, 5.00000000000000000000e-001) (100, 11, 5.00000000000000000000e-001) (100, 11, 5.00000000000000000000e-001) (100, 11, 5.00000000000000000000e-001) (100, 11, 5.00000000000000000000e-001) (100, 11, 5.00000000000000000000e-001) (100, 11, 5.00000000000000000000e-001) (100, 11, 5.00000000000000000000e-001) (100, 11, 5.00000000000000000000e-001) (100, 11, 5.00000000000000000000e-001) (100, 11, 5.00000000000000000000e-001) (100, 11, 5.00000000000000000000e-001) (100, 11, 5.00000000000000000000e-001) (100, 11, 5.00000000000000000000e-001) (100, 11, 5.00000000000000000000e-001) (100, 11, 5.00000000000000000000e-001) (100, 11, 5.00000000000000000000e-001) (100, 11, 5.00000000000000000000e-001) (100, 11, 5.00000000000000000000e-001) (100, 11, 5.00000000000000000000e-001) (100, 11, 5.00000000000000000000e-001) (100, 11, 5.00000000000000000000e-001) (100, 11, 5.00000000000000000000e-001) (100, 11, 5.00000000000000000000e-001) (100, 11, 5.00000000000000000000e-001) (100, 11, 5.00000000000000000000e-001) (100, 11, 5.00000000000000000000e-001) (100, 11, 5.00000000000000000000e-001) (0, 11, 5.00000000000000000000e-001) (76, 11, 5.00000000000000000000e-001) (76, 11, 5.00000000000000000000e-001) (76, 11, 5.00000000000000000000e-001) (76, 11, 5.00000000000000000000e-001) (76, 11, 5.00000000000000000000e-001) (76, 11, 5.00000000000000000000e-001) (76, 11, 5.00000000000000000000e-001) (76, 11, 5.00000000000000000000e-001) (76, 11, 5.00000000000000000000e-001) (76, 11, 5.00000000000000000000e-001) (76, 11, 5.00000000000000000000e-001) (76, 11, 5.00000000000000000000e-001) (76, 11, 5.00000000000000000000e-001) (76, 11, 5.00000000000000000000e-001) (76, 11, 5.00000000000000000000e-001) (76, 11, 5.00000000000000000000e-001) (76, 11, 5.00000000000000000000e-001) (76, 11, 5.00000000000000000000e-001) (76, 11, 5.00000000000000000000e-001) (76, 11, 5.00000000000000000000e-001) (76, 11, 5.00000000000000000000e-001) (76, 11, 5.00000000000000000000e-001) (76, 11, 5.00000000000000000000e-001) (76, 11, 5.00000000000000000000e-001) (76, 11, 5.00000000000000000000e-001) (76, 11, 5.00000000000000000000e-001) (76, 11, 5.00000000000000000000e-001) (76, 11, 5.00000000000000000000e-001) (76, 11, 5.00000000000000000000e-001) (76, 11, 5.00000000000000000000e-001) (76, 11, 5.00000000000000000000e-001) (76, 11, 5.00000000000000000000e-001) (76, 11, 5.00000000000000000000e-001) (76, 11, 5.00000000000000000000e-001) (76, 11, 5.00000000000000000000e-001) (76, 11, 5.00000000000000000000e-001) (76, 11, 5.00000000000000000000e-001) (76, 11, 5.00000000000000000000e-001) (76, 11, 5.00000000000000000000e-001) (76, 11, 5.00000000000000000000e-001) (76, 11, 5.00000000000000000000e-001) (76, 11, 5.00000000000000000000e-001) (76, 11, 5.00000000000000000000e-001) (76, 11, 5.00000000000000000000e-001) (76, 11, 5.00000000000000000000e-001) (76, 11, 5.00000000000000000000e-001) (76, 11, 5.00000000000000000000e-001) (76, 11, 5.00000000000000000000e-001) (76, 11, 5.00000000000000000000e-001) (76, 11, 5.00000000000000000000e-001) (76, 11, 5.00000000000000000000e-001) (0, 11, 5.00000000000000000000e-001) (52, 11, 5.00000000000000000000e-001) (52, 11, 5.00000000000000000000e-001) (52, 11, 5.00000000000000000000e-001) (52, 11, 5.00000000000000000000e-001) (52, 11, 5.00000000000000000000e-001) (52, 11, 5.00000000000000000000e-001) (52, 11, 5.00000000000000000000e-001) (52, 11, 5.00000000000000000000e-001) (52, 11, 5.00000000000000000000e-001) (52, 11, 5.00000000000000000000e-001) (52, 11, 5.00000000000000000000e-001) (52, 11, 5.00000000000000000000e-001) (52, 11, 5.00000000000000000000e-001) (52, 11, 5.00000000000000000000e-001) (52, 11, 5.00000000000000000000e-001) (52, 11, 5.00000000000000000000e-001) (52, 11, 5.00000000000000000000e-001) (52, 11, 5.00000000000000000000e-001) (52, 11, 5.00000000000000000000e-001) (52, 11, 5.00000000000000000000e-001) (52, 11, 5.00000000000000000000e-001) (52, 11, 5.00000000000000000000e-001) (52, 11, 5.00000000000000000000e-001) (52, 11, 5.00000000000000000000e-001) (52, 11, 5.00000000000000000000e-001) (52, 11, 5.00000000000000000000e-001) (52, 11, 5.00000000000000000000e-001) (0, 11, 5.00000000000000000000e-001) (28, 6, 5.00000000000000000000e-001) (0, 6, 5.00000000000000000000e-001) 
connections (connected_to_neuron, weight)=(0, -2.83613018691539760000e-002) (1, 8.83034840226173400000e-002) (2, 5.17171435058116910000e-002) (3, -1.71219691634178160000e-001) (4, -1.20036765933036800000e-001) (5, -1.19926281273365020000e-001) (6, 3.56062091886997220000e-002) (7, -3.20373699069023130000e-002) (8, -6.71745091676712040000e-002) (9, 2.04654578119516370000e-002) (10, 9.07513126730918880000e-002) (11, -9.05951708555221560000e-002) (12, 1.25036388635635380000e-001) (13, 1.11296176910400390000e-002) (14, -7.33768492937088010000e-002) (15, 1.05851583182811740000e-001) (16, -4.50611859560012820000e-002) (17, -4.40269485116004940000e-002) (18, 3.05208086501806970000e-004) (19, 6.67447596788406370000e-002) (20, -1.01856216788291930000e-002) (21, 6.35223910212516780000e-002) (22, 6.85622841119766240000e-002) (23, 7.38745853304862980000e-002) (24, 3.80529016256332400000e-002) (25, 8.18762779235839840000e-002) (26, -3.49247269332408910000e-002) (27, -1.28650084137916560000e-001) (28, 6.60354644060134890000e-002) (29, -5.70018729194998740000e-003) (30, -2.63984501361846920000e-002) (31, -8.08386225253343580000e-003) (32, 9.03284549713134770000e-003) (33, 9.72553342580795290000e-002) (34, -2.19557315111160280000e-001) (35, -1.07045374810695650000e-001) (36, -5.58728165924549100000e-002) (37, 3.54616343975067140000e-002) (38, 5.96320070326328280000e-002) (39, 1.49454427883028980000e-002) (40, -5.48703931272029880000e-002) (41, -6.21855780482292180000e-002) (42, 8.49942564964294430000e-002) (43, 1.07256479561328890000e-001) (44, -7.09677562117576600000e-002) (45, 1.54535612091422080000e-002) (46, -1.05352047830820080000e-002) (47, -7.11327865719795230000e-002) (48, 1.28365993499755860000e-001) (49, 1.21415182948112490000e-002) (50, 2.11834162473678590000e-002) (51, -1.04179956018924710000e-001) (52, -4.86666522920131680000e-002) (53, -1.42431810498237610000e-001) (54, -1.06157623231410980000e-001) (55, 8.38839933276176450000e-002) (56, 7.76413083076477050000e-002) (57, 2.83190924674272540000e-002) (58, -5.27680106461048130000e-002) (59, -3.33218090236186980000e-002) (60, 8.49835276603698730000e-002) (61, 1.28064700402319430000e-003) (62, 1.06220014393329620000e-001) (63, 3.42917367815971370000e-002) (64, -2.09414698183536530000e-002) (65, -1.82715550065040590000e-001) (66, 5.68538419902324680000e-002) (67, 3.90721708536148070000e-002) (68, -7.79403150081634520000e-002) (69, 9.49198082089424130000e-002) (70, 1.38863110914826390000e-002) (71, 6.65090531110763550000e-002) (72, 3.39249074459075930000e-002) (73, -7.67738232389092450000e-003) (74, 5.57902678847312930000e-002) (75, -6.47134333848953250000e-002) (76, 4.68453504145145420000e-002) (77, 5.39449751377105710000e-002) (78, 1.25244423747062680000e-001) (79, 1.34439721703529360000e-001) (80, -5.19747380167245860000e-003) (81, -2.10750568658113480000e-002) (82, 1.23523518443107600000e-001) (83, 5.01051545143127440000e-002) (84, 1.33256599307060240000e-001) (85, 1.31294429302215580000e-002) (86, 5.40285147726535800000e-002) (87, -6.73102736473083500000e-002) (88, 1.68441534042358400000e-002) (89, -6.89801052212715150000e-002) (90, 5.96936419606208800000e-002) (91, -4.87392991781234740000e-002) (92, 5.85422739386558530000e-002) (93, -6.23723119497299190000e-002) (94, 7.85226840525865550000e-003) (95, -8.69650468230247500000e-002) (96, 1.39357641339302060000e-001) (97, 1.00399814546108250000e-001) (98, -6.56898249872028830000e-004) (99, -1.26609466969966890000e-002) (0, 8.30432027578353880000e-002) (1, 3.38829606771469120000e-002) (2, 7.48495012521743770000e-002) (3, -2.47775968164205550000e-002) (4, -1.50783166289329530000e-001) (5, -1.24875694513320920000e-001) (6, 5.39907626807689670000e-002) (7, 6.94087743759155270000e-002) (8, 5.53961545228958130000e-002) (9, 1.10490307211875920000e-001) (10, -1.52151808142662050000e-002) (11, -6.53616385534405710000e-003) (12, -7.08975344896316530000e-002) (13, 4.23453748226165770000e-002) (14, -4.31599505245685580000e-002) (15, 2.30754017829895020000e-002) (16, -2.79305893927812580000e-002) (17, 8.61372798681259160000e-002) (18, 1.02207988500595090000e-001) (19, 8.36279988288879390000e-002) (20, 1.20563946664333340000e-001) (21, -1.65055524557828900000e-002) (22, -2.18326728790998460000e-002) (23, 3.23698595166206360000e-002) (24, 9.89695563912391660000e-002) (25, 8.34475755691528320000e-002) (26, -8.91416147351264950000e-003) (27, -7.45829865336418150000e-002) (28, 4.87971901893615720000e-002) (29, -3.54525595903396610000e-002) (30, -2.15455442667007450000e-002) (31, -1.84825211763381960000e-001) (32, -1.81006282567977910000e-001) (33, -1.59085690975189210000e-001) (34, -2.40801777690649030000e-002) (35, -8.16334635019302370000e-002) (36, 2.97829862684011460000e-002) (37, 1.87620148062705990000e-002) (38, 1.17670647799968720000e-001) (39, 5.81479035317897800000e-002) (40, 4.25755269825458530000e-002) (41, -3.88683378696441650000e-002) (42, 4.58181574940681460000e-002) (43, -7.93962627649307250000e-002) (44, 7.44811370968818660000e-002) (45, 3.59170474112033840000e-002) (46, -6.23977705836296080000e-002) (47, -3.99677604436874390000e-002) (48, -1.06838002800941470000e-001) (49, 6.76567405462265010000e-002) (50, 4.63958904147148130000e-002) (51, -1.03843003511428830000e-001) (52, -2.13450863957405090000e-001) (53, -5.66512979567050930000e-002) (54, -1.30933344364166260000e-001) (55, -9.46807861328125000000e-002) (56, 1.03346779942512510000e-001) (57, -8.88875573873519900000e-002) (58, -1.35113438591361050000e-003) (59, 4.09928858280181880000e-002) (60, -1.38186477124691010000e-002) (61, -7.31267929077148440000e-002) (62, 7.02805817127227780000e-002) (63, -6.23253695666790010000e-002) (64, -5.19972331821918490000e-002) (65, 2.54485267214477060000e-003) (66, 4.38472367823123930000e-002) (67, -9.04078707098960880000e-002) (68, 7.59930834174156190000e-002) (69, 1.08360461890697480000e-001) (70, 9.92840975522995000000e-002) (71, 1.03157646954059600000e-002) (72, -4.60670031607151030000e-002) (73, -7.65054523944854740000e-002) (74, 7.64905884861946110000e-002) (75, 5.97381927073001860000e-002) (76, -7.67953842878341670000e-002) (77, 1.01276878267526630000e-002) (78, 5.83249591290950780000e-002) (79, 1.43430799245834350000e-001) (80, -4.61270175874233250000e-002) (81, 1.12934403121471410000e-001) (82, 9.59310401231050490000e-003) (83, 9.57216322422027590000e-002) (84, -3.95779423415660860000e-002) (85, 3.50349582731723790000e-002) (86, 7.78641551733016970000e-002) (87, -6.46146163344383240000e-002) (88, -1.29478713497519490000e-002) (89, 5.13947531580924990000e-002) (90, 6.30110735073685650000e-004) (91, -2.09549851715564730000e-002) (92, 7.04678595066070560000e-002) (93, 8.64513739943504330000e-002) (94, -6.32001608610153200000e-002) (95, 9.00317654013633730000e-002) (96, 7.29291364550590520000e-002) (97, -5.81369102001190190000e-002) (98, -6.95536136627197270000e-002) (99, 6.55807405710220340000e-002) (0, 3.63010376691818240000e-001) (1, 3.27621161937713620000e-001) (2, 3.55472236871719360000e-001) (3, 4.21064347028732300000e-001) (4, 4.14320230484008790000e-001) (5, 4.79317843914031980000e-001) (6, 3.58035117387771610000e-001) (7, 3.67351382970809940000e-001) (8, 5.24173557758331300000e-001) (9, 3.88271540403366090000e-001) (10, 3.49306225776672360000e-001) (11, 1.67048603296279910000e-001) (12, 2.29128658771514890000e-001) (13, 3.18069785833358760000e-001) (14, 2.37275034189224240000e-001) (15, 2.60947495698928830000e-001) (16, 4.57897543907165530000e-001) (17, 3.12850415706634520000e-001) (18, 3.45764487981796260000e-001) (19, 3.74113559722900390000e-001) (20, 4.02357846498489380000e-001) (21, 5.14619708061218260000e-001) (22, 2.92658984661102290000e-001) (23, 4.17495250701904300000e-001) (24, 2.80443072319030760000e-001) (25, 3.44424813985824580000e-001) (26, 4.23362612724304200000e-001) (27, 3.42919409275054930000e-001) (28, 4.55281436443328860000e-001) (29, 4.98503357172012330000e-001) (30, 4.46158200502395630000e-001) (31, 3.75904202461242680000e-001) (32, 2.23859399557113650000e-001) (33, 4.65542912483215330000e-001) (34, 2.64772742986679080000e-001) (35, 3.12430322170257570000e-001) (36, 4.84999269247055050000e-001) (37, 3.53661507368087770000e-001) (38, 3.37954908609390260000e-001) (39, 4.25243347883224490000e-001) (40, 3.59142154455184940000e-001) (41, 4.78272497653961180000e-001) (42, 2.42336452007293700000e-001) (43, 2.20977425575256350000e-001) (44, 3.80522727966308590000e-001) (45, 3.51202487945556640000e-001) (46, 4.76462393999099730000e-001) (47, 3.13537001609802250000e-001) (48, 2.78747111558914180000e-001) (49, 2.73956805467605590000e-001) (50, 2.17575713992118840000e-001) (51, 3.53758543729782100000e-001) (52, 3.56456995010375980000e-001) (53, 4.89992350339889530000e-001) (54, 4.59552794694900510000e-001) (55, 1.94299176335334780000e-001) (56, 3.38548004627227780000e-001) (57, 2.33616843819618230000e-001) (58, 3.57265353202819820000e-001) (59, 3.43611121177673340000e-001) (60, 4.02010172605514530000e-001) (61, 3.23530495166778560000e-001) (62, 2.96388536691665650000e-001) (63, 3.81906390190124510000e-001) (64, 3.25061470270156860000e-001) (65, 2.57663190364837650000e-001) (66, 2.16352209448814390000e-001) (67, 3.36335271596908570000e-001) (68, 3.15862238407135010000e-001) (69, 2.40616202354431150000e-001) (70, 4.01982933282852170000e-001) (71, 2.66133069992065430000e-001) (72, 3.87845128774642940000e-001) (73, 3.02377402782440190000e-001) (74, 2.69885599613189700000e-001) (75, 3.46888244152069090000e-001) (76, 2.76248514652252200000e-001) (77, 2.34248876571655270000e-001) (78, 3.88726353645324710000e-001) (79, 3.90143811702728270000e-001) (80, 3.03110033273696900000e-001) (81, 2.96050906181335450000e-001) (82, 3.57952922582626340000e-001) (83, 3.75190854072570800000e-001) (84, 4.13350462913513180000e-001) (85, 2.86359637975692750000e-001) (86, 3.54375332593917850000e-001) (87, 4.84233915805816650000e-001) (88, 2.65029728412628170000e-001) (89, 3.82364243268966670000e-001) (90, 2.18467116355896000000e-001) (91, 2.20156162977218630000e-001) (92, 2.91365265846252440000e-001) (93, 2.32949897646903990000e-001) (94, 3.20382893085479740000e-001) (95, 2.63068228960037230000e-001) (96, 3.02958637475967410000e-001) (97, 3.01614046096801760000e-001) (98, 4.24307495355606080000e-001) (99, 2.72260725498199460000e-001) (0, 3.60606580972671510000e-001) (1, 4.98288124799728390000e-001) (2, 3.69151622056961060000e-001) (3, 5.12638270854949950000e-001) (4, 4.86933052539825440000e-001) (5, 4.69578981399536130000e-001) (6, 5.10964393615722660000e-001) (7, 3.71116727590560910000e-001) (8, 3.87948364019393920000e-001) (9, 4.06425446271896360000e-001) (10, 4.51712876558303830000e-001) (11, 5.55615007877349850000e-001) (12, 4.08327788114547730000e-001) (13, 5.17515778541564940000e-001) (14, 5.46277463436126710000e-001) (15, 5.07085859775543210000e-001) (16, 5.20108819007873540000e-001) (17, 5.36389648914337160000e-001) (18, 5.69583177566528320000e-001) (19, 6.21490478515625000000e-001) (20, 7.07498788833618160000e-001) (21, 5.76226353645324710000e-001) (22, 4.52314317226409910000e-001) (23, 3.75889629125595090000e-001) (24, 3.54067742824554440000e-001) (25, 4.20170456171035770000e-001) (26, 5.18674015998840330000e-001) (27, 5.96888542175292970000e-001) (28, 4.10667300224304200000e-001) (29, 6.18349254131317140000e-001) (30, 3.47722232341766360000e-001) (31, 4.43388640880584720000e-001) (32, 4.48837995529174800000e-001) (33, 4.33319807052612300000e-001) (34, 4.00366127490997310000e-001) (35, 5.47895252704620360000e-001) (36, 4.67352449893951420000e-001) (37, 6.26312434673309330000e-001) (38, 6.06539189815521240000e-001) (39, 4.90413963794708250000e-001) (40, 5.33735036849975590000e-001) (41, 4.63825255632400510000e-001) (42, 4.79855626821517940000e-001) (43, 4.90498602390289310000e-001) (44, 4.97532665729522710000e-001) (45, 4.94330763816833500000e-001) (46, 3.93504798412323000000e-001) (47, 4.02660548686981200000e-001) (48, 4.13496911525726320000e-001) (49, 5.16686558723449710000e-001) (50, 4.91859436035156250000e-001) (51, 3.41863691806793210000e-001) (52, 5.02473831176757810000e-001) (53, 4.64775800704956050000e-001) (54, 5.32864332199096680000e-001) (55, 4.68173891305923460000e-001) (56, 4.83473181724548340000e-001) (57, 4.61624830961227420000e-001) (58, 4.12003040313720700000e-001) (59, 3.80995750427246090000e-001) (60, 4.54906284809112550000e-001) (61, 4.21583682298660280000e-001) (62, 5.76733827590942380000e-001) (63, 4.65708971023559570000e-001) (64, 4.29569333791732790000e-001) (65, 4.58733350038528440000e-001) (66, 4.72192406654357910000e-001) (67, 4.77791637182235720000e-001) (68, 3.56219053268432620000e-001) (69, 4.25992578268051150000e-001) (70, 4.91040259599685670000e-001) (71, 4.22909319400787350000e-001) (72, 5.07780849933624270000e-001) (73, 5.24627685546875000000e-001) (74, 5.39208114147186280000e-001) (75, 4.15681838989257810000e-001) (76, 4.80245471000671390000e-001) (77, 5.55012702941894530000e-001) (78, 5.54852008819580080000e-001) (79, 6.53991043567657470000e-001) (80, 6.30836904048919680000e-001) (81, 4.54066216945648190000e-001) (82, 5.96623301506042480000e-001) (83, 5.46755552291870120000e-001) (84, 6.42606675624847410000e-001) (85, 5.79125583171844480000e-001) (86, 5.51776289939880370000e-001) (87, 4.65514361858367920000e-001) (88, 5.44594705104827880000e-001) (89, 5.36808609962463380000e-001) (90, 4.63606715202331540000e-001) (91, 5.28245806694030760000e-001) (92, 4.40128922462463380000e-001) (93, 4.89264160394668580000e-001) (94, 3.63397061824798580000e-001) (95, 4.54978436231613160000e-001) (96, 4.65203195810317990000e-001) (97, 4.39470738172531130000e-001) (98, 5.23288846015930180000e-001) (99, 4.26145792007446290000e-001) (0, 3.36942732334136960000e-001) (1, 3.28706622123718260000e-001) (2, 4.03495639562606810000e-001) (3, 3.82613599300384520000e-001) (4, 4.94450479745864870000e-001) (5, 3.77134501934051510000e-001) (6, 5.40157556533813480000e-001) (7, 3.63987922668457030000e-001) (8, 4.04100686311721800000e-001) (9, 3.27115237712860110000e-001) (10, 3.44745129346847530000e-001) (11, 3.60717087984085080000e-001) (12, 3.01883339881896970000e-001) (13, 4.56014662981033330000e-001) (14, 4.25472646951675420000e-001) (15, 4.84266072511672970000e-001) (16, 4.44602191448211670000e-001) (17, 4.27837908267974850000e-001) (18, 3.67618888616561890000e-001) (19, 7.16950058937072750000e-001) (20, 5.33156454563140870000e-001) (21, 5.96649587154388430000e-001) (22, 4.69846457242965700000e-001) (23, 3.35764437913894650000e-001) (24, 3.66868644952774050000e-001) (25, 3.32449227571487430000e-001) (26, 4.52522963285446170000e-001) (27, 4.47586566209793090000e-001) (28, 3.89258384704589840000e-001) (29, 4.67433422803878780000e-001) (30, 2.87304103374481200000e-001) (31, 3.50124925374984740000e-001) (32, 2.60097414255142210000e-001) (33, 4.35041725635528560000e-001) (34, 3.76003354787826540000e-001) (35, 4.71095144748687740000e-001) (36, 4.85417455434799190000e-001) (37, 5.43727695941925050000e-001) (38, 7.92741656303405760000e-001) (39, 4.68202084302902220000e-001) (40, 4.09061104059219360000e-001) (41, 4.63496059179306030000e-001) (42, 3.73705178499221800000e-001) (43, 3.55494141578674320000e-001) (44, 3.71835619211196900000e-001) (45, 3.75095307826995850000e-001) (46, 4.77543294429779050000e-001) (47, 3.97796809673309330000e-001) (48, 4.62160021066665650000e-001) (49, 2.87497580051422120000e-001) (50, 2.81443685293197630000e-001) (51, 3.88966023921966550000e-001) (52, 4.37516689300537110000e-001) (53, 4.92372334003448490000e-001) (54, 4.46845829486846920000e-001) (55, 3.46008807420730590000e-001) (56, 4.85891044139862060000e-001) (57, 4.78688120841979980000e-001) (58, 2.85066634416580200000e-001) (59, 3.08930665254592900000e-001) (60, 4.24653142690658570000e-001) (61, 3.55012267827987670000e-001) (62, 4.42850798368453980000e-001) (63, 3.92446309328079220000e-001) (64, 4.81597781181335450000e-001) (65, 3.61315339803695680000e-001) (66, 4.82890993356704710000e-001) (67, 4.88187789916992190000e-001) (68, 3.15891742706298830000e-001) (69, 4.61891591548919680000e-001) (70, 5.02904653549194340000e-001) (71, 2.94928580522537230000e-001) (72, 3.90070080757141110000e-001) (73, 4.07396048307418820000e-001) (74, 3.36713612079620360000e-001) (75, 4.66323494911193850000e-001) (76, 5.02073168754577640000e-001) (77, 3.86167407035827640000e-001) (78, 6.01755857467651370000e-001) (79, 5.96127271652221680000e-001) (80, 5.55243492126464840000e-001) (81, 4.74599301815032960000e-001) (82, 5.58665275573730470000e-001) (83, 6.53334617614746090000e-001) (84, 8.76486897468566890000e-001) (85, 4.46679234504699710000e-001) (86, 4.58170920610427860000e-001) (87, 4.81987893581390380000e-001) (88, 4.77614551782608030000e-001) (89, 3.86056721210479740000e-001) (90, 4.45795923471450810000e-001) (91, 4.34130698442459110000e-001) (92, 3.27991008758544920000e-001) (93, 4.39502060413360600000e-001) (94, 2.83247351646423340000e-001) (95, 4.24329400062561040000e-001) (96, 3.63082826137542720000e-001) (97, 4.04199898242950440000e-001) (98, 4.64404940605163570000e-001) (99, 3.50417584180831910000e-001) (0, -8.13460126519203190000e-002) (1, -9.13902670145034790000e-002) (2, -9.89713221788406370000e-002) (3, 6.13740347325801850000e-002) (4, -9.34095084667205810000e-002) (5, -3.81723158061504360000e-002) (6, -7.85239636898040770000e-002) (7, -2.39710882306098940000e-002) (8, 1.11584775149822240000e-001) (9, -7.22601264715194700000e-002) (10, -1.77309930324554440000e-001) (11, 5.61972931027412410000e-002) (12, -6.29155663773417470000e-003) (13, -8.66434257477521900000e-003) (14, -1.30292013287544250000e-001) (15, -1.72711521387100220000e-001) (16, -1.49388253688812260000e-001) (17, -1.91075369715690610000e-001) (18, -2.63058811426162720000e-001) (19, 4.44382697343826290000e-001) (20, -3.64264249801635740000e-001) (21, -1.83628410100936890000e-001) (22, -5.86925335228443150000e-002) (23, 2.80584003776311870000e-002) (24, -7.59481787681579590000e-002) (25, -5.58002330362796780000e-002) (26, -2.50655204057693480000e-001) (27, -7.01414421200752260000e-002) (28, 2.97872778028249740000e-002) (29, -2.36606508493423460000e-001) (30, 9.23474878072738650000e-002) (31, 1.38337239623069760000e-001) (32, 3.48557382822036740000e-002) (33, -1.04020945727825160000e-001) (34, -1.43979191780090330000e-001) (35, 7.14613914489746090000e-001) (36, -4.85092520713806150000e-001) (37, 4.26370114088058470000e-001) (38, 4.43830430507659910000e-001) (39, -1.34008780121803280000e-001) (40, -2.58770316839218140000e-001) (41, -2.07111120223999020000e-001) (42, -1.15298844873905180000e-001) (43, -1.65462076663970950000e-001) (44, -9.28878709673881530000e-002) (45, -1.46532043814659120000e-001) (46, -2.20081880688667300000e-001) (47, -1.43425121903419490000e-001) (48, 4.38496246933937070000e-002) (49, -1.39054395258426670000e-002) (50, -1.55268326401710510000e-001) (51, 2.44840141385793690000e-003) (52, -6.74982974305748940000e-003) (53, -1.52740463614463810000e-001) (54, -6.09591677784919740000e-002) (55, -1.22330248355865480000e-001) (56, 8.41964855790138240000e-002) (57, 6.28605112433433530000e-002) (58, 1.33259415626525880000e-001) (59, -6.93546533584594730000e-002) (60, 3.49024087190628050000e-002) (61, -1.47573828697204590000e-001) (62, 2.60113901458680630000e-003) (63, -6.39878436923027040000e-002) (64, -1.86915904283523560000e-001) (65, -8.06065276265144350000e-002) (66, -2.10752531886100770000e-001) (67, -3.53101529181003570000e-002) (68, -3.51137220859527590000e-001) (69, -2.43749126791954040000e-001) (70, -2.09627300500869750000e-001) (71, -3.09985876083374020000e-002) (72, -3.59437428414821620000e-002) (73, -2.92185433208942410000e-002) (74, -2.50893265008926390000e-001) (75, -2.40438476204872130000e-001) (76, -2.62372076511383060000e-001) (77, -3.27725887298583980000e-001) (78, 5.59536457061767580000e-001) (79, 6.10047101974487300000e-001) (80, 5.60792326927185060000e-001) (81, -2.45187908411026000000e-001) (82, -1.15095004439353940000e-001) (83, -2.62284904718399050000e-001) (84, 5.64024627208709720000e-001) (85, -1.59326687455177310000e-001) (86, -2.29105144739151000000e-001) (87, -1.03037305176258090000e-001) (88, -1.96290597319602970000e-001) (89, -2.06340670585632320000e-001) (90, -2.87122745066881180000e-002) (91, -3.71574453311041000000e-004) (92, 4.25267815589904790000e-002) (93, 7.62018486857414250000e-002) (94, 6.12894967198371890000e-002) (95, 7.08026736974716190000e-002) (96, 1.98801700025796890000e-002) (97, -5.38550950586795810000e-002) (98, -1.31646424531936650000e-001) (99, -6.84932842850685120000e-002) (0, 5.23009747266769410000e-002) (1, 4.20298464596271510000e-002) (2, -1.02441431954503060000e-002) (3, -4.05507773160934450000e-001) (4, 3.20403985679149630000e-002) (5, 1.01537361741065980000e-001) (6, -3.74768972396850590000e-001) (7, -6.04868531227111820000e-002) (8, 1.45864441990852360000e-001) (9, -6.40193596482276920000e-002) (10, 3.35797630250453950000e-002) (11, -7.92521983385086060000e-002) (12, -3.56725081801414490000e-002) (13, 5.42307980358600620000e-002) (14, 4.47178184986114500000e-002) (15, 4.27748374640941620000e-002) (16, 7.14085102081298830000e-002) (17, 5.57714812457561490000e-002) (18, 4.98201586306095120000e-002) (19, 1.58731918781995770000e-002) (20, 2.94583868235349660000e-002) (21, 7.41853117942810060000e-002) (22, 4.24524545669555660000e-002) (23, 5.29535636305809020000e-002) (24, -6.63792937994003300000e-002) (25, 4.23007868230342860000e-002) (26, 4.27606003358960150000e-003) (27, 8.27388092875480650000e-002) (28, -8.54861289262771610000e-002) (29, -7.10899233818054200000e-002) (30, -2.29723721742630000000e-001) (31, -2.13101699948310850000e-001) (32, -2.38456532359123230000e-001) (33, -1.43085762858390810000e-001) (34, -1.01547032594680790000e-001) (35, 5.96798807382583620000e-002) (36, 1.95737984031438830000e-002) (37, 6.74080401659011840000e-002) (38, -5.52616007626056670000e-002) (39, -4.63485084474086760000e-002) (40, 7.20311477780342100000e-002) (41, -7.78690027073025700000e-003) (42, -9.51150525361299510000e-003) (43, 2.46644541621208190000e-002) (44, 4.04150635004043580000e-002) (45, 1.37886360287666320000e-001) (46, 9.88048985600471500000e-002) (47, -8.38351622223854060000e-002) (48, -1.13921612501144410000e-001) (49, -1.01105275098234420000e-003) (50, -1.05542600154876710000e-001) (51, -2.51648962497711180000e-001) (52, -2.15386286377906800000e-001) (53, -1.36071264743804930000e-001) (54, -2.23531965166330340000e-002) (55, -8.58031138777732850000e-002) (56, 1.57919839024543760000e-001) (57, 1.05433464050292970000e-002) (58, -2.45441868901252750000e-001) (59, 2.43537873029708860000e-002) (60, 8.15558135509490970000e-002) (61, 6.09119124710559840000e-002) (62, 3.21843810379505160000e-002) (63, -1.27654895186424260000e-001) (64, -3.39854270219802860000e-001) (65, -4.84448522329330440000e-002) (66, 1.16529660299420360000e-002) (67, -1.17726158350706100000e-002) (68, 2.61013563722372060000e-002) (69, 1.18643842637538910000e-001) (70, 4.73516806960105900000e-002) (71, -6.13221786916255950000e-002) (72, -4.96982745826244350000e-002) (73, 6.89204558730125430000e-002) (74, 1.61038897931575780000e-002) (75, -9.07503515481948850000e-002) (76, 5.40122948586940770000e-002) (77, 6.33044261485338210000e-003) (78, 1.16635918617248540000e-001) (79, 8.55259075760841370000e-002) (80, 6.88272863626480100000e-002) (81, 2.48299259692430500000e-002) (82, -8.67600552737712860000e-003) (83, -1.01336389780044560000e-001) (84, 6.88131675124168400000e-002) (85, -1.50092989206314090000e-001) (86, 3.79587896168231960000e-003) (87, 1.10511966049671170000e-001) (88, -2.63915280811488630000e-003) (89, 4.39155437052249910000e-002) (90, -2.71951239556074140000e-002) (91, 5.87880052626132970000e-002) (92, 6.13756254315376280000e-002) (93, -3.52535434067249300000e-002) (94, -1.90863624215126040000e-001) (95, -1.85667842626571660000e-001) (96, -1.35905668139457700000e-002) (97, -1.59680709242820740000e-001) (98, -2.57031023502349850000e-001) (99, -7.88092315196990970000e-002) (0, 1.72816261649131770000e-001) (1, 8.69364261627197270000e-001) (2, 8.86847913265228270000e-001) (3, 1.08297832310199740000e-001) (4, 1.82596534490585330000e-001) (5, 3.21986764669418330000e-001) (6, 3.31497311592102050000e-001) (7, 1.64811000227928160000e-001) (8, 1.73578992486000060000e-001) (9, 3.15613150596618650000e-001) (10, 1.75343081355094910000e-001) (11, 2.13599920272827150000e-001) (12, 1.51470512151718140000e-001) (13, 2.31088906526565550000e-001) (14, 2.27402314543724060000e-001) (15, 1.00550627708435060000e+000) (16, 3.01093310117721560000e-001) (17, 2.08569452166557310000e-001) (18, 3.35067540407180790000e-001) (19, 4.19794738292694090000e-001) (20, 1.09223604202270510000e+000) (21, 9.87252593040466310000e-001) (22, 1.05082345008850100000e+000) (23, 1.10717308521270750000e+000) (24, 9.77440774440765380000e-001) (25, 9.46558296680450440000e-001) (26, 9.91084516048431400000e-001) (27, 1.04718983173370360000e+000) (28, 8.65346193313598630000e-001) (29, 1.00897252559661870000e+000) (30, 6.58187508583068850000e-001) (31, 7.16645896434783940000e-001) (32, 7.02313542366027830000e-001) (33, 1.04445254802703860000e+000) (34, 7.39860653877258300000e-001) (35, 1.13867759704589840000e+000) (36, 9.89081799983978270000e-001) (37, 4.78202581405639650000e-001) (38, 2.97481894493103030000e-001) (39, 1.14998281002044680000e+000) (40, 1.07770228385925290000e+000) (41, 1.06732022762298580000e+000) (42, 8.87941420078277590000e-001) (43, 9.14850831031799320000e-001) (44, 8.05611789226531980000e-001) (45, 8.56399059295654300000e-001) (46, 3.47972869873046880000e-001) (47, 1.40183091163635250000e-001) (48, 2.79552191495895390000e-001) (49, 1.94605946540832520000e-001) (50, 1.82651400566101070000e-001) (51, -1.00500285625457760000e-001) (52, 9.65882539749145510000e-002) (53, 3.35181713104248050000e-001) (54, 2.96298682689666750000e-001) (55, 2.62278616428375240000e-001) (56, 3.11265468597412110000e-001) (57, 9.45848882198333740000e-001) (58, 7.72321581840515140000e-001) (59, 8.29270362854003910000e-001) (60, 9.14435505867004390000e-001) (61, 1.02513039112091060000e+000) (62, 9.20655012130737300000e-001) (63, 1.00718319416046140000e+000) (64, 9.83225822448730470000e-001) (65, 2.07617327570915220000e-001) (66, 1.60354793071746830000e-001) (67, 7.70870506763458250000e-001) (68, 9.14094388484954830000e-001) (69, 9.58668053150177000000e-001) (70, 8.76255691051483150000e-001) (71, 9.99952912330627440000e-001) (72, 8.65407168865203860000e-001) (73, 9.50741350650787350000e-001) (74, 7.74708747863769530000e-001) (75, 8.10539245605468750000e-001) (76, 8.24818015098571780000e-001) (77, 1.07771670818328860000e+000) (78, 1.07343757152557370000e+000) (79, 1.38322639465332030000e+000) (80, 1.08168327808380130000e+000) (81, 1.13447904586791990000e+000) (82, 1.16606402397155760000e+000) (83, 1.03844177722930910000e+000) (84, 1.16750097274780270000e+000) (85, 1.13915014266967770000e+000) (86, 1.01348793506622310000e+000) (87, 1.03583097457885740000e+000) (88, 1.01240396499633790000e+000) (89, 8.34499776363372800000e-001) (90, 9.42690432071685790000e-001) (91, 9.38716590404510500000e-001) (92, 7.95205414295196530000e-001) (93, 7.86774635314941410000e-001) (94, 8.23890805244445800000e-001) (95, 9.09968197345733640000e-001) (96, 2.25080162286758420000e-001) (97, 1.87028512358665470000e-001) (98, 2.25979268550872800000e-001) (99, 2.35540211200714110000e-001) (0, -3.17959874868392940000e-001) (1, -4.11020070314407350000e-001) (2, 4.24700193107128140000e-002) (3, 1.98775351047515870000e-001) (4, 2.55936324596405030000e-001) (5, 2.34039604663848880000e-001) (6, 3.83083105087280270000e-001) (7, 8.90416130423545840000e-002) (8, -2.46001154184341430000e-001) (9, -1.33595153689384460000e-001) (10, -9.02597904205322270000e-002) (11, -2.96622253954410550000e-002) (12, -9.92716178297996520000e-002) (13, -3.36529403924942020000e-001) (14, -4.77804213762283330000e-001) (15, -4.38887715339660640000e-001) (16, -1.36412397027015690000e-001) (17, 4.15602922439575200000e-002) (18, -1.24609649181365970000e-001) (19, 2.65495270490646360000e-001) (20, 1.23315036296844480000e-001) (21, 1.25995516777038570000e-001) (22, -4.07502889633178710000e-001) (23, -3.15901428461074830000e-001) (24, 6.14064261317253110000e-002) (25, -9.59930717945098880000e-002) (26, 3.76280993223190310000e-001) (27, 2.85501867532730100000e-001) (28, 2.79054105281829830000e-001) (29, 4.18632447719573970000e-001) (30, 1.19673855602741240000e-001) (31, 9.73644182085990910000e-002) (32, 3.72897437773644920000e-003) (33, 3.55788230895996090000e-001) (34, 1.37018620967864990000e-001) (35, 1.75214111804962160000e-001) (36, 2.38448366522789000000e-001) (37, 2.82319396734237670000e-001) (38, 1.89065173268318180000e-001) (39, 6.13622553646564480000e-002) (40, 1.01736467331647870000e-002) (41, 8.37773084640502930000e-002) (42, -4.56899881362915040000e-001) (43, -3.39403480291366580000e-001) (44, -3.46384227275848390000e-001) (45, 7.47712552547454830000e-002) (46, -3.69565248489379880000e-001) (47, 7.91262686252593990000e-002) (48, -1.92298993468284610000e-001) (49, -7.59721100330352780000e-002) (50, -5.27611523866653440000e-002) (51, 1.69267997145652770000e-001) (52, 3.53039801120758060000e-001) (53, 3.85034203529357910000e-001) (54, 1.72022297978401180000e-001) (55, 1.53498843312263490000e-001) (56, 2.36227825284004210000e-001) (57, 6.14607781171798710000e-002) (58, -1.04866497218608860000e-001) (59, -7.60507881641387940000e-002) (60, 2.37881407141685490000e-001) (61, 2.34443277120590210000e-001) (62, 2.69248455762863160000e-001) (63, 8.03151801228523250000e-002) (64, 3.39881390333175660000e-001) (65, 3.90616327524185180000e-001) (66, 2.34090462327003480000e-001) (67, -9.50359255075454710000e-002) (68, -7.13122040033340450000e-002) (69, -3.00242424011230470000e-001) (70, -4.43382591009140010000e-001) (71, -3.98114770650863650000e-001) (72, -3.41961026191711430000e-001) (73, -3.95020157098770140000e-001) (74, 5.29358834028244020000e-002) (75, 1.51142761111259460000e-001) (76, 3.07019025087356570000e-001) (77, -4.77684795856475830000e-001) (78, 1.14485859870910640000e-001) (79, 2.67644017934799190000e-001) (80, 1.28408327698707580000e-001) (81, -3.39699499309062960000e-002) (82, -1.06772698462009430000e-001) (83, 4.36643436551094060000e-002) (84, 2.03141912817955020000e-001) (85, 3.84532883763313290000e-002) (86, 1.36579331010580060000e-002) (87, 7.64852166175842290000e-002) (88, -2.57542312145233150000e-001) (89, -5.20516708493232730000e-002) (90, -3.18732053041458130000e-001) (91, -1.27704292535781860000e-001) (92, 6.75060003995895390000e-002) (93, 7.05055985599756240000e-003) (94, 2.55423150956630710000e-002) (95, 2.56704855710268020000e-002) (96, -1.70797690749168400000e-001) (97, 5.98658248782157900000e-002) (98, 2.55438387393951420000e-001) (99, 6.20398223400115970000e-002) (0, 4.20407861471176150000e-001) (1, 2.76000618934631350000e-001) (2, 4.40031349658966060000e-001) (3, 4.31614875793457030000e-001) (4, 4.15558338165283200000e-001) (5, 3.68543565273284910000e-001) (6, 3.84590268135070800000e-001) (7, 4.13007855415344240000e-001) (8, 3.85149985551834110000e-001) (9, 3.95148038864135740000e-001) (10, 4.94627892971038820000e-001) (11, 4.46625232696533200000e-001) (12, 2.91905641555786130000e-001) (13, 2.82159209251403810000e-001) (14, 4.53809052705764770000e-001) (15, 3.10749053955078130000e-001) (16, 4.70100969076156620000e-001) (17, 4.24100786447525020000e-001) (18, 3.41982305049896240000e-001) (19, 3.81989985704422000000e-001) (20, 3.44195216894149780000e-001) (21, 5.05335569381713870000e-001) (22, 4.30767953395843510000e-001) (23, 4.33996081352233890000e-001) (24, 2.62511819601058960000e-001) (25, 4.13177967071533200000e-001) (26, 3.55375349521636960000e-001) (27, 4.92663025856018070000e-001) (28, 4.77199375629425050000e-001) (29, 3.64982843399047850000e-001) (30, 3.52706402540206910000e-001) (31, 2.56269425153732300000e-001) (32, 3.37961882352828980000e-001) (33, 3.93400162458419800000e-001) (34, 4.43041771650314330000e-001) (35, 3.51050734519958500000e-001) (36, 4.88877922296524050000e-001) (37, 4.25957053899765010000e-001) (38, 4.46763008832931520000e-001) (39, 3.55942457914352420000e-001) (40, 3.89236956834793090000e-001) (41, 3.18867683410644530000e-001) (42, 3.06968331336975100000e-001) (43, 3.63559544086456300000e-001) (44, 2.92125880718231200000e-001) (45, 5.09296417236328130000e-001) (46, 3.69496911764144900000e-001) (47, 4.38479095697402950000e-001) (48, 2.75496304035186770000e-001) (49, 3.21203976869583130000e-001) (50, 3.99715960025787350000e-001) (51, 2.90179640054702760000e-001) (52, 4.69199717044830320000e-001) (53, 4.27032530307769780000e-001) (54, 4.30666685104370120000e-001) (55, 2.09985241293907170000e-001) (56, 2.74261564016342160000e-001) (57, 3.51120710372924800000e-001) (58, 4.00807499885559080000e-001) (59, 3.76723080873489380000e-001) (60, 3.83865922689437870000e-001) (61, 4.55111980438232420000e-001) (62, 4.51457262039184570000e-001) (63, 4.37422901391983030000e-001) (64, 5.20156741142272950000e-001) (65, 3.92162352800369260000e-001) (66, 3.29723894596099850000e-001) (67, 4.12661433219909670000e-001) (68, 3.54257494211196900000e-001) (69, 2.51184493303298950000e-001) (70, 2.70014822483062740000e-001) (71, 4.19590562582015990000e-001) (72, 4.11670356988906860000e-001) (73, 3.04529786109924320000e-001) (74, 2.52167522907257080000e-001) (75, 2.68031835556030270000e-001) (76, 3.82809728384017940000e-001) (77, 4.27306503057479860000e-001) (78, 3.77536773681640630000e-001) (79, 4.70129638910293580000e-001) (80, 3.38002681732177730000e-001) (81, 3.86564075946807860000e-001) (82, 4.04546350240707400000e-001) (83, 4.39157545566558840000e-001) (84, 3.17803829908370970000e-001) (85, 3.41264486312866210000e-001) (86, 4.80913668870925900000e-001) (87, 3.36966753005981450000e-001) (88, 3.57711791992187500000e-001) (89, 4.03665781021118160000e-001) (90, 3.46429109573364260000e-001) (91, 3.24228733777999880000e-001) (92, 4.05712932348251340000e-001) (93, 4.27518725395202640000e-001) (94, 2.95646041631698610000e-001) (95, 3.24700146913528440000e-001) (96, 3.34776937961578370000e-001) (97, 3.11664968729019170000e-001) (98, 3.71219545602798460000e-001) (99, 3.09440732002258300000e-001) (0, 5.05866646766662600000e-001) (1, 5.00601470470428470000e-001) (2, 5.09550571441650390000e-001) (3, 3.40018928050994870000e-001) (4, 9.26283821463584900000e-002) (5, 1.26034066081047060000e-001) (6, 3.16992402076721190000e-001) (7, 3.13935756683349610000e-001) (8, 4.35481995344161990000e-001) (9, 4.20688301324844360000e-001) (10, 4.28819239139556880000e-001) (11, 2.39960432052612300000e-001) (12, 3.46794664859771730000e-001) (13, 3.79124373197555540000e-001) (14, 4.12465989589691160000e-001) (15, 5.08305907249450680000e-001) (16, 4.38203275203704830000e-001) (17, 3.28826397657394410000e-001) (18, 3.13850432634353640000e-001) (19, 4.33207005262374880000e-001) (20, 4.39046442508697510000e-001) (21, 2.75971889495849610000e-001) (22, 4.00856137275695800000e-001) (23, 4.77180153131484990000e-001) (24, 4.68431323766708370000e-001) (25, 3.97648751735687260000e-001) (26, 5.98241873085498810000e-002) (27, 6.65988922119140630000e-002) (28, 2.08924561738967900000e-001) (29, 2.16941460967063900000e-001) (30, 3.49617868661880490000e-001) (31, 2.51872122287750240000e-001) (32, 1.97028681635856630000e-001) (33, 4.43945638835430150000e-002) (34, 3.85670870542526250000e-001) (35, 4.26006734371185300000e-001) (36, 3.99239897727966310000e-001) (37, 5.54842710494995120000e-001) (38, 4.10872757434844970000e-001) (39, 3.57351064682006840000e-001) (40, 4.47406440973281860000e-001) (41, 4.95243728160858150000e-001) (42, 3.26229423284530640000e-001) (43, 4.31638270616531370000e-001) (44, 4.61435914039611820000e-001) (45, 4.78168219327926640000e-001) (46, 3.15531969070434570000e-001) (47, 4.26741927862167360000e-001) (48, 1.66396558284759520000e-001) (49, 3.91511291265487670000e-001) (50, 3.40833216905593870000e-001) (51, 3.70083451271057130000e-001) (52, 2.63285279273986820000e-001) (53, 1.81373357772827150000e-001) (54, 6.68301135301589970000e-002) (55, 2.11938172578811650000e-001) (56, 5.87951660156250000000e-001) (57, 4.23925071954727170000e-001) (58, 3.47518771886825560000e-001) (59, 4.17437672615051270000e-001) (60, 3.61511558294296260000e-001) (61, 4.22066301107406620000e-001) (62, 4.27382916212081910000e-001) (63, 1.88116669654846190000e-001) (64, 5.05017638206481930000e-002) (65, 3.64090763032436370000e-002) (66, 1.83164533227682110000e-002) (67, 1.20213419198989870000e-001) (68, 2.69588857889175420000e-001) (69, 3.74983012676239010000e-001) (70, 3.03909718990325930000e-001) (71, 3.82904827594757080000e-001) (72, 2.23165497183799740000e-001) (73, 3.08428138494491580000e-001) (74, 2.51523524522781370000e-001) (75, 1.75394579768180850000e-001) (76, 2.21181124448776250000e-001) (77, 2.91741728782653810000e-001) (78, 4.34643477201461790000e-001) (79, 5.27917087078094480000e-001) (80, 4.37275230884552000000e-001) (81, 4.54782277345657350000e-001) (82, 4.08034026622772220000e-001) (83, 4.13220435380935670000e-001) (84, 4.62529748678207400000e-001) (85, 3.56240063905715940000e-001) (86, 5.43854892253875730000e-001) (87, 5.45857310295104980000e-001) (88, 5.05853176116943360000e-001) (89, 4.55900639295578000000e-001) (90, 3.89106154441833500000e-001) (91, 4.33250069618225100000e-001) (92, 4.43561941385269170000e-001) (93, 3.84361624717712400000e-001) (94, 4.00316357612609860000e-001) (95, 3.51041555404663090000e-001) (96, 3.55147451162338260000e-001) (97, 3.87211859226226810000e-001) (98, 1.76414564251899720000e-001) (99, 1.37578547000885010000e-001) (0, 7.67052173614501950000e-001) (1, 6.99196457862854000000e-001) (2, 6.60703659057617190000e-001) (3, 8.20204794406890870000e-001) (4, 7.09867477416992190000e-001) (5, 7.26398169994354250000e-001) (6, 8.40151429176330570000e-001) (7, 7.38642573356628420000e-001) (8, 6.29605948925018310000e-001) (9, 8.26394319534301760000e-001) (10, 8.17379295825958250000e-001) (11, 8.42209458351135250000e-001) (12, 6.66119158267974850000e-001) (13, 6.76581203937530520000e-001) (14, 8.01864445209503170000e-001) (15, 8.30165624618530270000e-001) (16, 7.86145210266113280000e-001) (17, 8.26777458190917970000e-001) (18, 1.11852455139160160000e+000) (19, 1.16140007972717290000e+000) (20, 1.97195935249328610000e+000) (21, 1.64751303195953370000e+000) (22, 8.90607893466949460000e-001) (23, 8.67942035198211670000e-001) (24, 6.69176518917083740000e-001) (25, 7.92215943336486820000e-001) (26, 9.08772766590118410000e-001) (27, 8.87927234172821040000e-001) (28, 6.23164236545562740000e-001) (29, 8.37387561798095700000e-001) (30, 3.89827519655227660000e-001) (31, 4.74140673875808720000e-001) (32, 4.36232656240463260000e-001) (33, 8.69541466236114500000e-001) (34, 8.39503347873687740000e-001) (35, 1.25658524036407470000e+000) (36, 2.13236117362976070000e+000) (37, 2.09071731567382810000e+000) (38, 2.13600897789001460000e+000) (39, 1.10520052909851070000e+000) (40, 8.08504343032836910000e-001) (41, 7.94740080833435060000e-001) (42, 9.50316131114959720000e-001) (43, 7.02419519424438480000e-001) (44, 7.99457728862762450000e-001) (45, 7.72696554660797120000e-001) (46, 8.37056934833526610000e-001) (47, 8.17358255386352540000e-001) (48, 6.47504210472106930000e-001) (49, 6.30549907684326170000e-001) (50, 6.97010040283203130000e-001) (51, 6.35778129100799560000e-001) (52, 7.06955134868621830000e-001) (53, 8.34849119186401370000e-001) (54, 7.44996070861816410000e-001) (55, 7.24020123481750490000e-001) (56, 6.38092637062072750000e-001) (57, 7.87656962871551510000e-001) (58, 7.69493043422698970000e-001) (59, 6.62887215614318850000e-001) (60, 7.91034698486328130000e-001) (61, 8.14461410045623780000e-001) (62, 7.98604190349578860000e-001) (63, 9.06018674373626710000e-001) (64, 8.28567326068878170000e-001) (65, 7.61009037494659420000e-001) (66, 7.86781728267669680000e-001) (67, 7.14283823966979980000e-001) (68, 8.40902745723724370000e-001) (69, 9.28808629512786870000e-001) (70, 7.81494677066802980000e-001) (71, 8.51944208145141600000e-001) (72, 6.69256448745727540000e-001) (73, 8.02604138851165770000e-001) (74, 7.91756153106689450000e-001) (75, 6.99221789836883540000e-001) (76, 7.48939931392669680000e-001) (77, 9.01800513267517090000e-001) (78, 2.17701101303100590000e+000) (79, 1.98173439502716060000e+000) (80, 1.11908745765686040000e+000) (81, 1.04294621944427490000e+000) (82, 1.10669088363647460000e+000) (83, 1.20102322101593020000e+000) (84, 1.29317426681518550000e+000) (85, 1.13776540756225590000e+000) (86, 8.23078095912933350000e-001) (87, 8.33811998367309570000e-001) (88, 7.99814581871032710000e-001) (89, 7.42119789123535160000e-001) (90, 8.33394646644592290000e-001) (91, 8.56354176998138430000e-001) (92, 8.18552494049072270000e-001) (93, 6.72681927680969240000e-001) (94, 7.38288581371307370000e-001) (95, 6.33863210678100590000e-001) (96, 7.25545763969421390000e-001) (97, 6.99886858463287350000e-001) (98, 7.44116365909576420000e-001) (99, 6.95664823055267330000e-001) (0, -1.13163478672504430000e-001) (1, 4.18558306992053990000e-002) (2, -3.66692915558815000000e-002) (3, 1.26671254634857180000e-001) (4, 1.12198237329721450000e-002) (5, 4.10052426159381870000e-002) (6, -1.67797923088073730000e-001) (7, 9.61958197876811030000e-004) (8, 3.12102176249027250000e-002) (9, -9.81975793838500980000e-002) (10, -1.59286007285118100000e-001) (11, -1.26106757670640950000e-002) (12, 3.44611629843711850000e-002) (13, 8.96085612475872040000e-003) (14, -7.02857002615928650000e-002) (15, -2.43599675595760350000e-002) (16, -2.67159342765808110000e-002) (17, -1.40274792909622190000e-001) (18, -7.06092342734336850000e-002) (19, 1.64427325129508970000e-001) (20, 2.66144633293151860000e-001) (21, -7.91450962424278260000e-002) (22, -7.63564556837081910000e-002) (23, -9.02046337723731990000e-002) (24, -7.67749249935150150000e-002) (25, -1.04786798357963560000e-001) (26, -2.50169724225997920000e-001) (27, -4.15033161640167240000e-001) (28, -3.32578010857105260000e-002) (29, -1.39949440956115720000e-001) (30, 9.56312343478202820000e-002) (31, 4.36948314309120180000e-002) (32, 5.84393041208386420000e-003) (33, -5.92679791152477260000e-002) (34, -1.89716115593910220000e-001) (35, 1.59539535641670230000e-001) (36, 1.40157878398895260000e-001) (37, 2.40598887205123900000e-001) (38, 2.23986163735389710000e-001) (39, -5.75661249458789830000e-002) (40, -8.58812332153320310000e-002) (41, -1.21842965483665470000e-001) (42, -1.29303783178329470000e-001) (43, -8.86861458420753480000e-002) (44, -3.00212316215038300000e-002) (45, -5.22819608449935910000e-002) (46, -2.44739204645156860000e-001) (47, -1.75942853093147280000e-001) (48, 7.60831013321876530000e-002) (49, -3.24109569191932680000e-002) (50, -1.82502225041389470000e-001) (51, -1.87822788953781130000e-001) (52, 5.02459108829498290000e-002) (53, 3.76755674369633200000e-003) (54, 1.18060670793056490000e-001) (55, -1.37854283675551410000e-002) (56, 6.50456771254539490000e-002) (57, 8.91337320208549500000e-002) (58, -5.87377697229385380000e-002) (59, -6.31989315152168270000e-002) (60, -1.22710522264242170000e-002) (61, -1.03386543691158290000e-001) (62, -1.12302817404270170000e-001) (63, -8.96349102258682250000e-002) (64, -1.19304612278938290000e-001) (65, -2.87480086088180540000e-001) (66, -2.25546225905418400000e-001) (67, -4.80132624506950380000e-002) (68, -2.78305470943450930000e-001) (69, -1.66349887847900390000e-001) (70, -7.53071010112762450000e-002) (71, -1.79080948233604430000e-001) (72, -1.82062268257141110000e-001) (73, -1.58768713474273680000e-001) (74, -8.94091725349426270000e-002) (75, -2.72810608148574830000e-001) (76, -2.22677201032638550000e-001) (77, -3.95228832960128780000e-001) (78, 2.84175783395767210000e-001) (79, 3.14645320177078250000e-001) (80, 3.29182982444763180000e-001) (81, 2.32795365154743190000e-002) (82, -8.32753106951713560000e-002) (83, 7.76518657803535460000e-002) (84, 2.21429258584976200000e-001) (85, -2.59724035859107970000e-002) (86, 6.05282709002494810000e-002) (87, 4.06244024634361270000e-002) (88, -1.08078405261039730000e-001) (89, -8.18376615643501280000e-002) (90, -6.35077357292175290000e-002) (91, 2.40859054028987880000e-002) (92, 5.38099743425846100000e-002) (93, 3.19135449826717380000e-002) (94, -1.16230867803096770000e-001) (95, -7.28741958737373350000e-002) (96, 4.25448678433895110000e-002) (97, -8.31272266805171970000e-003) (98, 3.94736137241125110000e-003) (99, -9.56941675394773480000e-003) (0, 8.49801748991012570000e-002) (1, 1.22688993811607360000e-001) (2, 1.90237104892730710000e-001) (3, 6.73243962228298190000e-003) (4, -1.64752140641212460000e-001) (5, -1.56738266348838810000e-001) (6, 5.93081600964069370000e-002) (7, -3.77214737236499790000e-002) (8, 9.86173450946807860000e-002) (9, -1.47620271891355510000e-002) (10, 1.15336477756500240000e-001) (11, -4.78046834468841550000e-002) (12, 1.60743564367294310000e-001) (13, 3.30076813697814940000e-002) (14, 1.76572978496551510000e-001) (15, 1.52996137738227840000e-001) (16, 4.10865619778633120000e-002) (17, 1.89802244305610660000e-001) (18, 9.56989005208015440000e-002) (19, 1.98168247938156130000e-001) (20, 3.01070481538772580000e-001) (21, 1.99392721056938170000e-001) (22, -9.04641300439834590000e-002) (23, -2.33313944190740590000e-002) (24, 1.50094673037528990000e-001) (25, 4.38098236918449400000e-002) (26, 3.98094020783901210000e-002) (27, 6.82668685913085940000e-002) (28, 8.18253383040428160000e-002) (29, 3.11580523848533630000e-002) (30, -8.38792789727449420000e-003) (31, -7.52302259206771850000e-002) (32, -2.23528429865837100000e-001) (33, -1.21237292885780330000e-001) (34, 2.99966167658567430000e-002) (35, 1.18542209267616270000e-001) (36, 2.89986789226531980000e-001) (37, 2.83602386713027950000e-001) (38, 1.39589920639991760000e-001) (39, 9.77729186415672300000e-002) (40, 1.55309945344924930000e-001) (41, 2.14251682162284850000e-001) (42, 1.78037822246551510000e-001) (43, 2.09129676222801210000e-002) (44, 1.17387346923351290000e-001) (45, 2.14171260595321660000e-002) (46, 5.33409193158149720000e-002) (47, 5.65254129469394680000e-002) (48, 9.99575406312942500000e-002) (49, -1.87813751399517060000e-002) (50, -5.16657494008541110000e-002) (51, 6.99438601732254030000e-002) (52, -1.01244281977415080000e-002) (53, -6.51715844869613650000e-002) (54, -6.94000422954559330000e-002) (55, 5.66553324460983280000e-002) (56, 1.05282522737979890000e-001) (57, 6.68446347117424010000e-002) (58, 8.77337530255317690000e-002) (59, 1.01117327809333800000e-001) (60, 3.79767976701259610000e-002) (61, 9.16704162955284120000e-002) (62, -3.52894887328147890000e-002) (63, -5.20376898348331450000e-002) (64, 4.15998622775077820000e-002) (65, 1.06911733746528630000e-001) (66, 1.17052115499973300000e-001) (67, 3.18917408585548400000e-002) (68, -1.69604569673538210000e-001) (69, -1.48330122232437130000e-001) (70, -8.74918326735496520000e-002) (71, -1.22492603957653050000e-001) (72, -1.48275911808013920000e-001) (73, -2.01943919062614440000e-001) (74, 4.77003492414951320000e-002) (75, 8.31375364214181900000e-003) (76, -7.11025223135948180000e-002) (77, -3.54722708463668820000e-001) (78, 2.15855374932289120000e-001) (79, 2.40936294198036190000e-001) (80, 1.93615525960922240000e-001) (81, 2.13368356227874760000e-001) (82, 1.01235195994377140000e-001) (83, 5.11211641132831570000e-002) (84, 2.60708421468734740000e-001) (85, 8.07898491621017460000e-002) (86, 1.72868102788925170000e-001) (87, 2.28970021009445190000e-001) (88, 1.26197665929794310000e-001) (89, 8.48368629813194270000e-002) (90, 9.04716774821281430000e-002) (91, 1.70225635170936580000e-001) (92, 1.37186452746391300000e-001) (93, 1.42912566661834720000e-002) (94, -5.50098381936550140000e-002) (95, 2.43904977105557920000e-003) (96, -3.24551612138748170000e-002) (97, 2.90277600288391110000e-002) (98, -4.06426843255758290000e-003) (99, -6.08119741082191470000e-003) (0, -3.43180954456329350000e-001) (1, -2.32574328780174260000e-001) (2, -1.05877041816711430000e-001) (3, 9.97901558876037600000e-002) (4, -6.54615163803100590000e-002) (5, -6.46782899275422100000e-003) (6, -1.83375030755996700000e-002) (7, -1.64106920361518860000e-001) (8, -1.28186121582984920000e-001) (9, -2.11312800645828250000e-001) (10, -5.40874041616916660000e-002) (11, -6.45568072795867920000e-002) (12, -1.32114306092262270000e-001) (13, -2.34757989645004270000e-001) (14, -2.27986931800842290000e-001) (15, -6.96392357349395750000e-002) (16, -6.07977658510208130000e-002) (17, -1.89490169286727910000e-001) (18, -2.46798738837242130000e-001) (19, -3.60579371452331540000e-001) (20, -2.80181080102920530000e-001) (21, -1.96280434727668760000e-001) (22, -1.54731675982475280000e-001) (23, -5.39675839245319370000e-002) (24, -2.39449441432952880000e-001) (25, -2.04552531242370610000e-001) (26, -2.73495838046073910000e-002) (27, -1.68687049299478530000e-002) (28, 4.73940640687942500000e-001) (29, 1.02869607508182530000e-002) (30, -4.44266498088836670000e-001) (31, -4.67367649078369140000e-001) (32, -2.82098472118377690000e-001) (33, 2.63589974492788310000e-002) (34, -3.02624572068452840000e-002) (35, -9.31376069784164430000e-002) (36, -3.25257152318954470000e-001) (37, -3.40349525213241580000e-001) (38, -2.87464052438735960000e-001) (39, -1.13598763942718510000e-001) (40, -1.08350872993469240000e-001) (41, -2.31559440493583680000e-001) (42, -6.90848305821418760000e-002) (43, -1.54657378792762760000e-001) (44, -9.03253778815269470000e-002) (45, -5.70851154625415800000e-002) (46, -1.59853905439376830000e-001) (47, -1.22992753982543950000e-001) (48, -2.26490303874015810000e-001) (49, -2.20145985484123230000e-001) (50, -2.21332326531410220000e-001) (51, 5.37717677652835850000e-002) (52, -3.20787616074085240000e-002) (53, -4.35465686023235320000e-002) (54, -5.49641577526926990000e-003) (55, -1.29058882594108580000e-001) (56, -2.79084384441375730000e-001) (57, -1.43610671162605290000e-001) (58, -1.92421153187751770000e-001) (59, 5.12338951230049130000e-002) (60, -4.47432845830917360000e-002) (61, 1.69875964522361760000e-001) (62, -7.45045989751815800000e-002) (63, -5.55067732930183410000e-002) (64, -1.52737930417060850000e-001) (65, -1.43413096666336060000e-001) (66, -2.65556097030639650000e-001) (67, -3.32653552293777470000e-001) (68, -6.39200434088706970000e-002) (69, -1.71372652053833010000e-001) (70, -9.46269333362579350000e-002) (71, -1.89276605844497680000e-001) (72, -7.43264034390449520000e-002) (73, -2.03477174043655400000e-001) (74, -2.98501878976821900000e-001) (75, -2.86822825670242310000e-001) (76, -3.41575354337692260000e-001) (77, -2.34927639365196230000e-001) (78, -1.57856658101081850000e-001) (79, -4.06851530075073240000e-001) (80, -1.58062562346458440000e-001) (81, -2.69038796424865720000e-001) (82, -1.66131868958473210000e-001) (83, -1.66404068470001220000e-001) (84, -1.96612894535064700000e-001) (85, -1.81487247347831730000e-001) (86, -1.60007655620574950000e-001) (87, -2.10940957069396970000e-001) (88, -1.08873367309570310000e-001) (89, -5.69415986537933350000e-002) (90, -1.47611916065216060000e-001) (91, 7.33706206083297730000e-002) (92, 5.44535480439662930000e-002) (93, -3.31249758601188660000e-002) (94, -1.79658234119415280000e-001) (95, -7.50589519739151000000e-002) (96, -6.93895518779754640000e-002) (97, -3.03753942251205440000e-001) (98, -2.68393456935882570000e-001) (99, -2.00849398970603940000e-001) (0, -3.58455590903759000000e-002) (1, -1.52566041797399520000e-002) (2, -3.49399261176586150000e-002) (3, -1.45959004759788510000e-001) (4, -3.55403795838356020000e-002) (5, 2.60316710919141770000e-002) (6, -5.60302548110485080000e-002) (7, 3.20163415744900700000e-003) (8, 4.98532094061374660000e-002) (9, -4.35171946883201600000e-002) (10, 1.01353980600833890000e-001) (11, -1.04245170950889590000e-001) (12, 7.42524638772010800000e-002) (13, -1.03977657854557040000e-001) (14, -6.13969452679157260000e-002) (15, -1.01012468338012700000e-001) (16, -5.21758720278739930000e-002) (17, -1.03251866996288300000e-001) (18, -3.64056490361690520000e-002) (19, 4.72290068864822390000e-003) (20, -1.01184204220771790000e-001) (21, -1.51264771819114690000e-001) (22, 1.54456542804837230000e-002) (23, -1.48060277104377750000e-001) (24, -1.57208591699600220000e-001) (25, -5.45351095497608180000e-002) (26, -1.21447071433067320000e-002) (27, -6.27860799431800840000e-002) (28, -2.38052327185869220000e-002) (29, 1.87130421400070190000e-002) (30, -4.93885070085525510000e-001) (31, -5.83900153636932370000e-001) (32, -5.96193194389343260000e-001) (33, -1.37400791049003600000e-001) (34, -1.23471193015575410000e-001) (35, -9.62349772453308110000e-002) (36, 1.49443065747618680000e-002) (37, 6.52873665094375610000e-002) (38, 6.46317899227142330000e-002) (39, -4.98766778036952020000e-004) (40, -1.22610116377472880000e-002) (41, -2.86453180015087130000e-002) (42, -1.23068839311599730000e-001) (43, -1.10127426683902740000e-001) (44, -7.78642371296882630000e-002) (45, 8.07064399123191830000e-002) (46, -1.12601574510335920000e-002) (47, -2.12002638727426530000e-002) (48, 8.79516601562500000000e-002) (49, 8.68453979492187500000e-002) (50, -1.30514398217201230000e-001) (51, -8.45368951559066770000e-002) (52, -3.81230451166629790000e-002) (53, -1.33795505389571190000e-002) (54, -9.89970415830612180000e-002) (55, -1.35940000414848330000e-001) (56, 4.75573614239692690000e-002) (57, 1.74895778298377990000e-001) (58, 2.30776350945234300000e-002) (59, 4.64359000325202940000e-002) (60, -8.33532735705375670000e-002) (61, -5.46112395823001860000e-002) (62, 3.25657762587070470000e-002) (63, 3.26861552894115450000e-002) (64, -1.77468806505203250000e-001) (65, -1.45608201622962950000e-001) (66, -1.69499248266220090000e-001) (67, -8.49499702453613280000e-002) (68, -1.05658829212188720000e-001) (69, -1.37315034866333010000e-001) (70, -7.60228373110294340000e-003) (71, 9.15789324790239330000e-003) (72, 3.35519127547740940000e-002) (73, -9.00821313261985780000e-002) (74, -2.86540966480970380000e-002) (75, -1.34156584739685060000e-001) (76, -1.92588314414024350000e-001) (77, -1.49635419249534610000e-001) (78, -8.97136516869068150000e-003) (79, 1.36846631765365600000e-001) (80, 4.50405776500701900000e-002) (81, 4.00002207607030870000e-003) (82, -3.77288162708282470000e-002) (83, -2.45430003851652150000e-002) (84, 7.63591453433036800000e-002) (85, 1.11163228750228880000e-001) (86, 4.45113629102706910000e-002) (87, 7.37794414162635800000e-002) (88, -7.84625951200723650000e-003) (89, -1.97234377264976500000e-002) (90, -2.38516516983509060000e-002) (91, 1.29387408494949340000e-001) (92, 5.28954714536666870000e-003) (93, -7.98112079501152040000e-002) (94, -2.38592047244310380000e-002) (95, -4.17587757110595700000e-002) (96, 1.35044693946838380000e-001) (97, -3.95430251955986020000e-002) (98, -1.25127732753753660000e-001) (99, -4.32534106075763700000e-002) (0, 8.42289209365844730000e-001) (1, 9.20088946819305420000e-001) (2, 8.33465039730072020000e-001) (3, 6.63048207759857180000e-001) (4, 9.35445249080657960000e-001) (5, 1.00676465034484860000e+000) (6, 1.08320188522338870000e+000) (7, 9.02673304080963130000e-001) (8, 8.42604339122772220000e-001) (9, 8.48381876945495610000e-001) (10, 9.74497139453887940000e-001) (11, 8.52595686912536620000e-001) (12, 9.80458319187164310000e-001) (13, 1.04773008823394780000e+000) (14, 9.46109592914581300000e-001) (15, 8.77457678318023680000e-001) (16, 1.06767261028289790000e+000) (17, 8.77422451972961430000e-001) (18, 1.19333672523498540000e+000) (19, 1.37469482421875000000e+000) (20, 1.40200018882751460000e+000) (21, 1.43037378787994380000e+000) (22, 1.19264423847198490000e+000) (23, 9.72527265548706050000e-001) (24, 8.00740003585815430000e-001) (25, 9.51216340065002440000e-001) (26, 1.02011871337890620000e+000) (27, 9.74135637283325200000e-001) (28, 8.97982537746429440000e-001) (29, 1.02329432964324950000e+000) (30, 6.24769330024719240000e-001) (31, 5.44239819049835210000e-001) (32, 5.84019720554351810000e-001) (33, 9.31814968585968020000e-001) (34, 9.85516130924224850000e-001) (35, 9.49924707412719730000e-001) (36, 1.31666576862335210000e+000) (37, 1.34854745864868160000e+000) (38, 1.40434551239013670000e+000) (39, 1.34531652927398680000e+000) (40, 1.02271461486816410000e+000) (41, 9.26130771636962890000e-001) (42, 9.02464568614959720000e-001) (43, 8.58512699604034420000e-001) (44, 9.46996569633483890000e-001) (45, 9.83024895191192630000e-001) (46, 1.01794910430908200000e+000) (47, 8.40574860572814940000e-001) (48, 8.10216248035430910000e-001) (49, 8.72636795043945310000e-001) (50, 9.39324021339416500000e-001) (51, 3.32101970911026000000e-001) (52, 8.41176748275756840000e-001) (53, 9.56552565097808840000e-001) (54, 9.93459463119506840000e-001) (55, 8.71756255626678470000e-001) (56, 8.79073739051818850000e-001) (57, 9.57863569259643550000e-001) (58, 9.61494147777557370000e-001) (59, 9.03353810310363770000e-001) (60, 9.47261691093444820000e-001) (61, 1.09166169166564940000e+000) (62, 9.81427967548370360000e-001) (63, 8.92578959465026860000e-001) (64, 9.84342396259307860000e-001) (65, 1.01310241222381590000e+000) (66, 7.41626441478729250000e-001) (67, 9.20690953731536870000e-001) (68, 7.92739927768707280000e-001) (69, 8.90413761138916020000e-001) (70, 1.01482486724853520000e+000) (71, 9.21625375747680660000e-001) (72, 9.30600285530090330000e-001) (73, 7.92683124542236330000e-001) (74, 8.51040780544281010000e-001) (75, 8.72220218181610110000e-001) (76, 9.36975121498107910000e-001) (77, 1.12708163261413570000e+000) (78, 1.49109101295471190000e+000) (79, 1.35934197902679440000e+000) (80, 1.39084339141845700000e+000) (81, 1.37081539630889890000e+000) (82, 1.36159598827362060000e+000) (83, 1.37363529205322270000e+000) (84, 1.35994696617126460000e+000) (85, 1.37424278259277340000e+000) (86, 1.12622714042663570000e+000) (87, 1.04127037525177000000e+000) (88, 1.08446586132049560000e+000) (89, 9.23779666423797610000e-001) (90, 8.25801849365234380000e-001) (91, 9.50930714607238770000e-001) (92, 9.52380418777465820000e-001) (93, 8.83959889411926270000e-001) (94, 9.60139214992523190000e-001) (95, 7.75277256965637210000e-001) (96, 8.03698420524597170000e-001) (97, 8.26467931270599370000e-001) (98, 9.76788163185119630000e-001) (99, 8.54117691516876220000e-001) (0, 8.37252140045166020000e-001) (1, 8.92014086246490480000e-001) (2, 8.48938703536987300000e-001) (3, 2.25481078028678890000e-001) (4, 9.82893586158752440000e-001) (5, 9.02523338794708250000e-001) (6, 1.08172976970672610000e+000) (7, 8.29754710197448730000e-001) (8, 1.02956986427307130000e+000) (9, 8.43664050102233890000e-001) (10, 9.02880609035491940000e-001) (11, 9.32628810405731200000e-001) (12, 8.91421675682067870000e-001) (13, 8.37139010429382320000e-001) (14, 8.96826922893524170000e-001) (15, 9.90062654018402100000e-001) (16, 9.57704722881317140000e-001) (17, 9.43089008331298830000e-001) (18, 1.10718572139739990000e+000) (19, 1.43295753002166750000e+000) (20, 1.22883415222167970000e+000) (21, 1.30744481086730960000e+000) (22, 1.16336750984191890000e+000) (23, 8.65545094013214110000e-001) (24, 8.45806896686553960000e-001) (25, 9.40261840820312500000e-001) (26, 9.44366395473480220000e-001) (27, 9.70538020133972170000e-001) (28, 9.63553309440612790000e-001) (29, 1.02404034137725830000e+000) (30, 7.11930274963378910000e-001) (31, 6.41336321830749510000e-001) (32, 6.08256638050079350000e-001) (33, 9.01722550392150880000e-001) (34, 1.07466602325439450000e+000) (35, 1.25366020202636720000e+000) (36, 1.08088040351867680000e+000) (37, 1.09905493259429930000e+000) (38, 1.05827713012695310000e+000) (39, 1.11114764213562010000e+000) (40, 1.12018394470214840000e+000) (41, 1.02567541599273680000e+000) (42, 9.06524538993835450000e-001) (43, 8.32453906536102290000e-001) (44, 8.85725736618041990000e-001) (45, 8.65305006504058840000e-001) (46, 9.19843316078186040000e-001) (47, 7.60751605033874510000e-001) (48, 7.55646407604217530000e-001) (49, 8.22358191013336180000e-001) (50, 7.25920677185058590000e-001) (51, -1.84014403820037840000e+000) (52, 7.38700270652771000000e-001) (53, 9.09913539886474610000e-001) (54, 1.03165459632873540000e+000) (55, 8.02715122699737550000e-001) (56, 8.21181237697601320000e-001) (57, 9.00267958641052250000e-001) (58, 8.56648564338684080000e-001) (59, 8.96326959133148190000e-001) (60, 9.72734749317169190000e-001) (61, 1.00032603740692140000e+000) (62, 9.00595068931579590000e-001) (63, 1.00237584114074710000e+000) (64, 1.02142739295959470000e+000) (65, 1.04269826412200930000e+000) (66, 7.24530577659606930000e-001) (67, 8.40782403945922850000e-001) (68, 8.65611374378204350000e-001) (69, 9.28572475910186770000e-001) (70, 8.89094114303588870000e-001) (71, 8.01550745964050290000e-001) (72, 8.83210003376007080000e-001) (73, 1.01883029937744140000e+000) (74, 8.81290078163146970000e-001) (75, 1.08272552490234370000e+000) (76, 9.12819325923919680000e-001) (77, 1.01432979106903080000e+000) (78, 1.24116909503936770000e+000) (79, 1.11442041397094730000e+000) (80, 1.09666943550109860000e+000) (81, 1.01007199287414550000e+000) (82, 1.13618397712707520000e+000) (83, 1.38861095905303960000e+000) (84, 1.47614848613739010000e+000) (85, 1.02355623245239260000e+000) (86, 1.06963431835174560000e+000) (87, 1.04633343219757080000e+000) (88, 8.32622170448303220000e-001) (89, 8.84731471538543700000e-001) (90, 9.53213334083557130000e-001) (91, 8.85433197021484380000e-001) (92, 9.06197905540466310000e-001) (93, 9.08510088920593260000e-001) (94, 8.13933432102203370000e-001) (95, 9.21307206153869630000e-001) (96, 9.29322361946105960000e-001) (97, 9.50493574142456050000e-001) (98, 8.96442830562591550000e-001) (99, 1.00336158275604250000e+000) (0, 1.62518378347158430000e-002) (1, 9.79454815387725830000e-002) (2, 1.09560310840606690000e-001) (3, -1.37001007795333860000e-001) (4, -1.87156915664672850000e-001) (5, -2.50284769572317600000e-003) (6, 1.30835399031639100000e-002) (7, 3.53876091539859770000e-002) (8, 1.57443672418594360000e-001) (9, 1.03008918464183810000e-001) (10, 1.55564725399017330000e-001) (11, 1.13051667809486390000e-001) (12, 2.21238628029823300000e-001) (13, 5.33106364309787750000e-002) (14, 1.00311584770679470000e-001) (15, -1.21411122381687160000e-002) (16, 8.47975760698318480000e-002) (17, -5.38705103099346160000e-002) (18, -6.32919967174530030000e-002) (19, 1.89662754535675050000e-001) (20, 1.18364095687866210000e-001) (21, 3.30067388713359830000e-002) (22, 1.13358616828918460000e-001) (23, -3.65123711526393890000e-002) (24, 3.21261323988437650000e-002) (25, 2.77957282960414890000e-002) (26, -6.32735341787338260000e-002) (27, -2.19899326562881470000e-001) (28, -1.52442261576652530000e-001) (29, -1.18605382740497590000e-001) (30, -6.20176851749420170000e-001) (31, -5.78862845897674560000e-001) (32, -5.76443970203399660000e-001) (33, -1.48266136646270750000e-001) (34, -2.13487707078456880000e-002) (35, 7.06180408596992490000e-002) (36, 2.97648999840021130000e-002) (37, 3.66087406873703000000e-002) (38, 1.12247914075851440000e-001) (39, -3.51185910403728490000e-002) (40, 9.16255116462707520000e-002) (41, 5.73426624760031700000e-003) (42, 1.08054570853710170000e-001) (43, 2.48670969158411030000e-002) (44, 2.14420855045318600000e-002) (45, 1.78338602185249330000e-001) (46, 5.64230047166347500000e-002) (47, 1.66814640164375310000e-001) (48, 1.47239521145820620000e-001) (49, 2.73799031972885130000e-001) (50, 6.27127289772033690000e-002) (51, -1.07558928430080410000e-001) (52, -8.81172046065330510000e-002) (53, -3.10020446777343750000e-002) (54, -1.16932399570941930000e-001) (55, -1.49455279111862180000e-001) (56, 2.29556724661961200000e-004) (57, 1.35514676570892330000e-001) (58, 1.27611920237541200000e-001) (59, 1.40130341053009030000e-001) (60, 1.58201634883880620000e-001) (61, -9.64723527431488040000e-002) (62, -5.82004431635141370000e-003) (63, -1.64826571941375730000e-001) (64, -2.21044987440109250000e-001) (65, -1.53549477458000180000e-001) (66, -2.13558241724967960000e-001) (67, 7.63507653027772900000e-003) (68, 3.51080261170864110000e-002) (69, -2.12615635246038440000e-002) (70, 7.30157643556594850000e-002) (71, 1.51875317096710210000e-002) (72, -4.34113889932632450000e-002) (73, -7.22918957471847530000e-002) (74, -7.39344581961631770000e-002) (75, -9.38127487897872920000e-002) (76, -8.15715193748474120000e-002) (77, 3.83343384601175790000e-003) (78, 3.92314232885837550000e-002) (79, 4.98157441616058350000e-002) (80, 5.64844794571399690000e-002) (81, 1.38239055871963500000e-001) (82, 1.56244840472936630000e-002) (83, -2.07521812990307810000e-003) (84, 5.40074147284030910000e-002) (85, 1.40399515628814700000e-001) (86, 1.07240162789821620000e-001) (87, -8.86215828359127040000e-003) (88, 1.87972299754619600000e-002) (89, -3.17665748298168180000e-002) (90, 1.49903818964958190000e-001) (91, 1.31544664502143860000e-001) (92, 7.16797634959220890000e-002) (93, -4.62450720369815830000e-002) (94, 1.56678538769483570000e-002) (95, 2.46259227395057680000e-001) (96, 3.20941567420959470000e-001) (97, -1.71551164239645000000e-002) (98, -1.27840805798769000000e-002) (99, -1.03502526879310610000e-001) (0, 4.35904152691364290000e-002) (1, -1.27882398664951320000e-002) (2, 3.87989468872547150000e-002) (3, -3.70945632457733150000e-002) (4, -5.59151694178581240000e-002) (5, -9.29336622357368470000e-002) (6, 4.14477474987506870000e-002) (7, 6.28321617841720580000e-002) (8, 1.03359874337911610000e-002) (9, -3.46771143376827240000e-002) (10, 1.20869679376482960000e-002) (11, -1.18974119424819950000e-001) (12, -6.49667829275131230000e-002) (13, 4.22569317743182180000e-003) (14, -1.37325718998909000000e-001) (15, -6.25314936041831970000e-003) (16, -7.83930495381355290000e-002) (17, -5.59820532798767090000e-002) (18, -3.22159789502620700000e-002) (19, 1.19235739111900330000e-001) (20, 1.91222578287124630000e-001) (21, 1.12472940236330030000e-002) (22, -1.50401368737220760000e-001) (23, -2.30083554983139040000e-001) (24, -1.36454701423645020000e-001) (25, 1.10963925719261170000e-001) (26, 4.49792817234992980000e-002) (27, -6.22419752180576320000e-002) (28, 6.27380460500717160000e-002) (29, 5.92418238520622250000e-002) (30, -1.63063064217567440000e-001) (31, -1.05276957154273990000e-001) (32, -3.68797689676284790000e-001) (33, -8.09726044535636900000e-002) (34, 1.92750114947557450000e-002) (35, -1.29782902076840400000e-002) (36, 1.40729442238807680000e-001) (37, -1.78229548037052150000e-002) (38, 1.26563459634780880000e-001) (39, 1.54573777690529820000e-002) (40, -7.07854144275188450000e-003) (41, -1.36244120076298710000e-002) (42, 6.79032728075981140000e-002) (43, -1.06867648661136630000e-001) (44, 2.75859404355287550000e-002) (45, -7.92289152741432190000e-002) (46, -8.15505310893058780000e-002) (47, -5.86505122482776640000e-002) (48, 3.68654988706111910000e-002) (49, 1.11050657927989960000e-001) (50, 5.87979564443230630000e-003) (51, 2.49058771878480910000e-002) (52, -2.20543667674064640000e-002) (53, -7.11278095841407780000e-002) (54, -7.60669931769371030000e-002) (55, -4.73237968981266020000e-003) (56, 5.66949881613254550000e-003) (57, 1.82024203240871430000e-002) (58, -1.14300809800624850000e-001) (59, 1.82009376585483550000e-002) (60, -6.04122877120971680000e-002) (61, 8.92561972141265870000e-002) (62, 3.51955145597457890000e-002) (63, 6.41673728823661800000e-002) (64, -4.83320131897926330000e-002) (65, -1.13819569349288940000e-001) (66, 1.08365140855312350000e-001) (67, 3.40282507240772250000e-002) (68, -1.21066175401210780000e-001) (69, -3.39857310056686400000e-001) (70, -2.49716609716415410000e-001) (71, -1.84024751186370850000e-001) (72, -2.28181436657905580000e-001) (73, -8.70763510465621950000e-002) (74, -1.98023896664381030000e-002) (75, -1.21578760445117950000e-001) (76, 5.23077994585037230000e-002) (77, -3.81660342216491700000e-001) (78, -1.58069413155317310000e-002) (79, 1.29455834627151490000e-001) (80, 1.85638144612312320000e-001) (81, 3.00080720335245130000e-002) (82, -2.93694715946912770000e-002) (83, 9.93351936340332030000e-002) (84, 6.61133378744125370000e-002) (85, 5.31919524073600770000e-002) (86, 8.91192555427551270000e-002) (87, 7.89424702525138850000e-002) (88, 7.08006247878074650000e-002) (89, 7.52996606752276420000e-003) (90, 5.15110753476619720000e-002) (91, -1.17384292185306550000e-001) (92, 9.27606597542762760000e-002) (93, 7.89446681737899780000e-002) (94, -6.60341754555702210000e-002) (95, -6.63688778877258300000e-002) (96, -7.71617069840431210000e-002) (97, 1.45385749638080600000e-002) (98, 1.57735329121351240000e-002) (99, -3.45230312086641790000e-003) (0, 4.11144718527793880000e-002) (1, -4.08795922994613650000e-002) (2, 5.56916780769824980000e-002) (3, -4.49043922126293180000e-002) (4, -8.65319669246673580000e-002) (5, -3.56969647109508510000e-002) (6, -8.31361766904592510000e-003) (7, 1.05361029505729680000e-001) (8, 1.32929325103759770000e-001) (9, 9.28839296102523800000e-002) (10, 9.97930988669395450000e-002) (11, 1.17205075919628140000e-001) (12, -1.64563134312629700000e-001) (13, -7.77315124869346620000e-002) (14, -8.12138393521308900000e-002) (15, -1.40283659100532530000e-001) (16, 2.17904732562601570000e-003) (17, -1.07203796505928040000e-001) (18, -1.03252045810222630000e-001) (19, 1.32794141769409180000e-001) (20, 1.06352992355823520000e-001) (21, 5.38114309310913090000e-002) (22, 4.62186112999916080000e-002) (23, -1.70465260744094850000e-002) (24, 7.99958184361457820000e-002) (25, 4.58416193723678590000e-002) (26, -3.18608805537223820000e-002) (27, -7.33501464128494260000e-002) (28, -3.14937606453895570000e-002) (29, -1.09994625672698020000e-002) (30, -6.00243449211120610000e-001) (31, -6.08167707920074460000e-001) (32, -5.01256525516510010000e-001) (33, -1.08455806970596310000e-001) (34, -7.59111046791076660000e-002) (35, 2.46003866195678710000e-002) (36, 3.64258140325546260000e-002) (37, 2.65878941863775250000e-002) (38, -4.38811443746089940000e-002) (39, -1.06122806668281560000e-001) (40, -9.16633829474449160000e-002) (41, 1.37425856664776800000e-002) (42, -2.46371850371360780000e-002) (43, -1.40553206205368040000e-001) (44, -1.18297874927520750000e-001) (45, -7.96094611287117000000e-002) (46, -1.15141212940216060000e-001) (47, -1.31990298628807070000e-001) (48, 1.36689260601997380000e-001) (49, -3.52856218814849850000e-002) (50, 5.52769787609577180000e-002) (51, -6.41443580389022830000e-002) (52, -2.27827448397874830000e-002) (53, -1.83518484234809880000e-001) (54, -7.41105899214744570000e-002) (55, -1.75367861986160280000e-001) (56, 8.44364985823631290000e-002) (57, 1.04663044214248660000e-001) (58, 5.46419881284236910000e-002) (59, 1.90370142459869380000e-001) (60, 2.97739766538143160000e-002) (61, 1.17031149566173550000e-001) (62, 1.54553204774856570000e-001) (63, -1.35195091366767880000e-001) (64, -2.81285997480154040000e-002) (65, -1.02102711796760560000e-001) (66, -1.55758827924728390000e-001) (67, -7.41833448410034180000e-002) (68, 5.24666607379913330000e-002) (69, 3.28615494072437290000e-002) (70, -1.29955768585205080000e-001) (71, -3.26938107609748840000e-002) (72, 3.56924459338188170000e-002) (73, -8.44254642724990840000e-002) (74, -4.24932837486267090000e-002) (75, -1.27949655055999760000e-001) (76, -1.75394088029861450000e-001) (77, -1.59272775053977970000e-001) (78, 9.72350388765335080000e-002) (79, 1.30502149462699890000e-001) (80, 3.82591001689434050000e-002) (81, -3.91494743525981900000e-002) (82, 2.27371100336313250000e-002) (83, 5.55005762726068500000e-003) (84, 3.23586515150964260000e-003) (85, -6.74854964017868040000e-002) (86, 7.84808918833732600000e-002) (87, -9.02395171578973530000e-004) (88, -6.94185588508844380000e-003) (89, 4.64364029467105870000e-002) (90, -9.10952016711235050000e-002) (91, 7.11755082011222840000e-003) (92, -2.58805472403764720000e-002) (93, -6.06287270784378050000e-002) (94, -3.45674459822475910000e-003) (95, -1.54148221015930180000e-001) (96, -9.57238003611564640000e-002) (97, -3.84640544652938840000e-002) (98, -2.71367616951465610000e-002) (99, -8.39359909296035770000e-002) (0, 4.53071802854537960000e-001) (1, 3.17676812410354610000e-001) (2, 4.81677830219268800000e-001) (3, 4.29494947195053100000e-001) (4, 3.53245288133621220000e-001) (5, 4.83366996049880980000e-001) (6, 3.40790539979934690000e-001) (7, 2.83303946256637570000e-001) (8, 3.49826484918594360000e-001) (9, 3.01463276147842410000e-001) (10, 3.22316855192184450000e-001) (11, 3.65279108285903930000e-001) (12, 2.96362966299057010000e-001) (13, 4.14067059755325320000e-001) (14, 2.92911618947982790000e-001) (15, 4.26124811172485350000e-001) (16, 4.82722818851470950000e-001) (17, 6.25354409217834470000e-001) (18, 5.93565940856933590000e-001) (19, 6.08089148998260500000e-001) (20, 5.15690982341766360000e-001) (21, 5.05826056003570560000e-001) (22, 3.99402797222137450000e-001) (23, 3.91166776418685910000e-001) (24, 3.43629509210586550000e-001) (25, 2.76541590690612790000e-001) (26, 4.66601312160491940000e-001) (27, 4.41411852836608890000e-001) (28, 3.43696027994155880000e-001) (29, 4.54433470964431760000e-001) (30, 2.51419067382812500000e-001) (31, 3.77489984035491940000e-001) (32, 2.95990824699401860000e-001) (33, 4.87393051385879520000e-001) (34, 4.00309562683105470000e-001) (35, 5.38861572742462160000e-001) (36, 5.58275341987609860000e-001) (37, 7.35719621181488040000e-001) (38, 6.39700829982757570000e-001) (39, 5.86639106273651120000e-001) (40, 5.48879325389862060000e-001) (41, 3.88254284858703610000e-001) (42, 4.96566206216812130000e-001) (43, 4.18681472539901730000e-001) (44, 3.98654758930206300000e-001) (45, 2.90552973747253420000e-001) (46, 3.37094902992248540000e-001) (47, 3.45557749271392820000e-001) (48, 3.46103936433792110000e-001) (49, 3.44052225351333620000e-001) (50, 2.98552781343460080000e-001) (51, 4.04126077890396120000e-001) (52, 4.14249211549758910000e-001) (53, 4.70385104417800900000e-001) (54, 5.12987852096557620000e-001) (55, 4.00954782962799070000e-001) (56, 3.35918307304382320000e-001) (57, 4.41843777894973750000e-001) (58, 3.17032307386398320000e-001) (59, 3.20413202047348020000e-001) (60, 4.36247259378433230000e-001) (61, 3.94579678773880000000e-001) (62, 4.84368413686752320000e-001) (63, 5.26405751705169680000e-001) (64, 4.63629096746444700000e-001) (65, 5.05594313144683840000e-001) (66, 3.91306906938552860000e-001) (67, 4.48492884635925290000e-001) (68, 2.85383284091949460000e-001) (69, 4.10255134105682370000e-001) (70, 5.06968498229980470000e-001) (71, 4.15448278188705440000e-001) (72, 4.37444657087326050000e-001) (73, 3.69765460491180420000e-001) (74, 3.70196878910064700000e-001) (75, 3.42417538166046140000e-001) (76, 3.90901416540145870000e-001) (77, 4.09938067197799680000e-001) (78, 6.27147912979125980000e-001) (79, 5.37694394588470460000e-001) (80, 6.49153113365173340000e-001) (81, 6.16219878196716310000e-001) (82, 5.06404221057891850000e-001) (83, 6.43298804759979250000e-001) (84, 6.19890272617340090000e-001) (85, 5.21251916885375980000e-001) (86, 5.25946974754333500000e-001) (87, 3.85786503553390500000e-001) (88, 4.36861217021942140000e-001) (89, 4.54651117324829100000e-001) (90, 3.71426850557327270000e-001) (91, 4.28438246250152590000e-001) (92, 4.55972224473953250000e-001) (93, 3.84756803512573240000e-001) (94, 3.63407343626022340000e-001) (95, 3.39244723320007320000e-001) (96, 3.30288499593734740000e-001) (97, 3.06073307991027830000e-001) (98, 3.23689490556716920000e-001) (99, 3.11640977859497070000e-001) (0, -5.40650308132171630000e-001) (1, -5.95890820026397710000e-001) (2, 2.19877496361732480000e-001) (3, 1.76720738410949710000e-001) (4, -2.42463350296020510000e-002) (5, -8.85148793458938600000e-002) (6, -1.43139168620109560000e-001) (7, 1.06255754828453060000e-001) (8, 4.24573160707950590000e-002) (9, 2.33955219388008120000e-001) (10, 1.84782162308692930000e-001) (11, 5.80568499863147740000e-002) (12, 2.60600656270980830000e-001) (13, 1.00299067795276640000e-001) (14, 2.19155028462409970000e-001) (15, 1.28833740949630740000e-001) (16, 1.86058372259140010000e-001) (17, 1.77013292908668520000e-001) (18, 1.19921527802944180000e-001) (19, 2.94674903154373170000e-001) (20, 3.86709481477737430000e-001) (21, 2.46304586529731750000e-001) (22, -5.35207033157348630000e-001) (23, -5.72086930274963380000e-001) (24, -5.51447272300720210000e-001) (25, -6.51310384273529050000e-001) (26, -4.86535802483558650000e-002) (27, -6.64900317788124080000e-002) (28, -5.13547301292419430000e-001) (29, -1.06911726295948030000e-001) (30, 4.16851937770843510000e-001) (31, 3.93627017736434940000e-001) (32, 3.26310575008392330000e-001) (33, -2.54094541072845460000e-001) (34, -4.57191675901412960000e-001) (35, 2.92399376630783080000e-001) (36, 3.17854583263397220000e-001) (37, 3.36056172847747800000e-001) (38, 3.48571628332138060000e-001) (39, 2.88767814636230470000e-001) (40, 2.28244930505752560000e-001) (41, 9.60575491189956670000e-002) (42, 1.63096219301223750000e-001) (43, 2.57275581359863280000e-001) (44, 9.91981327533721920000e-002) (45, 2.09561347961425780000e-001) (46, 1.14900492131710050000e-001) (47, 1.43865138292312620000e-001) (48, 1.04100875556468960000e-001) (49, 1.61803349852561950000e-001) (50, -1.53968092054128650000e-002) (51, 6.25640293583273890000e-003) (52, -3.76529060304164890000e-003) (53, -1.12893521785736080000e-001) (54, -1.92295342683792110000e-001) (55, 1.67161703109741210000e-001) (56, 8.82257148623466490000e-002) (57, 1.68756023049354550000e-001) (58, 1.60342633724212650000e-001) (59, 2.47343763709068300000e-001) (60, 1.94836482405662540000e-001) (61, -5.82777678966522220000e-001) (62, -6.99234366416931150000e-001) (63, -5.97135066986083980000e-001) (64, -1.87376603484153750000e-001) (65, -1.39341637492179870000e-001) (66, -6.14375531673431400000e-001) (67, -7.33150422573089600000e-001) (68, -6.78875505924224850000e-001) (69, -3.45678776502609250000e-001) (70, -3.59820038080215450000e-001) (71, -2.15489342808723450000e-001) (72, -6.74611449241638180000e-001) (73, -6.73137784004211430000e-001) (74, -5.70320069789886470000e-001) (75, -6.21049463748931880000e-001) (76, -8.00905704498291020000e-001) (77, -2.97915369272232060000e-001) (78, 3.64207297563552860000e-001) (79, 4.29322689771652220000e-001) (80, 4.16778653860092160000e-001) (81, 2.23311275243759160000e-001) (82, 2.55766302347183230000e-001) (83, 2.16472983360290530000e-001) (84, 4.30685281753540040000e-001) (85, 1.94147661328315730000e-001) (86, 1.89349398016929630000e-001) (87, 2.01109409332275390000e-001) (88, 2.89238333702087400000e-001) (89, 3.04779320955276490000e-001) (90, 2.12864160537719730000e-001) (91, 1.37564659118652340000e-001) (92, 2.07484722137451170000e-001) (93, 5.43315298855304720000e-002) (94, -7.20370226190425460000e-005) (95, 1.74558371305465700000e-001) (96, 2.48339965939521790000e-001) (97, -6.02681841701269150000e-003) (98, -6.64785325527191160000e-001) (99, -5.60443282127380370000e-001) (0, -3.33704464137554170000e-002) (1, -7.49765858054161070000e-002) (2, 2.01252773404121400000e-001) (3, 4.62728500366210940000e-001) (4, -9.75435078144073490000e-002) (5, -4.32937704026699070000e-002) (6, -1.05938792228698730000e-001) (7, 3.99530827999114990000e-002) (8, -1.35396599769592290000e-001) (9, 6.13398812711238860000e-002) (10, -3.91903668642044070000e-002) (11, 1.49543955922126770000e-001) (12, -1.03581510484218600000e-002) (13, 1.04983381927013400000e-001) (14, 9.43368971347808840000e-002) (15, -5.13601377606391910000e-002) (16, 3.63884828984737400000e-002) (17, 4.13413904607295990000e-003) (18, -1.65047079324722290000e-001) (19, 2.97071523964405060000e-002) (20, -5.33363334834575650000e-002) (21, -1.40076447278261180000e-002) (22, 1.08518138527870180000e-001) (23, 4.26614321768283840000e-002) (24, 3.93545441329479220000e-002) (25, 2.73412521928548810000e-002) (26, 6.64456635713577270000e-002) (27, -2.34926149249076840000e-001) (28, 4.30651396512985230000e-001) (29, -6.03219419717788700000e-002) (30, 8.91276821494102480000e-003) (31, -1.63886874914169310000e-001) (32, -2.03061670064926150000e-001) (33, -1.42044737935066220000e-001) (34, -1.00055761635303500000e-001) (35, 8.30019712448120120000e-002) (36, -2.10822746157646180000e-002) (37, 8.04098322987556460000e-002) (38, -7.95721635222435000000e-002) (39, -6.83048292994499210000e-002) (40, 9.98214334249496460000e-002) (41, 9.00154039263725280000e-002) (42, 2.54831705242395400000e-002) (43, 5.41681833565235140000e-002) (44, 1.76008734852075580000e-002) (45, 6.95920512080192570000e-002) (46, -4.19301688671112060000e-002) (47, 2.71977353841066360000e-002) (48, 1.60311266779899600000e-001) (49, -2.32033175416290760000e-003) (50, 1.44922286272048950000e-001) (51, -4.26179051399230960000e-001) (52, 2.06240743398666380000e-001) (53, -1.33784756064414980000e-001) (54, 3.95282730460166930000e-002) (55, -9.09386500716209410000e-002) (56, 1.49211108684539790000e-001) (57, -4.60718832910060880000e-002) (58, 3.63667681813240050000e-002) (59, 1.65642037987709050000e-001) (60, 2.82905071973800660000e-001) (61, 3.42096269130706790000e-001) (62, 2.96158939599990840000e-001) (63, -2.40574851632118230000e-001) (64, -1.16037949919700620000e-001) (65, -5.10554537177085880000e-002) (66, -4.28925864398479460000e-002) (67, -1.47380505222827200000e-003) (68, 2.80717834830284120000e-002) (69, 4.18724790215492250000e-002) (70, 3.45622864551842210000e-003) (71, -3.00068929791450500000e-002) (72, 6.20533339679241180000e-002) (73, -1.61630094051361080000e-001) (74, -1.43386900424957280000e-001) (75, -1.42906516790390010000e-001) (76, -6.83562830090522770000e-002) (77, -8.76328125596046450000e-002) (78, -3.48630584776401520000e-002) (79, 9.64723229408264160000e-002) (80, -1.64922848343849180000e-002) (81, 1.57112423330545430000e-002) (82, -9.32712480425834660000e-002) (83, 3.66566181182861330000e-002) (84, -6.13371608778834340000e-003) (85, -1.53317749500274660000e-001) (86, 7.02323913574218750000e-002) (87, -7.28618800640106200000e-002) (88, 9.64790806174278260000e-002) (89, -5.22234216332435610000e-002) (90, 2.37222000956535340000e-001) (91, 1.43338680267333980000e-001) (92, 1.22664377093315120000e-001) (93, 3.24040204286575320000e-002) (94, -1.80045757442712780000e-002) (95, -1.83478649705648420000e-002) (96, 7.34894424676895140000e-002) (97, 4.63995300233364110000e-002) (98, -1.11707054078578950000e-001) (99, -1.81425541639328000000e-001) (0, -6.37476086616516110000e-001) (1, -5.05358695983886720000e-001) (2, -5.03598034381866460000e-001) (3, 3.45150157809257510000e-002) (4, -1.96660444140434270000e-001) (5, -6.62266537547111510000e-002) (6, 2.20612660050392150000e-002) (7, -1.45511433482170100000e-001) (8, -4.00113552808761600000e-001) (9, -5.34565448760986330000e-001) (10, -6.72051727771759030000e-001) (11, -5.19641816616058350000e-001) (12, -4.46643888950347900000e-001) (13, -5.16087174415588380000e-001) (14, -5.41184544563293460000e-001) (15, -4.94695127010345460000e-001) (16, 1.63190394639968870000e-001) (17, 1.68617382645606990000e-001) (18, 1.77020326256752010000e-001) (19, 5.04840195178985600000e-001) (20, 6.91708028316497800000e-001) (21, -4.50198426842689510000e-002) (22, -7.35959827899932860000e-001) (23, -6.09941720962524410000e-001) (24, -5.90475499629974370000e-001) (25, -3.30540448427200320000e-001) (26, -4.85627412796020510000e-001) (27, -1.66190683841705320000e-001) (28, -3.95071297883987430000e-001) (29, -4.38167065382003780000e-001) (30, -6.62449523806571960000e-002) (31, 3.86985242366790770000e-002) (32, -1.14874742925167080000e-001) (33, -1.38374820351600650000e-001) (34, -3.38597744703292850000e-001) (35, 7.87743806838989260000e-001) (36, 7.86376178264617920000e-001) (37, 5.61275422573089600000e-001) (38, 5.54047107696533200000e-001) (39, 4.97908592224121090000e-002) (40, 1.23622655868530270000e-001) (41, 8.10314789414405820000e-002) (42, -5.11957108974456790000e-001) (43, -5.54444193840026860000e-001) (44, -3.91274541616439820000e-001) (45, -4.82217907905578610000e-001) (46, -6.60626530647277830000e-001) (47, -5.33655166625976560000e-001) (48, -4.58641737699508670000e-001) (49, -5.70782601833343510000e-001) (50, -3.62814128398895260000e-001) (51, 1.08265459537506100000e-001) (52, -6.71001225709915160000e-002) (53, -1.21173135936260220000e-001) (54, -2.32269942760467530000e-001) (55, -1.90609529614448550000e-001) (56, -3.92998486757278440000e-001) (57, -3.80959838628768920000e-001) (58, -5.48528790473937990000e-001) (59, -3.91961842775344850000e-001) (60, -3.07491749525070190000e-001) (61, -3.35477948188781740000e-001) (62, -2.75990039110183720000e-001) (63, -5.30472218990325930000e-001) (64, -4.12375241518020630000e-001) (65, -5.19741892814636230000e-001) (66, -5.80066680908203130000e-001) (67, -4.53739434480667110000e-001) (68, -7.28714287281036380000e-001) (69, -8.16026091575622560000e-001) (70, -6.76401317119598390000e-001) (71, -5.84409058094024660000e-001) (72, -6.45482897758483890000e-001) (73, -4.92179572582244870000e-001) (74, -4.99348789453506470000e-001) (75, -5.10709285736083980000e-001) (76, -6.96591675281524660000e-001) (77, -7.78736293315887450000e-001) (78, 6.11309647560119630000e-001) (79, 7.43664681911468510000e-001) (80, 7.16534733772277830000e-001) (81, 1.44779846072196960000e-001) (82, 2.09293678402900700000e-001) (83, -5.15912510454654690000e-002) (84, 8.28991711139678960000e-001) (85, 7.19462484121322630000e-002) (86, 1.25007983297109600000e-002) (87, -8.02285671234130860000e-002) (88, -5.56032299995422360000e-001) (89, -5.27067303657531740000e-001) (90, -5.01870393753051760000e-001) (91, -3.36080849170684810000e-001) (92, -4.39425706863403320000e-001) (93, -3.80377709865570070000e-001) (94, -3.94593268632888790000e-001) (95, -5.37398457527160640000e-001) (96, -3.68719577789306640000e-001) (97, -5.20549893379211430000e-001) (98, 5.59090152382850650000e-002) (99, -5.59320986270904540000e-001) (0, -3.90581935644149780000e-001) (1, -3.45199525356292720000e-001) (2, 5.03268912434577940000e-002) (3, -8.46874192357063290000e-002) (4, -7.78862386941909790000e-002) (5, 6.14821203052997590000e-002) (6, -1.22058577835559840000e-002) (7, -1.80894240736961360000e-001) (8, -2.89005637168884280000e-001) (9, -2.34010130167007450000e-001) (10, -5.45609951019287110000e-001) (11, 3.47275771200656890000e-002) (12, 6.09481669962406160000e-002) (13, -8.24326947331428530000e-002) (14, 6.52036964893341060000e-002) (15, -8.06000307202339170000e-002) (16, 2.85964198410511020000e-002) (17, -2.74084415286779400000e-002) (18, 1.11197963356971740000e-001) (19, 6.61591947078704830000e-001) (20, -5.48318445682525630000e-001) (21, -1.66244730353355410000e-001) (22, -2.79272943735122680000e-001) (23, -1.65108188986778260000e-001) (24, -1.17850072681903840000e-001) (25, -2.26319402456283570000e-001) (26, 1.54418274760246280000e-001) (27, 6.93796481937170030000e-003) (28, -5.16935706138610840000e-001) (29, -1.10693104565143590000e-001) (30, 6.37578740715980530000e-002) (31, 2.00897399336099620000e-002) (32, 1.74789518117904660000e-001) (33, 8.16978514194488530000e-002) (34, -3.08256536722183230000e-001) (35, -4.93007868528366090000e-001) (36, -4.03806388378143310000e-001) (37, 6.00027859210968020000e-001) (38, 6.74125254154205320000e-001) (39, -2.12997421622276310000e-002) (40, 2.81665567308664320000e-002) (41, 5.29316663742065430000e-002) (42, -1.49728404358029370000e-002) (43, 5.97106963396072390000e-002) (44, 6.78115412592887880000e-002) (45, 3.63667756319046020000e-002) (46, -4.25265282392501830000e-001) (47, -4.85195338726043700000e-001) (48, -7.19035370275378230000e-003) (49, -5.59252977371215820000e-001) (50, -4.14182096719741820000e-001) (51, -7.03955292701721190000e-002) (52, 1.33185401558876040000e-001) (53, -1.04824289679527280000e-001) (54, 3.55397835373878480000e-002) (55, -1.49445235729217530000e-001) (56, -2.82478153705596920000e-001) (57, -4.16798382997512820000e-001) (58, -4.77935746312141420000e-002) (59, -2.22250111401081090000e-002) (60, -2.36256182193756100000e-001) (61, -2.96026974916458130000e-001) (62, -2.95285582542419430000e-001) (63, -5.85152208805084230000e-001) (64, 2.94505860656499860000e-002) (65, -7.71727710962295530000e-002) (66, -6.09604001045227050000e-001) (67, -4.44343864917755130000e-001) (68, -5.20984649658203130000e-001) (69, -6.69973015785217290000e-001) (70, -6.16659224033355710000e-001) (71, -2.11678504943847660000e-001) (72, -4.81413006782531740000e-001) (73, -3.22725296020507810000e-001) (74, -1.65741249918937680000e-001) (75, -2.27749764919281010000e-001) (76, -2.75343209505081180000e-001) (77, -6.46714389324188230000e-001) (78, 5.42862236499786380000e-001) (79, 7.38178491592407230000e-001) (80, 8.26308250427246090000e-001) (81, 7.71889463067054750000e-004) (82, 4.60417643189430240000e-002) (83, 4.91071939468383790000e-002) (84, 8.03601980209350590000e-001) (85, 8.46232250332832340000e-002) (86, 9.48938950896263120000e-002) (87, 7.77724310755729680000e-002) (88, -1.24233625829219820000e-002) (89, -2.37664952874183650000e-002) (90, 7.05367177724838260000e-002) (91, 1.83914671652019020000e-003) (92, -2.69655615091323850000e-001) (93, -3.47605139017105100000e-001) (94, -5.49678206443786620000e-001) (95, 1.12927913665771480000e-001) (96, -4.41878512501716610000e-002) (97, 8.80928058177232740000e-003) (98, -1.07306696474552150000e-001) (99, -4.89980369806289670000e-001) (0, 1.72449983656406400000e-002) (1, 