FANN_FLO_2.1
num_layers=5
learning_rate=0.700000
connection_rate=1.000000
network_type=0
learning_momentum=0.000000
training_algorithm=2
train_error_function=0
train_stop_function=0
cascade_output_change_fraction=0.010000
quickprop_decay=-0.000100
quickprop_mu=1.750000
rprop_increase_factor=1.200000
rprop_decrease_factor=0.500000
rprop_delta_min=0.000000
rprop_delta_max=50.000000
rprop_delta_zero=0.100000
cascade_output_stagnation_epochs=12
cascade_candidate_change_fraction=0.010000
cascade_candidate_stagnation_epochs=12
cascade_max_out_epochs=150
cascade_min_out_epochs=50
cascade_max_cand_epochs=150
cascade_min_cand_epochs=50
cascade_num_candidate_groups=2
bit_fail_limit=3.49999994039535520000e-001
cascade_candidate_limit=1.00000000000000000000e+003
cascade_weight_multiplier=4.00000005960464480000e-001
cascade_activation_functions_count=10
cascade_activation_functions=3 5 7 8 10 11 14 15 16 17 
cascade_activation_steepnesses_count=4
cascade_activation_steepnesses=2.50000000000000000000e-001 5.00000000000000000000e-001 7.50000000000000000000e-001 1.00000000000000000000e+000 
layer_sizes=100 76 52 28 2 
scale_included=0
neurons (num_inputs, activation_function, activation_steepness)=(0, 0, 0.00000000000000000000e+000) (0, 0, 0.00000000000000000000e+000) (0, 0, 0.00000000000000000000e+000) (0, 0, 0.00000000000000000000e+000) (0, 0, 0.00000000000000000000e+000) (0, 0, 0.00000000000000000000e+000) (0, 0, 0.00000000000000000000e+000) (0, 0, 0.00000000000000000000e+000) (0, 0, 0.00000000000000000000e+000) (0, 0, 0.00000000000000000000e+000) (0, 0, 0.00000000000000000000e+000) (0, 0, 0.00000000000000000000e+000) (0, 0, 0.00000000000000000000e+000) (0, 0, 0.00000000000000000000e+000) (0, 0, 0.00000000000000000000e+000) (0, 0, 0.00000000000000000000e+000) (0, 0, 0.00000000000000000000e+000) (0, 0, 0.00000000000000000000e+000) (0, 0, 0.00000000000000000000e+000) (0, 0, 0.00000000000000000000e+000) (0, 0, 0.00000000000000000000e+000) (0, 0, 0.00000000000000000000e+000) (0, 0, 0.00000000000000000000e+000) (0, 0, 0.00000000000000000000e+000) (0, 0, 0.00000000000000000000e+000) (0, 0, 0.00000000000000000000e+000) (0, 0, 0.00000000000000000000e+000) (0, 0, 0.00000000000000000000e+000) (0, 0, 0.00000000000000000000e+000) (0, 0, 0.00000000000000000000e+000) (0, 0, 0.00000000000000000000e+000) (0, 0, 0.00000000000000000000e+000) (0, 0, 0.00000000000000000000e+000) (0, 0, 0.00000000000000000000e+000) (0, 0, 0.00000000000000000000e+000) (0, 0, 0.00000000000000000000e+000) (0, 0, 0.00000000000000000000e+000) (0, 0, 0.00000000000000000000e+000) (0, 0, 0.00000000000000000000e+000) (0, 0, 0.00000000000000000000e+000) (0, 0, 0.00000000000000000000e+000) (0, 0, 0.00000000000000000000e+000) (0, 0, 0.00000000000000000000e+000) (0, 0, 0.00000000000000000000e+000) (0, 0, 0.00000000000000000000e+000) (0, 0, 0.00000000000000000000e+000) (0, 0, 0.00000000000000000000e+000) (0, 0, 0.00000000000000000000e+000) (0, 0, 0.00000000000000000000e+000) (0, 0, 0.00000000000000000000e+000) (0, 0, 0.00000000000000000000e+000) (0, 0, 0.00000000000000000000e+000) (0, 0, 0.00000000000000000000e+000) (0, 0, 0.00000000000000000000e+000) (0, 0, 0.00000000000000000000e+000) (0, 0, 0.00000000000000000000e+000) (0, 0, 0.00000000000000000000e+000) (0, 0, 0.00000000000000000000e+000) (0, 0, 0.00000000000000000000e+000) (0, 0, 0.00000000000000000000e+000) (0, 0, 0.00000000000000000000e+000) (0, 0, 0.00000000000000000000e+000) (0, 0, 0.00000000000000000000e+000) (0, 0, 0.00000000000000000000e+000) (0, 0, 0.00000000000000000000e+000) (0, 0, 0.00000000000000000000e+000) (0, 0, 0.00000000000000000000e+000) (0, 0, 0.00000000000000000000e+000) (0, 0, 0.00000000000000000000e+000) (0, 0, 0.00000000000000000000e+000) (0, 0, 0.00000000000000000000e+000) (0, 0, 0.00000000000000000000e+000) (0, 0, 0.00000000000000000000e+000) (0, 0, 0.00000000000000000000e+000) (0, 0, 0.00000000000000000000e+000) (0, 0, 0.00000000000000000000e+000) (0, 0, 0.00000000000000000000e+000) (0, 0, 0.00000000000000000000e+000) (0, 0, 0.00000000000000000000e+000) (0, 0, 0.00000000000000000000e+000) (0, 0, 0.00000000000000000000e+000) (0, 0, 0.00000000000000000000e+000) (0, 0, 0.00000000000000000000e+000) (0, 0, 0.00000000000000000000e+000) (0, 0, 0.00000000000000000000e+000) (0, 0, 0.00000000000000000000e+000) (0, 0, 0.00000000000000000000e+000) (0, 0, 0.00000000000000000000e+000) (0, 0, 0.00000000000000000000e+000) (0, 0, 0.00000000000000000000e+000) (0, 0, 0.00000000000000000000e+000) (0, 0, 0.00000000000000000000e+000) (0, 0, 0.00000000000000000000e+000) (0, 0, 0.00000000000000000000e+000) (0, 0, 0.00000000000000000000e+000) (0, 0, 0.00000000000000000000e+000) (0, 0, 0.00000000000000000000e+000) (0, 0, 0.00000000000000000000e+000) (0, 0, 0.00000000000000000000e+000) (0, 0, 0.00000000000000000000e+000) (100, 11, 5.00000000000000000000e-001) (100, 11, 5.00000000000000000000e-001) (100, 11, 5.00000000000000000000e-001) (100, 11, 5.00000000000000000000e-001) (100, 11, 5.00000000000000000000e-001) (100, 11, 5.00000000000000000000e-001) (100, 11, 5.00000000000000000000e-001) (100, 11, 5.00000000000000000000e-001) (100, 11, 5.00000000000000000000e-001) (100, 11, 5.00000000000000000000e-001) (100, 11, 5.00000000000000000000e-001) (100, 11, 5.00000000000000000000e-001) (100, 11, 5.00000000000000000000e-001) (100, 11, 5.00000000000000000000e-001) (100, 11, 5.00000000000000000000e-001) (100, 11, 5.00000000000000000000e-001) (100, 11, 5.00000000000000000000e-001) (100, 11, 5.00000000000000000000e-001) (100, 11, 5.00000000000000000000e-001) (100, 11, 5.00000000000000000000e-001) (100, 11, 5.00000000000000000000e-001) (100, 11, 5.00000000000000000000e-001) (100, 11, 5.00000000000000000000e-001) (100, 11, 5.00000000000000000000e-001) (100, 11, 5.00000000000000000000e-001) (100, 11, 5.00000000000000000000e-001) (100, 11, 5.00000000000000000000e-001) (100, 11, 5.00000000000000000000e-001) (100, 11, 5.00000000000000000000e-001) (100, 11, 5.00000000000000000000e-001) (100, 11, 5.00000000000000000000e-001) (100, 11, 5.00000000000000000000e-001) (100, 11, 5.00000000000000000000e-001) (100, 11, 5.00000000000000000000e-001) (100, 11, 5.00000000000000000000e-001) (100, 11, 5.00000000000000000000e-001) (100, 11, 5.00000000000000000000e-001) (100, 11, 5.00000000000000000000e-001) (100, 11, 5.00000000000000000000e-001) (100, 11, 5.00000000000000000000e-001) (100, 11, 5.00000000000000000000e-001) (100, 11, 5.00000000000000000000e-001) (100, 11, 5.00000000000000000000e-001) (100, 11, 5.00000000000000000000e-001) (100, 11, 5.00000000000000000000e-001) (100, 11, 5.00000000000000000000e-001) (100, 11, 5.00000000000000000000e-001) (100, 11, 5.00000000000000000000e-001) (100, 11, 5.00000000000000000000e-001) (100, 11, 5.00000000000000000000e-001) (100, 11, 5.00000000000000000000e-001) (100, 11, 5.00000000000000000000e-001) (100, 11, 5.00000000000000000000e-001) (100, 11, 5.00000000000000000000e-001) (100, 11, 5.00000000000000000000e-001) (100, 11, 5.00000000000000000000e-001) (100, 11, 5.00000000000000000000e-001) (100, 11, 5.00000000000000000000e-001) (100, 11, 5.00000000000000000000e-001) (100, 11, 5.00000000000000000000e-001) (100, 11, 5.00000000000000000000e-001) (100, 11, 5.00000000000000000000e-001) (100, 11, 5.00000000000000000000e-001) (100, 11, 5.00000000000000000000e-001) (100, 11, 5.00000000000000000000e-001) (100, 11, 5.00000000000000000000e-001) (100, 11, 5.00000000000000000000e-001) (100, 11, 5.00000000000000000000e-001) (100, 11, 5.00000000000000000000e-001) (100, 11, 5.00000000000000000000e-001) (100, 11, 5.00000000000000000000e-001) (100, 11, 5.00000000000000000000e-001) (100, 11, 5.00000000000000000000e-001) (100, 11, 5.00000000000000000000e-001) (100, 11, 5.00000000000000000000e-001) (0, 11, 5.00000000000000000000e-001) (76, 11, 5.00000000000000000000e-001) (76, 11, 5.00000000000000000000e-001) (76, 11, 5.00000000000000000000e-001) (76, 11, 5.00000000000000000000e-001) (76, 11, 5.00000000000000000000e-001) (76, 11, 5.00000000000000000000e-001) (76, 11, 5.00000000000000000000e-001) (76, 11, 5.00000000000000000000e-001) (76, 11, 5.00000000000000000000e-001) (76, 11, 5.00000000000000000000e-001) (76, 11, 5.00000000000000000000e-001) (76, 11, 5.00000000000000000000e-001) (76, 11, 5.00000000000000000000e-001) (76, 11, 5.00000000000000000000e-001) (76, 11, 5.00000000000000000000e-001) (76, 11, 5.00000000000000000000e-001) (76, 11, 5.00000000000000000000e-001) (76, 11, 5.00000000000000000000e-001) (76, 11, 5.00000000000000000000e-001) (76, 11, 5.00000000000000000000e-001) (76, 11, 5.00000000000000000000e-001) (76, 11, 5.00000000000000000000e-001) (76, 11, 5.00000000000000000000e-001) (76, 11, 5.00000000000000000000e-001) (76, 11, 5.00000000000000000000e-001) (76, 11, 5.00000000000000000000e-001) (76, 11, 5.00000000000000000000e-001) (76, 11, 5.00000000000000000000e-001) (76, 11, 5.00000000000000000000e-001) (76, 11, 5.00000000000000000000e-001) (76, 11, 5.00000000000000000000e-001) (76, 11, 5.00000000000000000000e-001) (76, 11, 5.00000000000000000000e-001) (76, 11, 5.00000000000000000000e-001) (76, 11, 5.00000000000000000000e-001) (76, 11, 5.00000000000000000000e-001) (76, 11, 5.00000000000000000000e-001) (76, 11, 5.00000000000000000000e-001) (76, 11, 5.00000000000000000000e-001) (76, 11, 5.00000000000000000000e-001) (76, 11, 5.00000000000000000000e-001) (76, 11, 5.00000000000000000000e-001) (76, 11, 5.00000000000000000000e-001) (76, 11, 5.00000000000000000000e-001) (76, 11, 5.00000000000000000000e-001) (76, 11, 5.00000000000000000000e-001) (76, 11, 5.00000000000000000000e-001) (76, 11, 5.00000000000000000000e-001) (76, 11, 5.00000000000000000000e-001) (76, 11, 5.00000000000000000000e-001) (76, 11, 5.00000000000000000000e-001) (0, 11, 5.00000000000000000000e-001) (52, 11, 5.00000000000000000000e-001) (52, 11, 5.00000000000000000000e-001) (52, 11, 5.00000000000000000000e-001) (52, 11, 5.00000000000000000000e-001) (52, 11, 5.00000000000000000000e-001) (52, 11, 5.00000000000000000000e-001) (52, 11, 5.00000000000000000000e-001) (52, 11, 5.00000000000000000000e-001) (52, 11, 5.00000000000000000000e-001) (52, 11, 5.00000000000000000000e-001) (52, 11, 5.00000000000000000000e-001) (52, 11, 5.00000000000000000000e-001) (52, 11, 5.00000000000000000000e-001) (52, 11, 5.00000000000000000000e-001) (52, 11, 5.00000000000000000000e-001) (52, 11, 5.00000000000000000000e-001) (52, 11, 5.00000000000000000000e-001) (52, 11, 5.00000000000000000000e-001) (52, 11, 5.00000000000000000000e-001) (52, 11, 5.00000000000000000000e-001) (52, 11, 5.00000000000000000000e-001) (52, 11, 5.00000000000000000000e-001) (52, 11, 5.00000000000000000000e-001) (52, 11, 5.00000000000000000000e-001) (52, 11, 5.00000000000000000000e-001) (52, 11, 5.00000000000000000000e-001) (52, 11, 5.00000000000000000000e-001) (0, 11, 5.00000000000000000000e-001) (28, 6, 5.00000000000000000000e-001) (0, 6, 5.00000000000000000000e-001) 
connections (connected_to_neuron, weight)=(0, 6.71182036399841310000e-001) (1, 8.66545140743255620000e-001) (2, 8.09147000312805180000e-001) (3, 1.11626615524291990000e+001) (4, 2.03162527084350590000e+000) (5, 1.41623452305793760000e-001) (6, 1.06130935251712800000e-001) (7, 2.36474022269248960000e-001) (8, 1.92910328507423400000e-001) (9, 5.11576652526855470000e-001) (10, 5.72079837322235110000e-001) (11, 5.23192703723907470000e-001) (12, 4.11689013242721560000e-001) (13, 5.06827652454376220000e-001) (14, 5.32067060470581050000e-001) (15, 5.29930830001831050000e-001) (16, 4.98864054679870610000e-001) (17, 4.31851595640182500000e-001) (18, 8.44425797462463380000e-001) (19, 1.88947248458862300000e+000) (20, 2.50468969345092770000e+000) (21, 5.75119924545288090000e+000) (22, 1.97863693237304690000e+001) (23, 2.35837535858154300000e+001) (24, 2.51787605285644530000e+001) (25, 1.11751461029052730000e+001) (26, 1.62638378143310550000e+001) (27, 2.40220718383789060000e+001) (28, 7.77888488769531250000e+002) (29, 7.76153015136718750000e+002) (30, 4.46702117919921870000e+002) (31, 4.79520492553710940000e+001) (32, 1.86282253265380860000e+001) (33, 1.59461565017700200000e+001) (34, 1.09660558700561520000e+001) (35, 5.15209102630615230000e+000) (36, 2.30157303810119630000e+000) (37, 1.19041740894317630000e+000) (38, 1.59963262081146240000e+000) (39, 8.60491096973419190000e-001) (40, 6.92410409450531010000e-001) (41, 6.66981935501098630000e-001) (42, 3.79150331020355220000e-001) (43, 4.99740362167358400000e-001) (44, 4.24359381198883060000e-001) (45, 3.96847009658813480000e-001) (46, 5.33749341964721680000e-001) (47, 5.92401981353759770000e+000) (48, 6.94740371704101560000e+001) (49, 4.32770538330078130000e+001) (50, 5.01486930847167970000e+001) (51, 2.09730684757232670000e-001) (52, -1.33730232715606690000e+000) (53, -1.47289093017578120000e+002) (54, 1.28534942865371700000e-001) (55, 1.29872530698776250000e-001) (56, 2.71594703197479250000e-001) (57, 4.73929196596145630000e-001) (58, 6.20977878570556640000e-001) (59, 5.91323912143707280000e-001) (60, 9.01058614253997800000e-001) (61, 1.02030313014984130000e+000) (62, 8.30419003963470460000e-001) (63, 8.59735548496246340000e-001) (64, 1.17350983619689940000e+000) (65, 2.62108922004699710000e+000) (66, 2.62588930130004880000e+000) (67, 3.05628347396850590000e+000) (68, 6.55410766601562500000e+000) (69, 1.28404006958007810000e+001) (70, 2.97472858428955080000e+000) (71, 5.83491516113281250000e+000) (72, 2.59785342216491700000e+000) (73, 2.27612948417663570000e+000) (74, 1.32390081882476810000e+000) (75, 1.78220129013061520000e+000) (76, 1.52360606193542480000e+000) (77, 1.68611025810241700000e+000) (78, 1.91636061668396000000e+000) (79, 1.32793927192687990000e+000) (80, 2.19542169570922850000e+000) (81, 2.21686816215515140000e+000) (82, 2.21063041687011720000e+000) (83, 1.22634220123291020000e+000) (84, 1.17589652538299560000e+000) (85, 2.97429418563842770000e+000) (86, 3.12105584144592290000e+000) (87, 2.65148138999938960000e+000) (88, 1.46779346466064450000e+000) (89, 1.19793736934661870000e+000) (90, 1.24055397510528560000e+000) (91, 9.84402596950531010000e-001) (92, 9.20429527759552000000e-001) (93, 7.95111179351806640000e-001) (94, 7.06734478473663330000e-001) (95, 3.37326145172119140000e+000) (96, 3.22093444824218750000e+002) (97, 9.18676948547363280000e+000) (98, 4.63901090621948240000e+000) (99, 1.64030306041240690000e-002) (0, 4.64195996522903440000e-001) (1, -1.34035584051162000000e-003) (2, 9.58520412445068360000e-001) (3, -5.51136922836303710000e+000) (4, 1.17883005142211910000e+001) (5, 1.91047000885009770000e+001) (6, 9.79740083217620850000e-001) (7, 1.25245893001556400000e+000) (8, 1.12263369560241700000e+000) (9, 9.74085748195648190000e-001) (10, 1.22144663333892820000e+000) (11, 5.17648696899414060000e-001) (12, 7.32995092868804930000e-001) (13, 7.82263636589050290000e-001) (14, 7.15075254440307620000e-001) (15, 8.12477469444274900000e-001) (16, 7.50314712524414060000e-001) (17, 4.09850716590881350000e-001) (18, 4.20066595077514650000e-001) (19, -3.61340977251529690000e-002) (20, -1.24258518218994140000e-001) (21, -3.45965959131717680000e-002) (22, -4.97184127569198610000e-001) (23, -6.40342831611633300000e-001) (24, -6.23225152492523190000e-001) (25, -1.14043496549129490000e-001) (26, -1.06960954144597050000e-002) (27, -8.68725180625915530000e-001) (28, -1.49247336387634280000e+000) (29, -1.48059666156768800000e+000) (30, -1.34269392490386960000e+000) (31, -8.06564509868621830000e-001) (32, -8.21613013744354250000e-001) (33, -7.08281219005584720000e-001) (34, 3.27053032815456390000e-002) (35, -7.77056664228439330000e-002) (36, -1.22227795422077180000e-001) (37, -4.86770570278167720000e-002) (38, 4.74128313362598420000e-002) (39, 5.60203790664672850000e-002) (40, 3.51659446954727170000e-001) (41, 5.82078695297241210000e-001) (42, 7.63367950916290280000e-001) (43, 6.76548004150390630000e-001) (44, 1.16755962371826170000e+000) (45, 1.08074128627777100000e+000) (46, 1.16123247146606450000e+000) (47, 9.26305711269378660000e-001) (48, -2.34979414939880370000e+000) (49, 9.13126945495605470000e-001) (50, -6.43876552581787110000e-001) (51, -2.34220719337463380000e+000) (52, -3.54113191366195680000e-001) (53, -2.00287914276123050000e+000) (54, -1.83266773819923400000e-001) (55, 1.10229539871215820000e+000) (56, 8.41916680335998540000e-001) (57, 1.01406693458557130000e+000) (58, 1.07466351985931400000e+000) (59, 4.62913602590560910000e-001) (60, 9.04640078544616700000e-001) (61, 1.03268377482891080000e-001) (62, 3.95908057689666750000e-001) (63, 3.70533228851854800000e-003) (64, 1.27732902765274050000e-001) (65, 8.83169472217559810000e-003) (66, 3.72297056019306180000e-002) (67, -7.17267096042633060000e-002) (68, -2.20471099019050600000e-002) (69, -1.09814837574958800000e-001) (70, -1.35254204273223880000e-001) (71, 2.65797227621078490000e-002) (72, -1.31516858935356140000e-001) (73, -1.61151997745037080000e-002) (74, -9.85718052834272380000e-003) (75, -6.33390545845031740000e-002) (76, -7.26449266076087950000e-002) (77, 2.78381276875734330000e-002) (78, -6.71511068940162660000e-002) (79, -6.10379176214337350000e-003) (80, -6.92681074142456050000e-002) (81, -1.40782803297042850000e-001) (82, -1.09575718641281130000e-001) (83, -1.81901846081018450000e-002) (84, -5.39737567305564880000e-003) (85, 2.49323807656764980000e-003) (86, -6.28011748194694520000e-002) (87, -1.08017452061176300000e-001) (88, -4.00914922356605530000e-002) (89, 2.22058687359094620000e-002) (90, 4.81828987598419190000e-001) (91, 1.07599711418151860000e+000) (92, 1.05295705795288090000e+000) (93, 1.02699160575866700000e+000) (94, 1.06231999397277830000e+000) (95, 9.21888768672943120000e-001) (96, -1.02657628059387210000e+000) (97, 5.05705237388610840000e-001) (98, 2.70684242248535160000e-001) (99, 1.05410003662109370000e+000) (0, 5.82322359085083010000e-001) (1, 5.37931621074676510000e-001) (2, 1.19342529773712160000e+000) (3, -2.20246338844299320000e+000) (4, 2.57388085126876830000e-001) (5, 1.27065968513488770000e+000) (6, 1.41125559806823730000e+000) (7, 1.18114304542541500000e+000) (8, 1.15794134140014650000e+000) (9, 1.17046427726745610000e+000) (10, 1.16854465007781980000e+000) (11, 8.26299607753753660000e-001) (12, 9.98657226562500000000e-001) (13, 9.96049821376800540000e-001) (14, 1.25799584388732910000e+000) (15, 1.14333307743072510000e+000) (16, 1.16879212856292720000e+000) (17, 6.20364725589752200000e-001) (18, 5.99116384983062740000e-001) (19, -9.41662713885307310000e-002) (20, -2.55991488695144650000e-001) (21, -1.34041473269462590000e-001) (22, -5.50313651561737060000e-001) (23, -6.87956809997558590000e-001) (24, -5.13307631015777590000e-001) (25, -2.11706355214118960000e-001) (26, -6.32291555404663090000e-001) (27, -9.84553456306457520000e-001) (28, -1.01541686058044430000e+000) (29, -9.47735071182250980000e-001) (30, -9.81778860092163090000e-001) (31, -1.00813949108123780000e+000) (32, -9.10977065563201900000e-001) (33, -6.85819268226623540000e-001) (34, -2.28948071599006650000e-001) (35, -1.82341381907463070000e-001) (36, -2.20738276839256290000e-001) (37, -1.72349870204925540000e-001) (38, -8.78040269017219540000e-002) (39, 5.94545781612396240000e-001) (40, 6.20605468750000000000e-001) (41, 9.56829547882080080000e-001) (42, 9.23483848571777340000e-001) (43, 1.01115942001342770000e+000) (44, 8.49436402320861820000e-001) (45, 1.12014913558959960000e+000) (46, 8.12538444995880130000e-001) (47, -1.14502811431884770000e+000) (48, -6.74208211898803710000e+000) (49, 3.79941433668136600000e-001) (50, 1.01781451702117920000e+000) (51, 3.35625231266021730000e-001) (52, 4.25131142139434810000e-001) (53, 3.05362629890441890000e+000) (54, 3.88984791934490200000e-002) (55, 1.11572289466857910000e+000) (56, -2.03872442245483400000e-001) (57, 1.00995576381683350000e+000) (58, 1.14623820781707760000e+000) (59, 1.52435648441314700000e+000) (60, 3.57543349266052250000e-001) (61, 5.02762854099273680000e-001) (62, 7.57460474967956540000e-001) (63, 3.46869200468063350000e-001) (64, -2.12426736950874330000e-001) (65, -2.46776148676872250000e-001) (66, -1.41560509800910950000e-001) (67, -2.65784442424774170000e-001) (68, -2.06297561526298520000e-001) (69, -2.45709329843521120000e-001) (70, -1.24827094376087190000e-001) (71, -2.01755926012992860000e-001) (72, -1.62733182311058040000e-001) (73, -2.79636889696121220000e-001) (74, -1.71637490391731260000e-001) (75, 2.26477056741714480000e-001) (76, 3.79775285720825200000e-001) (77, 3.97749543190002440000e-001) (78, 3.96895468235015870000e-001) (79, -1.32750451564788820000e-001) (80, -1.87400206923484800000e-001) (81, -1.66584983468055730000e-001) (82, -1.74241557717323300000e-001) (83, -2.63216823339462280000e-001) (84, -2.74601787328720090000e-001) (85, -1.62873879075050350000e-001) (86, -2.16090992093086240000e-001) (87, -8.46526548266410830000e-002) (88, -1.01440638303756710000e-001) (89, -5.78506737947463990000e-002) (90, 4.15928065776824950000e-001) (91, 7.52406239509582520000e-001) (92, 7.82846271991729740000e-001) (93, 1.16181659698486330000e+000) (94, 1.05882489681243900000e+000) (95, 5.15104055404663090000e-001) (96, -2.31220126152038570000e+000) (97, 1.72737407684326170000e+000) (98, 7.09734797477722170000e-001) (99, 1.13594026565551760000e+001) (0, 3.05745387077331540000e+000) (1, 3.14297866821289060000e+000) (2, 2.78765201568603520000e+000) (3, 6.53810262680053710000e-001) (4, 8.45493793487548830000e-001) (5, 5.47936260700225830000e-001) (6, 9.50506269931793210000e-001) (7, 9.05496537685394290000e-001) (8, 1.72028076648712160000e+000) (9, 1.74536824226379390000e+000) (10, 1.67668271064758300000e+000) (11, 1.84257137775421140000e+000) (12, 1.88557076454162600000e+000) (13, 2.90700674057006840000e+000) (14, 3.12156677246093750000e+000) (15, 3.47174310684204100000e+000) (16, 3.60511565208435060000e+000) (17, 3.57641196250915530000e+000) (18, 3.89569520950317380000e+000) (19, 2.47611832618713380000e+000) (20, 2.05383107066154480000e-001) (21, 7.77611956000328060000e-002) (22, -2.76590399444103240000e-002) (23, -5.87227232754230500000e-002) (24, 7.19102203845977780000e-001) (25, 3.13851267099380490000e-001) (26, -5.44724473729729650000e-003) (27, -6.18495750427246090000e+000) (28, -7.90932512283325200000e+000) (29, -7.86004018783569340000e+000) (30, -6.13104104995727540000e+000) (31, -6.28315877914428710000e+000) (32, -4.13871669769287110000e+000) (33, -4.67479705810546870000e+000) (34, 5.07606305181980130000e-002) (35, 2.50524103641510010000e-001) (36, 1.29755795001983640000e-001) (37, 1.93145847320556640000e+000) (38, 2.21357703208923340000e+000) (39, 1.04611358642578120000e+001) (40, 3.26478219032287600000e+000) (41, 3.30983090400695800000e+000) (42, 3.02218484878540040000e+000) (43, 2.78983664512634280000e+000) (44, 2.63770461082458500000e+000) (45, 2.58470034599304200000e+000) (46, 1.64597344398498540000e+000) (47, 8.97299051284790040000e-001) (48, -3.04196023941040040000e+000) (49, 1.05073130130767820000e+000) (50, 8.15465867519378660000e-001) (51, 8.64697277545928960000e-001) (52, 9.58988666534423830000e-001) (53, 1.36558508872985840000e+000) (54, 5.20118594169616700000e-001) (55, 9.72461163997650150000e-001) (56, 1.68181264400482180000e+000) (57, 1.63333845138549800000e+000) (58, 1.67461860179901120000e+000) (59, 1.67868232727050780000e+000) (60, 1.56772685050964360000e+000) (61, 1.09370172023773190000e+000) (62, 1.22832143306732180000e+000) (63, -4.54333215951919560000e-001) (64, 3.53543162345886230000e-001) (65, 6.06634616851806640000e-002) (66, 2.07660086452960970000e-002) (67, 3.61005604267120360000e-001) (68, 4.46974068880081180000e-001) (69, 4.45817857980728150000e-001) (70, 5.70827424526214600000e-001) (71, 7.03400373458862300000e-002) (72, 4.74121570587158200000e-002) (73, 1.45077705383300780000e-001) (74, 5.10592877864837650000e-001) (75, 1.51763927936553960000e+000) (76, 2.16226053237915040000e+000) (77, 2.03511166572570800000e+000) (78, 1.41027557849884030000e+000) (79, 1.82453587651252750000e-001) (80, 1.60456016659736630000e-001) (81, 4.58651453256607060000e-001) (82, 4.11908537149429320000e-001) (83, 2.45395272970199580000e-001) (84, 2.66912221908569340000e-001) (85, -1.73770748078823090000e-002) (86, 2.14805573225021360000e-001) (87, -6.82899495586752890000e-003) (88, -4.34894114732742310000e-003) (89, 9.61160212755203250000e-002) (90, 2.33435362577438350000e-001) (91, 8.94852280616760250000e-001) (92, 1.25246262550354000000e+000) (93, 9.92620527744293210000e-001) (94, 1.59042143821716310000e+000) (95, 1.59539842605590820000e+000) (96, -1.59313321113586430000e+000) (97, 1.61845648288726810000e+000) (98, 1.00156652927398680000e+000) (99, 3.83449387550354000000e+000) (0, 6.56258940696716310000e-001) (1, 8.85819971561431880000e-001) (2, 7.46647477149963380000e-001) (3, 2.54644470214843750000e+001) (4, 2.14016461372375490000e+000) (5, 1.86038717627525330000e-001) (6, 1.39943242073059080000e-001) (7, 7.86650255322456360000e-002) (8, 2.77823626995086670000e-001) (9, 5.54203629493713380000e-001) (10, 4.25174325704574580000e-001) (11, 4.72521334886550900000e-001) (12, 4.83173370361328130000e-001) (13, 3.98026704788208010000e-001) (14, 5.49340009689331050000e-001) (15, 3.82055014371871950000e-001) (16, 5.00957667827606200000e-001) (17, 5.39255023002624510000e-001) (18, 7.43588387966156010000e-001) (19, 1.80702018737792970000e+000) (20, 2.36863017082214360000e+000) (21, 6.02917003631591800000e+000) (22, 1.99073219299316410000e+001) (23, 2.36729507446289060000e+001) (24, 2.51362743377685550000e+001) (25, 1.11397724151611330000e+001) (26, 1.63819103240966800000e+001) (27, 5.78068847656250000000e+001) (28, 1.01255224609375000000e+003) (29, 1.00804412841796870000e+003) (30, 7.36515136718750000000e+002) (31, 1.15237075805664060000e+002) (32, 3.91693458557128910000e+001) (33, 3.84950027465820310000e+001) (34, 1.10256595611572270000e+001) (35, 2.29624724388122560000e+000) (36, 2.21726846694946290000e+000) (37, 1.27429795265197750000e+000) (38, 1.55327022075653080000e+000) (39, 9.10326123237609860000e-001) (40, 8.31021130084991460000e-001) (41, 5.25917589664459230000e-001) (42, 5.59886813163757320000e-001) (43, 5.30611932277679440000e-001) (44, 4.49078619480133060000e-001) (45, 4.34774279594421390000e-001) (46, 6.91494524478912350000e-001) (47, 5.69149208068847660000e+000) (48, 6.98944320678710940000e+001) (49, 4.33579483032226560000e+001) (50, 2.10547637939453130000e+001) (51, 8.59758406877517700000e-002) (52, -2.87346303462982180000e-001) (53, -1.47212997436523440000e+002) (54, 3.02094787359237670000e-001) (55, 2.30183869600296020000e-001) (56, 2.12695330381393430000e-001) (57, 6.22135341167449950000e-001) (58, 5.13077259063720700000e-001) (59, 6.64537072181701660000e-001) (60, 8.00375044345855710000e-001) (61, 9.14869189262390140000e-001) (62, 9.08885776996612550000e-001) (63, 1.27378630638122560000e+000) (64, 1.22300934791564940000e+000) (65, 2.69125533103942870000e+000) (66, 2.69222879409790040000e+000) (67, 3.10178184509277340000e+000) (68, 6.59350204467773440000e+000) (69, 1.29836769104003910000e+001) (70, 5.80866241455078120000e+000) (71, 5.93532657623291020000e+000) (72, 2.52320957183837890000e+000) (73, 2.33440804481506350000e+000) (74, 1.40388369560241700000e+000) (75, 1.80439615249633790000e+000) (76, 1.41750860214233400000e+000) (77, 1.72138500213623050000e+000) (78, 1.98149991035461430000e+000) (79, 1.37124609947204590000e+000) (80, 2.32727718353271480000e+000) (81, 2.39569783210754390000e+000) (82, 2.35225868225097660000e+000) (83, 1.24372756481170650000e+000) (84, 1.26729929447174070000e+000) (85, 3.15853762626647950000e+000) (86, 3.15242838859558110000e+000) (87, 2.69261932373046870000e+000) (88, 1.45894944667816160000e+000) (89, 1.31983065605163570000e+000) (90, 1.27156591415405270000e+000) (91, 8.52804660797119140000e-001) (92, 7.76185095310211180000e-001) (93, 8.08972239494323730000e-001) (94, 8.17567646503448490000e-001) (95, 7.07213878631591800000e+000) (96, 3.22060028076171870000e+002) (97, 9.27600860595703120000e+000) (98, 4.58407878875732420000e+000) (99, 3.83939817547798160000e-002) (0, -1.14741839468479160000e-001) (1, -1.12836929038167000000e-002) (2, -1.16085737943649290000e-001) (3, -1.63351058959960940000e-001) (4, -3.06897640228271480000e-001) (5, -1.06142330169677730000e+000) (6, -2.96322762966156010000e-001) (7, -2.73927837610244750000e-001) (8, -1.48539775982499120000e-002) (9, 6.79246336221694950000e-002) (10, 7.70925581455230710000e-002) (11, -4.70087714493274690000e-002) (12, -4.96739111840724950000e-002) (13, -9.38804969191551210000e-002) (14, -3.57492119073867800000e-001) (15, -4.72643524408340450000e-001) (16, -4.82077836990356450000e-001) (17, -1.63529530167579650000e-001) (18, 5.23246452212333680000e-002) (19, 1.05063393712043760000e-001) (20, 8.96570086479187010000e-002) (21, 2.90944296866655350000e-002) (22, 1.04664370417594910000e-001) (23, -1.72872990369796750000e-002) (24, 4.54714968800544740000e-002) (25, 6.57776966691017150000e-002) (26, 2.31883730739355090000e-002) (27, 3.87738533318042760000e-002) (28, 2.88170963525772090000e-001) (29, 3.38107228279113770000e-001) (30, 2.61110007762908940000e-001) (31, 1.28931701183319090000e-001) (32, -3.07527184486389160000e-002) (33, 3.62032540142536160000e-002) (34, 5.52803725004196170000e-002) (35, 5.40513284504413600000e-002) (36, -4.77700792253017430000e-002) (37, 3.00057157874107360000e-002) (38, 7.14917033910751340000e-002) (39, -4.73077520728111270000e-002) (40, 3.81710082292556760000e-002) (41, -1.97610929608345030000e-001) (42, -1.79071411490440370000e-001) (43, -1.68083682656288150000e-001) (44, -3.12358774244785310000e-002) (45, -6.01094886660575870000e-002) (46, 2.22601532936096190000e-001) (47, 1.62928390502929690000e+000) (48, 9.56170618534088130000e-001) (49, 6.87986969947814940000e-001) (50, 5.47734908759593960000e-002) (51, -2.69946694374084470000e-001) (52, -3.28123092651367190000e-001) (53, -3.82484030723571780000e+000) (54, -2.47251480817794800000e-001) (55, -3.20318669080734250000e-001) (56, -1.13319344818592070000e-001) (57, -3.12726646661758420000e-002) (58, -1.72285974025726320000e-001) (59, -1.04166353121399880000e-002) (60, 1.30632854998111720000e-002) (61, 4.28606607019901280000e-002) (62, 5.01033253967761990000e-002) (63, 6.94932341575622560000e-002) (64, 3.83319556713104250000e-002) (65, -1.52475349605083470000e-002) (66, 8.14602971076965330000e-002) (67, -4.89530861377716060000e-002) (68, -5.12834079563617710000e-002) (69, -6.96218907833099370000e-002) (70, -8.26109796762466430000e-002) (71, 1.40512362122535710000e-002) (72, -9.99464690685272220000e-002) (73, 8.48679766058921810000e-002) (74, -8.23945105075836180000e-002) (75, -7.36568942666053770000e-002) (76, -1.12981863319873810000e-001) (77, -1.97968214750289920000e-001) (78, -6.54838606715202330000e-002) (79, 5.53762093186378480000e-002) (80, -3.70836965739727020000e-002) (81, -1.60265341401100160000e-002) (82, -1.58129092305898670000e-002) (83, -1.31933744996786120000e-002) (84, 4.48083318769931790000e-002) (85, 1.92252490669488910000e-002) (86, 1.54537707567214970000e-002) (87, -7.81073793768882750000e-002) (88, -5.40311560034751890000e-002) (89, 4.29601706564426420000e-002) (90, -7.10881426930427550000e-002) (91, -5.00567555427551270000e-002) (92, 2.29393336921930310000e-002) (93, -4.03044708073139190000e-002) (94, 1.33986592292785640000e-001) (95, 6.47928476333618160000e-001) (96, 7.65448808670043950000e-001) (97, 2.83572942018508910000e-001) (98, 1.35860487818717960000e-001) (99, -5.39386352539062500000e+002) (0, 4.88232731819152830000e-001) (1, 5.55500745773315430000e-001) (2, 1.01822125911712650000e+000) (3, -3.07572865486145020000e+000) (4, 2.80743360519409180000e+000) (5, 3.05544605255126950000e+001) (6, 1.14403033256530760000e+000) (7, 1.27433848381042480000e+000) (8, 1.05178487300872800000e+000) (9, 1.09734380245208740000e+000) (10, 1.03834664821624760000e+000) (11, 7.27057814598083500000e-001) (12, 6.94582819938659670000e-001) (13, 7.95856893062591550000e-001) (14, 9.05047535896301270000e-001) (15, 8.19588363170623780000e-001) (16, 4.72784042358398440000e-001) (17, 4.65996772050857540000e-001) (18, 5.69457709789276120000e-001) (19, 1.37276113033294680000e-001) (20, -3.51442307233810420000e-001) (21, -2.72714823484420780000e-001) (22, -3.32081794738769530000e-001) (23, -7.35359072685241700000e-001) (24, -2.74239808320999150000e-001) (25, -2.61240035295486450000e-001) (26, -2.27979585528373720000e-001) (27, -8.73336434364318850000e-001) (28, -7.35165417194366460000e-001) (29, -1.67348957061767580000e+000) (30, -1.51269364356994630000e+000) (31, -4.79622155427932740000e-001) (32, -5.92707335948944090000e-001) (33, -5.76348006725311280000e-001) (34, -3.51882815361022950000e-001) (35, -2.23600730299949650000e-001) (36, -3.48897501826286320000e-002) (37, -4.06755000352859500000e-001) (38, 1.85667127370834350000e-002) (39, 2.21951529383659360000e-001) (40, 5.63041388988494870000e-001) (41, 7.33510911464691160000e-001) (42, 7.64118909835815430000e-001) (43, 8.57803344726562500000e-001) (44, 1.20778667926788330000e+000) (45, 1.07764399051666260000e+000) (46, 7.46764361858367920000e-001) (47, 4.20135647058486940000e-001) (48, -9.12876665592193600000e-001) (49, 8.92086863517761230000e-001) (50, 7.25558876991271970000e-001) (51, -2.27936220169067380000e+000) (52, 3.66722822189331050000e-001) (53, -2.13188838958740230000e+000) (54, -3.48749816417694090000e-001) (55, 1.07086575031280520000e+000) (56, 6.09651923179626460000e-001) (57, 9.21727418899536130000e-001) (58, 9.98512148857116700000e-001) (59, 1.07750213146209720000e+000) (60, 9.42414045333862300000e-001) (61, 9.27583575248718260000e-001) (62, 3.86690258979797360000e-001) (63, 7.60140717029571530000e-002) (64, -6.44644349813461300000e-002) (65, -2.45436169207096100000e-002) (66, -1.45132333040237430000e-001) (67, -1.09851010143756870000e-001) (68, -5.08890822529792790000e-002) (69, -2.08468839526176450000e-001) (70, -2.25822523236274720000e-001) (71, -2.91267752647399900000e-001) (72, -2.44676843285560610000e-001) (73, -2.98740416765213010000e-001) (74, -8.44250693917274480000e-002) (75, 2.93531596660614010000e-001) (76, 2.69398361444473270000e-001) (77, 3.16029280424118040000e-001) (78, 2.47734054923057560000e-001) (79, 2.38941628485918050000e-002) (80, -2.71292060613632200000e-001) (81, -3.35449278354644780000e-001) (82, -3.31326454877853390000e-001) (83, -2.71682858467102050000e-001) (84, -1.47681221365928650000e-001) (85, -1.84674605727195740000e-001) (86, -1.30896121263504030000e-001) (87, 5.29295019805431370000e-002) (88, -4.36309128999710080000e-002) (89, 1.81949347257614140000e-001) (90, 4.98342454433441160000e-001) (91, 7.25006699562072750000e-001) (92, 1.08191525936126710000e+000) (93, 1.04640018939971920000e+000) (94, 9.10905241966247560000e-001) (95, -7.15775191783905030000e-001) (96, -5.28061962127685550000e+000) (97, 5.34774184226989750000e-001) (98, 7.91498899459838870000e-001) (99, 1.83851802349090580000e+000) (0, -5.30374646186828610000e-001) (1, -5.20405590534210210000e-001) (2, -2.56339049339294430000e+000) (3, 1.41131088137626650000e-001) (4, -2.91622191667556760000e-001) (5, -1.99375355243682860000e+000) (6, -2.13891237974166870000e-001) (7, -2.09933161735534670000e-001) (8, -5.27597218751907350000e-002) (9, -9.49101969599723820000e-002) (10, 9.50025767087936400000e-002) (11, -1.06054343283176420000e-001) (12, -2.38448418676853180000e-002) (13, -2.44570821523666380000e-001) (14, -1.79370790719985960000e-001) (15, -2.63356477022171020000e-001) (16, -2.80073821544647220000e-001) (17, -3.14338982105255130000e-001) (18, 6.54929429292678830000e-002) (19, 4.25211116671562190000e-002) (20, -3.22647392749786380000e-002) (21, 7.25546255707740780000e-002) (22, -3.12765575945377350000e-002) (23, 1.24525167047977450000e-002) (24, -1.20768724009394650000e-002) (25, -7.47896730899810790000e-004) (26, 9.32252481579780580000e-002) (27, 2.36334465444087980000e-002) (28, 2.71053999662399290000e-001) (29, 2.03596115112304690000e-001) (30, 2.95242398977279660000e-001) (31, 1.79426595568656920000e-001) (32, 2.63604968786239620000e-001) (33, -1.30890281870961190000e-002) (34, -2.16006785631179810000e-002) (35, -5.63303828239440920000e-002) (36, -4.07612882554531100000e-002) (37, -7.56535455584526060000e-002) (38, -3.40555645525455470000e-002) (39, 4.43503186106681820000e-002) (40, -1.78531885147094730000e-001) (41, -1.83994874358177190000e-001) (42, -7.89896100759506230000e-002) (43, -1.43068850040435790000e-001) (44, -6.29825219511985780000e-002) (45, -7.74384438991546630000e-002) (46, -3.89171876013278960000e-002) (47, 9.61534380912780760000e-001) (48, 2.43021988868713380000e+000) (49, 8.73317182064056400000e-001) (50, 5.38020357489585880000e-002) (51, -2.20648527145385740000e-001) (52, -1.78757190704345700000e-001) (53, -1.95003166198730470000e+001) (54, -3.33228409290313720000e-001) (55, -2.33551770448684690000e-001) (56, -7.22763538360595700000e-002) (57, -6.14300146698951720000e-002) (58, -1.54016330838203430000e-001) (59, -2.57582161575555800000e-002) (60, 5.42328953742980960000e-002) (61, 7.29120969772338870000e-002) (62, -7.89159163832664490000e-002) (63, -8.65840241312980650000e-002) (64, -2.99163591116666790000e-002) (65, -6.09878003597259520000e-002) (66, 3.84377911686897280000e-002) (67, -9.15065128356218340000e-003) (68, 8.26722383499145510000e-002) (69, -4.13937456905841830000e-002) (70, 5.60208559036254880000e-002) (71, 8.38955212384462360000e-003) (72, 6.71509578824043270000e-002) (73, 5.23316562175750730000e-002) (74, -7.18334093689918520000e-002) (75, -1.49363487958908080000e-001) (76, -3.08829933404922490000e-001) (77, -2.44755193591117860000e-001) (78, -1.97505593299865720000e-001) (79, 2.27693561464548110000e-002) (80, 4.65086847543716430000e-003) (81, 8.39617848396301270000e-002) (82, -9.37924534082412720000e-002) (83, 7.99879208207130430000e-002) (84, -8.33167061209678650000e-002) (85, 6.21053092181682590000e-002) (86, -7.22933337092399600000e-002) (87, -7.06461537629365920000e-003) (88, 4.71590310335159300000e-002) (89, 4.75413091480731960000e-002) (90, -3.48127074539661410000e-002) (91, -9.02153626084327700000e-002) (92, -3.28324660658836360000e-002) (93, -1.34290188550949100000e-001) (94, -4.55101206898689270000e-002) (95, 1.54358237981796260000e-001) (96, 1.19366264343261720000e+000) (97, -2.85302642732858660000e-002) (98, -1.36760786175727840000e-001) (99, -4.31542236328125000000e+002) (0, 1.46513593196868900000e+000) (1, 2.76074481010437010000e+000) (2, 2.86759305000305180000e+000) (3, 1.41933789062500000000e+003) (4, 6.26072978973388670000e+000) (5, 2.24090695381164550000e+000) (6, 4.61063861846923830000e+000) (7, 8.15888690948486330000e+000) (8, 7.06829404830932620000e+000) (9, 6.17918920516967770000e+000) (10, 6.21355867385864260000e+000) (11, 1.50202941894531250000e+001) (12, 6.14410161972045900000e+000) (13, 9.60470199584960940000e-001) (14, 7.99509584903717040000e-001) (15, 7.98415839672088620000e-001) (16, 9.03412580490112300000e-001) (17, 1.56231248378753660000e+000) (18, 1.78872251510620120000e+000) (19, 1.00120048522949220000e+001) (20, 1.72734771728515620000e+002) (21, 6.70228027343750000000e+002) (22, 1.20114355468750000000e+003) (23, 1.01192852783203120000e+003) (24, 6.37158081054687500000e+002) (25, 5.88864135742187500000e+002) (26, 5.67893005371093750000e+002) (27, 1.33731579589843750000e+003) (28, 1.44517004394531250000e+003) (29, 1.44395056152343750000e+003) (30, 1.41520642089843750000e+003) (31, 1.25871301269531250000e+003) (32, 1.34093859863281250000e+003) (33, 1.04550866699218750000e+003) (34, 5.09483062744140620000e+002) (35, 2.25385452270507810000e+002) (36, 9.88243637084960940000e+001) (37, 1.93836517333984370000e+001) (38, 7.31607675552368160000e+000) (39, 6.88025331497192380000e+000) (40, 6.97529840469360350000e+000) (41, 3.35587334632873540000e+000) (42, 3.56745290756225590000e+000) (43, 7.70153570175170900000e+000) (44, 1.89276046752929690000e+001) (45, 1.89706707000732420000e+001) (46, 5.28748130798339840000e+001) (47, 8.83830322265625000000e+002) (48, 5.09742919921875000000e+002) (49, 8.52825378417968750000e+002) (50, 9.52587402343750000000e+002) (51, 3.14317443847656250000e+002) (52, 1.99285659790039060000e+002) (53, -1.87872231006622310000e+000) (54, 1.00763158798217770000e+001) (55, 7.77449226379394530000e+000) (56, 1.76360626220703120000e+001) (57, 7.11233854293823240000e+000) (58, 7.20662069320678710000e+000) (59, 7.74394798278808590000e+000) (60, 2.77263088226318360000e+001) (61, 6.05891799926757810000e+001) (62, 4.43909835815429690000e+001) (63, 9.47110671997070310000e+001) (64, 7.62141189575195310000e+001) (65, 1.85797927856445310000e+002) (66, 1.81195724487304690000e+002) (67, 2.14147613525390620000e+002) (68, 2.09655609130859370000e+002) (69, 4.95937805175781250000e+002) (70, 4.84579956054687500000e+002) (71, 5.49016479492187500000e+002) (72, 5.43439819335937500000e+002) (73, 2.66977386474609370000e+002) (74, 2.40695632934570310000e+002) (75, 1.80212163925170900000e+000) (76, 1.69280767440795900000e+000) (77, 1.78255367279052730000e+000) (78, 1.77916526794433590000e+001) (79, 2.16389358520507810000e+002) (80, 2.66948242187500000000e+002) (81, 2.66913879394531250000e+002) (82, 2.66892761230468750000e+002) (83, 2.66156188964843750000e+002) (84, 2.91410430908203120000e+002) (85, 2.49723327636718750000e+002) (86, 2.24392532348632810000e+002) (87, 2.25241119384765620000e+002) (88, 2.10461303710937500000e+002) (89, 8.82924804687500000000e+001) (90, 9.17229156494140630000e+001) (91, 9.31698455810546880000e+001) (92, 3.97498092651367190000e+001) (93, 3.25207481384277340000e+001) (94, 1.77241230010986330000e+001) (95, 8.65250610351562500000e+002) (96, 5.09678527832031250000e+002) (97, 5.09684509277343750000e+002) (98, 8.69325439453125000000e+002) (99, 2.20326408743858340000e-001) (0, 7.07040190696716310000e-001) (1, 7.08775341510772710000e-001) (2, 7.06955015659332280000e-001) (3, 1.10092859268188480000e+001) (4, 2.54173660278320310000e+000) (5, 2.07499563694000240000e-001) (6, 7.86518827080726620000e-002) (7, 2.49628305435180660000e-001) (8, 1.75042092800140380000e-001) (9, 6.33268356323242190000e-001) (10, 4.21311438083648680000e-001) (11, 6.00321412086486820000e-001) (12, 5.93024253845214840000e-001) (13, 4.40244764089584350000e-001) (14, 3.82763028144836430000e-001) (15, 3.75383883714675900000e-001) (16, 5.18682062625885010000e-001) (17, 4.57382619380950930000e-001) (18, 7.81894028186798100000e-001) (19, 1.68251442909240720000e+000) (20, 2.44202160835266110000e+000) (21, 5.66944217681884770000e+000) (22, 2.20620002746582030000e+001) (23, 2.36415672302246090000e+001) (24, 2.44520435333251950000e+001) (25, 1.84924812316894530000e+001) (26, 1.88147525787353520000e+001) (27, 1.48717178344726560000e+002) (28, 7.94170104980468750000e+002) (29, 7.77650451660156250000e+002) (30, 8.05315002441406250000e+002) (31, 6.19763069152832030000e+001) (32, 8.39790954589843750000e+001) (33, 4.42043724060058590000e+001) (34, 6.41422986984252930000e+000) (35, 6.85541772842407230000e+000) (36, 2.07509899139404300000e+000) (37, 1.27676379680633540000e+000) (38, 1.71047484874725340000e+000) (39, 8.33776056766510010000e-001) (40, 7.07821786403656010000e-001) (41, 5.55971145629882810000e-001) (42, 4.83862668275833130000e-001) (43, 5.42602717876434330000e-001) (44, 4.23834443092346190000e-001) (45, 4.60142284631729130000e-001) (46, 6.11085057258605960000e-001) (47, 5.88167953491210940000e+000) (48, 6.94551391601562500000e+001) (49, 2.13548278808593750000e+002) (50, 5.01203536987304690000e+001) (51, 1.51586189866065980000e-001) (52, -8.60779702663421630000e-001) (53, -6.06202964782714840000e+001) (54, 1.52851507067680360000e-001) (55, 1.84488162398338320000e-001) (56, 2.47389346361160280000e-001) (57, 3.70177865028381350000e-001) (58, 5.60697853565216060000e-001) (59, 5.57760477066040040000e-001) (60, 7.90032625198364260000e-001) (61, 8.09740781784057620000e-001) (62, 1.03430783748626710000e+000) (63, 5.00505983829498290000e-001) (64, 1.49782204627990720000e+000) (65, 2.75434660911560060000e+000) (66, 2.98786377906799320000e+000) (67, 2.93136525154113770000e+000) (68, 6.72777938842773440000e+000) (69, 9.86104202270507810000e+000) (70, 6.86267471313476560000e+000) (71, 6.01187038421630860000e+000) (72, 2.62361884117126460000e+000) (73, 2.93051075935363770000e+000) (74, 1.38239753246307370000e+000) (75, 1.96687746047973630000e+000) (76, 1.45117568969726560000e+000) (77, 1.66531205177307130000e+000) (78, 1.86345684528350830000e+000) (79, 1.29653310775756840000e+000) (80, 2.50961327552795410000e+000) (81, 2.28796839714050290000e+000) (82, 1.25927758216857910000e+000) (83, 1.40922427177429200000e+000) (84, 1.35754585266113280000e+000) (85, 1.67752659320831300000e+000) (86, 3.13949465751647950000e+000) (87, 2.64861273765563960000e+000) (88, 1.55173015594482420000e+000) (89, 1.49870705604553220000e+000) (90, 8.76500606536865230000e-001) (91, 9.97988522052764890000e-001) (92, 9.81714010238647460000e-001) (93, 8.82189154624938960000e-001) (94, 7.13909566402435300000e-001) (95, 7.20723676681518550000e+000) (96, 3.22205261230468750000e+002) (97, 1.73199234008789060000e+001) (98, 2.41320729255676270000e+000) (99, 6.25517442822456360000e-002) (0, 8.28626692295074460000e-001) (1, 9.38969075679779050000e-001) (2, 9.48665857315063480000e-001) (3, 2.79062241315841670000e-001) (4, 3.96491467952728270000e-001) (5, 3.93247485160827640000e-001) (6, 3.60428899526596070000e-001) (7, 4.94896501302719120000e-001) (8, 7.63482153415679930000e-001) (9, 7.89813518524169920000e-001) (10, 8.56397926807403560000e-001) (11, 8.87294471263885500000e-001) (12, 8.40741276741027830000e-001) (13, 9.32768881320953370000e-001) (14, 1.02375888824462890000e+000) (15, 8.40144336223602290000e-001) (16, 8.26216638088226320000e-001) (17, 9.93872284889221190000e-001) (18, 9.70109462738037110000e-001) (19, 6.57109737396240230000e-001) (20, 4.34492766857147220000e-001) (21, 4.55992102622985840000e-001) (22, -3.24045598506927490000e-001) (23, -1.21364307403564450000e+000) (24, -9.27965283393859860000e-001) (25, 4.31856751441955570000e-001) (26, 2.86716818809509280000e-001) (27, -2.91254830360412600000e+000) (28, -3.28092908859252930000e+000) (29, -3.25497698783874510000e+000) (30, -3.05993509292602540000e+000) (31, -2.65254926681518550000e+000) (32, -2.94909030199050900000e-001) (33, -7.17365980148315430000e-001) (34, 4.42433238029479980000e-001) (35, 4.98920977115631100000e-001) (36, 5.95537602901458740000e-001) (37, 6.24611556529998780000e-001) (38, 8.51592957973480220000e-001) (39, 7.33781099319458010000e-001) (40, 9.80924367904663090000e-001) (41, 7.93131113052368160000e-001) (42, 8.66391837596893310000e-001) (43, 1.30533182621002200000e+000) (44, 1.27808928489685060000e+000) (45, 8.32297086715698240000e-001) (46, 7.82566428184509280000e-001) (47, 7.18399286270141600000e-001) (48, -2.29001551866531370000e-001) (49, 5.36580860614776610000e-001) (50, 1.92061869893223050000e-003) (51, 4.61420953273773190000e-001) (52, 4.36808347702026370000e-001) (53, 2.58407521247863770000e+000) (54, 6.42835021018981930000e-001) (55, 3.80983233451843260000e-001) (56, 7.55016148090362550000e-001) (57, 9.17430877685546880000e-001) (58, 7.78115689754486080000e-001) (59, 7.95430064201354980000e-001) (60, 7.77742803096771240000e-001) (61, 7.23017394542694090000e-001) (62, 5.51824569702148440000e-001) (63, 4.38970208168029790000e-001) (64, 5.20287513732910160000e-001) (65, 5.24581968784332280000e-001) (66, 6.29922688007354740000e-001) (67, 5.30460715293884280000e-001) (68, 6.12452328205108640000e-001) (69, 4.19884890317916870000e-001) (70, 3.48870486021041870000e-001) (71, 4.35711234807968140000e-001) (72, 4.33355331420898440000e-001) (73, 5.84792733192443850000e-001) (74, 4.23250824213027950000e-001) (75, 6.36463642120361330000e-001) (76, 8.50307226181030270000e-001) (77, 7.28589534759521480000e-001) (78, 5.40960729122161870000e-001) (79, 5.63356280326843260000e-001) (80, 3.99098962545394900000e-001) (81, 3.33389699459075930000e-001) (82, 3.40960681438446040000e-001) (83, 5.98634481430053710000e-001) (84, 4.32435333728790280000e-001) (85, 5.36766052246093750000e-001) (86, 5.92747449874877930000e-001) (87, 5.31532347202301030000e-001) (88, 4.78827178478240970000e-001) (89, 5.56969761848449710000e-001) (90, 4.54016923904418950000e-001) (91, 6.51775300502777100000e-001) (92, 5.50450980663299560000e-001) (93, 6.02951884269714360000e-001) (94, 8.55926930904388430000e-001) (95, 6.66703045368194580000e-001) (96, 3.78887295722961430000e-001) (97, 5.67177176475524900000e-001) (98, 4.99241739511489870000e-001) (99, 4.66880142688751220000e-001) (0, 8.30113053321838380000e-001) (1, 8.06603193283081050000e-001) (2, 8.22401404380798340000e-001) (3, 3.32557767629623410000e-001) (4, 3.95567357540130620000e-001) (5, 3.71521532535552980000e-001) (6, 5.19912838935852050000e-001) (7, 4.59096759557724000000e-001) (8, 7.66846358776092530000e-001) (9, 7.58194148540496830000e-001) (10, 8.76892745494842530000e-001) (11, 8.55220079421997070000e-001) (12, 8.14075589179992680000e-001) (13, 7.92510509490966800000e-001) (14, 8.12112569808959960000e-001) (15, 9.70890104770660400000e-001) (16, 7.71365582942962650000e-001) (17, 9.18467819690704350000e-001) (18, 1.05694389343261720000e+000) (19, 7.97537147998809810000e-001) (20, 3.99699836969375610000e-001) (21, 5.00480949878692630000e-001) (22, 1.17650397121906280000e-001) (23, -3.76809418201446530000e-001) (24, -2.26083531975746150000e-001) (25, 2.00491487979888920000e-001) (26, 9.88919213414192200000e-002) (27, -1.74108123779296870000e+000) (28, -2.77129101753234860000e+000) (29, -2.84707856178283690000e+000) (30, -2.69154238700866700000e+000) (31, -1.84961497783660890000e+000) (32, -1.04151332378387450000e+000) (33, -2.14031195640563960000e+000) (34, 2.61644929647445680000e-001) (35, 4.66947972774505620000e-001) (36, 5.10680019855499270000e-001) (37, 5.65252006053924560000e-001) (38, 1.12852513790130620000e+000) (39, 8.19923162460327150000e-001) (40, 8.82699787616729740000e-001) (41, 8.59449863433837890000e-001) (42, 8.35650503635406490000e-001) (43, 7.37991452217102050000e-001) (44, 8.84106278419494630000e-001) (45, 8.66714715957641600000e-001) (46, 7.07614183425903320000e-001) (47, -2.79501020908355710000e-001) (48, -7.26879644393920900000e+000) (49, -1.35402703285217290000e+000) (50, -8.44337403774261470000e-001) (51, 5.15504121780395510000e-001) (52, 7.52253651618957520000e-001) (53, 2.45406651496887210000e+000) (54, 5.88837683200836180000e-001) (55, 4.83545333147048950000e-001) (56, 8.03150296211242680000e-001) (57, 8.58605444431304930000e-001) (58, 7.27320671081542970000e-001) (59, 7.67810642719268800000e-001) (60, 8.58870148658752440000e-001) (61, 6.31123900413513180000e-001) (62, 5.96292316913604740000e-001) (63, 5.01285552978515630000e-001) (64, 5.86185455322265630000e-001) (65, 5.19853711128234860000e-001) (66, 6.07747972011566160000e-001) (67, 5.90516090393066410000e-001) (68, 4.87378925085067750000e-001) (69, 4.52484786510467530000e-001) (70, 3.20693045854568480000e-001) (71, 4.20485496520996090000e-001) (72, 3.56543034315109250000e-001) (73, 3.05481851100921630000e-001) (74, 4.38910782337188720000e-001) (75, 5.54030478000640870000e-001) (76, 7.60313212871551510000e-001) (77, 6.76048755645751950000e-001) (78, 5.18957853317260740000e-001) (79, 5.28616428375244140000e-001) (80, 5.08585870265960690000e-001) (81, 4.19333040714263920000e-001) (82, 4.35441613197326660000e-001) (83, 3.48013818264007570000e-001) (84, 5.50404310226440430000e-001) (85, 5.45188963413238530000e-001) (86, 5.24422883987426760000e-001) (87, 5.47855496406555180000e-001) (88, 3.74849140644073490000e-001) (89, 4.82635289430618290000e-001) (90, 4.04239743947982790000e-001) (91, 5.00676393508911130000e-001) (92, 6.13992750644683840000e-001) (93, 6.40311002731323240000e-001) (94, 7.97337532043457030000e-001) (95, 6.59528672695159910000e-001) (96, -1.79146453738212590000e-001) (97, 4.41513091325759890000e-001) (98, 3.40262472629547120000e-001) (99, 5.32377898693084720000e-001) (0, -5.33296763896942140000e-002) (1, -4.49230410158634190000e-002) (2, 8.31302106380462650000e-002) (3, -2.02232435345649720000e-001) (4, -2.82332211732864380000e-001) (5, -2.25032567977905270000e-001) (6, -2.19148471951484680000e-001) (7, -1.83829084038734440000e-001) (8, -1.53257161378860470000e-001) (9, -8.81096646189689640000e-002) (10, -4.05091375112533570000e-001) (11, 2.16896436177194120000e-003) (12, 7.50699639320373540000e-002) (13, -2.38721612840890880000e-002) (14, -2.34815422445535660000e-002) (15, 7.24965007975697520000e-003) (16, 1.02440096437931060000e-001) (17, 1.07685551047325130000e-001) (18, -8.54096841067075730000e-003) (19, -8.38775653392076490000e-003) (20, 1.16158254444599150000e-001) (21, 8.57701823115348820000e-002) (22, -3.16383764147758480000e-002) (23, 6.88062608242034910000e-002) (24, 1.32989779114723210000e-001) (25, 9.16913850232958790000e-004) (26, 1.49236813187599180000e-001) (27, 1.44521266222000120000e-001) (28, 2.60726630687713620000e-001) (29, 1.81614592671394350000e-001) (30, 1.60884574055671690000e-001) (31, 2.49414712190628050000e-001) (32, 9.65963602066040040000e-002) (33, 1.18092626333236690000e-001) (34, 6.48002997040748600000e-002) (35, 3.16337086260318760000e-002) (36, 1.27815725281834600000e-002) (37, 5.66514693200588230000e-002) (38, 1.00669525563716890000e-001) (39, 5.88693097233772280000e-002) (40, -2.80024837702512740000e-002) (41, 2.62777088209986690000e-003) (42, 1.32789254188537600000e-001) (43, 1.96066796779632570000e-002) (44, 1.29980742931365970000e-001) (45, 2.41991989314556120000e-002) (46, 8.30249190330505370000e-002) (47, 3.96354906260967250000e-002) (48, 1.18212671950459480000e-002) (49, -5.20716644823551180000e-002) (50, -1.43275856971740720000e-002) (51, -2.66813993453979490000e-001) (52, -1.69187977910041810000e-001) (53, -2.11828976869583130000e-001) (54, -3.65355998277664180000e-001) (55, -2.88596212863922120000e-001) (56, -1.30972385406494140000e-001) (57, -1.60974413156509400000e-001) (58, 9.22497920691967010000e-003) (59, -7.82445538789033890000e-003) (60, 5.04474565386772160000e-002) (61, 9.83912795782089230000e-002) (62, 1.32862254977226260000e-001) (63, -1.14983292296528820000e-002) (64, -3.66132333874702450000e-002) (65, 8.54491367936134340000e-002) (66, 1.14831820130348210000e-001) (67, 5.81605406478047370000e-003) (68, 4.49716066941618920000e-003) (69, 4.48714122176170350000e-002) (70, 1.11209511756896970000e-001) (71, 6.50052726268768310000e-002) (72, 1.02990716695785520000e-001) (73, -7.63771217316389080000e-003) (74, -3.36601398885250090000e-002) (75, -5.22591779008507730000e-003) (76, -2.61087827384471890000e-002) (77, 1.42221003770828250000e-001) (78, -3.90414036810398100000e-002) (79, 1.12413018941879270000e-001) (80, -2.50716563314199450000e-002) (81, -2.23980639129877090000e-002) (82, -5.02846464514732360000e-002) (83, 4.96007166802883150000e-002) (84, -3.20903374813497070000e-003) (85, -2.08970904350280760000e-003) (86, 1.43245011568069460000e-002) (87, 8.28686058521270750000e-002) (88, 1.32701516151428220000e-001) (89, 2.89750769734382630000e-002) (90, 7.70407021045684810000e-002) (91, -3.36810946464538570000e-002) (92, -9.03620105236768720000e-003) (93, 6.04150369763374330000e-002) (94, 1.00645668804645540000e-001) (95, -4.64917905628681180000e-002) (96, -1.36923074722290040000e-001) (97, -2.58098170161247250000e-002) (98, -8.79505723714828490000e-002) (99, -6.83736443519592290000e-001) (0, 1.85256624221801760000e+000) (1, 8.38727295398712160000e-001) (2, 1.74345862865448000000e+000) (3, -1.71733343601226810000e+000) (4, 4.94703388214111330000e+000) (5, 1.40621864795684810000e+000) (6, 1.30628037452697750000e+000) (7, 1.20828092098236080000e+000) (8, 1.18174576759338380000e+000) (9, 1.00500345230102540000e+000) (10, 1.12102782726287840000e+000) (11, 8.68521273136138920000e-001) (12, 7.63248682022094730000e-001) (13, 8.93300592899322510000e-001) (14, 1.00677144527435300000e+000) (15, 1.05764651298522950000e+000) (16, 1.30098795890808110000e+000) (17, 8.24256658554077150000e-001) (18, 6.79413378238677980000e-001) (19, -8.24842229485511780000e-002) (20, -2.18310460448265080000e-001) (21, -3.51378768682479860000e-002) (22, -4.42652910947799680000e-001) (23, -6.55882477760314940000e-001) (24, -5.66332399845123290000e-001) (25, -3.33404451608657840000e-001) (26, -5.61193466186523440000e-001) (27, -1.08601248264312740000e+000) (28, -8.00297081470489500000e-001) (29, -1.01678311824798580000e+000) (30, -1.10110914707183840000e+000) (31, -9.96090114116668700000e-001) (32, -1.03319108486175540000e+000) (33, -6.42452538013458250000e-001) (34, -1.72068253159523010000e-001) (35, -2.01217249035835270000e-001) (36, -1.70178517699241640000e-001) (37, -1.78384512662887570000e-001) (38, -1.16914838552474980000e-001) (39, 5.47118425369262700000e-001) (40, 6.36235892772674560000e-001) (41, 1.41097784042358400000e+000) (42, 1.14336299896240230000e+000) (43, 1.01272737979888920000e+000) (44, 1.11257100105285640000e+000) (45, 6.61265492439270020000e-001) (46, -1.49573183059692380000e+000) (47, -3.43074989318847660000e+000) (48, -9.97353374958038330000e-001) (49, -3.50659942626953120000e+000) (50, -1.13139605522155760000e+000) (51, -7.90266752243041990000e-001) (52, 7.94181525707244870000e-001) (53, -1.97638034820556640000e+000) (54, 1.73279985785484310000e-001) (55, 1.23199343681335450000e+000) (56, 1.06274545192718510000e+000) (57, 1.32369673252105710000e+000) (58, 1.48068726062774660000e+000) (59, 1.34990620613098140000e+000) (60, 1.08667922019958500000e+000) (61, 6.99330449104309080000e-001) (62, 1.08836746215820310000e+000) (63, 7.42789447307586670000e-001) (64, -3.89024168252944950000e-002) (65, -1.77880808711051940000e-001) (66, -2.72704988718032840000e-001) (67, -1.96304023265838620000e-001) (68, -2.38116502761840820000e-001) (69, -1.07495591044425960000e-001) (70, -1.72891318798065190000e-001) (71, -2.80058205127716060000e-001) (72, -3.91407817602157590000e-001) (73, -3.83080780506134030000e-001) (74, -1.24218627810478210000e-001) (75, 7.13574051856994630000e-001) (76, 8.13624143600463870000e-001) (77, 9.29090559482574460000e-001) (78, 8.11920583248138430000e-001) (79, -1.34382739663124080000e-001) (80, -2.12871193885803220000e-001) (81, -2.08842873573303220000e-001) (82, -3.33573669195175170000e-001) (83, -2.52446115016937260000e-001) (84, -3.51082444190979000000e-001) (85, -2.97320514917373660000e-001) (86, -3.15957933664321900000e-001) (87, -3.89094769954681400000e-001) (88, -2.93882191181182860000e-001) (89, 8.36190767586231230000e-003) (90, 6.73246204853057860000e-001) (91, 1.28108704090118410000e+000) (92, 1.11492037773132320000e+000) (93, 8.95080626010894780000e-001) (94, 1.17602252960205080000e+000) (95, 4.22434538602828980000e-001) (96, 5.27246057987213130000e-001) (97, 8.36737334728240970000e-001) (98, 3.82491886615753170000e-001) (99, 2.85754108428955080000e+001) (0, 2.69631505012512210000e+000) (1, 2.74333548545837400000e+000) (2, 1.82097339630126950000e+000) (3, 7.57328186035156250000e+002) (4, 3.21958327293396000000e+000) (5, 7.93379008769989010000e-001) (6, 2.77975440025329590000e-001) (7, 1.15398561954498290000e+000) (8, 7.03361272811889650000e+000) (9, 6.05574941635131840000e+000) (10, 1.14915142059326170000e+001) (11, 6.23295688629150390000e+000) (12, 1.52367472648620610000e+000) (13, 1.01241624355316160000e+000) (14, 6.14386618137359620000e-001) (15, 5.60067296028137210000e-001) (16, 7.22804129123687740000e-001) (17, 8.92729401588439940000e-001) (18, 1.93620979785919190000e+000) (19, 1.86543140411376950000e+001) (20, 5.60221290588378910000e+001) (21, 3.10519256591796870000e+002) (22, 6.47237792968750000000e+002) (23, 5.68446899414062500000e+002) (24, 5.68621398925781250000e+002) (25, 5.67878112792968750000e+002) (26, 5.67886596679687500000e+002) (27, 9.51695922851562500000e+002) (28, 1.44606994628906250000e+003) (29, 1.44608642578125000000e+003) (30, 1.25414123535156250000e+003) (31, 1.26386096191406250000e+003) (32, 9.56337463378906250000e+002) (33, 1.05714343261718750000e+003) (34, 5.21627014160156250000e+002) (35, 9.46714324951171880000e+001) (36, 3.99611015319824220000e+001) (37, 3.99000358581542970000e+001) (38, 1.35257558822631840000e+001) (39, 1.32424144744873050000e+001) (40, 2.93897223472595210000e+000) (41, 2.95841932296752930000e+000) (42, 1.56745767593383790000e+000) (43, 3.57496404647827150000e+000) (44, 7.82368183135986330000e+000) (45, 9.78541660308837890000e+000) (46, 5.23843307495117190000e+001) (47, 3.97988342285156250000e+002) (48, 5.09760620117187500000e+002) (49, 8.52906494140625000000e+002) (50, 1.36207958984375000000e+003) (51, 2.29422798156738280000e+001) (52, 2.29217338562011720000e+000) (53, -5.80687618255615230000e+000) (54, 1.27492642402648930000e+000) (55, 5.95872223377227780000e-001) (56, 6.86496257781982420000e+000) (57, 7.24451160430908200000e+000) (58, 7.29380702972412110000e+000) (59, 8.25769233703613280000e+000) (60, 2.11713218688964840000e+001) (61, 2.11094322204589840000e+001) (62, 1.81915645599365230000e+001) (63, 7.57196121215820310000e+001) (64, 7.57445678710937500000e+001) (65, 1.81487335205078120000e+002) (66, 7.79505691528320310000e+001) (67, 1.81627227783203120000e+002) (68, 2.12443893432617190000e+002) (69, 2.13268493652343750000e+002) (70, 2.13217895507812500000e+002) (71, 5.58307312011718750000e+002) (72, 5.49031311035156250000e+002) (73, 2.55368713378906250000e+002) (74, 4.01813163757324220000e+001) (75, 7.56735038757324220000e+000) (76, 1.72632002830505370000e+000) (77, 1.70534837245941160000e+000) (78, 1.77893466949462890000e+001) (79, 4.02261543273925780000e+001) (80, 2.14458984375000000000e+002) (81, 2.56022613525390620000e+002) (82, 2.55989746093750000000e+002) (83, 1.17368362426757810000e+002) (84, 1.00031997680664060000e+002) (85, 1.06454826354980470000e+002) (86, 1.06421577453613280000e+002) (87, 7.62434997558593750000e+001) (88, 7.42171936035156250000e+001) (89, 7.47999649047851560000e+001) (90, 9.33752517700195310000e+001) (91, 7.68596954345703130000e+001) (92, 3.18412876129150390000e+001) (93, 3.20654335021972660000e+001) (94, 1.78922939300537110000e+001) (95, 6.78435241699218750000e+002) (96, 4.75666137695312500000e+002) (97, 7.28246154785156250000e+002) (98, 6.33051330566406250000e+002) (99, 1.20218001306056980000e-001) (0, 6.19330406188964840000e-001) (1, 3.98873180150985720000e-001) (2, 9.97166574001312260000e-001) (3, -1.64432382583618160000e+000) (4, 6.60390090942382810000e+000) (5, 4.86913394927978520000e+000) (6, 1.20412456989288330000e+000) (7, 1.22556591033935550000e+000) (8, 1.17763912677764890000e+000) (9, 1.21366071701049800000e+000) (10, 1.06931018829345700000e+000) (11, 6.74922406673431400000e-001) (12, 8.28324735164642330000e-001) (13, 9.12718236446380620000e-001) (14, 8.30239534378051760000e-001) (15, 7.80477643013000490000e-001) (16, 7.03866422176361080000e-001) (17, 4.80934113264083860000e-001) (18, 5.13645887374877930000e-001) (19, 2.06661224365234380000e-001) (20, -1.10413357615470890000e-001) (21, -1.35306075215339660000e-001) (22, -1.39326527714729310000e-001) (23, -5.94953835010528560000e-001) (24, -8.88479530811309810000e-001) (25, -1.21120616793632510000e-001) (26, -2.25566253066062930000e-001) (27, -8.18340361118316650000e-001) (28, -9.34175372123718260000e-001) (29, -1.01484131813049320000e+000) (30, -9.18204069137573240000e-001) (31, -7.29550480842590330000e-001) (32, -7.80548870563507080000e-001) (33, -3.44706773757934570000e-001) (34, -1.34713768959045410000e-001) (35, -2.04885125160217290000e-001) (36, -2.37470373511314390000e-001) (37, -1.79203525185585020000e-001) (38, 5.51652088761329650000e-002) (39, 3.77398699522018430000e-001) (40, 5.96471846103668210000e-001) (41, 6.89243257045745850000e-001) (42, 6.95578157901763920000e-001) (43, 8.41380536556243900000e-001) (44, 8.39166402816772460000e-001) (45, 1.14869248867034910000e+000) (46, 9.15667533874511720000e-001) (47, 2.33994826674461360000e-001) (48, -1.09576165676116940000e+000) (49, -3.58450561761856080000e-001) (50, 7.67279788851737980000e-002) (51, -3.11937004327774050000e-001) (52, -2.64452546834945680000e-001) (53, -4.70728367567062380000e-001) (54, -4.15922313928604130000e-001) (55, 5.95602929592132570000e-001) (56, 8.03437650203704830000e-001) (57, 1.08989095687866210000e+000) (58, 1.05862283706665040000e+000) (59, 1.01815283298492430000e+000) (60, 5.09811758995056150000e-001) (61, 6.89799010753631590000e-001) (62, 7.45902061462402340000e-001) (63, 5.45500934123992920000e-001) (64, -3.06140184402465820000e-002) (65, -1.85167804360389710000e-001) (66, -1.72756522893905640000e-001) (67, -1.71432524919509890000e-001) (68, -2.45689362287521360000e-001) (69, -1.01567573845386510000e-001) (70, -1.35103061795234680000e-001) (71, -1.86299398541450500000e-001) (72, -7.63872265815734860000e-002) (73, -2.56116569042205810000e-001) (74, -1.16405017673969270000e-001) (75, 6.67083412408828740000e-002) (76, -4.26965905353426930000e-003) (77, 6.66897371411323550000e-002) (78, 5.26670441031455990000e-002) (79, -1.49125039577484130000e-001) (80, -1.12332217395305630000e-001) (81, -9.07386019825935360000e-002) (82, -2.45206788182258610000e-001) (83, -2.03785017132759090000e-001) (84, -1.19715273380279540000e-001) (85, -1.61560982465744020000e-001) (86, -6.44622221589088440000e-002) (87, -1.89711853861808780000e-001) (88, -6.81727528572082520000e-002) (89, -2.08147659897804260000e-001) (90, 5.00365436077117920000e-001) (91, 7.90934741497039790000e-001) (92, 6.56923651695251460000e-001) (93, 1.10780334472656250000e+000) (94, 1.13397240638732910000e+000) (95, 8.51561963558197020000e-001) (96, -6.72371721267700200000e+000) (97, -1.31239667534828190000e-001) (98, 9.37685310840606690000e-001) (99, 3.05669903755187990000e+000) (0, -3.35826218128204350000e-001) (1, -2.89207547903060910000e-001) (2, -1.40548086166381840000e+000) (3, -1.38611063361167910000e-001) (4, -2.99605727195739750000e-001) (5, -1.12409865856170650000e+000) (6, -2.83069789409637450000e-001) (7, -3.27658951282501220000e-001) (8, -1.52779091149568560000e-002) (9, -3.65299470722675320000e-002) (10, -4.09115850925445560000e-002) (11, -1.96961034089326860000e-002) (12, -8.18662270903587340000e-002) (13, -2.60159879922866820000e-001) (14, -3.52229863405227660000e-001) (15, -3.87241601943969730000e-001) (16, -3.89487326145172120000e-001) (17, -2.69501656293869020000e-001) (18, -1.87271147966384890000e-001) (19, 5.81252342090010640000e-003) (20, 1.55126005411148070000e-001) (21, 1.71475391834974290000e-002) (22, 1.08936622738838200000e-001) (23, 2.35304888337850570000e-002) (24, 1.64357408881187440000e-001) (25, 9.35111343860626220000e-002) (26, 7.02328160405159000000e-002) (27, 7.81853720545768740000e-002) (28, 1.43482208251953130000e-001) (29, 2.49479487538337710000e-001) (30, 2.31665238738060000000e-001) (31, 1.52909770607948300000e-001) (32, -4.91312565281987190000e-003) (33, 8.81450474262237550000e-002) (34, 1.07643656432628630000e-001) (35, 7.46900737285614010000e-002) (36, 2.29256991297006610000e-002) (37, 1.15685313940048220000e-001) (38, 4.22462038695812230000e-002) (39, -4.55168858170509340000e-002) (40, -2.61735439300537110000e-001) (41, -2.70730078220367430000e-001) (42, -1.44789710640907290000e-001) (43, -2.89549738168716430000e-001) (44, -2.65536159276962280000e-001) (45, -6.69564604759216310000e-002) (46, 8.50275754928588870000e-002) (47, 3.80458943545818330000e-002) (48, 3.14690589904785160000e+000) (49, 1.78737556934356690000e+000) (50, 2.69515722990036010000e-001) (51, -2.05880478024482730000e-001) (52, -1.69905081391334530000e-001) (53, -7.69081687927246090000e+000) (54, -6.02938473224639890000e-001) (55, -3.45821052789688110000e-001) (56, -1.67757764458656310000e-001) (57, -1.65003284811973570000e-001) (58, -1.29981145262718200000e-001) (59, -6.87512084841728210000e-002) (60, -1.85486283153295520000e-002) (61, 3.04469391703605650000e-002) (62, -7.77665078639984130000e-002) (63, 6.17875643074512480000e-002) (64, 5.01608587801456450000e-002) (65, -8.36949720978736880000e-002) (66, 3.18518243730068210000e-002) (67, 3.56334820389747620000e-002) (68, 2.02417131513357160000e-002) (69, 2.15917080640792850000e-002) (70, 5.55075854063034060000e-002) (71, 1.01195154711604120000e-002) (72, 5.60142146423459050000e-003) (73, 2.11561489850282670000e-002) (74, -8.86881534825079140000e-005) (75, -1.26848459243774410000e-001) (76, -1.74669325351715090000e-001) (77, -2.64586895704269410000e-001) (78, -2.46989220380783080000e-001) (79, 7.99482911825180050000e-002) (80, 3.01580075174570080000e-002) (81, -6.72786030918359760000e-003) (82, -1.32386423647403720000e-002) (83, -3.28824343159794810000e-003) (84, -5.09784594178199770000e-002) (85, -4.38646972179412840000e-002) (86, 1.23739875853061680000e-001) (87, 3.91004607081413270000e-002) (88, -4.93577979505062100000e-002) (89, -3.88322696089744570000e-002) (90, -3.15015614032745360000e-002) (91, 5.17826862633228300000e-002) (92, 3.19614894688129430000e-002) (93, -2.83578820526599880000e-002) (94, 1.16435557603836060000e-001) (95, 8.30141007900238040000e-002) (96, 2.03645080327987670000e-001) (97, 5.90427517890930180000e-002) (98, -7.66166672110557560000e-002) (99, -4.38180480957031250000e+002) (0, 1.65615344047546390000e+000) (1, 1.87433075904846190000e+000) (2, 8.20300221443176270000e-001) (3, 6.32308120727539060000e+001) (4, 4.70912742614746090000e+000) (5, 1.24525643885135650000e-001) (6, 1.06146596372127530000e-001) (7, 9.61917191743850710000e-002) (8, 3.32569867372512820000e-001) (9, 6.35077118873596190000e-001) (10, 9.86336827278137210000e-001) (11, 9.11665081977844240000e-001) (12, 1.04363107681274410000e+000) (13, 9.74138796329498290000e-001) (14, 1.04205775260925290000e+000) (15, 1.05660128593444820000e+000) (16, 1.02313089370727540000e+000) (17, 1.06551098823547360000e+000) (18, 1.76716077327728270000e+000) (19, 4.45293664932250980000e+000) (20, 5.67911291122436520000e+000) (21, 1.44954595565795900000e+001) (22, 4.77816238403320310000e+001) (23, 5.68551139831542970000e+001) (24, 2.50134277343750000000e+001) (25, 3.88314743041992190000e+001) (26, 3.92963294982910160000e+001) (27, 5.74817276000976560000e+001) (28, 1.08567272949218750000e+003) (29, 1.08394006347656250000e+003) (30, 7.37089599609375000000e+002) (31, 1.14900070190429690000e+002) (32, 4.43812446594238280000e+001) (33, 3.81148986816406250000e+001) (34, 2.62642860412597660000e+001) (35, 6.87406349182128910000e+000) (36, 5.51211738586425780000e+000) (37, 2.86493635177612300000e+000) (38, 3.75445866584777830000e+000) (39, 1.92293953895568850000e+000) (40, 1.54991793632507320000e+000) (41, 1.25050795078277590000e+000) (42, 9.76749598979949950000e-001) (43, 1.00354361534118650000e+000) (44, 1.09276962280273440000e+000) (45, 1.04981184005737300000e+000) (46, 1.23789846897125240000e+000) (47, 1.41944055557250980000e+001) (48, 6.95362625122070310000e+001) (49, 1.56072479248046870000e+002) (50, 5.01528320312500000000e+001) (51, -7.72743895649909970000e-002) (52, -3.38816642761230470000e+000) (53, -3.53472412109375000000e+002) (54, 2.00080916285514830000e-001) (55, 2.24523410201072690000e-001) (56, 3.43198835849761960000e-001) (57, 6.32170021533966060000e-001) (58, 5.32973706722259520000e-001) (59, 1.12182128429412840000e+000) (60, 1.83479297161102290000e+000) (61, 2.05152869224548340000e+000) (62, 2.09209179878234860000e+000) (63, 2.15651702880859370000e+000) (64, 3.13236689567565920000e+000) (65, 6.21862649917602540000e+000) (66, 6.14870738983154300000e+000) (67, 7.05717420578002930000e+000) (68, 1.57360754013061520000e+001) (69, 4.89508171081542970000e+001) (70, 7.20173931121826170000e+000) (71, 6.10644006729125980000e+000) (72, 6.11781120300292970000e+000) (73, 7.21453523635864260000e+000) (74, 3.01480889320373540000e+000) (75, 4.33432245254516600000e+000) (76, 3.32998299598693850000e+000) (77, 4.00640392303466800000e+000) (78, 4.54071855545043950000e+000) (79, 3.10036849975585940000e+000) (80, 5.05421543121337890000e+000) (81, 5.33264923095703130000e+000) (82, 5.63370895385742190000e+000) (83, 3.09731030464172360000e+000) (84, 3.02217578887939450000e+000) (85, 7.27314519882202150000e+000) (86, 7.27655744552612300000e+000) (87, 6.04229831695556640000e+000) (88, 3.28587937355041500000e+000) (89, 3.20594477653503420000e+000) (90, 2.01028680801391600000e+000) (91, 2.10249829292297360000e+000) (92, 1.89569950103759770000e+000) (93, 1.97687089443206790000e+000) (94, 1.71944785118103030000e+000) (95, 8.26245689392089840000e+000) (96, 3.22157379150390620000e+002) (97, 9.33877849578857420000e+000) (98, 7.08659362792968750000e+000) (99, 9.48933139443397520000e-002) (0, -1.82373970746994020000e-001) (1, -9.85156279057264330000e-003) (2, -6.82518482208251950000e-001) (3, -2.23050594329833980000e-001) (4, -2.69526779651641850000e-001) (5, -6.14260911941528320000e-001) (6, -3.04903328418731690000e-001) (7, -1.79350122809410100000e-001) (8, -4.24322299659252170000e-002) (9, -3.66863720118999480000e-002) (10, 7.53206089138984680000e-002) (11, -1.03155158460140230000e-001) (12, 6.74200356006622310000e-002) (13, -1.92696690559387210000e-001) (14, -4.09563153982162480000e-001) (15, -4.43791717290878300000e-001) (16, -3.42135459184646610000e-001) (17, -2.18084082007408140000e-002) (18, 1.49043528363108630000e-002) (19, 8.73791873455047610000e-002) (20, 1.27509877085685730000e-001) (21, 3.53929400444030760000e-002) (22, 4.32827249169349670000e-002) (23, 2.93774977326393130000e-002) (24, 1.47329531610012050000e-002) (25, 9.61514413356781010000e-002) (26, 3.25269699096679690000e-002) (27, 4.36442233622074130000e-002) (28, 1.45208880305290220000e-001) (29, 2.60957539081573490000e-001) (30, 1.95736363530159000000e-001) (31, 1.71535998582839970000e-001) (32, 2.85427212715148930000e-001) (33, -2.24585812538862230000e-002) (34, 1.90519411116838460000e-002) (35, -8.94952341914176940000e-002) (36, 5.73741272091865540000e-002) (37, 5.95344491302967070000e-002) (38, -2.62183975428342820000e-002) (39, -1.04137577116489410000e-001) (40, -9.71219912171363830000e-002) (41, -1.92974042147397990000e-002) (42, -3.61118495464324950000e-001) (43, -1.65912523865699770000e-001) (44, -8.67293253540992740000e-002) (45, -2.16656420379877090000e-002) (46, 3.19990813732147220000e-001) (47, 9.48722362518310550000e-001) (48, 2.68353939056396480000e+000) (49, 1.86052060127258300000e+000) (50, 4.25174415111541750000e-001) (51, -2.50347614288330080000e-001) (52, -1.96985021233558650000e-001) (53, -4.37478446960449220000e+000) (54, -9.18064296245574950000e-001) (55, -3.38196873664855960000e-001) (56, -1.24396964907646180000e-001) (57, -3.71734648942947390000e-002) (58, 3.83976777084171770000e-003) (59, -1.48490034043788910000e-002) (60, -4.45177108049392700000e-002) (61, -5.35507779568433760000e-003) (62, -3.58660146594047550000e-002) (63, -6.73408955335617070000e-002) (64, 9.93107184767723080000e-002) (65, -5.61117604374885560000e-002) (66, -6.94064199924468990000e-002) (67, 8.57546851038932800000e-002) (68, 2.15041562914848330000e-002) (69, 8.29042959958314900000e-003) (70, 1.06278628110885620000e-001) (71, 1.04512460529804230000e-002) (72, -5.71265853941440580000e-002) (73, -1.38582298532128330000e-002) (74, -9.83671844005584720000e-002) (75, -1.46853446960449220000e-001) (76, -6.93422183394432070000e-002) (77, -1.00096203386783600000e-001) (78, -1.51185140013694760000e-001) (79, -9.25791189074516300000e-002) (80, -3.03111579269170760000e-002) (81, -9.13416297407820820000e-005) (82, -5.34683093428611760000e-002) (83, -2.70908866077661510000e-002) (84, 5.10523915290832520000e-002) (85, 4.99571114778518680000e-003) (86, 3.60469333827495570000e-002) (87, 7.48473480343818660000e-002) (88, 4.33113351464271550000e-002) (89, 4.33191005140542980000e-003) (90, 9.95401758700609210000e-003) (91, -6.23287782073020940000e-002) (92, -5.60301989316940310000e-002) (93, -5.07021881639957430000e-003) (94, -8.34981650114059450000e-002) (95, 1.92342296242713930000e-001) (96, 7.52249419689178470000e-001) (97, 5.01935631036758420000e-002) (98, -1.34259879589080810000e-001) (99, -6.57038574218750000000e+002) (0, 2.76359415054321290000e+000) (1, 2.69618725776672360000e+000) (2, 1.69049859046936040000e+000) (3, 7.57299987792968750000e+002) (4, 3.21023297309875490000e+000) (5, 3.88941049575805660000e-001) (6, 3.79744589328765870000e-001) (7, 1.39149284362792970000e+000) (8, 7.18606376647949220000e+000) (9, 6.12651968002319340000e+000) (10, 1.13699007034301760000e+001) (11, 6.14870166778564450000e+000) (12, 2.90153765678405760000e+000) (13, 9.73713874816894530000e-001) (14, 7.14100539684295650000e-001) (15, 6.59878075122833250000e-001) (16, 6.07597529888153080000e-001) (17, 1.53942167758941650000e+000) (18, 1.83427488803863530000e+000) (19, 1.85544414520263670000e+001) (20, 5.62145652770996090000e+001) (21, 3.10611175537109370000e+002) (22, 6.47323059082031250000e+002) (23, 5.68456848144531250000e+002) (24, 5.68185607910156250000e+002) (25, 5.67969421386718750000e+002) (26, 5.67982543945312500000e+002) (27, 1.26379418945312500000e+003) (28, 1.44609423828125000000e+003) (29, 1.44611535644531250000e+003) (30, 1.25426147460937500000e+003) (31, 1.26373962402343750000e+003) (32, 1.26843908691406250000e+003) (33, 1.05398266601562500000e+003) (34, 5.21757263183593750000e+002) (35, 9.16111907958984380000e+001) (36, 3.99470672607421880000e+001) (37, 3.98842124938964840000e+001) (38, 1.35244674682617190000e+001) (39, 1.32810802459716800000e+001) (40, 6.10346221923828120000e+000) (41, 2.92339324951171870000e+000) (42, 1.58475506305694580000e+000) (43, 3.59512019157409670000e+000) (44, 7.74208402633666990000e+000) (45, 9.80975818634033200000e+000) (46, 5.24105567932128910000e+001) (47, 8.18678833007812500000e+002) (48, 5.09806152343750000000e+002) (49, 8.53021057128906250000e+002) (50, 1.33799621582031250000e+003) (51, 5.45608444213867190000e+001) (52, 2.18981742858886720000e+000) (53, -1.64279899597167970000e+001) (54, 6.40664458274841310000e-001) (55, 1.46837079524993900000e+000) (56, 6.90301179885864260000e+000) (57, 7.30706024169921880000e+000) (58, 7.29032993316650390000e+000) (59, 8.31662178039550780000e+000) (60, 2.10776805877685550000e+001) (61, 4.96241302490234380000e+001) (62, 3.92326431274414060000e+001) (63, 7.57811813354492190000e+001) (64, 7.57586059570312500000e+001) (65, 1.81451019287109370000e+002) (66, 1.81327407836914060000e+002) (67, 1.77500579833984370000e+002) (68, 2.12440277099609370000e+002) (69, 4.89170715332031250000e+002) (70, 4.89298400878906250000e+002) (71, 5.58190795898437500000e+002) (72, 5.49052124023437500000e+002) (73, 2.55307159423828130000e+002) (74, 9.16761703491210940000e+001) (75, 7.57823705673217770000e+000) (76, 1.81252622604370120000e+000) (77, 1.70389568805694580000e+000) (78, 7.65782880783081050000e+000) (79, 9.16243286132812500000e+001) (80, 2.14327560424804690000e+002) (81, 2.56041320800781250000e+002) (82, 2.67047058105468750000e+002) (83, 2.76337005615234370000e+002) (84, 2.34496704101562500000e+002) (85, 1.06523231506347660000e+002) (86, 1.06526718139648440000e+002) (87, 1.77515228271484370000e+002) (88, 7.41101913452148440000e+001) (89, 7.57462081909179690000e+001) (90, 9.32594299316406250000e+001) (91, 7.67688751220703130000e+001) (92, 7.48631744384765620000e+001) (93, 2.91458778381347660000e+001) (94, 1.79223365783691410000e+001) (95, 6.78489990234375000000e+002) (96, 4.75583648681640620000e+002) (97, 1.12346948242187500000e+003) (98, 6.32909973144531250000e+002) (99, 1.44168362021446230000e-001) (0, 1.29120159149169920000e+000) (1, 1.32679700851440430000e+000) (2, 1.26718068122863770000e+000) (3, 3.03347021341323850000e-001) (4, 5.03927886486053470000e-001) (5, 5.57578742504119870000e-001) (6, 4.65745329856872560000e-001) (7, 4.29467767477035520000e-001) (8, 8.59765052795410160000e-001) (9, 8.08785498142242430000e-001) (10, 8.51568520069122310000e-001) (11, 8.56301307678222660000e-001) (12, 8.29413950443267820000e-001) (13, 1.35979092121124270000e+000) (14, 1.44900786876678470000e+000) (15, 1.58475804328918460000e+000) (16, 1.28896439075469970000e+000) (17, 1.30678308010101320000e+000) (18, 1.46386575698852540000e+000) (19, 9.11003112792968750000e-001) (20, 1.65836596488952640000e+000) (21, 4.70243692398071290000e-001) (22, 2.31739729642868040000e-002) (23, -1.11102557182312010000e+000) (24, -1.23388254642486570000e+000) (25, -3.53902518749237060000e-001) (26, 1.79879605770111080000e-001) (27, -2.40006327629089360000e+000) (28, -2.81624436378479000000e+000) (29, -2.84100055694580080000e+000) (30, -2.35019755363464360000e+000) (31, -2.34828090667724610000e+000) (32, 3.76422822475433350000e-001) (33, -1.79610133171081540000e+000) (34, 2.79863297939300540000e-001) (35, 5.56255698204040530000e-001) (36, 5.56158304214477540000e-001) (37, 5.61380326747894290000e-001) (38, 1.26601016521453860000e+000) (39, 1.40636432170867920000e+000) (40, 1.35682725906372070000e+000) (41, 1.36539983749389650000e+000) (42, 1.21595370769500730000e+000) (43, 1.31875669956207280000e+000) (44, 1.27944731712341310000e+000) (45, 1.17865347862243650000e+000) (46, 6.26704216003417970000e-001) (47, 2.89531171321868900000e-001) (48, -1.33092522621154790000e+000) (49, -1.26150572299957280000e+000) (50, -2.60369330644607540000e-001) (51, 3.90300303697586060000e-001) (52, 4.86873745918273930000e-001) (53, 2.47095823287963870000e+000) (54, 5.38121163845062260000e-001) (55, 3.80391150712966920000e-001) (56, 8.61940324306488040000e-001) (57, 7.57039010524749760000e-001) (58, 8.13317656517028810000e-001) (59, 8.89991521835327150000e-001) (60, 7.63823747634887700000e-001) (61, 7.14950859546661380000e-001) (62, 6.76603436470031740000e-001) (63, 5.83568096160888670000e-001) (64, 4.63778048753738400000e-001) (65, 3.92524987459182740000e-001) (66, 5.77191233634948730000e-001) (67, 4.20052289962768550000e-001) (68, 3.76534253358840940000e-001) (69, 3.07955384254455570000e-001) (70, 2.13272795081138610000e-001) (71, 3.66011381149291990000e-001) (72, 3.90461981296539310000e-001) (73, 4.06058937311172490000e-001) (74, 4.82211232185363770000e-001) (75, 6.47069692611694340000e-001) (76, 8.29076230525970460000e-001) (77, 7.55254387855529790000e-001) (78, 6.67402207851409910000e-001) (79, 4.68260288238525390000e-001) (80, 4.05599206686019900000e-001) (81, 4.04176503419876100000e-001) (82, 4.33567404747009280000e-001) (83, 5.68589389324188230000e-001) (84, 4.02397871017456050000e-001) (85, 3.97547662258148190000e-001) (86, 5.67747473716735840000e-001) (87, 5.79973876476287840000e-001) (88, 3.14947843551635740000e-001) (89, 3.75166207551956180000e-001) (90, 5.12739181518554690000e-001) (91, 7.10873007774353030000e-001) (92, 1.00883972644805910000e+000) (93, 8.93807947635650630000e-001) (94, 9.15906965732574460000e-001) (95, 7.37427055835723880000e-001) (96, -2.96127587556838990000e-001) (97, 6.85106873512268070000e-001) (98, 8.73071700334548950000e-002) (99, 5.83948433399200440000e-001) (0, -6.75081415101885800000e-003) (1, -5.97537718713283540000e-002) (2, -8.22706073522567750000e-002) (3, 7.85622060298919680000e-001) (4, -2.97688364982604980000e-001) (5, 8.11279693152755500000e-004) (6, -7.36946016550064090000e-002) (7, -4.20215167105197910000e-002) (8, -3.86185832321643830000e-002) (9, -2.83835791051387790000e-002) (10, 1.72879267483949660000e-002) (11, 5.66298402845859530000e-002) (12, 6.17423141375184060000e-003) (13, -1.79743058979511260000e-002) (14, -6.57662004232406620000e-002) (15, -1.07101649045944210000e-001) (16, -6.58507645130157470000e-002) (17, 7.03131360933184620000e-003) (18, 3.16184163093566890000e-002) (19, 4.54199835658073430000e-002) (20, 7.81543999910354610000e-002) (21, -4.10940721631050110000e-002) (22, -4.00690585374832150000e-002) (23, -7.42001682519912720000e-002) (24, 2.07891147583723070000e-002) (25, -5.93077428638935090000e-002) (26, 8.33574086427688600000e-002) (27, 5.91263063251972200000e-002) (28, -8.34122076630592350000e-002) (29, -4.88747190684080120000e-003) (30, 3.41577418148517610000e-002) (31, -8.13308521173894410000e-004) (32, -3.91030386090278630000e-002) (33, 1.61760132759809490000e-002) (34, -7.03596398234367370000e-002) (35, 6.68779164552688600000e-002) (36, -2.99649052321910860000e-002) (37, -3.91055904328823090000e-002) (38, -2.34535546042025090000e-003) (39, -9.27872508764266970000e-002) (40, -4.93127480149269100000e-002) (41, 5.67998401820659640000e-002) (42, 4.36711944639682770000e-002) (43, -8.75957682728767400000e-003) (44, 4.67344075441360470000e-002) (45, 3.38908731937408450000e-002) (46, 2.54021901637315750000e-002) (47, 3.74064706265926360000e-002) (48, 1.68348755687475200000e-002) (49, 6.28080666065216060000e-002) (50, 4.01025973260402680000e-002) (51, 8.88274073600769040000e-001) (52, 7.70497143268585210000e-001) (53, -1.50208818912506100000e+000) (54, 5.76936267316341400000e-002) (55, -1.01152949035167690000e-001) (56, 8.85101407766342160000e-002) (57, -8.73414613306522370000e-003) (58, 2.83830333501100540000e-002) (59, 2.71614566445350650000e-002) (60, -6.16981014609336850000e-002) (61, -6.06710761785507200000e-002) (62, -1.14396370947360990000e-001) (63, -5.77683970332145690000e-002) (64, 8.16525816917419430000e-002) (65, -3.61487548798322680000e-003) (66, -2.55753360688686370000e-002) (67, 2.45207641273736950000e-002) (68, -3.94990332424640660000e-002) (69, -1.10196195542812350000e-001) (70, 2.07181274890899660000e-002) (71, 2.82027642242610450000e-004) (72, 8.07385742664337160000e-002) (73, 7.94711634516716000000e-002) (74, -3.20076458156108860000e-002) (75, -1.18091456592082980000e-001) (76, 6.10905624926090240000e-002) (77, -8.51622745394706730000e-002) (78, -5.09843304753303530000e-002) (79, 4.65217418968677520000e-002) (80, -6.47659674286842350000e-002) (81, -1.11001506447792050000e-002) (82, -8.69290009140968320000e-002) (83, -2.61351652443408970000e-002) (84, -5.69583736360073090000e-002) (85, 1.56246563419699670000e-002) (86, -2.66865286976099010000e-002) (87, -8.46457034349441530000e-002) (88, -7.22347721457481380000e-002) (89, 6.52203634381294250000e-002) (90, 7.19434022903442380000e-002) (91, -2.97716930508613590000e-002) (92, 6.40491619706153870000e-002) (93, 5.67944571375846860000e-002) (94, 2.63404585421085360000e-002) (95, -8.49888175725936890000e-002) (96, 7.03990682959556580000e-002) (97, -7.00315739959478380000e-003) (98, 5.60739859938621520000e-002) (99, -5.10593557357788090000e+000) (0, 1.43658804893493650000e+000) (1, 1.06980609893798830000e+000) (2, 1.41403245925903320000e+000) (3, 2.41691231727600100000e-001) (4, 5.02798020839691160000e-001) (5, 7.02827632427215580000e-001) (6, 5.59687674045562740000e-001) (7, 3.83707582950592040000e-001) (8, 1.26000165939331050000e+000) (9, 1.34555459022521970000e+000) (10, 1.08752310276031490000e+000) (11, 8.76077592372894290000e-001) (12, 1.25871992111206050000e+000) (13, 1.53136718273162840000e+000) (14, 1.70191800594329830000e+000) (15, 1.63438451290130620000e+000) (16, 1.62811219692230220000e+000) (17, 1.65867865085601810000e+000) (18, 1.42402493953704830000e+000) (19, 7.31564640998840330000e-001) (20, 1.85111880302429200000e-001) (21, 1.26701369881629940000e-001) (22, 1.18230041116476060000e-002) (23, -2.67819309234619140000e+000) (24, -3.58672618865966800000e+000) (25, 1.28934770822525020000e-001) (26, -2.23233237862586980000e-001) (27, -5.06222963333129880000e+000) (28, -5.08938837051391600000e+000) (29, -5.05289268493652340000e+000) (30, -4.27070665359497070000e+000) (31, -4.29658222198486330000e+000) (32, -3.31235027313232420000e+000) (33, -3.22484672069549560000e-001) (34, 7.54317402839660640000e-001) (35, 1.19466936588287350000e+000) (36, 1.22054219245910640000e+000) (37, 1.27052164077758790000e+000) (38, 1.14860403537750240000e+000) (39, 1.15587329864501950000e+000) (40, 1.39665257930755620000e+000) (41, 1.45164608955383300000e+000) (42, 1.33080291748046870000e+000) (43, 1.32598757743835450000e+000) (44, 1.28098690509796140000e+000) (45, 1.09091436862945560000e+000) (46, 1.10934638977050780000e+000) (47, -1.51851129531860350000e+000) (48, -1.89084644317626950000e+001) (49, -2.39148616790771480000e+000) (50, -9.40625786781311040000e-001) (51, 5.14215111732482910000e-001) (52, 3.83563876152038570000e-001) (53, 3.45009028911590580000e-001) (54, 6.76434814929962160000e-001) (55, 4.76522296667099000000e-001) (56, 1.20813059806823730000e+000) (57, 1.29989647865295410000e+000) (58, 1.27644836902618410000e+000) (59, 1.24810636043548580000e+000) (60, 5.26838719844818120000e-001) (61, -5.24552226066589360000e-001) (62, 4.10397201776504520000e-001) (63, 3.21143627166748050000e-001) (64, 1.18663811683654790000e+000) (65, 1.24664366245269780000e+000) (66, 1.37023615837097170000e+000) (67, 1.19254922866821290000e+000) (68, 2.84757286310195920000e-001) (69, 2.78719961643218990000e-001) (70, 1.20972946286201480000e-001) (71, 7.38919615745544430000e-001) (72, 8.70639443397521970000e-001) (73, 7.77860045433044430000e-001) (74, 1.26801502704620360000e+000) (75, 1.02457988262176510000e+000) (76, 1.61547720432281490000e+000) (77, 1.02886402606964110000e+000) (78, 8.87526571750640870000e-001) (79, 1.16899168491363530000e+000) (80, 7.48618006706237790000e-001) (81, 7.95457065105438230000e-002) (82, 6.03378601372241970000e-002) (83, 1.78611651062965390000e-001) (84, 1.68850749731063840000e-001) (85, 1.25017046928405760000e+000) (86, 1.18716585636138920000e+000) (87, 1.15400159358978270000e+000) (88, 7.02947318553924560000e-001) (89, 8.25471162796020510000e-001) (90, 1.06337511539459230000e+000) (91, 1.05276310443878170000e+000) (92, 1.05200660228729250000e+000) (93, 7.04741716384887700000e-001) (94, 1.35567283630371090000e+000) (95, 6.99087142944335940000e-001) (96, -9.88649559020996090000e+000) (97, 3.81111770868301390000e-001) (98, -3.23944091796875000000e-001) (99, 5.23057043552398680000e-001) (0, -4.05422449111938480000e-001) (1, -2.18074470758438110000e-001) (2, -2.14902901649475100000e+000) (3, -1.74478635191917420000e-001) (4, -2.42254033684730530000e-001) (5, -6.51962399482727050000e-001) (6, -2.74187117815017700000e-001) (7, -1.60882920026779170000e-001) (8, -2.72070635110139850000e-002) (9, -1.07007734477519990000e-001) (10, -2.85672023892402650000e-002) (11, 3.19897718727588650000e-002) (12, -7.33683705329895020000e-002) (13, 8.08748602867126460000e-003) (14, -3.37921231985092160000e-001) (15, -3.30528497695922850000e-001) (16, -4.67568159103393550000e-001) (17, -1.49597585201263430000e-001) (18, -2.36328482627868650000e-001) (19, -4.60247918963432310000e-002) (20, 2.93112825602293010000e-002) (21, 2.98698507249355320000e-002) (22, 1.34508684277534480000e-001) (23, 9.75813437253236770000e-003) (24, 1.17686979472637180000e-001) (25, 6.92095905542373660000e-002) (26, 7.02428966760635380000e-002) (27, 7.89749920368194580000e-002) (28, 2.19415962696075440000e-001) (29, 2.20853120088577270000e-001) (30, 1.38987407088279720000e-001) (31, 1.45493179559707640000e-001) (32, 5.04383370280265810000e-002) (33, 8.38694646954536440000e-002) (34, -5.02361468970775600000e-002) (35, 6.36575594544410710000e-002) (36, 5.63847497105598450000e-002) (37, 2.06483174115419390000e-002) (38, 3.20835039019584660000e-003) (39, 2.49844118952751160000e-002) (40, -1.74253150820732120000e-001) (41, -2.81686186790466310000e-001) (42, -2.80595391988754270000e-001) (43, -3.49378556013107300000e-001) (44, -2.72131383419036870000e-001) (45, -1.08623407781124110000e-001) (46, 3.69531244039535520000e-001) (47, 1.38555395603179930000e+000) (48, 1.74653112888336180000e+000) (49, 1.59796953201293950000e+000) (50, -2.00086012482643130000e-002) (51, -2.78295695781707760000e-001) (52, -1.44753932952880860000e-001) (53, -1.69833922386169430000e+000) (54, -3.08926910161972050000e-001) (55, -3.15322190523147580000e-001) (56, -1.47116482257843020000e-001) (57, 8.25694296509027480000e-003) (58, -2.54726056009531020000e-002) (59, 6.26592636108398440000e-002) (60, -2.31483057141304020000e-002) (61, 8.25547426939010620000e-002) (62, -5.53529933094978330000e-002) (63, -3.04056741297245030000e-002) (64, -8.05832743644714360000e-002) (65, -1.98388043791055680000e-002) (66, 7.79299512505531310000e-002) (67, -4.72434237599372860000e-002) (68, -5.13466075062751770000e-002) (69, -5.00293523073196410000e-002) (70, 1.13847173750400540000e-001) (71, -5.79781793057918550000e-002) (72, -4.41172756254673000000e-002) (73, 6.58363774418830870000e-002) (74, -5.08495382964611050000e-002) (75, -9.39207449555397030000e-002) (76, -2.37228363752365110000e-001) (77, -2.54977375268936160000e-001) (78, 6.27148002386093140000e-002) (79, 7.83269032835960390000e-002) (80, 1.38063421472907070000e-002) (81, -5.00562367960810660000e-003) (82, -1.33254760876297950000e-002) (83, 1.14301040768623350000e-001) (84, -9.64410156011581420000e-002) (85, -8.35893750190734860000e-002) (86, 6.28918558359146120000e-002) (87, 8.16516131162643430000e-002) (88, 8.03873464465141300000e-002) (89, 1.02061122655868530000e-001) (90, 2.97784935683012010000e-002) (91, 4.97853867709636690000e-002) (92, -9.48786437511444090000e-002) (93, -9.04977545142173770000e-002) (94, 5.47722056508064270000e-002) (95, 1.24144241213798520000e-001) (96, 1.22322164475917820000e-001) (97, -6.40348643064498900000e-002) (98, -1.77185490727424620000e-001) (99, -4.99219299316406250000e+002) (0, -2.87220150232315060000e-001) (1, -6.46141245961189270000e-002) (2, -2.65589642524719240000e+000) (3, -2.35318496823310850000e-001) (4, -1.99264749884605410000e-001) (5, -5.69653093814849850000e-001) (6, -2.83308506011962890000e-001) (7, -1.95510610938072200000e-001) (8, -4.91570271551609040000e-002) (9, -1.06672354042530060000e-001) (10, -5.83246238529682160000e-002) (11, -1.11464619636535640000e-001) (12, 2.41496562957763670000e-002) (13, -3.81828099489212040000e-001) (14, -4.74397689104080200000e-001) (15, -6.01734757423400880000e-001) (16, -7.48723864555358890000e-001) (17, -6.27854406833648680000e-001) (18, -3.39552052319049840000e-002) (19, -5.49314394593238830000e-002) (20, 4.00780839845538140000e-003) (21, 1.83305069804191590000e-002) (22, 4.69305068254470830000e-002) (23, 6.76865801215171810000e-002) (24, 6.90916031599044800000e-002) (25, 3.71261090040206910000e-002) (26, 1.67891308665275570000e-001) (27, 1.04138635098934170000e-001) (28, 2.60774731636047360000e-001) (29, 3.41094344854354860000e-001) (30, 3.52492123842239380000e-001) (31, 3.29946398735046390000e-001) (32, 1.50831609964370730000e-001) (33, 3.77457030117511750000e-002) (34, 7.90250599384307860000e-002) (35, 2.31564287096261980000e-002) (36, 8.91915112733840940000e-002) (37, -6.71381801366806030000e-002) (38, 2.92060547508299350000e-004) (39, -4.36288043856620790000e-002) (40, -6.22201524674892430000e-002) (41, -1.19722060859203340000e-001) (42, -3.80037784576416020000e-001) (43, -3.98068994283676150000e-001) (44, -4.05245095491409300000e-001) (45, -1.95259936153888700000e-002) (46, 1.81052848696708680000e-001) (47, 1.38322865962982180000e+000) (48, 1.79765951633453370000e+000) (49, 2.34802269935607910000e+000) (50, 5.96352517604827880000e-001) (51, -3.18425685167312620000e-001) (52, -2.57727771997451780000e-001) (53, -1.09263553619384770000e+001) (54, -1.75554263591766360000e+000) (55, -2.04301387071609500000e-001) (56, -1.34887233376502990000e-001) (57, -1.23262710869312290000e-001) (58, -6.02532066404819490000e-002) (59, -9.83439609408378600000e-002) (60, -1.64892915636301040000e-002) (61, -3.54361645877361300000e-002) (62, 8.28521549701690670000e-002) (63, -1.05663068592548370000e-001) (64, -1.07435964047908780000e-001) (65, -7.36301019787788390000e-002) (66, 4.55314926803112030000e-002) (67, 4.89678420126438140000e-002) (68, -1.03267841041088100000e-003) (69, 1.26353099942207340000e-001) (70, 7.06096589565277100000e-002) (71, 1.40830695629119870000e-001) (72, 4.32249233126640320000e-002) (73, -3.95524576306343080000e-002) (74, -1.18600748479366300000e-001) (75, 4.47208867626613940000e-006) (76, -1.35803416371345520000e-001) (77, 4.08302154392004010000e-003) (78, -7.75956362485885620000e-002) (79, -5.32869994640350340000e-002) (80, -4.60552945733070370000e-002) (81, 9.52812582254409790000e-002) (82, -1.50828144978731870000e-003) (83, -2.99863517284393310000e-002) (84, 1.02662496268749240000e-001) (85, -9.72468480467796330000e-002) (86, 7.44554176926612850000e-002) (87, -7.82460793852806090000e-002) (88, -2.03132107853889470000e-002) (89, -7.63796567916870120000e-002) (90, -8.62209796905517580000e-002) (91, -1.30550056695938110000e-001) (92, -9.08972844481468200000e-002) (93, -3.90084832906723020000e-002) (94, -1.95560958236455920000e-002) (95, 1.91923871636390690000e-001) (96, 7.50630974769592290000e-001) (97, -3.74710489995777610000e-003) (98, -3.22359986603260040000e-002) (99, -5.10871612548828130000e+002) (0, 1.11707627773284910000e+000) (1, 1.14581155776977540000e+000) (2, 1.07890796661376950000e+000) (3, 3.42009395360946660000e-001) (4, 4.85900849103927610000e-001) (5, 6.65796697139739990000e-001) (6, 5.50472319126129150000e-001) (7, 5.05888223648071290000e-001) (8, 1.24429118633270260000e+000) (9, 1.10579752922058110000e+000) (10, 1.29481697082519530000e+000) (11, 1.31965100765228270000e+000) (12, 1.14542138576507570000e+000) (13, 1.13403975963592530000e+000) (14, 1.27956485748291020000e+000) (15, 1.32615256309509280000e+000) (16, 1.19273591041564940000e+000) (17, 1.23863863945007320000e+000) (18, 7.63689517974853520000e-001) (19, 7.71642446517944340000e-001) (20, 1.27691820263862610000e-001) (21, -3.14731240272521970000e-001) (22, -8.90744924545288090000e-001) (23, -6.63638591766357420000e-001) (24, -5.15831351280212400000e-001) (25, -7.42073655128479000000e-001) (26, -8.05174350738525390000e-001) (27, -6.14752388000488280000e+000) (28, -6.15304088592529300000e+000) (29, -6.09914684295654300000e+000) (30, -6.13065958023071290000e+000) (31, -6.03492355346679690000e+000) (32, -1.25826382637023930000e+000) (33, -6.05659103393554690000e+000) (34, 4.87697809934616090000e-001) (35, 8.56379866600036620000e-001) (36, 1.12860821187496190000e-001) (37, 2.48277410864830020000e-001) (38, 7.63475894927978520000e-001) (39, 7.34984636306762700000e-001) (40, 8.72464239597320560000e-001) (41, 1.26457893848419190000e+000) (42, 1.14552140235900880000e+000) (43, 1.17364025115966800000e+000) (44, 1.16572928428649900000e+000) (45, 1.27999889850616460000e+000) (46, 1.17257094383239750000e+000) (47, 4.85511183738708500000e-001) (48, 5.13674378395080570000e-001) (49, 4.01673078536987300000e-001) (50, 4.63493198156356810000e-001) (51, 4.67938899993896480000e-001) (52, 2.67202854156494140000e-001) (53, 3.33691358566284180000e-001) (54, 2.66919046640396120000e-001) (55, 4.69121754169464110000e-001) (56, 1.10086882114410400000e+000) (57, 1.04882502555847170000e+000) (58, 1.07140958309173580000e+000) (59, 1.17889571189880370000e+000) (60, 6.25781297683715820000e-001) (61, 6.99249863624572750000e-001) (62, 6.69367730617523190000e-001) (63, 7.11969971656799320000e-001) (64, 7.91024640202522280000e-002) (65, 9.46927845478057860000e-001) (66, -3.17000031471252440000e-001) (67, -2.71864861249923710000e-001) (68, -1.46181598305702210000e-001) (69, -3.48885506391525270000e-002) (70, -1.66160449385643010000e-001) (71, -5.12923933565616610000e-002) (72, -2.00787857174873350000e-001) (73, 2.04349368810653690000e-001) (74, 1.80647835135459900000e-001) (75, 6.92624032497406010000e-001) (76, 1.14671277999877930000e+000) (77, 1.24519503116607670000e+000) (78, 7.47193753719329830000e-001) (79, 8.43757167458534240000e-002) (80, 2.11183533072471620000e-001) (81, 1.40743061900138850000e-001) (82, 1.65218040347099300000e-001) (83, 9.52553078532218930000e-002) (84, 7.25971981883049010000e-002) (85, 1.97590272873640060000e-002) (86, 9.74751040339469910000e-002) (87, -2.32852265238761900000e-001) (88, 1.55381247401237490000e-001) (89, 1.35106429457664490000e-001) (90, 1.15085756778717040000e+000) (91, 1.11047554016113280000e+000) (92, 7.34073042869567870000e-001) (93, 8.03248941898345950000e-001) (94, 6.89298391342163090000e-001) (95, 3.18432539701461790000e-001) (96, 6.33500874042510990000e-001) (97, -1.30052804946899410000e-001) (98, 2.63841062784194950000e-001) (99, 7.02011287212371830000e-001) (0, -8.79639163613319400000e-002) (1, -1.75794064998626710000e-001) (2, -9.91033911705017090000e-002) (3, 7.58844763040542600000e-002) (4, 