FANN_FLO_2.1
num_layers=5
learning_rate=0.700000
connection_rate=1.000000
network_type=0
learning_momentum=0.000000
training_algorithm=2
train_error_function=0
train_stop_function=0
cascade_output_change_fraction=0.010000
quickprop_decay=-0.000100
quickprop_mu=1.750000
rprop_increase_factor=1.200000
rprop_decrease_factor=0.500000
rprop_delta_min=0.000000
rprop_delta_max=50.000000
rprop_delta_zero=0.100000
cascade_output_stagnation_epochs=12
cascade_candidate_change_fraction=0.010000
cascade_candidate_stagnation_epochs=12
cascade_max_out_epochs=150
cascade_min_out_epochs=50
cascade_max_cand_epochs=150
cascade_min_cand_epochs=50
cascade_num_candidate_groups=2
bit_fail_limit=3.49999994039535520000e-001
cascade_candidate_limit=1.00000000000000000000e+003
cascade_weight_multiplier=4.00000005960464480000e-001
cascade_activation_functions_count=10
cascade_activation_functions=3 5 7 8 10 11 14 15 16 17 
cascade_activation_steepnesses_count=4
cascade_activation_steepnesses=2.50000000000000000000e-001 5.00000000000000000000e-001 7.50000000000000000000e-001 1.00000000000000000000e+000 
layer_sizes=100 76 52 28 2 
scale_included=0
neurons (num_inputs, activation_function, activation_steepness)=(0, 0, 0.00000000000000000000e+000) (0, 0, 0.00000000000000000000e+000) (0, 0, 0.00000000000000000000e+000) (0, 0, 0.00000000000000000000e+000) (0, 0, 0.00000000000000000000e+000) (0, 0, 0.00000000000000000000e+000) (0, 0, 0.00000000000000000000e+000) (0, 0, 0.00000000000000000000e+000) (0, 0, 0.00000000000000000000e+000) (0, 0, 0.00000000000000000000e+000) (0, 0, 0.00000000000000000000e+000) (0, 0, 0.00000000000000000000e+000) (0, 0, 0.00000000000000000000e+000) (0, 0, 0.00000000000000000000e+000) (0, 0, 0.00000000000000000000e+000) (0, 0, 0.00000000000000000000e+000) (0, 0, 0.00000000000000000000e+000) (0, 0, 0.00000000000000000000e+000) (0, 0, 0.00000000000000000000e+000) (0, 0, 0.00000000000000000000e+000) (0, 0, 0.00000000000000000000e+000) (0, 0, 0.00000000000000000000e+000) (0, 0, 0.00000000000000000000e+000) (0, 0, 0.00000000000000000000e+000) (0, 0, 0.00000000000000000000e+000) (0, 0, 0.00000000000000000000e+000) (0, 0, 0.00000000000000000000e+000) (0, 0, 0.00000000000000000000e+000) (0, 0, 0.00000000000000000000e+000) (0, 0, 0.00000000000000000000e+000) (0, 0, 0.00000000000000000000e+000) (0, 0, 0.00000000000000000000e+000) (0, 0, 0.00000000000000000000e+000) (0, 0, 0.00000000000000000000e+000) (0, 0, 0.00000000000000000000e+000) (0, 0, 0.00000000000000000000e+000) (0, 0, 0.00000000000000000000e+000) (0, 0, 0.00000000000000000000e+000) (0, 0, 0.00000000000000000000e+000) (0, 0, 0.00000000000000000000e+000) (0, 0, 0.00000000000000000000e+000) (0, 0, 0.00000000000000000000e+000) (0, 0, 0.00000000000000000000e+000) (0, 0, 0.00000000000000000000e+000) (0, 0, 0.00000000000000000000e+000) (0, 0, 0.00000000000000000000e+000) (0, 0, 0.00000000000000000000e+000) (0, 0, 0.00000000000000000000e+000) (0, 0, 0.00000000000000000000e+000) (0, 0, 0.00000000000000000000e+000) (0, 0, 0.00000000000000000000e+000) (0, 0, 0.00000000000000000000e+000) (0, 0, 0.00000000000000000000e+000) (0, 0, 0.00000000000000000000e+000) (0, 0, 0.00000000000000000000e+000) (0, 0, 0.00000000000000000000e+000) (0, 0, 0.00000000000000000000e+000) (0, 0, 0.00000000000000000000e+000) (0, 0, 0.00000000000000000000e+000) (0, 0, 0.00000000000000000000e+000) (0, 0, 0.00000000000000000000e+000) (0, 0, 0.00000000000000000000e+000) (0, 0, 0.00000000000000000000e+000) (0, 0, 0.00000000000000000000e+000) (0, 0, 0.00000000000000000000e+000) (0, 0, 0.00000000000000000000e+000) (0, 0, 0.00000000000000000000e+000) (0, 0, 0.00000000000000000000e+000) (0, 0, 0.00000000000000000000e+000) (0, 0, 0.00000000000000000000e+000) (0, 0, 0.00000000000000000000e+000) (0, 0, 0.00000000000000000000e+000) (0, 0, 0.00000000000000000000e+000) (0, 0, 0.00000000000000000000e+000) (0, 0, 0.00000000000000000000e+000) (0, 0, 0.00000000000000000000e+000) (0, 0, 0.00000000000000000000e+000) (0, 0, 0.00000000000000000000e+000) (0, 0, 0.00000000000000000000e+000) (0, 0, 0.00000000000000000000e+000) (0, 0, 0.00000000000000000000e+000) (0, 0, 0.00000000000000000000e+000) (0, 0, 0.00000000000000000000e+000) (0, 0, 0.00000000000000000000e+000) (0, 0, 0.00000000000000000000e+000) (0, 0, 0.00000000000000000000e+000) (0, 0, 0.00000000000000000000e+000) (0, 0, 0.00000000000000000000e+000) (0, 0, 0.00000000000000000000e+000) (0, 0, 0.00000000000000000000e+000) (0, 0, 0.00000000000000000000e+000) (0, 0, 0.00000000000000000000e+000) (0, 0, 0.00000000000000000000e+000) (0, 0, 0.00000000000000000000e+000) (0, 0, 0.00000000000000000000e+000) (0, 0, 0.00000000000000000000e+000) (0, 0, 0.00000000000000000000e+000) (0, 0, 0.00000000000000000000e+000) (0, 0, 0.00000000000000000000e+000) (0, 0, 0.00000000000000000000e+000) (100, 11, 5.00000000000000000000e-001) (100, 11, 5.00000000000000000000e-001) (100, 11, 5.00000000000000000000e-001) (100, 11, 5.00000000000000000000e-001) (100, 11, 5.00000000000000000000e-001) (100, 11, 5.00000000000000000000e-001) (100, 11, 5.00000000000000000000e-001) (100, 11, 5.00000000000000000000e-001) (100, 11, 5.00000000000000000000e-001) (100, 11, 5.00000000000000000000e-001) (100, 11, 5.00000000000000000000e-001) (100, 11, 5.00000000000000000000e-001) (100, 11, 5.00000000000000000000e-001) (100, 11, 5.00000000000000000000e-001) (100, 11, 5.00000000000000000000e-001) (100, 11, 5.00000000000000000000e-001) (100, 11, 5.00000000000000000000e-001) (100, 11, 5.00000000000000000000e-001) (100, 11, 5.00000000000000000000e-001) (100, 11, 5.00000000000000000000e-001) (100, 11, 5.00000000000000000000e-001) (100, 11, 5.00000000000000000000e-001) (100, 11, 5.00000000000000000000e-001) (100, 11, 5.00000000000000000000e-001) (100, 11, 5.00000000000000000000e-001) (100, 11, 5.00000000000000000000e-001) (100, 11, 5.00000000000000000000e-001) (100, 11, 5.00000000000000000000e-001) (100, 11, 5.00000000000000000000e-001) (100, 11, 5.00000000000000000000e-001) (100, 11, 5.00000000000000000000e-001) (100, 11, 5.00000000000000000000e-001) (100, 11, 5.00000000000000000000e-001) (100, 11, 5.00000000000000000000e-001) (100, 11, 5.00000000000000000000e-001) (100, 11, 5.00000000000000000000e-001) (100, 11, 5.00000000000000000000e-001) (100, 11, 5.00000000000000000000e-001) (100, 11, 5.00000000000000000000e-001) (100, 11, 5.00000000000000000000e-001) (100, 11, 5.00000000000000000000e-001) (100, 11, 5.00000000000000000000e-001) (100, 11, 5.00000000000000000000e-001) (100, 11, 5.00000000000000000000e-001) (100, 11, 5.00000000000000000000e-001) (100, 11, 5.00000000000000000000e-001) (100, 11, 5.00000000000000000000e-001) (100, 11, 5.00000000000000000000e-001) (100, 11, 5.00000000000000000000e-001) (100, 11, 5.00000000000000000000e-001) (100, 11, 5.00000000000000000000e-001) (100, 11, 5.00000000000000000000e-001) (100, 11, 5.00000000000000000000e-001) (100, 11, 5.00000000000000000000e-001) (100, 11, 5.00000000000000000000e-001) (100, 11, 5.00000000000000000000e-001) (100, 11, 5.00000000000000000000e-001) (100, 11, 5.00000000000000000000e-001) (100, 11, 5.00000000000000000000e-001) (100, 11, 5.00000000000000000000e-001) (100, 11, 5.00000000000000000000e-001) (100, 11, 5.00000000000000000000e-001) (100, 11, 5.00000000000000000000e-001) (100, 11, 5.00000000000000000000e-001) (100, 11, 5.00000000000000000000e-001) (100, 11, 5.00000000000000000000e-001) (100, 11, 5.00000000000000000000e-001) (100, 11, 5.00000000000000000000e-001) (100, 11, 5.00000000000000000000e-001) (100, 11, 5.00000000000000000000e-001) (100, 11, 5.00000000000000000000e-001) (100, 11, 5.00000000000000000000e-001) (100, 11, 5.00000000000000000000e-001) (100, 11, 5.00000000000000000000e-001) (100, 11, 5.00000000000000000000e-001) (0, 11, 5.00000000000000000000e-001) (76, 11, 5.00000000000000000000e-001) (76, 11, 5.00000000000000000000e-001) (76, 11, 5.00000000000000000000e-001) (76, 11, 5.00000000000000000000e-001) (76, 11, 5.00000000000000000000e-001) (76, 11, 5.00000000000000000000e-001) (76, 11, 5.00000000000000000000e-001) (76, 11, 5.00000000000000000000e-001) (76, 11, 5.00000000000000000000e-001) (76, 11, 5.00000000000000000000e-001) (76, 11, 5.00000000000000000000e-001) (76, 11, 5.00000000000000000000e-001) (76, 11, 5.00000000000000000000e-001) (76, 11, 5.00000000000000000000e-001) (76, 11, 5.00000000000000000000e-001) (76, 11, 5.00000000000000000000e-001) (76, 11, 5.00000000000000000000e-001) (76, 11, 5.00000000000000000000e-001) (76, 11, 5.00000000000000000000e-001) (76, 11, 5.00000000000000000000e-001) (76, 11, 5.00000000000000000000e-001) (76, 11, 5.00000000000000000000e-001) (76, 11, 5.00000000000000000000e-001) (76, 11, 5.00000000000000000000e-001) (76, 11, 5.00000000000000000000e-001) (76, 11, 5.00000000000000000000e-001) (76, 11, 5.00000000000000000000e-001) (76, 11, 5.00000000000000000000e-001) (76, 11, 5.00000000000000000000e-001) (76, 11, 5.00000000000000000000e-001) (76, 11, 5.00000000000000000000e-001) (76, 11, 5.00000000000000000000e-001) (76, 11, 5.00000000000000000000e-001) (76, 11, 5.00000000000000000000e-001) (76, 11, 5.00000000000000000000e-001) (76, 11, 5.00000000000000000000e-001) (76, 11, 5.00000000000000000000e-001) (76, 11, 5.00000000000000000000e-001) (76, 11, 5.00000000000000000000e-001) (76, 11, 5.00000000000000000000e-001) (76, 11, 5.00000000000000000000e-001) (76, 11, 5.00000000000000000000e-001) (76, 11, 5.00000000000000000000e-001) (76, 11, 5.00000000000000000000e-001) (76, 11, 5.00000000000000000000e-001) (76, 11, 5.00000000000000000000e-001) (76, 11, 5.00000000000000000000e-001) (76, 11, 5.00000000000000000000e-001) (76, 11, 5.00000000000000000000e-001) (76, 11, 5.00000000000000000000e-001) (76, 11, 5.00000000000000000000e-001) (0, 11, 5.00000000000000000000e-001) (52, 11, 5.00000000000000000000e-001) (52, 11, 5.00000000000000000000e-001) (52, 11, 5.00000000000000000000e-001) (52, 11, 5.00000000000000000000e-001) (52, 11, 5.00000000000000000000e-001) (52, 11, 5.00000000000000000000e-001) (52, 11, 5.00000000000000000000e-001) (52, 11, 5.00000000000000000000e-001) (52, 11, 5.00000000000000000000e-001) (52, 11, 5.00000000000000000000e-001) (52, 11, 5.00000000000000000000e-001) (52, 11, 5.00000000000000000000e-001) (52, 11, 5.00000000000000000000e-001) (52, 11, 5.00000000000000000000e-001) (52, 11, 5.00000000000000000000e-001) (52, 11, 5.00000000000000000000e-001) (52, 11, 5.00000000000000000000e-001) (52, 11, 5.00000000000000000000e-001) (52, 11, 5.00000000000000000000e-001) (52, 11, 5.00000000000000000000e-001) (52, 11, 5.00000000000000000000e-001) (52, 11, 5.00000000000000000000e-001) (52, 11, 5.00000000000000000000e-001) (52, 11, 5.00000000000000000000e-001) (52, 11, 5.00000000000000000000e-001) (52, 11, 5.00000000000000000000e-001) (52, 11, 5.00000000000000000000e-001) (0, 11, 5.00000000000000000000e-001) (28, 6, 5.00000000000000000000e-001) (0, 6, 5.00000000000000000000e-001) 
connections (connected_to_neuron, weight)=(0, 8.70621025562286380000e-001) (1, 7.38565087318420410000e-001) (2, 9.14035260677337650000e-001) (3, 7.87076175212860110000e-001) (4, 9.31406021118164060000e-001) (5, 8.35526704788208010000e-001) (6, 5.48693895339965820000e-001) (7, 5.55383324623107910000e-001) (8, 2.82768875360488890000e-001) (9, 3.89167636632919310000e-001) (10, 3.59156638383865360000e-001) (11, 2.19889566302299500000e-001) (12, 3.97642463445663450000e-001) (13, -4.83643531799316410000e-001) (14, -6.82375252246856690000e-001) (15, -5.36653637886047360000e-001) (16, -6.24629795551300050000e-001) (17, -6.49757921695709230000e-001) (18, 3.11802178621292110000e-001) (19, 8.32575440406799320000e-001) (20, 8.59572470188140870000e-001) (21, 9.50392782688140870000e-001) (22, 8.47115218639373780000e-001) (23, 7.60231912136077880000e-001) (24, 1.34844112396240230000e+000) (25, 9.25252676010131840000e-001) (26, 8.29423367977142330000e-001) (27, 9.10368204116821290000e-001) (28, 9.10412907600402830000e-001) (29, 9.26175177097320560000e-001) (30, 7.63327181339263920000e-001) (31, 8.75366091728210450000e-001) (32, 1.36585152149200440000e+000) (33, 1.47038388252258300000e+000) (34, 1.19775128364562990000e+000) (35, 1.27524244785308840000e+000) (36, 1.42774522304534910000e+000) (37, 8.24735403060913090000e-001) (38, 9.36215102672576900000e-001) (39, 1.98283219337463380000e+000) (40, -8.46657715737819670000e-003) (41, -6.09535753726959230000e-001) (42, -5.01387417316436770000e-001) (43, -6.86220467090606690000e-001) (44, -5.14363348484039310000e-001) (45, -4.90694135427474980000e-001) (46, 2.24509299732744690000e-003) (47, -9.54528078436851500000e-002) (48, -2.70269989967346190000e-001) (49, -1.29200756549835210000e+000) (50, -1.43484199047088620000e+000) (51, 7.91440486907958980000e-001) (52, 9.56453561782836910000e-001) (53, 7.87129402160644530000e-001) (54, 8.33391070365905760000e-001) (55, 5.83471715450286870000e-001) (56, -2.35330387949943540000e-001) (57, 4.02859240770339970000e-001) (58, 4.49294835329055790000e-001) (59, 7.08578467369079590000e-001) (60, 8.47311675548553470000e-001) (61, 8.91159296035766600000e-001) (62, 9.00862991809844970000e-001) (63, 8.29252004623413090000e-001) (64, 9.03409540653228760000e-001) (65, 8.86164486408233640000e-001) (66, 8.32105517387390140000e-001) (67, 6.92152738571166990000e-001) (68, 9.03347253799438480000e-001) (69, 8.45657646656036380000e-001) (70, 1.30150592327117920000e+000) (71, 1.24684894084930420000e+000) (72, 1.35808503627777100000e+000) (73, 9.43428099155426030000e-001) (74, 7.53396213054656980000e-001) (75, 3.72451394796371460000e-001) (76, -1.13831222057342530000e+000) (77, -2.57297337055206300000e-001) (78, 9.70708131790161130000e-001) (79, 2.75756859779357910000e+000) (80, 8.60912919044494630000e-001) (81, 9.79783475399017330000e-001) (82, 8.30392718315124510000e-001) (83, 7.91061699390411380000e-001) (84, 8.59048128128051760000e-001) (85, 8.42241466045379640000e-001) (86, 6.84224903583526610000e-001) (87, 8.92706096172332760000e-001) (88, 9.68639910221099850000e-001) (89, 9.73479986190795900000e-001) (90, 8.57415556907653810000e-001) (91, 7.68905878067016600000e-001) (92, 7.99191594123840330000e-001) (93, 9.42373931407928470000e-001) (94, 8.98447573184967040000e-001) (95, 8.34084391593933110000e-001) (96, -4.59543079137802120000e-001) (97, -6.09781026840209960000e-001) (98, -2.94259667396545410000e-001) (99, 9.64317142963409420000e-001) (0, -6.93068280816078190000e-002) (1, -1.13404996693134310000e-001) (2, -2.28016927838325500000e-001) (3, -2.60581463575363160000e-001) (4, -8.92130210995674130000e-002) (5, -9.90919992327690120000e-002) (6, -1.99277281761169430000e-001) (7, -7.95018747448921200000e-002) (8, -1.53673380613327030000e-001) (9, -7.37096443772315980000e-002) (10, -1.56937181949615480000e-001) (11, -4.40960936248302460000e-002) (12, -1.41123741865158080000e-001) (13, -8.44121515750885010000e-001) (14, -9.01232123374938960000e-001) (15, -8.93824279308319090000e-001) (16, -9.30243968963623050000e-001) (17, -7.48975038528442380000e-001) (18, -6.04674555361270900000e-002) (19, -2.22825780510902400000e-001) (20, -2.16728255152702330000e-001) (21, -1.18498221039772030000e-001) (22, 2.07536444067955020000e-001) (23, 2.14228898286819460000e-001) (24, 3.43727171421051030000e-001) (25, 7.62378275394439700000e-002) (26, 1.91661193966865540000e-001) (27, -1.59603640437126160000e-001) (28, -1.09951533377170560000e-001) (29, -1.29653647541999820000e-001) (30, 9.96572449803352360000e-002) (31, 3.62900942564010620000e-002) (32, 2.27265760302543640000e-001) (33, 3.62380534410476680000e-001) (34, 2.30800896883010860000e-001) (35, 3.48806947469711300000e-001) (36, 1.90016269683837890000e-001) (37, -7.62130022048950200000e-002) (38, -1.25450149178504940000e-001) (39, -8.32686185836791990000e-001) (40, -7.42313206195831300000e-001) (41, -6.93115592002868650000e-001) (42, -6.54562354087829590000e-001) (43, -7.74695277214050290000e-001) (44, -6.98212027549743650000e-001) (45, -6.83948159217834470000e-001) (46, -8.60302150249481200000e-001) (47, -1.00314867496490480000e+000) (48, -9.83962118625640870000e-001) (49, -9.58878159523010250000e-001) (50, -1.09139728546142580000e+000) (51, -1.26944318413734440000e-001) (52, -1.93082481622695920000e-001) (53, -2.46866699308156970000e-002) (54, -1.85417219996452330000e-001) (55, -2.33390286564826970000e-001) (56, -6.50221407413482670000e-002) (57, -1.07881061732769010000e-001) (58, -1.65046572685241700000e-001) (59, -1.83289974927902220000e-001) (60, -2.04831480979919430000e-001) (61, -5.11065870523452760000e-002) (62, -5.70474974811077120000e-002) (63, -8.50237235426902770000e-002) (64, -1.12648166716098790000e-001) (65, -1.44996836781501770000e-001) (66, -6.76592215895652770000e-002) (67, -6.90080597996711730000e-002) (68, -1.58662602305412290000e-001) (69, 1.67723476886749270000e-001) (70, 2.75593668222427370000e-001) (71, 2.40590006113052370000e-001) (72, 3.71440142393112180000e-001) (73, -1.79222211241722110000e-001) (74, -8.90339091420173650000e-002) (75, -1.00923836231231690000e+000) (76, 3.92834190279245380000e-003) (77, 1.97090789675712590000e-001) (78, 8.41884016990661620000e-002) (79, -4.31083887815475460000e-001) (80, -2.08564952015876770000e-001) (81, -1.72453328967094420000e-001) (82, 3.31105113029479980000e-001) (83, 2.33175396919250490000e-001) (84, -7.44093358516693120000e-002) (85, -1.10877834260463710000e-001) (86, -8.24904367327690120000e-002) (87, -2.30348080396652220000e-001) (88, -5.05022741854190830000e-002) (89, -1.18190221488475800000e-001) (90, -1.54939472675323490000e-001) (91, 2.65935529023408890000e-002) (92, 1.57754823565483090000e-001) (93, 2.62875705957412720000e-001) (94, -1.77936837077140810000e-001) (95, -9.03513506054878230000e-002) (96, -8.27080309391021730000e-002) (97, -2.28666737675666810000e-002) (98, -2.12303802371025090000e-001) (99, -2.21272170543670650000e-001) (0, 5.41487559676170350000e-002) (1, 1.12425126135349270000e-001) (2, -3.27531173825263980000e-002) (3, 1.01193226873874660000e-002) (4, 5.09438551962375640000e-002) (5, 9.52132120728492740000e-002) (6, -8.24622958898544310000e-002) (7, 9.85336024314165120000e-003) (8, -1.18662253022193910000e-001) (9, 5.10482909157872200000e-003) (10, -5.03505170345306400000e-002) (11, -8.40414389967918400000e-002) (12, -3.75923118554055690000e-004) (13, -1.86630949378013610000e-001) (14, -1.29520386457443240000e-001) (15, -3.45252305269241330000e-002) (16, -1.24417796730995180000e-001) (17, -1.22153379023075100000e-001) (18, -1.67539417743682860000e-001) (19, -4.50272858142852780000e-002) (20, 5.88972866535186770000e-002) (21, 7.72078409790992740000e-002) (22, 8.93416255712509160000e-002) (23, -2.02226005494594570000e-002) (24, 1.70539051294326780000e-001) (25, -2.41253664717078210000e-003) (26, -5.83207271993160250000e-002) (27, 6.39754086732864380000e-002) (28, 2.27339304983615880000e-002) (29, 1.01438805460929870000e-001) (30, 1.04569911956787110000e-001) (31, -3.51456925272941590000e-002) (32, 5.77381968498229980000e-001) (33, 4.34083878993988040000e-001) (34, 3.44046622514724730000e-001) (35, 3.99570316076278690000e-001) (36, 1.01377770304679870000e-001) (37, -2.67228502780199050000e-002) (38, 2.59260721504688260000e-002) (39, -1.60668879747390750000e-001) (40, -7.74596333503723140000e-002) (41, -8.50135311484336850000e-002) (42, -1.04080840945243840000e-001) (43, -2.11496695876121520000e-001) (44, -1.62271812558174130000e-001) (45, -9.02198180556297300000e-002) (46, -6.76062852144241330000e-002) (47, 1.26217663288116460000e-001) (48, 3.44708040356636050000e-002) (49, 1.57024767249822620000e-002) (50, -5.20038381218910220000e-002) (51, 1.29643768072128300000e-001) (52, 6.66950177401304240000e-003) (53, -1.59146040678024290000e-002) (54, -2.42692362517118450000e-002) (55, -1.01504057645797730000e-001) (56, -1.88367988448590040000e-003) (57, 4.76184347644448280000e-003) (58, -9.65125858783721920000e-002) (59, -2.66557056456804280000e-002) (60, 2.99177803099155430000e-002) (61, 7.70918726921081540000e-002) (62, -2.33903210610151290000e-002) (63, -2.01432518661022190000e-002) (64, 9.00130122900009160000e-002) (65, 2.39546336233615880000e-002) (66, 5.65352365374565120000e-002) (67, 7.26546272635459900000e-002) (68, -6.85380175709724430000e-002) (69, -1.26420333981513980000e-002) (70, 1.12533509731292720000e-001) (71, 4.63521122932434080000e-001) (72, 8.17878469824790950000e-002) (73, -5.19055165350437160000e-002) (74, -1.85996189713478090000e-001) (75, -1.26583307981491090000e-001) (76, -4.27773565053939820000e-001) (77, -3.69924396276474000000e-001) (78, -4.81433957815170290000e-001) (79, -4.73407179117202760000e-001) (80, -2.36930120736360550000e-002) (81, -4.07792292535305020000e-002) (82, -6.55106678605079650000e-002) (83, 8.68396461009979250000e-002) (84, -5.07092066109180450000e-002) (85, 1.07926838099956510000e-001) (86, -3.50846573710441590000e-002) (87, 8.70784372091293330000e-002) (88, 3.69429327547550200000e-002) (89, 8.40900372713804240000e-003) (90, 6.66220765560865400000e-003) (91, 5.05293682217597960000e-002) (92, 1.26255691051483150000e-001) (93, 7.55451153963804240000e-003) (94, 1.17417804896831510000e-001) (95, -1.10612120479345320000e-002) (96, 1.80296808481216430000e-001) (97, -6.11488148570060730000e-002) (98, 9.33458562940359120000e-003) (99, -6.18629455566406250000e-002) (0, 9.84194278717041020000e-001) (1, 8.53934943675994870000e-001) (2, 9.13472652435302730000e-001) (3, 9.38150405883789060000e-001) (4, 9.11355972290039060000e-001) (5, 8.11299145221710210000e-001) (6, 1.59344881772995000000e-001) (7, 2.85381108522415160000e-001) (8, 2.02923953533172610000e-001) (9, 1.21112406253814700000e-001) (10, 5.96226513385772710000e-001) (11, -2.02108934521675110000e-001) (12, -5.10019183158874510000e-001) (13, -2.00721001625061040000e+000) (14, -2.07416534423828130000e+000) (15, -2.06567549705505370000e+000) (16, -2.13405919075012210000e+000) (17, -1.28356099128723140000e+000) (18, 6.43621146678924560000e-001) (19, 9.19819056987762450000e-001) (20, 8.67513179779052730000e-001) (21, 9.12453353404998780000e-001) (22, 8.18501949310302730000e-001) (23, 8.60451400279998780000e-001) (24, 1.17661178112030030000e+000) (25, 7.98781454563140870000e-001) (26, 8.75292062759399410000e-001) (27, 9.75938260555267330000e-001) (28, 9.23712372779846190000e-001) (29, 8.57196331024169920000e-001) (30, 1.06703364849090580000e+000) (31, 1.01799190044403080000e+000) (32, 1.41599071025848390000e+000) (33, 8.08923959732055660000e-001) (34, 7.89066731929779050000e-001) (35, 1.35103416442871090000e+000) (36, 1.24786424636840820000e+000) (37, 8.85756552219390870000e-001) (38, 8.87715160846710210000e-001) (39, -1.80968090891838070000e-001) (40, -2.42609068751335140000e-001) (41, -2.06745219230651860000e+000) (42, -2.20539760589599610000e+000) (43, -1.96234321594238280000e+000) (44, -2.04102969169616700000e+000) (45, -2.09742593765258790000e+000) (46, -1.19797134399414060000e+000) (47, -1.41321849822998050000e+000) (48, -5.48088908195495610000e-001) (49, -1.37285459041595460000e+000) (50, -5.46221137046813960000e-001) (51, 6.45936608314514160000e-001) (52, 7.89569854736328130000e-001) (53, 9.17848467826843260000e-001) (54, 9.32410657405853270000e-001) (55, 1.43034920096397400000e-001) (56, 2.14061513543128970000e-001) (57, 5.69786131381988530000e-001) (58, 1.63464754819870000000e-001) (59, 7.40644216537475590000e-001) (60, 7.71096169948577880000e-001) (61, 9.01497542858123780000e-001) (62, 8.44856917858123780000e-001) (63, 8.30586850643157960000e-001) (64, 9.09171283245086670000e-001) (65, 9.02845203876495360000e-001) (66, 8.17041993141174320000e-001) (67, 7.89966762065887450000e-001) (68, 9.09974455833435060000e-001) (69, 7.61740386486053470000e-001) (70, 1.32443070411682130000e+000) (71, 1.34383380413055420000e+000) (72, 1.33111286163330080000e+000) (73, 9.00222420692443850000e-001) (74, 5.46556949615478520000e-001) (75, 1.04582682251930240000e-001) (76, -1.40972697734832760000e+000) (77, -3.12500931322574620000e-002) (78, 7.52025723457336430000e-001) (79, 2.38571333885192870000e+000) (80, 8.74119400978088380000e-001) (81, 9.73146736621856690000e-001) (82, 8.67332220077514650000e-001) (83, 8.25790703296661380000e-001) (84, 7.91572868824005130000e-001) (85, 8.97930026054382320000e-001) (86, 4.48759615421295170000e-001) (87, 6.35680437088012700000e-001) (88, 8.65284740924835210000e-001) (89, 8.33174169063568120000e-001) (90, 8.87098729610443120000e-001) (91, 8.49587142467498780000e-001) (92, 8.64565432071685790000e-001) (93, 8.88643801212310790000e-001) (94, 8.91591787338256840000e-001) (95, 7.53918945789337160000e-001) (96, -3.24864268302917480000e-001) (97, -2.59982317686080930000e-001) (98, 2.93431669473648070000e-001) (99, 8.98070394992828370000e-001) (0, -5.70560619235038760000e-002) (1, -3.80842536687850950000e-002) (2, -2.19578385353088380000e-001) (3, -2.15793579816818240000e-001) (4, -9.65574830770492550000e-002) (5, -1.30776569247245790000e-001) (6, -2.06533372402191160000e-001) (7, -1.48025140166282650000e-001) (8, -2.02383041381835940000e-001) (9, -2.16170892119407650000e-001) (10, -1.72848150134086610000e-001) (11, -2.22854241728782650000e-001) (12, -2.70911902189254760000e-001) (13, -1.58050402998924260000e-001) (14, -1.98738947510719300000e-001) (15, -4.36952590942382810000e-001) (16, -4.26423996686935420000e-001) (17, -4.36062693595886230000e-001) (18, -2.47742295265197750000e-001) (19, -1.14633098244667050000e-001) (20, -1.29089836264029150000e-004) (21, -6.94487541913986210000e-002) (22, -1.46787360310554500000e-001) (23, 1.04823270812630650000e-002) (24, 5.33489417284727100000e-003) (25, 4.30689975619316100000e-002) (26, -7.25869163870811460000e-002) (27, -2.67555993050336840000e-002) (28, 1.01950867101550100000e-002) (29, 1.73300877213478090000e-002) (30, 1.80075839161872860000e-002) (31, -7.85012170672416690000e-002) (32, 1.11476004123687740000e-001) (33, 3.88536900281906130000e-001) (34, 4.19609904289245610000e-001) (35, 1.23712621629238130000e-001) (36, -8.78862962126731870000e-002) (37, -5.61221353709697720000e-002) (38, -1.38448685407638550000e-001) (39, -4.33353543281555180000e-001) (40, -3.64619642496109010000e-001) (41, -3.44093561172485350000e-001) (42, -3.94839555025100710000e-001) (43, -5.56595265865325930000e-001) (44, -2.60817497968673710000e-001) (45, -1.94423332810401920000e-001) (46, -2.72188335657119750000e-001) (47, -2.12636187672615050000e-001) (48, -4.08949196338653560000e-001) (49, -1.97683945298194890000e-001) (50, -4.68091785907745360000e-001) (51, -1.36940613389015200000e-001) (52, -1.45904496312141420000e-001) (53, -6.84040039777755740000e-002) (54, -1.29252478480339050000e-001) (55, -2.68784552812576290000e-001) (56, -2.77378290891647340000e-001) (57, -3.04852038621902470000e-001) (58, -3.12027990818023680000e-001) (59, -9.33559611439704900000e-002) (60, -3.88088002800941470000e-002) (61, -1.68650656938552860000e-001) (62, -1.19303762912750240000e-001) (63, -4.27416115999221800000e-002) (64, -2.35866159200668330000e-002) (65, 5.24778515100479130000e-002) (66, -9.32663232088088990000e-002) (67, -1.17564424872398380000e-001) (68, -1.16178765892982480000e-001) (69, -6.08904361724853520000e-002) (70, 3.06685324758291240000e-002) (71, -6.87213893979787830000e-003) (72, -9.83234681189060210000e-003) (73, -1.55832290649414060000e-001) (74, -2.28700652718544010000e-001) (75, -4.25746470689773560000e-001) (76, -4.92036968469619750000e-001) (77, -4.14769053459167480000e-001) (78, -5.68076074123382570000e-001) (79, -4.84351128339767460000e-001) (80, -2.90459156036376950000e-001) (81, -5.12856468558311460000e-002) (82, 7.93073102831840520000e-002) (83, 8.21681022644042970000e-002) (84, -9.59640890359878540000e-002) (85, -4.43424358963966370000e-002) (86, -1.66452705860137940000e-001) (87, -1.94635376334190370000e-001) (88, -9.23160761594772340000e-002) (89, -5.52616305649280550000e-002) (90, -5.67348226904869080000e-002) (91, 1.56024554744362830000e-002) (92, -8.23650956153869630000e-002) (93, -5.83843588829040530000e-002) (94, 1.14715844392776490000e-002) (95, -1.81348025798797610000e-001) (96, -3.13065797090530400000e-001) (97, -1.07192628085613250000e-001) (98, -3.11526179313659670000e-001) (99, -2.97666221857070920000e-001) (0, -4.48662377893924710000e-002) (1, 5.59409754350781440000e-003) (2, -6.31867945194244380000e-002) (3, -1.41395777463912960000e-001) (4, 7.92230814695358280000e-002) (5, -3.49585227668285370000e-002) (6, 8.32885131239891050000e-003) (7, -3.19845788180828090000e-002) (8, -6.73608258366584780000e-002) (9, -5.98444491624832150000e-002) (10, -2.10127364844083790000e-002) (11, -8.07048827409744260000e-002) (12, -2.46424996294081210000e-003) (13, -1.98803693056106570000e-001) (14, -3.00048701465129850000e-002) (15, -3.25242839753627780000e-002) (16, -1.39948353171348570000e-001) (17, -1.76882743835449220000e-001) (18, -5.53278960287570950000e-002) (19, 3.70246209204196930000e-002) (20, -6.18357502389699220000e-004) (21, -5.34198768436908720000e-002) (22, 2.12669409811496730000e-002) (23, -8.25965851545333860000e-002) (24, 1.83121412992477420000e-001) (25, 7.35197514295578000000e-002) (26, -7.30134546756744380000e-002) (27, 6.78870081901550290000e-002) (28, 7.95874372124671940000e-002) (29, -1.31732776761054990000e-001) (30, -6.93019554018974300000e-002) (31, -2.19997391104698180000e-002) (32, 5.22855281829833980000e-001) (33, 5.18735408782958980000e-001) (34, 5.03989279270172120000e-001) (35, 3.76031309366226200000e-001) (36, -3.40629778802394870000e-002) (37, 1.39586687088012700000e-001) (38, -8.51957574486732480000e-002) (39, -1.23328484594821930000e-001) (40, -3.37488800287246700000e-002) (41, -1.28831371665000920000e-001) (42, -6.31136149168014530000e-002) (43, -7.59823396801948550000e-002) (44, -1.85551866888999940000e-001) (45, -3.67481745779514310000e-002) (46, -4.57913726568222050000e-002) (47, -6.70227333903312680000e-002) (48, -3.05891156196594240000e-001) (49, -2.00511500239372250000e-001) (50, -1.58350840210914610000e-001) (51, 6.04001097381114960000e-002) (52, -1.12443946301937100000e-001) (53, -1.52297737076878550000e-002) (54, -1.01370841264724730000e-001) (55, -7.77375102043151860000e-002) (56, -1.21737353503704070000e-001) (57, -9.78857427835464480000e-002) (58, -1.38979554176330570000e-001) (59, -9.72009077668190000000e-002) (60, 1.17142535746097560000e-001) (61, -3.20955216884613040000e-002) (62, 5.44051192700862880000e-002) (63, 1.94961819797754290000e-002) (64, 3.00274007022380830000e-002) (65, -2.72010881453752520000e-002) (66, -2.01753508299589160000e-002) (67, 9.63896289467811580000e-002) (68, -5.79133890569210050000e-002) (69, 6.07449524104595180000e-002) (70, 1.55198350548744200000e-001) (71, 4.32324081659317020000e-001) (72, 1.72871649265289310000e-001) (73, -7.74258887395262720000e-003) (74, -7.83141627907752990000e-002) (75, -4.13714736700057980000e-001) (76, -3.63088995218276980000e-001) (77, -6.23951852321624760000e-001) (78, -4.50214326381683350000e-001) (79, -3.48499178886413570000e-001) (80, 7.37749561667442320000e-002) (81, -2.84723471850156780000e-002) (82, 1.91605821251869200000e-001) (83, 7.91362822055816650000e-002) (84, 2.41211149841547010000e-002) (85, -6.81033730506896970000e-002) (86, -2.62163393199443820000e-003) (87, -7.04804807901382450000e-002) (88, 8.96338466554880140000e-003) (89, 5.71617223322391510000e-002) (90, -7.33741670846939090000e-002) (91, 3.67392087355256080000e-003) (92, 8.75078216195106510000e-002) (93, 1.03886492550373080000e-001) (94, 2.98195201903581620000e-002) (95, 8.72697099111974240000e-004) (96, 1.04153029620647430000e-001) (97, -8.73609632253646850000e-002) (98, -6.30517974495887760000e-002) (99, -2.00257473625242710000e-003) (0, -9.09552425146102910000e-002) (1, -7.71123692393302920000e-002) (2, 4.27323020994663240000e-002) (3, -6.83394744992256160000e-002) (4, 4.13162894546985630000e-002) (5, -1.85155197978019710000e-002) (6, 6.59018568694591520000e-003) (7, 2.10758317261934280000e-002) (8, -6.83121755719184880000e-002) (9, -6.26664012670516970000e-002) (10, 8.02041776478290560000e-003) (11, -4.67241518199443820000e-002) (12, -1.11389704048633580000e-001) (13, -1.97821278125047680000e-002) (14, 1.63275804370641710000e-002) (15, 1.00594252347946170000e-001) (16, -4.47029955685138700000e-002) (17, -6.91804438829422000000e-002) (18, -2.95365527272224430000e-002) (19, 3.12371868640184400000e-002) (20, -7.81548321247100830000e-002) (21, -8.99111479520797730000e-003) (22, -4.40169647336006160000e-002) (23, 3.79681624472141270000e-002) (24, 9.74835753440856930000e-002) (25, 7.29628354310989380000e-002) (26, -1.87247097492218020000e-002) (27, -7.64360278844833370000e-002) (28, -8.68074297904968260000e-002) (29, -5.49470707774162290000e-002) (30, 5.10818138718605040000e-003) (31, 1.40730500221252440000e-001) (32, 2.61302292346954350000e-001) (33, 3.11338901519775390000e-001) (34, 2.39710927009582520000e-001) (35, 1.92274406552314760000e-001) (36, 1.30620732903480530000e-001) (37, -1.06342211365699770000e-001) (38, -1.04743093252182010000e-001) (39, 2.53900121897459030000e-002) (40, -1.67372211813926700000e-001) (41, 2.20313128083944320000e-002) (42, 1.12920351326465610000e-001) (43, -2.91148405522108080000e-002) (44, -7.48637318611145020000e-002) (45, -6.33372515439987180000e-002) (46, 1.55891478061676030000e-002) (47, 9.85676944255828860000e-002) (48, -5.28283305466175080000e-002) (49, 5.33186234533786770000e-002) (50, -4.90049496293067930000e-002) (51, 2.02744960784912110000e-001) (52, 7.66554623842239380000e-002) (53, -2.22397968173027040000e-002) (54, 4.85487841069698330000e-002) (55, -1.17074087262153630000e-001) (56, -1.54683947563171390000e-001) (57, -1.11547909677028660000e-001) (58, -2.40723211318254470000e-002) (59, -4.41152490675449370000e-002) (60, 5.83923123776912690000e-002) (61, 3.60001140506938100000e-004) (62, -8.87213647365570070000e-002) (63, -3.33181992173194890000e-002) (64, -1.02835372090339660000e-002) (65, -6.10415171831846240000e-003) (66, -6.57050013542175290000e-002) (67, 4.21807579696178440000e-002) (68, 7.37542361021041870000e-002) (69, -1.19631632696837190000e-003) (70, 1.93815767765045170000e-001) (71, 2.56648153066635130000e-001) (72, 3.13175648450851440000e-001) (73, -5.41825965046882630000e-002) (74, -4.17547896504402160000e-002) (75, -1.96788132190704350000e-001) (76, -7.49074876308441160000e-001) (77, -5.17600715160369870000e-001) (78, -1.18673336505889890000e+000) (79, -9.72370684146881100000e-001) (80, -3.21866571903228760000e-002) (81, -1.45880402997136120000e-002) (82, -3.78599297255277630000e-003) (83, 1.58360540866851810000e-001) (84, 3.36302593350410460000e-002) (85, 6.52297493070364000000e-003) (86, -9.47760418057441710000e-002) (87, -3.57650108635425570000e-002) (88, 1.48331467062234880000e-002) (89, 3.27042192220687870000e-002) (90, 3.20938639342784880000e-002) (91, -1.11155651509761810000e-001) (92, 8.15301612019538880000e-002) (93, -2.49224733561277390000e-002) (94, 5.06779216229915620000e-002) (95, -4.42866720259189610000e-002) (96, 1.41987934708595280000e-001) (97, -2.35734023153781890000e-002) (98, 1.21138691902160640000e-002) (99, -1.28020495176315310000e-001) (0, -6.32839575409889220000e-002) (1, -6.82371258735656740000e-002) (2, -3.75006236135959630000e-002) (3, -1.42016932368278500000e-001) (4, -2.73979436606168750000e-002) (5, -1.10538326203823090000e-001) (6, -1.62369340658187870000e-001) (7, -1.27342820167541500000e-001) (8, -1.66959181427955630000e-001) (9, -1.12359985709190370000e-001) (10, -8.83658081293106080000e-002) (11, -2.25404292345047000000e-001) (12, -2.12732240557670590000e-001) (13, -1.38012707233428960000e-001) (14, -3.30671459436416630000e-001) (15, -5.12177050113677980000e-001) (16, -5.80399572849273680000e-001) (17, -2.50942319631576540000e-001) (18, -1.22706927359104160000e-001) (19, -9.68246534466743470000e-002) (20, -5.32274730503559110000e-002) (21, -2.13207826018333440000e-002) (22, -5.15942275524139400000e-002) (23, -3.25234197080135350000e-002) (24, 8.28147009015083310000e-002) (25, -1.02495990693569180000e-001) (26, 6.69126808643341060000e-002) (27, 6.23838566243648530000e-002) (28, -4.55324053764343260000e-002) (29, -3.93861718475818630000e-002) (30, 4.13694456219673160000e-002) (31, -3.76527644693851470000e-002) (32, 5.46515658497810360000e-002) (33, 3.02763342857360840000e-001) (34, 3.58030676841735840000e-001) (35, 6.77862465381622310000e-002) (36, -7.12875053286552430000e-002) (37, -7.66402855515480040000e-002) (38, -1.70552000403404240000e-001) (39, -1.73271968960762020000e-001) (40, -5.04739761352539060000e-001) (41, -5.21561682224273680000e-001) (42, -5.60770630836486820000e-001) (43, -5.97092688083648680000e-001) (44, -2.11554720997810360000e-001) (45, -2.49707877635955810000e-001) (46, -1.75526082515716550000e-001) (47, -2.06230685114860530000e-001) (48, -3.21430861949920650000e-001) (49, -2.49668538570404050000e-001) (50, -3.21909815073013310000e-001) (51, -2.14930549263954160000e-001) (52, -1.54657289385795590000e-001) (53, -3.63369211554527280000e-002) (54, -1.37667506933212280000e-001) (55, -1.23897977173328400000e-001) (56, -1.01693399250507350000e-001) (57, -1.58150896430015560000e-001) (58, -1.21297895908355710000e-001) (59, -2.58031990379095080000e-002) (60, 2.58103068917989730000e-002) (61, -1.05304509401321410000e-001) (62, -1.17407791316509250000e-001) (63, 1.20045449584722520000e-002) (64, -2.32162047177553180000e-002) (65, -9.50496941804885860000e-002) (66, 8.49002525210380550000e-002) (67, -1.14254457876086240000e-002) (68, -6.86446875333786010000e-002) (69, -6.14602006971836090000e-002) (70, -1.54808769002556800000e-003) (71, 6.21412601321935650000e-003) (72, 8.01852568984031680000e-002) (73, 6.01733550429344180000e-002) (74, -1.49528101086616520000e-001) (75, -3.15392136573791500000e-001) (76, -3.52620840072631840000e-001) (77, -3.00633937120437620000e-001) (78, -3.80284786224365230000e-001) (79, -3.76165509223937990000e-001) (80, -1.71591028571128850000e-001) (81, 3.07299997657537460000e-002) (82, -4.41872477531433110000e-002) (83, -3.47867719829082490000e-002) (84, -5.80990202724933620000e-002) (85, -1.01023968309164050000e-002) (86, -1.35891929268836980000e-001) (87, -9.48579832911491390000e-002) (88, 2.64576654881238940000e-002) (89, 3.18537019193172450000e-002) (90, -5.76620399951934810000e-002) (91, -6.99398294091224670000e-002) (92, 7.29495808482170100000e-002) (93, -4.35209050774574280000e-002) (94, -1.18141300976276400000e-001) (95, -7.57322460412979130000e-002) (96, -1.13840878009796140000e-001) (97, -2.50051915645599370000e-002) (98, -7.66897946596145630000e-002) (99, -1.45958185195922850000e-001) (0, 8.17233741283416750000e-001) (1, 7.45184957981109620000e-001) (2, 7.32337057590484620000e-001) (3, 8.52702856063842770000e-001) (4, 7.09199130535125730000e-001) (5, 7.28398025035858150000e-001) (6, 7.92546033859252930000e-001) (7, 7.04203367233276370000e-001) (8, 6.50757491588592530000e-001) (9, 6.24033689498901370000e-001) (10, 6.92060112953186040000e-001) (11, 6.74579620361328130000e-001) (12, 6.33539676666259770000e-001) (13, 5.79002261161804200000e-001) (14, 3.02650600671768190000e-001) (15, 3.00934821367263790000e-001) (16, 4.35029149055480960000e-001) (17, 3.28931659460067750000e-001) (18, 7.50656604766845700000e-001) (19, 6.82387471199035640000e-001) (20, 8.06443929672241210000e-001) (21, 7.31627047061920170000e-001) (22, 7.33650028705596920000e-001) (23, 7.83765971660614010000e-001) (24, 8.72925043106079100000e-001) (25, 6.66853129863739010000e-001) (26, 6.96593284606933590000e-001) (27, 6.46517157554626460000e-001) (28, 6.54891192913055420000e-001) (29, 6.77791595458984380000e-001) (30, 7.07536995410919190000e-001) (31, 7.72534251213073730000e-001) (32, 1.84576642513275150000e+000) (33, 4.25388050079345700000e+000) (34, 3.75000000000000000000e+000) (35, 1.53138709068298340000e+000) (36, 9.31964635848999020000e-001) (37, 6.48572206497192380000e-001) (38, 5.82449436187744140000e-001) (39, 4.34351682662963870000e-001) (40, 4.55222547054290770000e-001) (41, 5.54821133613586430000e-001) (42, 4.83848899602890010000e-001) (43, 3.46949279308319090000e-001) (44, 3.66138696670532230000e-001) (45, 4.45831865072250370000e-001) (46, 4.73823130130767820000e-001) (47, 3.27076196670532230000e-001) (48, 5.34194827079772950000e-001) (49, 5.09066522121429440000e-001) (50, 5.40377616882324220000e-001) (51, 5.33252477645874020000e-001) (52, 8.01469445228576660000e-001) (53, 8.24323236942291260000e-001) (54, 6.86182320117950440000e-001) (55, 7.66807138919830320000e-001) (56, 6.33479237556457520000e-001) (57, 7.31654286384582520000e-001) (58, 7.02452123165130620000e-001) (59, 6.59415066242218020000e-001) (60, 6.52369737625122070000e-001) (61, 7.49622225761413570000e-001) (62, 6.27484798431396480000e-001) (63, 6.67761862277984620000e-001) (64, 7.97679960727691650000e-001) (65, 7.89942085742950440000e-001) (66, 6.79566085338592530000e-001) (67, 6.73999667167663570000e-001) (68, 6.40137374401092530000e-001) (69, 7.78516948223114010000e-001) (70, 8.65165889263153080000e-001) (71, 1.57098674774169920000e+000) (72, 1.52093803882598880000e+000) (73, 7.33143389225006100000e-001) (74, 5.44720649719238280000e-001) (75, 2.30200722813606260000e-001) (76, -7.22925662994384770000e-001) (77, -4.69359731674194340000e+000) (78, -4.53847217559814450000e+000) (79, -2.44004175066947940000e-001) (80, 6.43110036849975590000e-001) (81, 7.71014809608459470000e-001) (82, 6.59296929836273190000e-001) (83, 8.15645933151245120000e-001) (84, 8.59823763370513920000e-001) (85, 7.55040645599365230000e-001) (86, 7.34166145324707030000e-001) (87, 6.87480151653289790000e-001) (88, 6.93174719810485840000e-001) (89, 6.04676246643066410000e-001) (90, 7.84059822559356690000e-001) (91, 7.44014382362365720000e-001) (92, 8.52492153644561770000e-001) (93, 8.72536778450012210000e-001) (94, 7.79027700424194340000e-001) (95, 7.40156471729278560000e-001) (96, 6.14233970642089840000e-001) (97, 6.11430466175079350000e-001) (98, 6.63401901721954350000e-001) (99, 7.71908998489379880000e-001) (0, 2.30615198612213130000e-001) (1, 1.36975079774856570000e-001) (2, 1.91699221730232240000e-001) (3, 2.81030327081680300000e-001) (4, 2.27813720703125000000e-001) (5, 1.38131573796272280000e-001) (6, 2.58047342300415040000e-001) (7, 3.00588905811309810000e-001) (8, 1.64858892560005190000e-001) (9, 3.00210475921630860000e-001) (10, 2.77362078428268430000e-001) (11, 2.07790583372116090000e-001) (12, 1.54983028769493100000e-001) (13, -9.02609288692474370000e-001) (14, -8.06918621063232420000e-001) (15, -7.38974213600158690000e-001) (16, -8.31833243370056150000e-001) (17, -5.76844990253448490000e-001) (18, 2.52315491437911990000e-001) (19, 3.39649438858032230000e-001) (20, 3.73176038265228270000e-001) (21, 3.41534435749053960000e-001) (22, 4.57530975341796880000e-001) (23, 4.29454863071441650000e-001) (24, 5.21538734436035160000e-001) (25, 1.57223403453826900000e-001) (26, 2.53680378198623660000e-001) (27, 2.48370334506034850000e-001) (28, 2.39930182695388790000e-001) (29, 1.64209976792335510000e-001) (30, 2.35675990581512450000e-001) (31, 2.75927037000656130000e-001) (32, 5.29525160789489750000e-001) (33, 5.12104511260986330000e-001) (34, 5.46546638011932370000e-001) (35, 3.80806893110275270000e-001) (36, 3.95122587680816650000e-001) (37, 2.82323420047760010000e-001) (38, 3.04122507572174070000e-001) (39, -7.44980096817016600000e-001) (40, -7.24374651908874510000e-001) (41, -8.46518099308013920000e-001) (42, -7.23031938076019290000e-001) (43, -7.92862296104431150000e-001) (44, -9.00595128536224370000e-001) (45, -8.79715085029602050000e-001) (46, -7.85245060920715330000e-001) (47, -8.85116696357727050000e-001) (48, -8.02045285701751710000e-001) (49, -6.12082302570343020000e-001) (50, -7.96151280403137210000e-001) (51, 9.18159112334251400000e-002) (52, 2.70142465829849240000e-001) (53, 1.68990984559059140000e-001) (54, 2.23262771964073180000e-001) (55, 2.62951612472534180000e-001) (56, 2.83667057752609250000e-001) (57, 2.96838432550430300000e-001) (58, 2.01202332973480220000e-001) (59, 2.46984824538230900000e-001) (60, 1.82284399867057800000e-001) (61, 1.98409870266914370000e-001) (62, 2.27566346526145940000e-001) (63, 1.19317665696144100000e-001) (64, 1.75370633602142330000e-001) (65, 2.81555205583572390000e-001) (66, 1.33703619241714480000e-001) (67, 1.84057593345642090000e-001) (68, 1.62872314453125000000e-001) (69, 3.06753456592559810000e-001) (70, 5.49028933048248290000e-001) (71, 4.23993647098541260000e-001) (72, 5.29462516307830810000e-001) (73, 2.18488335609436040000e-001) (74, 2.34428271651268010000e-001) (75, -8.97181391716003420000e-001) (76, 1.96972891688346860000e-001) (77, 5.51679372787475590000e-001) (78, 4.78039324283599850000e-001) (79, -4.61360663175582890000e-001) (80, 2.57043391466140750000e-001) (81, 3.67109417915344240000e-001) (82, 3.37640166282653810000e-001) (83, 4.25067216157913210000e-001) (84, 1.31809875369071960000e-001) (85, 1.53428494930267330000e-001) (86, 2.20739722251892090000e-001) (87, 2.50039517879486080000e-001) (88, 2.80148148536682130000e-001) (89, 2.71175980567932130000e-001) (90, 2.11349353194236760000e-001) (91, 2.79098331928253170000e-001) (92, 2.26980432868003850000e-001) (93, 1.82186767458915710000e-001) (94, 2.63284116983413700000e-001) (95, 2.50039517879486080000e-001) (96, 2.88967758417129520000e-001) (97, 2.06564173102378850000e-001) (98, 1.54824689030647280000e-001) (99, 2.73407012224197390000e-001) (0, 1.80494159460067750000e-001) (1, 3.15921872854232790000e-001) (2, 2.49365255236625670000e-001) (3, 2.46589183807373050000e-001) (4, 2.43033692240715030000e-001) (5, 1.68540284037590030000e-001) (6, 2.37809106707572940000e-001) (7, 3.39395970106124880000e-001) (8, 2.66104936599731450000e-001) (9, 2.12552785873413090000e-001) (10, 2.30497106909751890000e-001) (11, 1.93772241473197940000e-001) (12, 1.85721680521965030000e-001) (13, 8.09300363063812260000e-001) (14, 8.02531540393829350000e-001) (15, 1.08033335208892820000e+000) (16, 8.90300095081329350000e-001) (17, 1.07316792011260990000e+000) (18, 1.88626989722251890000e-001) (19, 3.20368438959121700000e-001) (20, 4.53667670488357540000e-001) (21, 6.87770724296569820000e-001) (22, 8.09200167655944820000e-001) (23, 7.79750585556030270000e-001) (24, 6.91522657871246340000e-001) (25, 6.53281927108764650000e-001) (26, 6.11370801925659180000e-001) (27, 5.76921164989471440000e-001) (28, 5.65721273422241210000e-001) (29, 6.08104050159454350000e-001) (30, 6.46318137645721440000e-001) (31, 6.51898205280303960000e-001) (32, 7.08280384540557860000e-001) (33, 1.48416459560394290000e-001) (34, 9.39486995339393620000e-002) (35, 5.71314036846160890000e-001) (36, 6.19566142559051510000e-001) (37, 1.79383367300033570000e-001) (38, 3.69553059339523320000e-001) (39, 1.14832663536071780000e+000) (40, 1.10463154315948490000e+000) (41, 8.61906588077545170000e-001) (42, 3.09356451034545900000e+000) (43, 1.13325703144073490000e+000) (44, 1.02815461158752440000e+000) (45, 1.01307272911071780000e+000) (46, 7.88035690784454350000e-001) (47, 6.28587126731872560000e-001) (48, 5.80309808254241940000e-001) (49, 6.43395602703094480000e-001) (50, 7.82835543155670170000e-001) (51, 2.53944575786590580000e-001) (52, 4.13327515125274660000e-001) (53, 3.18326294422149660000e-001) (54, 3.27678471803665160000e-001) (55, 2.70063221454620360000e-001) (56, 2.47785449028015140000e-001) (57, 1.60776600241661070000e-001) (58, 2.27756604552268980000e-001) (59, 1.93375512957572940000e-001) (60, 2.61209934949874880000e-001) (61, 2.70591020584106450000e-001) (62, 1.83023914694786070000e-001) (63, 1.65010437369346620000e-001) (64, 1.45802661776542660000e-001) (65, 2.92525142431259160000e-001) (66, 3.00191134214401250000e-001) (67, 2.90112346410751340000e-001) (68, 3.28692704439163210000e-001) (69, 4.34388607740402220000e-001) (70, 5.94846904277801510000e-001) (71, 6.48612678050994870000e-001) (72, 6.56886160373687740000e-001) (73, 3.93450409173965450000e-001) (74, 2.54610061645507810000e-001) (75, -6.07423204928636550000e-003) (76, 3.33141386508941650000e-001) (77, 3.67881566286087040000e-001) (78, -6.62373676896095280000e-002) (79, -1.17672502994537350000e+000) (80, 2.20786377787590030000e-001) (81, 2.65210926532745360000e-001) (82, 6.72834634780883790000e-001) (83, 6.73560917377471920000e-001) (84, 2.96845436096191410000e-001) (85, 1.98505669832229610000e-001) (86, 2.80518501996994020000e-001) (87, 2.14008599519729610000e-001) (88, 3.53345721960067750000e-001) (89, 1.84995397925376890000e-001) (90, 2.73014128208160400000e-001) (91, 5.01332044601440430000e-001) (92, 4.06837373971939090000e-001) (93, 5.36970496177673340000e-001) (94, 5.73329091072082520000e-001) (95, 1.64609655737876890000e-001) (96, 2.74247050285339360000e-001) (97, 3.20365220308303830000e-001) (98, 1.59568175673484800000e-001) (99, 2.97034680843353270000e-001) (0, -1.49868905544281010000e-001) (1, 1.50686288252472880000e-002) (2, -1.67495355010032650000e-001) (3, 7.99440219998359680000e-002) (4, -6.67417496442794800000e-002) (5, 3.73292900621891020000e-002) (6, 1.40042170882225040000e-001) (7, 1.63605809211730960000e-002) (8, 6.11290037631988530000e-002) (9, 9.18198004364967350000e-003) (10, 2.87929046899080280000e-002) (11, -7.75243947282433510000e-003) (12, -6.11512659816071390000e-005) (13, -7.45204031467437740000e-001) (14, -5.03618121147155760000e-001) (15, -2.99026101827621460000e-001) (16, -5.49583733081817630000e-001) (17, -5.12419641017913820000e-001) (18, -1.60195380449295040000e-001) (19, 8.33855941891670230000e-002) (20, 4.92198653519153590000e-002) (21, 5.54197691380977630000e-002) (22, 6.82091787457466130000e-002) (23, 1.49290144443511960000e-001) (24, 2.77741611003875730000e-001) (25, 6.20735809206962590000e-002) (26, -8.77893641591072080000e-002) (27, -1.80655077099800110000e-001) (28, -7.52292051911354060000e-002) (29, -2.67067998647689820000e-001) (30, -2.52126604318618770000e-001) (31, -1.47005766630172730000e-001) (32, 3.20162683725357060000e-001) (33, 2.37306758761405940000e-001) (34, 2.62177765369415280000e-001) (35, 2.64875859022140500000e-001) (36, 1.75850003957748410000e-001) (37, 2.47190743684768680000e-002) (38, 5.44633762910962100000e-003) (39, -3.07478576898574830000e-001) (40, -3.39032292366027830000e-001) (41, -4.64871287345886230000e-001) (42, -3.01429390907287600000e-001) (43, -7.62751698493957520000e-001) (44, -6.94995939731597900000e-001) (45, -6.62614524364471440000e-001) (46, -7.63989448547363280000e-001) (47, -7.37757563591003420000e-001) (48, -7.54624545574188230000e-001) (49, -9.23887908458709720000e-001) (50, -8.64329814910888670000e-001) (51, -3.11696827411651610000e-001) (52, -2.02523574233055110000e-001) (53, 7.42340162396430970000e-002) (54, 7.22739729098975660000e-004) (55, 8.78850184381008150000e-003) (56, -6.17698654532432560000e-002) (57, -1.07802577316761020000e-001) (58, -3.77891324460506440000e-002) (59, -7.69425854086875920000e-002) (60, 3.81274707615375520000e-002) (61, 6.04161247611045840000e-002) (62, 4.35824170708656310000e-002) (63, -1.58169016242027280000e-001) (64, -9.30750295519828800000e-002) (65, -3.68555597960948940000e-002) (66, -7.14563727378845210000e-002) (67, -1.35561585426330570000e-001) (68, -4.23425845801830290000e-002) (69, -7.63628929853439330000e-002) (70, 2.70189404487609860000e-001) (71, 2.39531457424163820000e-001) (72, 3.48048716783523560000e-001) (73, -2.78521832078695300000e-002) (74, -1.21920235455036160000e-001) (75, -9.48904693126678470000e-001) (76, 8.83910134434700010000e-002) (77, 2.47856885194778440000e-001) (78, 2.68275052309036250000e-001) (79, -3.47060292959213260000e-001) (80, -1.10574409365653990000e-001) (81, -4.00155819952487950000e-002) (82, 9.88233387470245360000e-002) (83, 5.55847678333520890000e-003) (84, -5.24079650640487670000e-002) (85, -2.00650170445442200000e-001) (86, -3.94502393901348110000e-002) (87, -1.66658788919448850000e-001) (88, -1.76320672035217290000e-001) (89, -2.12303418666124340000e-002) (90, -9.93927568197250370000e-002) (91, -3.11577506363391880000e-002) (92, 9.71258655190467830000e-002) (93, 1.65628045797348020000e-001) (94, 3.88946980237960820000e-002) (95, 3.40456143021583560000e-002) (96, 3.17621007561683650000e-002) (97, 1.37490913271903990000e-001) (98, 1.13839842379093170000e-001) (99, -2.58211083710193630000e-002) (0, -3.27169328927993770000e-001) (1, -1.10780797898769380000e-001) (2, -5.90229742228984830000e-002) (3, 8.70493501424789430000e-002) (4, 5.44443950057029720000e-002) (5, 3.05703636258840560000e-002) (6, 1.43119156360626220000e-001) (7, 1.22883103787899020000e-001) (8, 3.63869927823543550000e-002) (9, -1.56810611486434940000e-001) (10, -1.80495142936706540000e-001) (11, -1.22035689651966090000e-001) (12, -2.12355494499206540000e-001) (13, -1.06175303459167480000e+000) (14, -9.64831233024597170000e-001) (15, -1.07216751575469970000e+000) (16, -1.14730179309844970000e+000) (17, -9.00982618331909180000e-001) (18, -2.02758121304214000000e-003) (19, -1.77665099501609800000e-001) (20, -3.20139497518539430000e-001) (21, -2.14078649878501890000e-001) (22, 7.38860741257667540000e-002) (23, 2.60992079973220830000e-001) (24, 3.30047279596328740000e-001) (25, 1.20986960828304290000e-001) (26, -2.80496567487716670000e-001) (27, -4.25381004810333250000e-001) (28, -4.75271165370941160000e-001) (29, -3.47661554813385010000e-001) (30, -3.01358699798583980000e-001) (31, 1.30282230675220490000e-002) (32, 3.18277031183242800000e-001) (33, 2.60999143123626710000e-001) (34, 3.41174989938735960000e-001) (35, 2.75499969720840450000e-001) (36, 2.38335907459259030000e-001) (37, -2.73142427206039430000e-001) (38, -3.31802457571029660000e-001) (39, -1.18597102165222170000e+000) (40, -1.27948904037475590000e+000) (41, -8.40821146965026860000e-001) (42, -9.29340481758117680000e-001) (43, -9.82888221740722660000e-001) (44, -1.03279972076416020000e+000) (45, -9.90124225616455080000e-001) (46, -1.05617010593414310000e+000) (47, -1.11596620082855220000e+000) (48, -1.04686844348907470000e+000) (49, -8.73305559158325200000e-001) (50, -1.07064235210418700000e+000) (51, -5.62624819576740260000e-002) (52, -8.51526111364364620000e-002) (53, 1.58689767122268680000e-001) (54, 9.05834361910820010000e-002) (55, 2.79600564390420910000e-002) (56, -3.04648190736770630000e-001) (57, -2.59927660226821900000e-001) (58, -1.55637323856353760000e-001) (59, -2.20624208450317380000e-001) (60, -1.40083789825439450000e-001) (61, -6.51264861226081850000e-002) (62, -2.51711010932922360000e-001) (63, -6.00056461989879610000e-002) (64, -7.13337585330009460000e-002) (65, -2.07741230726242070000e-001) (66, -1.50307193398475650000e-001) (67, -2.71609514951705930000e-001) (68, -1.87753289937973020000e-001) (69, 7.60101154446601870000e-002) (70, 3.62206459045410160000e-001) (71, 3.32378536462783810000e-001) (72, 3.45385074615478520000e-001) (73, -2.28338181972503660000e-001) (74, -3.32451075315475460000e-001) (75, -1.32029163837432860000e+000) (76, 7.50341266393661500000e-002) (77, 7.62391984462738040000e-002) (78, -5.17645552754402160000e-002) (79, -6.86669349670410160000e-001) (80, -1.74703985452651980000e-001) (81, -2.00576812028884890000e-001) (82, 1.45806550979614260000e-001) (83, 2.01647713780403140000e-001) (84, -4.61233079433441160000e-001) (85, -4.26883578300476070000e-001) (86, -2.89249300956726070000e-001) (87, -2.97623336315155030000e-001) (88, -1.22485019266605380000e-001) (89, -1.78990781307220460000e-001) (90, -1.54076218605041500000e-001) (91, -1.93480551242828370000e-001) (92, 2.07258164882659910000e-001) (93, 1.50147601962089540000e-001) (94, -1.43432080745697020000e-001) (95, -4.24799658358097080000e-002) (96, -1.97033166885375980000e-001) (97, -1.19799323379993440000e-001) (98, -6.77057877182960510000e-002) (99, -4.21218395233154300000e-001) (0, -5.57651460170745850000e-001) (1, -4.01715427637100220000e-001) (2, -2.97524631023406980000e-001) (3, -5.80960288643836980000e-002) (4, -5.30118122696876530000e-002) (5, -6.09709918498992920000e-002) (6, 5.17546460032463070000e-002) (7, -2.79316216707229610000e-001) (8, -1.59246951341629030000e-001) (9, -1.98132425546646120000e-001) (10, -2.40367278456687930000e-001) (11, -3.54775637388229370000e-001) (12, -2.51467525959014890000e-001) (13, -1.39011490345001220000e+000) (14, -1.27907562255859370000e+000) (15, -1.30391073226928710000e+000) (16, -1.50854635238647460000e+000) (17, -7.24729418754577640000e-001) (18, -2.06741720438003540000e-001) (19, -1.77359387278556820000e-001) (20, 1.81175902485847470000e-001) (21, 9.95352789759635930000e-002) (22, 6.39634132385253910000e-002) (23, 1.29424408078193660000e-001) (24, 3.02937835454940800000e-001) (25, 1.20980240404605870000e-001) (26, -4.09633129835128780000e-001) (27, -4.75260078907012940000e-001) (28, -3.85355263948440550000e-001) (29, -5.02823531627655030000e-001) (30, -4.06158596277236940000e-001) (31, 3.56075651943683620000e-002) (32, 3.29445064067840580000e-001) (33, 3.52948844432830810000e-001) (34, 4.24501776695251460000e-001) (35, 3.17114353179931640000e-001) (36, 2.35272362828254700000e-001) (37, -3.09329360723495480000e-001) (38, -1.90211474895477290000e-001) (39, -2.29966855049133300000e+000) (40, -2.13836503028869630000e+000) (41, -1.01606631278991700000e+000) (42, -8.53578329086303710000e-001) (43, -9.92290496826171880000e-001) (44, -1.20901811122894290000e+000) (45, -1.16908836364746090000e+000) (46, -1.26250922679901120000e+000) (47, -1.34647226333618160000e+000) (48, -1.26280879974365230000e+000) (49, -1.25117993354797360000e+000) (50, -1.23706459999084470000e+000) (51, -1.94758012890815730000e-001) (52, -1.65572222322225570000e-002) (53, 3.97081486880779270000e-002) (54, -7.17379003763198850000e-002) (55, -3.61436307430267330000e-001) (56, -2.58536428213119510000e-001) (57, -2.47595563530921940000e-001) (58, -3.24914455413818360000e-001) (59, -2.36699089407920840000e-001) (60, -1.57048180699348450000e-001) (61, -2.41164371371269230000e-001) (62, -1.00146792829036710000e-001) (63, -3.65884453058242800000e-001) (64, -2.63821393251419070000e-001) (65, -2.25125148892402650000e-001) (66, -4.36435699462890630000e-001) (67, -3.24320197105407710000e-001) (68, -3.80539089441299440000e-001) (69, 2.80340425670146940000e-002) (70, 2.29956164956092830000e-001) (71, 2.10453718900680540000e-001) (72, 2.37183615565299990000e-001) (73, 9.64255854487419130000e-002) (74, -3.32268089056015010000e-001) (75, -2.45588350296020510000e+000) (76, -1.96332186460495000000e-001) (77, -2.46461674571037290000e-001) (78, -3.83318245410919190000e-001) (79, -1.54764211177825930000e+000) (80, -2.96588450670242310000e-001) (81, -3.39132875204086300000e-001) (82, 2.11694557219743730000e-002) (83, 2.43025735020637510000e-001) (84, -8.11208505183458330000e-003) (85, -4.35815274715423580000e-001) (86, -5.04296422004699710000e-001) (87, -5.20739495754241940000e-001) (88, -3.71265113353729250000e-001) (89, -1.73835754394531250000e-001) (90, -3.07165712118148800000e-001) (91, 1.88259989023208620000e-001) (92, 2.97445923089981080000e-001) (93, 1.86520233750343320000e-001) (94, 1.27142280340194700000e-001) (95, -2.74652242660522460000e-001) (96, -1.21628120541572570000e-001) (97, -1.94058567285537720000e-001) (98, -8.59042555093765260000e-002) (99, -5.10846197605133060000e-001) (0, -9.60850045084953310000e-002) (1, -1.33020520210266110000e-001) (2, -9.18461680412292480000e-002) (3, -2.56046235561370850000e-001) (4, -4.56816703081130980000e-002) (5, -1.72869741916656490000e-001) (6, -2.28565722703933720000e-001) (7, -2.18629211187362670000e-001) (8, -2.04074621200561520000e-001) (9, -1.78128600120544430000e-001) (10, -1.38996437191963200000e-001) (11, -2.85274267196655270000e-001) (12, -3.58583778142929080000e-001) (13, 1.66128411889076230000e-001) (14, 1.94698959589004520000e-001) (15, 1.13097831606864930000e-001) (16, -7.64150545001029970000e-002) (17, -9.08198580145835880000e-002) (18, -1.94984227418899540000e-001) (19, -1.81089997291564940000e-001) (20, -7.46365115046501160000e-002) (21, -1.10928013920784000000e-001) (22, -3.75306196510791780000e-002) (23, -1.37895405292510990000e-001) (24, 2.99147099256515500000e-001) (25, -1.19228795170784000000e-001) (26, -1.18404820561409000000e-001) (27, -2.00893908739089970000e-001) (28, -4.27700877189636230000e-002) (29, -1.60946384072303770000e-001) (30, -3.95291447639465330000e-002) (31, -1.10302850604057310000e-001) (32, 4.22171622514724730000e-001) (33, 3.00270080566406250000e+000) (34, 3.01761174201965330000e+000) (35, 8.96272897720336910000e-001) (36, 2.13099703192710880000e-001) (37, -1.39740139245986940000e-001) (38, -2.51043289899826050000e-001) (39, 1.90728515386581420000e-001) (40, 4.10043895244598390000e-002) (41, -7.39077106118202210000e-002) (42, -9.58979204297065730000e-002) (43, -1.60186111927032470000e-001) (44, 1.93922623991966250000e-001) (45, 7.22379982471466060000e-002) (46, 1.35440379381179810000e-001) (47, 2.55000412464141850000e-001) (48, 1.88124239444732670000e-001) (49, 2.16371908783912660000e-001) (50, 2.03406736254692080000e-001) (51, -2.07608431577682500000e-001) (52, -1.96158245205879210000e-001) (53, -1.52994632720947270000e-001) (54, -3.03553074598312380000e-001) (55, -2.49976769089698790000e-001) (56, -2.16734081506729130000e-001) (57, -2.25466355681419370000e-001) (58, -2.89669305086135860000e-001) (59, -2.87657886743545530000e-001) (60, -1.03976771235466000000e-001) (61, -1.80299252271652220000e-001) (62, -1.14969313144683840000e-001) (63, -7.76889696717262270000e-002) (64, -1.46243020892143250000e-001) (65, -1.15945085883140560000e-001) (66, -2.10696205496788020000e-001) (67, -1.91525012254714970000e-001) (68, -1.23836971819400790000e-001) (69, -1.92159146070480350000e-001) (70, 2.59087443351745610000e-001) (71, 4.34465885162353520000e-001) (72, 2.96070963144302370000e-001) (73, -1.47604078054428100000e-001) (74, -3.13631385564804080000e-001) (75, -1.20770476758480070000e-001) (76, -1.05782151222229000000e+000) (77, -1.29931592941284180000e+000) (78, -1.07612812519073490000e+000) (79, -1.53527125716209410000e-001) (80, -2.66145974397659300000e-001) (81, -4.82423193752765660000e-002) (82, -3.78970988094806670000e-002) (83, -1.73661425709724430000e-001) (84, -1.78286477923393250000e-001) (85, -2.19070956110954280000e-001) (86, -2.27070361375808720000e-001) (87, -2.59187072515487670000e-001) (88, -1.90290614962577820000e-001) (89, -2.30890482664108280000e-001) (90, -8.43488350510597230000e-002) (91, -1.67324557900428770000e-001) (92, -2.24416881799697880000e-001) (93, -1.64278924465179440000e-001) (94, -2.16260239481925960000e-001) (95, -2.14693695306777950000e-001) (96, -1.91562548279762270000e-001) (97, -2.09730133414268490000e-001) (98, -2.73456960916519170000e-001) (99, -8.93178507685661320000e-002) (0, 1.35056078433990480000e-001) (1, 3.05877596139907840000e-001) (2, 2.21753805875778200000e-001) (3, 3.07746261358261110000e-001) (4, 1.78046554327011110000e-001) (5, 2.34540671110153200000e-001) (6, 2.90180534124374390000e-001) (7, 4.22541439533233640000e-001) (8, 2.89594441652297970000e-001) (9, 2.23523825407028200000e-001) (10, 2.64008462429046630000e-001) (11, 3.23901265859603880000e-001) (12, 4.75635975599288940000e-001) (13, 1.07159733772277830000e+000) (14, 1.04744541645050050000e+000) (15, 1.16621875762939450000e+000) (16, 1.29009449481964110000e+000) (17, 9.61523115634918210000e-001) (18, 3.22086900472640990000e-001) (19, 1.40297681093215940000e-001) (20, 5.89662790298461910000e-001) (21, 4.86944764852523800000e-001) (22, 7.06863284111022950000e-001) (23, 6.20303630828857420000e-001) (24, 6.30492091178894040000e-001) (25, 4.38935399055480960000e-001) (26, 1.24191887676715850000e-001) (27, 1.33245170116424560000e-001) (28, 3.08654159307479860000e-001) (29, 3.13744455575942990000e-001) (30, 1.63790553808212280000e-001) (31, 3.87524753808975220000e-001) (32, 6.01153254508972170000e-001) (33, 1.16938546299934390000e-001) (34, 9.99164581298828130000e-002) (35, 6.40824198722839360000e-001) (36, 6.90901339054107670000e-001) (37, 3.03516715764999390000e-001) (38, 2.80732333660125730000e-001) (39, 1.03625774383544920000e+000) (40, -4.96223717927932740000e-001) (41, 1.42384755611419680000e+000) (42, 3.16079521179199220000e+000) (43, 1.24342775344848630000e+000) (44, 1.01590156555175780000e+000) (45, 1.03544497489929200000e+000) (46, 8.22414338588714600000e-001) (47, 7.66164004802703860000e-001) (48, 8.26679527759552000000e-001) (49, 6.82862460613250730000e-001) (50, 7.24285364151000980000e-001) (51, 1.88422530889511110000e-001) (52, 5.68377852439880370000e-001) (53, 2.84772902727127080000e-001) (54, 2.47272878885269170000e-001) (55, 1.64272755384445190000e-001) (56, 2.58454263210296630000e-001) (57, 3.16407173871994020000e-001) (58, 3.22864741086959840000e-001) (59, 3.06214302778244020000e-001) (60, 2.17060178518295290000e-001) (61, 2.15484544634819030000e-001) (62, 1.52497202157974240000e-001) (63, 2.42694944143295290000e-001) (64, 2.48685181140899660000e-001) (65, 1.76393836736679080000e-001) (66, 2.90865302085876460000e-001) (67, 2.03670471906661990000e-001) (68, 2.87551105022430420000e-001) (69, 5.56564867496490480000e-001) (70, 6.29652202129364010000e-001) (71, 6.29896342754364010000e-001) (72, 6.67514860630035400000e-001) (73, 4.11603897809982300000e-001) (74, 2.48714417219161990000e-001) (75, -6.84027910232543950000e-001) (76, -5.58871626853942870000e-001) (77, -1.24705858528614040000e-001) (78, -1.80615931749343870000e-001) (79, -7.49767124652862550000e-001) (80, 3.19184273481369020000e-001) (81, 1.52362912893295290000e-001) (82, 6.68104231357574460000e-001) (83, 6.08997941017150880000e-001) (84, 2.72864609956741330000e-001) (85, 3.03609937429428100000e-001) (86, 3.28968197107315060000e-001) (87, 1.58643454313278200000e-001) (88, 2.76844114065170290000e-001) (89, 2.76227682828903200000e-001) (90, 1.89081698656082150000e-001) (91, 5.17930686473846440000e-001) (92, 4.01451081037521360000e-001) (93, 6.28752350807189940000e-001) (94, 3.23249250650405880000e-001) (95, 3.20392817258834840000e-001) (96, 2.36725717782974240000e-001) (97, 3.08594852685928340000e-001) (98, 2.54670351743698120000e-001) (99, 3.19150298833847050000e-001) (0, 2.64698147773742680000e-001) (1, 2.43006199598312380000e-001) (2, 1.97297021746635440000e-001) (3, 2.43389889597892760000e-001) (4, 2.93347209692001340000e-001) (5, 1.68048128485679630000e-001) (6, 3.12391668558120730000e-001) (7, 2.41578310728073120000e-001) (8, 2.35401540994644170000e-001) (9, 1.57196909189224240000e-001) (10, 2.80213266611099240000e-001) (11, 3.65418583154678340000e-001) (12, 3.75233054161071780000e-001) (13, 1.03997814655303960000e+000) (14, 1.10658597946166990000e+000) (15, 9.66323614120483400000e-001) (16, -4.30317968130111690000e-001) (17, 9.43020582199096680000e-001) (18, 2.91745603084564210000e-001) (19, 2.13906213641166690000e-001) (20, 5.28399944305419920000e-001) (21, 6.86471700668334960000e-001) (22, 6.13131999969482420000e-001) (23, 6.93844676017761230000e-001) (24, 6.98935508728027340000e-001) (25, 3.98871093988418580000e-001) (26, 2.67972320318222050000e-001) (27, 1.79515957832336430000e-001) (28, 1.20298765599727630000e-001) (29, 2.41518005728721620000e-001) (30, 2.51564383506774900000e-001) (31, 5.25994360446929930000e-001) (32, 6.59512281417846680000e-001) (33, 1.80537149310112000000e-001) (34, 1.43354564905166630000e-001) (35, 5.31094551086425780000e-001) (36, 8.03902268409729000000e-001) (37, 2.96005755662918090000e-001) (38, 4.54702228307724000000e-001) (39, -5.19177854061126710000e-001) (40, -4.73950803279876710000e-001) (41, -4.56683784723281860000e-001) (42, 9.44155693054199220000e-001) (43, 9.41354274749755860000e-001) (44, 9.53902959823608400000e-001) (45, 9.70120072364807130000e-001) (46, 1.06095278263092040000e+000) (47, 6.93962216377258300000e-001) (48, 7.51322984695434570000e-001) (49, 6.25895857810974120000e-001) (50, 6.49260163307189940000e-001) (51, 3.22645038366317750000e-001) (52, 3.13752323389053340000e-001) (53, 3.58851671218872070000e-001) (54, 3.84663403034210210000e-001) (55, 2.70375400781631470000e-001) (56, 1.97555229067802430000e-001) (57, 3.11231404542922970000e-001) (58, 3.62637728452682500000e-001) (59, 3.30322355031967160000e-001) (60, 1.70295089483261110000e-001) (61, 2.78692692518234250000e-001) (62, 1.87885373830795290000e-001) (63, 1.48162886500358580000e-001) (64, 2.56314545869827270000e-001) (65, 1.34061217308044430000e-001) (66, 2.01816320419311520000e-001) (67, 1.53256773948669430000e-001) (68, 1.61685705184936520000e-001) (69, 5.12254416942596440000e-001) (70, 7.25379645824432370000e-001) (71, 6.64783954620361330000e-001) (72, 6.30195438861846920000e-001) (73, 4.44879055023193360000e-001) (74, 2.52449959516525270000e-001) (75, -5.30628144741058350000e-001) (76, -5.90473532676696780000e-001) (77, -2.07410171627998350000e-001) (78, -2.70863950252532960000e-001) (79, -7.51378476619720460000e-001) (80, 1.62848800420761110000e-001) (81, 2.42786496877670290000e-001) (82, 7.12781190872192380000e-001) (83, 7.25244641304016110000e-001) (84, 1.50423035025596620000e-001) (85, 2.52254068851470950000e-001) (86, 3.17315787076950070000e-001) (87, 3.21143537759780880000e-001) (88, 1.84778720140457150000e-001) (89, 2.66523122787475590000e-001) (90, 1.74720138311386110000e-001) (91, 3.88852566480636600000e-001) (92, 6.27220928668975830000e-001) (93, 5.13829708099365230000e-001) (94, 6.10637605190277100000e-001) (95, 2.08538874983787540000e-001) (96, 3.28199177980422970000e-001) (97, 3.74158859252929690000e-001) (98, 2.49311476945877080000e-001) (99, 1.44636914134025570000e-001) (0, -8.57936292886734010000e-002) (1, 3.04288440383970740000e-003) (2, 8.32797065377235410000e-002) (3, -8.65882858633995060000e-002) (4, -1.18344865739345550000e-001) (5, 1.04951925575733180000e-001) (6, 6.50779977440834050000e-002) (7, -1.03215113282203670000e-001) (8, -2.25328654050827030000e-002) (9, -1.24753355979919430000e-001) (10, -1.42717152833938600000e-001) (11, -9.43590477108955380000e-002) (12, 5.08223148062825200000e-003) (13, 9.37987864017486570000e-002) (14, 1.52215525507926940000e-001) (15, 4.08812947571277620000e-002) (16, 4.12596948444843290000e-002) (17, -1.35241031646728520000e-001) (18, -3.01667768508195880000e-003) (19, 6.04269355535507200000e-002) (20, 5.13291470706462860000e-002) (21, 3.10774967074394230000e-002) (22, -6.95816725492477420000e-002) (23, 5.01335300505161290000e-002) (24, 4.48722876608371730000e-002) (25, 1.64701621979475020000e-002) (26, -5.33021055161952970000e-002) (27, -5.93690052628517150000e-002) (28, -6.63590133190155030000e-002) (29, 6.38045743107795720000e-002) (30, -5.30911572277545930000e-002) (31, -8.81802439689636230000e-002) (32, 2.73763507604599000000e-001) (33, 2.76644378900527950000e-001) (34, 3.15023243427276610000e-001) (35, 2.08736717700958250000e-001) (36, -1.23495198786258700000e-001) (37, -5.96268437802791600000e-002) (38, 2.37322994507849220000e-003) (39, -2.56567329168319700000e-001) (40, -7.87779316306114200000e-002) (41, -1.45317628979682920000e-001) (42, 1.47973582148551940000e-001) (43, -6.71523362398147580000e-002) (44, -3.00795678049325940000e-002) (45, 2.10355982184410100000e-001) (46, 1.05271749198436740000e-001) (47, 6.91682174801826480000e-002) (48, 1.90205007791519170000e-001) (49, 9.83478575944900510000e-002) (50, -1.45042225718498230000e-001) (51, 1.62445276975631710000e-001) (52, 3.13136726617813110000e-002) (53, -2.96158678829669950000e-002) (54, 9.23047959804534910000e-003) (55, -9.37074646353721620000e-002) (56, -2.28105708956718440000e-002) (57, -2.50728130340576170000e-002) (58, 2.61926688253879550000e-002) (59, 6.45491341128945350000e-003) (60, 5.94821013510227200000e-002) (61, 5.67172057926654820000e-002) (62, 5.16941733658313750000e-002) (63, 5.05967251956462860000e-002) (64, -2.45436802506446840000e-002) (65, 1.46653009578585620000e-002) (66, -4.00893352925777440000e-002) (67, -5.99940679967403410000e-002) (68, 7.00062327086925510000e-003) (69, -7.99348652362823490000e-002) (70, 2.80575037002563480000e-001) (71, 2.88234949111938480000e-001) (72, 1.67592912912368770000e-001) (73, -2.26230714470148090000e-002) (74, -1.35883361101150510000e-001) (75, -2.10145771503448490000e-001) (76, -9.48148131370544430000e-001) (77, -7.28118777275085450000e-001) (78, -1.08726632595062260000e+000) (79, -9.87101793289184570000e-001) (80, -1.91984906792640690000e-001) (81, -2.57974378764629360000e-002) (82, 4.73910309374332430000e-002) (83, -9.95694175362586980000e-002) (84, -6.42222091555595400000e-002) (85, -5.47984130680561070000e-002) (86, -5.46097643673419950000e-002) (87, 1.53158744797110560000e-002) (88, 2.58511339779943230000e-004) (89, -4.07681725919246670000e-002) (90, -1.16586044430732730000e-001) (91, -6.33218437433242800000e-002) (92, 1.89242362976074220000e-002) (93, -2.83414069563150410000e-002) (94, 7.59120807051658630000e-002) (95, -7.67673850059509280000e-002) (96, 1.09025374054908750000e-001) (97, -1.13004008308053020000e-002) (98, -1.55687287449836730000e-001) (99, -8.09068903326988220000e-002) (0, 2.83559709787368770000e-002) (1, 7.52307698130607600000e-002) (2, 2.15076915919780730000e-002) (3, -2.12474372237920760000e-002) (4, 1.67503759264945980000e-001) (5, 1.73613384366035460000e-001) (6, 8.95437449216842650000e-002) (7, -2.81698652543127540000e-004) (8, 1.48085340857505800000e-001) (9, 7.04180523753166200000e-002) (10, 2.99145840108394620000e-002) (11, 2.63930894434452060000e-002) (12, 3.59269082546234130000e-001) (13, -5.22200942039489750000e-001) (14, -4.76814061403274540000e-001) (15, -1.07245934009552000000e+000) (16, -1.05733370780944820000e+000) (17, -1.96235537528991700000e+000) (18, -1.37391686439514160000e-001) (19, -1.49116486310958860000e-001) (20, -4.51596789062023160000e-002) (21, -1.55700340867042540000e-001) (22, 3.38775604963302610000e-001) (23, 4.20570552349090580000e-001) (24, 4.39998120069503780000e-001) (25, 3.54822665452957150000e-001) (26, 1.67070522904396060000e-001) (27, 1.16005197167396550000e-001) (28, 1.56697347760200500000e-001) (29, -9.36391428112983700000e-002) (30, -1.51769042015075680000e-001) (31, 2.83302809111773970000e-003) (32, 3.66380244493484500000e-001) (33, 6.79549217224121090000e-001) (34, 5.99690794944763180000e-001) (35, 4.57075685262680050000e-001) (36, 3.81862044334411620000e-001) (37, -5.71164302527904510000e-002) (38, -1.58953502774238590000e-001) (39, -2.30790758132934570000e+000) (40, -1.28475606441497800000e+000) (41, -1.23953175544738770000e+000) (42, -1.21158981323242190000e+000) (43, -1.83120977878570560000e+000) (44, -1.19167482852935790000e+000) (45, -5.25723397731781010000e-001) (46, -1.15027976036071780000e+000) (47, -1.17456662654876710000e+000) (48, -1.85025262832641600000e+000) (49, -1.97753465175628660000e+000) (50, -1.98036062717437740000e+000) (51, 2.94451683759689330000e-001) (52, 6.61112293601036070000e-002) (53, 1.50913655757904050000e-001) (54, 5.93560747802257540000e-002) (55, 1.37004598975181580000e-001) (56, 6.57397881150245670000e-002) (57, 3.20757925510406490000e-002) (58, 1.42982766032218930000e-001) (59, 9.63396728038787840000e-002) (60, 4.26473096013069150000e-002) (61, 5.50741562619805340000e-003) (62, 7.21547529101371770000e-002) (63, -1.85922905802726750000e-002) (64, 1.38854011893272400000e-001) (65, 1.10002577304840090000e-001) (66, 6.87306448817253110000e-002) (67, 6.81081339716911320000e-002) (68, -7.91918933391571040000e-002) (69, 2.24673569202423100000e-001) (70, 4.00575280189514160000e-001) (71, 4.21009898185729980000e-001) (72, 4.07588362693786620000e-001) (73, 1.43701598048210140000e-001) (74, -9.66122671961784360000e-002) (75, -1.33329772949218750000e+000) (76, 1.10741972923278810000e-001) (77, 4.79430198669433590000e-001) (78, -2.46287003159523010000e-001) (79, -2.24695920944213870000e+000) (80, -1.52348875999450680000e-001) (81, -5.62558583915233610000e-002) (82, 3.89222919940948490000e-001) (83, 2.86574006080627440000e-001) (84, 1.75222545862197880000e-001) (85, -1.02007083594799040000e-001) (86, 8.20574536919593810000e-002) (87, 5.55010400712490080000e-002) (88, 1.33815258741378780000e-001) (89, 5.18372794613242150000e-003) (90, -8.89575034379959110000e-002) (91, 1.71512272208929060000e-002) (92, 1.77675500512123110000e-001) (93, 3.81897956132888790000e-001) (94, 2.50138819217681880000e-001) (95, 4.29615110158920290000e-001) (96, 1.13829374313354490000e-001) (97, 3.94233256578445430000e-001) (98, 1.71584054827690120000e-001) (99, 1.88466385006904600000e-002) (0, -1.02396182715892790000e-001) (1, 3.77995409071445470000e-002) (2, -9.07588675618171690000e-002) (3, -4.34129908680915830000e-002) (4, -2.02269196510314940000e-001) (5, -1.31488025188446040000e-001) (6, -1.53610840439796450000e-001) (7, -3.00341993570327760000e-002) (8, -1.74188196659088130000e-001) (9, -6.39604479074478150000e-002) (10, -7.09672868251800540000e-002) (11, -1.98046118021011350000e-001) (12, 2.38575357943773270000e-002) (13, 2.29553729295730590000e-002) (14, -7.30388611555099490000e-002) (15, -3.31780388951301570000e-002) (16, -3.61260175704956050000e-002) (17, -1.10575467348098750000e-001) (18, -1.74559399485588070000e-001) (19, -4.88888323307037350000e-002) (20, 4.22990620136260990000e-002) (21, 6.69497922062873840000e-002) (22, -6.48725181818008420000e-002) (23, -2.71649956703186040000e-002) (24, 2.20904499292373660000e-001) (25, 9.02265086770057680000e-002) (26, -3.19775789976120000000e-002) (27, -1.26463145017623900000e-001) (28, -1.44709035754203800000e-001) (29, -1.12106867134571080000e-001) (30, -1.07858821749687190000e-001) (31, 8.48648790270090100000e-003) (32, 2.14552298188209530000e-001) (33, 4.99285966157913210000e-001) (34, 4.07635688781738280000e-001) (35, 2.01268911361694340000e-001) (36, 6.11498281359672550000e-002) (37, -3.45154516398906710000e-002) (38, 5.46959927305579190000e-003) (39, -2.06530481576919560000e-001) (40, -1.17733240127563480000e-001) (41, -1.57213121652603150000e-001) (42, 5.66853098571300510000e-002) (43, -8.37456509470939640000e-002) (44, -7.71904811263084410000e-002) (45, -7.82390385866165160000e-002) (46, -1.96862015873193740000e-002) (47, 6.44374936819076540000e-002) (48, -1.71916231513023380000e-001) (49, -1.70462414622306820000e-001) (50, -3.87668311595916750000e-001) (51, 1.31564348936080930000e-001) (52, -7.41954371333122250000e-002) (53, -6.00999966263771060000e-002) (54, -5.52750714123249050000e-002) (55, -1.35709764435887340000e-002) (56, -1.53533503413200380000e-001) (57, -6.55330419540405270000e-002) (58, -4.18452881276607510000e-002) (59, -9.95367765426635740000e-002) (60, 8.06817337870597840000e-002) (61, -4.87636253237724300000e-002) (62, -8.56396928429603580000e-002) (63, -2.56211698055267330000e-001) (64, -1.64781019091606140000e-001) (65, -2.56040811538696290000e-001) (66, -1.73748855013400320000e-003) (67, 6.60628378391265870000e-002) (68, 1.23335793614387510000e-002) (69, -3.37665388360619540000e-003) (70, 2.50809401273727420000e-001) (71, 4.06113266944885250000e-001) (72, 2.28088349103927610000e-001) (73, -2.11026947945356370000e-002) (74, 1.66211143136024480000e-001) (75, -1.86297342181205750000e-001) (76, -5.07715582847595210000e-001) (77, -5.43433368206024170000e-001) (78, -6.81943476200103760000e-001) (79, -9.89687979221343990000e-001) (80, -5.05953207612037660000e-002) (81, 4.68005100265145300000e-003) (82, -5.78958801925182340000e-002) (83, 8.61696675419807430000e-002) (84, 6.43214434385299680000e-002) (85, 7.76148885488510130000e-002) (86, -5.13585880398750310000e-002) (87, 3.70123283937573430000e-003) (88, -4.10469286143779750000e-002) (89, 3.01346369087696080000e-002) (90, -1.66215494275093080000e-001) (91, -1.67619302868843080000e-001) (92, 3.25116589665412900000e-002) (93, -5.28879202902317050000e-002) (94, -7.74687826633453370000e-002) (95, -1.01669766008853910000e-001) (96, 6.78653046488761900000e-002) (97, -1.96300521492958070000e-001) (98, -1.30828127264976500000e-001) (99, -3.12442332506179810000e-001) (0, 1.52078434824943540000e-001) (1, 2.45515536516904830000e-002) (2, 4.31129895150661470000e-002) (3, 1.16787895560264590000e-001) (4, 8.47566127777099610000e-002) (5, 2.73166120052337650000e-001) (6, 2.73800734430551530000e-002) (7, -5.65799139440059660000e-002) (8, -6.77188187837600710000e-002) (9, -2.73928660899400710000e-002) (10, 8.17073434591293330000e-002) (11, 4.19690981507301330000e-002) (12, 9.85914245247840880000e-002) (13, -3.64342868328094480000e-001) (14, -3.98678064346313480000e-001) (15, -4.01082813739776610000e-001) (16, -4.88436430692672730000e-001) (17, -9.32499825954437260000e-001) (18, 1.33623987436294560000e-001) (19, -1.37413367629051210000e-002) (20, 1.63260653614997860000e-001) (21, -2.84470971673727040000e-002) (22, 1.28263100981712340000e-001) (23, 1.27638503909111020000e-001) (24, 2.99777656793594360000e-001) (25, 6.81068450212478640000e-002) (26, 1.33603677153587340000e-001) (27, 6.88972398638725280000e-002) (28, 4.45991046726703640000e-002) (29, -3.29766608774662020000e-002) (30, 2.86993291229009630000e-002) (31, -5.00777922570705410000e-002) (32, 2.49806329607963560000e-001) (33, 3.32145988941192630000e-001) (34, 3.78793716430664060000e-001) (35, 3.19797217845916750000e-001) (36, 3.45393925905227660000e-001) (37, 8.68812501430511470000e-002) (38, -5.71042597293853760000e-002) (39, -1.29690122604370120000e+000) (40, -7.10893094539642330000e-001) (41, -9.42511975765228270000e-001) (42, -5.03024697303771970000e-001) (43, -9.06693756580352780000e-001) (44, -6.00228965282440190000e-001) (45, -3.53244513273239140000e-001) (46, -7.62553751468658450000e-001) (47, -7.81870067119598390000e-001) (48, -8.17966163158416750000e-001) (49, -7.29587495326995850000e-001) (50, -8.04221093654632570000e-001) (51, -4.33243550360202790000e-002) (52, 2.39865392446517940000e-001) (53, 3.18383455276489260000e-001) (54, 2.90804743766784670000e-001) (55, -6.72488957643508910000e-002) (56, 2.78011355549097060000e-002) (57, -2.98404973000288010000e-002) (58, -4.15775850415229800000e-002) (59, 2.77987748384475710000e-001) (60, 1.62332326173782350000e-001) (61, 2.54983633756637570000e-001) (62, 1.83481022715568540000e-001) (63, 6.98219388723373410000e-002) (64, 5.00892885029315950000e-002) (65, 1.44437417387962340000e-001) (66, -1.95641070604324340000e-002) (67, 1.41788497567176820000e-001) (68, 7.02918916940689090000e-002) (69, 8.52577090263366700000e-002) (70, 3.51659655570983890000e-001) (71, 3.25860083103179930000e-001) (72, 2.53825962543487550000e-001) (73, 1.95870324969291690000e-001) (74, -1.87172666192054750000e-001) (75, -8.00988674163818360000e-001) (76, 1.19536623358726500000e-001) (77, 1.12103968858718870000e-001) (78, 1.98620017617940900000e-002) (79, -5.81317484378814700000e-001) (80, -3.57319712638854980000e-001) (81, 3.90480421483516690000e-002) (82, 1.05143934488296510000e-001) (83, 2.55068540573120120000e-001) (84, 2.84527182579040530000e-001) (85, -8.85588899254798890000e-002) (86, -1.75363048911094670000e-001) (87, -1.21578894555568700000e-001) (88, -1.73992782831192020000e-001) (89, -2.41147726774215700000e-002) (90, 1.08139820396900180000e-001) (91, 6.76246732473373410000e-002) (92, 9.44385975599288940000e-002) (93, 2.28007107973098750000e-001) (94, 1.88267156481742860000e-001) (95, -4.82214521616697310000e-003) (96, -9.79382821242325010000e-005) (97, -5.60488961637020110000e-002) (98, 6.92805722355842590000e-002) (99, 1.62593815475702290000e-002) (0, -3.84813621640205380000e-002) (1, -7.38008618354797360000e-002) (2, -1.57794639468193050000e-001) (3, -1.66363716125488280000e-001) (4, -1.86171680688858030000e-002) (5, -7.66544118523597720000e-002) (6, -1.42008021473884580000e-001) (7, -1.73837840557098390000e-001) (8, -9.03234779834747310000e-002) (9, -4.49072048068046570000e-002) (10, -1.49228483438491820000e-001) (11, -2.54426538944244380000e-001) (12, -1.48790597915649410000e-001) (13, -1.29228770732879640000e-001) (14, -1.79375320672988890000e-001) (15, -2.00627699494361880000e-001) (16, -2.42546647787094120000e-001) (17, -3.23885440826416020000e-001) (18, -2.41029322147369380000e-001) (19, -1.57455250620841980000e-001) (20, 2.92393984273076060000e-003) (21, -2.38305376842617990000e-003) (22, -8.39788913726806640000e-002) (23, 1.14777192473411560000e-001) (24, 6.56499937176704410000e-002) (25, 6.90470486879348750000e-002) (26, 2.50406991690397260000e-002) (27, -7.44468718767166140000e-002) (28, 1.56630959827452900000e-003) (29, 6.56898543238639830000e-002) (30, -3.64608503878116610000e-003) (31, -4.40693199634552000000e-002) (32, 2.71599084138870240000e-001) (33, 4.13281261920928960000e-001) (34, 4.40687626600265500000e-001) (35, 5.12933492660522460000e-001) (36, -6.03742077946662900000e-002) (37, -8.78558382391929630000e-002) (38, -1.78987056016922000000e-001) (39, -3.17339956760406490000e-001) (40, -2.09256723523139950000e-001) (41, -3.70333194732666020000e-001) (42, -2.68399804830551150000e-001) (43, -1.49316251277923580000e-001) (44, -7.95197263360023500000e-002) (45, -9.52508673071861270000e-002) (46, -1.20372451841831210000e-001) (47, -6.37963786721229550000e-002) (48, -4.07715111970901490000e-001) (49, -1.91214233636856080000e-001) (50, -2.26001158356666560000e-001) (51, -7.68240243196487430000e-002) (52, -8.36241617798805240000e-002) (53, -9.78865176439285280000e-002) (54, -1.16610012948513030000e-001) (55, -2.77122985571622850000e-002) (56, -4.74815890192985530000e-002) (57, -6.26427158713340760000e-002) (58, -9.27025303244590760000e-002) (59, -1.78021162748336790000e-001) (60, -7.93578699231147770000e-002) (61, -1.23145014047622680000e-001) (62, -1.04303151369094850000e-001) (63, -1.28726094961166380000e-001) (64, -1.02621048688888550000e-001) (65, -2.78712790459394450000e-002) (66, -1.18185006082057950000e-001) (67, 7.10797635838389400000e-003) (68, -2.46758165303617720000e-004) (69, 5.03433682024478910000e-002) (70, 5.67801902070641520000e-003) (71, 4.90307688713073730000e-001) (72, -2.11234134621918200000e-003) (73, -3.70949506759643550000e-002) (74, -2.02972844243049620000e-001) (75, -2.83691197633743290000e-001) (76, -4.56574589014053340000e-001) (77, -4.32538866996765140000e-001) (78, -3.97521466016769410000e-001) (79, -2.23119467496871950000e-001) (80, -1.66464447975158690000e-001) (81, 1.69748235493898390000e-002) (82, 6.99407756328582760000e-002) (83, -6.88295140862464900000e-002) (84, -1.14766610786318780000e-002) (85, -2.09276348352432250000e-001) (86, -1.27476945519447330000e-001) (87, -1.76787331700325010000e-001) (88, -1.30467757582664490000e-001) (89, -1.24276027083396910000e-001) (90, -2.67561133950948720000e-002) (91, -1.49711966514587400000e-002) (92, 7.46772512793540950000e-002) (93, -2.63542514294385910000e-002) (94, -4.44870032370090480000e-002) (95, -1.19326077401638030000e-001) (96, -4.87309768795967100000e-002) (97, -6.15148805081844330000e-002) (98, -1.03586420416831970000e-001) (99, -2.14559838175773620000e-001) (0, 1.48344069719314580000e-001) (1, 6.62142485380172730000e-002) (2, 2.46011629700660710000e-001) (3, 4.35108333826065060000e-001) (4, 2.52887845039367680000e-001) (5, 3.62262904644012450000e-001) (6, 4.51077908277511600000e-001) (7, 4.34122294187545780000e-001) (8, 3.03720682859420780000e-001) (9, 3.15970480442047120000e-001) (10, 8.49802643060684200000e-002) (11, 5.75003385543823240000e-001) (12, 6.26169085502624510000e-001) (13, 9.66528058052062990000e-002) (14, -8.19643974304199220000e-001) (15, -7.07884192466735840000e-001) (16, -8.43241631984710690000e-001) (17, 2.57086366415023800000e-001) (18, -1.10962919890880580000e-001) (19, 1.83638304471969600000e-001) (20, 2.46475473046302800000e-001) (21, 1.73239350318908690000e-001) (22, 3.21223497390747070000e-001) (23, 2.67152488231658940000e-001) (24, 3.92417609691619870000e-001) (25, 1.57974481582641600000e-001) (26, 1.45726665854454040000e-001) (27, 1.69267982244491580000e-001) (28, 1.91313877701759340000e-001) (29, 9.55696627497673030000e-002) (30, 2.16090902686119080000e-001) (31, 1.23799622058868410000e-001) (32, 2.99778133630752560000e-001) (33, 4.17279273271560670000e-001) (34, 3.62368941307067870000e-001) (35, 2.97709345817565920000e-001) (36, 2.53672331571578980000e-001) (37, 8.15462768077850340000e-002) (38, -6.06515929102897640000e-002) (39, -1.00940198171883820000e-003) (40, 1.01017929613590240000e-001) (41, -7.06564188003540040000e-001) (42, -7.87624955177307130000e-001) (43, -6.62260115146636960000e-001) (44, -7.33073234558105470000e-001) (45, -2.66016602516174320000e-001) (46, -7.37211465835571290000e-001) (47, -7.91122615337371830000e-001) (48, -6.85744225978851320000e-001) (49, -2.70543098449707030000e-001) (50, -3.57818603515625000000e-001) (51, 9.03466194868087770000e-002) (52, 1.56234979629516600000e-001) (53, 1.20132744312286380000e-001) (54, 1.51536196470260620000e-001) (55, 1.73600137233734130000e-001) (56, 1.55710741877555850000e-001) (57, 3.14791142940521240000e-001) (58, 3.28743815422058110000e-001) (59, 3.12216788530349730000e-001) (60, 3.94711941480636600000e-001) (61, 2.56016969680786130000e-001) (62, 2.42294549942016600000e-001) (63, 6.79485723376274110000e-002) (64, 1.00480340421199800000e-001) (65, 1.34696587920188900000e-001) (66, 1.83018177747726440000e-001) (67, 4.60125282406806950000e-002) (68, 1.50620669126510620000e-001) (69, 2.97672539949417110000e-001) (70, 2.85772681236267090000e-001) (71, 2.48856738209724430000e-001) (72, 4.01725143194198610000e-001) (73, 1.78714156150817870000e-001) (74, -1.01024955511093140000e-001) (75, -3.31712633371353150000e-001) (76, 2.13207051157951350000e-001) (77, 1.64236053824424740000e-001) (78, -9.57139134407043460000e-002) (79, -2.47470721602439880000e-001) (80, 3.17063219845294950000e-002) (81, 1.56308189034461980000e-001) (82, 3.94169300794601440000e-001) (83, 3.19119364023208620000e-001) (84, 2.24787428975105290000e-001) (85, 6.35029748082160950000e-002) (86, 7.98664987087249760000e-002) (87, 1.52962222695350650000e-001) (88, 2.50792354345321660000e-001) (89, 7.10437446832656860000e-002) (90, 2.22166880965232850000e-001) (91, 2.21370264887809750000e-001) (92, 1.50407776236534120000e-001) (93, 1.11538611352443700000e-001) (94, 3.16340833902359010000e-001) (95, 2.73462504148483280000e-001) (96, 2.98175513744354250000e-001) (97, 3.55792760848999020000e-001) (98, 3.61285895109176640000e-001) (99, 6.84500485658645630000e-002) (0, 8.01502346992492680000e-001) (1, 8.21246385574340820000e-001) (2, 8.60909402370452880000e-001) (3, 9.35336709022521970000e-001) (4, 8.86435329914093020000e-001) (5, 7.87458837032318120000e-001) (6, 6.81254684925079350000e-001) (7, 6.43566846847534180000e-001) (8, 5.59709250926971440000e-001) (9, 3.16618561744689940000e-001) (10, 2.65133529901504520000e-001) (11, 3.79978865385055540000e-001) (12, 6.26070439815521240000e-001) (13, -5.83004057407379150000e-001) (14, -4.98567670583724980000e-001) (15, -5.95058500766754150000e-001) (16, -5.27321219444274900000e-001) (17, -5.11507093906402590000e-001) (18, 6.36301875114440920000e-001) (19, 9.69377815723419190000e-001) (20, 8.50734591484069820000e-001) (21, 9.89367306232452390000e-001) (22, 1.06826543807983400000e+000) (23, 9.04019355773925780000e-001) (24, 1.30511474609375000000e+000) (25, 9.89757835865020750000e-001) (26, 1.06019568443298340000e+000) (27, 1.03827202320098880000e+000) (28, 1.16502368450164790000e+000) (29, 1.13087785243988040000e+000) (30, 8.92528057098388670000e-001) (31, 8.42803895473480220000e-001) (32, 1.36788165569305420000e+000) (33, 1.43892550468444820000e+000) (34, 1.16877400875091550000e+000) (35, 1.60055017471313480000e+000) (36, 1.67437565326690670000e+000) (37, 9.35136675834655760000e-001) (38, 9.53799366950988770000e-001) (39, 1.73506271839141850000e+000) (40, -2.79128309339284900000e-002) (41, -7.32381761074066160000e-001) (42, -6.67086541652679440000e-001) (43, -4.90724653005599980000e-001) (44, -6.29689514636993410000e-001) (45, -6.30434334278106690000e-001) (46, -5.60146093368530270000e-001) (47, -1.12951748073101040000e-001) (48, -2.46875375509262080000e-001) (49, -1.08307115733623500000e-001) (50, -1.08325473964214320000e-001) (51, 6.09407067298889160000e-001) (52, 9.14502024650573730000e-001) (53, 8.24434161186218260000e-001) (54, 7.80620098114013670000e-001) (55, 3.50975275039672850000e-001) (56, 3.39164972305297850000e-001) (57, 4.89226073026657100000e-001) (58, 3.68132293224334720000e-001) (59, 8.02234768867492680000e-001) (60, 8.05481851100921630000e-001) (61, 8.01734268665313720000e-001) (62, 7.03882694244384770000e-001) (63, 9.17166471481323240000e-001) (64, 9.36886429786682130000e-001) (65, 9.75418031215667720000e-001) (66, 8.36416900157928470000e-001) (67, 7.64798223972320560000e-001) (68, 8.38036954402923580000e-001) (69, 9.84427928924560550000e-001) (70, 1.55699205398559570000e+000) (71, 1.56695032119750980000e+000) (72, 1.57721602916717530000e+000) (73, 1.06156325340271000000e+000) (74, 5.75193226337432860000e-001) (75, -3.21568489074707030000e-001) (76, -1.04269444942474370000e+000) (77, -3.69511872529983520000e-001) (78, 5.87383508682250980000e-001) (79, 2.39231133460998540000e+000) (80, 1.00368940830230710000e+000) (81, 1.00602614879608150000e+000) (82, 9.30410921573638920000e-001) (83, 9.62797105312347410000e-001) (84, 9.28411304950714110000e-001) (85, 8.90903353691101070000e-001) (86, 9.38010275363922120000e-001) (87, 9.22561883926391600000e-001) (88, 1.17043137550354000000e+000) (89, 1.03164350986480710000e+000) (90, 1.18121647834777830000e+000) (91, 8.24117422103881840000e-001) (92, 9.00462448596954350000e-001) (93, 8.78746092319488530000e-001) (94, 7.96784877777099610000e-001) (95, 6.55248582363128660000e-001) (96, -4.89644318819046020000e-001) (97, 3.76298397779464720000e-001) (98, 3.61292868852615360000e-001) (99, 8.53723645210266110000e-001) (0, 3.27776998281478880000e-001) (1, 1.95849508047103880000e-001) (2, 3.60278218984603880000e-001) (3, 2.60523378849029540000e-001) (4, 1.94025546312332150000e-001) (5, 1.85956686735153200000e-001) (6, 2.87049263715744020000e-001) (7, 2.90503829717636110000e-001) (8, 2.47712045907974240000e-001) (9, 3.09998482465744020000e-001) (10, 3.32324117422103880000e-001) (11, 2.91918784379959110000e-001) (12, 2.31439083814620970000e-001) (13, 1.01583504676818850000e+000) (14, 1.00428712368011470000e+000) (15, 1.06917917728424070000e+000) (16, 7.27559685707092290000e-001) (17, 1.11507749557495120000e+000) (18, 2.70076751708984380000e-001) (19, 1.33968323469161990000e-001) (20, 3.56286406517028810000e-001) (21, 5.69466114044189450000e-001) (22, 7.26539790630340580000e-001) (23, 7.11711406707763670000e-001) (24, 7.58568167686462400000e-001) (25, 4.91772264242172240000e-001) (26, 2.97826498746871950000e-001) (27, 2.07653105258941650000e-001) (28, 2.00153753161430360000e-001) (29, 2.13190838694572450000e-001) (30, 2.79414057731628420000e-001) (31, 4.99565362930297850000e-001) (32, 6.34553551673889160000e-001) (33, 7.37010091543197630000e-002) (34, 1.73151642084121700000e-001) (35, 6.07892215251922610000e-001) (36, 5.52937209606170650000e-001) (37, 3.26581746339797970000e-001) (38, 3.06055814027786250000e-001) (39, -4.68599200248718260000e-001) (40, -3.43104511499404910000e-001) (41, 1.10308408737182620000e+000) (42, 3.15284228324890140000e+000) (43, 1.41591298580169680000e+000) (44, 1.00761914253234860000e+000) (45, 1.06749475002288820000e+000) (46, 9.00301277637481690000e-001) (47, 7.71245718002319340000e-001) (48, 7.20115065574646000000e-001) (49, 7.53067731857299800000e-001) (50, 7.46355652809143070000e-001) (51, 2.47718125581741330000e-001) (52, 3.81348848342895510000e-001) (53, 4.69184607267379760000e-001) (54, 3.79969477653503420000e-001) (55, 1.82638257741928100000e-001) (56, 2.74343520402908330000e-001) (57, 2.23420053720474240000e-001) (58, 1.85938388109207150000e-001) (59, 1.71314328908920290000e-001) (60, 2.59618997573852540000e-001) (61, 3.58477681875228880000e-001) (62, 3.39739888906478880000e-001) (63, 3.11117619276046750000e-001) (64, 2.66220062971115110000e-001) (65, 2.92759239673614500000e-001) (66, 2.76833295822143550000e-001) (67, 1.93361610174179080000e-001) (68, 1.68276160955429080000e-001) (69, 4.87265437841415410000e-001) (70, 5.72882533073425290000e-001) (71, 6.39911234378814700000e-001) (72, 5.70285618305206300000e-001) (73, 4.49043363332748410000e-001) (74, 1.82395488023757930000e-001) (75, -6.74122989177703860000e-001) (76, -4.65824365615844730000e-001) (77, -1.47618472576141360000e-001) (78, -2.48817980289459230000e-001) (79, -8.20079326629638670000e-001) (80, 3.02929490804672240000e-001) (81, 2.51081198453903200000e-001) (82, 7.10828840732574460000e-001) (83, 5.56521773338317870000e-001) (84, 3.08114379644393920000e-001) (85, 1.84463173151016240000e-001) (86, 1.66665345430374150000e-001) (87, 2.17446595430374150000e-001) (88, 3.02081137895584110000e-001) (89, 3.53082150220870970000e-001) (90, 3.47381502389907840000e-001) (91, 4.44444268941879270000e-001) (92, 4.55344110727310180000e-001) (93, 5.37760019302368160000e-001) (94, 5.01785755157470700000e-001) (95, 3.47143441438674930000e-001) (96, 1.90668612718582150000e-001) (97, 3.37891548871994020000e-001) (98, 2.52526730298995970000e-001) (99, 1.74392372369766240000e-001) (0, 7.30558991432189940000e-001) (1, 7.40972578525543210000e-001) (2, 6.57662451267242430000e-001) (3, 7.04369902610778810000e-001) (4, 7.99776136875152590000e-001) (5, 7.34248816967010500000e-001) (6, 5.71927666664123540000e-001) (7, 6.89945161342620850000e-001) (8, 6.52590036392211910000e-001) (9, 5.77779233455657960000e-001) (10, 4.23146009445190430000e-001) (11, 5.05463778972625730000e-001) (12, 4.64442193508148190000e-001) (13, -3.57706397771835330000e-001) (14, 2.85524815320968630000e-001) (15, 2.56792634725570680000e-001) (16, 1.88488185405731200000e-001) (17, 2.56020396947860720000e-001) (18, 4.35037851333618160000e-001) (19, 6.45437836647033690000e-001) (20, 6.32053434848785400000e-001) (21, 6.69502019882202150000e-001) (22, 8.34412932395935060000e-001) (23, 7.71772503852844240000e-001) (24, 8.27285110950469970000e-001) (25, 8.37391436100006100000e-001) (26, 6.43548905849456790000e-001) (27, 6.46106302738189700000e-001) (28, 7.44658827781677250000e-001) (29, 7.35846817493438720000e-001) (30, 7.26221561431884770000e-001) (31, 8.29040944576263430000e-001) (32, 1.34626543521881100000e+000) (33, 1.84141302108764650000e+000) (34, 1.93549871444702150000e+000) (35, 1.62591433525085450000e+000) (36, 9.81964528560638430000e-001) (37, 6.72117114067077640000e-001) (38, 6.79478526115417480000e-001) (39, 1.30400943756103520000e+000) (40, 5.76905548572540280000e-001) (41, 3.12746495008468630000e-001) (42, 1.86440452933311460000e-001) (43, 3.64592999219894410000e-001) (44, 3.19024056196212770000e-001) (45, 2.45974019169807430000e-001) (46, 4.77613568305969240000e-001) (47, 4.06799972057342530000e-001) (48, 4.55354869365692140000e-001) (49, -5.04440292716026310000e-002) (50, -1.29142791032791140000e-001) (51, 6.52013599872589110000e-001) (52, 6.40354096889495850000e-001) (53, 7.41017758846282960000e-001) (54, 7.19413816928863530000e-001) (55, 5.78029513359069820000e-001) (56, 6.13289475440979000000e-001) (57, 4.39989298582077030000e-001) (58, 5.34410715103149410000e-001) (59, 5.70324361324310300000e-001) (60, 6.55147850513458250000e-001) (61, 6.07491552829742430000e-001) (62, 7.23801493644714360000e-001) (63, 6.48905456066131590000e-001) (64, 7.81949818134307860000e-001) (65, 6.75388574600219730000e-001) (66, 6.99111759662628170000e-001) (67, 7.67370104789733890000e-001) (68, 7.09039986133575440000e-001) (69, 7.47457921504974370000e-001) (70, 1.26707601547241210000e+000) (71, 1.49835574626922610000e+000) (72, 1.53728389739990230000e+000) (73, 6.86167895793914790000e-001) (74, 7.22957074642181400000e-001) (75, 8.08297216892242430000e-001) (76, -1.42531967163085940000e+000) (77, -3.91100436449050900000e-001) (78, 1.15186583995819090000e+000) (79, 1.58099591732025150000e+000) (80, 6.61325037479400630000e-001) (81, 7.09721565246582030000e-001) (82, 7.57089257240295410000e-001) (83, 6.78012073040008540000e-001) (84, 6.01088941097259520000e-001) (85, 5.89387059211730960000e-001) (86, 6.71609282493591310000e-001) (87, 7.04281568527221680000e-001) (88, 7.58541822433471680000e-001) (89, 7.80801296234130860000e-001) (90, 6.91213965415954590000e-001) (91, 7.23857343196868900000e-001) (92, 7.07351684570312500000e-001) (93, 7.36904919147491460000e-001) (94, 