FANN_FLO_2.1
num_layers=4
learning_rate=0.700000
connection_rate=1.000000
network_type=0
learning_momentum=0.000000
training_algorithm=2
train_error_function=0
train_stop_function=0
cascade_output_change_fraction=0.010000
quickprop_decay=-0.000100
quickprop_mu=1.750000
rprop_increase_factor=1.200000
rprop_decrease_factor=0.500000
rprop_delta_min=0.000000
rprop_delta_max=50.000000
rprop_delta_zero=0.100000
cascade_output_stagnation_epochs=12
cascade_candidate_change_fraction=0.010000
cascade_candidate_stagnation_epochs=12
cascade_max_out_epochs=150
cascade_min_out_epochs=50
cascade_max_cand_epochs=150
cascade_min_cand_epochs=50
cascade_num_candidate_groups=2
bit_fail_limit=3.49999994039535520000e-001
cascade_candidate_limit=1.00000000000000000000e+003
cascade_weight_multiplier=4.00000005960464480000e-001
cascade_activation_functions_count=10
cascade_activation_functions=3 5 7 8 10 11 14 15 16 17 
cascade_activation_steepnesses_count=4
cascade_activation_steepnesses=2.50000000000000000000e-001 5.00000000000000000000e-001 7.50000000000000000000e-001 1.00000000000000000000e+000 
layer_sizes=100 69 38 6 
scale_included=0
neurons (num_inputs, activation_function, activation_steepness)=(0, 0, 0.00000000000000000000e+000) (0, 0, 0.00000000000000000000e+000) (0, 0, 0.00000000000000000000e+000) (0, 0, 0.00000000000000000000e+000) (0, 0, 0.00000000000000000000e+000) (0, 0, 0.00000000000000000000e+000) (0, 0, 0.00000000000000000000e+000) (0, 0, 0.00000000000000000000e+000) (0, 0, 0.00000000000000000000e+000) (0, 0, 0.00000000000000000000e+000) (0, 0, 0.00000000000000000000e+000) (0, 0, 0.00000000000000000000e+000) (0, 0, 0.00000000000000000000e+000) (0, 0, 0.00000000000000000000e+000) (0, 0, 0.00000000000000000000e+000) (0, 0, 0.00000000000000000000e+000) (0, 0, 0.00000000000000000000e+000) (0, 0, 0.00000000000000000000e+000) (0, 0, 0.00000000000000000000e+000) (0, 0, 0.00000000000000000000e+000) (0, 0, 0.00000000000000000000e+000) (0, 0, 0.00000000000000000000e+000) (0, 0, 0.00000000000000000000e+000) (0, 0, 0.00000000000000000000e+000) (0, 0, 0.00000000000000000000e+000) (0, 0, 0.00000000000000000000e+000) (0, 0, 0.00000000000000000000e+000) (0, 0, 0.00000000000000000000e+000) (0, 0, 0.00000000000000000000e+000) (0, 0, 0.00000000000000000000e+000) (0, 0, 0.00000000000000000000e+000) (0, 0, 0.00000000000000000000e+000) (0, 0, 0.00000000000000000000e+000) (0, 0, 0.00000000000000000000e+000) (0, 0, 0.00000000000000000000e+000) (0, 0, 0.00000000000000000000e+000) (0, 0, 0.00000000000000000000e+000) (0, 0, 0.00000000000000000000e+000) (0, 0, 0.00000000000000000000e+000) (0, 0, 0.00000000000000000000e+000) (0, 0, 0.00000000000000000000e+000) (0, 0, 0.00000000000000000000e+000) (0, 0, 0.00000000000000000000e+000) (0, 0, 0.00000000000000000000e+000) (0, 0, 0.00000000000000000000e+000) (0, 0, 0.00000000000000000000e+000) (0, 0, 0.00000000000000000000e+000) (0, 0, 0.00000000000000000000e+000) (0, 0, 0.00000000000000000000e+000) (0, 0, 0.00000000000000000000e+000) (0, 0, 0.00000000000000000000e+000) (0, 0, 0.00000000000000000000e+000) (0, 0, 0.00000000000000000000e+000) (0, 0, 0.00000000000000000000e+000) (0, 0, 0.00000000000000000000e+000) (0, 0, 0.00000000000000000000e+000) (0, 0, 0.00000000000000000000e+000) (0, 0, 0.00000000000000000000e+000) (0, 0, 0.00000000000000000000e+000) (0, 0, 0.00000000000000000000e+000) (0, 0, 0.00000000000000000000e+000) (0, 0, 0.00000000000000000000e+000) (0, 0, 0.00000000000000000000e+000) (0, 0, 0.00000000000000000000e+000) (0, 0, 0.00000000000000000000e+000) (0, 0, 0.00000000000000000000e+000) (0, 0, 0.00000000000000000000e+000) (0, 0, 0.00000000000000000000e+000) (0, 0, 0.00000000000000000000e+000) (0, 0, 0.00000000000000000000e+000) (0, 0, 0.00000000000000000000e+000) (0, 0, 0.00000000000000000000e+000) (0, 0, 0.00000000000000000000e+000) (0, 0, 0.00000000000000000000e+000) (0, 0, 0.00000000000000000000e+000) (0, 0, 0.00000000000000000000e+000) (0, 0, 0.00000000000000000000e+000) (0, 0, 0.00000000000000000000e+000) (0, 0, 0.00000000000000000000e+000) (0, 0, 0.00000000000000000000e+000) (0, 0, 0.00000000000000000000e+000) (0, 0, 0.00000000000000000000e+000) (0, 0, 0.00000000000000000000e+000) (0, 0, 0.00000000000000000000e+000) (0, 0, 0.00000000000000000000e+000) (0, 0, 0.00000000000000000000e+000) (0, 0, 0.00000000000000000000e+000) (0, 0, 0.00000000000000000000e+000) (0, 0, 0.00000000000000000000e+000) (0, 0, 0.00000000000000000000e+000) (0, 0, 0.00000000000000000000e+000) (0, 0, 0.00000000000000000000e+000) (0, 0, 0.00000000000000000000e+000) (0, 0, 0.00000000000000000000e+000) (0, 0, 0.00000000000000000000e+000) (0, 0, 0.00000000000000000000e+000) (0, 0, 0.00000000000000000000e+000) (0, 0, 0.00000000000000000000e+000) (0, 0, 0.00000000000000000000e+000) (0, 0, 0.00000000000000000000e+000) (100, 11, 5.00000000000000000000e-001) (100, 11, 5.00000000000000000000e-001) (100, 11, 5.00000000000000000000e-001) (100, 11, 5.00000000000000000000e-001) (100, 11, 5.00000000000000000000e-001) (100, 11, 5.00000000000000000000e-001) (100, 11, 5.00000000000000000000e-001) (100, 11, 5.00000000000000000000e-001) (100, 11, 5.00000000000000000000e-001) (100, 11, 5.00000000000000000000e-001) (100, 11, 5.00000000000000000000e-001) (100, 11, 5.00000000000000000000e-001) (100, 11, 5.00000000000000000000e-001) (100, 11, 5.00000000000000000000e-001) (100, 11, 5.00000000000000000000e-001) (100, 11, 5.00000000000000000000e-001) (100, 11, 5.00000000000000000000e-001) (100, 11, 5.00000000000000000000e-001) (100, 11, 5.00000000000000000000e-001) (100, 11, 5.00000000000000000000e-001) (100, 11, 5.00000000000000000000e-001) (100, 11, 5.00000000000000000000e-001) (100, 11, 5.00000000000000000000e-001) (100, 11, 5.00000000000000000000e-001) (100, 11, 5.00000000000000000000e-001) (100, 11, 5.00000000000000000000e-001) (100, 11, 5.00000000000000000000e-001) (100, 11, 5.00000000000000000000e-001) (100, 11, 5.00000000000000000000e-001) (100, 11, 5.00000000000000000000e-001) (100, 11, 5.00000000000000000000e-001) (100, 11, 5.00000000000000000000e-001) (100, 11, 5.00000000000000000000e-001) (100, 11, 5.00000000000000000000e-001) (100, 11, 5.00000000000000000000e-001) (100, 11, 5.00000000000000000000e-001) (100, 11, 5.00000000000000000000e-001) (100, 11, 5.00000000000000000000e-001) (100, 11, 5.00000000000000000000e-001) (100, 11, 5.00000000000000000000e-001) (100, 11, 5.00000000000000000000e-001) (100, 11, 5.00000000000000000000e-001) (100, 11, 5.00000000000000000000e-001) (100, 11, 5.00000000000000000000e-001) (100, 11, 5.00000000000000000000e-001) (100, 11, 5.00000000000000000000e-001) (100, 11, 5.00000000000000000000e-001) (100, 11, 5.00000000000000000000e-001) (100, 11, 5.00000000000000000000e-001) (100, 11, 5.00000000000000000000e-001) (100, 11, 5.00000000000000000000e-001) (100, 11, 5.00000000000000000000e-001) (100, 11, 5.00000000000000000000e-001) (100, 11, 5.00000000000000000000e-001) (100, 11, 5.00000000000000000000e-001) (100, 11, 5.00000000000000000000e-001) (100, 11, 5.00000000000000000000e-001) (100, 11, 5.00000000000000000000e-001) (100, 11, 5.00000000000000000000e-001) (100, 11, 5.00000000000000000000e-001) (100, 11, 5.00000000000000000000e-001) (100, 11, 5.00000000000000000000e-001) (100, 11, 5.00000000000000000000e-001) (100, 11, 5.00000000000000000000e-001) (100, 11, 5.00000000000000000000e-001) (100, 11, 5.00000000000000000000e-001) (100, 11, 5.00000000000000000000e-001) (100, 11, 5.00000000000000000000e-001) (0, 11, 5.00000000000000000000e-001) (69, 11, 5.00000000000000000000e-001) (69, 11, 5.00000000000000000000e-001) (69, 11, 5.00000000000000000000e-001) (69, 11, 5.00000000000000000000e-001) (69, 11, 5.00000000000000000000e-001) (69, 11, 5.00000000000000000000e-001) (69, 11, 5.00000000000000000000e-001) (69, 11, 5.00000000000000000000e-001) (69, 11, 5.00000000000000000000e-001) (69, 11, 5.00000000000000000000e-001) (69, 11, 5.00000000000000000000e-001) (69, 11, 5.00000000000000000000e-001) (69, 11, 5.00000000000000000000e-001) (69, 11, 5.00000000000000000000e-001) (69, 11, 5.00000000000000000000e-001) (69, 11, 5.00000000000000000000e-001) (69, 11, 5.00000000000000000000e-001) (69, 11, 5.00000000000000000000e-001) (69, 11, 5.00000000000000000000e-001) (69, 11, 5.00000000000000000000e-001) (69, 11, 5.00000000000000000000e-001) (69, 11, 5.00000000000000000000e-001) (69, 11, 5.00000000000000000000e-001) (69, 11, 5.00000000000000000000e-001) (69, 11, 5.00000000000000000000e-001) (69, 11, 5.00000000000000000000e-001) (69, 11, 5.00000000000000000000e-001) (69, 11, 5.00000000000000000000e-001) (69, 11, 5.00000000000000000000e-001) (69, 11, 5.00000000000000000000e-001) (69, 11, 5.00000000000000000000e-001) (69, 11, 5.00000000000000000000e-001) (69, 11, 5.00000000000000000000e-001) (69, 11, 5.00000000000000000000e-001) (69, 11, 5.00000000000000000000e-001) (69, 11, 5.00000000000000000000e-001) (69, 11, 5.00000000000000000000e-001) (0, 11, 5.00000000000000000000e-001) (38, 3, 5.00000000000000000000e-001) (38, 3, 5.00000000000000000000e-001) (38, 3, 5.00000000000000000000e-001) (38, 3, 5.00000000000000000000e-001) (38, 3, 5.00000000000000000000e-001) (0, 3, 5.00000000000000000000e-001) 
connections (connected_to_neuron, weight)=(0, -1.94336637854576110000e-001) (1, 3.42215709388256070000e-002) (2, 1.05832621455192570000e-001) (3, 2.31591146439313890000e-002) (4, 2.11443174630403520000e-002) (5, -1.30704149603843690000e-001) (6, -1.48851960897445680000e-001) (7, -6.52966126799583440000e-002) (8, -1.07961922883987430000e-001) (9, 1.67063549160957340000e-001) (10, 1.94447323679924010000e-001) (11, 2.05536931753158570000e-001) (12, 2.85977661609649660000e-001) (13, 1.07225336134433750000e-001) (14, 2.57824301719665530000e-001) (15, 2.29043141007423400000e-001) (16, 1.19621939957141880000e-001) (17, 2.89855897426605220000e-001) (18, -1.79892347659915690000e-004) (19, -6.32108896970748900000e-002) (20, 1.40806794166564940000e-001) (21, 3.13016995787620540000e-002) (22, 7.49913901090621950000e-002) (23, 1.41924992203712460000e-001) (24, 6.01513572037220000000e-002) (25, 1.13587304949760440000e-001) (26, 1.50412619113922120000e-001) (27, 1.01636081933975220000e-001) (28, 1.75307527184486390000e-001) (29, 5.68204419687390330000e-003) (30, 4.79389280080795290000e-002) (31, 2.99130799248814580000e-004) (32, 9.14744064211845400000e-002) (33, 1.27995342016220090000e-001) (34, 9.25270617008209230000e-002) (35, 9.48997139930725100000e-002) (36, 5.56963309645652770000e-002) (37, 3.15219350159168240000e-002) (38, 1.15793615579605100000e-001) (39, -1.88882574439048770000e-002) (40, 1.62416353821754460000e-001) (41, 8.56584906578063960000e-002) (42, 3.74880023300647740000e-002) (43, -8.70305821299552920000e-002) (44, 1.50116132572293280000e-002) (45, 6.47330954670906070000e-002) (46, -9.39042773097753520000e-003) (47, -6.29374086856842040000e-002) (48, 9.46968793869018550000e-002) (49, 2.78136637061834340000e-002) (50, -1.33371442556381230000e-001) (51, -2.10438400506973270000e-001) (52, -7.11551010608673100000e-002) (53, -6.84222951531410220000e-002) (54, -2.03669756650924680000e-001) (55, -3.26645225286483760000e-001) (56, -7.42785334587097170000e-001) (57, -5.00401139259338380000e-001) (58, -1.29274651408195500000e-001) (59, -7.35005214810371400000e-002) (60, -4.15625542402267460000e-001) (61, -3.87782424688339230000e-001) (62, -1.50870978832244870000e-001) (63, -2.02376008033752440000e-001) (64, -1.37908324599266050000e-001) (65, -7.59332999587059020000e-002) (66, 1.10928021371364590000e-001) (67, -2.54766285419464110000e-001) (68, -1.63725942373275760000e-001) (69, -3.07589709758758540000e-001) (70, -1.82329583913087840000e-002) (71, 2.45462860912084580000e-002) (72, 7.28322565555572510000e-002) (73, 1.67832747101783750000e-001) (74, 1.68625995516777040000e-001) (75, 2.14540049433708190000e-001) (76, 1.68968752026557920000e-001) (77, 2.02462509274482730000e-001) (78, 4.47303615510463710000e-002) (79, 1.28610599786043170000e-002) (80, 9.95678752660751340000e-002) (81, -2.01088599860668180000e-002) (82, -3.04670393466949460000e-001) (83, -2.80601292848587040000e-001) (84, -1.82426199316978450000e-001) (85, -1.80317208170890810000e-001) (86, -2.64981269836425780000e-001) (87, -2.03607797622680660000e-001) (88, -3.08268576860427860000e-001) (89, 2.25441735237836840000e-002) (90, 1.19077935814857480000e-002) (91, -4.23949137330055240000e-002) (92, -6.16065822541713710000e-002) (93, 6.73828795552253720000e-002) (94, -3.49391549825668330000e-001) (95, 1.14813721179962160000e+000) (96, 6.13891892135143280000e-003) (97, -3.19443076848983760000e-001) (98, -2.42368757724761960000e-001) (99, 5.51500141620635990000e-001) (0, -3.21664929389953610000e+000) (1, 9.00110661983489990000e-001) (2, 1.44049145507812500000e+003) (3, 2.41815280914306640000e+000) (4, 6.82358145713806150000e-001) (5, 5.34259259700775150000e-001) (6, 7.04980134963989260000e-001) (7, 3.80547952651977540000e+000) (8, 2.75208160400390620000e+002) (9, 9.54345764160156250000e+002) (10, 9.54258789062500000000e+002) (11, 4.27376892089843750000e+002) (12, 1.59960632324218750000e+002) (13, 4.38972264528274540000e-001) (14, 3.98747622966766360000e-001) (15, 9.79720413684844970000e-001) (16, 5.05971789360046390000e-001) (17, 9.64071691036224370000e-001) (18, 6.49289131164550780000e-001) (19, 8.87548446655273440000e-001) (20, 4.25811958312988280000e+000) (21, 4.69078948974609370000e+002) (22, 9.60184448242187500000e+002) (23, 6.66974243164062500000e+002) (24, 2.93699737548828120000e+002) (25, 1.83000305175781250000e+002) (26, 4.27331665039062500000e+002) (27, 1.78839935302734370000e+002) (28, 7.50825271606445310000e+001) (29, 1.78990814208984370000e+002) (30, 4.56670284271240230000e+000) (31, 9.56413507461547850000e-001) (32, 5.18613994121551510000e-001) (33, 5.37578964233398440000e+000) (34, 1.79660930633544920000e+001) (35, 2.58598098754882810000e+001) (36, 1.44971361160278320000e+001) (37, 3.13569183349609370000e+001) (38, 6.49095714092254640000e-001) (39, 2.39805564284324650000e-001) (40, 1.07155472040176390000e-001) (41, 2.48047158122062680000e-001) (42, 1.34294309616088870000e+001) (43, 6.08931091308593750000e+002) (44, 9.28365783691406250000e+002) (45, 7.17809082031250000000e+002) (46, 3.19968475341796870000e+002) (47, 1.81340927124023440000e+002) (48, 1.82045074462890620000e+002) (49, 1.79006624221801760000e+000) (50, 2.30768203735351560000e-001) (51, 1.50000000000000000000e+003) (52, 1.50000000000000000000e+003) (53, 2.59320425987243650000e+000) (54, 2.39122763276100160000e-001) (55, 9.79513004422187810000e-002) (56, 1.18468768894672390000e-001) (57, 2.90686106681823730000e+000) (58, 7.18515380859375000000e+002) (59, 4.27673828125000000000e+002) (60, 4.27413299560546870000e+002) (61, 4.67713928222656250000e+001) (62, 4.28798198699951170000e+000) (63, 1.99303948879241940000e+000) (64, 1.21609783172607420000e+000) (65, 2.24290752410888670000e+000) (66, 8.21010947227478030000e-001) (67, 1.33571901321411130000e+001) (68, 1.87948107719421390000e+000) (69, 1.84187793731689450000e+000) (70, 1.57895934581756590000e+000) (71, 1.73882877826690670000e+000) (72, 1.64434039592742920000e+000) (73, 2.30419445037841800000e+000) (74, 7.51883850097656250000e+001) (75, 7.46545867919921870000e+001) (76, 7.42711257934570310000e+001) (77, 8.68083114624023440000e+001) (78, 4.70786041259765620000e+002) (79, 8.20121536254882810000e+001) (80, 8.21133728027343750000e+001) (81, 8.18319931030273440000e+001) (82, 1.43837785720825200000e+001) (83, 8.36601638793945310000e+001) (84, 1.95377410888671870000e+002) (85, 4.27453277587890620000e+002) (86, 7.58581771850585940000e+001) (87, 4.33488309383392330000e-001) (88, 2.50965952873229980000e-001) (89, 2.94398903846740720000e-001) (90, 1.70023941993713380000e+000) (91, 2.09082603454589840000e+001) (92, 1.21931663513183590000e+002) (93, 1.30911224365234370000e+002) (94, 1.57129043579101560000e+002) (95, 1.50000000000000000000e+003) (96, 1.50000000000000000000e+003) (97, 1.50000000000000000000e+003) (98, 1.42423779296875000000e+003) (99, 1.68476684570312500000e+002) (0, -2.68476963043212890000e-001) (1, 8.00808221101760860000e-002) (2, 1.83727711439132690000e-001) (3, 3.86895537376403810000e-001) (4, -1.27176225185394290000e-001) (5, -2.36710771918296810000e-001) (6, -1.20752684772014620000e-001) (7, -1.01804681122303010000e-001) (8, -2.83899545669555660000e-001) (9, -1.12306311726570130000e-001) (10, 1.61340832710266110000e-002) (11, 1.37754231691360470000e-001) (12, 1.29671558737754820000e-001) (13, -7.83998612314462660000e-003) (14, 3.75285223126411440000e-002) (15, 8.63951146602630620000e-002) (16, -2.72394921630620960000e-002) (17, 1.03709563612937930000e-001) (18, 6.14630430936813350000e-002) (19, 1.31091564893722530000e-001) (20, 1.24764069914817810000e-001) (21, 9.01074633002281190000e-002) (22, -6.70600729063153270000e-003) (23, 1.61673098802566530000e-001) (24, 1.75440862774848940000e-001) (25, 1.20951518416404720000e-001) (26, 8.87776166200637820000e-002) (27, 8.51673185825347900000e-002) (28, 8.08899104595184330000e-002) (29, 1.64944797754287720000e-001) (30, -9.15644131600856780000e-003) (31, 1.54927089810371400000e-001) (32, 1.20008736848831180000e-002) (33, -1.26786185428500180000e-002) (34, 1.70169532299041750000e-001) (35, 5.51510276272892950000e-003) (36, 4.99647334218025210000e-002) (37, 9.11269038915634160000e-002) (38, 1.74429416656494140000e-001) (39, 4.33031395077705380000e-002) (40, 2.26696673780679700000e-002) (41, 7.17028528451919560000e-002) (42, -2.15284861624240880000e-002) (43, 1.29731565713882450000e-001) (44, 4.51665418222546580000e-003) (45, 1.36318042874336240000e-001) (46, 2.48448969796299930000e-003) (47, 2.05046329647302630000e-002) (48, 9.86932739615440370000e-002) (49, 1.82428240776062010000e-001) (50, 4.54786606132984160000e-002) (51, -1.08658872544765470000e-001) (52, 6.41900748014450070000e-002) (53, 8.48074853420257570000e-002) (54, 7.97841623425483700000e-002) (55, -1.33175812661647800000e-002) (56, -1.83618694543838500000e-001) (57, -1.10636681318283080000e-001) (58, -1.88377663493156430000e-001) (59, -2.08458513021469120000e-001) (60, -2.38533094525337220000e-001) (61, -9.39875766634941100000e-002) (62, 1.21477693319320680000e-001) (63, 2.40544117987155910000e-002) (64, -1.25825837254524230000e-001) (65, -2.65910476446151730000e-001) (66, -1.66109502315521240000e-001) (67, -8.20225328207015990000e-002) (68, -1.55467972159385680000e-001) (69, -1.06761984527111050000e-001) (70, -6.97193443775177000000e-002) (71, 1.24104999005794530000e-001) (72, 6.30472451448440550000e-002) (73, -1.78799793124198910000e-001) (74, 3.44071611762046810000e-002) (75, 1.48780792951583860000e-001) (76, 1.06473743915557860000e-001) (77, 7.95111432671546940000e-002) (78, 1.62685081362724300000e-001) (79, -1.88655331730842590000e-002) (80, 4.66040633618831630000e-002) (81, 7.28779658675193790000e-002) (82, -1.67062103748321530000e-001) (83, -1.85713380575180050000e-001) (84, -1.40787810087203980000e-001) (85, -2.08682164549827580000e-001) (86, -2.20639795064926150000e-001) (87, -2.75542557239532470000e-001) (88, -1.49887025356292720000e-001) (89, -2.17616394162178040000e-001) (90, 2.00355052947998050000e-002) (91, -1.70350447297096250000e-001) (92, -1.26651033759117130000e-001) (93, -8.34254249930381770000e-002) (94, -1.16452723741531370000e-001) (95, -1.27728372812271120000e-001) (96, -8.61784592270851140000e-002) (97, -1.51242822408676150000e-001) (98, -1.50891199707984920000e-001) (99, 1.46923227310180660000e+001) (0, 6.05117157101631160000e-002) (1, -2.51347005367279050000e-001) (2, 1.54246711730957030000e+000) (3, 9.92000997066497800000e-001) (4, 1.89733907580375670000e-001) (5, -2.41644829511642460000e-001) (6, -2.97879129648208620000e-001) (7, -1.59536212682724000000e-001) (8, -9.34695154428482060000e-002) (9, -1.34323924779891970000e-001) (10, -1.20903931558132170000e-001) (11, -1.12011507153511050000e-001) (12, 2.36554667353630070000e-002) (13, -5.89259043335914610000e-002) (14, -3.83200757205486300000e-002) (15, -9.64936837553977970000e-002) (16, -1.49363338947296140000e-001) (17, -1.34960800409317020000e-001) (18, -8.18393155932426450000e-002) (19, 1.13383024930953980000e-001) (20, 2.57432103157043460000e-001) (21, 4.18028831481933590000e-001) (22, 4.30225282907485960000e-001) (23, 1.31226509809494020000e-001) (24, 5.47383308410644530000e-001) (25, -9.70961824059486390000e-002) (26, -2.19582710415124890000e-002) (27, -4.15499769151210780000e-002) (28, 4.29761745035648350000e-002) (29, 7.36424466595053670000e-003) (30, 3.70670333504676820000e-002) (31, -3.21310907602310180000e-002) (32, 5.42370416224002840000e-003) (33, 1.43871381878852840000e-001) (34, 2.96883489936590190000e-002) (35, 3.16971614956855770000e-002) (36, 1.33117735385894780000e-001) (37, 1.16420984268188480000e-001) (38, 6.77784308791160580000e-002) (39, 1.17871440947055820000e-001) (40, 6.36403337121009830000e-002) (41, 8.28115791082382200000e-002) (42, 1.67700380086898800000e-001) (43, -1.31431026384234430000e-002) (44, 9.94899719953536990000e-002) (45, -4.95572648942470550000e-002) (46, 6.83706998825073240000e-001) (47, 4.70372319221496580000e-001) (48, 9.23190489411354060000e-002) (49, -6.83811604976654050000e-001) (50, -2.74423032999038700000e-001) (51, -2.25495502352714540000e-001) (52, -2.39535152912139890000e-001) (53, -1.85303613543510440000e-001) (54, 2.01052576303482060000e-002) (55, -3.84945154190063480000e-001) (56, -1.97979182004928590000e-001) (57, -2.38718837499618530000e-001) (58, -2.21278265118598940000e-001) (59, -7.18301087617874150000e-002) (60, -2.16429784893989560000e-001) (61, -5.05060732364654540000e-001) (62, -2.92520582675933840000e-001) (63, -1.48079290986061100000e-001) (64, -1.73043280839920040000e-001) (65, -2.42612957954406740000e-001) (66, -3.35151374340057370000e-001) (67, -3.83558779954910280000e-001) (68, -1.98492795228958130000e-001) (69, -6.18146538734436040000e-001) (70, -5.90425372123718260000e-001) (71, -1.75578927993774410000e+000) (72, -2.14369535446166990000e+000) (73, -7.97725319862365720000e-001) (74, 2.61422209441661830000e-002) (75, 2.77971499599516390000e-003) (76, -1.01036496460437770000e-001) (77, -2.59748995304107670000e-001) (78, -1.01784430444240570000e-001) (79, 1.01312518119812010000e-001) (80, 1.70070841908454900000e-001) (81, 1.13557115197181700000e-001) (82, -2.81586468219757080000e-001) (83, -3.69127333164215090000e-001) (84, -3.11131834983825680000e-001) (85, -4.63252872228622440000e-001) (86, -3.33349615335464480000e-001) (87, -3.57249051332473750000e-001) (88, -4.43572819232940670000e-001) (89, -4.51645195484161380000e-001) (90, -2.82185792922973630000e-001) (91, -1.92175358533859250000e-001) (92, -1.60796403884887700000e-001) (93, -1.41231402754783630000e-001) (94, -1.36607795953750610000e-001) (95, 4.57093566656112670000e-001) (96, -3.11004519462585450000e-001) (97, -3.11824262142181400000e-001) (98, -3.08546304702758790000e-001) (99, 8.59898757934570310000e+001) (0, -5.16778503417968750000e+002) (1, 3.10805261135101320000e-001) (2, 1.49806872558593750000e+003) (3, 4.20630425214767460000e-001) (4, 1.70625418424606320000e-001) (5, 1.85841605067253110000e-001) (6, 2.56271362304687500000e-001) (7, 2.91155368089675900000e-001) (8, 2.88151144981384280000e-001) (9, 1.06167335510253910000e+001) (10, 5.28841781616210940000e+000) (11, 1.22069835662841800000e+000) (12, 4.24810171127319340000e-001) (13, 4.16323065757751460000e-001) (14, 1.91818431019783020000e-001) (15, 1.86324387788772580000e-001) (16, 3.71338725090026860000e-001) (17, 2.05043628811836240000e-001) (18, 2.51879513263702390000e-001) (19, 1.09116218984127040000e-001) (20, 2.94244974851608280000e-001) (21, 4.29874002933502200000e-001) (22, 7.21830596923828120000e+001) (23, 3.02771587371826170000e+001) (24, 7.24435653686523440000e+001) (25, 5.96972656250000000000e+000) (26, 9.43704307079315190000e-001) (27, 5.01766622066497800000e-001) (28, 2.75466561317443850000e-001) (29, 3.50124150514602660000e-001) (30, 2.95302331447601320000e-001) (31, 3.22730422019958500000e-001) (32, 2.80693382024765010000e-001) (33, 3.38430851697921750000e-001) (34, 1.37510204315185550000e+000) (35, 3.32445573806762700000e+000) (36, 1.13312041759490970000e+000) (37, 3.16627055406570430000e-001) (38, 3.15319001674652100000e-001) (39, 2.56488531827926640000e-001) (40, 3.58854889869689940000e-001) (41, 3.35153877735137940000e-001) (42, 3.98637771606445310000e-001) (43, 1.82322788238525390000e+001) (44, 4.01458969116210940000e+001) (45, 7.24565246582031250000e+002) (46, 4.83097934722900390000e+000) (47, 8.22644829750061040000e-001) (48, 3.72929841279983520000e-001) (49, 4.23212438821792600000e-001) (50, 2.24140495061874390000e-001) (51, 4.66614127159118650000e-001) (52, 3.48130285739898680000e-001) (53, 3.19155216217041020000e-001) (54, 1.34358435869216920000e-001) (55, 2.85289615392684940000e-001) (56, 1.98033347725868230000e-001) (57, 3.70247721672058110000e-001) (58, 7.50982403755187990000e-001) (59, 2.72798652648925780000e+001) (60, 2.30959815979003910000e+001) (61, 5.15346145629882810000e+000) (62, 3.16178590059280400000e-001) (63, 2.42523595690727230000e-001) (64, 2.03544691205024720000e-001) (65, 2.55080372095108030000e-001) (66, 2.88566946983337400000e-001) (67, 3.72662752866745000000e-001) (68, 2.53698885440826420000e-001) (69, 2.25056722760200500000e-001) (70, 2.27822080254554750000e-001) (71, 2.14068144559860230000e-001) (72, 4.32560801506042480000e-001) (73, 4.19513791799545290000e-001) (74, 3.35461735725402830000e-001) (75, 5.33950984477996830000e-001) (76, 5.10242843627929690000e+000) (77, 3.09912052154541020000e+001) (78, 1.22223103046417240000e+000) (79, 2.29513034224510190000e-001) (80, 3.89308810234069820000e-001) (81, 2.45177626609802250000e-001) (82, 3.05277168750762940000e-001) (83, 4.03061389923095700000e-001) (84, 2.19482374191284180000e+000) (85, 4.78693008422851560000e+000) (86, 4.93253648281097410000e-001) (87, 2.74500876665115360000e-001) (88, 3.17892462015151980000e-001) (89, 2.55228072404861450000e-001) (90, 2.31560051441192630000e-001) (91, 2.36893385648727420000e-001) (92, 1.49141833186149600000e-001) (93, 9.39054794311523440000e+001) (94, 1.22822341918945310000e+002) (95, 1.28001861572265620000e+002) (96, 3.04531555175781250000e+002) (97, 1.22139520645141600000e+001) (98, 8.51863632202148440000e+001) (99, 2.05670318603515620000e+002) (0, -6.92063331604003910000e+000) (1, 2.29424495697021480000e+001) (2, 1.44031896972656250000e+003) (3, 3.59784484863281250000e+002) (4, 2.26604270935058590000e+000) (5, 1.00733375549316410000e+000) (6, 1.98962521553039550000e+000) (7, 2.65525703430175780000e+001) (8, 2.75207550048828120000e+002) (9, 9.54122314453125000000e+002) (10, 7.13730957031250000000e+002) (11, 7.42683715820312500000e+001) (12, 6.67498092651367190000e+001) (13, 4.24501752853393550000e+000) (14, 3.26222968101501460000e+000) (15, 3.31826901435852050000e+000) (16, 1.26031291484832760000e+000) (17, 2.23174738883972170000e+000) (18, 1.74423396587371830000e-001) (19, 3.72414916753768920000e-001) (20, 7.46278228759765630000e+001) (21, 4.69065155029296870000e+002) (22, 1.01487048339843750000e+003) (23, 9.60073608398437500000e+002) (24, 6.67067749023437500000e+002) (25, 7.13842102050781250000e+002) (26, 1.64079742431640620000e+002) (27, 4.29107757568359370000e+002) (28, 7.46460266113281250000e+001) (29, 7.47105102539062500000e+001) (30, 4.78371238708496090000e+001) (31, 1.06015586853027340000e+000) (32, 6.59114897251129150000e-001) (33, 2.57004489898681640000e+001) (34, 2.58522071838378910000e+001) (35, 3.32716598510742190000e+001) (36, 8.17943038940429690000e+001) (37, 7.51340866088867190000e+001) (38, 7.65449166297912600000e-001) (39, 2.05403730273246770000e-001) (40, 1.38235732913017270000e-001) (41, 4.29681211709976200000e-001) (42, 3.93328704833984370000e+002) (43, 1.17826550292968750000e+003) (44, 1.17820776367187500000e+003) (45, 1.09517822265625000000e+003) (46, 1.22928808593750000000e+003) (47, 1.02600512695312500000e+003) (48, 1.04348754882812500000e+003) (49, 5.88543117046356200000e-001) (50, 1.62831827998161320000e-001) (51, 1.50000000000000000000e+003) (52, 1.50000000000000000000e+003) (53, 3.39638519287109380000e+001) (54, 2.35726803541183470000e-001) (55, 1.76402285695075990000e-001) (56, 2.70229697227478030000e-001) (57, 1.61909698486328120000e+002) (58, 7.18227478027343750000e+002) (59, 1.19477734375000000000e+003) (60, 1.19427697753906250000e+003) (61, 9.53865661621093750000e+002) (62, 9.54186767578125000000e+002) (63, 1.10008581542968750000e+003) (64, 5.85336952209472660000e+001) (65, 5.84904975891113280000e+001) (66, 3.61489639282226560000e+001) (67, 7.20054931640625000000e+002) (68, 1.22032983398437500000e+003) (69, 3.71236381530761720000e+001) (70, 1.07871913909912110000e+001) (71, 1.07897758483886720000e+001) (72, 5.79326820373535160000e+000) (73, 7.44560699462890630000e+001) (74, 1.79943115234375000000e+002) (75, 1.39348030090332030000e+001) (76, 3.29588050842285160000e+001) (77, 7.52047195434570310000e+001) (78, 1.96315917968750000000e+002) (79, 1.69092311859130860000e+001) (80, 3.41796569824218750000e+001) (81, 4.70648254394531250000e+002) (82, 1.96211761474609370000e+002) (83, 1.96119537353515620000e+002) (84, 1.01511566162109370000e+003) (85, 7.18196105957031250000e+002) (86, 1.79328704833984370000e+002) (87, 4.18574869632720950000e-001) (88, 2.80865609645843510000e-001) (89, 5.14018595218658450000e-001) (90, 9.39038467407226560000e+000) (91, 6.68011291503906250000e+002) (92, 4.62207641601562500000e+002) (93, 1.42422949218750000000e+003) (94, 1.50000000000000000000e+003) (95, 1.50000000000000000000e+003) (96, 1.50000000000000000000e+003) (97, 1.50000000000000000000e+003) (98, 1.50000000000000000000e+003) (99, 4.18904571533203130000e+001) (0, -1.50000000000000000000e+003) (1, 3.37545484304428100000e-001) (2, 1.26903112792968750000e+003) (3, 2.17780515551567080000e-001) (4, 2.59739249944686890000e-001) (5, -5.78397274017333980000e-001) (6, 1.69536948204040530000e-001) (7, 2.56882250308990480000e-001) (8, 4.96645510196685790000e-001) (9, 1.52858856201171870000e+002) (10, 1.56035598754882810000e+002) (11, 1.10751132965087890000e+001) (12, 9.29017448425292970000e+000) (13, 3.23078781366348270000e-001) (14, 1.86506807804107670000e-001) (15, 3.60563457012176510000e-001) (16, 2.98975855112075810000e-001) (17, 2.84460246562957760000e-001) (18, 2.95769274234771730000e-001) (19, 1.58018231391906740000e-001) (20, 2.69376426935195920000e-001) (21, 4.34118795394897460000e+000) (22, 6.50469665527343750000e+001) (23, 1.63604690551757810000e+002) (24, 3.66426696777343750000e+002) (25, 3.63009033203125000000e+002) (26, 2.44967422485351560000e+001) (27, 6.77098035812377930000e+000) (28, 1.74430799484252930000e+000) (29, 1.24103474617004390000e+000) (30, 3.58021914958953860000e-001) (31, 3.56626361608505250000e-001) (32, 3.05172353982925420000e-001) (33, 2.64394730329513550000e-001) (34, 6.62360286712646480000e+000) (35, 9.01962947845458980000e+000) (36, 1.78648066520690920000e+000) (37, 4.73182976245880130000e-001) (38, 2.78565526008605960000e-001) (39, 2.24804922938346860000e-001) (40, 3.19294452667236330000e-001) (41, 2.47572377324104310000e-001) (42, 2.27306709289550780000e+001) (43, 1.15502038574218750000e+003) (44, 1.10997338867187500000e+003) (45, 1.37391149902343750000e+003) (46, 8.93700012207031250000e+002) (47, 3.11275920867919920000e+001) (48, 7.55268859863281250000e+000) (49, 3.60655426979064940000e-001) (50, 2.59044528007507320000e-001) (51, 4.62108520507812500000e+002) (52, 5.93225440979003910000e+001) (53, 1.86017289757728580000e-001) (54, -1.40894083306193350000e-002) (55, 2.53580033779144290000e-001) (56, 3.62795680761337280000e-001) (57, 2.77256488800048830000e-001) (58, 3.52624893188476560000e+001) (59, 7.90519866943359370000e+001) (60, 8.00799636840820310000e+001) (61, 7.40972948074340820000e+000) (62, 5.30198574066162110000e-001) (63, 3.02108258008956910000e-001) (64, 3.09052109718322750000e-001) (65, 2.11917966604232790000e-001) (66, 2.13192865252494810000e-001) (67, 4.31918859481811520000e-001) (68, 4.55247551202774050000e-001) (69, 3.06437134742736820000e-001) (70, 1.43798768520355220000e-001) (71, 2.54148840904235840000e-001) (72, 2.58463293313980100000e-001) (73, 3.77723097801208500000e-001) (74, 3.92935872077941890000e-001) (75, 2.83223819732666020000e+000) (76, 2.66574058532714840000e+001) (77, 2.59647617340087890000e+001) (78, 2.18756818771362300000e+000) (79, 4.23452943563461300000e-001) (80, 4.58892643451690670000e-001) (81, 4.64460194110870360000e-001) (82, 3.90251547098159790000e-001) (83, 5.77005147933959960000e-001) (84, 4.93914985656738280000e+000) (85, 5.21933937072753910000e+000) (86, 2.05812644958496090000e+000) (87, 4.03655558824539180000e-001) (88, 3.92396271228790280000e-001) (89, 2.15009838342666630000e-001) (90, 2.53132544457912450000e-002) (91, -3.53880405426025390000e-001) (92, 1.61452218890190120000e-001) (93, 1.15581945800781250000e+003) (94, 2.77604492187500000000e+002) (95, 6.92945678710937500000e+002) (96, 6.13398864746093750000e+002) (97, 5.20481224060058590000e+001) (98, 2.18326202392578120000e+002) (99, 5.42946777343750000000e+002) (0, -1.50000000000000000000e+003) (1, 3.46637517213821410000e-001) (2, 1.02864990234375000000e+003) (3, 3.60581666231155400000e-001) (4, 1.84995189309120180000e-001) (5, -5.23569583892822270000e-001) (6, 6.01676255464553830000e-002) (7, 2.69196510314941410000e-001) (8, 3.85591804981231690000e-001) (9, 9.22890281677246090000e+000) (10, 2.66013774871826170000e+001) (11, 4.64592784643173220000e-001) (12, 5.16605794429779050000e-001) (13, 2.15758889913558960000e-001) (14, 2.70865857601165770000e-001) (15, 3.25196355581283570000e-001) (16, 2.24818617105484010000e-001) (17, 2.65572726726531980000e-001) (18, 1.64724901318550110000e-001) (19, 1.86342060565948490000e-001) (20, 3.20591896772384640000e-001) (21, 5.93776106834411620000e-001) (22, 5.84198904037475590000e+000) (23, 1.25113325119018550000e+001) (24, 2.96968345642089840000e+001) (25, 9.04945278167724610000e+000) (26, 6.96905970573425290000e-001) (27, 1.00527787208557130000e+000) (28, 3.91268193721771240000e-001) (29, 3.78518313169479370000e-001) (30, 2.56149023771286010000e-001) (31, 3.98823767900466920000e-001) (32, 2.22570642828941350000e-001) (33, 2.63301551342010500000e-001) (34, 2.24871918559074400000e-001) (35, 3.38027387857437130000e-001) (36, 4.52298551797866820000e-001) (37, 3.24743866920471190000e-001) (38, 3.52986544370651250000e-001) (39, 2.49825969338417050000e-001) (40, 2.77751147747039790000e-001) (41, 2.00227558612823490000e-001) (42, 1.57828509807586670000e-001) (43, 2.48854263305664060000e+002) (44, 4.91519989013671870000e+002) (45, 8.93542602539062500000e+002) (46, 2.15746795654296870000e+002) (47, 8.40988826751708980000e+000) (48, 1.94009733200073240000e+000) (49, 2.26532325148582460000e-001) (50, 2.36174911260604860000e-001) (51, 1.18894607543945310000e+002) (52, 4.71849203109741210000e+000) (53, 6.97570443153381350000e-002) (54, 5.60550987720489500000e-002) (55, 2.66440093517303470000e-001) (56, 2.82015770673751830000e-001) (57, 3.68370890617370610000e-001) (58, 4.88587349653244020000e-001) (59, 1.44347012042999270000e+000) (60, 3.57181096076965330000e+000) (61, 4.17348504066467290000e-001) (62, 1.50599285960197450000e-001) (63, 1.73260152339935300000e-001) (64, 2.49920055270195010000e-001) (65, 2.44999423623085020000e-001) (66, 2.94831722974777220000e-001) (67, 2.81650066375732420000e-001) (68, 4.44596201181411740000e-001) (69, 3.32743495702743530000e-001) (70, 9.44481417536735530000e-002) (71, 2.96686947345733640000e-001) (72, 2.44824796915054320000e-001) (73, 4.11375880241394040000e-001) (74, 2.45598152279853820000e-001) (75, 3.81974846124649050000e-001) (76, 2.78267621994018550000e+000) (77, 1.07580642700195310000e+001) (78, 1.11981534957885740000e+000) (79, 3.59527856111526490000e-001) (80, 2.98414736986160280000e-001) (81, 3.66181641817092900000e-001) (82, 3.75914365053176880000e-001) (83, 3.06979656219482420000e-001) (84, 6.11907243728637700000e-001) (85, 1.41970038414001460000e+000) (86, 5.04049718379974370000e-001) (87, 2.91552186012268070000e-001) (88, 2.27052256464958190000e-001) (89, 3.01304936408996580000e-001) (90, 1.55437901616096500000e-001) (91, -3.19646418094635010000e-001) (92, -7.75674164295196530000e-001) (93, 1.34659214019775390000e+001) (94, 9.76833801269531250000e+001) (95, 1.36006027221679690000e+002) (96, 5.09026275634765620000e+002) (97, 2.90926761627197270000e+001) (98, 3.86396560668945310000e+001) (99, 6.65955749511718750000e+002) (0, 5.09039312601089480000e-002) (1, -7.37788602709770200000e-002) (2, -1.35838061571121220000e-001) (3, -2.44654685258865360000e-001) (4, -3.14621984958648680000e-001) (5, -3.06607335805892940000e-002) (6, -7.28867277503013610000e-002) (7, -5.48151843249797820000e-002) (8, -2.39084079861640930000e-001) (9, -2.17034786939620970000e-001) (10, -2.27689743041992190000e-001) (11, 2.71137237548828130000e-001) (12, 3.17206591367721560000e-001) (13, 1.74262866377830510000e-001) (14, 1.69210523366928100000e-001) (15, 1.41119852662086490000e-001) (16, 6.58201565966010090000e-003) (17, 2.72761493921279910000e-001) (18, 2.30076104402542110000e-001) (19, 3.34307014942169190000e-001) (20, 4.38607074320316310000e-002) (21, 5.48783428966999050000e-002) (22, -8.80357995629310610000e-002) (23, -7.24824517965316770000e-002) (24, -9.87681373953819270000e-002) (25, 1.96450874209403990000e-001) (26, -1.24982260167598720000e-001) (27, -1.74167454242706300000e-001) (28, -8.61658602952957150000e-002) (29, -4.78531569242477420000e-002) (30, 4.00519669055938720000e-002) (31, 3.93274948000907900000e-002) (32, -1.45359784364700320000e-001) (33, -1.04073502123355870000e-001) (34, 4.98039880767464640000e-003) (35, 6.47361278533935550000e-002) (36, 1.15236155688762660000e-001) (37, 2.64360867440700530000e-002) (38, -1.77753786556422710000e-003) (39, 2.08887189626693730000e-001) (40, 8.29032436013221740000e-002) (41, 7.07268714904785160000e-002) (42, -5.19721582531929020000e-002) (43, 1.37732908129692080000e-001) (44, -2.58521549403667450000e-002) (45, -9.03697405010461810000e-003) (46, 1.04756906628608700000e-001) (47, 3.24051752686500550000e-002) (48, 1.20801873505115510000e-001) (49, 3.07255759835243230000e-002) (50, 7.64438277110457420000e-003) (51, -3.35941106081008910000e-001) (52, -1.64353668689727780000e-001) (53, -3.94644401967525480000e-003) (54, 3.72324064373970030000e-002) (55, 1.22554183006286620000e-001) (56, -1.41938030719757080000e-001) (57, -1.32274642586708070000e-001) (58, -2.26708546280860900000e-001) (59, -1.71950995922088620000e-001) (60, -1.98185011744499210000e-001) (61, -1.07427552342414860000e-001) (62, -1.68515279889106750000e-001) (63, -1.98078647255897520000e-001) (64, -2.86962389945983890000e-001) (65, -1.99481412768363950000e-001) (66, -2.58521229028701780000e-001) (67, -1.02193348109722140000e-001) (68, -1.46585136651992800000e-001) (69, -1.11384756863117220000e-001) (70, -8.35635364055633540000e-002) (71, -2.35042467713356020000e-001) (72, -1.93228274583816530000e-001) (73, -2.42592915892601010000e-001) (74, 1.08023300766944890000e-001) (75, 4.05301213264465330000e-001) (76, 3.48876655101776120000e-001) (77, 3.26817929744720460000e-001) (78, 2.89686501026153560000e-001) (79, 2.22914010286331180000e-001) (80, 2.39297166466712950000e-001) (81, 8.27417448163032530000e-002) (82, -1.99529379606246950000e-001) (83, -1.63366928696632390000e-001) (84, -1.42062887549400330000e-001) (85, -2.67744004726409910000e-001) (86, -3.61896157264709470000e-001) (87, -1.67731374502182010000e-001) (88, -3.85434091091156010000e-001) (89, -3.34650248289108280000e-001) (90, 3.42449620366096500000e-002) (91, -2.06174273043870930000e-002) (92, -3.44680756330490110000e-001) (93, -3.62587094306945800000e-001) (94, -1.06188058853149410000e-002) (95, -7.15354308485984800000e-002) (96, -1.52341127395629880000e-001) (97, -5.03404811024665830000e-002) (98, -3.00213932991027830000e-001) (99, -6.64586901664733890000e-001) (0, 3.33618998527526860000e-001) (1, -1.04213409125804900000e-001) (2, -1.30405589938163760000e-001) (3, 3.83436232805252080000e-001) (4, 4.37898963689804080000e-001) (5, 3.26815135776996610000e-002) (6, 2.05469429492950440000e-001) (7, 1.30876138806343080000e-001) (8, -4.08912330865859990000e-001) (9, -3.11920344829559330000e-001) (10, -1.42411291599273680000e-001) (11, -1.84506922960281370000e-001) (12, -2.60335877537727360000e-002) (13, 6.08252268284559250000e-003) (14, 9.40318256616592410000e-002) (15, 4.97148074209690090000e-002) (16, -5.76720014214515690000e-002) (17, -3.85689288377761840000e-002) (18, -1.15604288876056670000e-002) (19, -3.85801121592521670000e-003) (20, 4.63030524551868440000e-002) (21, 2.42327302694320680000e-001) (22, 9.52351558953523640000e-003) (23, 1.22454576194286350000e-001) (24, 1.02539591491222380000e-001) (25, 1.29482984542846680000e-001) (26, 3.69731076061725620000e-002) (27, 5.41771575808525090000e-002) (28, 3.13589870929718020000e-002) (29, 2.34155450016260150000e-002) (30, -2.29636337608098980000e-002) (31, 4.56513538956642150000e-002) (32, -2.43973266333341600000e-002) (33, 1.01496271789073940000e-001) (34, 2.62434743344783780000e-002) (35, 5.79413659870624540000e-002) (36, 6.12782724201679230000e-002) (37, -6.24757297337055210000e-002) (38, -5.87840788066387180000e-002) (39, 2.31929076835513110000e-003) (40, 6.79669454693794250000e-002) (41, -3.75545024871826170000e-002) (42, 5.88201917707920070000e-002) (43, 3.08875590562820430000e-002) (44, 4.15396727621555330000e-002) (45, -9.50679630041122440000e-002) (46, 1.25668898224830630000e-001) (47, 4.60536740720272060000e-002) (48, 4.59164902567863460000e-002) (49, -2.10350789129734040000e-002) (50, 9.01423022150993350000e-002) (51, -3.28142851591110230000e-001) (52, 5.56721985340118410000e-002) (53, -6.14833384752273560000e-002) (54, -2.20539227128028870000e-001) (55, -2.27134913206100460000e-001) (56, 1.54763879254460330000e-002) (57, -4.73838299512863160000e-002) (58, -3.98160926997661590000e-002) (59, 6.45649656653404240000e-002) (60, 1.10551811754703520000e-001) (61, 5.64412176609039310000e-002) (62, -2.51821964047849180000e-003) (63, 1.57253351062536240000e-002) (64, -7.89875257760286330000e-003) (65, -6.49416120722889900000e-003) (66, -1.83591730892658230000e-002) (67, 1.28126339986920360000e-002) (68, -8.72624367475509640000e-002) (69, -5.69576919078826900000e-002) (70, 1.05649922043085100000e-002) (71, -1.03013843297958370000e-001) (72, -1.09881997108459470000e-001) (73, -2.25741639733314510000e-002) (74, -4.20556738972663880000e-002) (75, 1.65355890989303590000e-001) (76, -2.21273392438888550000e-001) (77, -1.53181672096252440000e-001) (78, -1.34839624166488650000e-001) (79, -2.28320404887199400000e-001) (80, -8.57161059975624080000e-002) (81, 9.24370139837265010000e-002) (82, -5.44623518362641330000e-003) (83, 6.36108368635177610000e-002) (84, 2.52775121480226520000e-002) (85, 8.00784602761268620000e-002) (86, 1.23419836163520810000e-001) (87, 1.15332864224910740000e-001) (88, 1.18875235319137570000e-001) (89, 1.14415138959884640000e-001) (90, 8.14564153552055360000e-002) (91, 1.43269658088684080000e-001) (92, 9.26687940955162050000e-002) (93, 2.14460298418998720000e-001) (94, 4.32083494961261750000e-002) (95, 4.11813929677009580000e-002) (96, 6.63112998008728030000e-002) (97, 3.94971258938312530000e-002) (98, -5.61816431581974030000e-002) (99, 3.61765056848526000000e-001) (0, -4.78817810058593750000e+002) (1, 5.47396779060363770000e-001) (2, 1.39621215820312500000e+003) (3, 4.33326244354248050000e-001) (4, 2.69888490438461300000e-001) (5, 2.91383206844329830000e-001) (6, 1.45650804042816160000e-001) (7, 2.65898019075393680000e-001) (8, 8.94864320755004880000e-001) (9, 2.67522811889648440000e+001) (10, 1.11431312561035160000e+001) (11, 5.16415309906005860000e+000) (12, 2.57309627532958980000e+000) (13, 3.81159096956253050000e-001) (14, 3.96560996770858760000e-001) (15, 3.54354798793792720000e-001) (16, 6.34403705596923830000e-001) (17, 4.07667458057403560000e-001) (18, 2.82872289419174190000e-001) (19, 2.98314452171325680000e-001) (20, 1.24923035502433780000e-001) (21, 2.61315107345581050000e-001) (22, 5.87956466674804690000e+001) (23, 1.75290557861328120000e+002) (24, 6.28562316894531250000e+002) (25, 1.43225345611572270000e+001) (26, 2.28911375999450680000e+000) (27, 7.81408846378326420000e-001) (28, 3.56360435485839840000e-001) (29, 6.95790827274322510000e-001) (30, 6.19867622852325440000e-001) (31, 5.60941100120544430000e-001) (32, 4.38980877399444580000e-001) (33, 1.44200360774993900000e+000) (34, 1.23556070327758790000e+001) (35, 9.84954166412353520000e+000) (36, 1.16834378242492680000e+000) (37, 2.61565327644348140000e-001) (38, 2.55734443664550780000e-001) (39, 2.94547736644744870000e-001) (40, 3.51700007915496830000e-001) (41, 3.56180608272552490000e-001) (42, 1.22098433971405030000e+000) (43, 1.15497521972656250000e+003) (44, 1.26864782714843750000e+003) (45, 1.50000000000000000000e+003) (46, 7.24667785644531250000e+002) (47, 2.25535798072814940000e+000) (48, 4.97726172208786010000e-001) (49, 2.34062448143959050000e-001) (50, 3.38074505329132080000e-001) (51, 5.88822066783905030000e-001) (52, 1.19500982761383060000e+000) (53, 3.21688503026962280000e-001) (54, 2.10895910859107970000e-001) (55, 2.43715167045593260000e-001) (56, 3.03031980991363530000e-001) (57, 4.58085149526596070000e-001) (58, 1.08082830905914310000e+000) (59, 1.21198921203613280000e+001) (60, 6.57933654785156250000e+001) (61, 1.47388782501220700000e+001) (62, 5.97614288330078130000e-001) (63, 4.82634961605072020000e-001) (64, 2.56436139345169070000e-001) (65, 2.19268232583999630000e-001) (66, 3.02283406257629390000e-001) (67, 3.18444311618804930000e-001) (68, 3.38797509670257570000e-001) (69, 2.69784897565841670000e-001) (70, 3.08087646961212160000e-001) (71, 3.35674554109573360000e-001) (72, 4.04654383659362790000e-001) (73, 4.85963612794876100000e-001) (74, 3.98839831352233890000e-001) (75, 2.03968906402587890000e+000) (76, 1.45391130447387700000e+001) (77, 7.85487976074218750000e+001) (78, 1.82093369960784910000e+000) (79, 3.87422591447830200000e-001) (80, 3.23737829923629760000e-001) (81, 3.06219965219497680000e-001) (82, 4.63780939579010010000e-001) (83, 1.36871361732482910000e+000) (84, 5.23829603195190430000e+000) (85, 1.05974111557006840000e+001) (86, 8.71430575847625730000e-001) (87, 2.61516600847244260000e-001) (88, 2.76926666498184200000e-001) (89, 3.48798781633377080000e-001) (90, 2.78628230094909670000e-001) (91, 3.07889193296432500000e-001) (92, 3.94314050674438480000e-001) (93, 1.56823089599609370000e+002) (94, 3.02425476074218750000e+002) (95, 3.02418395996093750000e+002) (96, 3.52052215576171870000e+002) (97, 2.15007381439208980000e+001) (98, 3.32297706604003910000e+001) (99, 2.74735595703125000000e+002) (0, -5.74094848632812500000e+002) (1, 3.85719358921051030000e-001) (2, 1.50000000000000000000e+003) (3, 2.97150164842605590000e-001) (4, 3.02208870649337770000e-001) (5, -1.40218615531921390000e-001) (6, 9.38545614480972290000e-002) (7, 1.86136648058891300000e-001) (8, 4.35070812702178960000e-001) (9, 3.95928802490234380000e+001) (10, 1.24370660781860350000e+001) (11, 2.57064676284790040000e+000) (12, 9.93381083011627200000e-001) (13, 2.88848280906677250000e-001) (14, 3.11112612485885620000e-001) (15, 2.78158217668533330000e-001) (16, 3.59686583280563350000e-001) (17, 4.11564141511917110000e-001) (18, 3.37884366512298580000e-001) (19, 2.10741624236106870000e-001) (20, 2.05238252878189090000e-001) (21, 5.97815334796905520000e-001) (22, 3.92203186035156250000e+002) (23, 3.92052612304687500000e+002) (24, 3.92334625244140620000e+002) (25, 3.38531074523925780000e+001) (26, 1.99494850635528560000e+000) (27, 6.39084160327911380000e-001) (28, 4.19452279806137080000e-001) (29, 3.18566232919692990000e-001) (30, 3.01682293415069580000e-001) (31, 4.15733635425567630000e-001) (32, 3.11726003885269170000e-001) (33, 4.44045633077621460000e-001) (34, 1.91736638545989990000e+000) (35, 7.34185266494750980000e+000) (36, 1.11286640167236330000e+000) (37, 4.01678770780563350000e-001) (38, 2.06814661622047420000e-001) (39, 3.53361666202545170000e-001) (40, 3.35160493850708010000e-001) (41, 2.91604548692703250000e-001) (42, 6.33671462535858150000e-001) (43, 2.22290328979492190000e+002) (44, 8.69738586425781250000e+002) (45, 8.93780578613281250000e+002) (46, 1.59466810226440430000e+001) (47, 8.30731749534606930000e-001) (48, 4.06637042760849000000e-001) (49, 3.49656045436859130000e-001) (50, 2.70094126462936400000e-001) (51, 6.27985537052154540000e-001) (52, 6.35350346565246580000e-001) (53, 2.71127015352249150000e-001) (54, 2.88941800594329830000e-001) (55, 1.31965115666389470000e-001) (56, 3.80861639976501460000e-001) (57, 3.98928195238113400000e-001) (58, 1.87471938133239750000e+000) (59, 7.61013259887695310000e+001) (60, 2.53666057586669920000e+001) (61, 1.76584224700927730000e+001) (62, 3.77447515726089480000e-001) (63, 1.65828123688697810000e-001) (64, 1.35494694113731380000e-001) (65, 3.20291399955749510000e-001) (66, 2.65066504478454590000e-001) (67, 3.74126404523849490000e-001) (68, 3.82673680782318120000e-001) (69, 2.12939456105232240000e-001) (70, 3.59610110521316530000e-001) (71, 2.78738141059875490000e-001) (72, 4.28576231002807620000e-001) (73, 3.37971836328506470000e-001) (74, 3.18231731653213500000e-001) (75, 9.78554069995880130000e-001) (76, 2.76903285980224610000e+001) (77, 1.48192810058593750000e+002) (78, 4.21517372131347660000e+000) (79, 3.83849292993545530000e-001) (80, 2.45268285274505620000e-001) (81, 2.77014106512069700000e-001) (82, 2.95917421579360960000e-001) (83, 8.23405385017395020000e-001) (84, 2.52673149108886720000e+000) (85, 1.05960636138916020000e+001) (86, 5.31667947769165040000e-001) (87, 4.08976584672927860000e-001) (88, 2.68122553825378420000e-001) (89, 2.43740469217300420000e-001) (90, 5.82248121500015260000e-002) (91, 9.85492467880249020000e-002) (92, 1.33886790275573730000e+000) (93, 4.70060546875000000000e+002) (94, 3.00772003173828120000e+002) (95, 3.62345275878906250000e+002) (96, 3.76173522949218750000e+002) (97, 1.58153137207031250000e+002) (98, 9.87822875976562500000e+001) (99, 3.28018035888671870000e+002) (0, 2.10748851299285890000e-001) (1, -2.60880053043365480000e-001) (2, -3.06504249572753910000e-001) (3, -2.24168360233306880000e-001) (4, -2.17583879828453060000e-001) (5, -2.80857771635055540000e-001) (6, -2.18401737511157990000e-002) (7, -1.25252362340688710000e-002) (8, 2.92641334235668180000e-002) (9, 1.02034471929073330000e-002) (10, -1.25007897615432740000e-001) (11, -6.56259283423423770000e-002) (12, -1.63309723138809200000e-002) (13, -5.32677918672561650000e-002) (14, 1.50337249040603640000e-001) (15, 1.55966341495513920000e-001) (16, 2.25107192993164060000e-001) (17, 1.89435318112373350000e-001) (18, 9.86081883311271670000e-002) (19, 1.25636756420135500000e-001) (20, 1.12495750188827510000e-001) (21, 1.93276047706604000000e-001) (22, 1.44340153783559800000e-002) (23, 4.15588915348052980000e-002) (24, 1.89201518893241880000e-001) (25, 4.52716797590255740000e-002) (26, -5.06574809551239010000e-002) (27, 2.12499424815177920000e-002) (28, 1.57575488090515140000e-001) (29, 9.36737582087516780000e-002) (30, 5.19687756896018980000e-002) (31, 2.72214282304048540000e-002) (32, 4.06084060668945310000e-002) (33, 4.14129048585891720000e-002) (34, 7.36716091632843020000e-002) (35, 1.32601454854011540000e-001) (36, 3.89465689659118650000e-002) (37, 2.45027560740709300000e-002) (38, 1.69732403010129930000e-002) (39, 2.29913339018821720000e-001) (40, 1.34325489401817320000e-001) (41, 4.60268072783946990000e-002) (42, -1.26053225249052050000e-002) (43, 4.05618771910667420000e-002) (44, -6.95245265960693360000e-002) (45, -4.96336929500103000000e-002) (46, 8.16184189170598980000e-003) (47, 2.13747415691614150000e-002) (48, 1.56522363424301150000e-001) (49, -5.57070113718509670000e-002) (50, 9.66797694563865660000e-002) (51, -2.91698247194290160000e-001) (52, -2.69672051072120670000e-002) (53, 1.25850319862365720000e-001) (54, 2.25341748446226120000e-002) (55, 1.84707552194595340000e-001) (56, 1.82220891118049620000e-001) (57, -2.19302281737327580000e-001) (58, -1.29180714488029480000e-001) (59, -9.39715057611465450000e-002) (60, -3.22788029909133910000e-001) (61, -1.50353059172630310000e-001) (62, -1.84871211647987370000e-001) (63, -2.36371368169784550000e-001) (64, -1.52764886617660520000e-001) (65, -2.06263884902000430000e-001) (66, 4.50416989624500270000e-002) (67, -1.30960106849670410000e-001) (68, -2.82444864511489870000e-001) (69, -1.34233713150024410000e-001) (70, -1.94068834185600280000e-001) (71, -2.73619145154953000000e-001) (72, -2.92744040489196780000e-001) (73, -1.28194287419319150000e-001) (74, 1.57051309943199160000e-001) (75, 1.73468291759490970000e-001) (76, 2.19357639551162720000e-001) (77, 1.03074491024017330000e-001) (78, 1.37514442205429080000e-001) (79, 8.75072419643402100000e-001) (80, 3.77871781587600710000e-001) (81, 2.95017719268798830000e-001) (82, 2.57564812898635860000e-001) (83, -2.19229552894830700000e-002) (84, -1.49959519505500790000e-001) (85, -7.29043632745742800000e-002) (86, -3.37912142276763920000e-001) (87, -2.48141929507255550000e-001) (88, -1.75100386142730710000e-001) (89, -2.92972922325134280000e-001) (90, -1.90463379025459290000e-001) (91, -2.31270372867584230000e-001) (92, -2.37261995673179630000e-001) (93, -6.80693686008453370000e-002) (94, 1.33340328931808470000e-001) (95, 1.17704078555107120000e-001) (96, -1.79063633084297180000e-001) (97, -9.09241363406181340000e-002) (98, -1.11958079040050510000e-001) (99, -1.55868625640869140000e+001) (0, 1.93804185837507250000e-002) (1, 9.52474847435951230000e-002) (2, 9.22127738595008850000e-002) (3, -2.99847781658172610000e-001) (4, -3.78319442272186280000e-001) (5, -3.90401691198349000000e-001) (6, -4.28622603416442870000e-001) (7, -4.87553328275680540000e-001) (8, -2.13609933853149410000e-001) (9, -2.76035219430923460000e-001) (10, 8.06514695286750790000e-002) (11, -6.29603955894708630000e-003) (12, 1.37946501374244690000e-001) (13, -3.52634862065315250000e-002) (14, 2.32936888933181760000e-002) (15, 6.02358318865299220000e-002) (16, 1.32089659571647640000e-001) (17, 2.47157454490661620000e-001) (18, 2.34354645013809200000e-001) (19, 1.49989947676658630000e-001) (20, 1.55432388186454770000e-001) (21, 1.60473197698593140000e-001) (22, 2.04985916614532470000e-001) (23, 5.25651685893535610000e-002) (24, 1.83792293071746830000e-001) (25, 2.24265709519386290000e-001) (26, 1.24297931790351870000e-001) (27, 5.11979348957538600000e-002) (28, 2.00917169451713560000e-001) (29, 2.95803025364875790000e-002) (30, 6.90237954258918760000e-002) (31, 2.06568598747253420000e-001) (32, 1.90230756998062130000e-001) (33, 1.36883154511451720000e-001) (34, 1.38008430600166320000e-001) (35, 7.38916471600532530000e-002) (36, 1.46110221743583680000e-001) (37, 4.03532460331916810000e-002) (38, 2.16748714447021480000e-001) (39, 9.66907143592834470000e-002) (40, 3.18192362785339360000e-001) (41, 2.51339346170425420000e-001) (42, 4.11362230777740480000e-001) (43, 3.20599764585495000000e-001) (44, 2.55884438753128050000e-001) (45, 9.65211167931556700000e-002) (46, 1.16729110479354860000e-001) (47, 2.15934723615646360000e-001) (48, 9.97680574655532840000e-002) (49, 1.02117978036403660000e-001) (50, 2.54428297281265260000e-001) (51, -6.09764270484447480000e-002) (52, -2.92825717478990550000e-002) (53, 2.41202246397733690000e-002) (54, 1.45495101809501650000e-001) (55, 1.51016876101493840000e-001) (56, -1.86873376369476320000e-002) (57, -2.94730998575687410000e-002) (58, -3.20612639188766480000e-002) (59, -4.60317097604274750000e-002) (60, -8.85619968175888060000e-002) (61, 6.69295191764831540000e-002) (62, 1.65950730443000790000e-001) (63, 1.63670271635055540000e-001) (64, 5.89265599846839900000e-002) (65, 1.12431615591049190000e-001) (66, -1.18751056492328640000e-001) (67, -8.82535427808761600000e-002) (68, -9.00832787156105040000e-002) (69, -1.97572886943817140000e-001) (70, 3.17006260156631470000e-002) (71, 1.28423139452934270000e-001) (72, 8.53609815239906310000e-002) (73, -2.13534325361251830000e-001) (74, -5.03310114145278930000e-002) (75, -1.08050696551799770000e-001) (76, 4.08179499208927150000e-002) (77, -3.63579429686069490000e-002) (78, 5.45202530920505520000e-002) (79, -5.33676669001579280000e-002) (80, -2.46296543627977370000e-002) (81, 9.78537946939468380000e-002) (82, -3.04132789373397830000e-001) (83, -3.39038312435150150000e-001) (84, -2.57088959217071530000e-001) (85, -2.95094400644302370000e-001) (86, -1.52177691459655760000e-001) (87, -1.17990903556346890000e-001) (88, -1.51902526617050170000e-001) (89, -1.67761966586112980000e-001) (90, -5.63923008739948270000e-002) (91, 3.16107422113418580000e-002) (92, -1.86188668012619020000e-001) (93, -1.35534048080444340000e-001) (94, -1.63336083292961120000e-001) (95, -1.31980970501899720000e-001) (96, -1.93282186985015870000e-001) (97, -1.52921676635742190000e-001) (98, -1.52774378657341000000e-001) (99, 3.31596946716308590000e+000) (0, 3.43264383263885970000e-003) (1, 1.84844449162483220000e-001) (2, 7.88269713521003720000e-002) (3, -1.40447542071342470000e-001) (4, -6.03665858507156370000e-002) (5, -3.66501472890377040000e-002) (6, -8.48185792565345760000e-002) (7, -1.72847583889961240000e-001) (8, -5.54092749953269960000e-002) (9, -1.95660173892974850000e-001) (10, 8.31336453557014470000e-002) (11, 1.27377122640609740000e-001) (12, 1.66680619120597840000e-001) (13, 5.68851828575134280000e-002) (14, 1.43268719315528870000e-001) (15, 1.97472959756851200000e-001) (16, 1.74468949437141420000e-001) (17, 2.11951613426208500000e-001) (18, -2.85701062530279160000e-002) (19, 4.89091537892818450000e-002) (20, 1.80476039648056030000e-001) (21, 1.59124299883842470000e-001) (22, 8.50737616419792180000e-002) (23, 1.60321652889251710000e-001) (24, 1.30101233720779420000e-001) (25, 1.43384397961199280000e-003) (26, 5.47425784170627590000e-002) (27, -2.35803239047527310000e-002) (28, 1.66798010468482970000e-001) (29, 3.66011671721935270000e-002) (30, 7.48316198587417600000e-002) (31, 1.54502332210540770000e-001) (32, 3.29301431775093080000e-002) (33, -2.84031266346573830000e-004) (34, 5.94791285693645480000e-002) (35, 1.46510750055313110000e-001) (36, 3.88287752866745000000e-002) (37, 5.62983937561511990000e-002) (38, -3.70067544281482700000e-002) (39, 6.98031410574913020000e-002) (40, -1.39051228761672970000e-002) (41, 9.61031466722488400000e-002) (42, 1.43152577802538870000e-002) (43, -7.36449053511023520000e-003) (44, 5.60845248401165010000e-002) (45, -1.77746061235666280000e-002) (46, 7.26298019289970400000e-002) (47, 1.14834368228912350000e-001) (48, 1.13563887774944310000e-001) (49, -2.44205314666032790000e-002) (50, -1.58774144947528840000e-002) (51, -3.70730221271514890000e-001) (52, 1.02944478392601010000e-001) (53, 6.94911032915115360000e-002) (54, -2.58264020085334780000e-002) (55, -3.60441878437995910000e-002) (56, -1.18862036615610120000e-002) (57, -2.09746941924095150000e-001) (58, -1.44371777772903440000e-001) (59, -1.54231294989585880000e-001) (60, -1.66650936007499690000e-001) (61, -1.43623217940330510000e-001) (62, 3.74154560267925260000e-002) (63, 4.43685762584209440000e-002) (64, -6.04338720440864560000e-002) (65, 2.11489915847778320000e-001) (66, 9.97538790106773380000e-002) (67, 7.93702676892280580000e-002) (68, -1.14890821278095250000e-001) (69, 2.49422103166580200000e-001) (70, 1.44665226340293880000e-001) (71, 1.50610670447349550000e-001) (72, 1.65508702397346500000e-001) (73, 1.08636558055877690000e-001) (74, 1.25142306089401250000e-001) (75, 2.38958492875099180000e-001) (76, 2.56063222885131840000e-001) (77, 1.37580126523971560000e-001) (78, 1.58833965659141540000e-001) (79, 1.72366529703140260000e-001) (80, 1.07039146125316620000e-001) (81, 2.33657896518707280000e-001) (82, 1.52197316288948060000e-001) (83, -1.85357078909873960000e-001) (84, -1.28167510032653810000e-001) (85, -1.56346529722213750000e-001) (86, -1.77440285682678220000e-001) (87, -1.92529991269111630000e-001) (88, 1.25885546207427980000e-001) (89, 1.36018455028533940000e-001) (90, -1.04259862564504150000e-003) (91, 1.95358935743570330000e-002) (92, -9.85861793160438540000e-002) (93, -5.06204888224601750000e-002) (94, 2.26537749171257020000e-001) (95, -6.39993324875831600000e-002) (96, -4.32612821459770200000e-002) (97, -1.87218993902206420000e-001) (98, 8.75999778509140010000e-002) (99, 1.75279605388641360000e+000) (0, -1.50000000000000000000e+003) (1, 2.27342322468757630000e-001) (2, 1.15541870117187500000e+003) (3, 1.85598090291023250000e-001) (4, 3.36217343807220460000e-001) (5, -5.03157079219818120000e-001) (6, 1.19267806410789490000e-001) (7, 1.66253656148910520000e-001) (8, 2.57394880056381230000e-001) (9, 1.51874125003814700000e+000) (10, 1.02471733093261720000e+000) (11, 2.67271846532821660000e-001) (12, 3.11052203178405760000e-001) (13, 2.87620186805725100000e-001) (14, 1.02445952594280240000e-001) (15, 9.03323665261268620000e-003) (16, 2.98732757568359380000e-001) (17, 3.87071728706359860000e-001) (18, 3.07250320911407470000e-001) (19, 2.17776775360107420000e-001) (20, 2.03492760658264160000e-001) (21, 3.32468062639236450000e-001) (22, 5.97320604324340820000e+000) (23, 5.89870023727416990000e+000) (24, 5.38283967971801760000e+000) (25, 1.19083809852600100000e+000) (26, 3.87909531593322750000e-001) (27, 2.79673159122467040000e-001) (28, 2.38673016428947450000e-001) (29, 3.57141315937042240000e-001) (30, 3.82651329040527340000e-001) (31, 3.09391170740127560000e-001) (32, 4.07269299030303960000e-001) (33, 3.20362955331802370000e-001) (34, 3.14123660326004030000e-001) (35, 2.86060482263565060000e-001) (36, 2.81579613685607910000e-001) (37, 2.12671935558319090000e-001) (38, 2.52024859189987180000e-001) (39, 3.18499565124511720000e-001) (40, 3.92732143402099610000e-001) (41, 3.88637632131576540000e-001) (42, 5.32696302980184560000e-003) (43, 4.33334350585937500000e+001) (44, 2.48913528442382810000e+002) (45, 8.93681213378906250000e+002) (46, 5.50095397949218750000e+002) (47, 5.13716077804565430000e+000) (48, 4.25389528274536130000e-001) (49, 2.36058861017227170000e-001) (50, 3.65363925695419310000e-001) (51, 1.18124127388000490000e+000) (52, 8.60440075397491460000e-001) (53, 7.76531100273132320000e-002) (54, 1.18680588901042940000e-001) (55, 1.37933999300003050000e-001) (56, 3.53571861982345580000e-001) (57, 2.21876770257949830000e-001) (58, 4.32182878255844120000e-001) (59, 1.70221912860870360000e+000) (60, 5.01921057701110840000e-001) (61, 2.76274979114532470000e-001) (62, 2.60257840156555180000e-001) (63, 1.91915482282638550000e-001) (64, 1.28261610865592960000e-001) (65, 1.89623475074768070000e-001) (66, 3.42325448989868160000e-001) (67, 2.80794948339462280000e-001) (68, 4.09966766834259030000e-001) (69, 3.07646393775939940000e-001) (70, 9.79524850845336910000e-002) (71, 9.38940942287445070000e-002) (72, 2.95285284519195560000e-001) (73, 3.01754921674728390000e-001) (74, 2.98841983079910280000e-001) (75, 4.74839538335800170000e-001) (76, 2.68415331840515140000e+000) (77, 2.58480167388916020000e+000) (78, 3.99070799350738530000e-001) (79, 2.57768720388412480000e-001) (80, 2.67189055681228640000e-001) (81, 1.58904895186424260000e-001) (82, 3.08530509471893310000e-001) (83, 4.51046496629714970000e-001) (84, 5.13330578804016110000e-001) (85, 8.38220000267028810000e-001) (86, 5.93613088130950930000e-001) (87, 4.00269418954849240000e-001) (88, 2.90754079818725590000e-001) (89, 2.82549053430557250000e-001) (90, 3.06289121508598330000e-002) (91, 3.69080789387226100000e-002) (92, -5.33304996788501740000e-002) (93, 8.07280063629150390000e-001) (94, 1.90030212402343750000e+001) (95, 1.18909767150878910000e+002) (96, 1.00813758850097660000e+002) (97, 9.34068393707275390000e+000) (98, 9.70396575927734380000e+001) (99, 3.30551208496093750000e+002) (0, 4.23690862953662870000e-002) (1, -5.62786720693111420000e-002) (2, 1.45333334803581240000e-001) (3, 2.96459585428237920000e-001) (4, 2.21613883972167970000e-001) (5, 4.22576889395713810000e-002) (6, 6.72350153326988220000e-002) (7, 6.89283087849617000000e-002) (8, 5.14452382922172550000e-002) (9, 1.01565390825271610000e-001) (10, 1.54290884733200070000e-001) (11, 1.03438142687082290000e-002) (12, -4.76761125028133390000e-002) (13, -9.66616272926330570000e-002) (14, -6.12423084676265720000e-002) (15, -4.19277735054492950000e-002) (16, -7.03506767749786380000e-002) (17, -1.10906155896373090000e-004) (18, -5.75411990284919740000e-002) (19, -3.85319963097572330000e-002) (20, 1.16292871534824370000e-001) (21, 1.00579269230365750000e-001) (22, 2.96498555690050130000e-002) (23, -9.39760133624076840000e-002) (24, -6.45964145660400390000e-002) (25, 3.73094007372856140000e-002) (26, -4.10563461482524870000e-002) (27, 8.66312384605407710000e-002) (28, -4.20275256037712100000e-002) (29, 4.57193739712238310000e-002) (30, -1.43144637346267700000e-001) (31, 1.74947064369916920000e-002) (32, -1.04239411652088170000e-001) (33, 1.81070510298013690000e-002) (34, -1.22911855578422550000e-001) (35, 8.01529809832572940000e-002) (36, -3.64340692758560180000e-002) (37, 1.24182753264904020000e-001) (38, 8.71495380997657780000e-002) (39, 3.99404615163803100000e-002) (40, -4.53487820923328400000e-002) (41, -2.88593340665102010000e-002) (42, -1.07477776706218720000e-001) (43, -2.47933249920606610000e-002) (44, 2.05300431698560710000e-002) (45, -2.90331542491912840000e-002) (46, 5.20835723727941510000e-003) (47, 2.04951018095016480000e-002) (48, 5.47118596732616420000e-002) (49, 2.35231608152389530000e-001) (50, 1.28113329410552980000e-001) (51, 1.61784633994102480000e-001) (52, 2.11370989680290220000e-001) (53, 1.83813020586967470000e-001) (54, -7.21776485443115230000e-003) (55, 7.65693113207817080000e-002) (56, -4.86321002244949340000e-002) (57, 1.02267012000083920000e-001) (58, 1.56828239560127260000e-001) (59, 5.97319155931472780000e-002) (60, 2.42530386894941330000e-002) (61, 3.74153722077608110000e-004) (62, 3.17955799400806430000e-002) (63, 1.11732318997383120000e-001) (64, 7.84270688891410830000e-002) (65, 2.79615908861160280000e-001) (66, 5.47662638127803800000e-002) (67, 2.22019389271736150000e-001) (68, 1.79134935140609740000e-001) (69, 6.01119883358478550000e-002) (70, -2.07585453987121580000e-001) (71, -7.44679570198059080000e-001) (72, -5.22574828937649730000e-003) (73, -1.02688940241932870000e-002) (74, 1.61997857503592970000e-003) (75, -1.18594065308570860000e-001) (76, -2.48110800981521610000e-001) (77, -1.25463843345642090000e-001) (78, -4.41002994775772090000e-002) (79, -1.20892245322465900000e-002) (80, 5.43649382889270780000e-002) (81, -1.51984453201293950000e-001) (82, 1.13406218588352200000e-001) (83, 1.74026831984519960000e-001) (84, 2.32733152806758880000e-002) (85, 1.77498489618301390000e-001) (86, 1.25561714172363280000e-001) (87, 1.77472144365310670000e-001) (88, -5.10922968387603760000e-001) (89, 1.41619607806205750000e-001) (90, 6.17575924843549730000e-003) (91, 1.46993890404701230000e-001) (92, 1.02514931932091710000e-002) (93, 1.00958570837974550000e-001) (94, 1.02921158075332640000e-001) (95, 3.08631837368011470000e-001) (96, 1.02149493992328640000e-001) (97, 1.34364575147628780000e-001) (98, -1.12943341955542560000e-002) (99, 5.52711944580078130000e+001) (0, -1.51381805539131160000e-001) (1, -1.56894057989120480000e-001) (2, -6.87258422374725340000e-001) (3, 1.16143667697906490000e+000) (4, -2.70640045404434200000e-001) (5, -1.87594667077064510000e-001) (6, -1.20071254670619960000e-001) (7, -2.31887400150299070000e-001) (8, -1.69917196035385130000e-001) (9, -2.96355992555618290000e-001) (10, 1.96850097179412840000e+000) (11, 9.06036615371704100000e-001) (12, -9.00882482528686520000e-002) (13, -2.65313804149627690000e-001) (14, 1.08221173286437990000e-001) (15, -1.55651941895484920000e-001) (16, -1.38674363493919370000e-001) (17, -2.26236898452043530000e-002) (18, 5.95562905073165890000e-002) (19, 5.98336420953273770000e-002) (20, 2.82199025154113770000e-001) (21, 2.46860086917877200000e-001) (22, 6.16914689540863040000e-001) (23, 1.74037301540374760000e+000) (24, 2.20236763358116150000e-001) (25, -2.08006054162979130000e-002) (26, -2.59930372238159180000e-001) (27, 3.70607455261051650000e-003) (28, -1.59352347254753110000e-002) (29, 6.81458860635757450000e-002) (30, 5.45858740806579590000e-002) (31, 6.74942284822463990000e-002) (32, 1.34872913360595700000e-001) (33, 3.71545970439910890000e-001) (34, 2.55620568990707400000e-001) (35, -3.10485064983367920000e-001) (36, -4.28307145833969120000e-001) (37, 7.18034282326698300000e-002) (38, -8.34795366972684860000e-003) (39, -1.17497146129608150000e-001) (40, -2.42881044745445250000e-001) (41, -7.35159730538725850000e-004) (42, -9.75435301661491390000e-002) (43, 1.23131930828094480000e+000) (44, 2.02027618885040280000e-001) (45, 1.44860580563545230000e-001) (46, 8.71603190898895260000e-001) (47, -6.60474449396133420000e-002) (48, -9.68248128890991210000e-001) (49, -1.85610246658325200000e+000) (50, -3.61235886812210080000e-001) (51, -4.01226907968521120000e-001) (52, 7.17138592153787610000e-003) (53, -2.32871815562248230000e-001) (54, -1.91736087203025820000e-001) (55, -1.73036709427833560000e-001) (56, -5.27191400527954100000e-001) (57, -3.75223666429519650000e-001) (58, -2.75868028402328490000e-001) (59, -1.43471091985702510000e-001) (60, -2.57664859294891360000e-001) (61, -1.67055457830429080000e-001) (62, -5.45963011682033540000e-002) (63, -9.70506444573402400000e-002) (64, 7.46890753507614140000e-002) (65, -6.75522387027740480000e-002) (66, -1.45717501640319820000e-001) (67, -4.11537349224090580000e-001) (68, -2.63155847787857060000e-001) (69, -3.74970525503158570000e-001) (70, -1.82106590270996090000e+000) (71, -1.81923282146453860000e+000) (72, -1.01851630210876460000e+000) (73, -4.64954167604446410000e-001) (74, 9.06988978385925290000e-002) (75, -4.77939732372760770000e-002) (76, -3.68743017315864560000e-002) (77, 4.63196309283375740000e-003) (78, -2.98137180507183070000e-002) (79, 9.77486073970794680000e-002) (80, 2.76775918900966640000e-002) (81, 3.95188443362712860000e-002) (82, -2.68537044525146480000e-001) (83, -3.33005517721176150000e-001) (84, -1.90071910619735720000e-001) (85, -2.01486721634864810000e-001) (86, -1.88328340649604800000e-001) (87, -1.49846509099006650000e-001) (88, -1.69338822364807130000e-001) (89, -2.65171140432357790000e-001) (90, 8.60555022954940800000e-002) (91, -9.73053500056266780000e-002) (92, -2.47698709368705750000e-001) (93, -2.65112459659576420000e-001) (94, -2.83259570598602290000e-001) (95, -2.03955635428428650000e-001) (96, -1.86822474002838130000e-001) (97, -2.42622613906860350000e-001) (98, -4.80543613433837890000e-001) (99, 1.18657928466796870000e+002) (0, 1.91163033246994020000e-001) (1, 5.01755662262439730000e-002) (2, -4.63638268411159520000e-002) (3, 3.28464061021804810000e-001) (4, 3.59989136457443240000e-001) (5, 4.76999022066593170000e-002) (6, -1.05811484158039090000e-001) (7, -1.20207458734512330000e-001) (8, 3.18769514560699460000e-002) (9, 3.66936274804174900000e-003) (10, -4.81439642608165740000e-002) (11, -1.09838008880615230000e-001) (12, 3.34922932088375090000e-002) (13, 5.67749775946140290000e-002) (14, -8.16852003335952760000e-002) (15, -1.28284782171249390000e-001) (16, -5.85579238831996920000e-002) (17, 8.22470244020223620000e-003) (18, -4.24739383161067960000e-002) (19, 1.60139240324497220000e-002) (20, -3.79558727145195010000e-002) (21, 1.20045401155948640000e-001) (22, 1.00049287080764770000e-001) (23, -3.00551094114780430000e-002) (24, -3.51346172392368320000e-002) (25, 9.94124636054039000000e-002) (26, -4.82130497694015500000e-002) (27, -9.89868119359016420000e-003) (28, 9.67690348625183110000e-003) (29, 1.11153023317456250000e-003) (30, 9.08856838941574100000e-002) (31, -6.91973194479942320000e-002) (32, -1.63325563073158260000e-001) (33, -1.60146728157997130000e-001) (34, 9.91189014166593550000e-003) (35, -9.79541093111038210000e-002) (36, -8.99702087044715880000e-002) (37, -3.71785536408424380000e-002) (38, 3.32905463874340060000e-002) (39, -7.43999555706977840000e-002) (40, -1.06648094952106480000e-002) (41, 2.58681327104568480000e-002) (42, 2.63985581696033480000e-002) (43, 4.81797195971012120000e-002) (44, 3.69907431304454800000e-002) (45, 2.42788810282945630000e-002) (46, -1.34809181094169620000e-001) (47, 4.53028678894042970000e-002) (48, -1.63392014801502230000e-002) (49, -5.60103356838226320000e-002) (50, -1.24424420297145840000e-001) (51, -6.23703040182590480000e-002) (52, -1.24837353825569150000e-001) (53, 1.89600652083754540000e-003) (54, 3.67574803531169890000e-002) (55, -6.89002946019172670000e-002) (56, -1.29631534218788150000e-001) (57, 3.01309302449226380000e-002) (58, -5.42570054531097410000e-002) (59, 4.28082086145877840000e-002) (60, -3.81178893148899080000e-002) (61, 2.83072404563426970000e-002) (62, 2.81035080552101140000e-002) (63, -1.20346635580062870000e-001) (64, 2.11586188524961470000e-002) (65, 1.01825587451457980000e-001) (66, 7.25860744714736940000e-002) (67, 6.98211714625358580000e-002) (68, -2.52864118665456770000e-002) (69, -1.04754500091075900000e-001) (70, 3.12971659004688260000e-002) (71, -1.62006273865699770000e-001) (72, 2.49381642788648610000e-003) (73, 4.60971854627132420000e-002) (74, 4.69907969236373900000e-002) (75, 1.45538449287414550000e-001) (76, 2.05561593174934390000e-001) (77, 1.88857227563858030000e-001) (78, 1.56123891472816470000e-001) (79, 2.38076210021972660000e-001) (80, 2.41967499256134030000e-001) (81, -1.15762092173099520000e-001) (82, 5.85871189832687380000e-002) (83, 4.98654916882514950000e-002) (84, -6.84301480650901790000e-002) (85, 6.81369379162788390000e-002) (86, -3.90763916075229640000e-002) (87, 6.96608563885092740000e-003) (88, -5.45552521944046020000e-002) (89, -4.50917035341262820000e-002) (90, -8.84614884853363040000e-002) (91, -9.37280356884002690000e-002) (92, -7.36391842365264890000e-002) (93, 3.75700779259204860000e-002) (94, -1.97519697248935700000e-002) (95, -9.79404821991920470000e-002) (96, -3.32764275372028350000e-002) (97, -1.25064730644226070000e-001) (98, -1.08909057453274730000e-002) (99, 3.60415101051330570000e-001) (0, -1.50000000000000000000e+003) (1, 2.25427031517028810000e-001) (2, 1.15553027343750000000e+003) (3, 2.96175092458724980000e-001) (4, 4.15339320898056030000e-002) (5, 2.29626700282096860000e-001) (6, 2.20105215907096860000e-001) (7, 1.88973814249038700000e-001) (8, 3.01547378301620480000e-001) (9, 7.12186002731323240000e+000) (10, 9.46941280364990230000e+000) (11, 3.16741108894348140000e-001) (12, 5.55494248867034910000e-001) (13, 2.21864908933639530000e-001) (14, 1.56360149383544920000e-001) (15, 1.70561596751213070000e-001) (16, 3.22594583034515380000e-001) (17, 3.36183786392211910000e-001) (18, 1.53157323598861690000e-001) (19, 1.08601905405521390000e-001) (20, 3.44439804553985600000e-001) (21, 7.22533941268920900000e-001) (22, 5.83317995071411130000e+000) (23, 1.12484483718872070000e+001) (24, 2.64580326080322270000e+001) (25, 1.75223290920257570000e+000) (26, 5.27043521404266360000e-001) (27, 3.25474709272384640000e-001) (28, 2.42105737328529360000e-001) (29, 3.41248691082000730000e-001) (30, 2.63877004384994510000e-001) (31, 2.51244276762008670000e-001) (32, 2.07519993185997010000e-001) (33, 2.81175345182418820000e-001) (34, 3.11765760183334350000e-001) (35, 3.09247910976409910000e-001) (36, 3.61644655466079710000e-001) (37, 3.75884771347045900000e-001) (38, 2.60089397430419920000e-001) (39, 3.70279848575592040000e-001) (40, 3.23674201965332030000e-001) (41, 2.80766427516937260000e-001) (42, 8.12105834484100340000e-002) (43, 7.17869472503662110000e+000) (44, 3.99618797302246090000e+001) (45, 4.01289031982421870000e+002) (46, 1.67556198120117190000e+002) (47, 1.05943918228149410000e+001) (48, 7.05630123615264890000e-001) (49, 4.25276100635528560000e-001) (50, 1.26140058040618900000e-001) (51, 6.98835313320159910000e-001) (52, 5.40279507637023930000e-001) (53, 2.23203629255294800000e-001) (54, 1.59343630075454710000e-001) (55, 2.25010678172111510000e-001) (56, 3.21234494447708130000e-001) (57, 2.99329787492752080000e-001) (58, 2.98529535531997680000e-001) (59, 3.74224829673767090000e+000) (60, 7.62803196907043460000e-001) (61, 3.46098542213439940000e-001) (62, 3.89593273401260380000e-001) (63, 3.81771534681320190000e-001) (64, 2.75874048471450810000e-001) (65, 2.81880080699920650000e-001) (66, 2.50526785850524900000e-001) (67, 3.52528512477874760000e-001) (68, 3.18589508533477780000e-001) (69, 3.64248692989349370000e-001) (70, 8.11547189950942990000e-002) (71, 3.22675436735153200000e-001) (72, 3.54070633649826050000e-001) (73, 3.52281153202056880000e-001) (74, 3.16449016332626340000e-001) (75, 4.59480494260787960000e-001) (76, 2.60565114021301270000e+000) (77, 1.08410243988037110000e+001) (78, 5.33209383487701420000e-001) (79, 4.14751440286636350000e-001) (80, 3.17733228206634520000e-001) (81, 2.48468518257141110000e-001) (82, 4.15414065122604370000e-001) (83, 2.77489751577377320000e-001) (84, 5.91278851032257080000e-001) (85, 1.35213637351989750000e+000) (86, 1.05673038959503170000e+000) (87, 4.23914432525634770000e-001) (88, 3.13481152057647710000e-001) (89, 2.73253560066223140000e-001) (90, 1.22780054807662960000e-001) (91, 2.65722960233688350000e-001) (92, -1.57125648111104970000e-002) (93, 5.64826667308807370000e-001) (94, 2.36826095581054690000e+002) (95, 1.33357223510742190000e+002) (96, 1.28115524291992190000e+002) (97, 1.48704957962036130000e+001) (98, 8.70071640014648440000e+001) (99, 4.53003265380859370000e+002) (0, 4.09237533807754520000e-001) (1, 1.59639537334442140000e-001) (2, 2.27348908782005310000e-001) (3, -6.10093057155609130000e-001) (4, 2.90492117404937740000e-001) (5, -1.10374979674816130000e-001) (6, -1.13279506564140320000e-001) (7, -6.56304180622100830000e-001) (8, -9.01089608669281010000e-001) (9, -8.95162045955657960000e-001) (10, -9.13967788219451900000e-001) (11, -6.04848086833953860000e-001) (12, 3.37285637855529790000e-001) (13, 3.58163326978683470000e-001) (14, 2.97044932842254640000e-001) (15, 2.68283307552337650000e-001) (16, 6.86685293912887570000e-002) (17, -6.78347647190093990000e-001) (18, 2.69630432128906250000e-001) (19, -5.48126280307769780000e-001) (20, -5.60141503810882570000e-001) (21, 2.98400789499282840000e-001) (22, 1.70563057065010070000e-001) (23, 1.65861219167709350000e-001) (24, 2.46513381600379940000e-001) (25, 2.02682673931121830000e-001) (26, 3.28487277030944820000e-001) (27, 3.28248798847198490000e-001) (28, 3.07145178318023680000e-001) (29, 2.13729307055473330000e-001) (30, 2.18282684683799740000e-001) (31, 1.64662972092628480000e-001) (32, 1.97193667292594910000e-001) (33, 3.08864921331405640000e-001) (34, 2.77918338775634770000e-001) (35, 3.31158310174942020000e-001) (36, 2.70055830478668210000e-001) (37, 2.65458405017852780000e-001) (38, -2.69606560468673710000e-001) (39, -2.98964887857437130000e-001) (40, -2.84148603677749630000e-001) (41, -3.36240857839584350000e-001) (42, -3.73975306749343870000e-001) (43, -3.25725942850112920000e-001) (44, -3.41913044452667240000e-001) (45, -2.86186844110488890000e-001) (46, -3.90227377414703370000e-001) (47, -3.51540446281433110000e-001) (48, -4.25879269838333130000e-001) (49, -2.45323941111564640000e-001) (50, -3.03333967924118040000e-001) (51, -1.38307929039001460000e+000) (52, -1.09195923805236820000e+000) (53, -6.28190159797668460000e-001) (54, -4.78771179914474490000e-001) (55, -6.27812027931213380000e-001) (56, 1.72670483589172360000e-001) (57, 2.98512190580368040000e-001) (58, 2.73442536592483520000e-001) (59, 2.43558496236801150000e-001) (60, 2.13802903890609740000e-001) (61, 2.13948369026184080000e-001) (62, 3.12318533658981320000e-001) (63, 2.41268724203109740000e-001) (64, 3.87782752513885500000e-001) (65, 2.52471029758453370000e-001) (66, 2.58426517248153690000e-001) (67, 1.47527649998664860000e-001) (68, 1.49200022220611570000e-001) (69, 2.00299397110939030000e-001) (70, 3.33497166633605960000e-001) (71, 1.38646617531776430000e-001) (72, 1.26712873578071590000e-001) (73, 1.77943781018257140000e-001) (74, 3.04025202989578250000e-001) (75, 2.29907363653182980000e-001) (76, -4.91657890379428860000e-002) (77, -5.27883410453796390000e-001) (78, -2.44837522506713870000e-001) (79, 1.92387804388999940000e-001) (80, 2.61999875307083130000e-001) (81, 2.27167218923568730000e-001) (82, 2.63065457344055180000e-001) (83, 2.15966627001762390000e-001) (84, 2.23843470215797420000e-001) (85, 1.00265122950077060000e-001) (86, 2.16552048921585080000e-001) (87, 3.31657439470291140000e-001) (88, 1.57517641782760620000e-001) (89, 3.47327828407287600000e-001) (90, 1.85640797019004820000e-001) (91, 2.69063442945480350000e-001) (92, 3.04341107606887820000e-001) (93, 2.05544635653495790000e-001) (94, -3.60243380069732670000e-001) (95, 3.26130211353302000000e-001) (96, -1.07734620571136470000e+000) (97, -4.27554845809936520000e-001) (98, -4.03169900178909300000e-001) (99, 8.76872017979621890000e-002) (0, 2.29233562946319580000e-001) (1, 1.57383099198341370000e-001) (2, -5.75737416744232180000e-001) (3, -2.72134923934936520000e+000) (4, -1.28527926281094550000e-002) (5, 1.17431702092289920000e-002) (6, 2.49519452452659610000e-001) (7, 1.24108642339706420000e-001) (8, 5.20972199738025670000e-002) (9, 6.36190772056579590000e-002) (10, 1.07956595718860630000e-001) (11, 5.92149347066879270000e-002) (12, 1.25427648425102230000e-001) (13, 3.10775160789489750000e-001) (14, 1.75830826163291930000e-001) (15, 2.04940095543861390000e-001) (16, -4.75158579647541050000e-002) (17, -3.39912295341491700000e-001) (18, 1.66448324918746950000e-001) (19, 2.02621087431907650000e-001) (20, 3.47587376832962040000e-001) (21, 2.46522054076194760000e-001) (22, 2.24144414067268370000e-001) (23, 2.33769580721855160000e-001) (24, -2.43381753563880920000e-001) (25, 3.01808446645736690000e-001) (26, 2.67068892717361450000e-001) (27, 2.92091071605682370000e-001) (28, 3.04313838481903080000e-001) (29, 3.26157003641128540000e-001) (30, 1.06437765061855320000e-001) (31, 1.22439652681350710000e-001) (32, 2.19568535685539250000e-001) (33, 1.98145374655723570000e-001) (34, 2.94175833463668820000e-001) (35, 3.90348047018051150000e-001) (36, 3.09084534645080570000e-001) (37, 4.69346404075622560000e-001) (38, 3.27231645584106450000e-001) (39, 4.17295366525650020000e-001) (40, 2.32134625315666200000e-001) (41, 1.29734566435217860000e-002) (42, 2.40625217556953430000e-001) (43, 2.08550974726676940000e-001) (44, 2.81874030828475950000e-001) (45, 2.33646973967552190000e-001) (46, 2.47679859399795530000e-001) (47, 2.94237315654754640000e-001) (48, 3.47620785236358640000e-001) (49, 2.96122938394546510000e-001) (50, 2.49148577451705930000e-001) (51, 8.62685739994049070000e-002) (52, 1.66738942265510560000e-001) (53, 2.49874174594879150000e-001) (54, 2.40866720676422120000e-001) (55, 1.22117288410663600000e-001) (56, 1.17841169238090520000e-001) (57, 3.67299504578113560000e-002) (58, 9.73366647958755490000e-002) (59, 1.43647730350494380000e-001) (60, 2.70402729511260990000e-001) (61, -1.05410115793347360000e-002) (62, 2.82076653093099590000e-002) (63, 2.65868693590164180000e-001) (64, 2.22537428140640260000e-001) (65, 2.64640241861343380000e-001) (66, 1.26650020480155940000e-001) (67, -1.07592575252056120000e-001) (68, -1.63259133696556090000e-001) (69, -1.30641400814056400000e-001) (70, 1.27197712659835820000e-001) (71, 6.17698431015014650000e-002) (72, -1.43278336524963380000e+000) (73, -4.42712754011154170000e-001) (74, 5.84473572671413420000e-002) (75, -1.61538928747177120000e-001) (76, -1.42683207988739010000e-001) (77, -2.75290220975875850000e-001) (78, -4.45251390337944030000e-002) (79, 1.27120688557624820000e-001) (80, 1.78203776478767400000e-001) (81, 7.81472027301788330000e-002) (82, -3.47224622964859010000e-002) (83, -1.45533129572868350000e-001) (84, -4.59711194038391110000e-001) (85, 1.22791729867458340000e-001) (86, 1.85440734028816220000e-001) (87, -7.37401023507118230000e-002) (88, 1.32519245147705080000e-001) (89, 1.49296432733535770000e-001) (90, 2.22367689013481140000e-001) (91, 1.89152717590332030000e-001) (92, -2.21607044339179990000e-001) (93, 2.84306891262531280000e-002) (94, 1.80682569742202760000e-001) (95, 4.12179343402385710000e-002) (96, 5.76699338853359220000e-002) (97, 1.61683171987533570000e-001) (98, 2.12833032011985780000e-001) (99, -1.08560493469238280000e+002) (0, -7.55191230773925780000e+000) (1, -4.52869236469268800000e-002) (2, 2.93555110692977910000e-001) (3, -2.94337660074234010000e-001) (4, -1.29224628210067750000e-001) (5, -4.49892245233058930000e-002) (6, -6.66356012225151060000e-002) (7, 2.00405463576316830000e-001) (8, 1.35646805167198180000e-001) (9, 1.31119340658187870000e-001) (10, 6.15045316517353060000e-002) (11, 1.56239971518516540000e-001) (12, 4.55734096467494960000e-002) (13, -2.22238644957542420000e-001) (14, -2.49981731176376340000e-001) (15, -2.70747065544128420000e-001) (16, -9.30653750896453860000e-001) (17, -2.54162132740020750000e-001) (18, -7.32762459665536880000e-003) (19, -1.28738299012184140000e-001) (20, 2.80520319938659670000e-002) (21, -5.29302433133125310000e-002) (22, 1.01241596043109890000e-001) (23, 1.01653404533863070000e-001) (24, 9.88793596625328060000e-002) (25, 9.68546047806739810000e-003) (26, -2.33165286481380460000e-002) (27, 1.96033362299203870000e-002) (28, 7.13495835661888120000e-002) (29, 1.10098987817764280000e-001) (30, -2.88891047239303590000e-002) (31, 1.15135781466960910000e-001) (32, 1.25451609492301940000e-002) (33, -3.58901359140872960000e-003) (34, 1.08313888311386110000e-001) (35, 6.48167207837104800000e-002) (36, 1.04450494050979610000e-001) (37, 2.45037600398063660000e-001) (38, 1.93022772669792180000e-001) (39, 1.74593001604080200000e-001) (40, 1.42377391457557680000e-001) (41, -2.05696091055870060000e-001) (42, -4.07700359821319580000e-001) (43, -2.64261096715927120000e-001) (44, 2.31323745101690290000e-002) (45, -2.75648366659879680000e-002) (46, 1.39182940125465390000e-001) (47, 3.57646584510803220000e-001) (48, 5.91061562299728390000e-002) (49, -7.93799459934234620000e-002) (50, -5.62017634510993960000e-002) (51, 1.06914877891540530000e-001) (52, 1.95652022957801820000e-002) (53, -3.70703153312206270000e-002) (54, -8.54039713740348820000e-002) (55, 2.17962469905614850000e-002) (56, 7.36749265342950820000e-003) (57, 6.89438134431838990000e-002) (58, 6.43056631088256840000e-002) (59, 8.12115818262100220000e-002) (60, 2.86210682243108750000e-002) (61, 1.37867391109466550000e-001) (62, 1.10902257263660430000e-001) (63, 1.80179789662361150000e-001) (64, 1.21006004512310030000e-001) (65, 1.03671446442604060000e-001) (66, 1.81164816021919250000e-001) (67, 1.92030221223831180000e-001) (68, 1.37119710445404050000e-001) (69, 1.62934839725494380000e-001) (70, -3.06744556874036790000e-002) (71, 1.99070870876312260000e-001) (72, 1.41696527600288390000e-001) (73, -7.43456259369850160000e-002) (74, 1.19817648082971570000e-002) (75, -2.60264664888381960000e-001) (76, -1.64412379264831540000e+000) (77, -7.87817299365997310000e-001) (78, -2.24202930927276610000e-001) (79, -1.30348531529307370000e-002) (80, -7.52522349357604980000e-002) (81, 3.70108447968959810000e-002) (82, -7.76055753231048580000e-002) (83, 1.71587422490119930000e-001) (84, 3.56562286615371700000e-002) (85, 1.27891421318054200000e-001) (86, 5.47223947942256930000e-002) (87, 2.61779278516769410000e-002) (88, 1.33988678455352780000e-001) (89, 6.80041313171386720000e-002) (90, 2.82749868929386140000e-002) (91, 8.18702653050422670000e-002) (92, 1.85801461338996890000e-002) (93, -3.29901091754436490000e-002) (94, 2.73180663585662840000e-001) (95, 2.59810119867324830000e-001) (96, 2.14193776249885560000e-001) (97, 5.69511316716670990000e-002) (98, 6.20051752775907520000e-003) (99, 2.12854499816894530000e+001) (0, -3.50698083639144900000e-002) (1, 1.49726897478103640000e-001) (2, 8.20776298642158510000e-002) (3, 2.94484775513410570000e-002) (4, -1.31120711565017700000e-001) (5, -5.00700660049915310000e-002) (6, -1.63162484765052800000e-001) (7, -7.79078379273414610000e-002) (8, -7.59137496352195740000e-002) (9, -1.45292850211262700000e-002) (10, -1.55003353953361510000e-001) (11, 2.73758620023727420000e-002) (12, 2.44675129652023320000e-002) (13, 1.33903294801712040000e-001) (14, -1.05040827766060830000e-002) (15, 1.44397228956222530000e-001) (16, 4.58657089620828630000e-003) (17, 1.32331669330596920000e-001) (18, 8.13887715339660640000e-002) (19, 8.23455490171909330000e-003) (20, 8.70748087763786320000e-002) (21, 6.47986903786659240000e-002) (22, 5.46476542949676510000e-002) (23, 2.00947150588035580000e-002) (24, -3.73950228095054630000e-003) (25, 2.63555590063333510000e-002) (26, 8.83738622069358830000e-002) (27, 1.14253759384155270000e-001) (28, -1.67627837508916850000e-002) (29, 4.71348948776721950000e-002) (30, 1.97352737188339230000e-001) (31, 1.27004966139793400000e-001) (32, 6.81554973125457760000e-002) (33, 1.18304550647735600000e-001) (34, 1.24797374010086060000e-001) (35, 1.72157794237136840000e-001) (36, -2.01978217810392380000e-002) (37, 1.20064951479434970000e-001) (38, 1.18805386126041410000e-001) (39, 1.28271847963333130000e-001) (40, 2.23712116479873660000e-001) (41, 2.21408575773239140000e-001) (42, 2.61251747608184810000e-001) (43, 5.64282722771167760000e-002) (44, 3.84425222873687740000e-002) (45, 1.36880040168762210000e-001) (46, 1.48938789963722230000e-001) (47, 9.04756039381027220000e-002) (48, 2.95368973165750500000e-002) (49, 9.85478982329368590000e-002) (50, 2.19291504472494130000e-002) (51, -1.55599117279052730000e-001) (52, 1.01358979940414430000e-001) (53, 1.19872033596038820000e-001) (54, 9.62556712329387660000e-003) (55, 5.31033091247081760000e-002) (56, -1.37823671102523800000e-001) (57, -5.09281679987907410000e-002) (58, -5.67457973957061770000e-002) (59, -1.06317125260829930000e-001) (60, -1.30352929234504700000e-001) (61, -2.07809239625930790000e-001) (62, -6.74581602215766910000e-002) (63, -2.52513736486434940000e-001) (64, -1.19623541831970210000e-001) (65, -2.26070374250411990000e-001) (66, -2.15777322649955750000e-001) (67, -1.31896063685417180000e-001) (68, -1.63320109248161320000e-001) (69, -1.77496269345283510000e-001) (70, -1.72288209199905400000e-001) (71, -1.39833435416221620000e-001) (72, -3.03144216537475590000e-001) (73, -2.77689099311828610000e-001) (74, 1.01131975650787350000e-001) (75, 1.27438321709632870000e-001) (76, 1.36557802557945250000e-001) (77, 1.54182866215705870000e-001) (78, 1.89359769225120540000e-001) (79, 1.28793716430664060000e-001) (80, 1.41701042652130130000e-001) (81, 9.41524729132652280000e-002) (82, -2.03400418162345890000e-001) (83, -1.73721775412559510000e-001) (84, -1.47489368915557860000e-001) (85, 7.17544415965676310000e-003) (86, -2.19133645296096800000e-002) (87, 8.26994180679321290000e-002) (88, 6.09733127057552340000e-002) (89, 7.77856707572937010000e-002) (90, -1.00713483989238740000e-001) (91, -1.16890512406826020000e-001) (92, -7.48393461108207700000e-002) (93, -1.81143000721931460000e-001) (94, -1.08808122575283050000e-001) (95, 1.01628661155700680000e-001) (96, 1.43224999308586120000e-001) (97, -4.20082472264766690000e-002) (98, -6.18428252637386320000e-002) (99, -3.55015009641647340000e-001) (0, 7.59037882089614870000e-002) (1, 1.95416645146906380000e-003) (2, -3.00704315304756160000e-002) (3, -5.02275265753269200000e-002) (4, 4.57124449312686920000e-002) (5, 1.24500757083296780000e-002) (6, 3.03127635270357130000e-002) (7, 1.14958338439464570000e-001) (8, 7.17668160796165470000e-002) (9, 1.45136147737503050000e-001) (10, 1.65233423467725520000e-003) (11, -1.11850881949067120000e-002) (12, 5.02885952591896060000e-002) (13, -9.87974274903535840000e-003) (14, 4.53322045505046840000e-002) (15, -7.58242681622505190000e-002) (16, -1.53876259922981260000e-001) (17, -1.28667894750833510000e-002) (18, -3.12562137842178340000e-002) (19, -4.53040413558483120000e-002) (20, -2.07597333937883380000e-002) (21, -8.16019475460052490000e-002) (22, -9.24092680215835570000e-002) (23, -7.83048570156097410000e-002) (24, 4.10518981516361240000e-002) (25, -1.02698750793933870000e-001) (26, 8.00357460975646970000e-002) (27, 9.34482645243406300000e-003) (28, -4.02692845091223720000e-003) (29, 5.78043796122074130000e-002) (30, -5.08988089859485630000e-002) (31, -4.29202802479267120000e-002) (32, -1.39102553948760030000e-002) (33, -7.03452527523040770000e-002) (34, 8.98609682917594910000e-002) (35, -8.39205235242843630000e-002) (36, 8.71229171752929690000e-002) (37, 7.36930668354034420000e-002) (38, 7.72186368703842160000e-002) (39, 1.11840330064296720000e-001) (40, 2.01968960464000700000e-002) (41, 2.50429306179285050000e-002) (42, -1.10978223383426670000e-001) (43, -9.65827479958534240000e-002) (44, -8.39368999004364010000e-002) (45, -1.04889214038848880000e-001) (46, 3.10485064983367920000e-002) (47, 4.03295569121837620000e-002) (48, 4.75522726774215700000e-002) (49, 3.41209233738482000000e-003) (50, 5.69417513906955720000e-002) (51, -1.05531819164752960000e-001) (52, 1.33739057928323750000e-002) (53, -2.31746025383472440000e-002) (54, -2.10982095450162890000e-002) (55, 7.74892605841159820000e-003) (56, -7.46438130736351010000e-002) (57, 6.12679272890090940000e-002) (58, 9.71497967839241030000e-002) (59, -2.47256495058536530000e-002) (60, -1.56524665653705600000e-002) (61, 1.98591407388448720000e-002) (62, 1.27412453293800350000e-001) (63, 1.00997164845466610000e-001) (64, 2.96668242663145070000e-002) (65, 7.17872977256774900000e-002) (66, 1.37795940041542050000e-001) (67, 7.25496858358383180000e-002) (68, 4.51831966638565060000e-002) (69, 5.05911223590373990000e-002) (70, 5.83843328058719640000e-003) (71, -1.25295007601380350000e-002) (72, -6.02540411055088040000e-002) (73, -8.60910862684249880000e-002) (74, 2.23561525344848630000e-002) (75, 1.46010750904679300000e-003) (76, 4.77060722187161450000e-003) (77, 1.04622384533286090000e-002) (78, -5.26761682704091070000e-003) (79, 9.43463072180747990000e-002) (80, 6.21826723217964170000e-002) (81, -1.17263108491897580000e-001) (82, -1.29624277353286740000e-001) (83, 3.91791686415672300000e-002) (84, 9.68367606401443480000e-002) (85, 7.91274476796388630000e-003) (86, -2.97463443130254750000e-002) (87, 1.04393430054187770000e-001) (88, -5.14356978237628940000e-002) (89, -2.89477445185184480000e-002) (90, -3.33013571798801420000e-002) (91, -5.80499060451984410000e-002) (92, -9.86336395144462590000e-002) (93, -4.33193519711494450000e-002) (94, -5.57127669453620910000e-002) (95, -6.20059110224246980000e-002) (96, -4.11268975585699080000e-003) (97, 6.58066421747207640000e-002) (98, 1.06980957090854640000e-001) (99, -4.65507221221923830000e+000) (0, -3.30033861100673680000e-002) (1, 6.32416978478431700000e-002) (2, -7.03358426690101620000e-002) (3, 3.78616005182266240000e-002) (4, 8.99347513914108280000e-002) (5, -9.55986753106117250000e-002) (6, -1.01123200729489330000e-002) (7, 1.66004952043294910000e-002) (8, 3.04810591042041780000e-002) (9, 1.52053549885749820000e-001) (10, 4.71288003027439120000e-002) (11, -2.89835706353187560000e-002) (12, 3.10706254094839100000e-002) (13, 1.43635585904121400000e-001) (14, 9.88574326038360600000e-002) (15, 8.56145918369293210000e-002) (16, 5.36468923091888430000e-002) (17, 1.06198643334209920000e-003) (18, 7.15900436043739320000e-002) (19, -1.35859638452529910000e-001) (20, 4.96937334537506100000e-002) (21, 4.74705658853054050000e-002) (22, -1.16387084126472470000e-001) (23, 3.54280024766922000000e-002) (24, 5.40544092655181880000e-002) (25, -1.25356633216142650000e-002) (26, 8.44305455684661870000e-002) (27, 6.43187761306762700000e-002) (28, 5.41438721120357510000e-002) (29, -5.86589984595775600000e-003) (30, 9.16988030076026920000e-002) (31, 2.07622461020946500000e-002) (32, 1.11971676349639890000e-001) (33, 8.92438832670450210000e-003) (34, -5.75587293133139610000e-003) (35, -4.80391979217529300000e-002) (36, 9.13742091506719590000e-003) (37, -2.80428230762481690000e-002) (38, 1.05324937030673030000e-002) (39, 1.67185384780168530000e-002) (40, -9.79000777006149290000e-002) (41, -9.43975895643234250000e-002) (42, -1.64351463317871090000e-002) (43, 2.32392270117998120000e-002) (44, -2.63123009353876110000e-002) (45, -8.28246399760246280000e-002) (46, -1.62445679306983950000e-002) (47, 1.11685311421751980000e-002) (48, 9.68889296054840090000e-002) (49, -3.08032147586345670000e-002) (50, 8.01395345479249950000e-003) (51, 1.18296444416046140000e-001) (52, -1.01942969486117360000e-002) (53, 6.75620287656784060000e-002) (54, -9.45953205227851870000e-002) (55, -1.35826796293258670000e-001) (56, 7.60595202445983890000e-002) (57, -2.15017539449036120000e-003) (58, 4.42194081842899320000e-002) (59, 9.98135060071945190000e-002) (60, 1.19204953312873840000e-001) (61, 1.62141829729080200000e-001) (62, 9.23005193471908570000e-002) (63, 1.81926578283309940000e-001) (64, 1.87909275293350220000e-001) (65, 7.96274393796920780000e-002) (66, 5.71116991341114040000e-002) (67, 1.89123526215553280000e-001) (68, -9.55990627408027650000e-002) (69, -2.10590008646249770000e-002) (70, -3.01754157990217210000e-002) (71, 5.91123439371585850000e-002) (72, 6.29643425345420840000e-002) (73, -1.43751069903373720000e-001) (74, -4.06845519319176670000e-003) (75, -1.28406852483749390000e-001) (76, -5.89101873338222500000e-002) (77, -5.28282374143600460000e-002) (78, -5.38736209273338320000e-002) (79, -1.11799634993076320000e-001) (80, -1.37536272406578060000e-001) (81, -2.36672237515449520000e-001) (82, 3.04116196930408480000e-002) (83, -2.85028219223022460000e-001) (84, -1.67142674326896670000e-002) (85, 3.64490300416946410000e-002) (86, 6.66614174842834470000e-002) (87, 1.21503360569477080000e-001) (88, 1.53260231018066410000e-001) (89, 1.61734700202941890000e-001) (90, 1.96163788437843320000e-001) (91, -4.03467081487178800000e-002) (92, 1.31688728928565980000e-001) (93, 1.33442312479019170000e-001) (94, 1.89767349511384960000e-002) (95, 1.09407439827919010000e-001) (96, 5.32037243247032170000e-002) (97, -5.90073466300964360000e-002) (98, -1.99554245918989180000e-002) (99, 7.33350324630737300000e+000) (0, 1.22188359498977660000e-001) (1, 2.25507114082574840000e-002) (2, 9.60149168968200680000e-002) (3, -1.49190604686737060000e-001) (4, -1.31674945354461670000e-001) (5, -1.50776490569114690000e-001) (6, -2.88243889808654790000e-001) (7, -3.24657261371612550000e-001) (8, -1.95756509900093080000e-001) (9, -1.37713015079498290000e-001) (10, -1.01699434220790860000e-001) (11, 1.66200846433639530000e-002) (12, 1.20810031890869140000e-001) (13, 2.31239959597587590000e-001) (14, 3.42706702649593350000e-002) (15, 1.85659468173980710000e-001) (16, 1.09261915087699890000e-001) (17, 1.22267194092273710000e-001) (18, 1.94169193506240840000e-001) (19, 1.41098096966743470000e-001) (20, 1.19693852961063390000e-001) (21, 1.36771440505981450000e-001) (22, 1.57535538077354430000e-001) (23, 1.72817990183830260000e-001) (24, 1.21128171682357790000e-001) (25, 1.22162662446498870000e-001) (26, 1.02793440222740170000e-001) (27, 1.42263993620872500000e-001) (28, 7.95988831669092180000e-003) (29, 9.48531329631805420000e-002) (30, 1.52553617954254150000e-001) (31, 4.36431318521499630000e-002) (32, 1.69360607862472530000e-001) (33, 1.17985054850578310000e-001) (34, 5.60684949159622190000e-002) (35, 6.30570873618125920000e-002) (36, 7.01621696352958680000e-002) (37, 8.20319503545761110000e-002) (38, 1.52091279625892640000e-001) (39, 1.48291289806365970000e-002) (40, 2.09877267479896550000e-002) (41, 3.91469784080982210000e-002) (42, 1.51639401912689210000e-001) (43, -2.25000437349081040000e-002) (44, 1.71533480286598210000e-001) (45, 3.10122258961200710000e-002) (46, 4.88666519522666930000e-002) (47, 1.19673714041709900000e-001) (48, 3.76684106886386870000e-002) (49, 6.29640892148017880000e-002) (50, 1.64087742567062380000e-001) (51, -9.27153602242469790000e-003) (52, 1.38243615627288820000e-001) (53, 7.40113928914070130000e-002) (54, 6.01844564080238340000e-002) (55, 